{"model_data": {"model": "SimpleRNN", "input_size": 1, "skip": 1, "output_size": 1, "unit_type": "LSTM", "num_layers": 1, "hidden_size": 20, "bias_fl": true}, "state_dict": {"rec.weight_ih_l0": [[0.02113688364624977], [-0.09163697063922882], [-0.012489546090364456], [0.08125869184732437], [-0.009481183253228664], [0.014237962663173676], [0.012394883669912815], [-0.18740463256835938], [0.15542268753051758], [-0.04331093281507492], [0.11880240589380264], [-0.036018531769514084], [0.026634456589818], [0.1627160906791687], [-0.058274440467357635], [-0.14478391408920288], [-0.017250457778573036], [0.17254164814949036], [-0.23387767374515533], [-0.10940752178430557], [0.025640549138188362], [-0.13729576766490936], [-0.06310636550188065], [0.13055908679962158], [-0.0005395918851718307], [-0.053948596119880676], [0.04824543371796608], [-0.3406160771846771], [0.07359206676483154], [0.05882753059267998], [0.02529938705265522], [-0.08880355209112167], [0.025994163006544113], [0.3033733665943146], [-0.2471000701189041], [-0.20393994450569153], [-0.06974638998508453], [0.20692583918571472], [-0.1898210495710373], [-0.1896664798259735], [0.10751065611839294], [-0.5922800898551941], [0.6071720719337463], [0.16253988444805145], [-0.4892922341823578], [-0.15655946731567383], [-0.04229670390486717], [0.7619689702987671], [-0.049106061458587646], [1.1503932476043701], [1.5399576425552368], [0.9804956912994385], [-0.14453621208667755], [0.2590019702911377], [0.23654015362262726], [0.2684330642223358], [0.11232776194810867], [1.0885155200958252], [0.7033658623695374], [-0.18360835313796997], [0.023097941651940346], [0.13583306968212128], [-0.24099192023277283], [0.11338116973638535], [-0.14509236812591553], [-0.08968910574913025], [0.000713929592166096], [-0.3470888137817383], [0.1467939168214798], [0.028027866035699844], [-0.08866817504167557], [-0.005768201779574156], [0.009708395227789879], [0.21521630883216858], [-0.1944027543067932], [-0.19192926585674286], [0.10821566730737686], [0.14886274933815002], [-0.3250987231731415], [-0.23455296456813812]], "rec.weight_hh_l0": [[-0.10416004061698914, -0.07574541121721268, 0.10195630043745041, 0.10966882854700089, -0.08794980496168137, 0.10565343499183655, 0.08793257176876068, -0.036390990018844604, -0.05933540686964989, -0.07261002063751221, -0.09014533460140228, 0.0050162216648459435, -0.07453975826501846, -0.24114584922790527, 0.08960336446762085, -0.08339083194732666, -0.12551823258399963, 0.07023204863071442, -0.10913931578397751, 0.003435073886066675], [0.08495603501796722, 0.10422978550195694, 0.07878866046667099, 0.4951363503932953, -0.2538977265357971, -0.10060783475637436, -0.09922339767217636, 0.4314176142215729, -0.2828391194343567, 0.2623234987258911, -0.05909803509712219, -0.1721428483724594, -0.2247430831193924, 0.0847146213054657, -0.00393505347892642, -0.027513734996318817, 0.08356820791959763, -0.04876355454325676, -0.012829308398067951, 0.24411846697330475], [0.06438804417848587, -0.033460721373558044, -0.3012304902076721, -0.0720120370388031, 0.2812482714653015, 0.1995212435722351, -0.023463506251573563, -0.12203115224838257, 0.210027813911438, 0.24146467447280884, 0.1004410982131958, 0.12688091397285461, -0.055990464985370636, -0.016908908262848854, -0.010935072787106037, -0.01563211902976036, -0.039373692125082016, 0.012101239524781704, 0.05623246356844902, 0.005665703676640987], [0.046154435724020004, 0.02161339856684208, -0.12052859365940094, 0.021793430671095848, -0.0034948913380503654, 0.01977897249162197, -0.029701724648475647, 0.1965503692626953, 0.08488652110099792, 0.12530279159545898, 0.03731725737452507, 0.04176488518714905, -0.01957693323493004, 0.03634633123874664, 0.13016150891780853, -0.0004609807801898569, 0.02502572536468506, 0.08036667108535767, 0.03343042731285095, 0.03770385682582855], [-0.05879543721675873, -0.11348849534988403, -0.07095328718423843, 0.12236731499433517, 0.03110348805785179, 0.02897195890545845, 0.08571746945381165, -0.017553940415382385, -0.11282769590616226, -0.02403200976550579, -0.007636145688593388, -0.014571521431207657, -0.02181592397391796, -0.12544728815555573, 0.1011238694190979, -0.09327773004770279, 0.06300254166126251, 0.07457820326089859, 0.013531027361750603, 0.03692777454853058], [-0.05069641023874283, -0.12733617424964905, 0.01341324858367443, 0.087677501142025, -0.05610525235533714, 0.1122177392244339, 0.025773681700229645, 0.08646311610937119, -0.09518852829933167, 0.027435025200247765, 0.22507140040397644, 0.03753043711185455, -0.09393176436424255, -0.0755331888794899, 0.07737669348716736, 0.00925584975630045, -0.12264953553676605, 0.1673302948474884, 0.06856926530599594, -0.002019429113715887], [-0.1185416504740715, 0.01082841120660305, 0.023635851219296455, 0.02605390176177025, 0.008636797778308392, -0.08348766714334488, 0.12120139598846436, -0.08604676276445389, -0.10421840846538544, -0.17533181607723236, -0.1491192728281021, -0.05763457342982292, -0.01405087299644947, -0.18008990585803986, 0.015420902520418167, -0.08710633963346481, 0.021816490218043327, 0.019398637115955353, -0.09784001111984253, 0.007680406328290701], [-0.012671569362282753, -0.10027351975440979, 0.06444260478019714, 0.05674900487065315, 0.07158011943101883, 0.06685882061719894, -0.04734142869710922, -0.018576057627797127, 0.12181361764669418, 0.08503591269254684, -0.017974957823753357, 0.007620925083756447, -0.14287395775318146, -0.08360251784324646, 0.09247763454914093, -0.03570308908820152, -0.12948207557201385, -0.007977379485964775, -0.016708040609955788, 0.08520340174436569], [-0.007382769603282213, 0.08659360557794571, 0.21970748901367188, -0.03919629380106926, -0.17413243651390076, -0.01740330271422863, 0.03164543956518173, 0.0038912345189601183, -0.04286777973175049, -0.0276730228215456, 0.0828099325299263, 0.11338648200035095, -0.09271098673343658, -0.014886346645653248, -0.11886368691921234, 0.012945577502250671, -0.02798212133347988, 0.135349839925766, -0.04257901757955551, 0.007907199673354626], [0.036697156727313995, 0.12322784215211868, -0.24100564420223236, -0.12749294936656952, 0.07097499817609787, -0.045590080320835114, -0.003813412506133318, -0.03971492871642113, 0.15558941662311554, -0.0695047602057457, -0.07874909788370132, 0.029000047594308853, 0.02664717100560665, 0.14946289360523224, -0.13344988226890564, 0.03059372864663601, 0.0929984375834465, -0.09807044267654419, -0.023323651403188705, -0.019307075068354607], [0.2971813380718231, -0.09503282606601715, -0.011443630792200565, 0.009340251795947552, 0.32538795471191406, 0.05839817225933075, -0.2649322748184204, -0.15477409958839417, 0.1284933090209961, 0.16945312917232513, 0.1408969610929489, 0.21354910731315613, 0.18053244054317474, 0.3411846160888672, -0.2920076251029968, -0.01599867269396782, -0.04769012704491615, 0.10497374087572098, -0.10902775824069977, -0.3917465806007385], [-0.03948260098695755, 0.03576497733592987, 0.09975631535053253, -0.018955856561660767, -0.07058656215667725, -0.035651203244924545, 0.04467959702014923, -0.05927504599094391, 0.132346048951149, 0.10346631705760956, -0.08563658595085144, -0.0006837063701823354, 0.03149385750293732, -0.017626022920012474, -0.007370324805378914, -0.04281230643391609, 0.151955246925354, -0.1249435693025589, -0.007860311307013035, 0.08743313699960709], [-0.03647834435105324, 0.02034524455666542, 0.10108054429292679, -0.040355660021305084, -0.017401685938239098, -0.021144038066267967, 0.06296592205762863, 0.045936472713947296, -0.04607415571808815, -0.00032431885483674705, 0.13606871664524078, -0.040197812020778656, -0.03719658404588699, -0.0317239873111248, 0.011687975376844406, -0.04540738835930824, 0.034743599593639374, 0.04506801813840866, 0.053952742367982864, 0.03543020412325859], [0.018378930166363716, -0.1029704138636589, 0.07502752542495728, 0.02798214927315712, 0.07471861690282822, -0.009148269891738892, 0.02889857068657875, -0.05279204249382019, -0.127660870552063, -0.01596827246248722, -0.24137471616268158, -0.014663263224065304, 0.011339173652231693, -0.07441537827253342, 0.20149138569831848, -0.13147486746311188, -0.13546021282672882, 0.11451147496700287, -0.1777825504541397, -0.04587376117706299], [-0.08034101128578186, -0.018983539193868637, 0.0173953827470541, 0.06010808050632477, -0.11063485592603683, 0.06706245243549347, 0.037960462272167206, 0.08049504458904266, 0.020848296582698822, 0.10684263706207275, 0.09328616410493851, -0.017356103286147118, -0.04951145499944687, -0.03291575238108635, 0.17492161691188812, -0.08075015246868134, 0.03017263673245907, 0.10821861773729324, -0.0417787991464138, 0.0973500981926918], [0.02684519812464714, 0.07193902134895325, -0.15731246769428253, 0.008582277223467827, 0.21815748512744904, -0.028196154162287712, 0.03619837388396263, -0.0196074265986681, 0.056573688983917236, 0.04636358097195625, -0.2201937437057495, -0.1100965216755867, 0.05072927102446556, -0.06498970091342926, 0.03869621455669403, -0.14202381670475006, 0.178460493683815, -0.09158993512392044, -0.11108937859535217, 0.04486178979277611], [-0.11308684200048447, 0.03958351910114288, 0.05154886469244957, 0.14543187618255615, -0.2700793445110321, -0.14164943993091583, 0.09822870790958405, 0.4207665026187897, 0.07154758274555206, 0.3111206293106079, -0.13172239065170288, -0.1357845515012741, -0.2578829824924469, -0.06144789606332779, 0.22490030527114868, -0.20816127955913544, 7.82730130595155e-05, 0.2349049597978592, -0.08905979245901108, 0.09463871270418167], [0.09308318048715591, 0.018293851986527443, 0.100953608751297, -0.1645393669605255, -0.11385773122310638, -0.055262211710214615, -0.10072629153728485, 0.0275074802339077, 0.05365649238228798, 0.06312689185142517, 0.13477030396461487, 0.23684395849704742, 0.04327967017889023, 0.26595601439476013, -0.19364804029464722, -0.017982985824346542, 0.021953482180833817, 0.1512758582830429, 0.004460511729121208, -0.08726832270622253], [0.05259368568658829, 0.20323552191257477, 0.04627326875925064, -0.05249783396720886, 0.08515484631061554, 0.07904928177595139, -0.0037941536866128445, -0.028219178318977356, 0.055073000490665436, -0.14420416951179504, -0.23078151047229767, -0.021801941096782684, -0.13196134567260742, 0.006968501955270767, 0.11139078438282013, -0.09779129922389984, 0.03309366852045059, -0.09086037427186966, -0.04844506457448006, 0.01466245949268341], [-0.09073051065206528, 0.20711784064769745, 0.12749384343624115, -0.09089687466621399, -0.16748787462711334, -0.05523435026407242, 0.05635462701320648, 0.10719435662031174, 0.16383758187294006, -0.005989722441881895, -0.10819929838180542, -0.05010520666837692, -0.08452361822128296, -0.0369909293949604, -0.02502216398715973, -0.019731249660253525, 0.12424522638320923, -0.03576138988137245, -0.007574257906526327, 0.10726728290319443], [-0.17546159029006958, -0.12223850190639496, 0.12692207098007202, 0.13878406584262848, -0.10913605988025665, 0.10100285708904266, 0.1601516455411911, -0.13569645583629608, -0.08795122057199478, -0.17970702052116394, -0.07383652776479721, 0.01991138607263565, -0.08547946065664291, -0.3680400252342224, 0.10666365176439285, -0.1072259247303009, -0.17263175547122955, 0.0704774484038353, -0.15516893565654755, 0.043422479182481766], [0.26121506094932556, -0.012420644983649254, -0.15195882320404053, 0.004972653929144144, 0.34099823236465454, 0.41006654500961304, 0.08862373977899551, -0.1506294459104538, 0.03920351341366768, -0.16930505633354187, 0.21712809801101685, 0.09233050793409348, -0.11064578592777252, -0.0623701773583889, -0.28108343482017517, 0.09738044440746307, -0.11521874368190765, 0.0946032926440239, -0.3323662579059601, 0.32248660922050476], [0.07445818185806274, -0.15759862959384918, -0.25089821219444275, 0.021558769047260284, 0.3231593072414398, 0.5667493343353271, 0.021126393228769302, 0.026784135028719902, 0.21903902292251587, 0.4584800601005554, 0.36320361495018005, 0.13246305286884308, -0.07093427330255508, -0.17662207782268524, 0.33713555335998535, -0.09726982563734055, -0.1156381145119667, 0.1922491192817688, 0.28878262639045715, 0.05864851176738739], [0.05812130495905876, -0.11041031777858734, -0.3250243663787842, 0.007793963886797428, 0.1524435579776764, 0.20127971470355988, -0.04121975973248482, 0.0626048818230629, 0.07611609250307083, 0.21244291961193085, 0.2957892417907715, 0.06859457492828369, 0.017788127064704895, 0.031000077724456787, 0.09613552689552307, 0.03089357167482376, -0.1200709119439125, 0.15419842302799225, 0.08451227098703384, 0.022908732295036316], [-0.13228212296962738, -0.18712906539440155, -0.3002966046333313, 0.15141841769218445, 0.28163984417915344, -0.02212386764585972, 0.12507124245166779, -0.28352707624435425, -0.32129818201065063, -0.2013264298439026, -0.12883774936199188, -0.15740709006786346, 0.07387340068817139, -0.19560524821281433, 0.07312118262052536, -0.008847030811011791, 0.057170320302248, 0.048980385065078735, 0.08260052651166916, 0.00844372995197773], [-0.06025693938136101, -0.22368952631950378, -0.12154022604227066, 0.1429002732038498, -0.006690237671136856, 0.2491932213306427, 0.043411798775196075, 0.01908598095178604, -0.08128921687602997, -0.031582061201334, 0.26249629259109497, 0.02319522760808468, -0.09244049340486526, -0.11645333468914032, 0.1121310368180275, 0.04848534241318703, -0.2084200382232666, 0.1895604431629181, 0.09429047256708145, -0.02180645614862442], [-0.19175925850868225, -0.051331572234630585, 0.10371433198451996, 0.015048779547214508, -0.0497172586619854, -0.1275356560945511, 0.20426858961582184, -0.17004556953907013, -0.10482731461524963, -0.35386383533477783, -0.12852320075035095, -0.020830340683460236, -0.04159173741936684, -0.3073670566082001, -0.010764808394014835, -0.0812782570719719, 0.0199442096054554, 0.033935755491256714, -0.14914876222610474, 0.0035549236927181482], [0.19014939665794373, 0.01356040220707655, -0.11333541572093964, -0.20427221059799194, 0.2550967335700989, 0.2426353245973587, 0.04076043516397476, -0.09583123028278351, -0.008125253953039646, -0.1103321984410286, -0.04902967810630798, -0.1139739453792572, -0.28094151616096497, -0.16761966049671173, 0.2170419543981552, -0.04314665123820305, -0.072416290640831, 0.02690793015062809, -0.023398984223604202, 0.2760726809501648], [0.11538355052471161, 0.3333050012588501, 0.09035082906484604, -0.14414246380329132, 0.090286485850811, -0.04701825603842735, 0.06446637213230133, -0.05170370638370514, -0.11786147952079773, -0.02242482453584671, 0.09076742827892303, 0.0343884639441967, -0.08996524661779404, 0.06432320177555084, -0.3118061423301697, 0.08744779974222183, 0.1679154336452484, 0.00788193754851818, -0.07914648205041885, -0.007133751176297665], [-0.09699331223964691, 0.0241909958422184, -0.10362543165683746, -0.1636950820684433, -0.19378972053527832, -0.09942843019962311, 0.15862572193145752, -0.06135782226920128, -0.04075950011610985, -0.47820335626602173, -0.0005437276558950543, 0.08120277523994446, -0.07388923317193985, 0.024044984951615334, -0.13709098100662231, 0.14574995636940002, 0.005364775657653809, 0.008060703054070473, 0.014159906655550003, 0.06908176839351654], [0.1566855013370514, 0.12835294008255005, -0.26770955324172974, -0.094033382833004, 0.14433248341083527, 0.1461055725812912, -0.021550560370087624, 0.0895615965127945, 0.08676132559776306, -0.10773518681526184, -0.038331612944602966, 0.04351646453142166, 0.05971250683069229, 0.03487337380647659, -0.01581406593322754, -0.10359819233417511, 0.11304736137390137, 0.2855187654495239, -0.15998893976211548, -0.21059884130954742], [0.013530386611819267, -0.1049107164144516, -0.09774098545312881, -0.061967190355062485, 0.30792108178138733, -0.013112778775393963, 0.03735514357686043, -0.29980534315109253, 0.1146334558725357, 0.0436955951154232, -0.028596943244338036, -0.054325662553310394, 0.09765147417783737, -0.047414228320121765, -0.07598018646240234, -0.03716793656349182, 0.14686593413352966, -0.2119840532541275, -0.06143663823604584, 0.012578160502016544], [-0.017889201641082764, 0.0547892265021801, 0.0831599161028862, -0.13556207716464996, 0.11287854611873627, 0.060403645038604736, 0.07002121210098267, 0.010780815966427326, 0.012614536099135876, -0.023555489256978035, 0.3049830198287964, -0.06168943643569946, -0.0929800420999527, -0.019963722676038742, -0.009233810007572174, 0.016877833753824234, 0.00902612041682005, 0.1066158339381218, 0.10474590212106705, -0.0006128340028226376], [-0.13250647485256195, -0.33340853452682495, 0.05110473185777664, 0.06730084121227264, 0.013198739849030972, 0.03237415477633476, 0.2051403522491455, -0.275449275970459, -0.25870150327682495, -0.24543923139572144, -0.06880448013544083, 0.08451370149850845, -0.0053540063090622425, -0.38299840688705444, 0.12490195780992508, -0.09919121116399765, -0.3613525927066803, 0.23386500775814056, -0.24321748316287994, -0.02065913937985897], [-0.06669232994318008, 0.21323418617248535, -0.2720091938972473, -0.09067749977111816, -0.0556500218808651, 0.21345588564872742, 0.08916538953781128, 0.3086279332637787, 0.10447335243225098, 0.09845945239067078, 0.15826518833637238, -0.06815896928310394, -0.1960311084985733, 0.0005323851946741343, 0.45477592945098877, -0.15028123557567596, 0.1974068284034729, 0.16192233562469482, 0.000555466569494456, 0.2656514346599579], [0.004712273366749287, 0.1459399312734604, -0.1162014752626419, -0.03015398606657982, 0.2202892303466797, -0.02373896911740303, 0.11836845427751541, -0.04251701757311821, 0.04466036707162857, -0.1101873442530632, -0.2830604314804077, -0.1344355344772339, 0.016791170462965965, -0.1396283656358719, 0.06868095695972443, -0.21499936282634735, 0.25586622953414917, -0.09681596606969833, -0.2036575973033905, 0.14245402812957764], [0.2240554690361023, -0.25127941370010376, -0.17083287239074707, -0.12778329849243164, 0.3237607479095459, 0.39026498794555664, 0.10316838324069977, -0.23863549530506134, 0.1399526745080948, -0.1827869713306427, 0.10898134857416153, -0.04961458221077919, -0.13139641284942627, -0.2018749862909317, 0.010448007844388485, -0.1532180905342102, -0.32698744535446167, 0.35598745942115784, -0.267795205116272, 0.0620906837284565], [0.044828373938798904, -0.15655046701431274, -0.03916492685675621, -0.07845483720302582, -0.12089622020721436, 0.15896928310394287, -0.09304141253232956, 0.04556604102253914, 0.1673867404460907, 0.13706079125404358, 0.3259848654270172, 0.271124005317688, -0.02524338662624359, 0.22074800729751587, -0.03799199312925339, 0.03639410063624382, -0.16305656731128693, 0.37051406502723694, 0.09338990598917007, -0.12225962430238724], [0.0019984364043921232, 0.2046775072813034, 0.13592782616615295, -0.06897401064634323, 0.03551477566361427, 0.04709736257791519, 0.08664827048778534, -0.0719788521528244, 0.10311435163021088, -0.2881418466567993, -0.3307996392250061, 0.013400528579950333, -0.16411149501800537, -0.16023120284080505, 0.17705963551998138, -0.0993746891617775, 0.05675102397799492, -0.06789492070674896, -0.05730216205120087, 0.03386864438652992], [-0.1036221906542778, 0.29558882117271423, 0.12359615415334702, -0.15402717888355255, -0.16821584105491638, -0.030837643891572952, 0.11559905856847763, 0.1734328418970108, 0.2455107569694519, -0.12107294797897339, -0.16574016213417053, -0.05322788655757904, -0.13414956629276276, -0.0639108270406723, 0.0010785750346258283, -0.07200262695550919, 0.21620406210422516, -0.03982952982187271, -0.03421282768249512, 0.2338341772556305], [0.20288777351379395, 0.018985139206051826, 0.09221025556325912, 0.06332707405090332, 0.15013337135314941, -0.010369258001446724, -0.1982118785381317, 0.2369314283132553, -0.20112206041812897, 0.04316680133342743, 0.1957031935453415, 0.08938173949718475, -0.07631752640008926, 0.3411891460418701, -0.09560486674308777, 0.002483646385371685, 0.36324480175971985, -0.17646072804927826, 0.03294944018125534, -0.12024984508752823], [-0.03568996861577034, 0.43532225489616394, 0.014284301549196243, -0.12607227265834808, -0.13481883704662323, -0.15545892715454102, -0.12059830874204636, 0.16322138905525208, 0.05809780955314636, -0.05234478786587715, -0.15683482587337494, 0.06785884499549866, -0.13047941029071808, -0.08115675300359726, -0.24183616042137146, 0.05310767889022827, 0.135239377617836, -0.08923441916704178, -0.06278195232152939, 0.07954628020524979], [-0.15740521252155304, -0.2776438891887665, 0.4868764281272888, 0.11183580011129379, -0.30570024251937866, -0.15447357296943665, 0.19867601990699768, -0.4428160488605499, -0.45434755086898804, -1.2179970741271973, -0.683901309967041, -0.03840692341327667, -0.09993654489517212, -0.484663188457489, -0.20945464074611664, -0.06746434420347214, -0.4650782346725464, -0.14953084290027618, -0.5771457552909851, 0.37274646759033203], [0.19235920906066895, -0.4905407726764679, -0.08098587393760681, 0.1323164403438568, 0.24295952916145325, 0.1617693454027176, 0.08867556601762772, -0.07985302805900574, -0.2943877875804901, 0.10999510437250137, 0.05589979141950607, -0.1934782713651657, -0.12293354421854019, -0.18634308874607086, 0.2922097146511078, -0.14643657207489014, 0.09209001809358597, -0.03581588342785835, -0.004069493152201176, -0.03908713534474373], [0.10917524993419647, 0.17619554698467255, -0.03260701149702072, -0.028119686990976334, 0.3919346332550049, 0.15236172080039978, -0.06150497868657112, 0.14491121470928192, -0.44445157051086426, 0.18856386840343475, 0.12875638902187347, -0.16460788249969482, -0.018362075090408325, 0.2388925403356552, -0.3126799762248993, 0.1415027529001236, -0.06566090136766434, 0.08767702430486679, 0.34205207228660583, -0.08383217453956604], [0.3571069836616516, -0.06434227526187897, 0.16762077808380127, 0.15714967250823975, 0.02798880822956562, 0.17016611993312836, -0.10948212444782257, 0.14706876873970032, -0.09638600796461105, 0.23511779308319092, 0.3537239134311676, 0.026661274954676628, -0.17984597384929657, 0.21552477777004242, 0.20652471482753754, -0.16868196427822113, -0.08581056445837021, 0.354683518409729, 0.14677417278289795, 0.1196291595697403], [-0.26077646017074585, -0.0008911183103919029, 0.008173433132469654, 0.11119428277015686, -0.028400011360645294, -0.10053115338087082, 0.06325723230838776, -0.0929274782538414, -0.05073905736207962, -0.11636876314878464, -0.2479163259267807, -0.1090860590338707, 0.03293276205658913, -0.3269116282463074, 0.1419104039669037, -0.13011425733566284, 0.03880839794874191, -0.014163283631205559, -0.06108091399073601, 0.02820592187345028], [0.06228901818394661, 0.33164334297180176, -0.09229402244091034, -0.23966526985168457, -0.18902385234832764, 0.07370191812515259, 0.18869763612747192, 0.2636992037296295, -0.032773420214653015, -0.10190176963806152, -0.07155614346265793, 0.1036461815237999, -0.11618008464574814, 0.1148427203297615, 0.3024178147315979, -0.0526990108191967, 0.5516875982284546, 0.18909265100955963, 0.15213218331336975, 0.2203190177679062], [0.10944382101297379, -0.4898530840873718, 0.096531942486763, -0.028687186539173126, 0.009580189362168312, -0.2271871715784073, 0.006071059033274651, 0.041338078677654266, 0.6540758609771729, 0.11609312891960144, 0.07262371480464935, 0.21613310277462006, -0.3383975625038147, -0.17960013449192047, -0.17776641249656677, -0.16484664380550385, 0.5691824555397034, -0.05751308798789978, 0.3473420739173889, -0.08206651359796524], [0.19175711274147034, 0.175540953874588, 0.09310682117938995, -0.006528788711875677, 0.12698453664779663, 0.0664253830909729, -0.3195115923881531, 0.4452706575393677, -0.10507124662399292, 0.3527055084705353, 0.25648248195648193, 0.04726102575659752, -0.09401054680347443, 0.25747954845428467, 0.28249630331993103, 0.04355989024043083, 0.4928193688392639, -0.10881508886814117, 0.35858669877052307, -0.3351253867149353], [0.16242215037345886, -0.17146176099777222, 0.03506696969270706, 0.03780093789100647, -0.043071016669273376, -0.1336294710636139, -0.15318746864795685, 0.2906874120235443, -0.0016185087151825428, 0.07961753755807877, 0.33929678797721863, 0.1445111483335495, 0.024830639362335205, -0.017559515312314034, 0.0454641617834568, 0.1485675573348999, -0.13852845132350922, 0.3040139973163605, 0.2597428560256958, 0.029414093121886253], [0.3921504616737366, -0.34622421860694885, 0.11231015622615814, 0.03238348290324211, -0.06065710633993149, 0.15875281393527985, 0.024433257058262825, -0.16340091824531555, 0.1918133646249771, -0.048778317868709564, -0.24311387538909912, 0.26489847898483276, -0.23236005008220673, 0.06673826277256012, 0.15036599338054657, -0.18075646460056305, 0.25068044662475586, -0.1844039261341095, -0.05725466459989548, -0.006004613358527422], [0.00933510810136795, 0.013040825724601746, -0.15916381776332855, -0.2904929220676422, 0.1526256948709488, -0.13373015820980072, -0.03848943114280701, -0.0683581605553627, -0.017726048827171326, 0.16904374957084656, -0.14393272995948792, -0.07143130898475647, 0.36607006192207336, 0.3233354091644287, -0.08036252856254578, 0.059829674661159515, -0.3878210186958313, -0.14966781437397003, -0.10323746502399445, -0.017039213329553604], [-0.10125414282083511, 0.31791171431541443, 0.0060242582112550735, -0.3732242286205292, 0.08430197834968567, -0.061502084136009216, -0.3029899001121521, -0.019411897286772728, 0.010435066185891628, 0.04570220783352852, 0.12163172662258148, 0.11871031671762466, 0.06438147276639938, 0.1890716850757599, -0.31613388657569885, 0.1419343650341034, 0.31819024682044983, 0.1565510332584381, 0.39346763491630554, -0.15578804910182953], [-0.1926383227109909, -0.005656979978084564, 0.10997100919485092, -0.092531718313694, 0.05818929895758629, 0.03356166183948517, 0.06344839185476303, 0.14670982956886292, -0.006197204347699881, 0.25365975499153137, 0.12789452075958252, -0.24762728810310364, 0.03673410043120384, 0.1038576290011406, 0.28275254368782043, -0.28905633091926575, 0.15070702135562897, 0.37147584557533264, -0.1791757047176361, 0.30738961696624756], [0.12138180434703827, -0.11121290177106857, -0.12442417442798615, -0.057886868715286255, -0.13890068233013153, 0.07195505499839783, 0.03122958540916443, -0.12246772646903992, 0.13319812715053558, -0.07154521346092224, 0.20198112726211548, 0.17544381320476532, -0.2041390836238861, 0.07300042361021042, -0.02531343512237072, 0.23191596567630768, -0.31464883685112, 0.00744039798155427, 0.11122757196426392, 0.09774547815322876], [0.14390967786312103, 0.16737236082553864, 0.02983596734702587, 0.10488846898078918, 0.10037392377853394, -0.1846606731414795, 0.2579713761806488, 0.18196628987789154, -0.14991150796413422, -0.04374471679329872, -0.1632816344499588, -0.06488779932260513, 0.02018166519701481, -0.11427942663431168, 0.0005006399587728083, -0.255724161863327, 0.28176015615463257, -0.11707580834627151, -0.11448882520198822, 0.18319161236286163], [-0.09097091108560562, 0.006208561360836029, 0.023321418091654778, 0.12094394117593765, -0.19974565505981445, -0.0797295942902565, 0.06058629974722862, 0.2561841309070587, 0.016512993723154068, -0.14677885174751282, 0.26417264342308044, -0.09258974343538284, -0.017646238207817078, 0.21477854251861572, 0.1123017892241478, -0.1761951446533203, 0.03182657063007355, 0.03739642724394798, 0.09799663722515106, 0.05780397728085518], [-0.02715926431119442, -0.0036012805067002773, -0.2753373682498932, 0.04230610653758049, -0.09890806674957275, 0.05501170828938484, 0.10265444219112396, 0.28447425365448, -0.021509388461709023, 0.050290897488594055, 0.4113249182701111, 0.046615272760391235, -0.1339305192232132, 0.09509129077196121, 0.40916872024536133, 0.1298878788948059, 0.2145157754421234, 0.4181937575340271, 0.1331852376461029, 0.1861034482717514], [-0.2226072996854782, 0.2637360990047455, -0.030436772853136063, -0.12252259999513626, -0.1308542937040329, -0.1273748278617859, 0.01853971742093563, 0.15042369067668915, 0.01908797025680542, -0.023838253691792488, -0.1417691707611084, -0.2529059946537018, -0.0619916096329689, -0.11184883117675781, -0.07041236013174057, -0.05548468604683876, 0.17660482227802277, -0.022689860314130783, -0.047480508685112, 0.2097240537405014], [-0.2017257809638977, -0.10495751351118088, 0.1289743185043335, 0.08292803168296814, -0.16681607067584991, 0.03972640633583069, 0.14771778881549835, -0.09243828058242798, -0.06276998668909073, -0.2019580602645874, -0.034276846796274185, 0.0028146463446319103, -0.10621479153633118, -0.32903343439102173, 0.05550241097807884, -0.058241263031959534, -0.14469586312770844, 0.06065692380070686, -0.0924658477306366, 0.028714681044220924], [0.04889591410756111, -0.12011492997407913, 0.01366029866039753, 0.16830672323703766, -0.02285611815750599, 0.11214521527290344, -0.03942439705133438, 0.12735100090503693, 0.037860509008169174, 0.12408708781003952, 0.11105766147375107, 0.04296185076236725, -0.1452714502811432, -0.05989861115813255, 0.031589679419994354, 0.03974218666553497, -0.19581100344657898, 0.10412359237670898, 0.08894555270671844, 0.2128167748451233], [0.02086251974105835, 0.015143652446568012, -0.13385415077209473, -0.01642594486474991, -0.017767203971743584, 0.03193947672843933, 0.03171887621283531, 0.11386975646018982, -0.13702435791492462, 0.4004361629486084, -0.016187969595193863, 0.02812725119292736, 0.16756190359592438, 0.08108803629875183, 0.274231493473053, -0.1832001507282257, -0.12462355941534042, 0.11352825909852982, -0.03340569883584976, 0.1576395332813263], [0.013985843397676945, -0.08527349680662155, -0.15726737678050995, 0.09334812313318253, 0.015729397535324097, 0.1151915118098259, -0.025445174425840378, 0.14843764901161194, 0.03873927518725395, 0.19577965140342712, 0.13833262026309967, 0.03587164729833603, -0.02080305851995945, -0.028701772913336754, 0.18191520869731903, 0.003848665626719594, -0.08411498367786407, 0.1521267145872116, 0.050792183727025986, 0.02678610570728779], [-0.05912066251039505, -0.09088711440563202, 0.08885696530342102, 0.12503257393836975, -0.187985360622406, 0.057320572435855865, 0.1396855115890503, 0.007165269460529089, -0.06946844607591629, 0.03302932158112526, -0.016386481001973152, 0.029632871970534325, -0.02985355816781521, -0.17159420251846313, 0.21236717700958252, -0.18786518275737762, 0.12733078002929688, 0.14214155077934265, -0.06879802793264389, 0.0789485052227974], [-0.025738773867487907, -0.17152854800224304, -0.17043839395046234, 0.06408590823411942, -0.048682183027267456, 0.10106973350048065, 0.007146869320422411, 0.025053605437278748, -0.019681291654706, 0.009864882566034794, 0.18187212944030762, 0.024847105145454407, -0.08535987883806229, -0.024256888777017593, 0.12410809844732285, 0.023353757336735725, -0.19115136563777924, 0.1907440721988678, 0.06792457401752472, -0.017272131517529488], [-0.18647830188274384, 0.0337287113070488, 0.09139715135097504, 0.009667309001088142, -0.10401461273431778, -0.1153171956539154, 0.2079642415046692, -0.10291648656129837, -0.09812567383050919, -0.2485092133283615, -0.1203601062297821, -0.05740052089095116, -0.06233740970492363, -0.25369012355804443, 0.020038342103362083, -0.11239487677812576, 0.0815582349896431, 0.02975090779364109, -0.14598509669303894, 0.06406950950622559], [-0.06017974391579628, -0.0990392193198204, -0.0011573114898055792, -0.060909006744623184, 0.12897087633609772, 0.10854703933000565, 0.05336849018931389, -0.0496094785630703, 0.07014289498329163, -0.055292148143053055, -0.05992693826556206, -0.053354568779468536, -0.17085346579551697, -0.1382976621389389, 0.23051398992538452, -0.08163537830114365, -0.13099059462547302, -0.054962340742349625, -0.06305097788572311, 0.199216827750206], [0.03885268792510033, 0.12302663177251816, -0.052484069019556046, -0.07830283045768738, -0.0001396443840349093, 0.07955926656723022, -0.0013759584398940206, 0.1391834318637848, 0.01046820729970932, 0.2048775553703308, 0.12153447419404984, 0.07619058340787888, -0.06639377027750015, 0.04459196701645851, -0.01445065625011921, 0.003976323641836643, 0.023424850776791573, 0.1365758329629898, 0.051099419593811035, 0.03765229508280754], [-0.09663938730955124, -0.008558128029108047, -0.26068562269210815, -0.19852477312088013, 0.12297813594341278, -0.054519444704055786, 0.03676687180995941, -0.0808861255645752, 0.1431395262479782, -0.15030311048030853, 0.017510665580630302, -0.030726218596100807, 0.02203516475856304, 0.03822674974799156, -0.12292728573083878, 0.08490949124097824, -0.0746455118060112, 0.01919839158654213, 0.0678839161992073, -0.04271953925490379], [0.2376171350479126, 0.18486151099205017, -0.17979274690151215, -0.08108092844486237, 0.18301692605018616, 0.10430732369422913, -0.07190778851509094, -0.039970628917217255, 0.1257144659757614, 0.18905121088027954, 0.016043344512581825, 0.056640684604644775, 0.04129303991794586, 0.21479521691799164, -0.12745246291160583, -0.14067043364048004, 0.11851152777671814, 0.15339331328868866, -0.18718677759170532, -0.14431890845298767], [-0.05448301136493683, 0.08037681132555008, 0.021769147366285324, -0.07211759686470032, -0.11238999664783478, -0.04233596846461296, 0.06767401099205017, -0.014385187067091465, 0.16970796883106232, 0.04280887916684151, -0.051064301282167435, 0.006952531170099974, 0.003160616382956505, -0.051250725984573364, -0.004253396298736334, -0.05576275661587715, 0.14099742472171783, -0.04276169463992119, -0.07219532132148743, 0.08853653073310852], [-0.014057841151952744, 0.03745044767856598, 0.06269344687461853, -0.059139907360076904, 0.018234191462397575, 0.05758426710963249, 0.057149916887283325, 0.09026455134153366, 0.027939198538661003, 0.10932620614767075, 0.21197617053985596, -0.06893308460712433, -0.05110214650630951, -0.005744318477809429, 0.0861469954252243, -0.05728178843855858, 0.054839879274368286, 0.06966707855463028, 0.07052595913410187, 0.07682593166828156], [-0.20528985559940338, -0.23530225455760956, 0.0833674967288971, 0.09106401354074478, -0.04563092812895775, 0.03519346937537193, 0.19347549974918365, -0.21144111454486847, -0.148140087723732, -0.1334427446126938, -0.059048522263765335, 0.03378130495548248, -0.05855164676904678, -0.38136473298072815, 0.12976430356502533, -0.1222139298915863, -0.22830688953399658, 0.17915864288806915, -0.16695785522460938, 0.018553664907813072], [-0.0663764551281929, 0.034729618579149246, -0.16794225573539734, 0.06206076592206955, 0.009760566987097263, 0.2327146679162979, 0.06999246776103973, 0.2910096049308777, 0.05977003648877144, 0.10805719345808029, 0.08560362458229065, -0.08368559181690216, -0.17009495198726654, -0.0931892916560173, 0.5019708275794983, -0.11825767904520035, 0.06589221954345703, 0.1417936235666275, 0.05671609938144684, 0.18238820135593414], [-0.04198846593499184, 0.14870072901248932, -0.027934806421399117, -0.020142758265137672, 0.10752732306718826, -0.04582536593079567, 0.12299492210149765, -0.0110005559399724, 0.033963434398174286, -0.08052489161491394, -0.24489223957061768, -0.13291491568088531, -0.01034124381840229, -0.1429646909236908, 0.07342705130577087, -0.2055697739124298, 0.23521286249160767, -0.08029752969741821, -0.19606412947177887, 0.1371067762374878], [-0.15294267237186432, -0.31022682785987854, -0.040908388793468475, 0.2008637636899948, 0.059889473021030426, 0.18132136762142181, 0.11420798301696777, -0.03192903846502304, 0.07911480963230133, -0.01652567647397518, 0.04329030588269234, -0.06689376384019852, -0.09096843749284744, -0.3427892327308655, 0.2112165093421936, -0.19799982011318207, -0.3686462342739105, 0.3613315522670746, -0.19520998001098633, 0.18912911415100098], [0.07597307115793228, -0.15418505668640137, -0.09070083498954773, -0.05093524977564812, 0.0071341111324727535, 0.16478723287582397, -0.10375124961137772, 0.05383995175361633, 0.14188268780708313, 0.18767353892326355, 0.2959001362323761, 0.19000786542892456, -0.03282667323946953, 0.17118549346923828, 0.0540398508310318, 0.023455101996660233, -0.1720430552959442, 0.3040689527988434, 0.06476598978042603, -0.109012670814991], [0.036948006600141525, 0.28937235474586487, 0.016639551147818565, -0.07617095857858658, 0.06062488630414009, -0.010832966305315495, 0.06878014653921127, -0.0652863159775734, -0.024588093161582947, -0.2778329849243164, -0.35431066155433655, -0.07452893257141113, -0.104731485247612, -0.041768405586481094, 0.08884675800800323, -0.14844214916229248, 0.14645163714885712, -0.17591318488121033, -0.1321476697921753, 0.06295014172792435], [-0.13759896159172058, 0.3086826205253601, 0.182938814163208, -0.11125132441520691, -0.2142731249332428, -0.06731575727462769, 0.13936728239059448, 0.14931268990039825, 0.1328294724225998, -0.12581533193588257, -0.18025502562522888, -0.12388382107019424, -0.142874613404274, -0.07960184663534164, 0.03648845851421356, -0.11080670356750488, 0.23306521773338318, -0.05447963997721672, -0.06705164909362793, 0.23392623662948608]], "rec.bias_ih_l0": [-0.17519915103912354, -0.2506846785545349, 0.57208651304245, -0.10240346193313599, 0.10187404602766037, -0.05397358536720276, -0.19934497773647308, 0.04233062267303467, 0.10836774855852127, 0.3440510928630829, 0.02528768964111805, 0.11690577864646912, -0.07953428477048874, -0.12317217886447906, -0.19034188985824585, -0.20224666595458984, -0.3201141059398651, 0.08015170693397522, 0.11809985339641571, -0.16019727289676666, 0.13242213428020477, 0.7355195879936218, 0.4667515754699707, 0.26761049032211304, 0.46025750041007996, 0.2839928865432739, 0.07700908184051514, 0.24319499731063843, 0.5106551647186279, 0.31686511635780334, 0.28543609380722046, 0.1770019233226776, 0.44287189841270447, 0.1259482353925705, 0.319480836391449, 0.2195727378129959, 0.6884629130363464, 0.12324953079223633, 0.11222366243600845, 0.2742941379547119, 0.04587351903319359, -0.16221047937870026, 0.03620891645550728, -0.07760611921548843, -0.029804684221744537, 0.007035594899207354, 0.043543051928281784, 0.07518281787633896, 0.021352281793951988, -0.07131147384643555, 0.10555081814527512, 0.1686127930879593, 0.07197035849094391, -0.17594820261001587, -0.14867235720157623, 0.11801497638225555, 0.06633169949054718, 0.05120782554149628, -0.05690174177289009, 0.046236369758844376, 0.030248815193772316, 0.04385758563876152, -0.1487906575202942, 0.06890295445919037, 0.13232558965682983, -0.09495726227760315, -0.11182481795549393, 0.006256538443267345, 0.18177677690982819, 0.3985902965068817, 0.22134970128536224, 0.22840553522109985, 0.03928995877504349, 0.07480210810899734, 0.10661499947309494, 0.0003864002937916666, 0.16833020746707916, 0.11169805377721786, 0.051755547523498535, -0.11213698238134384], "rec.bias_hh_l0": [-0.06160137802362442, -0.3222756087779999, 0.7026269435882568, -0.2163318395614624, 0.1600029021501541, -0.12859085202217102, -0.21753636002540588, 0.04598744958639145, 0.11971569061279297, 0.39600566029548645, 0.19317594170570374, 0.04192744567990303, -0.01502152718603611, -0.032411497086286545, -0.1823410540819168, -0.18935057520866394, -0.3111805021762848, -0.14863577485084534, 0.008537334389984608, -0.17410588264465332, 0.1328963041305542, 0.8208340406417847, 0.45255154371261597, 0.17069393396377563, 0.3394727110862732, 0.17040862143039703, 0.025543468073010445, 0.44466689229011536, 0.49741578102111816, 0.1916688233613968, 0.4055352509021759, 0.4317927360534668, 0.38688504695892334, 0.29810982942581177, 0.31580638885498047, 0.21494780480861664, 0.658562183380127, 0.13982412219047546, -0.01338578388094902, 0.15574294328689575, 0.06661950051784515, 0.20837637782096863, -0.08758018165826797, -0.1420832723379135, 0.2285526990890503, 0.18401391804218292, -0.03650738298892975, -0.2012275606393814, 0.0063693528063595295, 0.1114889457821846, -0.012469083070755005, -0.1890067458152771, -0.13328461349010468, 0.15204617381095886, 0.11391206085681915, -0.09816215187311172, -0.02726326324045658, 0.03779391571879387, 0.15312163531780243, -0.06701535731554031, 0.10930003225803375, 0.09541480988264084, -0.03616233542561531, -0.1758555918931961, 0.002223735675215721, 0.2039981335401535, -0.06173797324299812, 0.12864987552165985, 0.16732946038246155, 0.24729789793491364, 0.24333734810352325, 0.2635745108127594, -0.07236025482416153, 0.22488071024417877, 0.19694949686527252, -0.10029806196689606, 0.018515964969992638, 0.21458297967910767, 0.13758422434329987, -0.07790254056453705], "lin.weight": [[0.008277641609311104, 0.16620907187461853, -0.8317005038261414, 0.034412503242492676, 0.34502264857292175, 0.2996985614299774, -0.1452258974313736, -0.07680230587720871, -0.2950345575809479, -0.40887901186943054, -0.02367562986910343, -0.8182748556137085, 0.21004289388656616, 0.2455136626958847, 0.35900813341140747, -0.09778779745101929, -0.10645081847906113, -0.10323503613471985, 0.06122969090938568, 0.09890753775835037]], "lin.bias": [-0.13640223443508148]}}