{"model_data": {"model": "SimpleRNN", "input_size": 1, "skip": 1, "output_size": 1, "unit_type": "LSTM", "num_layers": 1, "hidden_size": 20, "bias_fl": true}, "state_dict": {"rec.weight_ih_l0": [[-0.006913004443049431], [0.02325819432735443], [-0.05534246191382408], [0.13223685324192047], [0.528695821762085], [0.005631252191960812], [0.38285067677497864], [0.004945497959852219], [0.14107635617256165], [-0.10793552547693253], [0.1950829178094864], [-0.01075940951704979], [-0.2111278921365738], [0.03359629586338997], [-0.028816428035497665], [0.1252448409795761], [-0.21049995720386505], [-0.01097905170172453], [-0.049884457141160965], [-0.03739975765347481], [0.055327050387859344], [-0.028870675712823868], [-0.18181172013282776], [0.1220664456486702], [-0.20294740796089172], [-0.251623272895813], [0.2080862820148468], [-0.11961405724287033], [-0.43996161222457886], [-0.18744803965091705], [0.18326738476753235], [0.01805051416158676], [-0.2426968365907669], [0.01847218908369541], [-0.12022511661052704], [-0.0018130707321688533], [-0.2264062613248825], [0.009835452772676945], [-0.0730542242527008], [0.07990363240242004], [0.30501246452331543], [0.13924545049667358], [0.5486645698547363], [1.2561837434768677], [-0.45511600375175476], [0.9894835948944092], [-0.6010522246360779], [-0.4475565552711487], [0.02660013549029827], [1.5333847999572754], [-0.005719413515180349], [-0.3446972668170929], [-1.0136297941207886], [0.8360923528671265], [6.38922119140625], [0.5875491499900818], [0.39499714970588684], [-2.552239418029785], [0.24825166165828705], [-2.7148191928863525], [0.030516240745782852], [-0.012048589996993542], [-0.10163907706737518], [0.1275964081287384], [0.3579949140548706], [-0.22565127909183502], [0.2266804277896881], [-0.11131247133016586], [-0.13258405029773712], [-0.1250881552696228], [0.4007529020309448], [-0.021399186924099922], [-0.21998898684978485], [0.08009582757949829], [-0.022071203216910362], [-0.01780383102595806], [-0.2995210587978363], [-0.013921964913606644], [-0.14444442093372345], [-0.08760673552751541]], "rec.weight_hh_l0": [[-0.06643669307231903, -0.04017627239227295, -0.07380666583776474, 0.05456940457224846, -0.03776593506336212, 0.13486164808273315, -0.1133541464805603, -0.302504301071167, -0.19255904853343964, -0.06715738773345947, -0.051222071051597595, 0.006799866911023855, -0.044233985245227814, 0.004409999120980501, 0.2076185941696167, 0.23595145344734192, 0.020302200689911842, 0.019605176523327827, -0.07239460200071335, 0.0391862578690052], [-0.00048248309758491814, -0.00766981765627861, 0.2891015410423279, 0.19418326020240784, -0.07774075120687485, -0.09404131770133972, -0.14620442688465118, 0.12363418936729431, -0.10846066474914551, 0.2403588742017746, 0.13921892642974854, 0.10402189195156097, 0.05434592813253403, -0.05574633181095123, -0.055612675845623016, 0.15782669186592102, -0.012989172711968422, 0.7047300338745117, -0.05927973985671997, 0.013903849758207798], [-0.08009159564971924, -0.06526197493076324, -0.12573468685150146, 0.02352520078420639, 0.05500777065753937, -0.19931571185588837, 0.024897579103708267, 0.13919463753700256, 0.03633725270628929, -0.002209910424426198, 0.037232257425785065, 0.10735595971345901, 0.15491007268428802, 0.055524855852127075, -0.1543210744857788, 0.017390228807926178, 0.018140511587262154, -0.30247119069099426, 0.20880074799060822, -0.1291894018650055], [-0.15399067103862762, -0.014325814321637154, -0.02578040398657322, 0.22493989765644073, -0.0051322742365300655, 0.10684243589639664, 0.11968954652547836, -0.19202359020709991, -0.04262390732765198, -0.20086850225925446, -0.02637792006134987, -0.10178997367620468, -0.04878697916865349, 0.1359221637248993, 0.3778938949108124, -0.03842686861753464, 0.03384372591972351, -0.35361185669898987, 0.059877101331949234, 0.0293279979377985], [0.517181396484375, -0.004314159508794546, 0.6048843264579773, -0.2365281879901886, -0.07879205048084259, 0.49381107091903687, -0.3536691665649414, 0.1652929186820984, 0.1652626395225525, 0.43558862805366516, 0.5626600980758667, -0.034019749611616135, -0.21838657557964325, -0.47608664631843567, 0.256819486618042, 0.19783449172973633, -0.14466850459575653, 0.1490360051393509, -0.6020122766494751, 0.3868873119354248], [0.04917255416512489, 0.26870980858802795, 0.11659793555736542, -0.1201283186674118, -0.2965982258319855, -0.18703600764274597, 0.16627128422260284, 0.2788510322570801, 0.022928157821297646, -0.09920530766248703, 0.08889493346214294, -0.017540885135531425, -0.1718042939901352, -0.1712934374809265, 0.2429574728012085, 0.14693403244018555, -0.035201266407966614, 0.29894837737083435, -0.1609102189540863, -0.0054830824956297874], [0.38800808787345886, 0.08675014227628708, 0.24379205703735352, 0.01339887734502554, 0.195649653673172, -0.10692006349563599, -0.18531376123428345, -0.11316638439893723, 0.28483912348747253, 0.05400041863322258, 0.23603864014148712, -0.18917468190193176, -0.6056350469589233, -0.10679193586111069, 0.25179246068000793, 0.3436757028102875, -0.055592283606529236, 0.02706586942076683, -0.22174140810966492, 0.19403241574764252], [-0.018229017034173012, -0.10325659066438675, 0.12827898561954498, -0.014877683483064175, -0.11457284539937973, 0.016968516632914543, -0.24445559084415436, 0.0030264442320913076, -0.045819833874702454, 0.11006370186805725, 0.00817536748945713, -0.2770734429359436, -0.4032179117202759, -0.09026902168989182, -0.25005751848220825, 0.06646143645048141, -0.1445976048707962, -0.3892514705657959, -0.20259873569011688, 0.11100969463586807], [0.29951024055480957, 0.1515200138092041, 0.881955087184906, 0.08225314319133759, -0.6716132760047913, 0.347136914730072, -0.019296960905194283, -0.23375116288661957, -0.06650899350643158, 0.2187817543745041, -0.5045567750930786, -0.3377520442008972, -0.1597011685371399, -0.16340410709381104, 0.34900781512260437, 0.4410053491592407, -0.43078798055648804, 0.36545512080192566, -0.48453599214553833, 0.7041918039321899], [-0.1155797466635704, -0.2070237547159195, -0.1940666288137436, -0.016218028962612152, 0.09210821986198425, -0.2859170734882355, 0.09551776200532913, 0.06785507500171661, 0.044373635202646255, -0.014619536697864532, -0.10482171922922134, 0.09337607026100159, 0.06729636341333389, 0.05739494040608406, 0.024957291781902313, -0.16251815855503082, 0.0028875095304101706, -0.31550371646881104, 0.2120072990655899, -0.09866464883089066], [-0.0782780572772026, -0.18857398629188538, 0.17277546226978302, 0.21036022901535034, -0.15028990805149078, 0.07791739702224731, 0.08383112400770187, -0.2258799821138382, -0.043218228965997696, -0.2348487228155136, -0.2372191995382309, -0.014184324070811272, -0.07273240387439728, 0.1051899641752243, 0.7770134210586548, -0.360489159822464, 0.09022622555494308, -0.03913716599345207, 0.10123571008443832, 0.23522718250751495], [-0.19197754561901093, 0.018190177157521248, -0.4134123921394348, 0.08857791870832443, 0.05465620011091232, -0.036796052008867264, -0.025001293048262596, 0.026135412976145744, 0.0027232489082962275, -0.028016291558742523, -0.11395131051540375, 0.0697011947631836, 0.11684395372867584, 0.05218561366200447, -0.15946339070796967, -0.051338933408260345, 0.09841378033161163, -0.049280066043138504, 0.36068689823150635, -0.25745707750320435], [-0.045774150639772415, -0.14133915305137634, -0.37650150060653687, -0.06802836805582047, -0.010259855538606644, -0.27686426043510437, 0.00575358746573329, 0.1121978759765625, 0.23445188999176025, -0.08871033042669296, 0.09985935688018799, -0.06895263493061066, 0.1076822280883789, 0.10918871313333511, 0.3726162016391754, -0.19336430728435516, -0.05774538591504097, -0.24254561960697174, 0.1801179200410843, 0.10663414746522903], [0.026011023670434952, -0.11940864473581314, 0.03852980211377144, 0.14992202818393707, 0.10526208579540253, -0.0627773329615593, 0.049427855759859085, 0.08600390702486038, -0.05376768484711647, 0.12159812450408936, -0.07260660082101822, 0.06157936155796051, -0.07499819993972778, 0.006185254547744989, -0.16584263741970062, -0.06220776587724686, -0.07743284106254578, 0.20263154804706573, -0.07004877924919128, -0.044699933379888535], [-0.2966219484806061, -0.09846504032611847, -0.6104198098182678, 0.24302974343299866, 0.2869468927383423, -0.06013486906886101, 0.041518982499837875, 0.05179593712091446, -0.05027862265706062, -0.05745498090982437, -0.5122946500778198, 0.17227961122989655, 0.11672444641590118, 0.11782253533601761, -0.17244990170001984, -0.2555740773677826, 0.1488705724477768, 0.11431702971458435, 0.7130555510520935, -0.138167142868042], [0.2690223753452301, -0.12920206785202026, 0.561485230922699, 0.3729107677936554, -0.0357942096889019, 0.24458731710910797, -0.03930070996284485, -0.14610345661640167, -0.43812096118927, 0.17829380929470062, 0.14379115402698517, -0.0937725380063057, -0.659348726272583, -0.31167998909950256, 0.07554570585489273, -0.023128602653741837, -0.16753415763378143, -0.09742232412099838, -0.3458206057548523, 0.30975010991096497], [0.09192744642496109, 0.21898813545703888, 0.24301598966121674, 0.0602860227227211, -0.4398748278617859, 0.19857437908649445, -0.23440809547901154, -0.175775945186615, -0.11384449899196625, 0.36791202425956726, 0.1985311508178711, -0.4187612235546112, -0.07154087722301483, -0.18993183970451355, -0.13280239701271057, 0.29463234543800354, -0.23461709916591644, 0.10710705071687698, -0.48816657066345215, 0.29390472173690796], [-0.22291457653045654, -0.09754958748817444, -0.5309432148933411, 0.24199247360229492, 0.2315947264432907, -0.07923852652311325, 0.04626140370965004, 0.10098719596862793, 0.0013109494466334581, -0.06012578681111336, -0.33340388536453247, 0.147773876786232, 0.22026292979717255, 0.16352243721485138, 0.09038417041301727, -0.23087266087532043, 0.11172053217887878, 0.018875665962696075, 0.625336229801178, -0.07263299822807312], [-0.060916561633348465, -0.11429561674594879, -0.17690755426883698, 0.008676419034600258, 0.1477746069431305, -0.07989443093538284, -0.20325030386447906, 0.18424217402935028, 0.11106875538825989, 0.23022477328777313, -0.14749468863010406, 0.001497789635322988, -0.07510361820459366, 0.05925828218460083, 0.11481882631778717, 0.0952891930937767, -0.08632252365350723, -0.05512874200940132, 0.012045792303979397, -0.15979625284671783], [-0.16535845398902893, 0.01523415558040142, -0.39892861247062683, -0.015970367938280106, 0.16904105246067047, -0.11375875771045685, 0.0742248147726059, 0.038032498210668564, -0.009033432230353355, 0.007596541196107864, -0.12089404463768005, 0.07718443870544434, 0.17483042180538177, -0.07152659446001053, -0.48487138748168945, -0.16378653049468994, 0.09659343957901001, 0.05976584553718567, 0.25073233246803284, -0.18640877306461334], [-0.11236214637756348, -0.04256897047162056, -0.1698211431503296, 0.04368815943598747, 0.04471501708030701, 0.1966111958026886, -0.21821388602256775, -0.3971403241157532, -0.30648332834243774, -0.13043254613876343, -0.08018714934587479, -0.055550575256347656, 0.025660762563347816, 0.012870979495346546, 0.23061572015285492, 0.08298739045858383, 0.058689579367637634, -0.21061033010482788, 0.13392123579978943, -0.024209443479776382], [-0.18074339628219604, -0.07948476821184158, -0.09843150526285172, 0.2939842939376831, 0.08764512836933136, -0.1201978474855423, -0.11132951825857162, 0.05528194084763527, -0.16539520025253296, 0.008989503607153893, -0.006854299921542406, -0.02051016502082348, -0.024838455021381378, -0.06018232926726341, 0.1128513291478157, -0.04862607270479202, 0.03870683163404465, -0.08917886763811111, 0.2830411195755005, 0.06934937834739685], [-0.2997291088104248, -0.14612412452697754, 0.045123931020498276, -0.021102460101246834, -0.17076046764850616, -0.20722037553787231, 0.008514637127518654, 0.26758497953414917, -0.0864809975028038, -0.020347917452454567, 0.1603061705827713, 0.1309100240468979, 0.3158189654350281, -0.047002602368593216, -0.2650582492351532, 0.14223217964172363, -0.018688227981328964, -0.2862240970134735, 0.244134783744812, -0.19092395901679993], [-0.24727725982666016, -0.0896659642457962, -0.2722542881965637, 0.24665741622447968, 0.017714250832796097, 0.010418061167001724, 0.10337619483470917, -0.04732314124703407, -0.03600389510393143, 0.02747788466513157, -0.10080929100513458, 0.156691312789917, 0.017206953838467598, 0.26432475447654724, 0.03300430625677109, -0.05202608183026314, -0.014035715721547604, -0.19730035960674286, 0.261051744222641, -0.3338806629180908], [-0.6399538516998291, -0.7406680583953857, -0.623751163482666, 0.027754489332437515, 0.08843961358070374, -0.28954973816871643, -0.22049479186534882, 0.1203291267156601, 0.0020171746145933867, -0.4322569966316223, 0.3134307265281677, 0.41212841868400574, 0.16418324410915375, 0.1159142479300499, -0.3043801486492157, -0.8300157785415649, 0.03774852305650711, -0.1824459731578827, 0.6232162714004517, -0.577818751335144], [-0.03637188673019409, 0.010089527815580368, -0.3322005271911621, -0.3800477087497711, -0.4136980175971985, -0.26127663254737854, 0.14064474403858185, 0.2627549469470978, 0.13880275189876556, -0.26184821128845215, 0.032948993146419525, 0.12174059450626373, -0.08228461444377899, -0.05022624135017395, 0.15254496037960052, 0.272640198469162, -0.2127532809972763, 0.004969743546098471, 0.16904355585575104, -0.1707097738981247], [-0.35006219148635864, -0.15655334293842316, -0.3466029167175293, 0.2704566419124603, 0.09249363839626312, -0.05847768485546112, -0.43488070368766785, -0.19770178198814392, -0.16053681075572968, -0.16767551004886627, 0.06225055456161499, 0.2408961057662964, 0.09090578556060791, 0.2484111189842224, -0.016333121806383133, -0.03663783520460129, 0.23311030864715576, -0.009991750121116638, 0.47768664360046387, -0.4170594811439514], [-0.5968274474143982, -0.25401419401168823, -0.3191177546977997, 0.32265669107437134, 0.009712078608572483, -0.18023061752319336, -0.2757459878921509, -0.11841434240341187, -0.09537630528211594, 0.0444423146545887, 0.1273815631866455, -0.05658162012696266, -0.05548317730426788, 0.00626211566850543, -0.22202394902706146, -0.4356881082057953, -0.19224481284618378, -0.21417494118213654, 0.1571376919746399, -0.1886674016714096], [-0.7796542048454285, -0.4268665015697479, -0.7442572116851807, 0.08949094265699387, 0.43785279989242554, -0.44346094131469727, -0.37972867488861084, 0.35412484407424927, 0.17911095917224884, -0.2738403379917145, -0.29820480942726135, 0.561665415763855, 0.5220169425010681, 0.36836281418800354, -0.018980447202920914, -0.33854028582572937, -0.31805500388145447, -0.2876017987728119, 0.8196178674697876, -0.523695707321167], [0.11716967821121216, -0.08802397549152374, 0.212563157081604, 0.12231772392988205, -0.05771047621965408, -0.17515134811401367, 0.10830817371606827, -0.0460585281252861, 0.12225920706987381, 0.2626206874847412, -0.19286559522151947, 0.05937520042061806, -0.5264747142791748, -0.05096423998475075, -0.07681366056203842, -0.10686390101909637, -0.21147875487804413, -0.02921358309686184, -0.4319719970226288, 0.25389641523361206], [-0.003233414376154542, -0.2686593532562256, 0.4196670651435852, 0.32577890157699585, -0.11567500978708267, -0.00334133580327034, -0.0272706039249897, -0.10449692606925964, -0.003042242955416441, -0.049020007252693176, -0.2840026021003723, 0.015943357720971107, -0.2308330237865448, 0.13158677518367767, 0.29197824001312256, -0.35824525356292725, 0.09889789670705795, -0.041521914303302765, 0.11503840982913971, 0.12679146230220795], [-0.05224813148379326, 0.19878806173801422, 0.16899532079696655, 0.16600379347801208, -0.07165025174617767, 0.20057789981365204, -0.11147857457399368, -0.2556982636451721, -0.0904686227440834, -0.09024839848279953, 0.004317803308367729, -0.13090364634990692, -0.10742224752902985, -0.1004246175289154, -0.06844092905521393, 0.19177430868148804, 0.05216337740421295, 0.15858861804008484, -0.17426474392414093, -0.08407605439424515], [-0.044497981667518616, -0.08552436530590057, -0.09442729502916336, 0.17682242393493652, -0.027688266709446907, -0.11845787614583969, 0.05914165452122688, -0.05689899995923042, 0.063294418156147, 0.013746368698775768, 0.13783520460128784, -0.08828811347484589, -0.01728852093219757, -0.05055157467722893, 0.14974844455718994, -0.1675521284341812, -0.011170201934874058, -0.1180962547659874, -0.15145312249660492, 0.20834724605083466], [-0.039349187165498734, -0.010019777342677116, -0.04562150686979294, 0.24473315477371216, 0.24800199270248413, -0.02934299409389496, 0.21223078668117523, 0.06136860325932503, -0.00021409569308161736, -0.02104344591498375, -0.17546352744102478, 0.038025300949811935, -0.2189195603132248, -0.005294126458466053, 0.1677929162979126, -0.27310195565223694, -0.04522605985403061, 0.042273592203855515, -0.03958454355597496, -0.054690442979335785], [0.05849950760602951, -0.11630793660879135, 0.30234718322753906, 0.5477416515350342, 0.4580899775028229, 0.8591740727424622, 0.037223074585199356, -0.3933577239513397, -0.33549150824546814, -0.3856501877307892, -1.2993580102920532, 0.023827673867344856, -0.22971203923225403, -0.15623819828033447, 0.12260949611663818, -0.045135192573070526, 0.23747946321964264, 0.2745799422264099, -0.0324847586452961, 0.9250621199607849], [-0.32853978872299194, -0.5459603071212769, -0.49350079894065857, 0.0469956174492836, 0.28907230496406555, -0.39067772030830383, -0.29918158054351807, 0.2721615731716156, -0.15090779960155487, -0.24249210953712463, -0.04494834318757057, 0.09109517186880112, 0.18967784941196442, 0.11876000463962555, -0.001001636148430407, -0.22620050609111786, -0.05114502087235451, -0.23412080109119415, 0.6081022024154663, -0.06615996360778809], [-0.09889230877161026, -0.4096072316169739, -0.5809279680252075, -0.258823037147522, 0.18542635440826416, -0.47067463397979736, -0.3331802487373352, 0.35885873436927795, 0.30411291122436523, 0.29388952255249023, 0.05250486731529236, 0.16189417243003845, 0.10769626498222351, 0.3567889928817749, -0.01846250705420971, -0.21073149144649506, -0.06311268359422684, -0.11115405708551407, 0.41287633776664734, -0.015188334509730339], [0.05724884569644928, 0.34121987223625183, -0.009700840339064598, -0.13974329829216003, -0.09898722171783447, -0.3780887722969055, 0.17301444709300995, 0.18637818098068237, 0.1027916967868805, 0.13300438225269318, 0.3030073344707489, 0.024507882073521614, 0.13890446722507477, -0.025411704555153847, 0.23195891082286835, -0.038852766156196594, -0.11641492694616318, -0.24927768111228943, -0.1491040289402008, -0.09886776655912399], [-0.17654158174991608, -0.25823962688446045, -0.14472858607769012, 0.20413553714752197, 0.06381233781576157, 0.023629602044820786, -0.34831851720809937, -0.015837926417589188, -0.06915199756622314, 0.23973946273326874, -0.1341952383518219, -0.044813476502895355, -0.015940450131893158, -0.0016454821452498436, 0.033258479088544846, 0.16900864243507385, -0.10632307827472687, -0.13165876269340515, 0.10486742854118347, -0.25484499335289], [-0.010481701232492924, 0.1325494796037674, -0.006744978483766317, 0.3866037428379059, 0.38183513283729553, 0.20276139676570892, 0.28653785586357117, -0.210757777094841, -0.14945365488529205, 0.061764635145664215, -0.15604375302791595, -0.14614537358283997, 0.08797336369752884, -0.2104121446609497, -0.78449946641922, -0.21562759578227997, 0.16406667232513428, 0.097404845058918, -0.21882715821266174, 0.2354596108198166], [0.1576179713010788, -0.1668933928012848, 0.06889166682958603, -0.06505241245031357, -0.018223660066723824, -0.07119390368461609, 0.10199388861656189, 0.24680674076080322, 0.17068833112716675, 0.22991521656513214, 0.16745710372924805, -0.14128975570201874, -0.017668042331933975, -0.0021006781607866287, -0.11337698251008987, -0.12725438177585602, -0.19905780255794525, 0.10380637645721436, -0.06657758355140686, 0.2907518744468689], [-0.047024279832839966, 0.26951098442077637, -0.10369165241718292, -0.08350138366222382, 0.07797635346651077, 0.2486831694841385, 0.2631300985813141, -0.5148388147354126, 0.23219655454158783, -0.4166484475135803, -0.11685163527727127, -0.09117844700813293, -0.12464036792516708, -0.17059694230556488, -0.36486414074897766, -0.040591105818748474, 0.05194190889596939, -0.15659037232398987, -0.06378234177827835, -0.011499474756419659], [-0.04156553000211716, -0.05880645290017128, 0.1357879936695099, 0.2450597584247589, -0.2679730951786041, 0.15604174137115479, -0.2515717148780823, -0.3679516017436981, -0.12395721673965454, 0.15497009456157684, -0.19003993272781372, -0.3709098696708679, -0.3109038472175598, -0.02841690555214882, 0.29650843143463135, -0.3783063590526581, 0.0768347904086113, 0.373367577791214, 0.21334834396839142, 0.05472429096698761], [-0.013598889112472534, -0.11584737151861191, 0.16426174342632294, -0.028525540605187416, 0.16581325232982635, 0.05591271445155144, 0.18413059413433075, -0.3267732262611389, -0.2372330278158188, 0.256360799074173, -0.19630002975463867, -0.17036229372024536, -0.09723785519599915, 0.17229682207107544, -0.19145533442497253, -0.32063066959381104, 0.13436652719974518, -0.0012222592486068606, -0.17195363342761993, -0.030313577502965927], [-0.08610133081674576, -0.16328401863574982, 0.05796847119927406, -0.056094855070114136, 0.2861897349357605, 0.01461646519601345, 0.08321972191333771, 0.027992552146315575, -0.128755584359169, -0.11823136359453201, -0.09588481485843658, 0.055983513593673706, 0.2853313088417053, -0.20875735580921173, -0.47653108835220337, -0.18178774416446686, -0.0875554233789444, -0.01630287431180477, -0.0538061261177063, 0.25690633058547974], [-0.012167071923613548, -0.1770806908607483, 0.16136930882930756, 0.0002539293491281569, 0.22988833487033844, 0.19264493882656097, -0.18951447308063507, 0.05860045179724693, -0.3362983167171478, 0.14303968846797943, -0.214109405875206, 0.18707577884197235, 0.06681977212429047, -0.03757322207093239, 0.12491125613451004, 0.1942809522151947, 0.11593947559595108, -0.13805550336837769, 0.13345566391944885, -0.0676899328827858], [-0.12421351671218872, 0.16873528063297272, 0.06402189284563065, 0.07259275019168854, -0.08487149327993393, -0.29287758469581604, 0.18594805896282196, 0.12222897261381149, 0.21436439454555511, -0.21656127274036407, -0.05658864974975586, -0.05628254637122154, 0.12332043796777725, -0.1797475516796112, -0.03080425038933754, -0.16199550032615662, 0.12317385524511337, -0.0764794871211052, -0.1406654417514801, 0.054286420345306396], [0.12068460881710052, 0.28054550290107727, 0.19978375732898712, 0.005140071269124746, -0.1183939129114151, -0.0925028845667839, 0.07938168942928314, 0.25802621245384216, 0.26206398010253906, 0.35258665680885315, 0.11447304487228394, 0.034698180854320526, 0.45976805686950684, -0.26010218262672424, -0.12549090385437012, -0.12512065470218658, -0.3663937449455261, 0.11903397738933563, 0.17460469901561737, 0.11226264387369156], [0.18245533108711243, -0.14404290914535522, -0.07719232887029648, -0.14161217212677002, -0.0747293084859848, -0.19951236248016357, 0.008030361495912075, 0.11030440777540207, 0.3318331241607666, -0.09371235221624374, 0.00032217620173469186, -0.058541908860206604, -0.03154713660478592, 0.14233213663101196, -0.45183703303337097, 0.03948448225855827, 0.03330095484852791, 0.04874100536108017, 0.005294070113450289, 0.030131831765174866], [-0.13718663156032562, 0.049666956067085266, -0.11876827478408813, -0.09370318800210953, 0.14732196927070618, -0.1459486037492752, 0.02989460714161396, 0.036949995905160904, 0.19752956926822662, -0.4460143446922302, 0.09044750779867172, -0.10162422806024551, 0.21500855684280396, -0.08247490227222443, -0.6573835015296936, -0.25145432353019714, -0.803257167339325, 0.26545602083206177, -0.10535849630832672, 0.25490236282348633], [0.0668012946844101, 0.06891769170761108, 0.2017233669757843, 0.021520225331187248, -0.8709188103675842, 0.03989911451935768, -0.18635453283786774, 0.14431478083133698, -0.018298648297786713, 0.3116651177406311, 0.22256314754486084, 0.06008828431367874, -0.013315866701304913, 0.0579998716711998, 0.8146499395370483, 0.12284673005342484, 0.01612847112119198, -0.2110147774219513, -0.22495408356189728, -0.01074374932795763], [0.10945355147123337, 0.24894925951957703, -0.20822177827358246, 0.29401931166648865, -0.14940401911735535, 0.4136173725128174, -0.20399589836597443, -0.009135260246694088, 0.10589295625686646, 0.6498053669929504, -0.4012890160083771, -1.1952869892120361, -0.10366519540548325, -0.25508302450180054, 0.4208146333694458, -0.04429507255554199, 0.639374315738678, 0.4347355365753174, -0.436021089553833, -1.4325438737869263], [-0.011280995793640614, -0.2732616066932678, -0.22930589318275452, -0.08926386386156082, -0.5352751612663269, -0.05272984877228737, -0.6656038761138916, -0.05697236955165863, -0.47129616141319275, -0.543703556060791, 0.3616674542427063, -0.03373248130083084, -0.20212845504283905, 0.2920321822166443, 0.13794218003749847, 0.1044301837682724, 0.3158552348613739, 0.46514907479286194, 0.6382918357849121, 0.21743066608905792], [0.12371866405010223, -0.19561059772968292, -0.10291863977909088, 0.28837093710899353, -0.37864434719085693, 0.02612769976258278, 0.17073461413383484, 0.18535688519477844, 0.45764487981796265, 0.6324014663696289, -0.45856034755706787, 0.18356239795684814, -0.16416186094284058, 0.14466336369514465, 0.4244714081287384, 0.27083656191825867, -0.07789874076843262, -0.15289610624313354, -0.22418604791164398, -0.49465957283973694], [0.34957727789878845, 0.02772577293217182, -0.30430591106414795, 0.09271551668643951, 1.8411369323730469, 0.14282400906085968, 0.8145558834075928, 0.2153805047273636, 0.503582239151001, 0.8059760332107544, -0.5941076874732971, -0.6552525162696838, -0.3982042074203491, -0.15018650889396667, 1.0394827127456665, -0.2495480179786682, -1.4742892980575562, 0.0739155188202858, -0.5892226099967957, -0.8675402998924255], [0.013894988223910332, 0.007311077788472176, 0.18480630218982697, 0.16132061183452606, 0.20011693239212036, 0.3953089714050293, -0.3214721977710724, 0.15881827473640442, 0.01876380294561386, 0.5732683539390564, -0.08136146515607834, 0.41505107283592224, -0.08042491972446442, -0.021827546879649162, 0.5216332077980042, 0.19615770876407623, 0.05638977140188217, -0.2705613970756531, -0.12150385975837708, -0.5022265911102295], [-0.17317987978458405, 0.055835966020822525, 0.004424495156854391, 0.13022096455097198, 0.20436419546604156, 0.20161086320877075, -0.12527939677238464, -0.21146444976329803, -0.2681520879268646, 0.24491170048713684, -0.061224889010190964, 0.010876532644033432, 0.021579649299383163, 0.20880964398384094, 0.1880928874015808, 0.2134285867214203, 0.2121926248073578, -0.10543827712535858, 0.02729281783103943, -0.12679316103458405], [-0.0988788828253746, -0.0020000494550913572, -0.21446458995342255, -0.49923306703567505, -0.24462297558784485, -0.41935089230537415, -0.045049961656332016, -0.19170349836349487, -0.29374566674232483, -0.8429690003395081, 0.28263312578201294, -0.9831650853157043, 0.7948663234710693, -0.3413865566253662, -5.396818161010742, -0.14507819712162018, 0.5109733939170837, 0.8392038941383362, 0.038167912513017654, 1.0302703380584717], [-0.13642674684524536, 0.051304012537002563, -0.28442680835723877, 0.21360541880130768, 0.12107852101325989, 0.016351327300071716, -0.1176508441567421, -0.10363858938217163, 0.029641781002283096, 0.052882902324199677, -0.17517130076885223, 0.18775206804275513, 0.08399319648742676, 0.06089009717106819, 0.2720000445842743, 0.270826518535614, 0.6357147097587585, -0.17079085111618042, 0.2752359211444855, -0.4847516119480133], [0.30936166644096375, -0.055042073130607605, -0.09819154441356659, 0.15630710124969482, -0.14973874390125275, 0.11042899638414383, 0.09690497815608978, -0.05765565112233162, -0.30969932675361633, -0.4031566083431244, -0.3288434147834778, 0.4723852574825287, -0.29998743534088135, 0.4146139323711395, 0.6407374143600464, 0.07252050191164017, 0.6524006724357605, -0.07785071432590485, 0.09036563336849213, -0.35985878109931946], [-0.19083403050899506, -0.036309864372015, 0.05273732170462608, 0.14818614721298218, -0.18564480543136597, 0.16524314880371094, -0.2503516972064972, -0.4633266031742096, -0.3724313974380493, -0.1317412555217743, -0.04167075827717781, 0.061711784452199936, 0.0571378692984581, -0.008309694938361645, 0.2783001661300659, 0.07972384244203568, 0.04242043197154999, -0.11449797451496124, 0.1644902378320694, -0.021186161786317825], [-0.14779949188232422, -0.28951629996299744, 0.1472913771867752, 0.12182485312223434, -0.0644272118806839, -0.16829079389572144, -0.23554183542728424, 0.1286543309688568, -0.03156318515539169, 0.14477664232254028, 0.08437073230743408, 0.006947991903871298, 0.10428059101104736, 0.056928373873233795, 0.24542665481567383, 0.12485665082931519, -0.08071725070476532, 0.3851025700569153, 0.18439508974552155, -0.011233611963689327], [-0.2580401301383972, -0.14423172175884247, -0.14808721840381622, -0.08307608962059021, 0.08099360018968582, -0.36744511127471924, 0.046722277998924255, 0.22373108565807343, 0.07849596440792084, -0.07876025140285492, 0.2488710880279541, 0.16770227253437042, 0.28721824288368225, -0.05061576887965202, -0.1717103123664856, -0.07534034550189972, -0.015426041558384895, -0.5436462163925171, 0.3193516135215759, -0.223913311958313], [-0.21467863023281097, 0.015669848769903183, -0.16423030197620392, 0.2964261770248413, -0.011822428554296494, 0.09818802028894424, 0.1276901811361313, -0.25230637192726135, -0.05306718498468399, -0.032185353338718414, -0.24621699750423431, 0.03996254503726959, 0.02496303617954254, 0.1484091430902481, 0.25627097487449646, -0.028016699478030205, 0.0655561238527298, -0.06206623092293739, 0.1523730605840683, -0.14504462480545044], [-0.38777390122413635, -0.13491876423358917, 0.0656326562166214, 0.2555113434791565, -0.20848806202411652, -0.19609709084033966, -0.5315495133399963, 0.15271984040737152, -0.16987106204032898, -0.004932182841002941, 0.3029292821884155, 0.20105794072151184, -0.12625913321971893, 0.008601382374763489, -0.19109086692333221, -0.5705385804176331, -0.4669046700000763, -0.09731540828943253, 0.22788678109645844, -0.24530526995658875], [0.0957520380616188, 0.08108525723218918, -0.2455441653728485, -0.11080723255872726, 0.02287914790213108, -0.3989851772785187, 0.24461406469345093, 0.20993520319461823, 0.19510604441165924, 0.0876927375793457, -0.16100063920021057, 0.1512802690267563, -0.06804642826318741, -0.05573618784546852, -0.14246048033237457, -0.1660066395998001, 0.00029442767845466733, 0.3814318776130676, -0.0699130967259407, 0.06157819926738739], [-0.07551742345094681, -0.3358372747898102, 0.09987014532089233, 0.3203236162662506, -0.35392463207244873, -0.07319727540016174, -0.5666153430938721, -0.050847120583057404, 0.03514920175075531, 0.0852876752614975, 0.017799386754631996, 0.08840222656726837, -0.041601769626140594, 0.2887512445449829, -0.16627494990825653, 0.35793766379356384, 0.0927799642086029, -0.007808187510818243, 0.2307763397693634, -0.3133679926395416], [-0.29626160860061646, -0.09899280965328217, -0.0754954069852829, 0.17752258479595184, 0.09298665821552277, -0.22208891808986664, -0.32388046383857727, 0.04319852590560913, -0.060641441494226456, 0.19027961790561676, 0.03619951009750366, -0.04273281991481781, -0.14282502233982086, -0.02763410471379757, -0.06439962983131409, -0.13040971755981445, -0.2006395012140274, -0.30405548214912415, 0.07907513529062271, 0.06913141161203384], [-0.23755237460136414, -0.12975181639194489, 0.08867388963699341, 0.04276657477021217, -0.308458536863327, -0.07772432267665863, -0.44116291403770447, 0.1607455015182495, 0.020137036219239235, 0.05716465413570404, -0.00045336209586821496, -0.06992559880018234, 0.30775293707847595, 0.03267081081867218, -0.15440577268600464, -0.027478663250803947, -0.49951696395874023, 0.16917794942855835, 0.14808015525341034, -0.0025205258280038834], [-0.08887425810098648, -0.2962161898612976, -0.20579954981803894, -0.09077313542366028, 0.11688905954360962, -0.36194953322410583, 0.09526610374450684, 0.1299205869436264, 0.11433259397745132, -0.03469671308994293, -0.09238158911466599, 0.046153925359249115, 0.05521886423230171, 0.121590256690979, 0.17508438229560852, -0.19564823806285858, -0.029304366558790207, -0.38938525319099426, 0.2548321783542633, -0.0913354828953743], [-0.2520260214805603, -0.28530314564704895, 0.2675759196281433, 0.36757978796958923, -0.3078570067882538, 0.18349994719028473, -0.07877117395401001, -0.371418833732605, -0.2370135635137558, -0.21863476932048798, 0.004648189526051283, 0.0087273009121418, 0.0279152300208807, 0.10722137242555618, 0.8887960910797119, -0.1486382633447647, 0.10470752418041229, -0.03793250769376755, 0.17525754868984222, 0.11629202216863632], [-0.19020186364650726, 0.029029080644249916, -0.4225855767726898, 0.0867425724864006, 0.057788535952568054, -0.040886685252189636, -0.023507291451096535, 0.033563222736120224, 0.0014207260683178902, -0.009958185255527496, -0.1149410605430603, 0.10499826818704605, 0.10268710553646088, 0.03585680574178696, -0.18090078234672546, -0.058278512209653854, 0.09700857102870941, 0.016509266570210457, 0.3738485276699066, -0.290421724319458], [-0.07577473670244217, -0.07455959916114807, -0.3960931599140167, -0.07688497006893158, 0.029311763122677803, -0.2618701756000519, 0.03636208921670914, 0.11863428354263306, 0.17084556818008423, -0.10310740023851395, 0.11340578645467758, 0.038094669580459595, 0.14976565539836884, 0.06904087215662003, 0.4860536754131317, -0.20008009672164917, -0.03870095685124397, -0.03582208976149559, 0.20575575530529022, 0.09385927021503448], [-0.03108106553554535, -0.1358691155910492, 0.06806758046150208, 0.20041033625602722, 0.15389971435070038, -0.0380416065454483, 0.11549012362957001, 0.055533286184072495, -0.059870827943086624, 0.07432262599468231, -0.10002569109201431, -0.08417748659849167, 0.05831872299313545, 0.010744004510343075, 0.25143930315971375, -0.15444593131542206, -0.08282715082168579, 0.2333042025566101, -0.035432979464530945, 0.019932374358177185], [-0.2762264907360077, -0.11451652646064758, -0.5693743228912354, 0.2746579945087433, 0.27688825130462646, -0.03488883748650551, 0.02310541458427906, 0.046057041734457016, -0.05620206892490387, -0.03727037087082863, -0.5287399888038635, 0.20531326532363892, 0.10114948451519012, 0.12639881670475006, -0.2025582194328308, -0.23114801943302155, 0.14660462737083435, 0.057809025049209595, 0.6920715570449829, -0.13940614461898804], [-0.13848178088665009, -0.29500624537467957, -0.1732046902179718, 0.24620401859283447, 0.32139888405799866, -0.08503992110490799, -0.32676973938941956, 0.20475295186042786, -0.09467997401952744, -0.1242331713438034, -0.11957458406686783, -0.0695960596203804, -0.17208534479141235, 0.01202209573239088, 0.0940445140004158, -0.29425930976867676, -0.08351442962884903, -0.14391601085662842, 0.24169917404651642, 0.06188102439045906], [0.1142500564455986, -0.05513891950249672, -0.013680990785360336, -0.21404869854450226, -0.09447723627090454, -0.36093106865882874, -0.3153366446495056, 0.3903011381626129, 0.34107470512390137, 0.29561737179756165, -0.0003413468657527119, -0.21397845447063446, -0.0005835804622620344, 0.11161462217569351, -0.10612069070339203, -0.22996747493743896, -0.5296297073364258, -0.002033818745985627, -0.12276379764080048, 0.33236342668533325], [-0.009095855988562107, 0.2306731939315796, -0.1774315983057022, 0.2766907811164856, 0.5632575154304504, 0.15764941275119781, 0.13779330253601074, 0.2560132145881653, 0.05168543756008148, 0.22103601694107056, -0.35050439834594727, 0.9138063192367554, -0.06346945464611053, 0.11842687427997589, 0.6573182940483093, -0.26072484254837036, 0.010690493509173393, -0.8609669208526611, 0.208791583776474, -0.40293827652931213], [-0.21741661429405212, -0.13269077241420746, -0.1658453792333603, 0.09565862268209457, 0.10592091828584671, -0.050204575061798096, -0.4055493474006653, 0.11008703708648682, 0.009638221003115177, 0.22978082299232483, -0.13474878668785095, 0.05685199052095413, -0.047059565782547, 0.1569981873035431, 0.40821704268455505, 0.21157005429267883, -0.10967632383108139, -0.02645137906074524, 0.1956910789012909, -0.36499860882759094], [-0.029898282140493393, 0.07001657038927078, -0.5758126378059387, -0.1514197587966919, 0.4715762734413147, -0.2420477569103241, 0.3737398087978363, 0.16711550951004028, 0.12020770460367203, 0.021133694797754288, -0.2266375720500946, -0.03657831996679306, 0.09758900105953217, -0.0807717815041542, -0.37313225865364075, -0.3450981080532074, 0.023487379774451256, -0.13260608911514282, 0.0991884097456932, -0.1294783353805542]], "rec.bias_ih_l0": [-0.10922855883836746, -0.027161821722984314, 0.3887687921524048, 0.07285445928573608, -0.5865227580070496, 0.08925199508666992, -0.524513840675354, -0.2707044780254364, -0.6887626051902771, 0.5171608328819275, 0.04734749346971512, 0.7550405263900757, 0.32156214118003845, 0.14210647344589233, 1.2248491048812866, -0.237280935049057, -0.5986202955245972, 1.0065970420837402, 0.1886671930551529, 0.748970091342926, 0.04882277175784111, 0.40655601024627686, 0.15729355812072754, 0.4109886586666107, 0.6738595962524414, 0.354422003030777, 0.5360731482505798, 0.5021727681159973, 0.776922345161438, -0.10488278418779373, 0.09723587334156036, -0.4393802881240845, -0.07292836904525757, 0.1630735695362091, -0.061244796961545944, 0.5423354506492615, 0.5203989148139954, -0.17491842806339264, 0.05293574556708336, -0.22018037736415863, -0.23499132692813873, 0.058514922857284546, -0.22429588437080383, 0.09925909340381622, 0.055421579629182816, -0.07105668634176254, -0.15479467809200287, 0.017920643091201782, -0.20233054459095, 0.0071916719898581505, -0.08066220581531525, 0.11044666916131973, -0.043115388602018356, 0.12630817294120789, 0.10119688510894775, 0.03669554367661476, -0.05135797709226608, -0.04342106357216835, 0.23238959908485413, -0.15930695831775665, 0.03348202630877495, 0.07401429861783981, 0.37628495693206787, 0.09254966676235199, 0.11874797940254211, 0.15801990032196045, 0.03331086039543152, 0.006013582460582256, 0.08792011439800262, 0.5351663827896118, 0.18901681900024414, 0.732291579246521, 0.4740295112133026, 0.2683248519897461, 1.2014167308807373, 0.31705015897750854, 0.034683626145124435, 0.6375702023506165, 0.3712635338306427, 0.7928922176361084], "rec.bias_hh_l0": [-0.15142884850502014, -0.15550941228866577, 0.28393685817718506, 0.04614013060927391, -0.6314733624458313, 0.011049860157072544, -0.5048004388809204, -0.03997430577874184, -0.6263726949691772, 0.5963831543922424, 0.115091972053051, 0.7102258801460266, 0.3081061542034149, 0.24713662266731262, 1.223002552986145, -0.45952460169792175, -0.48224765062332153, 1.008069396018982, 0.24391493201255798, 0.7547969818115234, -0.0051080938428640366, 0.34413063526153564, 0.15425948798656464, 0.3384688198566437, 0.9547142386436462, 0.2181100994348526, 0.48670777678489685, 0.1600228250026703, 1.0341544151306152, -0.10174662619829178, 0.012483582831919193, -0.4222276508808136, -0.020207244902849197, 0.11903225630521774, -0.10762757062911987, 0.5819051861763, 0.5280753374099731, -0.0761675164103508, 0.002383461920544505, -0.06597314029932022, -0.1415480375289917, -0.09203037619590759, -0.2996869683265686, 0.06891577690839767, 0.08283758163452148, -0.13522395491600037, 0.2036716789007187, 0.23499509692192078, 0.1714485138654709, -0.04621696472167969, 0.15007182955741882, 0.05141756683588028, -0.110385000705719, 0.015318652614951134, -0.10865167528390884, -0.08415840566158295, 0.21228395402431488, 0.07829950749874115, 0.35865259170532227, -0.24518127739429474, 0.05785957723855972, 0.10050426423549652, 0.48620137572288513, 0.13130035996437073, 0.1450941264629364, 0.4063960611820221, 0.19370299577713013, 0.13868413865566254, 0.1807919442653656, 0.6126787066459656, 0.11635643988847733, 0.7677575945854187, 0.5041348338127136, 0.2534814774990082, 1.1997870206832886, 0.28089475631713867, -0.05147600173950195, 0.6168151497840881, 0.4346153438091278, 0.7110564112663269], "lin.weight": [[-0.22060376405715942, 0.32413122057914734, -0.24519844353199005, -0.38415271043777466, 0.0988956019282341, -0.22366316616535187, -0.06307970732450485, -0.39932936429977417, 0.16795726120471954, -0.5889196395874023, 0.2186548113822937, -0.7770997881889343, -0.6008334159851074, -0.3116762042045593, -0.1340448260307312, 0.2857326865196228, -0.13729335367679596, 1.1792666912078857, 0.21935273706912994, 0.363688200712204]], "lin.bias": [0.17111864686012268]}}