{"model_data": {"model": "SimpleRNN", "input_size": 1, "skip": 1, "output_size": 1, "unit_type": "LSTM", "num_layers": 1, "hidden_size": 20, "bias_fl": true}, "state_dict": {"rec.weight_ih_l0": [[0.11165789514780045], [-0.035227131098508835], [-0.1925434023141861], [0.020869281142950058], [0.25499266386032104], [-0.17928007245063782], [-0.1377938985824585], [0.03370138257741928], [-0.07814431935548782], [-0.005546223372220993], [0.0046898056752979755], [0.44998297095298767], [-0.08676747977733612], [-0.1307099312543869], [-0.10805781930685043], [-0.4939306080341339], [0.3863658607006073], [-0.030058082193136215], [-0.039770107716321945], [0.1112610325217247], [-0.13985641300678253], [-0.14537166059017181], [0.3437817096710205], [-0.16597948968410492], [0.39077067375183105], [0.17234838008880615], [-0.2912156581878662], [0.1334822177886963], [-0.07075046747922897], [-0.30626848340034485], [-0.06000814586877823], [0.37561261653900146], [-0.18162763118743896], [-0.16458967328071594], [0.64483642578125], [0.13966797292232513], [0.3719443380832672], [-0.3656807839870453], [-0.212642639875412], [0.01995982974767685], [-0.23798510432243347], [0.1464458853006363], [0.3844546675682068], [-0.3552636206150055], [0.2898218333721161], [-0.07821925729513168], [0.5606747269630432], [-0.3059234023094177], [-0.6243032813072205], [-0.49559664726257324], [-1.3015090227127075], [-0.8940464854240417], [-0.18636147677898407], [0.4337611198425293], [-0.11673451960086823], [-0.7452578544616699], [-1.0375207662582397], [0.5413762331008911], [-0.3793875277042389], [-0.5804365873336792], [0.3751746714115143], [0.011701302602887154], [0.06441585719585419], [0.06965170800685883], [0.23215249180793762], [0.14829227328300476], [-0.4893404245376587], [0.03178674355149269], [-0.2067442685365677], [-0.08598854392766953], [0.3623693287372589], [0.4091885983943939], [-0.19097021222114563], [0.028086895123124123], [0.24741996824741364], [-0.3207729160785675], [0.43086084723472595], [-0.16920532286167145], [-0.09669168293476105], [0.0635182335972786]], "rec.weight_hh_l0": [[0.8296570181846619, 0.5199196338653564, 0.047747787088155746, 0.22237589955329895, -0.4579019844532013, -0.09717574715614319, -0.2146376669406891, 0.14896145462989807, -0.008567169308662415, -0.01739710196852684, -0.1865551620721817, -0.145915687084198, -0.20478495955467224, -0.2955031991004944, 0.0395524725317955, -0.20592428743839264, -0.14608488976955414, 0.06683959811925888, 0.15540604293346405, -0.00029564727446995676], [0.12611865997314453, -0.15370988845825195, 0.46010634303092957, 0.0003009237698279321, -0.0013511322904378176, -0.6547357439994812, -0.02557104080915451, -0.06754490733146667, 0.03685455769300461, -0.1921762228012085, 0.1669391244649887, -0.1612231284379959, 0.0623006746172905, -0.056137535721063614, 0.23806338012218475, 0.13938911259174347, -0.04291031137108803, -0.28769567608833313, -0.08720292896032333, 0.02522527053952217], [0.1844353973865509, 0.03210373967885971, 0.18602412939071655, 0.3322802186012268, -0.0998067706823349, -0.1433892548084259, -0.20707197487354279, -0.12969808280467987, 0.04774865135550499, 0.05537327751517296, 0.12461180239915848, -0.1329062581062317, 0.14564117789268494, 0.02046870067715645, 0.022655870765447617, -0.1552426964044571, 0.030402185395359993, -0.16428548097610474, 0.07607966661453247, -0.04511254280805588], [-0.15045511722564697, 0.11813092976808548, 0.20490340888500214, -0.4272977113723755, -0.23835229873657227, -0.11804905533790588, 0.17242059111595154, -0.006546170450747013, 0.35972917079925537, 0.009420236572623253, -0.368540495634079, 0.027168182656168938, -0.1696380078792572, -0.2746208906173706, -0.2979001998901367, 0.12500810623168945, 0.16712360084056854, 0.08269374072551727, 0.1352095752954483, 0.07669635117053986], [0.08541004359722137, -0.5128183364868164, -0.06366188079118729, 0.2859693765640259, -0.10753223299980164, -0.4981265068054199, -0.6172283887863159, -0.25910240411758423, 0.14316239953041077, -0.04642527550458908, -0.3139232397079468, -0.16146095097064972, -0.21024945378303528, -0.16467054188251495, 0.2800746560096741, 0.15104396641254425, 0.08526250720024109, 0.3352450728416443, 0.18060645461082458, 0.03852333128452301], [0.34808188676834106, 0.15123651921749115, 0.3464370369911194, -0.07391044497489929, -0.08878909051418304, -0.5742827653884888, -0.34422531723976135, -0.1396264284849167, 0.25427085161209106, -0.10174556076526642, 0.4046216309070587, 0.04731745645403862, -0.08707190304994583, -0.14758287370204926, 0.09904123097658157, -0.03108133003115654, -0.09498324245214462, -0.34667766094207764, -0.1004396453499794, 0.28121665120124817], [-0.2693174481391907, 0.24384772777557373, 0.43830448389053345, -0.09765627980232239, 0.050236620008945465, -0.23189710080623627, -0.2775580883026123, 0.28552576899528503, -0.2317991405725479, -0.19825555384159088, 0.04195897653698921, 0.257184237241745, -0.306483656167984, -0.1011916920542717, 0.23443251848220825, 0.23927940428256989, 0.07701783627271652, 0.2904855012893677, 0.08396696299314499, -0.07813998311758041], [-0.15758387744426727, -0.2564358413219452, 0.10198530554771423, -0.14655956625938416, -0.1275421380996704, -0.11515449732542038, -0.04888254776597023, 0.25757014751434326, 0.19931262731552124, 0.0002184364275308326, 0.2452555149793625, 0.15068405866622925, -0.029502293094992638, -0.03814847394824028, 0.12938906252384186, 0.2563880980014801, 0.09614623337984085, -0.09713339060544968, 0.03708364814519882, 0.10880379378795624], [-0.10351499170064926, -0.2359287589788437, 0.0191973727196455, -0.1296156793832779, 0.23911401629447937, -0.020613553002476692, -0.3025089502334595, -0.02078171819448471, 0.024621617048978806, -0.06216474622488022, -0.08432597666978836, -0.012568078003823757, 0.04281572997570038, -0.007766891270875931, -0.05214228108525276, 0.19563786685466766, 0.15161731839179993, 0.24188604950904846, 0.15808938443660736, -0.001864175545051694], [0.2101234495639801, -0.0631689578294754, 0.1644323468208313, 0.04910584166646004, -0.06366429477930069, -0.28355833888053894, 0.22407065331935883, -0.008077362552285194, -0.04016193002462387, 0.0103447949513793, 0.1940242350101471, -0.0729048103094101, -0.024787431582808495, 0.041395705193281174, -0.04327476769685745, 0.03420598432421684, -0.14214715361595154, -0.25936052203178406, -0.1361977607011795, 0.10910762846469879], [0.06352118402719498, -0.3838883638381958, -0.029026253148913383, -0.4244145154953003, -0.1667744368314743, 0.00878178607672453, -0.08947382867336273, 0.1815265566110611, 0.08502569794654846, 0.2587229013442993, -0.028034131973981857, -0.10946451127529144, 0.2136693149805069, -0.028317052870988846, -0.4481348991394043, 0.18918472528457642, 0.4461542069911957, -0.033749643713235855, -0.05205749720335007, -0.064517080783844], [-0.2392149567604065, 0.00905452761799097, -0.261273592710495, 0.014294885098934174, 0.019500134512782097, 0.08744525909423828, 0.009958501905202866, 0.33729615807533264, 0.059599943459033966, 0.12113720923662186, -0.31940630078315735, -0.014729193411767483, 0.3174530863761902, -0.21226327121257782, -0.029096007347106934, -0.04566448554396629, 0.18161028623580933, 0.4283756613731384, 0.09678874909877777, -0.17832939326763153], [-0.4920009672641754, -0.11121274530887604, 0.19189375638961792, 0.0384574756026268, -0.44294142723083496, -0.19680571556091309, -0.007101778406649828, -0.24697290360927582, 0.24382919073104858, 0.25704818964004517, -0.3407508432865143, 0.1131410151720047, -0.18751777708530426, -0.6765468120574951, 0.23149633407592773, -0.052401456981897354, 0.48208796977996826, 0.5270269513130188, -0.1051313504576683, -0.044577278196811676], [0.12970905005931854, 0.1597267985343933, 0.10660769045352936, 0.08353593200445175, 0.05710061639547348, -0.051696598529815674, 0.01618270017206669, 0.08120064437389374, 0.07595428824424744, 0.10076620429754257, 0.28691601753234863, 0.2840537428855896, -0.20533762872219086, 0.027785710990428925, 0.1930665224790573, -0.16504764556884766, 0.07780198007822037, 0.1316729635000229, -0.1476103663444519, 0.09450515359640121], [0.2976418435573578, 0.524908185005188, 0.41259637475013733, -0.0067218816839158535, -0.09593642503023148, -0.41230860352516174, -0.41069385409355164, 0.03154715895652771, 0.16673316061496735, 0.13839861750602722, 0.4493155777454376, 0.08681832998991013, -0.05206095799803734, 0.2654172480106354, 0.14894571900367737, 0.6237015724182129, 0.01797069050371647, -0.27049577236175537, 0.11750276386737823, 0.02790019102394581], [0.37281355261802673, 0.37876754999160767, 0.3186749815940857, -0.17922590672969818, -0.19682078063488007, -0.04201224446296692, -0.30083996057510376, 0.3286481201648712, 0.07270129770040512, 0.09665583819150925, -0.18834955990314484, 0.057292673736810684, -0.3449154496192932, -0.1256142407655716, 0.3431803286075592, 0.10100915282964706, 0.16250932216644287, 0.3380894362926483, -0.012579040601849556, -0.0456203855574131], [-0.008542587980628014, -0.015212846919894218, -0.18678060173988342, 0.0009587424574419856, 0.022046487778425217, 0.008588217198848724, 0.11161890625953674, 0.1311999410390854, 0.008992682211101055, -0.08496012538671494, 0.022518465295433998, 0.09882986545562744, 0.051667697727680206, -0.07110246270895004, 0.13342368602752686, -0.1674194037914276, 0.029233453795313835, 0.12054194509983063, 0.009425955824553967, -0.06019400805234909], [-0.0037688452284783125, -0.7576016187667847, 0.5961159467697144, -0.24195164442062378, 0.0925324335694313, -0.27602389454841614, -0.15850593149662018, 0.034693196415901184, -0.17733581364154816, 0.00710740452632308, 0.5151810646057129, -0.30036991834640503, -0.09218496084213257, 0.017309576272964478, 0.1431562900543213, 0.024555208161473274, -0.01522527914494276, -0.20490707457065582, -0.10543275624513626, 0.04196994751691818], [-0.05052589625120163, -0.16935136914253235, 0.06248345226049423, -0.0031880743335932493, 0.03818565607070923, 0.24681608378887177, -0.3552992641925812, 0.1652110517024994, 0.01798710785806179, 0.003374421037733555, -0.05379549041390419, -0.16461969912052155, -0.012649297714233398, 0.03748594596982002, 0.1384214609861374, 0.08163329213857651, 0.1809076964855194, 0.2607521712779999, 0.15523722767829895, -0.09895800054073334], [-0.23436239361763, -0.20782212913036346, -0.12997260689735413, -0.3189849853515625, 0.07319702208042145, 0.017924288287758827, -0.05839182436466217, 0.06217406317591667, 0.1493465155363083, -0.046525053679943085, -0.0854509174823761, 0.17433258891105652, -0.03726191073656082, -0.12907399237155914, 0.12556709349155426, 0.10181061923503876, 0.2953719198703766, 0.29763758182525635, 0.11971136182546616, -0.018427759408950806], [0.7495492100715637, 0.8271960020065308, -0.12665949761867523, 0.38199785351753235, 0.05019410327076912, 0.6135772466659546, -0.26568663120269775, -0.012050293385982513, -0.19288566708564758, -0.16357320547103882, -0.14519163966178894, -0.22635523974895477, -0.04125983640551567, -0.007124155759811401, 0.013002541847527027, -0.3258851170539856, -0.18856480717658997, -0.023156194016337395, -0.033382002264261246, 0.03378567099571228], [-0.2386852502822876, 0.8123476505279541, -0.1551685482263565, 0.002522270428016782, 0.1954529583454132, 0.3491998016834259, 0.18433374166488647, 0.022039931267499924, -0.14969687163829803, -0.325173556804657, -0.11182364821434021, -0.006391721777617931, 0.19277197122573853, -0.06927591562271118, 0.16957581043243408, -0.03398967161774635, 0.08614466339349747, -0.015127566643059254, -0.12362714856863022, -0.1455681473016739], [-0.1169915497303009, -0.024057451635599136, -0.25872355699539185, -0.1302952766418457, 0.25498342514038086, 0.23005874454975128, 0.5762688517570496, 0.11927790194749832, -0.16881592571735382, 0.26958659291267395, -0.05782250314950943, -0.12205465137958527, 0.14083708822727203, 0.0770181342959404, -0.31867533922195435, -0.135503888130188, -0.07390820235013962, -0.05718982592225075, -0.03809775784611702, -0.07935212552547455], [0.14370617270469666, 0.07646019756793976, -0.12021948397159576, -0.2641521692276001, 0.053337790071964264, 0.1970244199037552, 0.05616332218050957, -0.04684240743517876, 0.0039031330961734056, 0.03776438534259796, 0.08455099165439606, -0.2980523705482483, 0.15213671326637268, -0.15812186896800995, -0.3111613094806671, -0.18775305151939392, -0.3134961426258087, -0.4753367304801941, 0.16246242821216583, 0.12065020203590393], [0.23983989655971527, 0.047443948686122894, 0.13519147038459778, 0.2891647517681122, -0.1882019191980362, 0.000264136993791908, 0.08850482851266861, -0.04503587260842323, -0.22210447490215302, -0.03376980870962143, -0.009742130525410175, -0.12262175977230072, 0.02778022363781929, 0.1714537888765335, 0.23444342613220215, 0.35273051261901855, -0.2362157702445984, 0.03518268093466759, -0.24214968085289001, 0.13059227168560028], [0.36591774225234985, 0.28355276584625244, 0.10793241858482361, 0.36714595556259155, 0.12366722524166107, -0.08130719512701035, -0.29349085688591003, -0.15028512477874756, -0.30087175965309143, -0.31460458040237427, 0.08967484533786774, -0.2486383020877838, -0.09993363171815872, 0.03174712136387825, -0.11432743817567825, 0.021499600261449814, -0.38604387640953064, -0.5043113827705383, -0.03936667740345001, -0.015016214922070503], [-0.06898630410432816, 0.21815387904644012, -0.3099621832370758, 0.37202921509742737, 0.5250880718231201, 0.41746363043785095, -0.014364193193614483, 0.005573994014412165, -0.47745880484580994, -0.17282970249652863, -0.15096105635166168, 0.004365599248558283, 0.009343758225440979, 0.053801607340574265, 0.011920611374080181, -0.16795550286769867, -0.32187581062316895, -0.03670909255743027, 0.09206192940473557, -0.014322206377983093], [0.15872247517108917, -0.18142366409301758, -0.3817322254180908, -0.1741994470357895, 0.19510780274868011, 0.12857207655906677, -0.16214151680469513, 0.5695255994796753, -0.19563911855220795, -0.07062158733606339, 0.6015331149101257, -0.14514535665512085, 0.22125402092933655, 0.3190712630748749, 0.11436907947063446, -0.061339400708675385, -0.4020835757255554, -0.20421764254570007, -0.02465241774916649, 0.19099360704421997], [-0.038351722061634064, -0.265944242477417, -0.19337324798107147, -0.0185469351708889, 0.3350965976715088, -0.044810231775045395, -0.28198814392089844, -0.06807196885347366, -0.03451859578490257, -0.05421067029237747, -0.09254413843154907, -0.09645736217498779, 0.12284772098064423, 0.06815163046121597, -0.16788709163665771, 0.1695471853017807, 0.062107108533382416, 0.14187578856945038, 0.11159825325012207, 0.026354491710662842], [0.11671902239322662, 0.08387220650911331, 0.05366210266947746, 0.18021386861801147, 0.06368056684732437, 0.22206424176692963, 0.030197104439139366, -0.07131315767765045, -0.11588693410158157, -0.07683064043521881, 0.2548355460166931, -0.12356378883123398, 0.11381219327449799, 0.09942470490932465, 0.20452691614627838, -0.14295914769172668, -0.06398570537567139, -0.1913481205701828, -0.12737222015857697, 0.10002349317073822], [0.2326192408800125, -0.05711069703102112, -0.17251454293727875, 0.13532353937625885, 0.4156440198421478, 0.2246706336736679, 0.04222942888736725, -0.017678277567029, -0.1807483285665512, 0.08411029726266861, 0.4446597993373871, -0.1386324167251587, 0.010719332844018936, 0.3156226873397827, -0.16216030716896057, -0.09355675429105759, 0.06478676199913025, -0.024322619661688805, -0.3213725686073303, 0.22437913715839386], [0.03686528280377388, -0.13879115879535675, -0.2994016408920288, 0.12471957504749298, 0.3728331923484802, 0.015218626707792282, 0.059977225959300995, -0.14658203721046448, -0.30428382754325867, -0.15376870334148407, -0.1997237652540207, -0.47017934918403625, 0.677620530128479, -0.21854911744594574, 0.15031898021697998, -0.12534642219543457, -0.06523243337869644, -0.158400297164917, 0.1406237930059433, -0.19424276053905487], [0.08069322258234024, -0.5113315582275391, -0.9514167904853821, 0.041411142796278, 0.7218296527862549, 0.11379038542509079, 0.11352312564849854, -0.08985451608896255, -0.638433575630188, 0.20503918826580048, 0.3831501603126526, -0.43495070934295654, 0.38020217418670654, -0.3766760528087616, -0.13016220927238464, 0.3537938594818115, -0.7511544227600098, -0.4105628728866577, 0.49907445907592773, 0.35119718313217163], [0.4861857295036316, 0.13308748602867126, -0.10401381552219391, 0.3384561538696289, 0.24707943201065063, -0.2897205352783203, -0.07952404767274857, 0.08162569254636765, -0.11341343820095062, 0.10941589623689651, 0.36770400404930115, 0.2849659025669098, -0.27907100319862366, -0.24699515104293823, 0.14338617026805878, -0.31702306866645813, -0.3343624174594879, -0.23063786327838898, -0.14258725941181183, 0.2553132176399231], [0.2788769006729126, -0.16942550241947174, -0.30564644932746887, -0.14889241755008698, 0.28566133975982666, -0.2045421600341797, 0.285471647977829, 0.06703656911849976, -0.11918375641107559, -0.1022605299949646, 0.22583971917629242, -0.15860791504383087, 0.06769069284200668, 0.325057715177536, 0.16290922462940216, -0.03520102798938751, -0.47701460123062134, -0.49944427609443665, -0.3051740527153015, 0.08410023152828217], [0.128799706697464, -0.5751363039016724, -0.5957223176956177, -0.09505554288625717, 0.9775140285491943, 0.17256712913513184, 0.3797729015350342, 0.16633060574531555, -0.4287339746952057, 0.24886630475521088, -0.23076701164245605, -0.3426711857318878, 0.13448843359947205, 0.09002555906772614, -0.5338515639305115, 0.32359078526496887, -0.2637386918067932, -0.05838800221681595, -0.20149283111095428, -0.01639498770236969], [-0.06405360251665115, -0.1084892749786377, -0.06342113018035889, 0.0946991965174675, 0.16401466727256775, 0.01876234821975231, 0.12071287631988525, -0.00024320562079083174, 0.011983058415353298, -0.1442934274673462, 0.05287141352891922, 0.09056052565574646, 0.13580457866191864, 0.009497696533799171, 0.17061062157154083, -0.1935516744852066, 0.07513073831796646, 0.007963323965668678, -0.09168904274702072, -0.038238029927015305], [0.5031852126121521, -0.22690001130104065, 0.3124453127384186, 0.7211007475852966, -0.011340307071805, -0.4752304255962372, -0.24307286739349365, -0.043336011469364166, -0.557532548904419, 0.014329645782709122, 0.29169514775276184, -0.596065104007721, -0.20269306004047394, 0.069146528840065, -0.19783785939216614, -0.22568413615226746, -0.38566479086875916, -0.32920825481414795, 0.035277530550956726, -0.104752317070961], [0.1498970091342926, -0.09153933823108673, -0.21173179149627686, 0.1147233247756958, 0.2275189757347107, 0.1825590282678604, -0.5314657092094421, 0.09540911763906479, 0.0017742380732670426, 0.05024995654821396, 0.06541465222835541, -0.2119487226009369, 0.040047042071819305, 0.08605436980724335, 0.10896028578281403, 0.08101386576890945, 0.02996654063463211, 0.13005226850509644, 0.23281453549861908, -0.021749265491962433], [-0.0895838662981987, -0.18555669486522675, -0.21803084015846252, -0.06707119196653366, -0.010167623870074749, -0.12812542915344238, -0.0002737943141255528, -0.1685061752796173, 0.05732358247041702, -0.12247280031442642, -0.09312693029642105, -0.17329725623130798, 0.34205567836761475, -0.06929822266101837, -0.034014321863651276, 0.06604474037885666, -0.039559442549943924, -0.21570955216884613, 0.09356824308633804, -0.0688890665769577], [0.4221954643726349, -0.007416379638016224, -0.5004171133041382, 0.6073556542396545, -0.6766126751899719, -0.11576702445745468, -0.46234020590782166, 0.5829306244850159, 0.0942157506942749, 0.03678358346223831, -0.22812187671661377, -0.025085343047976494, -0.2529395520687103, 0.14353567361831665, -0.5573163032531738, -0.23783177137374878, -0.1953820139169693, -0.0766206905245781, 0.3204782009124756, -0.004461480770260096], [0.9589604139328003, 0.19733108580112457, -0.7017456293106079, 0.14896130561828613, -0.1816466897726059, 0.1830364316701889, 0.3052525818347931, 0.10081041604280472, 0.15269318222999573, 0.6973096132278442, 0.4133490025997162, 0.024051150307059288, 0.3141385316848755, 0.07514011859893799, -0.135717511177063, 0.3655625581741333, -0.4966014325618744, 0.7097416520118713, 0.23863334953784943, 0.6279287934303284], [0.15590035915374756, 0.9799436330795288, 0.17108452320098877, -0.06258516758680344, -0.29272404313087463, 0.10605370998382568, -0.13144996762275696, 0.4161401391029358, -0.2008296549320221, -0.056965697556734085, -0.0018586653750389814, -0.255740225315094, -0.06893549859523773, -0.13236302137374878, 0.2332156002521515, 0.41005170345306396, -0.04382656142115593, 0.01937156543135643, -0.29808947443962097, 0.09100139141082764], [0.34972116351127625, 0.005421602167189121, -0.2910119891166687, 0.3609236180782318, 0.15010882914066315, 0.2897038757801056, -0.769183874130249, -0.11332453042268753, 0.06586380302906036, 0.03750627115368843, -0.10519079118967056, -0.12642629444599152, -0.3630572557449341, -0.10496191680431366, -0.04850483685731888, -0.23485907912254333, -0.05691838264465332, 0.34219059348106384, 0.14988228678703308, -0.053227271884679794], [-0.18323953449726105, 0.26181644201278687, 0.5249834060668945, 0.20181594789028168, 0.09237881749868393, -0.18697041273117065, -0.2157995104789734, -0.24466468393802643, -0.12765665352344513, 0.30289149284362793, 0.6656937599182129, 0.2702195644378662, 0.4807959496974945, 0.05383065715432167, 0.8196620345115662, 0.6326225996017456, -0.07028639316558838, -0.08069922029972076, -0.1569020301103592, 0.17485249042510986], [-0.10972380638122559, -0.7039070725440979, -0.11598385125398636, -0.26911669969558716, 0.30707848072052, 0.296705961227417, 0.017523184418678284, 0.4659014046192169, -0.15009529888629913, 0.29458141326904297, -0.07686738669872284, 0.04126335680484772, 0.09310458600521088, 0.10798314213752747, 0.08305636048316956, 0.05181441083550453, 0.23798151314258575, 0.567402184009552, -0.3923425078392029, -0.04830047860741615], [-0.1031801849603653, 0.4042912721633911, -0.043461378663778305, 0.046587031334638596, -0.3839365839958191, -0.20564018189907074, 0.3027428090572357, 0.2257479876279831, 0.01534578762948513, -0.2634243071079254, -0.40488141775131226, 0.25430747866630554, 0.09761208295822144, -0.054343193769454956, -0.3744145929813385, 0.050279248505830765, -0.046146076172590256, -0.3021860122680664, -0.08128996193408966, 0.14737184345722198], [-0.01281642820686102, -0.7415359616279602, -0.2485753744840622, -0.5165146589279175, -0.49223458766937256, 0.14519457519054413, 0.1192731112241745, 0.31021904945373535, -0.14324578642845154, 0.002611548872664571, -0.12006928771734238, 0.366664856672287, -0.08718012273311615, -0.3126000165939331, -0.16398797929286957, -0.36409011483192444, -0.07191967219114304, 0.061867959797382355, -0.13363753259181976, -0.07039357721805573], [-0.09161695092916489, -0.3431524932384491, -0.11564048379659653, -0.05882522836327553, 0.10490024089813232, -0.47483059763908386, 0.13194076716899872, -0.6518941521644592, 0.1294350028038025, 0.11037181317806244, -0.07446418702602386, 0.16957059502601624, -0.06171403452754021, 0.10234782844781876, 0.12475962936878204, 0.19354873895645142, 0.2278503030538559, -0.0009321199613623321, 0.09630764275789261, 0.314221054315567], [0.13117437064647675, -0.7805050611495972, -0.1804378628730774, -0.0689842700958252, -0.19722014665603638, 0.07041455060243607, 0.4302546977996826, 0.19114500284194946, -0.15246328711509705, -0.010327593423426151, 0.13839828968048096, 0.011858943849802017, -0.27151066064834595, -0.25359660387039185, -0.14384594559669495, 0.6743253469467163, -0.179595485329628, -0.19660210609436035, 0.1307157576084137, 0.08527055382728577], [0.3680233061313629, -0.027513539418578148, 0.3018762767314911, -0.05590395629405975, -0.5626352429389954, -0.030949315056204796, 0.4437187910079956, 0.7959163188934326, -0.29556989669799805, 0.06729806959629059, -0.003890083869919181, 0.015290552750229836, 0.311056524515152, -0.13480231165885925, 0.1900300681591034, 0.19220755994319916, 0.09779747575521469, -0.41195669770240784, -0.1595090627670288, -0.1579238921403885], [-0.23968471586704254, -0.35156041383743286, 0.04976407811045647, -0.20237380266189575, -0.019519569352269173, -0.2170669436454773, 0.5416402220726013, -0.01255077589303255, -0.03620319440960884, -0.03172674775123596, 0.25860488414764404, 0.11690372973680496, -0.28943949937820435, -0.1595028191804886, -0.05606021732091904, 0.07535829395055771, -0.01910461112856865, -0.1452614963054657, -0.1812928169965744, 0.28157496452331543], [-0.028133397921919823, -0.03678181767463684, -0.3086796998977661, -0.10046187043190002, -0.39725974202156067, 0.2711207866668701, 0.0800616592168808, -0.04133616015315056, -0.022425947710871696, -0.12495672702789307, -0.366265207529068, -0.12953415513038635, 0.5432656407356262, 0.06953997910022736, -0.12983255088329315, 0.11979169398546219, 0.260814905166626, -0.27257874608039856, 0.18142783641815186, -0.16166502237319946], [-0.2455543577671051, 0.09025752544403076, 0.0012256177142262459, 0.2496715784072876, 0.196261465549469, 0.2784099876880646, -0.13747471570968628, -0.4465475380420685, -0.007973364554345608, 0.018205096945166588, -0.11062931269407272, -0.3564969599246979, 1.1051620244979858, 0.15197031199932098, 0.17511114478111267, 0.09958351403474808, -0.1783439666032791, -0.08725053817033768, 0.08787643164396286, -0.18911544978618622], [-0.13382461667060852, 0.528795063495636, 0.031597722321748734, -0.3802146315574646, 0.0767095610499382, -0.027072887867689133, -0.13409221172332764, 0.2741105556488037, 0.06551992893218994, 0.13755184412002563, 1.2331676483154297, 0.11814504116773605, 0.5675063729286194, 0.06667693704366684, 0.30306708812713623, 0.2391015738248825, 0.030955243855714798, -0.1033247783780098, 0.004723125137388706, -0.20413152873516083], [-0.15974034368991852, 0.059538181871175766, 0.2907174825668335, -0.046267807483673096, -0.670670211315155, -0.03920742869377136, 0.08458828181028366, 0.13234195113182068, 0.05599869415163994, 0.1368342638015747, -0.1246991977095604, 0.022990943863987923, 0.19405622780323029, 0.010031672194600105, -0.8960078954696655, 0.6218176484107971, 0.28903552889823914, -0.14142084121704102, -0.15511630475521088, -0.013385928235948086], [-0.5201423168182373, -0.5191124677658081, 0.19894056022167206, -0.3235369324684143, 0.5748792886734009, 0.18535339832305908, 0.12026481330394745, -0.22122588753700256, 0.010818727314472198, -0.0964999869465828, -0.3468371033668518, 0.32337549328804016, -0.10919522494077682, 0.08109116554260254, 0.16086724400520325, 0.21718503534793854, 0.07130031287670135, 0.15355248749256134, -0.2551523447036743, 0.2097233384847641], [-0.38721734285354614, -0.5465841889381409, -0.5083189606666565, -0.273286372423172, 0.34375903010368347, 0.08214306086301804, -0.09637805819511414, 0.2458151876926422, 0.24921365082263947, 0.017845025286078453, 0.25096777081489563, 0.25118255615234375, -0.3606054186820984, 0.16977040469646454, 0.36117681860923767, 0.5355901122093201, 0.22483818233013153, 0.0909559577703476, 0.5704203248023987, 0.11346583813428879], [-0.11958849430084229, -0.17830322682857513, -0.2634652853012085, 0.0030485668685287237, -0.16609534621238708, 0.22526542842388153, -0.4176696538925171, 0.09468120336532593, 0.15721705555915833, 0.1605239063501358, 0.3754527270793915, -0.025698557496070862, 0.5463878512382507, -0.025715189054608345, -0.05672760307788849, 0.01336673554033041, 0.4048914611339569, 0.14911368489265442, 0.11164150387048721, -0.1553579866886139], [0.317600816488266, -0.05685947462916374, 0.1702699363231659, 0.06601832062005997, -0.24789604544639587, -0.357666552066803, 0.1179112121462822, -0.30227717757225037, -0.12296333909034729, -0.08291208744049072, 0.1912926733493805, 0.10457519441843033, -0.28262990713119507, -0.033983372151851654, -0.3013598918914795, 0.11779192090034485, -0.19840161502361298, -0.04502633213996887, 0.1744897961616516, 0.0601978525519371], [0.5474035739898682, -0.4885063171386719, -0.35118722915649414, -0.37656205892562866, 0.19710153341293335, 0.33397671580314636, -0.15388119220733643, 0.1964409053325653, -0.19254979491233826, 0.06425467133522034, -0.1256738007068634, 0.05062736198306084, -0.05091679468750954, -0.15716642141342163, 0.2704854905605316, -0.32340008020401, 0.010577131994068623, 0.18709544837474823, 0.15779860317707062, -0.05046410113573074], [0.14928887784481049, -0.3299008309841156, 0.3302913308143616, 0.13974425196647644, 0.18479424715042114, -0.676873505115509, -0.06874573230743408, -0.17918413877487183, -0.02175566554069519, -0.09960486739873886, 0.18351294100284576, -0.22675052285194397, -0.0470622293651104, -0.012410026974976063, 0.05019007623195648, 0.15659984946250916, -0.08000843226909637, -0.4490775167942047, -0.08886931836605072, 0.06830806285142899], [0.16211307048797607, -0.20086802542209625, 0.3964998126029968, -0.37368568778038025, -0.17531517148017883, 0.07661311328411102, -0.09321094304323196, 0.13610908389091492, 0.14238221943378448, 0.11787669360637665, 0.07708416879177094, -0.2813440263271332, 0.16938120126724243, -0.18195576965808868, 0.10199533402919769, -0.03120131604373455, -0.027774415910243988, 0.23771443963050842, 0.08568723499774933, 0.049503110349178314], [0.19023537635803223, 0.042037539184093475, 0.1483508050441742, -0.4540514647960663, -0.3718793988227844, -0.49391448497772217, -0.0065215881913900375, 0.16396686434745789, 0.2838073670864105, 0.1413387805223465, -0.047106944024562836, -0.1402665376663208, 0.015086875297129154, -0.18741661310195923, -0.26954203844070435, 0.04945094883441925, -0.19396044313907623, -0.3221428394317627, 0.19629471004009247, 0.12521210312843323], [0.2525005340576172, -0.18744446337223053, -0.25967881083488464, 0.30122560262680054, -0.014798415824770927, -0.3022060990333557, -0.44110387563705444, -0.0963100716471672, -0.03738424554467201, -0.1460827738046646, -0.3455291986465454, -0.3732554018497467, -0.11678223311901093, -0.012693026103079319, 0.23564018309116364, 0.07346618175506592, -0.1715988963842392, 0.31460702419281006, 0.037409305572509766, 0.0415731742978096], [0.17668403685092926, 0.0780039057135582, 0.4735338091850281, 0.11596278101205826, -0.06636106222867966, -0.6276172399520874, -0.22949840128421783, -0.16268010437488556, 0.25289297103881836, -0.5358643531799316, 0.1039082482457161, -0.09775348007678986, 0.045116886496543884, 0.11083772033452988, -0.053676676005125046, -0.17206786572933197, -0.1314525604248047, -0.2551112473011017, -0.18574018776416779, 0.22616130113601685], [0.07883921265602112, -0.04565141722559929, 0.19358831644058228, 0.2004084289073944, 0.22846032679080963, -0.15797360241413116, -0.4375423192977905, 0.034151606261730194, -0.0557069256901741, -0.16373257339000702, -0.09204602986574173, 0.0063706450164318085, -0.23408545553684235, 0.13308919966220856, 0.11873936653137207, 0.14083074033260345, -0.012326548807322979, 0.06820989400148392, 0.2519169747829437, 0.06753833591938019], [-0.19003111124038696, -0.20951206982135773, -0.0802713930606842, -0.1839360147714615, -0.023223210126161575, 0.11372100561857224, 0.10908854007720947, 0.5777300596237183, 0.03550003096461296, -0.05140567570924759, 0.10614766925573349, -0.04403504356741905, 0.01306407805532217, 0.07421665638685226, 0.009881028905510902, 0.23167520761489868, 0.035775721073150635, 0.029758887365460396, -0.07627606391906738, 0.0072850980795919895], [-0.19180628657341003, -0.17583121359348297, -0.03620326146483421, -0.03999096900224686, 0.336264044046402, -0.09055998176336288, -0.3337670862674713, -0.10871083289384842, 0.09694560617208481, -0.011691178195178509, -0.15476880967617035, 0.051196128129959106, 0.021260850131511688, -0.01426379382610321, -0.09493055939674377, 0.2948351800441742, 0.30621063709259033, 0.35779839754104614, 0.16651123762130737, 0.012267502956092358], [0.2122916877269745, -0.17654341459274292, 0.2782433032989502, 0.15188583731651306, -0.06513075530529022, -0.3705092668533325, 0.2090490460395813, -0.018576867878437042, 0.04958024248480797, -0.015773842111229897, 0.2577337920665741, 0.04159003868699074, -0.04615318030118942, 0.050644442439079285, -0.013558469712734222, 0.038168635219335556, -0.08151602745056152, -0.22217293083667755, -0.19873318076133728, 0.15981535613536835], [0.10508233308792114, -0.2242310345172882, 0.06169132888317108, -0.1124226525425911, -0.07172892987728119, -0.45397746562957764, 0.0129307946190238, 0.0332050696015358, -0.0003621896030381322, 0.08801276236772537, 0.10684582591056824, -0.02145586535334587, 0.0007056143949739635, -0.1692606657743454, -0.18770644068717957, 0.2807055115699768, -0.09813116490840912, -0.2111351490020752, -0.11656387150287628, 0.028858758509159088], [-0.03844616562128067, -0.16623307764530182, -0.36601200699806213, 0.07588423043489456, 0.03679925948381424, 0.11309526860713959, -0.14442817866802216, -0.011544433422386646, 0.09204782545566559, -0.016135333105921745, -0.23540030419826508, -0.038283322006464005, 0.25192421674728394, -0.1536474972963333, 0.031114965677261353, -0.18631085753440857, 0.06437569111585617, 0.08537125587463379, 0.14437919855117798, -0.04964312165975571], [-0.21058031916618347, -0.08355461806058884, -0.4158121645450592, 0.05908133462071419, -0.6786524653434753, -0.15196745097637177, -0.011951882392168045, 0.09659366309642792, 0.07281854748725891, 0.20105944573879242, -0.23134243488311768, -0.22396551072597504, 0.24168218672275543, -0.42302289605140686, -0.1664121150970459, -0.028021549805998802, 0.005871094297617674, -0.3116008937358856, -0.003777171950787306, -0.4183739721775055], [0.21590988337993622, -0.01692354306578636, 0.10562843829393387, 0.043862298130989075, 0.058711256831884384, -0.20076079666614532, 0.06980624049901962, 0.11311884224414825, 0.07161698490381241, 0.09107634425163269, 0.34741508960723877, 0.3678543269634247, -0.31369391083717346, -0.02584734372794628, 0.26239991188049316, -0.2513863444328308, -0.007249204907566309, 0.06628737598657608, -0.1468307077884674, 0.13169120252132416], [0.04165259003639221, 0.4520460069179535, 0.337755411863327, -0.10799720883369446, 0.08684605360031128, -0.07150623202323914, -0.11538522690534592, 0.041010044515132904, 0.10203349590301514, -0.12430877983570099, -0.056039270013570786, -0.125751793384552, -0.12522675096988678, 0.16557106375694275, 0.3892081379890442, 0.5624140501022339, -0.05582554638385773, -0.07090763747692108, -0.04792198911309242, 0.04056984931230545], [0.2451474666595459, 0.13406027853488922, -0.02259451150894165, -0.06426621228456497, 0.5297616124153137, -0.06708578765392303, -0.1216883584856987, 0.03681096062064171, -0.077515609562397, 0.05596024543046951, -0.13687863945960999, -0.1393636167049408, -0.009847232140600681, -0.04285057634115219, -0.02617397904396057, -0.1660255342721939, -0.007566529791802168, 0.12123707681894302, 0.06374344974756241, -0.1134423315525055], [-0.05012454837560654, -0.2507219910621643, -0.2048884928226471, 0.018447676673531532, 0.1835985630750656, 0.01446605660021305, 0.125374436378479, 0.10388986021280289, -0.006682332139462233, -0.07498461753129959, 0.003950873389840126, 0.04523361474275589, 0.07203274965286255, -0.04546486958861351, 0.17816190421581268, -0.16953438520431519, 0.10914697498083115, 0.20339591801166534, 0.02640928141772747, -0.05952352657914162], [-0.3193717300891876, 0.1942942887544632, 0.45847848057746887, -0.5590956807136536, -0.3031522333621979, 0.1019713431596756, -0.023823732510209084, 0.08403251320123672, -0.034502048045396805, 0.02124951034784317, 0.21695223450660706, -0.31471097469329834, 0.1717258244752884, 0.03939744457602501, 0.028770502656698227, -0.10048781335353851, 0.13549882173538208, -0.16765448451042175, -0.05695442110300064, 0.16354261338710785], [0.02082057110965252, -0.14729079604148865, -0.006191566586494446, 0.06448085606098175, 0.08849696069955826, 0.1891987919807434, -0.4559642970561981, 0.1387166827917099, 0.07966534793376923, -0.0115364920347929, -0.05028289183974266, -0.17572149634361267, -0.0468030646443367, 0.049833107739686966, 0.13037872314453125, 0.023201122879981995, 0.13479556143283844, 0.23385325074195862, 0.23054389655590057, -0.08998466283082962], [-0.28905168175697327, -0.25556454062461853, -0.09451069682836533, -0.21763308346271515, 0.09146881103515625, 0.12247980386018753, -0.0749681144952774, 0.09527908265590668, 0.15901321172714233, -0.08771120756864548, -0.12407433241605759, 0.14532369375228882, -0.04060268774628639, -0.06950807571411133, 0.125406414270401, 0.12924523651599884, 0.2856858968734741, 0.5198959112167358, 0.10775358229875565, -0.03801250830292702]], "rec.bias_ih_l0": [-0.2181943655014038, 0.28709861636161804, -0.03139990195631981, -0.4127134382724762, -0.2547605633735657, -0.19555535912513733, -0.22731301188468933, -0.5353546142578125, -0.08359724283218384, 0.11613151431083679, -0.40816712379455566, -0.19388189911842346, -0.7165616750717163, -0.42591506242752075, -0.43947622179985046, -0.568302571773529, 0.0012892716331407428, 0.09473472833633423, -0.1947774440050125, -0.37871983647346497, 0.43938419222831726, 0.44922924041748047, 0.6752750873565674, 0.6763585209846497, 0.47023284435272217, 0.5560916662216187, 0.4704381227493286, 0.6324717998504639, 0.2367270588874817, 0.18558521568775177, 0.6709152460098267, 0.3997719883918762, 1.164278268814087, 0.5112279653549194, 0.4807281196117401, 0.8528702855110168, -0.01960311271250248, 0.33044373989105225, 0.08045977354049683, 0.3355932831764221, 0.0826372429728508, -0.27708888053894043, -0.043615348637104034, -0.09255171567201614, 0.1271260380744934, -0.11173588782548904, -0.07826581597328186, 0.029648976400494576, -0.06056198477745056, -0.03358377888798714, -0.02643730491399765, 0.022707398980855942, 0.06181495264172554, 0.005799693521112204, -0.0013673948124051094, 0.04296043887734413, -0.11318223923444748, -0.15530094504356384, -0.03427952900528908, 0.14049704372882843, -0.07271181792020798, 0.698357343673706, -0.06293298304080963, 0.12421489506959915, 0.2900261878967285, 0.07834557443857193, 0.28546807169914246, -0.10734796524047852, -0.28411614894866943, -0.00221383199095726, 0.16507674753665924, -0.04652881622314453, -0.19371704757213593, -0.16629445552825928, 0.02346375584602356, 0.023930298164486885, 0.09151745587587357, 0.054000239819288254, -0.262776255607605, -0.17588293552398682], "rec.bias_hh_l0": [-0.28757888078689575, 0.3200305998325348, -0.1003660336136818, -0.2420251965522766, 0.00788508728146553, -0.10907746106386185, -0.22548846900463104, -0.34289538860321045, -0.0675213560461998, 0.11025150120258331, -0.5980986952781677, -0.3406727910041809, -0.7170878648757935, -0.40784189105033875, -0.46632564067840576, -0.5906084179878235, -0.04625321924686432, 0.05293477699160576, -0.2758472263813019, -0.33521437644958496, 0.41832923889160156, 0.41969168186187744, 0.3599556088447571, 0.4468257427215576, 0.5141367316246033, 0.45708951354026794, 0.7745653986930847, 0.5020401477813721, 0.22905881702899933, 0.27371689677238464, 0.5270969867706299, 0.4379768669605255, 0.9655554890632629, 0.4396228492259979, 0.5257885456085205, 0.9865730404853821, -0.05593675747513771, 0.31214210391044617, 0.06708094477653503, 0.20764976739883423, -0.14074087142944336, -0.016881778836250305, -0.1781473308801651, 0.10708323121070862, 0.21133756637573242, 0.11625614017248154, 0.11535288393497467, 0.0034749486949294806, -0.13124455511569977, -0.022090958431363106, 0.14567683637142181, -0.14216235280036926, -0.07146590203046799, 0.05802134796977043, -0.1424042135477066, 0.06534484028816223, -0.06597037613391876, -0.03405766189098358, -0.007592595648020506, -0.022080201655626297, -0.139785036444664, 0.6076807379722595, -0.022216245532035828, -0.1070035919547081, 0.23203490674495697, -0.027141395956277847, 0.2836526036262512, -0.20843440294265747, -0.23793113231658936, -0.008764910511672497, 0.08315631002187729, 0.04486119747161865, -0.08285659551620483, -0.32124704122543335, -0.09903649240732193, -0.05805971845984459, 0.1879466325044632, 0.014179542660713196, -0.10683701932430267, -0.44334813952445984], "lin.weight": [[-0.004020297899842262, 0.6962183117866516, -0.35414645075798035, 0.03960702568292618, -0.09359665215015411, 0.7447398900985718, -0.4008711278438568, 0.25261348485946655, 0.2757200300693512, 0.4848811626434326, 0.049544647336006165, 0.45566004514694214, -0.3587949872016907, -0.3449980318546295, -0.08023998886346817, 0.16805674135684967, 0.3150772452354431, 0.1305902600288391, 0.07079434394836426, 0.01991279236972332]], "lin.bias": [0.0827832967042923]}}