{"model_data": {"model": "SimpleRNN", "input_size": 1, "skip": 1, "output_size": 1, "unit_type": "LSTM", "num_layers": 1, "hidden_size": 20, "bias_fl": true}, "state_dict": {"rec.weight_ih_l0": [[-0.020533543080091476], [0.0146602438762784], [0.1007797047495842], [-0.051856882870197296], [0.000500041467603296], [0.19976699352264404], [0.04736115410923958], [-0.02527593821287155], [0.047512467950582504], [0.06719324737787247], [0.024564465507864952], [-0.0801398828625679], [0.011728309094905853], [-0.058437250554561615], [-0.05987420305609703], [-0.062080029398202896], [0.061746738851070404], [0.04916169121861458], [0.10684362798929214], [0.06592690199613571], [-0.019244538620114326], [0.053928788751363754], [0.08166027069091797], [-0.10912126302719116], [-0.011671850457787514], [0.12730997800827026], [0.08623429387807846], [0.005873918998986483], [0.04091682285070419], [-0.08175026625394821], [0.0014642885653302073], [-0.22452528774738312], [-0.0317862369120121], [-0.030503233894705772], [-0.05268044397234917], [-0.06855608522891998], [0.13895106315612793], [0.05915487930178642], [0.062459636479616165], [-0.1622915118932724], [0.4167674481868744], [-0.5261332988739014], [0.12196103483438492], [0.40701958537101746], [0.2536527216434479], [0.8732640743255615], [0.3868090808391571], [0.013627463020384312], [-0.47540125250816345], [-0.27410081028938293], [0.12331300228834152], [-0.07487001270055771], [-0.4489783048629761], [0.3001929223537445], [-0.19653019309043884], [-0.08636303246021271], [-0.5244564414024353], [-0.340204119682312], [0.143356591463089], [-0.08855316042900085], [-0.04103461280465126], [0.017583733424544334], [0.12015075236558914], [0.04478747025132179], [-0.10302674770355225], [0.11410234868526459], [-0.003028140403330326], [-0.04705271124839783], [0.0788804292678833], [0.0534893274307251], [-0.14115412533283234], [-0.05447182431817055], [-0.004440606106072664], [0.0004041443462483585], [-0.01623000204563141], [-0.05906320735812187], [-0.0689907819032669], [0.04226979613304138], [0.15289051830768585], [0.15087153017520905]], "rec.weight_hh_l0": [[-0.08795370161533356, -0.10710588842630386, 0.21440857648849487, 0.08420835435390472, 0.02372707799077034, -0.0071471082046628, 0.10413236916065216, 0.0246312003582716, -0.009069309569895267, -0.026244355365633965, 0.1904996782541275, 0.01168612577021122, 0.00947867427021265, 0.024387622252106667, -0.03505956381559372, -0.040968023240566254, -0.21404342353343964, -0.02466999553143978, 0.14273257553577423, -0.03391937166452408], [-0.06238577514886856, 0.01377179566770792, 0.08668260276317596, 0.05768151953816414, -0.1441839188337326, 0.0868346318602562, 0.0869264155626297, -0.050571732223033905, -0.10604282468557358, -0.15106670558452606, 0.1768704205751419, 0.09460554271936417, 0.06565859913825989, -0.05868186801671982, -0.1421479433774948, -0.07427520304918289, -0.05233357474207878, -0.01751835271716118, 0.17546792328357697, 0.020761854946613312], [-0.0028194955084472895, 0.020464956760406494, 0.18890517950057983, 0.008780363947153091, -0.19670382142066956, 0.08961673080921173, -0.06992965936660767, 0.08797308057546616, -0.07234568148851395, 0.04673132672905922, -0.11095377057790756, 0.15755382180213928, 0.11405929923057556, 0.004242808558046818, 0.23995976150035858, -0.08727952092885971, 0.12909051775932312, -0.04562114551663399, -0.027739377692341805, -0.02863544225692749], [0.02003936842083931, -0.2700900137424469, -0.23388147354125977, 0.021065598353743553, 0.0664956197142601, 0.09432274848222733, -0.3610133230686188, -0.03121069073677063, 0.04014304280281067, 0.15571364760398865, -0.6456021070480347, 0.021772732958197594, 0.3600243031978607, 0.037806715816259384, 0.04832100495696068, -0.13718953728675842, 0.6081151962280273, 0.16711942851543427, -0.3982762098312378, 0.07812269032001495], [0.029511552304029465, -0.056296397000551224, 0.03741183876991272, 0.027638521045446396, -0.3487239181995392, -0.014615903608500957, 0.058749422430992126, -0.03570130467414856, -0.1509411633014679, -0.0025224280543625355, 0.17754676938056946, -0.09137161821126938, 0.06582901626825333, 0.0050743804313242435, -0.11923039704561234, -0.038878124207258224, -0.13533617556095123, -0.03911927714943886, 0.2707781195640564, -0.013902449049055576], [-0.11753451079130173, -0.059544991701841354, 0.02105041965842247, 0.038066595792770386, 0.019076230004429817, 0.03303727135062218, -0.0895785465836525, -0.003241794416680932, 0.04669477790594101, -0.015879517421126366, -0.27223461866378784, 0.007949222810566425, 0.1184394583106041, -0.09524696320295334, -0.05781161040067673, -0.19763118028640747, 0.18794773519039154, -0.0968034565448761, -0.17391492426395416, 0.03632882237434387], [-0.15467308461666107, 0.02810012362897396, -0.09668411314487457, -0.15488064289093018, 0.15138952434062958, 0.01712816394865513, 0.0886155292391777, 0.13365782797336578, 0.0511552169919014, 0.002247431082651019, -0.3613501191139221, 0.0793623998761177, 0.05400799587368965, -0.050040602684020996, -0.046634744852781296, 0.10967318713665009, 0.24752548336982727, -0.008516533300280571, -0.24572433531284332, -0.07728792726993561], [-0.0975433811545372, -0.011418452486395836, -0.07627717405557632, -0.08379698544740677, -0.01920805126428604, 0.15703390538692474, -0.07457040250301361, -0.005652012303471565, 0.06621048599481583, -0.008164886385202408, -0.17096340656280518, 0.14371344447135925, 0.16583548486232758, -0.29726916551589966, 0.2145984172821045, 0.11459913849830627, 0.2327229380607605, -0.024694355204701424, -0.18749676644802094, 0.1969495415687561], [0.027543487027287483, -0.08367478847503662, 0.10742198675870895, 0.015709079802036285, -0.21427081525325775, 0.0074537573382258415, -0.020549461245536804, -0.04445943236351013, -0.0524626225233078, -0.13526444137096405, 0.050960492342710495, 0.012247612699866295, 0.023230234161019325, -0.07133617252111435, -0.19039493799209595, -0.05544665455818176, 0.03262628614902496, -0.1320154219865799, 0.13759435713291168, -0.03204093128442764], [-0.026738690212368965, 0.0311033483594656, 0.2375403344631195, 0.03872282803058624, 0.058467209339141846, -0.08315324038267136, 0.06524989008903503, -0.009504423476755619, -0.11875637620687485, 0.03676852211356163, 0.008119114674627781, -0.023451518267393112, -0.12109162658452988, -0.0451413132250309, -0.1036299616098404, 0.1271950900554657, -0.13376565277576447, -0.013671595603227615, 0.0742882564663887, -0.06448209285736084], [-0.037892282009124756, -0.049993690103292465, -0.020836103707551956, 0.05431317910552025, 0.05663786455988884, 0.03474687412381172, 0.03997725620865822, 0.0028108139522373676, 0.12682346999645233, -0.006183160003274679, 0.11927016079425812, 0.005110317375510931, -0.10139746218919754, 0.0006369349430315197, -0.04127303138375282, -0.020424500107765198, -0.16698065400123596, -0.0513511560857296, 0.118232861161232, -0.08425164967775345], [-0.18777987360954285, 0.004131249152123928, -0.06656444072723389, 0.1425354778766632, -0.17783157527446747, -0.043435826897621155, 0.11896244436502457, 0.11903964728116989, -0.04550248757004738, 0.12780632078647614, 0.16086682677268982, -0.3168593645095825, -0.06895620375871658, 0.0448368638753891, 0.13852395117282867, 0.1173923909664154, -0.27936550974845886, -0.062103159725666046, 0.24912302196025848, 0.17903387546539307], [-0.06627340614795685, -0.10520385950803757, 0.09190608561038971, 0.021389257162809372, -0.050868451595306396, -0.014671416021883488, 0.09037061035633087, 0.018902508541941643, -0.03793388977646828, -0.04671332985162735, -0.04740947484970093, -0.13276821374893188, -0.012285553850233555, 0.031193532049655914, 0.07174193114042282, 0.005425343755632639, -0.046274334192276, 0.01811826042830944, 0.12704454362392426, -0.002341039478778839], [-0.058361850678920746, 0.1337984800338745, -0.28575435280799866, -0.3144734501838684, -0.006566661410033703, -0.07837831974029541, -0.18091677129268646, -0.05787423253059387, 0.09088429063558578, 0.04635560140013695, -0.2791913151741028, -0.004358841106295586, -0.12369918078184128, -0.05596041679382324, -0.0783129334449768, 0.05263487249612808, 0.3678085207939148, 0.01795954816043377, -0.2717919945716858, -0.13539978861808777], [0.021942371502518654, 0.14525865018367767, -0.4168340861797333, -0.12186560779809952, 0.21244308352470398, 0.1433280110359192, -0.38896456360816956, 0.01790151558816433, -0.008626557886600494, -0.34282156825065613, -0.5390612483024597, 0.2349647879600525, 0.36490797996520996, -0.02444191463291645, 0.06071893498301506, 0.016171487048268318, 0.5772967338562012, 0.038735974580049515, -0.3608534634113312, -0.04905157908797264], [-0.004012655466794968, -0.017165185883641243, -0.01371920108795166, 0.006400430575013161, -0.08331508189439774, -0.11552108824253082, 0.07493440061807632, 0.054763857275247574, -0.03907141834497452, -0.03345458582043648, 0.0912102535367012, -0.20814774930477142, -0.03510555252432823, 0.028929399326443672, -0.0037041555624455214, -0.01865757629275322, -0.11712069809436798, 0.03873332217335701, 0.16711507737636566, 0.031809400767087936], [0.06168456748127937, 0.04518628120422363, 0.3350710868835449, -0.013297812081873417, -0.04442165046930313, -0.0632312223315239, -0.17088152468204498, -0.027035055682063103, -0.21196652948856354, 0.11658959835767746, 0.009228089824318886, 0.13520286977291107, 0.1413750797510147, 0.08127336204051971, 0.1517743170261383, 0.16026374697685242, -0.13548444211483002, 0.07691214978694916, -0.04959399625658989, 0.056833695620298386], [-0.01496047992259264, -0.09527821093797684, -0.019181298092007637, -0.06047984957695007, -0.013122133910655975, -0.053054336458444595, -0.047920141369104385, -0.09042852371931076, -0.013518285937607288, -0.04884757474064827, -0.24422906339168549, -0.005169292446225882, -0.055042341351509094, 0.13565485179424286, -0.03741997852921486, -0.06322634220123291, 0.07911431044340134, -0.0008348838309757411, -0.014458722434937954, 0.13232672214508057], [-0.03469495847821236, 0.027604278177022934, -0.0507664792239666, 0.024161897599697113, -0.1512499302625656, -0.027131052687764168, 0.10716980695724487, -0.004331737756729126, -0.022130990400910378, -0.1735512614250183, -0.2170860916376114, -0.13295337557792664, 0.14112789928913116, -0.015195171348750591, -0.12711870670318604, -0.04543306678533554, -0.019162826240062714, 0.02314429171383381, 0.07577770948410034, 0.01706799678504467], [0.22453837096691132, 0.0480523556470871, -0.5825546979904175, -0.06885457783937454, 0.24263380467891693, -0.0645422488451004, -0.2385931760072708, -0.12086404114961624, 0.038697849959135056, 0.05249323695898056, -0.4336792826652527, 0.03800543397665024, -0.14591963589191437, 0.051628921180963516, -0.13459603488445282, 0.04560129716992378, 0.5442569851875305, 0.12922026216983795, -0.41016289591789246, -0.22387157380580902], [-0.017097171396017075, -0.10474181175231934, 0.04574733227491379, 0.03270038589835167, 0.19802448153495789, -0.01081043854355812, 0.03307154402136803, -0.05645417049527168, 0.09183245897293091, -0.11564785242080688, -0.13201218843460083, 0.017269888892769814, -0.06561669707298279, 0.018303336575627327, 0.02839900366961956, -0.016070052981376648, -0.02822253294289112, 0.004183304030448198, -0.035501010715961456, -0.0029868409037590027], [-0.06787942349910736, 0.027971865609288216, -0.03156321123242378, 0.041676755994558334, 0.028063129633665085, 0.15715572237968445, -0.028079869225621223, 0.05071577429771423, 0.11506453156471252, -0.18943823873996735, 0.06640958786010742, 0.08624649047851562, 0.06616845726966858, -0.0327061302959919, -0.08246874064207077, -0.019915780052542686, 0.007392709609121084, -0.13039648532867432, 0.022164929658174515, 0.14441107213497162], [-0.01386195607483387, 0.1005164161324501, 0.3871520161628723, 0.060370609164237976, -0.08247283846139908, 0.02587123028934002, 0.019294658675789833, 0.20266278088092804, -0.18780668079853058, 0.05265679955482483, 0.07331223040819168, 0.23670770227909088, 0.15085436403751373, -0.03618677332997322, 0.2719222903251648, -0.048613760620355606, -0.031011251732707024, 0.00832377653568983, 0.02268083766102791, -0.07608097791671753], [-0.11528317630290985, -0.07345118373632431, 0.637976348400116, -0.08169025182723999, -0.005692957900464535, 0.11235617846250534, 0.4307728707790375, -0.17192861437797546, -0.06308110803365707, -0.097419872879982, 0.5095730423927307, -0.03919408097863197, 0.2474357634782791, -0.22774118185043335, 0.037580396980047226, 0.07612502574920654, -0.6765758991241455, 0.02529854327440262, 0.47896137833595276, 0.06826472282409668], [-0.10053469240665436, -0.028528967872262, -0.30559858679771423, -0.03647011145949364, -0.35788023471832275, 0.11739400774240494, 0.22538277506828308, -0.1691015660762787, 0.16636168956756592, 0.11610905081033707, 0.18556265532970428, 0.10752558708190918, -0.23187394440174103, -0.1519320160150528, -0.25973576307296753, -0.03948347270488739, -0.030544975772500038, -0.05513786897063255, 0.1459893435239792, -0.13873107731342316], [0.05373664200305939, -0.08950217813253403, 0.07997170835733414, 0.07327979058027267, 0.049503885209560394, -0.0896749198436737, 0.20982064306735992, -0.30411630868911743, 0.08683721721172333, -0.1080278754234314, 0.547758936882019, -0.32433056831359863, -0.3938644230365753, -0.020093904808163643, -0.1886010617017746, -0.03482869639992714, -0.2023703157901764, -0.030162369832396507, 0.1650235801935196, 0.11069793999195099], [0.08861176669597626, 0.06988157331943512, 0.4118337631225586, -0.028123334050178528, -0.03623862937092781, -0.021057123318314552, 0.40406203269958496, 0.06864164024591446, -0.09799085557460785, 0.0037960351910442114, 0.1680840104818344, -0.1403174251317978, 0.05795665085315704, -0.006118591409176588, 0.06455669552087784, 0.1615789830684662, -0.2790953814983368, -0.3074634373188019, 0.21011868119239807, -0.15262983739376068], [-0.10304249078035355, -0.03277241811156273, 0.356398344039917, 0.13637743890285492, -0.043040044605731964, 0.10264811664819717, 0.3628222644329071, 0.08512438088655472, -0.03422107174992561, -0.03556346893310547, 0.44760558009147644, -0.07328884303569794, 0.09780899435281754, -0.17716073989868164, 0.028216928243637085, -0.006625568028539419, -0.408179372549057, 0.13768182694911957, 0.30148962140083313, 0.05538515746593475], [0.08619832247495651, 0.015493093989789486, 0.12980486452579498, 0.021535946056246758, -0.21540436148643494, 0.11651445925235748, -0.08073461800813675, -0.05737677216529846, -0.0061494517140090466, -0.006321360357105732, -0.0010926813120022416, -0.01744348742067814, -0.005411714781075716, -0.12197503447532654, -0.20405350625514984, -0.19214025139808655, -0.08030958473682404, 0.09936021268367767, 0.2143925428390503, 0.06243680790066719], [0.028254495933651924, 0.10115894675254822, -0.010900665074586868, -0.00487611535936594, 0.05979026481509209, -0.0873197689652443, 0.037081945687532425, -0.02849825657904148, 0.04452725499868393, 0.04055807366967201, 0.3020278513431549, 0.05251697823405266, -0.19325682520866394, -0.13856995105743408, -0.26455017924308777, 0.1678152233362198, -0.057225678116083145, -0.027706509456038475, -0.0007750510703772306, 0.01123881246894598], [-0.054488785564899445, -0.05756706744432449, -0.06252281367778778, -0.0570499449968338, -0.2530692517757416, 0.20479360222816467, 0.07771727442741394, -0.021396489813923836, 0.07541307806968689, -0.09233521670103073, 0.10783097892999649, -0.12132343649864197, 0.03393903374671936, -0.06983355432748795, 0.02412855252623558, -0.04587240144610405, -0.2453506737947464, -0.08284963667392731, 0.29079750180244446, -0.03920009359717369], [-0.08134583383798599, -0.00355041166767478, -0.16072072088718414, 0.02037236839532852, 0.003795692464336753, -0.1259382665157318, -0.050297558307647705, -0.010474148206412792, 0.06488378345966339, 0.26586058735847473, 0.28361180424690247, -0.23488391935825348, -0.10378538817167282, 0.05018129572272301, 0.1967291533946991, 0.09879466146230698, -0.22731547057628632, 0.003137269290164113, 0.0043492973782122135, 0.11183767020702362], [0.000374031049432233, 0.022054878994822502, 0.021872593089938164, 0.030116692185401917, -0.010912214405834675, 0.060443904250860214, 0.045473720878362656, -0.04146704822778702, 0.05457086116075516, -0.021184705197811127, 0.5157598257064819, 0.06930223107337952, -0.08383695036172867, 0.023111382499337196, -0.1261613368988037, 0.06631801277399063, -0.14905837178230286, -0.09367737919092178, 0.13080427050590515, -0.07258216291666031], [-0.1430959850549698, 0.04883663356304169, 0.2931461036205292, -0.31884390115737915, -0.059338681399822235, -0.04621030017733574, 0.36179405450820923, 0.27028611302375793, 0.061607565730810165, 0.08287578821182251, 0.6203982830047607, -0.15777090191841125, -0.038918137550354004, 0.06663345545530319, -0.1164519265294075, -0.009596513584256172, -0.46199148893356323, 0.08771509677171707, 0.3398619592189789, -0.10535590350627899], [-0.1280258595943451, -0.07066351175308228, 0.5752919912338257, 0.0052420757710933685, 0.0819651186466217, -0.06648522615432739, 0.5087747573852539, 0.002187681384384632, 0.0574488490819931, -0.06026902422308922, 0.6292200684547424, -0.13174930214881897, 0.017666513100266457, 0.03788403794169426, -0.046898797154426575, -0.14060929417610168, -0.6085354685783386, 0.043428972363471985, 0.554179847240448, -0.26311248540878296], [-0.1475844830274582, -0.09167572110891342, 0.004726464860141277, -0.0018836758099496365, 0.0801287367939949, -0.040478967130184174, 0.13793498277664185, -0.016263920813798904, 0.1823527216911316, -0.03507997840642929, 0.3016870617866516, -0.054534077644348145, -0.04875343665480614, 0.02820170484483242, -0.036922309547662735, 0.003125994000583887, -0.1735461801290512, 0.2335241138935089, 0.17484228312969208, 0.07925266772508621], [0.18856920301914215, 0.14327208697795868, 0.42877089977264404, 0.010387703776359558, -0.1663280874490738, -0.12680870294570923, -0.1473994255065918, -0.002243828261271119, -0.3521895110607147, 0.206939697265625, 0.1395867019891739, -0.0213299673050642, 0.13220679759979248, 0.04568071290850639, 0.14022554457187653, 0.1304665058851242, -0.2954687774181366, 0.17286351323127747, 0.1951066106557846, -0.04042734205722809], [0.03980708494782448, -0.09900505095720291, 0.13870753347873688, -0.00022258138051256537, -0.068844273686409, 0.05318180099129677, 0.2121972292661667, -0.17509226500988007, -0.014554736204445362, -0.06607223302125931, 0.36891600489616394, -0.01601502299308777, -0.015421398915350437, -0.0026428895071148872, -0.0027600699104368687, 0.0360608845949173, -0.12863610684871674, -0.13165251910686493, 0.19022779166698456, -0.05077044293284416], [-0.20611125230789185, 0.06123294308781624, 0.10444269329309464, 0.03923529386520386, 0.06842804700136185, -0.07851119339466095, 0.2532956004142761, -0.07196228206157684, 0.22186747193336487, -0.19389158487319946, -0.033464714884757996, -0.14123134315013885, 0.1039627343416214, -0.06515567004680634, -0.10961165279150009, -0.07767137140035629, -0.3451598882675171, 0.11698886752128601, 0.19889013469219208, -0.01667061261832714], [-0.2134283483028412, -0.07525575160980225, 0.8364418745040894, 0.10232440382242203, 0.05969347432255745, -0.0013642938574776053, 0.6516628861427307, 0.07246456295251846, -0.04702835902571678, 0.027488121762871742, 0.6601444482803345, -0.09148096293210983, 0.07152917236089706, -0.16350193321704865, 0.1907794326543808, 0.047106917947530746, -0.7403767108917236, -0.04441521316766739, 0.6920429468154907, 0.12858569622039795], [-0.08375027030706406, 0.44898420572280884, -0.09682858735322952, 0.08877859264612198, 0.4246212840080261, -0.2385002076625824, 0.0550374798476696, -0.26998549699783325, -0.4540809690952301, 0.7511394023895264, 0.06552108377218246, -0.056518569588661194, 0.22962486743927002, -0.1486591249704361, -0.20339666306972504, -0.463022381067276, 0.4221704304218292, -0.5812463760375977, 0.4514079988002777, 0.23651757836341858], [-0.17684431374073029, 0.17405392229557037, 0.03738125041127205, -0.005697410553693771, 0.1756702959537506, 0.3691231310367584, 0.012673705816268921, 0.12779860198497772, -0.6744490265846252, -0.5173366665840149, 0.12114467471837997, -0.13999275863170624, -0.5473468899726868, -0.11183509975671768, -0.07814975827932358, 0.022049006074666977, -0.0416567362844944, -0.0672636404633522, -0.2730056643486023, -0.037707116454839706], [-0.0676666796207428, 0.3890426754951477, 0.24739159643650055, -0.08313355594873428, -0.034033991396427155, -0.271569162607193, 0.07144536823034286, -0.06088891625404358, -0.07069285213947296, -0.2597867548465729, -0.06347013264894485, 0.5331345200538635, 0.03193638473749161, 0.1726713925600052, 0.03826155886054039, -0.09562020748853683, 0.07578801363706589, -0.018582699820399284, -0.12697437405586243, -0.07532281428575516], [-0.42414501309394836, -0.08506342768669128, 0.08845707774162292, 0.7096437811851501, 0.03881959244608879, 0.14600197970867157, -0.10513586550951004, -0.08462368696928024, -0.04043956100940704, -0.2859185039997101, 0.13654790818691254, -0.05804719030857086, 0.399745911359787, 0.09057098627090454, 0.04939091205596924, 0.11253561824560165, -0.026253007352352142, 0.11465391516685486, -0.03165567293763161, 0.23445354402065277], [0.2868054211139679, -0.5374987721443176, 0.3421414792537689, -0.04560018703341484, 1.0313314199447632, -0.23433980345726013, -0.4855802357196808, -0.16233450174331665, -0.3306410610675812, 0.7868646383285522, 0.37382081151008606, -0.09220804274082184, 0.22414854168891907, -0.23097097873687744, -0.24756887555122375, 0.5275050401687622, -0.08200005441904068, 0.3055739998817444, -0.3998164236545563, 0.18948957324028015], [-0.007936480455100536, 0.20788714289665222, -0.06003974750638008, -0.34282630681991577, -0.13812828063964844, 0.42081964015960693, 0.19112111628055573, -0.015007046982645988, 0.12500862777233124, 0.1370433270931244, -0.23983192443847656, -0.018083732575178146, -0.3008193075656891, -0.25602269172668457, 0.27851220965385437, 0.007237091660499573, -0.19463658332824707, 0.021483782678842545, -0.022404955700039864, -0.04529577121138573], [-0.12633013725280762, -0.013591503724455833, -0.07512921839952469, -0.09764951467514038, 0.025013672187924385, -0.30827227234840393, 0.36168304085731506, 0.1188591867685318, -0.015091568231582642, -0.010939810425043106, 0.07915304601192474, -0.023811455816030502, 0.2801060378551483, -0.21412429213523865, -0.17501293122768402, 0.3842870593070984, 0.029243407770991325, -0.2117006629705429, -0.14630596339702606, -0.08803042024374008], [-0.28467002511024475, 0.05920286476612091, -0.0643857941031456, -0.10256399214267731, 0.020657505840063095, -0.1679997593164444, -0.08581861853599548, 0.5315378308296204, 0.06173324957489967, -0.06609929352998734, 0.015922805294394493, -0.0054002562537789345, 0.043400030583143234, 0.3191159665584564, 0.13132771849632263, -0.45103827118873596, -0.10332927107810974, 0.022795317694544792, 0.03861726075410843, 0.16692878305912018], [0.37838608026504517, 0.3639867305755615, -0.011122367344796658, -0.173318549990654, 0.4278768002986908, 0.22526049613952637, 0.11418934166431427, -0.006488123442977667, 0.25244852900505066, -0.0018165742512792349, 0.21977761387825012, -0.11353763937950134, -0.14497873187065125, 0.058531444519758224, 0.13063985109329224, -0.6490269303321838, -0.022226184606552124, -0.07470827549695969, -0.4153810143470764, 0.521446943283081], [-0.6353967785835266, 0.07806836813688278, 0.6299229264259338, 0.02708836831152439, -0.3424643576145172, 0.2540142238140106, 0.371674120426178, -0.19445349276065826, 0.006090782582759857, 0.3573280870914459, 0.07920876145362854, -0.131837859749794, -0.4620840847492218, 0.1264597326517105, -0.07783675938844681, -0.16516155004501343, -0.05472259595990181, -0.1821509301662445, -0.10459288954734802, -0.11287172883749008], [-0.1730799376964569, -0.19796475768089294, 0.0343368723988533, 0.1300586313009262, -0.18397480249404907, 0.2525988519191742, -0.16019892692565918, -0.03256640583276749, 0.09791922569274902, -0.16336454451084137, 0.26866015791893005, 0.4791319966316223, 0.5229796171188354, 0.2848470211029053, -0.03186448663473129, -0.05122903734445572, -0.021994279697537422, -0.10343888401985168, 0.11096619814634323, -0.12356312572956085], [-0.11059053242206573, -0.3621150255203247, 0.15871043503284454, -0.25611236691474915, 0.08614768087863922, 0.5144995450973511, -0.1432153433561325, -0.030788801610469818, -0.16349482536315918, -0.7236276268959045, 0.30060750246047974, 0.7377570867538452, 0.7017491459846497, 0.378482848405838, 0.2859969437122345, -0.28443261981010437, 0.258309543132782, 0.047171302139759064, 0.13017776608467102, 0.07226651161909103], [-0.12196977436542511, 0.350748211145401, -0.1642540991306305, 0.12523502111434937, -0.15159805119037628, 0.7490557432174683, -0.07256877422332764, -0.14812040328979492, 0.27272048592567444, 0.4347473084926605, -0.36774763464927673, -0.02007146365940571, 0.33889245986938477, 0.3359035849571228, -0.1647813767194748, 0.29988598823547363, 0.05875113606452942, 0.050696589052677155, -0.19611625373363495, -0.20080699026584625], [0.31582480669021606, -0.24301953613758087, 0.09595860540866852, -0.053998351097106934, 0.04901852458715439, 0.2533739507198334, 0.01609834097325802, -0.07555930316448212, -0.013951271772384644, 0.014623528346419334, -0.14448794722557068, -0.2524509131908417, -0.12077853083610535, 0.6840846538543701, 0.08813121169805527, 0.16179461777210236, -0.025302335619926453, -0.31958284974098206, -0.20455163717269897, 0.045201800763607025], [0.032125722616910934, -0.18937012553215027, -0.08157314360141754, 0.2226431965827942, -0.21086688339710236, -0.056783705949783325, -0.020260347053408623, -0.03052426129579544, 0.19760486483573914, 0.08862239867448807, -0.1513035148382187, -0.16118231415748596, -0.32265999913215637, -0.21128341555595398, 0.45415475964546204, 0.08339116722345352, -0.09473206102848053, -0.2742742896080017, 0.025519059970974922, 0.17001743614673615], [0.4439295530319214, 0.19940030574798584, 0.24722108244895935, -0.06653615832328796, -0.20475848019123077, -0.06832734495401382, -0.18159376084804535, 0.19913730025291443, 0.604252815246582, -0.04693131148815155, -0.11772261559963226, -0.13437433540821075, -0.23086275160312653, -0.1618543118238449, -0.03839261457324028, 0.2931938171386719, 0.6240553259849548, 0.1844750940799713, -0.5967162251472473, 0.011551814153790474], [-0.02471129782497883, -0.18189837038516998, -0.289927214384079, 0.033503904938697815, -0.1018519252538681, 0.43124303221702576, 0.19734546542167664, 0.1170014813542366, -0.13000470399856567, 0.029133783653378487, -0.06577077507972717, 0.181955948472023, -0.18415771424770355, -0.00465772207826376, 0.05886372551321983, -0.254103422164917, 0.031211059540510178, -0.4851832687854767, 0.09018760174512863, 0.16803106665611267], [0.3348204493522644, -0.03241177648305893, -0.2829555571079254, -0.12081161141395569, 0.3844741880893707, 0.18164023756980896, 0.45308998227119446, 0.18125806748867035, -0.2951633036136627, 0.2259325087070465, 0.05031473934650421, 0.11526436358690262, -0.14473100006580353, 0.17902196943759918, 0.14263740181922913, -0.3062143623828888, 0.5476768612861633, 0.47518059611320496, 0.1130962148308754, 0.2576329708099365], [-0.4056747555732727, 0.14560307562351227, 0.01256000716239214, 0.1026160940527916, -0.5204417109489441, -0.21880361437797546, 0.25178062915802, -0.5406862497329712, 0.401792049407959, 0.010972333140671253, -0.02082655392587185, -0.13394226133823395, 0.015986977145075798, 0.20113499462604523, 0.05014041066169739, 0.25331950187683105, -0.3413839340209961, 0.2887827754020691, 0.207699716091156, -0.18155987560749054], [0.24595671892166138, -0.0476582832634449, -0.031194644048810005, -0.16017873585224152, -0.07083039730787277, 0.1248098835349083, 0.017162775620818138, -0.020422540605068207, -0.07343341410160065, 0.044685978442430496, -0.018523849546909332, 0.04122147709131241, 0.02508012391626835, -0.021340833976864815, -0.22197778522968292, -0.21374507248401642, 0.052965011447668076, -0.015154346823692322, 0.1294085830450058, 0.5764530897140503], [-0.14824791252613068, -0.09530109912157059, 0.22192513942718506, 0.08301029354333878, 0.04242633283138275, 0.00748264417052269, 0.12157390266656876, 0.028048360720276833, -0.005417369306087494, -0.03957204148173332, 0.23079203069210052, 0.02383691817522049, 0.00698437076061964, 0.00849728100001812, -0.04016328230500221, -0.019213272258639336, -0.2353590875864029, -0.01793685369193554, 0.1656539887189865, -0.04520517960190773], [-0.02276058867573738, 0.02762182056903839, 0.12371821701526642, 0.06002381071448326, -0.1851452738046646, 0.07905064523220062, 0.09165813773870468, -0.0445786714553833, -0.09045330435037613, -0.17030562460422516, 0.18041245639324188, 0.14457659423351288, 0.08466293662786484, -0.05787957087159157, -0.13606062531471252, -0.10203633457422256, -0.023681912571191788, -0.00583012355491519, 0.15576227009296417, 0.020435895770788193], [-0.06108686700463295, -0.049424655735492706, 0.4949122667312622, 0.04111051559448242, -0.1044311374425888, 0.104268379509449, 0.06617937237024307, 0.043964799493551254, -0.012223869562149048, -0.10620064288377762, 0.11497962474822998, 0.2051289677619934, 0.1182570680975914, -0.017953727394342422, 0.09265122562646866, -0.05342372879385948, -0.0800793319940567, -0.018582100048661232, 0.013222497887909412, -0.10983076691627502], [-0.11884118616580963, -0.15380753576755524, 0.10777780413627625, 0.23774084448814392, -0.09691287577152252, -0.10290597379207611, 0.15199701488018036, 0.21474435925483704, -0.09659560769796371, 0.03857937827706337, 0.006470478139817715, -0.1919274479150772, 0.06781967729330063, 0.1466940939426422, -0.0843464657664299, -0.020073402673006058, 0.030757838860154152, 0.03507412225008011, 0.0179256871342659, 0.05525343120098114], [-0.11782578378915787, -0.012518169358372688, -0.1918812394142151, 0.12569063901901245, -0.16097775101661682, -0.004307636059820652, 0.21607670187950134, -0.3732587397098541, 0.3018844425678253, -0.21119827032089233, -0.151728555560112, 0.10042538493871689, 0.00229335087351501, 0.04640726000070572, -0.9564068913459778, -0.06616408377885818, -0.07784964889287949, -0.0999695435166359, -0.15810531377792358, -0.41365739703178406], [0.30966779589653015, -0.02476928010582924, 0.2945556044578552, 0.03679877892136574, -0.16943907737731934, 0.18635518848896027, 0.024612488225102425, 0.05132588371634483, -0.18158437311649323, 0.21389251947402954, 0.1972745805978775, 0.06459628790616989, 0.2072107195854187, -0.03631659969687462, 0.04192397743463516, -0.08642281591892242, -0.16800491511821747, 0.02413698099553585, -0.024891696870326996, -0.008224907331168652], [-0.10912995785474777, 0.026126503944396973, 0.03200382739305496, -0.051964424550533295, -0.010740669444203377, -0.05288399010896683, 0.283309668302536, 0.03498421236872673, -0.005906295031309128, -0.0594291090965271, -0.11787983030080795, -0.05946633592247963, -0.08889147639274597, -0.04434996843338013, -0.09547703713178635, -0.05928153172135353, -0.08876017481088638, -0.014812104403972626, 0.1236940324306488, -0.06764453649520874], [-0.01150315161794424, 0.1147344708442688, -0.023395972326397896, -0.00798727385699749, -0.1884264200925827, 0.061520855873823166, 0.01203236449509859, -0.05042354390025139, -0.021076519042253494, -0.07197149097919464, 0.06852053850889206, -0.04079940542578697, 0.011374273337423801, -0.22702714800834656, 0.11601091176271439, 0.017743336036801338, -0.02613825350999832, -0.01042155735194683, 0.11650688946247101, 0.07006432116031647], [0.05125592276453972, -0.1767835170030594, 0.0951363816857338, 0.009243247099220753, -0.09466205537319183, -0.0353805236518383, -0.043202098459005356, -0.03329625725746155, -0.0440952368080616, -0.044774431735277176, 0.0890405997633934, 0.024951517581939697, 0.03400220349431038, -0.07827519625425339, -0.16921237111091614, 0.08959782868623734, 0.03975987061858177, -0.1727924346923828, 0.09614387899637222, -0.01702369935810566], [-0.020785976201295853, 0.023648381233215332, 0.199052631855011, 0.03336704894900322, 0.08816970884799957, -0.03219887614250183, 0.09547813981771469, -0.008533294312655926, -0.08798873424530029, 0.02009805291891098, 0.1459520161151886, -0.08695977181196213, -0.06143486872315407, -0.0568959079682827, -0.07640732824802399, 0.11221849918365479, -0.21579454839229584, -0.018679648637771606, 0.08842642605304718, -0.05556226521730423], [-0.14300808310508728, -0.16440297663211823, 0.07905659824609756, 0.05027727782726288, 0.024755384773015976, -0.14070875942707062, 0.08223215490579605, -0.03630926460027695, -0.06355054676532745, 0.047944534569978714, 0.1228456050157547, 0.07891061902046204, -0.08657492697238922, -0.04425973817706108, 0.0024452987127006054, 0.13206425309181213, -0.18154925107955933, -0.08328226953744888, 0.22051610052585602, 0.015881558880209923], [-0.15932944416999817, -0.16319411993026733, 0.08558029681444168, 0.11800763756036758, 0.05465473234653473, -0.01777857355773449, -0.1421477198600769, -0.18241558969020844, 0.2129792869091034, -0.01588437147438526, 0.17547398805618286, 0.1297663152217865, -0.05245186388492584, 0.18983526527881622, -0.04509584233164787, -0.10475032776594162, 0.0600050650537014, -0.10307604819536209, 0.014510889537632465, 0.14537280797958374], [-0.1697145402431488, -0.04594338312745094, 0.21134218573570251, 0.028861327096819878, -0.02733113430440426, 0.027747873216867447, 0.16649819910526276, 0.009801231324672699, -0.07283960282802582, -0.058772310614585876, 0.2134675681591034, 0.022685807198286057, 0.03987317532300949, -0.010699252597987652, 0.029827751219272614, -0.06511510163545609, -0.1463923454284668, 0.014146831817924976, 0.1897325962781906, -0.038563285022974014], [-0.23378171026706696, 0.007281890604645014, 0.09437576681375504, -0.19965073466300964, 0.02980693243443966, 0.17806394398212433, 0.04804708808660507, 0.11777196824550629, 0.09689890593290329, 0.07145413756370544, 0.00797191821038723, 0.25506168603897095, 0.09394942224025726, -0.07053123414516449, 0.04163668304681778, -0.0081089548766613, -0.014891522005200386, 0.07929006963968277, -0.01967824064195156, 0.03412152826786041], [-0.059874773025512695, -0.06198218837380409, 0.03914666548371315, 0.049736641347408295, -0.1337113082408905, -0.0011490604374557734, 0.06011291965842247, 0.19175484776496887, -0.10933111608028412, 0.06122415512800217, 0.1753235012292862, -0.08203714340925217, 0.08364534378051758, -0.057240523397922516, -0.10538072884082794, 0.05181759595870972, -0.1451038271188736, 0.018186265602707863, 0.14594024419784546, 0.020794903859496117], [-0.06645557284355164, -0.029557641595602036, 0.0427231527864933, 0.012586809694766998, -0.09549717605113983, -0.08407487720251083, 0.08549623936414719, 0.04594242945313454, -0.05379403382539749, -0.06067187711596489, 0.1790623664855957, -0.12875662744045258, -0.011282240971922874, 0.0032777413725852966, -0.01296822726726532, -0.014124750159680843, -0.16611731052398682, 0.03991672769188881, 0.17563651502132416, 0.0002021217078436166], [-0.045813485980033875, -0.08183513581752777, 0.2632876932621002, 0.035642821341753006, 0.14776712656021118, 0.014558820985257626, 0.07376528531312943, -0.02070365659892559, -0.03144156187772751, -0.07280344516038895, 0.23620475828647614, -0.11226584762334824, -0.033868543803691864, 0.009532119147479534, 0.017630744725465775, 0.056705959141254425, -0.5247117280960083, -0.0034920370671898127, 0.12508754432201385, -0.059382542967796326], [-0.08692693710327148, -0.03868076577782631, 0.11559347808361053, -0.025393789634108543, -0.009064197540283203, -0.03220077604055405, 0.04532305896282196, -0.05177896469831467, -0.08004545420408249, 0.035795655101537704, -0.017930062487721443, -0.006781129166483879, -0.07350087910890579, 0.0896093025803566, -0.035507675260305405, -0.05393330007791519, -0.06734887510538101, 0.03069629892706871, 0.0796169564127922, 0.08612672239542007], [-0.022131480276584625, 0.017648670822381973, 0.00791744701564312, 0.04434491693973541, -0.3202795386314392, -0.008510785177350044, 0.219899520277977, 0.092581607401371, -0.1689709573984146, -0.03808794543147087, -0.07583005726337433, -0.12025431543588638, 0.12491098791360855, -0.05622892454266548, -0.09798131138086319, -0.10285849124193192, -0.19406820833683014, -0.09285175055265427, 0.3084033131599426, -0.00905219092965126], [0.13345855474472046, -0.09641505032777786, 0.008252051658928394, 0.02219199202954769, -0.18315240740776062, 0.09780237078666687, 0.125405952334404, 0.024091120809316635, -0.020481696352362633, -0.0364086776971817, 0.1552097648382187, -0.1677110642194748, 0.045949310064315796, 0.05002694949507713, -0.07177592813968658, -0.19244787096977234, -0.05715891718864441, -0.0020654008258134127, 0.15144197642803192, -0.23036682605743408]], "rec.bias_ih_l0": [0.5245596766471863, 0.275565505027771, -0.15167874097824097, -1.0749740600585938, 0.4656924307346344, -0.3422161638736725, -0.3340619206428528, -0.5120877623558044, 0.25166890025138855, 0.2634022533893585, -0.001917768968269229, 0.1179102435708046, 0.1833048015832901, -0.6558462977409363, -0.9920831918716431, 0.3054828643798828, 0.06430399417877197, -0.07292939722537994, 0.00680471071973443, -0.8587969541549683, 0.1347484588623047, 0.2016318440437317, 0.37334737181663513, 1.3116745948791504, 0.3727380633354187, 0.6665972471237183, 0.777419924736023, 0.7591878771781921, 0.30037200450897217, 0.26943445205688477, 0.5536374449729919, 0.4536721408367157, 0.2763054668903351, 0.9490524530410767, 1.3128527402877808, 0.27440232038497925, 0.3295445442199707, 0.6100496649742126, 0.2817322313785553, 1.0762678384780884, -0.09762244671583176, -0.08692345023155212, 0.2496711164712906, -0.1032828763127327, 0.05391407012939453, 0.10668078809976578, -0.10428677499294281, 0.03192976862192154, 0.0012031174264848232, -0.2097824066877365, 0.1700410097837448, -0.18120470643043518, 0.2802366316318512, -0.0068931798450648785, 0.12878867983818054, 0.22034908831119537, -0.11544574797153473, 0.20458681881427765, 0.06949478387832642, 0.12742197513580322, 0.5953498482704163, 0.3382071554660797, 0.3519492447376251, -0.0734822228550911, -0.2357741743326187, 0.2873431146144867, 0.34421610832214355, -0.0062524061650037766, 0.26826852560043335, 0.537473738193512, 0.22036872804164886, 0.10173876583576202, 0.4226926565170288, 0.1413061022758484, 0.04335840791463852, 0.43568286299705505, 0.4526509642601013, 0.16886112093925476, 0.2823844850063324, 0.12253869324922562], "rec.bias_hh_l0": [0.5292338132858276, 0.2695010304450989, 0.012136481702327728, -1.1039797067642212, 0.4619605243206024, -0.3946053385734558, -0.3789571523666382, -0.46014249324798584, 0.24364441633224487, 0.24897149205207825, 0.04807348549365997, 0.28896957635879517, 0.1564851850271225, -0.8124794960021973, -1.0189433097839355, 0.30637550354003906, 0.08988987654447556, -0.07573249191045761, -0.0628126859664917, -0.5966916084289551, 0.11998628824949265, 0.22772884368896484, 0.42180734872817993, 1.4904444217681885, 0.2579661011695862, 0.6377915740013123, 0.8056485056877136, 0.82196044921875, 0.2793652415275574, 0.2375098168849945, 0.460420697927475, 0.3586015999317169, 0.3267885744571686, 0.984081506729126, 1.4412447214126587, 0.26093342900276184, 0.3333202302455902, 0.6089474558830261, 0.25370925664901733, 1.0665955543518066, 0.011254611425101757, -0.04871058091521263, 0.1526290327310562, 0.02762153185904026, -0.1151396781206131, -0.04357558488845825, 0.17361316084861755, 0.03426990658044815, 0.060251206159591675, -0.2630492150783539, 0.22017483413219452, 0.11841549724340439, 0.08471177518367767, 0.09571430832147598, -0.07197090983390808, 0.29202914237976074, -0.08982931077480316, 0.017969345673918724, -0.015531175769865513, -0.11228711158037186, 0.5951358675956726, 0.32073235511779785, 0.30213069915771484, -0.06657476723194122, -0.17307965457439423, 0.30595865845680237, 0.16623292863368988, -0.07386380434036255, 0.28358402848243713, 0.5141753554344177, 0.3025413155555725, 0.03062165342271328, 0.4603078365325928, 0.01856340281665325, 0.09278634935617447, 0.4384976923465729, 0.5201343297958374, 0.17255084216594696, 0.32614588737487793, 0.028262881562113762], "lin.weight": [[-1.3423151969909668, 0.40510228276252747, 0.04278716817498207, -0.27597978711128235, -0.012127944268286228, -0.3723282814025879, -0.18288226425647736, 0.03831135481595993, 0.31021079421043396, -0.22788368165493011, -0.05694843828678131, -0.04346711188554764, 0.2696819603443146, -0.09880426526069641, 0.32253435254096985, 0.8868127465248108, -0.2509692907333374, 0.24818599224090576, -0.2942689061164856, 0.5078160166740417]], "lin.bias": [0.03986738994717598]}}