{"model_data": {"model": "SimpleRNN", "input_size": 1, "skip": 1, "output_size": 1, "unit_type": "LSTM", "num_layers": 1, "hidden_size": 20, "bias_fl": true}, "state_dict": {"rec.weight_ih_l0": [[-0.21468420326709747], [-0.10495944321155548], [-0.11382781714200974], [-0.041999224573373795], [0.16524821519851685], [-0.29570189118385315], [0.15600880980491638], [0.15205402672290802], [-0.10275226086378098], [-0.12540940940380096], [-0.10762570798397064], [-0.24435041844844818], [0.0019232889171689749], [-0.005698688793927431], [-0.10075477510690689], [-0.015048162080347538], [-0.006581554189324379], [-0.018404563888907433], [0.018764227628707886], [-0.15178702771663666], [-0.20300622284412384], [-0.02646639756858349], [-0.09539595991373062], [-0.06554418057203293], [0.15167191624641418], [0.16403022408485413], [0.08073371648788452], [0.11522331833839417], [-0.043486565351486206], [-0.1680511236190796], [-0.18416264653205872], [-0.013193507678806782], [-0.03825770691037178], [-0.03379509225487709], [-0.19396314024925232], [-0.006893779616802931], [-0.0190314631909132], [-0.08527709543704987], [0.011075643822550774], [0.07779625803232193], [-0.12202649563550949], [-0.41299811005592346], [-0.1611049324274063], [0.38966283202171326], [0.401782363653183], [0.019359298050403595], [0.16800646483898163], [-0.7497420907020569], [0.06269434839487076], [0.10077311843633652], [0.7678643465042114], [2.190056085586548], [-0.16432368755340576], [-0.013540131039917469], [-1.715688943862915], [-0.7063571214675903], [0.06521802395582199], [-0.12483734637498856], [0.020117653533816338], [0.15013188123703003], [-0.2012350857257843], [-0.07022320479154587], [-0.1989080160856247], [-0.052577994763851166], [0.26536738872528076], [0.01602896675467491], [0.10505704581737518], [0.1985582858324051], [-0.010490069165825844], [-0.0658920481801033], [-0.21748167276382446], [-0.27826622128486633], [-0.022298460826277733], [-0.041276879608631134], [-0.02784888818860054], [0.0021771008614450693], [0.048702891916036606], [-0.1268048882484436], [0.02103455364704132], [0.07526343315839767]], "rec.weight_hh_l0": [[0.13793371617794037, -0.07959598302841187, -0.13811179995536804, -0.04025833681225777, -0.020470069721341133, 0.30285748839378357, -0.13239894807338715, -0.004831330385059118, 0.30660682916641235, -0.07054271548986435, -0.03136507421731949, 0.0017020974773913622, 0.008102918975055218, -0.05918504670262337, -0.026165621355175972, 0.00469101732596755, 0.05590558424592018, 0.040588103234767914, -0.07379940152168274, 0.040518831461668015], [0.08698595315217972, -0.11465900391340256, 0.010493903420865536, -0.03368367999792099, -0.10188911110162735, -0.09233146160840988, -0.0832982137799263, 0.0006598876789212227, -0.1114376038312912, -0.16451118886470795, -0.011368765495717525, -0.0008463386911898851, 0.0982360988855362, -0.10510540753602982, 0.10600235313177109, 0.022406000643968582, 0.10044045746326447, -0.02715112641453743, 0.021320322528481483, 0.12271837890148163], [0.06619090586900711, -0.14404959976673126, -0.2952003479003906, -0.17370067536830902, 0.07615336775779724, -0.08660844713449478, 0.06410853564739227, -0.09780886024236679, -0.12408845871686935, -0.3253255784511566, 0.016623036935925484, 0.13174329698085785, -0.005334945395588875, -0.030762920156121254, 0.030994456261396408, 0.09718497097492218, -0.006077439058572054, -0.0695161372423172, -0.18118856847286224, -0.1385105550289154], [-0.04570929706096649, -0.022824855521321297, 0.0071384296752512455, -0.08369841426610947, 0.10841946303844452, 0.019789952784776688, 0.0439174622297287, 0.0006785639561712742, 0.049512602388858795, -0.007082889787852764, -0.04149928316473961, -0.17573732137680054, -0.002079371828585863, 0.0636344775557518, -0.018346723169088364, 0.014741387218236923, -0.0007189424941316247, -0.04410478472709656, -0.04001128673553467, 0.0065224189311265945], [0.0024808919988572598, 0.007676951587200165, 0.0012851688079535961, -0.016406001523137093, 0.07218842953443527, 0.05682773143053055, 0.07022403180599213, -0.04149894416332245, -0.06923066079616547, 0.06046807020902634, 0.06541913747787476, 0.1497940570116043, -0.008384289219975471, -0.04541776701807976, -0.21491985023021698, 0.0034651386085897684, -0.05326687917113304, -0.1705400049686432, 0.023379303514957428, -0.01641601137816906], [0.1449650526046753, -0.021690234541893005, -0.14832371473312378, 0.06177331879734993, -0.08576599508523941, -0.0034497559536248446, -0.004838956519961357, 0.09125836938619614, -0.044169384986162186, -0.12889210879802704, -0.12305477261543274, 0.19586777687072754, 0.08595776557922363, -0.30644747614860535, -0.030046887695789337, -0.043286919593811035, 0.5998380780220032, -0.06965263932943344, 0.11246304959058762, -0.2565273940563202], [0.08726133406162262, 0.08986596763134003, -0.17229428887367249, -0.05740216001868248, -0.03652361407876015, 0.13170970976352692, -0.21781198680400848, 0.05240030959248543, -0.08124019205570221, 0.12594890594482422, 0.1138324961066246, 0.10530559718608856, 0.09279744327068329, -0.12550678849220276, -0.060646653175354004, -0.13720841705799103, 0.040149033069610596, -0.10473011434078217, 0.004631251562386751, -0.17017564177513123], [-0.011680969037115574, -0.06055827811360359, -0.06476990878582001, -0.038156550377607346, -0.06978444755077362, -0.004140462260693312, 0.021105457097291946, -0.03811829909682274, 0.017722902819514275, -0.10172457993030548, 0.016640234738588333, 0.0422649048268795, 0.023529643192887306, -0.03893930837512016, -0.0678163692355156, -0.02446802146732807, 0.0591832771897316, -0.06137967109680176, -0.03962402790784836, 0.03299770876765251], [0.07036782801151276, -0.3219256103038788, -0.16162338852882385, -0.07653259485960007, 0.038508862257003784, 0.15006522834300995, -0.30404070019721985, -0.01664048619568348, 0.013009358197450638, -0.21437928080558777, 0.03436334803700447, 0.2540722191333771, 0.3357207775115967, -0.6720086336135864, 0.10577023774385452, 0.06249706447124481, -0.06309573352336884, -0.23714560270309448, 0.04917081072926521, -0.004276080522686243], [0.1862819641828537, -0.19205281138420105, -0.29828137159347534, -0.06004614010453224, 0.1019405871629715, 0.07440044730901718, -0.2117079794406891, 0.019661137834191322, -0.1412062793970108, -0.12348633259534836, -0.06873658299446106, 0.0647205337882042, 0.18020926415920258, -0.12936267256736755, -0.03871433436870575, -0.03706592693924904, 0.10711442679166794, -0.10172893851995468, 0.1690213978290558, 0.0020727566443383694], [-0.039587367326021194, 0.02452143095433712, -0.011658094823360443, 0.02175302989780903, -0.07678455859422684, -0.003626700025051832, 0.0015779960667714477, 0.009097262285649776, 0.040542103350162506, -0.09328432381153107, -0.13087496161460876, 0.06423874944448471, -0.011668969877064228, 0.0035541136749088764, -0.10613277554512024, -0.0050650835037231445, -0.036246854811906815, 0.3173846900463104, -0.06037846952676773, -0.04057091102004051], [-0.08026757836341858, -0.019886191934347153, 0.05559208244085312, -0.07921529561281204, -0.03813058137893677, 0.10574191808700562, 0.11502786725759506, 0.0203746035695076, 0.006015934515744448, 0.07072839140892029, -0.02697613462805748, -1.3097528219223022, -0.010868897661566734, 0.12134009599685669, 0.5935643315315247, 0.11029519885778427, 0.05154282599687576, -0.05070541426539421, -0.17099186778068542, 0.1932705044746399], [-0.07256650924682617, 0.13832278549671173, 0.04724372550845146, 0.05933937802910805, -0.05111662670969963, 0.18031427264213562, -0.23322278261184692, 0.10033783316612244, 0.12570951879024506, 0.29194673895835876, 0.05957990139722824, -0.07993809133768082, 0.27760395407676697, -0.0097773727029562, 0.01445408072322607, -0.08720140159130096, 0.009055833332240582, -0.09847521036863327, 0.34364059567451477, 0.016551893204450607], [0.07199891656637192, 0.02225242555141449, 0.03637462854385376, 0.020793838426470757, 0.06831281632184982, -0.27327096462249756, -0.028475314378738403, -0.04041903093457222, -0.4897412657737732, 0.11746618896722794, -0.11319237947463989, 0.22715984284877777, 0.005432585719972849, -0.20265290141105652, -0.04396459087729454, 0.03213741257786751, 0.1179499551653862, 0.03647395968437195, -0.021450532600283623, -0.13299091160297394], [-0.11978568136692047, 0.01566145196557045, 0.12801596522331238, -0.009868904948234558, -0.05059819668531418, -0.0001514650066383183, 0.11604290455579758, 0.013462471775710583, -0.06450992077589035, 0.05093928426504135, -0.0034028298687189817, -0.06668420881032944, -0.03667803108692169, 0.05929611995816231, 0.33095264434814453, 0.013480774126946926, -0.025904206559062004, -0.0050645372830331326, -0.020072516053915024, -0.04111289232969284], [-0.03377854824066162, 0.03264857456088066, -0.03776845708489418, -0.013271514326334, 0.055575694888830185, -0.011774787679314613, -0.06387514621019363, 0.021920647472143173, 0.21098066866397858, 0.10502488911151886, -0.0250336192548275, 0.1457473486661911, 0.0057066879235208035, 0.016165267676115036, 0.02873050421476364, -0.061910342425107956, 0.041093166917562485, -0.008214658126235008, -0.04696744680404663, 0.024578440934419632], [0.14319822192192078, 0.011115379631519318, -0.055573686957359314, -0.0460820347070694, 0.10536787658929825, -0.7984304428100586, -0.28457221388816833, 0.005138436798006296, 0.33077067136764526, 0.01795351505279541, -0.07119598984718323, 0.10909108072519302, 0.07585897296667099, 0.1186586320400238, 0.07164808362722397, -0.1334766149520874, 0.3251851499080658, -0.03277399018406868, 0.041276294738054276, 0.18986007571220398], [0.2024458944797516, -0.16302254796028137, -0.3461263179779053, -0.0031102350912988186, 0.45900416374206543, 0.0010343563044443727, -0.15904217958450317, -0.13362999260425568, 0.24194760620594025, 0.07786183059215546, -0.42025652527809143, 0.026620104908943176, 0.07944680005311966, -0.08103317767381668, -0.07450830191373825, -0.0940149798989296, -0.07487322390079498, -0.013948962092399597, 0.09194529056549072, 0.04197346419095993], [0.19787807762622833, -0.017995912581682205, -0.2076442986726761, 0.042596179991960526, -0.0400083102285862, 0.09771966189146042, -0.15710172057151794, -0.026649072766304016, -0.05280086770653725, 0.006792409811168909, -0.006894140038639307, 0.24635009467601776, 0.22582507133483887, -0.09915396571159363, -0.15293683111667633, 0.027604781091213226, -0.022447597235441208, -0.07388570159673691, 0.010708502493798733, -0.05022857338190079], [0.1581040918827057, -0.07334443181753159, -0.5656659603118896, -0.03347938507795334, 0.02508961595594883, 0.004351736977696419, -0.04324491322040558, 0.04382426664233208, 0.028125466778874397, 0.10397370159626007, -0.08027158677577972, 0.10388537496328354, 0.3355998694896698, -0.24693013727664948, 0.009488116949796677, -0.0526246577501297, 0.14593914151191711, -0.16614194214344025, 0.12872134149074554, 0.042107827961444855], [0.009918534196913242, -0.12136034667491913, -0.041236333549022675, -0.08381940424442291, 0.011366193182766438, 0.4083003103733063, 0.11957521736621857, -0.026759782806038857, 0.3561103045940399, -0.11422517150640488, -0.017600124701857567, 0.07246442884206772, -0.0026037392672151327, 0.017625339329242706, 0.020721033215522766, -0.017066529020667076, 0.06818699091672897, 0.11285778135061264, -0.2254425436258316, 0.2220688909292221], [-0.07228819280862808, -0.13627555966377258, 0.13390256464481354, -0.05913034453988075, -0.10693985223770142, -0.1376756727695465, 0.004712602123618126, -0.03596286475658417, -0.1569935828447342, -0.21422304213047028, -0.037878964096307755, 0.03772049397230148, 0.06052227318286896, -0.07592672109603882, 0.03947078809142113, 0.014454299584031105, 0.0979810282588005, 0.04760868102312088, -0.04456229507923126, 0.09159082174301147], [0.004317627754062414, -0.1136968731880188, -0.3402802646160126, -0.16641034185886383, 0.12406860291957855, -0.08836574107408524, 0.12921468913555145, -0.07546574622392654, -0.09430236369371414, -0.19379261136054993, 0.029136883094906807, 0.3335645794868469, -0.024482768028974533, 0.0002295109152328223, 0.07022891938686371, 0.04167309030890465, -0.00242428807541728, -0.07131887227296829, -0.36679476499557495, -0.2180652767419815], [-0.004401870537549257, -0.026546970009803772, -0.0019247493473812938, -0.1326291412115097, 0.16936588287353516, -0.014055643230676651, 0.02368110790848732, 0.0066763050854206085, 0.006319641601294279, -0.00790475495159626, -0.04196397587656975, -0.2895822823047638, 0.02135995775461197, 0.03802935779094696, 0.015119352377951145, 0.04097539931535721, 0.003175057005137205, -0.1332666575908661, 0.020139474421739578, -0.0136666689068079], [-0.027118276804685593, 0.018439654260873795, 0.06321286410093307, -0.07548696547746658, 0.13382282853126526, 0.05382165312767029, 0.11178628355264664, -0.028872767463326454, -0.11942671239376068, 0.14018981158733368, 0.05590512230992317, 0.10656504333019257, -0.011686636134982109, -0.04033657908439636, -0.1771402359008789, 0.034635838121175766, -0.06473841518163681, -0.29979875683784485, 0.05214827135205269, -0.007347135338932276], [-0.36586251854896545, 0.06121639534831047, 0.37219977378845215, -0.09026653319597244, -0.012305542826652527, 0.40923619270324707, 0.5636207461357117, -0.07669974118471146, -0.1842649132013321, 0.051020462065935135, -0.011316163465380669, -0.055575061589479446, -0.22805021703243256, 0.16929028928279877, 0.03991116210818291, -0.10927580296993256, 0.7427957057952881, 0.0841115191578865, -0.1141955778002739, 0.05798252671957016], [-0.25103339552879333, 0.14600569009780884, 0.1433296650648117, -0.05785602331161499, -0.060795918107032776, 0.2022591531276703, -0.03245729207992554, 0.06672792881727219, -0.11495352536439896, 0.15459293127059937, 0.10729985684156418, -0.2589859068393707, 0.09196902066469193, -0.07399823516607285, -0.009494243189692497, -0.1907355934381485, 0.09046200662851334, -0.040368448942899704, 0.007379353046417236, -0.13944394886493683], [0.003702982561662793, -0.05559412017464638, -0.07788002490997314, -0.0400557778775692, -0.08654957264661789, 0.015449892729520798, -0.0015243542147800326, -0.024832308292388916, 0.028570840135216713, -0.0760289654135704, 0.02189444936811924, 0.06014459580183029, 0.02778102271258831, -0.038055114448070526, -0.037955522537231445, -0.015559532679617405, 0.04698514565825462, -0.09277217090129852, -0.027727415785193443, 0.02750932238996029], [-0.6295927166938782, 0.03412644565105438, 0.38374149799346924, -0.11510054767131805, -0.02256949059665203, 0.13143140077590942, 0.39092904329299927, -0.06608150899410248, 0.038984887301921844, 0.1630878746509552, 0.05892955884337425, 0.006903796922415495, -0.13787424564361572, -0.39878568053245544, 0.16634081304073334, -0.2590196132659912, -0.06912218779325485, 0.14253535866737366, -0.37713778018951416, 0.36866748332977295], [-0.26301974058151245, -0.1438959240913391, 0.20735740661621094, -0.03565702959895134, 0.04328375309705734, 0.09089910238981247, 0.12402840703725815, 0.025519657880067825, -0.12249374389648438, -0.04692156985402107, -0.05071057379245758, 0.12594440579414368, 0.03175215423107147, 0.11515862494707108, 0.018884040415287018, -0.08351804316043854, 0.06466769427061081, -0.0030205384828150272, -0.0895448550581932, 0.05172821134328842], [-0.0259296502918005, 0.035544924437999725, -0.008020009845495224, 0.033699750900268555, -0.10287460684776306, -0.012901542708277702, -0.007481205277144909, 0.028490528464317322, 0.02975919283926487, -0.08994805067777634, -0.09213784337043762, 0.00868632085621357, -0.009369800798594952, -0.007037492003291845, 0.007775460369884968, 0.016620231792330742, -0.04575984552502632, 0.2694346606731415, -0.036751266568899155, -0.054107312113046646], [0.09229681640863419, -0.053126297891139984, -0.11701225489377975, -0.11606987565755844, 0.03729616850614548, 0.11170235276222229, 0.0057344259694218636, -0.015098989941179752, -0.01379358395934105, -0.012040580622851849, -0.021063487976789474, 0.08778742700815201, 0.06314317882061005, -0.025297151878476143, 0.029602574184536934, 0.13265644013881683, 0.08538726717233658, -0.2054932862520218, -0.199287548661232, 0.194110706448555], [-0.14020496606826782, 0.1013193354010582, 0.11450434476137161, 0.06040496006608009, -0.03409859538078308, 0.06130143627524376, -0.16854709386825562, 0.08462827652692795, 0.15431451797485352, 0.17305698990821838, -0.003974375315010548, -0.25739938020706177, 0.295136034488678, 0.010388223454356194, 0.06531436741352081, -0.07885371148586273, 0.02887110225856304, -0.012914128601551056, 0.39608675241470337, 0.2326316088438034], [0.0157609973102808, 0.002230913145467639, 0.10864818841218948, 0.02686639502644539, 0.08131983876228333, -0.2981482446193695, 0.052814193069934845, -0.05356723815202713, -0.6148813366889954, 0.09417451918125153, -0.06416582316160202, -0.06696557998657227, -0.018399590626358986, -0.24969825148582458, 0.07577989995479584, 0.044392865151166916, 0.13272155821323395, -0.015313227660953999, -0.026989320293068886, -0.17133527994155884], [-0.05261966958642006, 0.02892242558300495, 0.03256766498088837, 0.03337506204843521, -0.15828801691532135, 0.049825988709926605, 0.043065764009952545, 0.03504835441708565, 0.030790559947490692, 0.10372013598680496, -0.0244776401668787, 0.18870481848716736, 0.015728479251265526, 0.06056052818894386, 0.3538351356983185, -0.007596725597977638, -0.04961727559566498, -0.026515036821365356, 0.025836855173110962, -0.04567141830921173], [-0.05784080922603607, 0.048852454870939255, -0.00585961015895009, -0.005853341892361641, 0.0385066382586956, -0.03705066815018654, -0.07042278349399567, 0.030089162290096283, 0.23294562101364136, 0.12966421246528625, -0.012749363668262959, 0.1818000227212906, 0.006411548238247633, 0.022987665608525276, 0.044044382870197296, -0.068895123898983, 0.05124717205762863, -0.023406460881233215, -0.0399799570441246, 0.039740800857543945], [0.01600082963705063, -0.007923408411443233, 0.06861007958650589, -0.08195432275533676, 0.0716421827673912, -0.8532596826553345, -0.18463431298732758, 0.0026774699799716473, 0.34989044070243835, -0.07319606840610504, -0.11604432761669159, 0.06696616113185883, 0.0442051962018013, 0.15399624407291412, 0.10600530356168747, -0.16504772007465363, 0.4564806818962097, 0.028428776189684868, 0.008214102126657963, 0.3472648561000824], [-0.2902598977088928, 0.060004930943250656, 0.26249632239341736, -0.0023161887656897306, 0.4756097197532654, -0.23712575435638428, 0.30590948462486267, -0.04904849827289581, -0.20344358682632446, 0.36725521087646484, -0.45219141244888306, -0.19398637115955353, -0.06518591195344925, 0.0719938650727272, 0.4355606138706207, 0.0024465902242809534, -0.08495411276817322, -0.08555907756090164, 0.017305472865700722, -0.17493583261966705], [-0.09448684006929398, 0.001387094147503376, 0.0191713348031044, 0.1057867780327797, 0.08412265032529831, 0.04080887883901596, 0.18075121939182281, -0.05384224280714989, 0.04318121075630188, 0.056410305202007294, 0.03695695847272873, 0.018370505422353745, 0.20661985874176025, -0.0060666524805128574, 0.03911569342017174, -0.015415566973388195, -0.012186394073069096, 0.0036524010356515646, -0.20840775966644287, 0.1333683580160141], [-0.44343021512031555, -0.002140108495950699, -0.04969417676329613, -0.13722184300422668, -0.0949663445353508, 0.010218746028840542, 0.16018269956111908, 0.021359551697969437, -0.08437122404575348, 0.11350966989994049, 0.0694786012172699, -0.01633351854979992, 0.21749264001846313, -0.030401965603232384, 0.03567752242088318, -0.22709913551807404, 0.001564754405990243, 0.0930684506893158, -0.07663587480783463, 0.1123388260602951], [0.23139283061027527, -0.2089691311120987, -0.05922969803214073, 0.06494680047035217, -0.04388481006026268, -0.5694652199745178, 0.0914447233080864, -0.03675322234630585, -0.25333303213119507, -0.29610729217529297, 0.06166243925690651, 0.036458320915699005, 0.0014721929328516126, 0.10745551437139511, 0.03599837049841881, 0.023554639890789986, 0.07684994488954544, -0.16310031712055206, -0.011764222756028175, -0.004255909007042646], [-0.1566786766052246, 0.12878954410552979, 0.24083593487739563, 0.1824379712343216, -0.20199930667877197, -0.11209175735712051, -0.17975810170173645, 0.25917503237724304, 0.23073753714561462, 0.32042476534843445, 0.10019749402999878, 0.10688440501689911, -0.07045357674360275, -0.009001978673040867, -0.23735693097114563, -0.05142584815621376, -0.20347343385219574, -0.036478009074926376, 0.13168951869010925, -0.47696834802627563], [-0.05459783598780632, 0.41041621565818787, 0.4126722812652588, 0.08428938686847687, -0.06911610811948776, -0.06999221444129944, -0.11324440687894821, 0.1645597517490387, 0.08923369646072388, 0.2624272108078003, 0.19340084493160248, -0.05217432603240013, -0.024429699406027794, -0.003758179023861885, -0.22053870558738708, -0.14217804372310638, 0.0217885859310627, -0.1460009515285492, 0.6984966397285461, 0.1397201269865036], [-0.03330056741833687, 0.13147029280662537, 0.024406304582953453, 0.3811064064502716, -0.18138949573040009, -0.004128435626626015, -0.11070728302001953, -0.07948070019483566, -0.1694267988204956, 0.4347345530986786, 0.09080086648464203, -0.04766615852713585, 0.0014325212687253952, 0.14409667253494263, 0.32635602355003357, 0.1750507801771164, 0.08536435663700104, 0.41099822521209717, -0.11396840214729309, 0.08174706995487213], [0.06231274828314781, -0.16140921413898468, -0.08829356729984283, -0.052590228617191315, 0.3926526606082916, 0.13813845813274384, -0.0035520782694220543, -0.23526011407375336, 0.09592902660369873, 0.08995392173528671, -0.2782193422317505, -0.07235383242368698, -0.0983811616897583, -0.13583193719387054, -0.2120533436536789, 0.009431445971131325, -0.0032999273389577866, -0.4201739430427551, -0.10441786050796509, 0.09634268283843994], [-0.1678711324930191, -0.07283841073513031, -0.061629656702280045, 0.0351821668446064, -0.03698504716157913, 0.6443787217140198, 0.2851100564002991, 0.09137237071990967, -0.06898339837789536, -0.027150793001055717, -0.04010188207030296, 0.012683095410466194, 0.09599944204092026, -0.062038227915763855, -0.006315148901194334, 0.03452020511031151, -0.2950077950954437, 0.0045319972559809685, 0.10066048800945282, -0.15031209588050842], [0.10032091289758682, -0.2507285177707672, 0.15134665369987488, 0.01793389581143856, -0.0010526592377573252, 0.3062351942062378, 0.23679520189762115, 0.01160021498799324, -0.4519278407096863, -0.36620280146598816, -0.02194014936685562, 0.011730840429663658, -0.1855621486902237, 0.10241563618183136, 0.009943244978785515, 0.29302099347114563, -0.14726632833480835, -0.08770330995321274, -0.041105177253484726, 0.15729138255119324], [0.012912902049720287, 0.23257990181446075, 0.20700715482234955, -0.09534048289060593, -0.005759906023740768, 0.21590372920036316, -0.39762088656425476, 0.09992173314094543, 0.20075619220733643, 0.14817409217357635, 0.14231239259243011, 0.030191106721758842, 0.002953290706500411, 0.0998392105102539, -0.09646325558423996, -0.015985902398824692, -0.01390647329390049, -0.08874206244945526, 0.20322750508785248, -0.2366006076335907], [-0.389839231967926, -0.007959998212754726, -0.05302952602505684, -0.07893138378858566, 0.023107487708330154, 0.2715102732181549, -0.06909830123186111, 0.11625389754772186, 0.6488802433013916, -0.11530300974845886, 0.0694785788655281, 0.007969321683049202, 0.009511304087936878, 0.1686655879020691, 0.07046040892601013, -0.07464639097452164, 0.07896643131971359, 0.03759398311376572, -0.21699006855487823, 0.07867338508367538], [-0.2629486322402954, 0.3332448899745941, -0.2711051404476166, 0.05734255909919739, 0.07998373359441757, 0.0335736982524395, -0.024827968329191208, 0.05823758989572525, 0.09975443035364151, 0.41341668367385864, -0.18602874875068665, 0.13275490701198578, -0.29489865899086, 0.13088588416576385, 0.08425740152597427, -0.09137140959501266, -0.0895623192191124, -0.1944712996482849, -0.11630700528621674, -0.20864368975162506], [0.053762584924697876, -0.006186287384480238, 0.03314206004142761, 0.013235189020633698, -0.15274859964847565, 0.04118184372782707, 0.12127380073070526, 0.044395118951797485, 0.11508114635944366, -0.002795867621898651, 0.31711679697036743, -0.038389902561903, -0.11728132516145706, -0.030506128445267677, 0.2946036756038666, -0.1088046208024025, -0.1592213362455368, -0.5782326459884644, -0.0102469427511096, -0.06085485219955444], [-0.10499236732721329, -0.2511030435562134, -0.14999572932720184, 0.8102867007255554, -0.270414263010025, 0.09461887180805206, 0.2079540491104126, -0.35173913836479187, 0.2139347642660141, -0.2224825620651245, 0.1937439739704132, 0.8043373823165894, 0.04655228555202484, -0.11485283076763153, -0.9822779893875122, -0.4458194077014923, -0.10275907814502716, 0.6908108592033386, 0.030423302203416824, 0.04010986164212227], [-0.021330909803509712, 0.30821511149406433, -0.09890366345643997, 0.10080942511558533, 0.04988951236009598, 0.2339327484369278, -0.45124363899230957, 0.33046743273735046, 0.1854732483625412, 0.4204622507095337, 0.01796717569231987, -0.29768693447113037, 0.3611656725406647, -0.24350151419639587, -0.2711295485496521, -0.16717368364334106, 0.021884458139538765, -0.05151471495628357, 0.43465107679367065, 0.017423437908291817], [-0.20238341391086578, -0.13896901905536652, -0.05123361572623253, -0.25765424966812134, 0.15633730590343475, 0.2794049382209778, 0.2518433928489685, 0.11884244531393051, 0.5779798626899719, -0.01655210368335247, -0.018512733280658722, 0.17196881771087646, -0.05992545187473297, 0.5200283527374268, 0.2646198570728302, -0.21187248826026917, -0.15127819776535034, 0.14201872050762177, -0.38320279121398926, 0.35956376791000366], [0.09751075506210327, 0.06028686836361885, 0.046054672449827194, -0.1668422669172287, 0.23445428907871246, -0.07754837721586227, 0.012619858607649803, 0.34333205223083496, -0.06990133225917816, 0.044683169573545456, 0.05537906661629677, 0.4187953472137451, -0.04220890253782272, -0.05299500375986099, 0.9731635451316833, 0.2242538034915924, -0.021676547825336456, -0.5750274062156677, -0.03894548490643501, 0.006238598842173815], [0.3466898202896118, -0.057670097798109055, 0.22142617404460907, -0.19960984587669373, 0.03651093319058418, 0.11936122179031372, 0.38581517338752747, -0.11203469336032867, -0.5843085050582886, -0.0778769850730896, -0.04394211620092392, 0.07967527210712433, -0.10245422273874283, 0.09266723692417145, -0.009211152791976929, 0.11532317847013474, -0.11679667979478836, -0.19968311488628387, -0.03306136280298233, 0.27287477254867554], [0.23761135339736938, -0.0013001204933971167, -0.08017207682132721, -0.034856341779232025, 0.104570172727108, -0.6597106456756592, -0.4411619007587433, 0.08946370333433151, 0.06806165724992752, 0.10574530065059662, -0.00011866795102832839, 0.039840858429670334, 0.20588693022727966, 0.01716829277575016, 0.09098414331674576, -0.17934535443782806, 0.33270785212516785, -0.08241104334592819, -0.2742707431316376, 0.23979777097702026], [-0.10505377501249313, 0.029394984245300293, -0.015453324653208256, 0.04760386049747467, -0.1587800681591034, -0.06049411743879318, -0.02911028452217579, 0.10741566866636276, 0.05806189030408859, -0.04501563310623169, -0.22892983257770538, -0.14071959257125854, -0.005669965874403715, -0.036711327731609344, -0.058929692953825, 0.03565550222992897, -0.0337521955370903, 0.5729266405105591, -0.06776289641857147, -0.007133284118026495], [-0.03176155686378479, 0.3804418742656708, 0.179307758808136, 0.033579859882593155, 0.07052119076251984, 0.13400568068027496, -0.1481778472661972, -0.026402361690998077, -0.0955447182059288, 0.3700895309448242, 0.15685859322547913, -0.22917884588241577, 0.3921639323234558, -0.012904924340546131, -0.03374012932181358, -0.2348185032606125, 0.24461151659488678, 0.04154195636510849, 0.4223209619522095, -0.09269910305738449], [-0.18473578989505768, -0.04888550564646721, 0.2513040602207184, 0.03377581387758255, -0.05941803753376007, 0.11705585569143295, -0.053537629544734955, 0.20407792925834656, 0.163514643907547, -0.06879837065935135, -0.15199758112430573, 0.06044426187872887, 0.11748974025249481, -0.012206456623971462, 0.04493603855371475, 0.1185467541217804, -0.08728682994842529, -0.06802200525999069, 0.33101531863212585, 0.5774790048599243], [0.23473043739795685, -0.13696038722991943, -0.1864570528268814, -0.05330270901322365, -0.03328228369355202, 0.24063894152641296, -0.130355566740036, -0.023310765624046326, 0.30126455426216125, -0.11014699190855026, -0.026036592200398445, 0.1785142570734024, 0.0012924661859869957, -0.05819269269704819, -0.06266997009515762, 0.0020097275264561176, 0.05934273824095726, 0.08609816431999207, -0.2074960619211197, 0.018688932061195374], [0.0823601558804512, -0.13993379473686218, -0.037992849946022034, -0.05645478144288063, -0.1265692561864853, -0.09001898020505905, -0.026657549664378166, -0.018324095755815506, -0.10844822973012924, -0.19737975299358368, -0.0068358806893229485, -0.020014336332678795, 0.09690698236227036, -0.09208893775939941, 0.08398973196744919, 0.02396613173186779, 0.1003655195236206, -0.031822703778743744, -0.045410510152578354, 0.1131030023097992], [0.05041863024234772, -0.1297372430562973, -0.4539797902107239, -0.16382867097854614, 0.09402154386043549, -0.009067226201295853, 0.09737185388803482, -0.0782477855682373, -0.16222096979618073, -0.22852565348148346, 0.020994607359170914, 0.270073264837265, -0.009356574155390263, -0.0039011943154037, 0.0661199539899826, 0.09231092035770416, -0.010271809063851833, -0.09246257692575455, -0.32677149772644043, -0.34529048204421997], [-0.049799803644418716, -0.02238554321229458, 0.013797545805573463, -0.08505253493785858, 0.10191722959280014, 0.020438842475414276, 0.0483226515352726, 0.0027357398066669703, 0.04513215646147728, -0.006760473363101482, -0.04655688256025314, -0.22228825092315674, -0.004892466589808464, 0.06408514082431793, 0.012615018524229527, 0.01888265833258629, -0.0047612120397388935, -0.04013139382004738, -0.04097912460565567, 0.0026930246967822313], [-0.022742489352822304, -0.008734716102480888, 0.031555138528347015, -0.058541420847177505, 0.19403858482837677, 0.057980976998806, 0.09247905015945435, -0.06606210023164749, -0.04765719175338745, 0.10152627527713776, 0.08906200528144836, 0.12174227833747864, -0.01434507966041565, -0.023452261462807655, -0.25540441274642944, -0.0144040547311306, -0.04800835996866226, -0.2557251453399658, 0.04285094141960144, -0.005633130669593811], [-0.06525637954473495, -0.215057834982872, 0.009871025569736958, -0.039178770035505295, 0.01865331456065178, 0.3329329490661621, 0.1995757520198822, -0.05874282121658325, -0.02219376526772976, -0.28922757506370544, -0.030017390847206116, -0.0829685851931572, 0.05692770332098007, -0.11114433407783508, 0.04083635285496712, -0.02526160329580307, 0.7202832698822021, 0.06054198741912842, 0.07585958391427994, -0.05586349219083786], [0.03143588453531265, 0.10552848130464554, -0.14837977290153503, -0.036506395787000656, -0.06868156045675278, 0.10284031182527542, -0.31219005584716797, 0.0665162205696106, 0.007981018163263798, 0.10325019061565399, 0.05715549737215042, -0.06630601733922958, 0.16221198439598083, -0.1640138328075409, -0.05414063483476639, -0.172574982047081, 0.08951599895954132, -0.045709554105997086, 0.06857073307037354, -0.08327449858188629], [-0.02305641397833824, -0.056957535445690155, -0.07063975185155869, -0.04034573212265968, -0.01959918439388275, -0.010729128494858742, 0.02446473389863968, -0.0595913864672184, 0.018063336610794067, -0.0782151147723198, 0.014440366066992283, 0.042774226516485214, 0.023072365671396255, -0.03381716087460518, -0.12181393057107925, -0.038644831627607346, 0.057741980999708176, -0.054226845502853394, -0.04492674767971039, 0.033238645642995834], [-0.1555345356464386, -0.19374430179595947, 0.05811816081404686, -0.0627792626619339, 0.13889609277248383, 0.009687788784503937, -0.10542412102222443, -0.03073536604642868, 0.14285103976726532, -0.060660842806100845, 0.012800000607967377, -0.01765158213675022, 0.16848306357860565, -0.5567374229431152, 0.05968864634633064, -0.25533345341682434, 0.032679591327905655, 0.1488233357667923, -0.10180981457233429, 0.15346169471740723], [0.06555738300085068, -0.12216395139694214, -0.08046498149633408, -0.12114939093589783, 0.00857918243855238, 0.024012356996536255, -0.0635276809334755, 0.004856246057897806, -0.06747978180646896, -0.1248369887471199, -0.020811652764678, 0.0980776846408844, 0.08201102167367935, -0.02014564909040928, 0.039539288729429245, -0.03576437756419182, 0.06565640866756439, -0.10237464308738708, 0.023811819031834602, 0.0405423603951931], [-0.04838922992348671, 0.04332022741436958, -0.006553515791893005, 0.020585747435688972, -0.09547770768404007, 0.007072431035339832, 2.2748376068193465e-05, 0.033945232629776, 0.04099980741739273, -0.09624183177947998, -0.17594628036022186, 0.03868643939495087, -0.008025100454688072, 0.013581926934421062, -0.03973798826336861, 0.01700046844780445, -0.04355292022228241, 0.34304437041282654, -0.06360162049531937, -0.04562172666192055], [0.1232345849275589, 0.18055839836597443, -0.07007016986608505, -0.10788250714540482, -0.007686322554945946, -0.045931778848171234, -0.2668456733226776, 0.04297264292836189, -0.2171834111213684, 0.03640076518058777, -0.041953664273023605, 0.29760968685150146, 0.1317196786403656, -0.103653185069561, -0.05980508029460907, 0.0647934153676033, 0.09191364794969559, -0.057134877890348434, 0.17582835257053375, -0.20913177728652954], [-0.07431913167238235, 0.1011749729514122, 0.0808267667889595, 0.0639219656586647, -0.049039505422115326, 0.11499714106321335, -0.15904848277568817, 0.08265490084886551, 0.07766415923833847, 0.15429607033729553, 0.04042156785726547, -0.2217223048210144, 0.28503313660621643, -0.038756661117076874, 0.06966724246740341, -0.05752113088965416, 0.010120796039700508, -0.07357295602560043, 0.40957239270210266, 0.1531139314174652], [0.06784284114837646, 0.02939331717789173, 0.07583483308553696, 0.0346682071685791, 0.04695318266749382, -0.2840164601802826, 0.027347132563591003, -0.031196532770991325, -0.5966898798942566, 0.09213702380657196, -0.08416696637868881, -0.10306840389966965, -0.006675088312476873, -0.25376811623573303, 0.1151476725935936, 0.048012327402830124, 0.09637775272130966, 0.010137106291949749, 0.04406992346048355, -0.24333079159259796], [-0.07312055677175522, 0.05861731246113777, 0.11066064983606339, -0.06694237142801285, -0.06122923269867897, -0.08523090928792953, 0.07472387701272964, 0.0026266323402523994, -0.09778719395399094, 0.18136288225650787, -0.016480538994073868, 0.33269160985946655, -0.016102828085422516, 0.1255488395690918, 0.0526057705283165, 0.03960902616381645, -0.014233941212296486, -0.1120087206363678, -0.031847041100263596, 0.015442629344761372], [-0.03153298795223236, 0.035456180572509766, -0.025504719465970993, -0.005611674394458532, 0.06684625148773193, -0.03951116278767586, -0.07041361182928085, 0.010913443751633167, 0.21616442501544952, 0.1146339550614357, -0.022724280133843422, 0.15050789713859558, 0.008653268218040466, 0.01941114105284214, 0.03498560190200806, -0.0793403685092926, 0.05403430759906769, -0.004021882079541683, -0.03396056219935417, 0.03410575911402702], [0.13765902817249298, -0.033619727939367294, -0.029167544096708298, -0.042637065052986145, 0.10669036954641342, -0.878370463848114, -0.24863499402999878, -0.039318107068538666, 0.28636378049850464, -0.055694807320833206, -0.05308796092867851, 0.09963023662567139, 0.03463967517018318, 0.1362038105726242, 0.08338627964258194, -0.12930884957313538, 0.41702383756637573, -0.05292364954948425, -0.007505372166633606, 0.2503144443035126], [-0.06640516221523285, -0.028631340712308884, 0.040231868624687195, -0.1112028956413269, 0.26975753903388977, -0.07039832323789597, 0.04083625227212906, -0.02084297314286232, 0.013607528991997242, 0.16425377130508423, -0.36093345284461975, 0.0024574045091867447, 0.004118133801966906, 0.03082309290766716, 0.1948825567960739, 0.020066160708665848, -0.028522107750177383, -0.12346986681222916, 0.06208464503288269, 0.1022864282131195], [0.1471070796251297, -0.04808782413601875, -0.32189545035362244, -0.02159561961889267, 0.07735347002744675, 0.09051591902971268, -0.09802663326263428, -0.053838301450014114, 0.04385749623179436, -0.0897459089756012, -0.017799878492951393, 0.019361119717359543, 0.39616134762763977, -0.0054404595866799355, 0.006365072447806597, 0.00782968383282423, 0.00993486400693655, -0.06281523406505585, -0.06366799026727676, 0.128294438123703], [-0.0012871576473116875, -0.05294574052095413, -0.29247403144836426, -0.031827084720134735, 0.022591225802898407, 0.024174442514777184, -0.020324936136603355, 0.02811424620449543, 0.014970884658396244, 0.057206470519304276, -0.076449453830719, 0.06492508202791214, 0.2005774974822998, -0.22588536143302917, 0.0714237242937088, -0.1267716884613037, 0.17447592318058014, -0.02939155139029026, 0.060733407735824585, 0.13709479570388794]], "rec.bias_ih_l0": [-0.1759442239999771, -0.1321549117565155, -0.14450985193252563, 0.14448219537734985, -0.18045228719711304, -0.21005316078662872, -0.08854324370622635, -0.12395556271076202, -0.225623220205307, -0.29048818349838257, -0.05774042755365372, 0.4124818742275238, -0.44019636511802673, -0.14528727531433105, 0.7282047867774963, -0.05146276578307152, -0.25265780091285706, -0.6628354787826538, 0.08469528704881668, -0.18880099058151245, 0.11908425390720367, 0.3036230206489563, 0.4646378755569458, 0.2938384711742401, 0.3345002233982086, 0.6866505742073059, 0.5212174654006958, 0.19965782761573792, 0.8102479577064514, 0.7293878793716431, 0.21589291095733643, 0.1530945748090744, 0.3751090168952942, 0.43016061186790466, 0.182194784283638, 0.06148279830813408, 0.19150136411190033, 1.0920157432556152, 0.544952392578125, 0.802117645740509, -0.15163379907608032, -0.07462173700332642, 0.19771382212638855, 0.04210890457034111, -0.028370050713419914, 0.056843992322683334, -0.08346464484930038, 0.07530399411916733, 0.04204327613115311, -0.009766835719347, -0.05680885910987854, 0.1599970906972885, -0.014070287346839905, -0.02341221459209919, 0.017603717744350433, 0.06306381523609161, 0.07881733775138855, -0.031353410333395004, 0.13238540291786194, -0.09582087397575378, -0.3449918329715729, -0.11354649066925049, -0.17046847939491272, 0.16324445605278015, -0.009371890686452389, -0.02539944276213646, -0.1411876678466797, 0.07326912134885788, -0.06487239897251129, 0.06911071389913559, 0.0069176503457129, -0.07098152488470078, -0.05083916708827019, -0.18681451678276062, 0.057012878358364105, -0.19037793576717377, -0.18002104759216309, 0.07287932932376862, 0.24649713933467865, 0.26970812678337097], "rec.bias_hh_l0": [-0.20150341093540192, -0.0865001380443573, -0.19759513437747955, 0.16545836627483368, -0.20746579766273499, -0.09214553982019424, -0.23988288640975952, -0.181153804063797, -0.21681801974773407, -0.33621126413345337, -0.013890755362808704, 0.1865493208169937, -0.4417562484741211, -0.33962282538414, 0.6591604948043823, -0.21596606075763702, -0.3354802131652832, -0.7078260183334351, 0.07594476640224457, -0.2640494704246521, 0.23516115546226501, 0.38210609555244446, 0.26110607385635376, 0.2698368430137634, 0.2559974491596222, 0.6905466914176941, 0.505956768989563, 0.08995197713375092, 0.737463653087616, 0.8237135410308838, 0.24526984989643097, -0.08589432388544083, 0.3268900513648987, 0.3339400291442871, 0.2698145806789398, 0.08055943250656128, 0.26089605689048767, 1.1281837224960327, 0.4519973397254944, 0.8382250666618347, -0.20464390516281128, 0.08459785580635071, 0.023368315771222115, -0.09175250679254532, 0.01481667347252369, -0.08429418504238129, 0.2188253104686737, -0.050877559930086136, -0.0878932997584343, 0.01147458329796791, 0.06074386462569237, -0.1375778764486313, -0.03061728924512863, 0.08791231364011765, 0.009760580956935883, -0.10363032668828964, -0.04171345755457878, 0.027797497808933258, -0.1703113168478012, 0.0823410376906395, -0.39710724353790283, -0.1293388158082962, -0.1269853413105011, 0.1690128594636917, -0.033483874052762985, 0.04451358690857887, -0.3333701491355896, -0.12959147989749908, -0.1173584908246994, 0.22046227753162384, -0.03034253604710102, 0.15558640658855438, -0.18987898528575897, -0.2518825829029083, 0.12637357413768768, -0.08497420698404312, -0.266602486371994, 0.14743100106716156, 0.11141520738601685, 0.2608727216720581], "lin.weight": [[0.23861812055110931, 0.7489378452301025, 0.4720994234085083, 0.1409434825181961, -0.49669358134269714, -0.4503030478954315, -0.05071762576699257, 0.9019982218742371, -1.094325304031372, -0.4878474473953247, -0.5455613136291504, -0.5436972379684448, 0.3924732506275177, -0.7146966457366943, -0.15546609461307526, 0.42476215958595276, -0.3774736225605011, 0.10215979814529419, 1.1421078443527222, -1.2712304592132568]], "lin.bias": [0.044282279908657074]}}