{"model_data": {"model": "SimpleRNN", "input_size": 1, "skip": 1, "output_size": 1, "unit_type": "LSTM", "num_layers": 1, "hidden_size": 20, "bias_fl": true}, "state_dict": {"rec.weight_ih_l0": [[-0.08310337364673615], [-0.1000606045126915], [-0.08296418935060501], [0.16682907938957214], [-0.055259138345718384], [0.08871475607156754], [-0.2301824390888214], [-0.03664499521255493], [0.1387891322374344], [0.2060060203075409], [-0.022309914231300354], [0.10723349452018738], [-0.296446293592453], [-0.08755314350128174], [0.04215554520487785], [0.07117912918329239], [0.2680128812789917], [0.08195791393518448], [-0.11677786707878113], [-0.012610246427357197], [0.05693788081407547], [-0.330507755279541], [0.017575982958078384], [0.3766475021839142], [-0.09485388547182083], [0.33597326278686523], [-0.5386916995048523], [-0.017885852605104446], [0.23153509199619293], [0.16735026240348816], [0.034449417144060135], [0.10455426573753357], [-0.07022464275360107], [0.016518432646989822], [0.0768432766199112], [0.05479120463132858], [0.20314301550388336], [0.11411182582378387], [-0.1867792010307312], [-0.07722292095422745], [-0.36362287402153015], [-0.4860159754753113], [-0.7994942665100098], [-0.023446202278137207], [-0.27904608845710754], [0.7507520914077759], [1.2171567678451538], [0.27836740016937256], [-0.027980245649814606], [-0.1460103988647461], [-0.1169387549161911], [1.164950966835022], [-0.24786266684532166], [0.28783270716667175], [0.04380223900079727], [-0.13374650478363037], [0.11594276875257492], [0.09337849169969559], [-0.5257464051246643], [-1.1598328351974487], [-0.22583132982254028], [-0.24454833567142487], [-0.06756141036748886], [-0.16849812865257263], [-0.0934312716126442], [0.3254909813404083], [-0.5054484605789185], [-0.033958517014980316], [0.1346769481897354], [0.1558956652879715], [0.07133591175079346], [-0.04573950171470642], [-0.19414778053760529], [-0.008249701000750065], [0.05343344435095787], [0.0894639790058136], [0.15897275507450104], [0.08157897740602493], [-0.11374187469482422], [-0.03842981532216072]], "rec.weight_hh_l0": [[-0.011848227120935917, -0.20116320252418518, 0.19754095375537872, -0.6605331897735596, -0.4735357463359833, -0.5979767441749573, 0.4586274027824402, 0.045352015644311905, -0.4584292769432068, -0.20824776589870453, 0.378357470035553, 0.05921865254640579, -0.28891706466674805, 0.26402419805526733, 0.21151766180992126, 0.3282985985279083, -0.10760972648859024, 0.07407711446285248, 0.26889729499816895, -0.21688024699687958], [-0.23312775790691376, 0.023213736712932587, -0.038568392395973206, -0.14840289950370789, -0.09808357059955597, -0.0539330430328846, 0.05034637078642845, -0.037534814327955246, -0.037825651466846466, -0.022368373349308968, 0.04802466556429863, -0.1235475242137909, -0.2696942389011383, 0.25004082918167114, -0.05863366276025772, 0.15849646925926208, -0.11173079162836075, -0.045614227652549744, 0.052032873034477234, -0.1476345658302307], [-0.05265482887625694, 0.016192780807614326, -0.05784879997372627, 0.06794530153274536, 0.016888856887817383, 0.10273465514183044, -0.18546319007873535, -0.006150928791612387, -0.003005597973242402, 0.05011048540472984, -0.24214866757392883, -0.08369180560112, -0.054600849747657776, -0.05121271684765816, 0.03065379150211811, -0.13167250156402588, 0.10521162301301956, 0.05181553214788437, 0.015599320642650127, -0.09001339226961136], [-0.3546014130115509, 0.30598488450050354, 0.19454343616962433, -0.2757227122783661, -0.3080465793609619, -0.3022308051586151, 0.05745143070816994, -0.08113725483417511, -0.08082699030637741, -0.10779520869255066, 0.3052118718624115, -0.020871391519904137, -0.19416148960590363, 0.06952102482318878, 0.09107290953397751, 0.3174593448638916, 0.08281729370355606, 0.12678220868110657, -0.3522850573062897, 0.13197597861289978], [-0.11022742837667465, -0.10390633344650269, -0.017279304563999176, -0.8206097483634949, -0.13607510924339294, -0.7665574550628662, 0.9101480841636658, -0.21113213896751404, 0.17004336416721344, 0.3676735460758209, 0.48085591197013855, -0.057291749864816666, -0.30835646390914917, 0.43832653760910034, 0.3303290009498596, 0.3560045659542084, -0.05088398978114128, 0.5176417827606201, -0.36134424805641174, -0.055321548134088516], [0.10448358207941055, 0.09550417214632034, -0.013734023086726665, 0.09484101831912994, -0.04553484544157982, 0.23764356970787048, -0.17190897464752197, 0.0016904835356399417, -0.022954916581511497, -0.019223496317863464, -0.14278572797775269, 0.03349696472287178, 0.024704474955797195, -0.03246381878852844, -0.0207675788551569, -0.19401033222675323, 0.04256386309862137, -0.038578301668167114, -0.030581481754779816, 0.012454385869204998], [0.06570913642644882, 0.06092366203665733, -0.10770218819379807, -0.040860578417778015, -0.084661103785038, 0.15706202387809753, -0.21340861916542053, 0.022522957995533943, -0.04403749853372574, -0.13950805366039276, 0.09937816858291626, -0.13521449267864227, 0.021049739792943, 0.08641482144594193, -0.056103549897670746, -0.01264363806694746, -0.20935435593128204, -0.04760197177529335, -0.10136288404464722, -0.0645080953836441], [-0.034411218017339706, 0.002691711066290736, 0.006648618262261152, 0.014615395106375217, -0.005339000839740038, -0.06607163697481155, -0.020117977634072304, -0.0012173432623967528, -0.00030826989677734673, 0.03618594631552696, -0.03655357286334038, -0.028249967843294144, -0.03436613455414772, 0.03015568107366562, 0.004002578556537628, 0.08374606817960739, 0.007106717210263014, 0.004229468759149313, 0.04120989516377449, -0.008595278486609459], [-0.06943599879741669, -0.04921632260084152, -0.11573363840579987, -0.07677783071994781, 0.1430855393409729, 0.02798486314713955, 0.11800678819417953, 0.05143463611602783, -0.14762452244758606, -0.2078915387392044, 0.14261063933372498, 0.17214345932006836, 0.00812484323978424, 0.048757847398519516, 0.013495875522494316, -0.10127037018537521, 0.02309439703822136, -0.0771225169301033, -0.012260387651622295, 0.028344683349132538], [-0.34866756200790405, 0.02720625512301922, 0.03038484789431095, -0.0075674536637961864, -0.014308704994618893, -0.25627264380455017, 0.208478182554245, 0.008065142668783665, -0.0866856500506401, -0.18108853697776794, 0.264886736869812, 0.14460265636444092, -0.15185202658176422, 0.12637211382389069, -0.12521745264530182, 0.6424905061721802, -0.19644714891910553, -0.16850519180297852, 0.03318307176232338, -0.04060250520706177], [-0.23605428636074066, 0.06895380467176437, -0.16249452531337738, 0.23366674780845642, 0.07260220497846603, 0.0621333122253418, -0.1217435747385025, -0.049144476652145386, 0.26004573702812195, 0.15998946130275726, -0.11061470210552216, 0.09562186896800995, 0.07897193729877472, -0.04671251028776169, 0.049656569957733154, -0.2361275851726532, 0.13277500867843628, 0.11756465584039688, -0.032519467175006866, -0.031995873898267746], [-0.0012485783081501722, -0.19826719164848328, -0.14472419023513794, -0.03686610236763954, 0.08689273148775101, -0.13348442316055298, -0.02532806247472763, 0.10429727286100388, -0.11355320364236832, -0.18050804734230042, 0.2116195410490036, 0.1510421484708786, 0.09216196089982986, 0.12846295535564423, -0.1547534018754959, -0.07543916255235672, -0.15130233764648438, -0.16211408376693726, 0.20629483461380005, -0.10337693244218826], [0.013739382848143578, 0.0017054509371519089, 0.17606811225414276, -0.3266732096672058, -0.09458868950605392, -0.16258472204208374, -0.15031909942626953, -0.09807737916707993, 0.03616451844573021, 0.07548344880342484, -0.1348666101694107, -0.5697447061538696, -0.2717685401439667, 0.23176969587802887, 0.00573714030906558, -0.19604399800300598, 0.014734644442796707, -0.09793161600828171, -0.003560580313205719, -0.0832958072423935], [0.08875074237585068, -0.059313688427209854, 0.0448511466383934, 0.04334006831049919, 0.03137325495481491, -0.1091340035200119, -0.0708075761795044, 0.04782373830676079, -0.07606790214776993, -0.1605447679758072, -0.15238384902477264, -0.12760621309280396, -0.206834614276886, -0.1055009514093399, 0.013699019327759743, 0.1553019881248474, 0.10200423747301102, 0.010030088946223259, 0.1000286117196083, -0.07222216576337814], [-0.19804012775421143, 0.07620228081941605, -0.15482419729232788, -0.04298243299126625, 0.09897178411483765, 0.04319093003869057, -0.004163937643170357, 0.005964562762528658, 0.024879859760403633, -0.05795309320092201, 0.0001842761703301221, 0.12161563336849213, 0.017205383628606796, 0.018026156350970268, 0.06501954793930054, -0.1935008019208908, 0.11087614297866821, 0.013702699914574623, -0.01903166063129902, -0.03115285374224186], [-0.03941291570663452, 0.2083090841770172, 0.045611269772052765, -0.08798672258853912, 0.09255300462245941, 0.17844140529632568, -0.10509353876113892, -0.007935827597975731, -0.22653482854366302, -0.161827951669693, 0.2202160656452179, -0.028237326070666313, 0.1321718543767929, 0.1925530582666397, 0.1567552089691162, -0.30174922943115234, 0.05938338488340378, -0.03537860885262489, -0.05313059687614441, 0.08226025104522705], [-0.005167200695723295, 0.01402529701590538, -0.2622133195400238, -0.3428402245044708, -0.0392451286315918, -0.1277756690979004, 0.3438476026058197, 0.06562920659780502, -0.15287797152996063, -0.2091570645570755, 0.1719904989004135, 0.3158881962299347, 0.1035303846001625, -0.016023872420191765, 0.14201605319976807, 0.06007833778858185, 0.08983290195465088, -0.02452823892235756, -0.1064138188958168, 0.033443909138441086], [-0.09655831754207611, 0.017153719440102577, -0.05788344144821167, 0.037892043590545654, -0.04816543683409691, -0.024999404326081276, 0.10207457095384598, 0.01889537274837494, -0.06298324465751648, -0.09118067473173141, 0.17797161638736725, 0.0998140424489975, -0.07211555540561676, 0.09881088137626648, -0.04362224042415619, -0.01547093316912651, -0.05698920413851738, -0.08008164912462234, -0.0017733301501721144, -0.010362803004682064], [-0.11838559806346893, -0.03269041329622269, 0.055539604276418686, 0.07285977900028229, -0.11755406856536865, -0.22612354159355164, -0.07743792980909348, 0.035149071365594864, -0.055186573415994644, -0.11414970457553864, 0.00683086970821023, -0.08605971187353134, -0.2522871196269989, -0.16223888099193573, 0.021619662642478943, 0.08589333295822144, 0.10082987695932388, -0.0013101543299853802, 0.1462005078792572, -0.15308548510074615], [0.03021901845932007, -0.008310328237712383, 0.001045768498443067, 0.11782166361808777, -0.0009032419766299427, 0.10846433788537979, -0.06022102013230324, 0.006366185378283262, -0.07263889908790588, 0.04237956553697586, -0.07828058302402496, 0.019715582951903343, 0.10095252841711044, -0.07852759212255478, -0.009865472093224525, 0.09264186024665833, 0.006734928116202354, -0.05828811600804329, 0.042741674929857254, 0.05425644665956497], [-0.0986381247639656, 0.5433283448219299, -0.15265722572803497, 0.5651911497116089, 0.07896747440099716, 0.4845472276210785, -1.0872788429260254, 0.16151902079582214, 0.4128735065460205, -0.1278819739818573, -0.6435293555259705, 0.34550079703330994, 0.3734402656555176, -0.7254149317741394, -0.2436530739068985, -0.5946346521377563, -0.40993937849998474, -0.31497910618782043, 0.1784311681985855, -0.04613151773810387], [-0.021713024005293846, -0.16878944635391235, 0.09252996742725372, -0.045216888189315796, 0.23633643984794617, 0.17030289769172668, -0.3157883882522583, -0.07983286678791046, 0.22263988852500916, 0.08232035487890244, -0.3483503460884094, -0.39164847135543823, -0.1303240954875946, -0.04310822859406471, -0.093866266310215, -0.0839272290468216, -0.18771475553512573, 0.016799475997686386, -0.020533960312604904, 0.04282870888710022], [-0.046649035066366196, 0.03438133746385574, -0.1149471327662468, 0.09883657097816467, 0.054258350282907486, 0.09638319909572601, -0.13168512284755707, 0.018080376088619232, -0.07823047041893005, -0.04189995303750038, -0.16259454190731049, 0.09095913171768188, 0.031850673258304596, -0.03181358426809311, 0.0539269894361496, -0.15096275508403778, 0.12939707934856415, 0.018221212550997734, -0.028132086619734764, -0.0668875053524971], [-0.2026044875383377, 0.30074840784072876, -0.06999644637107849, 0.31097379326820374, 0.12380105257034302, 0.4754094183444977, -0.5048303008079529, 0.06787997484207153, 0.3474200367927551, -0.3041413426399231, -0.03327181935310364, 0.25842928886413574, 0.013798372820019722, -0.4145594835281372, -0.2598477005958557, -0.41441231966018677, -0.1080390140414238, -0.054995737969875336, -0.32192471623420715, 0.007899237796664238], [0.004820764996111393, 0.3340843915939331, -0.16192398965358734, 0.7084659337997437, 0.15961192548274994, 0.9435299634933472, -0.8424807786941528, 0.12359703332185745, 0.6975705623626709, 0.06451854109764099, -0.3998231589794159, 0.25939977169036865, -0.03822566568851471, -0.928072452545166, -0.20260588824748993, -0.7917072176933289, -0.10926906764507294, -0.2483290284872055, 0.06015421077609062, -0.02452200837433338], [0.19643525779247284, 0.12805716693401337, -0.057453759014606476, 0.02613864280283451, -0.029429256916046143, -0.0030385402496904135, -0.2165490984916687, 0.01810266822576523, -0.12907956540584564, 0.012245151214301586, -0.18666379153728485, 0.14151817560195923, 0.2380053848028183, 0.18250487744808197, 0.01981462724506855, 0.00287229148671031, 0.07792618870735168, -0.06876949965953827, -0.05198086425662041, 0.17588329315185547], [-0.04291379079222679, 0.1559257060289383, -0.14158914983272552, 0.20239171385765076, -0.05701720342040062, 0.23176263272762299, -0.21155616641044617, -0.01683824323117733, 0.008639158681035042, -0.07550234347581863, -0.18262074887752533, -0.25358355045318604, 0.17623937129974365, -0.10698990523815155, -0.043374981731176376, -0.2020985186100006, -0.14521387219429016, -0.012630537152290344, -0.2881052494049072, 0.004770784173160791], [-0.017672300338745117, 0.004211005289107561, -0.0037817717529833317, 0.022912316024303436, -0.00014387824921868742, -0.024372534826397896, -0.01577262207865715, -0.0004263542068656534, 0.004236432723701, 0.02252182364463806, -0.05670705810189247, -0.006578147877007723, -0.010834965854883194, 0.009979442693293095, 0.01062687672674656, 0.0481126643717289, 0.010728307068347931, 0.010095883160829544, 0.027273381128907204, -0.0006734763155691326], [0.0344986654818058, 0.00793326273560524, -0.07370219379663467, 0.13793326914310455, 0.028714170679450035, 0.22757913172245026, 0.008873522281646729, 0.09146376699209213, -0.3101370930671692, -0.35985618829727173, 0.06463069468736649, 0.25147151947021484, -0.038342852145433426, -0.005897503346204758, -0.06443778425455093, -0.09922566264867783, -0.04913254827260971, -0.17057906091213226, -0.013210565783083439, -0.0030302468221634626], [-0.28770068287849426, 0.26081207394599915, -0.0886307954788208, 0.3190285861492157, 0.015261600725352764, 0.419499009847641, -0.31917035579681396, -0.053151972591876984, 0.01492401398718357, -0.09416139870882034, -0.08401450514793396, 0.14141184091567993, 0.01607402227818966, -0.06289256364107132, -0.12970536947250366, -0.01524011604487896, -0.18448349833488464, -0.1628112494945526, -0.11230246722698212, -0.04033271595835686], [-0.2419765442609787, -0.02414214424788952, -0.13836131989955902, 0.15768076479434967, -0.07200882583856583, 0.13606210052967072, -0.10855285823345184, -0.00725606270134449, 0.03578856214880943, 0.040948063135147095, -0.038735177367925644, -0.08644154667854309, 0.06517499685287476, 0.11771653592586517, 0.0837937444448471, -0.07035932689905167, 0.2507776916027069, -0.017262842506170273, -0.06465370953083038, -0.025805681943893433], [0.18198487162590027, -0.1601111888885498, -0.09336885064840317, 0.17554299533367157, -0.007639038842171431, 0.10495388507843018, -0.21461719274520874, 0.05309359356760979, 0.27866971492767334, 0.06714256852865219, -0.4057959020137787, 0.04667896404862404, 0.44454866647720337, -0.17040520906448364, -0.0700889304280281, 0.06239868327975273, -0.13805079460144043, 0.014877068810164928, -0.03382272645831108, 0.03039214387536049], [-0.017141470685601234, 0.17522376775741577, 0.04866165667772293, 0.16695347428321838, 0.030177943408489227, 0.34552186727523804, -0.4894627630710602, -0.05190376937389374, 0.16126412153244019, 0.06216488033533096, -0.35535234212875366, -0.11626417189836502, -0.07484942674636841, -0.28665095567703247, -0.04773135483264923, -0.17545467615127563, 0.051428139209747314, 0.054295506328344345, -0.1293708086013794, 0.017043882980942726], [0.3520437180995941, 0.02404100075364113, -0.0718124732375145, 0.27725350856781006, 0.11556293815374374, 0.23268695175647736, -0.35180723667144775, 0.06901411712169647, -0.08797941356897354, -0.2634429335594177, -0.2597740888595581, 0.0015803487040102482, -0.10001254081726074, -0.32473963499069214, -0.018049318343400955, -0.13372910022735596, 0.13107454776763916, -0.024795295670628548, 0.022065479308366776, -0.1075340136885643], [-0.22169767320156097, 0.12263049930334091, -0.14905112981796265, 0.07697520405054092, 0.10179979354143143, 0.11447743326425552, -0.07623548805713654, 0.016534091904759407, 0.030455337837338448, -0.01366748008877039, -0.21690677106380463, 0.15599286556243896, 0.015863051638007164, -0.08125624805688858, 0.05543193966150284, -0.06007282808423042, 0.1694323867559433, 0.03655598685145378, -0.024948423728346825, -0.07211095094680786], [-0.2895883619785309, 0.06668893247842789, 0.007710038218647242, 0.05874983221292496, 0.09011082351207733, 0.3335278332233429, -0.05075455829501152, -0.05549784004688263, -0.17007777094841003, 0.05486387759447098, 0.223654106259346, 0.022766394540667534, 0.3760964274406433, 0.1091376543045044, 0.25024542212486267, -0.3778790831565857, 0.12401315569877625, -0.008581336587667465, -0.02733992412686348, 0.016378264874219894], [0.3955768346786499, -0.013559482991695404, -0.10697310417890549, 0.16764260828495026, 0.0711979866027832, 0.27390915155410767, -0.43647682666778564, 0.03542890399694443, 0.07977987080812454, -0.015846293419599533, -0.48980116844177246, 0.09294730424880981, 0.2811247706413269, -0.46764832735061646, -0.013838357292115688, -0.1498418152332306, -0.09948132187128067, -0.02195644937455654, -0.17773815989494324, 0.11648213863372803], [-0.04147952049970627, 0.02526511251926422, -0.07933855056762695, 0.10516859591007233, -0.0370495468378067, 0.11113806068897247, 0.012780546210706234, 0.03242586925625801, -0.0774780660867691, -0.09830271452665329, 0.17108674347400665, 0.17154471576213837, -0.049926768988370895, 0.03096534125506878, -0.07791221886873245, -0.16748258471488953, -0.09886975586414337, -0.08202780783176422, 0.002827390329912305, 0.028348855674266815], [-0.2226254791021347, 0.06726481020450592, 0.12424634397029877, 0.293399840593338, -0.04950983449816704, -0.03288945555686951, -0.32710495591163635, 0.031280517578125, 0.011969462037086487, -0.09841638803482056, -0.13402941823005676, -0.1142524778842926, -0.16060972213745117, -0.3189225196838379, 0.03351294621825218, -0.039954569190740585, 0.0999966487288475, -0.02234969288110733, 0.22554175555706024, -0.1695859283208847], [-0.26994815468788147, 0.02024707943201065, -0.04697594419121742, 0.24449768662452698, -0.05112030357122421, -0.004919394850730896, -0.08212964981794357, 0.00853471178561449, -0.06785797327756882, 0.12419530749320984, -0.12565599381923676, 0.08130905032157898, 0.04152475297451019, -0.02932719700038433, 0.024494333192706108, 0.3625876307487488, 0.0530058778822422, -0.04717312008142471, 0.12392160296440125, 0.020473133772611618], [0.4123699963092804, -0.11021566390991211, -0.08014559745788574, -0.19513536989688873, 0.27898475527763367, 0.2800484895706177, 0.06924612075090408, 0.0616602823138237, -0.06591252237558365, -0.19046252965927124, 0.10086480528116226, 0.08732765167951584, 0.17527785897254944, -0.10187435150146484, 0.14850874245166779, -0.07884658873081207, -0.2624875605106354, 0.11262036114931107, -0.18958482146263123, 0.11157596111297607], [-0.49606481194496155, 0.44222527742385864, -0.10017000883817673, -0.3401859998703003, -0.05825335904955864, 0.003925694618374109, -0.23297765851020813, -0.012140469625592232, 0.10129690170288086, -0.031711727380752563, 0.11292713135480881, 0.11294913291931152, 0.634013831615448, 0.12435214221477509, -0.030165158212184906, -0.09505507349967957, -0.38942235708236694, -0.03436991944909096, -0.22263506054878235, 0.03994958847761154], [0.16141538321971893, 0.3768088221549988, -0.13310235738754272, -0.04005678370594978, -0.027412794530391693, -0.023335548117756844, -0.3251016438007355, -0.03176154941320419, 0.0754919946193695, -0.4669227600097656, 0.3345053195953369, -0.1007235124707222, 0.07884404808282852, -0.42004135251045227, -0.10507488995790482, 0.14002566039562225, -0.1306230127811432, 0.13186730444431305, -0.039044518023729324, 0.533927321434021], [-0.18337853252887726, 0.19996194541454315, -0.13021856546401978, 0.5420653223991394, -0.5626447200775146, 0.0501042939722538, -0.24262635409832, -0.07477416098117828, 0.2760297954082489, 0.11295710504055023, 0.04687337949872017, 0.18540939688682556, -0.05943042039871216, -0.21845920383930206, 0.0640275850892067, -0.037448178976774216, 0.06539244949817657, 0.010793747380375862, 0.03785574808716774, -0.2904422879219055], [-0.14076513051986694, 0.030189113691449165, -0.25289392471313477, -0.4295416474342346, 0.5788613557815552, 0.018086737021803856, -0.09185408800840378, 0.0027597369626164436, -0.023506587371230125, -0.16347329318523407, -0.04338260367512703, -0.013080477714538574, 0.01537069771438837, 0.1280391663312912, 0.03613327816128731, -0.22158128023147583, 0.2185472995042801, 0.06745537370443344, -0.1779533326625824, -0.22498711943626404], [-0.10985279828310013, 0.0986735001206398, 0.039406757801771164, 0.029991863295435905, -0.36303257942199707, 0.021109776571393013, -0.07677356153726578, -0.13861310482025146, -0.2941843867301941, -0.048068877309560776, -0.1144152283668518, -0.5568585991859436, 0.664715051651001, 0.22474899888038635, 0.18283788859844208, -0.11644886434078217, 0.3979223370552063, -0.213849738240242, -0.04030045494437218, 0.17247164249420166], [0.17016799747943878, -0.32120996713638306, 0.10346176475286484, -0.14343586564064026, 0.035569801926612854, -0.1444726437330246, 0.24873152375221252, 0.022417185828089714, 0.4669725000858307, 0.2260132133960724, -0.15121309459209442, 0.31082969903945923, -0.024151641875505447, -0.07554762810468674, -0.08071402460336685, -0.028540605679154396, 0.18095830082893372, 0.10565348714590073, 0.20291940867900848, -0.01587524823844433], [0.009102209471166134, -0.013982436619699001, 0.17090818285942078, 0.21734675765037537, 0.13536405563354492, 0.00261224084533751, 0.28537988662719727, -0.016412874683737755, -0.05910489708185196, -0.022289080545306206, -0.03814591094851494, 0.2988651990890503, -0.31618672609329224, -0.1265312135219574, -0.10953541845083237, 0.0466417595744133, 0.050055526196956635, 0.02218242920935154, 0.16333462297916412, -0.07745569944381714], [-0.06715749204158783, -0.06018216535449028, 0.1466103196144104, 0.15657483041286469, 0.519455075263977, 0.09473379701375961, -0.27538928389549255, -0.0070722815580666065, 0.15885601937770844, 0.38203415274620056, 0.3296559154987335, -0.3955335021018982, -0.3321181535720825, 0.009825513698160648, -0.017839614301919937, -0.14588429033756256, 0.08987097442150116, 0.1419418454170227, -0.06749249994754791, -0.3034713566303253], [-0.04667728394269943, -0.17081373929977417, -0.08273414522409439, -0.09899307042360306, 0.31261560320854187, 0.043272022157907486, -0.2501358687877655, -0.07499318569898605, 0.07387468963861465, 0.31201446056365967, 0.057860732078552246, -0.41453883051872253, 0.2625572979450226, -0.061316508799791336, 0.1307654082775116, 0.18854489922523499, 0.17195415496826172, 0.1970168650150299, -0.24685493111610413, 0.12338512390851974], [-0.19228598475456238, 0.2465410679578781, -0.4874661862850189, -0.7139989733695984, 0.14808389544487, -0.05770668387413025, 0.4057259261608124, 0.09714552760124207, -0.5570842027664185, -0.20174391567707062, 0.23972085118293762, 0.6615856289863586, -0.02485485188663006, 0.09652582556009293, 0.20520976185798645, -0.22959619760513306, 0.09287147969007492, 0.22827187180519104, 0.07550641149282455, -0.146851047873497], [-0.24316665530204773, -0.040564391762018204, -0.17883406579494476, 0.18112432956695557, 0.2014767974615097, 0.12079423666000366, 0.42118698358535767, 0.1034751832485199, 0.3308074176311493, 0.33824771642684937, -0.05874215438961983, 0.2834346294403076, -0.08378739655017853, -0.11609000712633133, -0.18380767107009888, 0.1070304736495018, -0.11260104924440384, 0.1351749151945114, 0.15970748662948608, -0.47873204946517944], [-0.09880741685628891, 0.028787557035684586, -0.14744354784488678, 0.16587933897972107, 0.08311490714550018, -0.07841285318136215, 0.27202168107032776, 0.2804325222969055, -0.17276379466056824, 0.1024736613035202, 0.13892881572246552, 0.9044084548950195, 0.09716995060443878, -0.09232025593519211, -0.1300930678844452, 0.24362939596176147, -0.19157487154006958, -0.09896330535411835, -0.0011782662477344275, 0.25140249729156494], [-0.4263015687465668, 0.3861851692199707, 0.17970171570777893, -0.16920077800750732, 0.12292364239692688, -0.1873888075351715, 0.17824669182300568, -0.037040796130895615, -0.39555391669273376, 0.14171980321407318, -0.13840827345848083, -0.029736055061221123, 0.48388493061065674, 0.09400796890258789, 0.18880730867385864, 0.15309013426303864, 0.2442178875207901, 0.05301797762513161, -0.1584012657403946, 0.6615543961524963], [-0.19464100897312164, -0.1461699903011322, 0.08753161132335663, 0.13345758616924286, -0.2324577420949936, -0.2733377516269684, -0.12830045819282532, 0.06888124346733093, 0.06844863295555115, -0.4009418189525604, -0.2775154411792755, 0.0831906646490097, 0.6024360656738281, 0.06172584369778633, 0.025331612676382065, -0.04373042657971382, 0.5236718654632568, 0.031255923211574554, 0.3738138675689697, 0.5078414082527161], [0.1409616470336914, -0.12755051255226135, -0.29104024171829224, 0.17818093299865723, -0.17800959944725037, -0.07659339159727097, 0.11966252326965332, 0.04286354035139084, 0.44182196259498596, 0.6261778473854065, -0.38378027081489563, 0.49697911739349365, -0.5536403656005859, -0.4264146089553833, -0.4519588351249695, 0.24972191452980042, -0.16183052957057953, 0.44472989439964294, 0.001229039509780705, -0.08527454733848572], [-0.2562146782875061, -0.3007614016532898, 0.17656537890434265, 0.41780757904052734, -0.06931410729885101, -0.3330199122428894, -0.09134222567081451, 0.15206807851791382, -0.18098445236682892, -0.19326841831207275, -0.36236995458602905, 0.05414972081780434, 0.35708171129226685, -0.023822980001568794, 0.2664922773838043, -0.07214129716157913, 0.2215535044670105, -0.05553427338600159, 0.20596322417259216, 0.36043527722358704], [-0.03737250715494156, -0.12362352013587952, -0.1885634809732437, -0.19010433554649353, 0.3958890736103058, -0.015346654690802097, -0.09465520828962326, -0.13814999163150787, 0.10819992423057556, 0.08966899663209915, -0.3920465111732483, -0.04637632891535759, -0.1662493646144867, -0.0969611331820488, 0.14980651438236237, -0.14132314920425415, 0.18305350840091705, 0.09557856619358063, -0.22057221829891205, -0.1633182168006897], [-0.18384428322315216, 0.03424150496721268, 0.17550300061702728, 0.2200516015291214, 0.09583017230033875, -0.12068507820367813, 0.04115273430943489, -0.00961318425834179, -0.0338018573820591, -0.2411407083272934, 0.04431050643324852, 0.45473727583885193, -0.3686332404613495, -0.4271903336048126, -0.13540512323379517, 0.0972166433930397, 0.0036741418298333883, 0.09143253415822983, 0.048136912286281586, 0.16163887083530426], [0.2960633635520935, -0.11483278125524521, -0.39383426308631897, 0.18974986672401428, 0.017978079617023468, -0.193492129445076, 0.11994674056768417, -0.026950769126415253, 0.3117336928844452, -0.0911705493927002, 0.053532231599092484, 0.7788458466529846, 0.22693444788455963, -0.013807414099574089, -0.4669390022754669, 0.13627806305885315, -0.1644456535577774, 0.01952596940100193, -0.42230480909347534, 0.17620860040187836], [-0.1672242432832718, 0.05815327540040016, -0.10693880170583725, -0.17160247266292572, -0.22500622272491455, -0.2604675590991974, -0.12694516777992249, 0.03241494670510292, -0.013355550356209278, 0.1037224605679512, -0.19038796424865723, 0.08614064753055573, -0.06659680604934692, -0.1679917573928833, 0.03830716758966446, 0.07247330248355865, -0.10658180713653564, 0.06361068785190582, 0.27339765429496765, -0.08611015975475311], [-0.08658373355865479, 0.06851772964000702, 0.13125446438789368, -0.11944699287414551, -0.13834047317504883, -0.013889099471271038, -0.14461766183376312, -0.0655510425567627, 0.04296312853693962, -0.0005016447394154966, -0.05650807172060013, -0.30525103211402893, -0.31695783138275146, 0.15767207741737366, -0.11229131370782852, 0.21697209775447845, -0.1895776391029358, -0.029890036210417747, 0.06125231832265854, -0.09757573902606964], [-0.059217508882284164, 0.028279362246394157, -0.07790073752403259, 0.1059078648686409, 0.011634980328381062, 0.12733519077301025, -0.21790200471878052, -0.0034440583549439907, -0.03999164700508118, 0.011315370909869671, -0.21258598566055298, -0.057091016322374344, -0.038063205778598785, -0.07918023318052292, 0.014858046546578407, -0.13389931619167328, 0.09112953394651413, 0.030117448419332504, 0.014054564759135246, -0.10187909752130508], [0.1548178791999817, -0.01593937538564205, 0.39218926429748535, 0.11469241231679916, -0.3079649806022644, 0.06904257088899612, -0.3177259862422943, 0.09115826338529587, 0.11532779037952423, -0.0778743177652359, 0.08873359858989716, 0.04743422195315361, -0.16037899255752563, -0.2956414520740509, -0.23627501726150513, 0.17000748217105865, -0.08554781973361969, -0.026841510087251663, 0.08793419599533081, 0.22013308107852936], [0.04403967410326004, 0.18059782683849335, -0.011370385065674782, 0.17060400545597076, -0.2534128725528717, 0.05699160695075989, -0.26603689789772034, -0.043549343943595886, 0.11934376507997513, 0.08524157106876373, 0.043342847377061844, -0.010412457399070263, -0.16448874771595, -0.34239694476127625, 0.011369830928742886, -0.08004771173000336, 0.08019854128360748, -0.06707648187875748, 0.06300528347492218, -0.1073603704571724], [0.21162576973438263, 0.11455487459897995, -0.12137851119041443, 0.17541810870170593, 0.13439767062664032, 0.08931031823158264, -0.06925167888402939, 0.037442442029714584, 0.028999797999858856, -0.11686310172080994, -0.02774674817919731, 0.03512190654873848, -0.05003366991877556, 0.05929366499185562, -0.052504513412714005, -0.08142998069524765, 0.023584282025694847, -0.09419675916433334, -0.036356858909130096, -0.0879608541727066], [0.19583797454833984, 0.30170199275016785, 0.23489820957183838, 0.2243986427783966, -0.1900128722190857, 0.30689287185668945, -0.5873631834983826, -0.02094775252044201, 0.09210815280675888, -0.1660221368074417, -0.1793939471244812, -0.45561483502388, -0.08239411562681198, -0.3264859616756439, -0.24328213930130005, -0.008408625610172749, -0.3261999785900116, -0.05151217058300972, -0.03534526377916336, -0.008060378953814507], [-0.035451050847768784, 0.0019409172236919403, 0.001354646752588451, 0.012698196806013584, -0.005948750767856836, -0.056770678609609604, -0.015543867833912373, -0.0017488276353105903, 0.0005652636173181236, 0.036267563700675964, -0.044178374111652374, -0.024654900655150414, -0.03176121786236763, 0.023955058306455612, 0.007093128282576799, 0.08446446806192398, 0.010082733817398548, 0.005784578155726194, 0.0395493358373642, -0.009573430754244328], [-0.06392721831798553, -0.044629912823438644, -0.15029926598072052, -0.09341354668140411, 0.16534867882728577, 0.08180409669876099, 0.12393024563789368, 0.06134925037622452, -0.22013115882873535, -0.2676609456539154, 0.19956602156162262, 0.20455503463745117, 0.036302655935287476, 0.00909050926566124, 0.03646641969680786, -0.3152290880680084, 0.048447348177433014, -0.11545376479625702, -0.009395197965204716, 0.04380875080823898], [-0.1349361687898636, 0.035353176295757294, -0.04901383817195892, 0.18424689769744873, 0.02665480598807335, 0.08827368170022964, -0.01610848866403103, 0.040191423147916794, -0.23558270931243896, -0.3245859146118164, 0.19763800501823425, 0.19875024259090424, -0.1607740968465805, -0.09231165796518326, -0.11444999277591705, 0.028080478310585022, -0.1256827563047409, -0.18451957404613495, 0.04603799059987068, -0.08146020025014877], [-0.2831425368785858, -0.12723393738269806, -0.20042388141155243, 0.0057595171965658665, 0.05474398657679558, 0.05486345291137695, 0.030634058639407158, -0.007877753116190434, 0.09331416338682175, -0.07748923450708389, 0.24803002178668976, 0.07118725031614304, 0.10644524544477463, 0.09511473029851913, 0.087493397295475, -0.4636989235877991, 0.10993462055921555, -0.028989223763346672, 0.01371752843260765, -0.041628092527389526], [0.004571703262627125, -0.07254362851381302, -0.018805477768182755, 0.14125855267047882, 0.012252393178641796, 0.13925406336784363, -0.2666100263595581, 0.018458159640431404, 0.032300204038619995, -0.018198326230049133, -0.23096109926700592, 0.009011850692331791, 0.14283907413482666, -0.13710400462150574, -0.07894416153430939, 0.0325634703040123, -0.051211852580308914, -0.06000927835702896, 0.10313966125249863, 0.012726549059152603], [-0.017629729583859444, 0.14134711027145386, 0.2766229510307312, 0.045946042984724045, -0.04952072352170944, -0.031061721965670586, -0.3669915497303009, -0.041079167276620865, 0.08306785672903061, 0.0504131056368351, -0.3347669243812561, -0.3320991098880768, -0.3571266829967499, -0.24390174448490143, -0.12096874415874481, 0.030011380091309547, -0.040555402636528015, -0.029400913044810295, 0.05494614318013191, -0.06980586051940918], [0.14497314393520355, 0.2346952110528946, 0.015299907885491848, 0.2059522420167923, 0.3853602707386017, 0.06884746253490448, -0.28564634919166565, 0.05101640149950981, 0.07036497443914413, -0.1795768439769745, -0.21681395173072815, 0.06963350623846054, -0.09861006587743759, -0.23203149437904358, -0.043190713971853256, -0.006855775136500597, 0.16720102727413177, 0.1284094601869583, -0.07280725985765457, 0.24083968997001648], [-0.16645854711532593, 0.06636521220207214, -0.14748090505599976, 0.013318411074578762, 0.08399949222803116, 0.07203760743141174, -0.008274770341813564, 0.01878190226852894, 0.0035036103799939156, -0.0654488056898117, 0.030717138200998306, 0.1505146473646164, -0.024991370737552643, -0.008145104162395, 0.05203777179121971, -0.23309558629989624, 0.09712381660938263, 0.015340393409132957, 0.00032139019458554685, -0.03321870416402817], [0.010356607846915722, 0.10932880640029907, -0.024229956790804863, 0.13806238770484924, 0.07063229382038116, 0.30997133255004883, -0.18347027897834778, 0.0264576505869627, -0.2575385570526123, -0.18025705218315125, -0.13305911421775818, 0.035024117678403854, 0.12231618165969849, 0.0707927942276001, 0.11557653546333313, -0.41835471987724304, 0.06615691632032394, -0.06951816380023956, 0.011375516653060913, 2.557829429861158e-05], [0.008280702866613865, -0.06587693840265274, -0.2441430538892746, -0.16300830245018005, 0.015283097513020039, 0.0007039340562187135, 0.07433398067951202, 0.03534197062253952, -0.11564671248197556, -0.07992749661207199, -0.003926119767129421, 0.16037417948246002, -0.03545555844902992, 0.018905680626630783, 0.11343513429164886, -0.08578236401081085, 0.1743614822626114, 0.009674452245235443, -0.06150366738438606, -0.06160414218902588], [-0.06249871850013733, 0.009653844870626926, -0.04662816599011421, 0.051131345331668854, -0.04259703680872917, 0.03456997126340866, 0.07744031399488449, 0.031095005571842194, -0.0940890908241272, -0.1506548672914505, 0.19830013811588287, 0.1404048502445221, -0.05836927890777588, 0.04536787420511246, -0.04624004662036896, -0.02153068594634533, -0.0637194961309433, -0.10141269862651825, 0.015270986594259739, 0.004224152769893408], [-0.17510868608951569, 0.04457447677850723, 0.0655285120010376, 0.15845887362957, -0.07701011002063751, -0.1652899980545044, -0.1818300485610962, 0.04252452030777931, -0.011330860666930676, -0.059255875647068024, -0.05725669860839844, -0.08375982940196991, -0.24472676217556, -0.19042901694774628, 0.0027651828713715076, 0.0993175208568573, 0.0849718376994133, -0.003922369331121445, 0.20139846205711365, -0.17018571496009827], [-0.02811288833618164, 0.016575390473008156, 0.04421490058302879, 0.19543442130088806, 0.002840629545971751, 0.17198780179023743, -0.14439567923545837, 0.011966611258685589, -0.055812522768974304, 0.031123891472816467, -0.10204248130321503, -0.011534354649484158, 0.05607995763421059, -0.13878127932548523, -0.007872942835092545, 0.04623459652066231, 0.007304562721401453, -0.06658651679754257, 0.09420266002416611, 0.03993617370724678]], "rec.bias_ih_l0": [-0.5624396204948425, -0.08894447982311249, 0.15456169843673706, -0.16924834251403809, -0.6994060277938843, 0.3566581606864929, 0.028431005775928497, -0.1258879005908966, 0.15781177580356598, -0.2579629421234131, 0.024012286216020584, 0.03944762051105499, -0.22432121634483337, 0.08145051449537277, -0.02027858980000019, 0.20216621458530426, 0.007647265214473009, -0.1550464779138565, -0.2883247137069702, 0.16724322736263275, 0.9247249960899353, 0.49038344621658325, 0.20493356883525848, 0.7679006457328796, 0.8353868126869202, 0.23757384717464447, 0.15800626575946808, 0.013635687530040741, 0.12705101072788239, 0.5355938076972961, 0.3523446023464203, 0.24812382459640503, 0.26468050479888916, 0.39409711956977844, 0.09823494404554367, 0.37804484367370605, 0.2984407842159271, 0.1029856950044632, 0.17332550883293152, 0.13706547021865845, -0.12526898086071014, 0.18240585923194885, -0.2539274990558624, -0.10672938823699951, 0.15834493935108185, 0.2856486737728119, -0.09476647526025772, -0.08205675333738327, -0.09162501990795135, 0.08074383437633514, -0.09375862032175064, 0.13923963904380798, 0.24787460267543793, -0.14272163808345795, 0.004440301563590765, -0.1540084332227707, -0.21937260031700134, -0.10565446317195892, -0.06063743680715561, 0.04170581325888634, 0.08874285221099854, -0.1326092630624771, 0.25238773226737976, -0.06081203371286392, -0.06401687860488892, 0.3526444435119629, 0.15323424339294434, -0.06783847510814667, 0.14220429956912994, 0.1688433140516281, -0.04303359612822533, 0.4678904414176941, 0.12195174396038055, 0.07348677515983582, 0.1379215568304062, 0.38150444626808167, 0.004337838850915432, -0.01444336399435997, 0.048919498920440674, 0.27743154764175415], "rec.bias_hh_l0": [-0.5683910250663757, -0.10871871560811996, 0.11368224769830704, -0.36161601543426514, -0.7795175909996033, 0.31153321266174316, 0.12468964606523514, -0.045197341591119766, 0.06039612367749214, -0.3741239011287689, 0.11123437434434891, 0.07941217720508575, -0.23020702600479126, -0.07184307277202606, -0.04279773309826851, 0.0049007730558514595, -0.28866565227508545, 0.02232375368475914, -0.25717300176620483, 0.21757544577121735, 0.8217597603797913, 0.37125134468078613, 0.07682225853204727, 0.46250009536743164, 1.140146255493164, 0.3035246729850769, 0.29009684920310974, 0.004639503546059132, 0.15505045652389526, 0.4265322685241699, 0.2795753479003906, 0.22498854994773865, 0.2074260711669922, 0.3314359784126282, 0.1834637075662613, 0.3531681299209595, 0.6528883576393127, 0.12961412966251373, 0.03717775270342827, 0.14859998226165771, 0.06787985563278198, -0.05901121720671654, 0.06026841700077057, 0.10699425637722015, -0.046477705240249634, 0.2679593861103058, -0.26062479615211487, 0.12584517896175385, 0.06825029850006104, -0.146806001663208, 0.08027254045009613, -0.1279808133840561, 0.029609857127070427, 0.15184414386749268, -0.17380443215370178, -0.27327245473861694, 0.034319762140512466, -0.11653679609298706, -0.06308160722255707, 0.007209616247564554, 0.07426075637340546, -0.028236141428351402, 0.24482257664203644, -0.027266213670372963, -0.06449524313211441, 0.09171011298894882, 0.03997206315398216, -0.07347823679447174, 0.11660600453615189, 0.11137717962265015, 0.0873996764421463, 0.43011370301246643, 0.09959075599908829, 0.054537560790777206, -0.0062497989274561405, 0.23068149387836456, -0.0605732761323452, 0.031012078747153282, -0.02231968194246292, 0.2294543832540512], "lin.weight": [[0.1024041548371315, 0.04319845885038376, 0.6974811553955078, 0.14350128173828125, 0.2623474597930908, -0.4704509377479553, -0.11153553426265717, -0.0007420459296554327, 0.11314066499471664, 0.3149489164352417, 0.026630038395524025, -0.13410606980323792, 0.15688472986221313, -0.31450286507606506, -0.17338185012340546, 0.555698573589325, -0.33306363224983215, 0.053612157702445984, 0.5541307926177979, 0.542385458946228]], "lin.bias": [0.14079934358596802]}}