{"model_data": {"model": "SimpleRNN", "input_size": 1, "skip": 1, "output_size": 1, "unit_type": "LSTM", "num_layers": 1, "hidden_size": 20, "bias_fl": true}, "state_dict": {"rec.weight_ih_l0": [[0.006909746676683426], [0.2555427551269531], [0.04669094458222389], [0.15399408340454102], [0.031808868050575256], [0.048559121787548065], [0.24220769107341766], [0.07203570753335953], [-0.21968349814414978], [-0.3056488335132599], [-0.07288499921560287], [0.25642797350883484], [-0.10316205024719238], [-0.17083336412906647], [-0.17402556538581848], [-0.04182754084467888], [0.03419595956802368], [0.15989993512630463], [0.04944819211959839], [0.009844115935266018], [0.006457650568336248], [0.2061026245355606], [-0.003395211650058627], [-0.004717110190540552], [0.04746737703680992], [0.033710286021232605], [0.13758094608783722], [-0.016548657789826393], [-0.4170037508010864], [-0.22488532960414886], [-0.049086909741163254], [0.2711542844772339], [0.002684689126908779], [-0.001913154497742653], [-0.17069436609745026], [-0.009162154980003834], [0.03405070677399635], [0.10940022021532059], [-0.0021049287170171738], [-0.1014222502708435], [0.0654536709189415], [-0.6881835460662842], [0.377034068107605], [0.4574939012527466], [-0.12236423790454865], [-0.3152350187301636], [0.0526888407766819], [-1.2293446063995361], [-0.25295063853263855], [0.47017860412597656], [0.3263997435569763], [0.6237846612930298], [0.8886181116104126], [-0.6688988208770752], [-0.17037545144557953], [-0.15391045808792114], [0.6072998046875], [0.5117977857589722], [-0.4090466797351837], [-0.3898356556892395], [0.008253413252532482], [0.47424963116645813], [-0.013186272233724594], [0.15349523723125458], [0.05040135234594345], [0.06697873771190643], [0.25035640597343445], [0.04785295948386192], [-0.022267581894993782], [-0.39987269043922424], [-0.08616121858358383], [0.3208295404911041], [-0.12749521434307098], [0.0415821298956871], [-0.1754135936498642], [-0.04061436653137207], [0.027010101824998856], [0.137013778090477], [0.014987125992774963], [-0.05290200188755989]], "rec.weight_hh_l0": [[0.0014842207310721278, -0.014195621944963932, -0.00042504098382778466, 0.0027650678530335426, -0.006608488503843546, -0.007611739914864302, 0.007622906472533941, 0.008620853535830975, -0.0012060003355145454, -0.0009778783423826098, -0.0002408076834399253, 0.011380801908671856, -0.004171344917267561, 0.027093995362520218, 0.005644726566970348, -0.00249548745341599, 0.0034372233785688877, 0.00042340814252384007, -0.004287117160856724, -0.008523337543010712], [0.004730117507278919, -0.07878965139389038, 0.01964721269905567, -0.07081146538257599, -0.08464085310697556, 0.011622292920947075, -0.0035901826340705156, -0.0655883178114891, -0.16548718512058258, 0.09140012413263321, 0.13859164714813232, 0.16243921220302582, 0.10694307833909988, 0.18796029686927795, -0.004432122688740492, 0.07284960895776749, 0.042810000479221344, 0.0318412259221077, 0.042057380080223083, -0.08736208826303482], [-0.004460339434444904, 0.02897578850388527, -0.1661868840456009, -0.28281155228614807, -0.26212480664253235, 0.33328136801719666, 0.14930182695388794, 0.0352027527987957, -0.30433031916618347, -0.1973021924495697, -0.02803039364516735, 0.05176285654306412, -0.15095247328281403, 0.34299594163894653, 0.15028391778469086, -0.037672027945518494, -0.013256561011075974, 0.01630929671227932, -0.0867769867181778, -0.26281633973121643], [0.0017496930668130517, -0.18870662152767181, -0.02526434138417244, -0.06541446596384048, -0.011481250636279583, -0.11195030063390732, 0.24409274756908417, 0.021518342196941376, -0.01616637594997883, -0.2176881581544876, -0.05892414599657059, 0.14118359982967377, -0.12298373132944107, 0.08744051307439804, 0.14235569536685944, 0.03588518127799034, 0.04812685400247574, 0.1360970437526703, -0.13155412673950195, -0.16008788347244263], [-0.022389961406588554, 0.05360899493098259, 0.02269657514989376, -0.061893198639154434, -0.058696065098047256, -0.052611153572797775, -0.006835624109953642, -0.07211528718471527, 0.029846172779798508, -0.05425068736076355, -0.12278875708580017, -0.05197193846106529, -0.09683278948068619, 0.04597102478146553, 0.04703778773546219, -0.0983249843120575, -0.03196091949939728, 0.01794612593948841, -0.19627432525157928, -0.06516077369451523], [-0.0011581782018765807, -0.11700138449668884, 0.06471611559391022, -0.03891703113913536, -0.013584979809820652, -0.04662762209773064, 0.1010858342051506, 0.029979197308421135, -0.02604508399963379, -0.16290031373500824, 0.005368019454181194, 0.1326349675655365, -0.030941562727093697, 0.009104768745601177, 0.031540270894765854, -0.04712948575615883, 0.013147644698619843, -0.026354216039180756, -0.016848351806402206, -0.048921845853328705], [-0.0030613054987043142, -0.1784396767616272, 0.03978956863284111, -0.06506996601819992, 0.0032428267877548933, -0.10400350391864777, 0.09940161556005478, 0.08594625443220139, -0.029337380081415176, -0.02278481051325798, 0.03309794142842293, 0.1855786144733429, 0.040589794516563416, -0.01734275557100773, -0.032344523817300797, -0.03619866818189621, 0.09482330083847046, 0.08479441702365875, -0.17771944403648376, -0.011181932874023914], [-0.0016652271151542664, -0.11172842234373093, 0.017644235864281654, -0.0365883931517601, -0.0200052410364151, 0.002745486330240965, 0.11415480077266693, 0.045334912836551666, 4.715024260804057e-05, -0.09415291994810104, -0.030578358098864555, 0.07979342341423035, -0.006942880805581808, -0.09782778471708298, 0.04269000515341759, 0.022253846749663353, -0.015631189569830894, 0.0466918908059597, -0.06458447128534317, -0.10970711708068848], [0.09922255575656891, 0.2425932139158249, -0.6179390549659729, -0.25516602396965027, -0.5122607350349426, -0.049225009977817535, 0.03583066537976265, 0.1509542167186737, -0.4856526553630829, 0.4608439803123474, -0.4361453652381897, 0.18576787412166595, -0.027328724041581154, 0.3281644582748413, 0.2285345196723938, -0.15185542404651642, -0.20830903947353363, 0.13004745543003082, -0.19204141199588776, -0.21133868396282196], [0.007577462587505579, -0.03322330489754677, 0.010785829275846481, 0.10588087141513824, 0.004865030292421579, 0.058361995965242386, -0.006606048904359341, 0.044939279556274414, 0.038065116852521896, -0.10819325596094131, 0.08174421638250351, -0.019487177953124046, -0.0425066277384758, -0.03523128479719162, 0.0931977778673172, 0.10506132990121841, -0.008915776386857033, -0.06345275044441223, 0.3800497353076935, -0.004526167642325163], [-0.018503988161683083, -0.04916485771536827, 0.06059437617659569, -0.012512058950960636, 0.09718452394008636, -0.007654489949345589, 0.026190705597400665, 0.013962021097540855, 0.06187178194522858, -0.11809474229812622, -0.11881204694509506, 0.0644872784614563, -0.2289532870054245, 0.15344557166099548, 0.11796605587005615, -0.08844424039125443, -0.11447744071483612, 0.05001926049590111, 0.014229685999453068, -0.04482244327664375], [0.0006692047463729978, -0.1454520970582962, 0.16927288472652435, -0.3458901047706604, -0.2267831414937973, 0.11322212219238281, 0.02726895548403263, -0.058495279401540756, -0.008399717509746552, -0.16769097745418549, 0.0015111760003492236, 0.26513874530792236, -0.03699648007750511, 0.29181042313575745, 0.07283088564872742, -0.05230230838060379, -0.020045986399054527, -0.055441755801439285, 0.08900749683380127, -0.34114542603492737], [0.02918766438961029, 0.07056521624326706, -0.18824723362922668, 0.20876498520374298, -0.015782998874783516, -0.056857336312532425, 0.16086138784885406, 0.0697282925248146, -0.0883740708231926, -0.01107670646160841, -0.12307262420654297, -0.13668879866600037, -0.249395951628685, 0.21715347468852997, 0.14874328672885895, 0.013767911121249199, 0.10645027458667755, 0.020529504865407944, -0.2647060751914978, -0.03639955818653107], [-0.008424623869359493, -0.020189406350255013, 0.009753731079399586, 0.06716986745595932, 0.039226096123456955, 0.0006385405431501567, 0.005193330813199282, 0.26715636253356934, 0.01698814518749714, -0.2163970023393631, -0.07580301910638809, 0.030717387795448303, -0.12852515280246735, -0.15259487926959991, 0.1434188187122345, -0.08476206660270691, -0.06760699301958084, -0.079647496342659, 0.12312760204076767, -0.0349840484559536], [0.00506151607260108, 0.00631101056933403, -0.062365174293518066, 0.07784324139356613, 0.03578143194317818, -0.060981445014476776, 0.051642440259456635, 0.08875229209661484, -0.01824483461678028, -0.0912029817700386, -0.07260171324014664, -0.022585060447454453, -0.143155038356781, -0.039236538112163544, 0.11191827058792114, 0.016287030652165413, -0.0047515276819467545, 0.010142019018530846, 0.002075498690828681, 0.025610215961933136], [-0.001323321950621903, -0.036442339420318604, -0.020148279145359993, -0.0672525092959404, -0.06085694953799248, 0.10877969115972519, 0.02018149197101593, 0.10641127079725266, -0.048503417521715164, -0.03564628213644028, -0.03975130617618561, 0.06048125401139259, 0.0029952730983495712, 0.08859798312187195, 0.04025692120194435, 0.10929955542087555, -0.1046847552061081, -0.016338227316737175, 0.016373230144381523, -0.04760275036096573], [0.00043870339868590236, -0.060039423406124115, 0.0529065802693367, -0.03221290558576584, -0.0567631870508194, -0.04510609805583954, 0.009471573866903782, 0.15289007127285004, 0.08071617037057877, -0.13249489665031433, -0.21283745765686035, 0.16977238655090332, -0.2271030843257904, 0.2547728717327118, 0.17038477957248688, -0.11148130148649216, -0.007032801862806082, 0.09296588599681854, -0.23575332760810852, -0.02889825589954853], [0.0015333942137658596, -0.06926653534173965, 0.02482481487095356, 0.06662523746490479, 0.08320394158363342, -0.03346986696124077, 0.03505409136414528, -0.024568907916545868, 0.17136281728744507, 0.014662806876003742, -0.07709577679634094, 0.0460890531539917, -0.019023582339286804, 0.11248704791069031, 0.004369754809886217, 0.07464610040187836, -0.014043753035366535, 0.16005787253379822, -0.12472397834062576, 0.021504389122128487], [0.03754216060042381, -0.06962588429450989, -0.056914448738098145, -0.050741784274578094, 0.06714863330125809, 0.26607903838157654, 0.1074136421084404, 0.01664762757718563, -0.26817968487739563, -0.15454448759555817, -0.037176668643951416, 0.2010914534330368, -0.31031349301338196, 0.2799399495124817, 0.14146485924720764, -0.06080928072333336, -0.039361514151096344, -0.019914183765649796, -0.06759138405323029, -0.19681958854198456], [-0.02147664502263069, 0.06860889494419098, 0.04498222470283508, -0.1909511685371399, -0.17176726460456848, 0.16360661387443542, -0.033559225499629974, -0.10005022585391998, 0.14763757586479187, -0.22509796917438507, 0.13558094203472137, -0.10168423503637314, -0.16802382469177246, 0.32115569710731506, 0.1420401781797409, -0.07762395590543747, -0.0221417173743248, 0.10034327954053879, 0.08011806756258011, -0.032777052372694016], [0.0009894450195133686, -0.009505323134362698, -0.0005064450670033693, 0.0011861652601510286, -0.0025524734519422054, -0.006048575043678284, 0.00433701928704977, 0.004267214797437191, -0.00210658460855484, -0.0009255629847757518, 0.000795396976172924, 0.00751062436029315, -0.0036842708941549063, 0.007460893131792545, 0.004020582884550095, -0.0006951652467250824, 0.0021413438953459263, 0.0004339574952609837, -0.003167304676026106, -0.005325035657733679], [0.016316168010234833, -0.15393760800361633, 0.06609713286161423, 0.06824333965778351, 0.05074579641222954, -0.0570761039853096, -0.06462953239679337, 0.05063007399439812, -0.20660154521465302, 0.18318240344524384, 0.20242516696453094, 0.23059363663196564, 0.14224611222743988, -0.180510014295578, -0.04848931357264519, 0.06418757885694504, 0.05552465096116066, -0.037918053567409515, 0.11473999172449112, 0.014674898236989975], [-0.01308239996433258, -0.3196868300437927, -0.2633815109729767, -0.027875831350684166, 0.07949501276016235, -0.30564993619918823, 0.24319672584533691, 0.24632661044597626, 0.020715072751045227, -0.20010507106781006, 0.1413559764623642, 0.11441852897405624, -0.11081331223249435, -0.3904131054878235, -0.1073574498295784, 0.12613420188426971, 0.06250499188899994, 0.022331221029162407, -0.07641219347715378, -0.36454975605010986], [-0.014989513903856277, 0.06713011860847473, 0.01846444047987461, -0.07775299996137619, 0.028827788308262825, -0.004088031593710184, 0.023268230259418488, 0.04444552958011627, 0.10462850332260132, -0.1867436319589615, -0.004916187841445208, -0.0047622183337807655, -0.0640856996178627, 0.0008310899720527232, 0.05729299411177635, 0.04000766575336456, -0.017199894413352013, 0.024664459750056267, -0.08014128357172012, -0.0767967626452446], [-0.02566716820001602, 0.0007085136021487415, 0.017810240387916565, -0.013585155829787254, 0.018583185970783234, -0.1308009773492813, 0.007061196956783533, 0.0003663863171823323, 0.25670763850212097, -0.0327475480735302, -0.16061848402023315, -0.0526464581489563, -0.09040547162294388, -0.026461707428097725, -0.016012003645300865, -0.04295153543353081, -0.008517115376889706, 0.06405523419380188, -0.2635822892189026, -0.10281699895858765], [-0.013086535036563873, -0.07324119657278061, -0.0058777472004294395, -0.011326249688863754, 0.1350025087594986, -0.13781383633613586, 0.08416135609149933, 0.03046700544655323, -0.05578507110476494, -0.10899559408426285, 0.07268327474594116, 0.03348395228385925, -0.04094545915722847, -0.23503734171390533, 0.011961371637880802, 0.06039333716034889, -0.0027425140142440796, 0.002282975474372506, -0.0024719166103750467, 0.09432476758956909], [-0.002374667674303055, -0.13457262516021729, 0.035786066204309464, -0.02624209225177765, 0.026574138551950455, -0.10847064852714539, 0.08019588142633438, 0.08923637866973877, -0.02373366802930832, -0.02843175269663334, 0.04184340685606003, 0.13843950629234314, 0.050043538212776184, -0.15214964747428894, -0.03602639585733414, -0.015932811424136162, 0.07509815692901611, 0.04685654863715172, -0.12047402560710907, 0.024137424305081367], [-0.008350799791514874, 0.0716557428240776, 0.002807742217555642, 0.036465149372816086, 0.011326393112540245, 0.04536937549710274, 0.0011517140083014965, 0.06057414039969444, -0.007930596359074116, 0.012484751641750336, 0.03782118484377861, -0.012640444561839104, -0.013755163177847862, 0.013983797281980515, -0.02522517368197441, 0.0541214682161808, -0.018486928194761276, -0.010703440755605698, -0.04706762731075287, -0.02648891694843769], [-0.26232844591140747, -0.5550517439842224, 0.10014599561691284, 0.21848052740097046, 0.46565237641334534, -0.8080533742904663, 0.22616387903690338, 0.17782361805438995, 0.61234450340271, -0.1887296736240387, -0.05171447992324829, -0.2256675660610199, 0.3892814517021179, -0.9662270545959473, -0.4348078966140747, 0.5003011226654053, -0.08503697067499161, -0.30839642882347107, -0.15529319643974304, -0.49305641651153564], [0.003475170349702239, -0.06395314633846283, 0.00015345917199738324, 0.09700579941272736, 0.049189239740371704, 0.02127075381577015, 0.00025724410079419613, 0.012026201002299786, 0.04028197377920151, -0.09757300466299057, 0.1056172177195549, -0.018010804429650307, -0.02082786336541176, -0.1592552363872528, 0.0548802949488163, 0.12180198729038239, 0.004913774318993092, -0.028439080342650414, 0.3639124631881714, 0.016613615676760674], [-0.03745555505156517, -0.21185395121574402, 0.11300104856491089, 0.08379718661308289, 0.33752381801605225, -0.2349967509508133, 0.02869654819369316, 0.05843012407422066, 0.5844022631645203, -0.1357879489660263, -0.03600693866610527, 0.012078377418220043, -0.2045980989933014, -0.3901306688785553, -0.1301332265138626, 0.11590883880853653, -0.16318941116333008, 0.10361713171005249, 0.12358644604682922, -0.04199244827032089], [0.014448679983615875, -0.29745370149612427, 0.2369193583726883, -0.14571112394332886, -0.14002849161624908, -0.024409925565123558, 0.043826863169670105, 0.07316634804010391, 0.07811227440834045, -0.11311569064855576, 0.023798992857336998, 0.3645766079425812, 0.03258788585662842, -0.16516360640525818, -0.022378424182534218, -0.11136836558580399, 0.07974955439567566, -0.08869058638811111, 0.05513470992445946, -0.36518630385398865], [-0.009058572351932526, -0.0018031735671684146, -0.12904377281665802, 0.12125686556100845, 0.14520873129367828, -0.38950568437576294, 0.11816463619470596, -0.020975233986973763, 0.009631997905671597, 0.03823927044868469, 0.0009119228925555944, -0.15767104923725128, -0.28553059697151184, -0.12291532754898071, 0.05952788516879082, 0.07275766879320145, 0.09605352580547333, 0.055023591965436935, -0.23545517027378082, 0.021563999354839325], [-0.015710514038801193, -0.025568518787622452, 0.11363383382558823, 0.07612834125757217, 0.12911875545978546, -0.012473377399146557, 0.011081249453127384, 0.2976534068584442, -0.15414045751094818, -0.21047696471214294, 0.04219222441315651, 0.09590926766395569, -0.09640727192163467, -0.13578049838542938, 0.10951032489538193, -0.07262706011533737, -0.07120655477046967, -0.03565676510334015, 0.09362149983644485, -0.043660424649715424], [0.0018057271372526884, 0.03289790824055672, -0.07730793952941895, 0.08665616810321808, 0.0661180317401886, -0.06872130185365677, 0.024669067934155464, 0.06565885245800018, -0.01394596416503191, -0.06747353821992874, -0.06687837839126587, -0.04639742523431778, -0.16061562299728394, -0.07927803695201874, 0.10554802417755127, 0.023399977013468742, -0.021114807575941086, 0.003874522866681218, 0.0098342876881361, 0.060263194143772125], [-0.00946866162121296, -0.14382734894752502, -0.09468702971935272, 0.052817270159721375, 0.15917082130908966, -0.06524506956338882, 0.09892154484987259, 0.1759839802980423, -0.02145293541252613, -0.022513840347528458, 0.1832585334777832, 0.04145701602101326, -0.050589773803949356, -0.4065229594707489, -0.019987929612398148, 0.2046302855014801, -0.06282442063093185, 0.11625771224498749, 0.13868291676044464, 0.03771527484059334], [-0.0056304228492081165, -0.06561487168073654, 0.08635953068733215, 0.03644080460071564, 0.0425596758723259, -0.05734715983271599, -0.07448246330022812, 0.16957519948482513, 0.1267285794019699, -0.025287337601184845, -0.1509086936712265, 0.09818658977746964, -0.10919485986232758, -0.06604797393083572, 0.06033266708254814, -0.10862591117620468, -0.02502349391579628, 0.04661374166607857, -0.2160249501466751, 0.05981257185339928], [-0.0028543106745928526, -0.03514697402715683, 0.013927992433309555, 0.13431569933891296, 0.16407053172588348, -0.04865245148539543, -0.005547466222196817, 0.033623140305280685, 0.17159786820411682, 0.014718372374773026, -0.062237437814474106, -0.0034617797937244177, -0.030821489170193672, -0.014850430190563202, -0.019394010305404663, 0.09857670962810516, -0.03523511812090874, 0.15577703714370728, -0.11406613141298294, 0.13274389505386353], [-0.049407873302698135, -0.3571057617664337, 0.09889708459377289, 0.10735222697257996, 0.6018674969673157, -0.12649132311344147, 0.09498437494039536, 0.24370823800563812, 0.20062273740768433, -0.23908664286136627, 0.07619922608137131, 0.1389586478471756, -0.24409188330173492, -0.5673202276229858, -0.14892715215682983, 0.14438648521900177, -0.1317877322435379, 0.026019085198640823, -0.003157323691993952, -0.017303993925452232], [-0.04059593752026558, -0.3180299997329712, 0.24077336490154266, 0.015856144949793816, 0.04543702304363251, -0.3377547860145569, 0.004727666731923819, 0.0595693364739418, 0.5757505893707275, -0.24679896235466003, 0.16851289570331573, -0.05171747878193855, 0.2838275730609894, -0.28519561886787415, -0.25008702278137207, 0.05804860219359398, 0.08743999898433685, 0.15495182573795319, 0.08928202837705612, -0.3568320572376251], [-0.025830721482634544, -0.10456707328557968, 0.12636135518550873, 0.19211459159851074, -0.015400943346321583, 0.10305678099393845, 0.03441215679049492, 0.1317185014486313, -0.17786450684070587, -0.05377437174320221, -0.05629108101129532, 0.050552789121866226, -0.0060943858698010445, -0.1045231819152832, -0.08295775204896927, 0.02860713005065918, 0.1262257993221283, -0.01717650517821312, 0.04243519529700279, -0.04592280462384224], [-0.01169742364436388, -0.009443266317248344, -0.43152955174446106, 0.12434017658233643, 0.030038882046937943, -0.0459178127348423, 0.13847868144512177, -0.13932420313358307, 0.32146501541137695, -0.15704140067100525, -0.10966001451015472, -0.32173818349838257, -0.20674772560596466, 0.14612436294555664, -0.10709875077009201, 0.17143607139587402, -0.12020962685346603, 0.0593186691403389, -0.01547993067651987, 0.3351263999938965], [0.06272691488265991, -0.04192294925451279, 0.12335333973169327, -0.19349978864192963, -0.3771967887878418, 0.267135351896286, -0.38313111662864685, 0.0411582812666893, 0.34874972701072693, -0.15772666037082672, -0.07025584578514099, -0.254820317029953, 0.2736731171607971, -0.03592560812830925, 0.02123960293829441, -0.12092950940132141, -0.4053621292114258, -0.19558651745319366, 0.20191563665866852, -0.1902972310781479], [-0.03660935163497925, 0.2297741174697876, 0.07571916282176971, 0.31508490443229675, -0.08790188282728195, -0.05600046366453171, 0.12872657179832458, 0.8531712293624878, 0.39285558462142944, 0.12589815258979797, -0.06909854710102081, 0.09312976896762848, 0.11176159232854843, -0.00022669642930850387, -0.016101153567433357, 0.1254565715789795, 0.43302392959594727, -0.1873946189880371, 0.028507569804787636, 0.20775555074214935], [-0.0394979827105999, 0.05411723256111145, -0.14701734483242035, -0.08095674961805344, 0.18602843582630157, -0.4951256811618805, 0.11428790539503098, 0.006506996229290962, -0.41744524240493774, 0.1278025507926941, 0.3434930145740509, -0.13174408674240112, -0.43325117230415344, -0.10744761675596237, 0.11168228834867477, -0.0015696310438215733, 0.1593812108039856, -0.07917426526546478, 0.10093492269515991, 0.474338173866272], [0.016685495153069496, 0.060698799788951874, -0.10293900966644287, -0.16193614900112152, -0.1542571485042572, 0.33432891964912415, 0.12170203775167465, -0.12665455043315887, 0.1296512931585312, 0.10482779145240784, -0.1560574769973755, -0.08592185378074646, 0.27260491251945496, 0.18171493709087372, -0.014582290314137936, 0.3972983658313751, -0.17422042787075043, 0.06129937246441841, 0.1463106870651245, -0.07804800570011139], [0.04549410194158554, -0.20995883643627167, -0.05037227272987366, 0.20355787873268127, -0.0588054358959198, -0.15990981459617615, 0.13505488634109497, 0.11666836589574814, -0.09095461666584015, -0.14658775925636292, -0.032575540244579315, 0.38611695170402527, -0.07259649783372879, 0.06030416861176491, -0.21135273575782776, 0.14309369027614594, 0.36816829442977905, 0.29531407356262207, -0.14220425486564636, -0.15784452855587006], [-0.13512027263641357, -0.4298013150691986, 0.04007100313901901, -0.821643054485321, -0.0010155393974855542, -0.08788655698299408, 0.16876842081546783, -0.05693848431110382, 0.014958228915929794, 0.5054869055747986, 0.44423261284828186, 0.45084354281425476, -0.13701853156089783, 0.2698305547237396, -0.5284843444824219, 0.13398370146751404, 0.0963405966758728, 0.22616532444953918, -0.6760575771331787, -0.039033498615026474], [-0.1491442322731018, 0.12083905935287476, 0.47128376364707947, 0.029424360021948814, 0.1926000863313675, -0.21052412688732147, 0.1298850029706955, 0.07012305408716202, 0.6766439080238342, -0.028798341751098633, -0.0424690842628479, -0.07427811622619629, 0.16030925512313843, 0.03293320909142494, -0.01856840029358864, -0.04505438357591629, 0.04264483600854874, 0.04307501018047333, -0.28270161151885986, -0.16696524620056152], [0.05906733125448227, -0.3249835669994354, 0.12409942597150803, 0.12549883127212524, -0.06977193057537079, 0.03808901458978653, 0.08569149672985077, -0.08947138488292694, -0.237716406583786, 0.10951656103134155, -0.256938636302948, 0.03869537636637688, 0.23591747879981995, -0.1290293037891388, -0.10066037625074387, 0.025577304884791374, -0.0008590132347308099, 0.1628979593515396, -0.4717184007167816, -0.03454935923218727], [0.024564018473029137, -0.22048349678516388, 0.12085515260696411, -0.25803250074386597, 0.22879573702812195, 0.013176721520721912, -0.16959474980831146, -0.206765279173851, -0.08747685700654984, -0.08113974332809448, 0.24268442392349243, 0.2571524381637573, -0.1113027036190033, -0.005726450588554144, -0.30415022373199463, 0.08492489904165268, 0.24715262651443481, -0.2598119378089905, 0.42663007974624634, 0.0020019386429339647], [-0.057255182415246964, -0.19568543136119843, 0.2257438600063324, -0.17881910502910614, -0.20816931128501892, 0.4197904169559479, -0.14502668380737305, 0.19848710298538208, -0.20843148231506348, -0.08418171107769012, -0.12489834427833557, 0.12533150613307953, 0.3868056833744049, -0.08039772510528564, -0.12575748562812805, -0.01681455969810486, -0.027746224775910378, -0.18982747197151184, 0.1542813777923584, -0.09704209864139557], [0.015659406781196594, 0.003942722454667091, 0.357676237821579, -0.28939443826675415, -0.30411604046821594, 0.3168826997280121, -0.22497548162937164, 0.3051210045814514, 0.26898983120918274, 0.10119882971048355, -0.07009369879961014, 0.16241207718849182, 0.23911437392234802, 0.07532622665166855, -0.1227947473526001, 0.2675366699695587, -0.12136335670948029, -0.2410430908203125, 0.08897951990365982, -0.46412715315818787], [-0.08775707334280014, 0.2667238414287567, -0.14159473776817322, 0.13104785978794098, -0.04933535307645798, 0.024858709424734116, 0.04040369763970375, -0.8371469378471375, 0.27115216851234436, -0.026789458468556404, 0.15947356820106506, -0.08154404163360596, -0.25579121708869934, 0.29951348900794983, 0.10140666365623474, 0.24458125233650208, -0.1662910282611847, 0.06700993329286575, -0.036104265600442886, 0.20895469188690186], [-0.01810542307794094, 0.1271413117647171, -0.2988553047180176, 0.31371310353279114, -0.20101766288280487, -0.21568302810192108, 0.28534090518951416, 0.225258931517601, 0.03091602399945259, -0.30369919538497925, 0.09124546498060226, -0.08203642815351486, -0.3819662630558014, 0.002596649806946516, -0.04250761866569519, 0.027735436335206032, -0.05368912220001221, 0.021601857617497444, 0.18864670395851135, -0.008391316048800945], [0.010447985492646694, 0.13694314658641815, -0.5207965970039368, -0.027335425838828087, -0.008678696118295193, 0.03520180657505989, 0.16714338958263397, -0.0831153392791748, 0.18196897208690643, 0.07831434905529022, 0.3979135751724243, 0.15589874982833862, 0.11777612566947937, 0.28002414107322693, 0.1614065170288086, 0.5551610589027405, 0.13776981830596924, 0.1095607653260231, 0.15899237990379333, 0.09016194939613342], [-0.06436632573604584, -0.1391451507806778, 0.17640060186386108, 0.08807311952114105, -0.03111753985285759, -0.02272634208202362, 0.12625029683113098, 0.5116235017776489, 0.020071377977728844, -0.06558622419834137, 0.23075370490550995, -0.002773989923298359, 0.3417453169822693, -0.263103187084198, -0.17339277267456055, -0.03655026853084564, -0.017440762370824814, 0.09855473786592484, -0.21143528819084167, -0.10628502815961838], [-0.1763450652360916, -0.038142960518598557, 0.03529343381524086, 0.30068984627723694, -0.04456040635704994, -0.07493242621421814, 0.0051686204969882965, -0.23560072481632233, 0.23304292559623718, 0.11874338984489441, -0.12221985310316086, 0.18493340909481049, -0.03818374127149582, 0.11180892586708069, -0.06111129745841026, 0.19528259336948395, -0.01817515306174755, 0.1680184304714203, -0.2837238907814026, 0.3895348608493805], [0.0024210282135754824, 0.08253441005945206, 0.028065262362360954, 0.20802709460258484, 0.05229519307613373, -0.25888878107070923, 0.2734580934047699, 0.08366499096155167, 0.22039379179477692, 0.09168500453233719, 0.4249449074268341, 0.17154556512832642, 0.05603320896625519, -0.10069672763347626, 0.1368485540151596, 0.09594530612230301, 0.1097191572189331, -0.2349867820739746, 0.5005500316619873, -0.030301794409751892], [-0.025581253692507744, 0.2240840196609497, -0.4576174020767212, 0.11681288480758667, 0.32493680715560913, -0.4738985002040863, 0.16326679289340973, 0.14364616572856903, -0.12583906948566437, 0.018832890316843987, -0.13987332582473755, 0.18077923357486725, -0.26763811707496643, -0.29690051078796387, -0.15287910401821136, 0.07763341814279556, 0.19030450284481049, -0.0601937398314476, -0.3428025245666504, 0.5239558219909668], [0.00180999212898314, -0.016618337482213974, -0.00066864158725366, 0.005100676789879799, -0.007761421147733927, -0.008943948894739151, 0.00973987765610218, 0.007907409220933914, -0.0008518588729202747, -0.000664598832372576, -0.000719840987585485, 0.012915091589093208, -0.004364339634776115, 0.03489263728260994, 0.006399147212505341, -0.003072245977818966, 0.004220237489789724, 0.0012772195041179657, -0.004716203082352877, -0.009238755330443382], [0.008718149736523628, -0.2693130075931549, 0.02180369384586811, -0.05705229938030243, -0.0745285302400589, -0.08974342793226242, 0.08011260628700256, -0.1809532195329666, -0.1705993413925171, 0.09206581860780716, 0.15466934442520142, 0.3170044422149658, 0.06593767553567886, -0.06559682637453079, -0.017198650166392326, -0.0027053807862102985, 0.12025012075901031, 0.08594313263893127, -0.014310107566416264, -0.08493980020284653], [0.003000809345394373, -0.03165367618203163, -0.2800038456916809, -0.11685192584991455, -0.1501670926809311, 0.12292872369289398, 0.20252831280231476, 0.1776125133037567, -0.0952414944767952, -0.16447269916534424, -0.02869495004415512, 0.07958336174488068, -0.2145918309688568, 0.31936582922935486, 0.05745938420295715, -0.0601905882358551, 0.04868181794881821, -0.016652656719088554, 0.0006504514021798968, -0.10321522504091263], [0.001127247349359095, -0.19019167125225067, 0.008041206747293472, -0.04642755165696144, 0.009961916133761406, -0.10725557804107666, 0.22470936179161072, 0.0227940883487463, 0.010797902010381222, -0.16477759182453156, -0.022894883528351784, 0.14404955506324768, -0.05596950277686119, -0.04945716634392738, 0.08816234022378922, 0.03590237349271774, 0.058341361582279205, 0.11482847481966019, -0.11544868350028992, -0.16680805385112762], [-0.01868821121752262, 0.011719866655766964, 0.02319464273750782, -0.009698237292468548, -0.15301385521888733, 0.011209546588361263, 0.021114559844136238, -0.04297903552651405, 0.2363068163394928, -0.03563139587640762, -0.18422359228134155, -0.023641860112547874, -0.0428849421441555, -0.010603764094412327, 0.020061803981661797, -0.04085547477006912, -0.0024442002177238464, 0.05335473269224167, -0.22884021699428558, -0.08554068952798843], [0.002637356985360384, -0.14073985815048218, 0.0411246232688427, 0.010825566947460175, 0.0027581702452152967, -0.08911552280187607, 0.17000071704387665, 0.027295483276247978, 0.007062289863824844, -0.1352100968360901, 0.0390290729701519, 0.12084000557661057, 0.02808443456888199, -0.055804941803216934, 0.012918269261717796, 0.015594881027936935, 0.06210734322667122, 0.036576151847839355, -0.017207933589816093, -0.06293527781963348], [0.007269909605383873, -0.22876586019992828, 0.013208135031163692, 0.041925281286239624, 0.018761858344078064, -0.17444343864917755, 0.18643775582313538, 0.059733569622039795, -0.011135208420455456, -0.010171091184020042, 0.0565597303211689, 0.18456679582595825, 0.05780568718910217, -0.12334407866001129, -0.023500271141529083, -0.014239639975130558, 0.14672841131687164, 0.12217744439840317, -0.1491422802209854, -0.02018151618540287], [-0.00044921282096765935, -0.10388371348381042, 0.02946804091334343, 0.004652105271816254, -4.9524609494255856e-05, -0.009910875000059605, 0.09592694789171219, 0.04422656074166298, 0.03771030902862549, -0.06160659343004227, -0.0028533816803246737, 0.058105528354644775, 0.021965164691209793, -0.17187711596488953, 0.008312043733894825, 0.019334139302372932, -0.002383230021223426, 0.0448012575507164, -0.025095922872424126, -0.08239142596721649], [-0.050575707107782364, 0.058028992265462875, -0.1215350404381752, -0.09990135580301285, -0.2248259037733078, -0.04287980496883392, 0.006681589409708977, 0.341185986995697, -0.06303287297487259, -0.04461603984236717, -0.28013554215431213, -0.1789189577102661, 0.0463605672121048, -0.06263977289199829, 0.06498994678258896, 0.18941086530685425, -0.09241916239261627, -0.002585718873888254, 0.03701112046837807, -0.3466290235519409], [-0.0020833038724958897, 0.028919553384184837, 0.045929525047540665, 0.014786852523684502, 0.002052054274827242, 0.12691643834114075, -0.051076509058475494, 0.06385732442140579, 0.08655176311731339, -0.2305545061826706, 0.018305286765098572, -0.047624506056308746, -0.0776788517832756, 0.03475511819124222, 0.1248171254992485, 0.08138591796159744, -0.10068727284669876, -0.11171187460422516, 0.39286381006240845, 0.0018666262039914727], [-0.008000710047781467, -0.047040704637765884, 0.10688678920269012, 0.06735891848802567, 0.011750519275665283, 0.08216115087270737, 0.07698177546262741, 0.050642114132642746, 0.22930818796157837, -0.08608531951904297, -0.25211331248283386, 0.07367300242185593, -0.10671985149383545, 0.11358346790075302, 0.10743548721075058, -0.009477835148572922, -0.07680697739124298, 0.12468495965003967, -0.06856922805309296, -0.16235370934009552], [0.011424344964325428, -0.35880810022354126, 0.18073086440563202, -0.15801194310188293, -0.16339640319347382, -0.05316523462533951, 0.148214191198349, -0.029397200793027878, 0.07927960157394409, -0.11887599527835846, 0.020598124712705612, 0.3579918146133423, 0.0063507515005767345, -0.04783115163445473, 0.025271106511354446, -0.07670065015554428, 0.09909944236278534, 0.020026996731758118, -0.010753178037703037, -0.3615832030773163], [-0.0006746239378117025, 0.09240356087684631, -0.2132689654827118, 0.11037759482860565, -0.05660015344619751, -0.15051937103271484, 0.11197714507579803, 0.04051755368709564, -0.07073120027780533, -0.05819408595561981, -0.13446693122386932, -0.15004827082157135, -0.4074764549732208, -0.052011631429195404, 0.22529764473438263, 0.08018922060728073, 0.015915146097540855, 0.04768029972910881, -0.09039396792650223, -0.01281029637902975], [0.007178283296525478, -0.09329216182231903, 0.07774359732866287, 0.25011467933654785, 0.06370889395475388, 0.05477210134267807, 0.09385960549116135, 0.21955887973308563, 0.06278739124536514, -0.21489720046520233, -0.11577719449996948, 0.12031357735395432, -0.16555547714233398, -0.046533145010471344, 0.18362578749656677, -0.08797352761030197, -0.004028261173516512, -0.022823158651590347, 0.05319450423121452, -0.023249154910445213], [-0.00013933824084233493, 0.023586051538586617, -0.06383750587701797, 0.03429333120584488, 0.0439046286046505, -0.04911334812641144, 0.03434156998991966, 0.06104687601327896, -0.010620410554111004, -0.12606914341449738, -0.08851296454668045, -0.03473266586661339, -0.18356244266033173, 0.005366879981011152, 0.13351565599441528, 0.016633998602628708, -0.04257071018218994, 0.006391133647412062, 0.023027226328849792, 0.03613290190696716], [0.004706214182078838, -0.09873239696025848, -0.056640785187482834, 0.00574095081537962, -0.03514450415968895, 0.07350283861160278, 0.06594226509332657, 0.09377136826515198, -0.0970093309879303, 0.029314735904335976, -0.03450385481119156, 0.07489360123872757, 0.001311197062022984, -0.06027625873684883, 0.01891234889626503, 0.08575491607189178, -0.0413825586438179, 0.006600775755941868, 0.02707359939813614, -0.028235137462615967], [0.0036993571557104588, -0.1714823693037033, 0.051616769284009933, 0.040163926780223846, -0.0005595440161414444, -0.12909317016601562, 0.1361604481935501, 0.16971053183078766, 0.10374091565608978, -0.19180014729499817, -0.17386093735694885, 0.1854730248451233, -0.1952827423810959, 0.07478931546211243, 0.16090844571590424, -0.09742394834756851, 0.033452048897743225, 0.09725946933031082, -0.16910457611083984, -0.0322033129632473], [0.006026721093803644, -0.0765305757522583, 0.029768623411655426, 0.07001926749944687, 0.08175323158502579, -0.04796317592263222, 0.049002256244421005, -0.025563256815075874, 0.1600065380334854, 0.001619345392100513, -0.05817055702209473, 0.053194355219602585, 0.005136820487678051, 0.038713350892066956, -0.014490575529634953, 0.041410572826862335, 0.00785527192056179, 0.16746975481510162, -0.11528678983449936, 0.038455311208963394], [0.0031903996132314205, -0.2926623225212097, 0.029883716255426407, -0.042214103043079376, 0.11795899271965027, 0.06051832064986229, 0.12422919273376465, 0.08786929398775101, 0.006751995533704758, -0.2938075363636017, -0.10026299208402634, 0.14908473193645477, -0.2237718105316162, -0.08967122435569763, 0.03399309515953064, -0.02158782258629799, -0.003232131479308009, 0.04997726157307625, -0.21274951100349426, -0.16287761926651], [-0.022095540538430214, 0.057670533657073975, 0.17359808087348938, -0.11189056932926178, -0.34759536385536194, 0.23483934998512268, -0.04409404471516609, 0.021852584555745125, 0.35779184103012085, -0.20856495201587677, 0.019887318834662437, -0.06048084795475006, 0.03630020096898079, 0.3330812156200409, 0.023136714473366737, -0.09208077192306519, -0.004687633831053972, 0.0368463471531868, -0.03248743340373039, -0.34873566031455994]], "rec.bias_ih_l0": [-0.16924963891506195, -0.18319761753082275, -0.5152806639671326, 0.11601940542459488, -0.10331913083791733, -0.15941141545772552, -0.2249327301979065, 0.39133918285369873, -0.6388052105903625, -0.14878250658512115, -0.37179380655288696, -0.06251633167266846, -0.27149972319602966, 0.17880620062351227, 0.04620596393942833, -0.1270061582326889, -0.129193976521492, -0.14585880935192108, -0.11066094040870667, -0.10098426043987274, -0.10218359529972076, 0.42074865102767944, 0.6701681017875671, 0.5762693285942078, 0.047065120190382004, 0.5444748401641846, 0.11070024222135544, 0.4003349244594574, 0.8620733022689819, 0.09862781316041946, 0.5690790414810181, 0.1926664263010025, 0.31272098422050476, 0.08808775991201401, 0.1525348275899887, 0.4297628104686737, 0.3863302767276764, 0.27655625343322754, 0.4488259553909302, 0.28567999601364136, -0.11104798316955566, 0.031044654548168182, -0.028178906068205833, -0.04470068961381912, 0.021323608234524727, 0.1854274570941925, 0.04133259505033493, 0.08600512146949768, -0.035403065383434296, -0.02567933313548565, -0.07393189519643784, -0.15585222840309143, 0.10958462953567505, -0.19675952196121216, 0.03716219216585159, 0.09667161107063293, -0.06233268976211548, 0.0391969159245491, -0.10765855759382248, -0.023732345551252365, -0.21774150431156158, -0.036632124334573746, -0.009577825665473938, 0.45343759655952454, -0.11898782104253769, 0.22806912660598755, -0.0046330709010362625, 0.7283061146736145, -0.08688443899154663, 0.07221738994121552, 0.053236376494169235, -0.0921844020485878, 0.07932673394680023, 0.17833741009235382, 0.10741106420755386, 0.009192116558551788, 0.12243346869945526, 0.09311424195766449, 0.03090987727046013, 0.0219411738216877], "rec.bias_hh_l0": [-0.12142572551965714, 0.04348368942737579, -0.3072291910648346, 0.15195666253566742, -0.1304548680782318, -0.07500630617141724, -0.2522423267364502, 0.3986817002296448, -0.5631037950515747, -0.23016469180583954, -0.22505410015583038, -0.3630560040473938, -0.12993086874485016, 0.19289274513721466, -0.13735242187976837, -0.15006163716316223, -0.2081836760044098, -0.08203593641519547, -0.14761236310005188, -0.38592231273651123, -0.06533878296613693, 0.1050388291478157, 0.6615997552871704, 0.3933124840259552, 0.29432475566864014, 0.5449919104576111, 0.23532560467720032, 0.3506773114204407, 0.8885799646377563, 0.22636042535305023, 0.4415529668331146, 0.16248737275600433, 0.4388465881347656, 0.2500324547290802, 0.1832803338766098, 0.6375643014907837, 0.3211471736431122, 0.19489097595214844, 0.6061137318611145, 0.3985309302806854, 0.06321875751018524, -0.08576943725347519, 0.07479558140039444, 0.024860631674528122, 0.11479754745960236, -0.13919849693775177, -0.04386284947395325, -0.02503259852528572, 0.03993605449795723, 0.021553892642259598, 0.09451647847890854, 0.1585594266653061, -0.042820047587156296, -0.10622487962245941, -0.11487001180648804, -0.01658109948039055, -0.010675109922885895, -0.010057679377496243, 0.03700415417551994, -0.06337945908308029, -0.26601600646972656, -0.1516968458890915, -0.12461160123348236, 0.27485617995262146, -0.15642866492271423, 0.2067529708147049, 0.08059042692184448, 0.7239215970039368, 0.1912669539451599, -0.06132100149989128, 0.0016529102576896548, 0.10624329745769501, 0.04106702283024788, 0.2103581428527832, -0.07255327701568604, 0.035379596054553986, 0.025206131860613823, 0.049002282321453094, 0.18349476158618927, -0.0965392217040062], "lin.weight": [[-0.1661573201417923, 0.18432384729385376, 0.12657670676708221, -0.45125964283943176, -0.0356745608150959, 0.368572860956192, -0.4215221703052521, 0.6032644510269165, -0.15872004628181458, -0.2148873507976532, -0.2182529717683792, -0.4091918170452118, -0.1484433263540268, 0.2460789680480957, 0.053639743477106094, -0.025066563859581947, -0.5647801160812378, -0.27157843112945557, -0.06596067547798157, -0.1179504469037056]], "lin.bias": [0.129222109913826]}}