{"model_data": {"model": "SimpleRNN", "input_size": 1, "skip": 1, "output_size": 1, "unit_type": "LSTM", "num_layers": 1, "hidden_size": 20, "bias_fl": true}, "state_dict": {"rec.weight_ih_l0": [[-0.036105770617723465], [-0.03785938769578934], [0.0071722958236932755], [-0.0028017598669975996], [0.023942412808537483], [0.07020322233438492], [-0.007466689217835665], [-0.00764206238090992], [0.10806377232074738], [0.00012029708159388974], [-0.021276194602251053], [-0.2765347957611084], [0.012568852864205837], [0.060832198709249496], [-0.012629936449229717], [-0.04986746609210968], [0.0720880851149559], [-0.14263825118541718], [0.40893179178237915], [0.04638490453362465], [-0.045021913945674896], [-0.02418886311352253], [0.08795873075723648], [0.0401771180331707], [0.07962028682231903], [-0.07665268331766129], [0.05040642246603966], [-0.014345117844641209], [0.36931517720222473], [0.1459832787513733], [-0.08392086625099182], [-0.3598058819770813], [0.08011797815561295], [-0.07222366333007812], [0.006240641698241234], [-0.0786576196551323], [0.11849100142717361], [-0.26033952832221985], [0.07885908335447311], [0.07543918490409851], [-0.09173943102359772], [-0.24983899295330048], [1.037811040878296], [0.5983887314796448], [0.14622285962104797], [1.0786069631576538], [-0.32784488797187805], [0.561644434928894], [1.3816617727279663], [-0.04538356512784958], [0.044227518141269684], [0.036336302757263184], [-0.03989444673061371], [-0.34398335218429565], [-0.28509771823883057], [-0.9126399159431458], [0.10199177265167236], [-0.9834180474281311], [0.13761736452579498], [0.5851970911026001], [-0.018524272367358208], [-0.06584173440933228], [0.013890559785068035], [0.03984901309013367], [0.19894783198833466], [-0.04236791655421257], [0.12815047800540924], [0.005031751934438944], [0.03932325169444084], [0.1539352983236313], [-0.08682341873645782], [-0.39240744709968567], [0.00918177142739296], [0.08675317466259003], [0.03618218004703522], [-0.11288662254810333], [0.10675378143787384], [-0.240068256855011], [-0.12274405360221863], [-0.025817453861236572]], "rec.weight_hh_l0": [[-0.013898415490984917, 0.0533539243042469, 0.15705107152462006, 0.05293534696102142, 0.01952183060348034, 0.11003006249666214, -0.02478819340467453, -0.016782918944954872, -0.12964467704296112, 0.04106709733605385, 0.08372021466493607, -0.03840402886271477, -0.10482195019721985, -0.051489733159542084, 0.03822340816259384, -0.02257635071873665, -0.05737196281552315, -0.01876596361398697, -0.045459963381290436, -0.002415272407233715], [0.04401334375143051, 0.09957190603017807, 0.11826203763484955, -0.015972549095749855, -0.09372401237487793, -0.16802644729614258, 0.0766155794262886, -0.08022177964448929, -0.10940093547105789, 0.1093229427933693, -0.12214744836091995, -0.02223566174507141, 0.005627871491014957, 0.08944641053676605, 0.05695512518286705, 0.12344656139612198, 0.019894346594810486, 0.018526121973991394, 0.036886345595121384, 0.03206139802932739], [0.03660298511385918, 0.045086026191711426, 0.17398524284362793, 0.06568029522895813, -0.24344703555107117, -0.04997463896870613, 0.06244206801056862, -0.021415194496512413, 0.018688026815652847, 0.2868272364139557, 0.02696964330971241, -0.017874639481306076, -0.2010728269815445, 0.15336966514587402, 0.06370674818754196, 0.17993271350860596, -0.028484700247645378, 0.0934487134218216, 0.06380583345890045, 0.10652283579111099], [0.04367879033088684, -0.0270569808781147, 0.004379695281386375, 0.0490209124982357, -0.1359630525112152, 0.015345986001193523, 0.02510918863117695, 0.016213316470384598, 0.08933870494365692, 0.02209591306746006, -0.03285814821720123, 0.02688634768128395, 0.014535093680024147, 0.15601499378681183, 0.08529648929834366, 0.05543208494782448, -0.03094346635043621, 0.08631774038076401, 0.08792022615671158, 0.014493689872324467], [0.03353376314043999, 0.07668823003768921, 0.08643574267625809, 0.06825356185436249, 0.04009252041578293, -0.20816455781459808, -0.0569535531103611, -0.028690503910183907, 0.09123973548412323, 0.03701557219028473, 0.013069381937384605, -0.0452004000544548, 0.0752425342798233, 0.08802242577075958, 0.15065526962280273, -0.03289537504315376, -0.01920236274600029, -0.20138832926750183, 0.06549369543790817, -0.02131439745426178], [-0.04243795573711395, 0.038877032697200775, 0.21500344574451447, 0.04435090348124504, -0.3237803876399994, 0.06960885226726532, 0.13282911479473114, 0.048324838280677795, 0.2951962649822235, 0.2873266041278839, -0.019830388948321342, 0.1283285915851593, 0.2972736954689026, 0.26371413469314575, 0.0007686280878260732, 0.14118646085262299, -0.035338807851076126, 0.1761491745710373, 0.09081640839576721, 0.09813863784074783], [-0.0035484228283166885, 0.06403086334466934, 0.020459992811083794, 0.012395532801747322, 0.13383856415748596, -0.03767506778240204, -0.09745830297470093, 0.0405566468834877, 0.10343701392412186, -0.026698943227529526, 0.15926198661327362, -0.05272206291556358, 0.07409916818141937, -0.21155355870723724, 0.1953554004430771, -0.15137046575546265, 0.03875815495848656, -0.2483157515525818, -0.05865207314491272, -0.021937435492873192], [0.03780055418610573, -0.009028648026287556, -0.09462085366249084, 0.1453661471605301, 0.19542066752910614, -0.0031049528624862432, -0.16383586823940277, 0.10106860846281052, -0.008669695816934109, 0.020903997123241425, 0.02694145031273365, -0.18128712475299835, -0.010020717047154903, 0.004450908862054348, -0.046549055725336075, -0.1691427081823349, -0.0031525995582342148, -0.29555436968803406, -0.07345075160264969, 0.08023454248905182], [0.11865528672933578, -0.12718592584133148, 0.16483277082443237, 0.07744436711072922, -0.15190154314041138, 0.06866982579231262, 0.07732600718736649, 0.039301902055740356, 0.3275594413280487, 0.3238665461540222, 0.09570395946502686, 0.08542045950889587, 0.20610922574996948, 0.14413394033908844, -0.001085714204236865, 0.19071319699287415, 0.004376651719212532, 0.2888714373111725, 0.13698650896549225, 0.1655484288930893], [0.0030265774112194777, 0.03943696990609169, -0.0077818394638597965, -0.14906994998455048, 0.07350658625364304, 0.04253008961677551, -0.003512619761750102, -0.16824603080749512, 0.030401133000850677, -0.15951694548130035, 0.10553580522537231, -0.014971782453358173, -0.15077486634254456, 0.0002201895258622244, -0.0015511221718043089, 0.14686278998851776, 0.026713943108916283, -0.07470658421516418, 0.03608859330415726, -0.10526902228593826], [-0.023997483775019646, -0.143453449010849, -0.19543854892253876, -0.04276103153824806, 0.34753480553627014, 0.0903942883014679, -0.09997045248746872, -0.008989432826638222, -0.19465693831443787, -0.6981801986694336, 0.12926125526428223, -0.11135343462228775, 0.20131473243236542, -0.42045295238494873, -0.0016255174996331334, -0.14146731793880463, -0.07762860506772995, -0.2550092041492462, -0.020696556195616722, -0.10633838176727295], [0.06842497736215591, 0.09826423972845078, -0.130417138338089, -0.051822442561388016, 0.0638088807463646, -0.06987550854682922, 0.04210784286260605, -0.14795838296413422, 0.03995504602789879, -0.10331686586141586, -0.09401585161685944, -0.2009648233652115, -0.12045350670814514, -0.049441348761320114, 0.10208090394735336, -0.055359527468681335, 0.07233874499797821, 0.03663697838783264, -0.048652999103069305, -0.17306233942508698], [0.04582470282912254, -0.04121628776192665, 0.08620793372392654, -0.007940390147268772, -0.14976866543293, -0.21251028776168823, 0.03982381895184517, 0.01893782801926136, 0.13875721395015717, 0.14624731242656708, 0.020798122510313988, -0.02450866810977459, 0.012373413890600204, 0.1597997099161148, 0.03570927679538727, 0.2933199107646942, 0.007137766107916832, -0.001730926102027297, 0.05083531513810158, 0.026736866682767868], [-0.008398814126849174, -0.24471773207187653, -0.08092883229255676, 0.26627710461616516, 0.16064658761024475, -0.30806198716163635, -0.21151511371135712, 0.018843136727809906, -0.04662848263978958, -0.5263291001319885, 0.29426372051239014, -0.04220142960548401, 0.26239320635795593, -0.09219623357057571, 0.11646893620491028, -0.2930701673030853, -0.08136790990829468, -0.2476472705602646, 0.22088705003261566, -0.11765545606613159], [0.032795410603284836, 0.05690067633986473, -0.29123201966285706, -0.03231654688715935, 0.07584129273891449, 0.11449767649173737, -0.0038643330335617065, 0.016471171751618385, -0.09504181891679764, -0.5577414631843567, 0.2626614570617676, -0.08066202700138092, -0.0530928336083889, -0.10037444531917572, -0.06237536296248436, -0.29733577370643616, -0.10187745094299316, -0.09335271269083023, 0.19470259547233582, -0.16073516011238098], [0.031148934736847878, -0.019667381420731544, 0.2672460079193115, 0.05062292516231537, -0.012887454591691494, 0.3010258972644806, 0.0530618354678154, -0.00976556446403265, 0.1866806298494339, 0.1337931752204895, -0.011037048883736134, 0.01631145179271698, 0.10541768372058868, -0.20061399042606354, 0.012486441060900688, 0.05249841883778572, -0.009932305663824081, 0.06843290477991104, 0.040271349251270294, 0.05114263668656349], [-0.0356220006942749, 0.04503819718956947, 0.1731317937374115, 0.05649157240986824, 0.01811717450618744, -0.10040061920881271, -0.07215224206447601, 0.03707601875066757, 0.007768481504172087, -0.055156052112579346, -0.03585384786128998, -0.028471563011407852, 0.03579383343458176, -0.0728115513920784, -0.0025265205185860395, 0.017483681440353394, -0.07203587889671326, -0.0010681756539270282, 0.1188885048031807, 0.04873993620276451], [0.04434789717197418, -0.10773997008800507, 0.029407892376184464, 0.03709055110812187, -0.08959474414587021, 0.42912423610687256, 0.08234339952468872, 0.01646314188838005, 0.23070383071899414, 0.13953106105327606, -0.033733658492565155, 0.005766603630036116, 0.15881362557411194, -0.052730485796928406, -0.0902625098824501, 0.07609370350837708, 0.02555246278643608, 0.2414143979549408, 0.06576291471719742, 0.050222158432006836], [0.012185212224721909, -0.2708899974822998, -0.3690307140350342, 0.07299403101205826, 0.5402644276618958, -0.10691585391759872, -0.23269756138324738, 0.17433199286460876, -0.215890035033226, -0.7446279525756836, 0.09836409986019135, -0.13333742320537567, 0.05711594596505165, -0.41759857535362244, -0.05518338456749916, -0.1140785664319992, -0.1204981729388237, -0.49003949761390686, 0.15417484939098358, -0.1264713704586029], [0.04450363665819168, -0.08437442779541016, -0.05140828341245651, 0.05216424539685249, 0.22475136816501617, -0.008098041638731956, -0.12065742909908295, 0.02095232903957367, -0.07340049743652344, -0.08549272269010544, -0.0580938383936882, -0.17395657300949097, 0.0324283093214035, -0.13085363805294037, 0.049561113119125366, -0.12217126786708832, 0.02957681193947792, -0.2577749192714691, -0.10621440410614014, 0.014226043596863747], [-0.001455814577639103, 0.09203577786684036, 0.20232422649860382, 0.02672003023326397, -0.06424359232187271, 0.13072991371154785, 0.039374012500047684, -0.029923927038908005, -0.01662410981953144, 0.16185063123703003, 0.09581296890974045, 0.010243268683552742, 0.03961728513240814, 0.031143272295594215, 0.07013610005378723, 0.07686854898929596, -0.04411428049206734, 0.053368519991636276, 0.0019673113711178303, 0.012264777906239033], [0.07514135539531708, 0.0966179147362709, 0.16824890673160553, 0.026049943640828133, -0.06537505984306335, -0.11596870422363281, 0.06659180670976639, -0.03186812624335289, -0.22707368433475494, 0.12676633894443512, -0.10534864664077759, -0.04150616377592087, -0.0073353140614926815, 0.04327412322163582, 0.17864961922168732, 0.13235867023468018, -0.04941444471478462, 0.007077119313180447, -0.0003723243426065892, 0.09207672625780106], [0.013813013210892677, -0.0697159394621849, 0.13719442486763, 0.1669093817472458, -0.13567504286766052, -0.06446895748376846, 0.05604271963238716, 0.09541478008031845, 0.06135834753513336, 0.2373342663049698, 0.09017025679349899, -0.004869008436799049, -0.35956045985221863, 0.06412895768880844, 0.020809231325984, -0.03222585842013359, -0.07923468202352524, -0.07537505030632019, 0.03353128954768181, 0.18160128593444824], [0.030037589371204376, 0.0022809146903455257, 0.05963701382279396, 0.13239920139312744, -0.18245920538902283, -0.03584907576441765, 0.04714018106460571, 0.05213570594787598, 0.07161489874124527, 0.0006203509983606637, -0.08572752773761749, 0.05992056056857109, -0.009449148550629616, 0.2735861837863922, 0.06323441863059998, 0.1485936939716339, -0.09431150555610657, 0.14576409757137299, 0.09683036804199219, 0.11581003665924072], [-0.004705171100795269, 0.09472808986902237, 0.19073331356048584, 0.11439655721187592, 0.07221212238073349, -0.08322115242481232, -0.09442859143018723, 0.04951219633221626, -0.002567797666415572, 0.2249891757965088, 0.03778938949108124, -0.0577370710670948, 0.15473401546478271, 0.10938370227813721, 0.2137664258480072, 0.016935233026742935, -0.057925596833229065, -0.2439640313386917, 0.07474801689386368, 0.042366430163383484], [0.055780500173568726, 0.002406091894954443, 0.20741166174411774, -0.04452044144272804, -0.5239061117172241, 0.05825677886605263, 0.11228825151920319, -0.08063258975744247, 0.27899113297462463, 0.11732590943574905, -0.07861652970314026, 0.08755761384963989, 0.2416350543498993, 0.14763064682483673, 0.0344732366502285, 0.14569054543972015, 0.0903555154800415, -0.02731209620833397, -0.203755185008049, -0.1238885372877121], [-0.042727332562208176, 0.0736372247338295, 0.1684090495109558, 0.06915276497602463, 0.044464778155088425, 0.21089424192905426, -0.13976827263832092, 0.17939548194408417, 0.12376894056797028, 0.27790188789367676, 0.1633388102054596, 0.0016608763253316283, 0.2680034041404724, -0.014476695097982883, 0.22136253118515015, 0.10322283208370209, -0.07636802643537521, -0.027783073484897614, -0.08443830162286758, 0.19298018515110016], [0.06959018111228943, 0.1775471568107605, 0.17471414804458618, 0.021260548382997513, 0.019114580005407333, 0.20209279656410217, -0.09003851562738419, 0.1272800713777542, -0.1317690759897232, 0.34877297282218933, 0.12684063613414764, -0.2147274762392044, 0.023715049028396606, 0.09679451584815979, 0.03004980832338333, -0.07100038230419159, 0.09074074774980545, -0.2489372193813324, -0.1934462934732437, 0.11785305291414261], [0.09703558683395386, -0.028433162719011307, 0.5494539737701416, 0.0897718295454979, -0.16936138272285461, 0.08050578832626343, 0.14056935906410217, -0.04530433192849159, 0.21037055552005768, 0.36257457733154297, 0.3518884778022766, 0.05140625312924385, 0.27861708402633667, -0.1313612163066864, -0.1919207125902176, -0.06024559959769249, 0.1056833416223526, 0.19026488065719604, 0.1285361349582672, 0.1365990787744522], [-0.08466824144124985, 0.05620108172297478, 0.23868928849697113, -0.14928947389125824, -0.13342490792274475, -0.04035430774092674, 0.004407192580401897, -0.12556330859661102, 0.07853379845619202, -0.15509441494941711, -0.04610246419906616, -0.043200064450502396, -0.1823352575302124, 0.4010605216026306, 0.012831508181989193, 0.3948449194431305, -0.10607557743787766, 0.07842627167701721, 0.21508030593395233, 0.04975268617272377], [-0.012973147444427013, 0.23585157096385956, 0.45403939485549927, -0.09144429862499237, -0.4278374910354614, 0.10392800718545914, 0.26703882217407227, -0.08054271340370178, 0.039483442902565, 0.3376505970954895, -0.14230011403560638, -0.0737767443060875, 0.05006606504321098, 0.24908915162086487, 0.21637919545173645, 0.16420041024684906, -0.04554465785622597, 0.22105179727077484, 0.07721651345491409, 0.05380108579993248], [0.09125760197639465, 0.1594342291355133, -0.13080593943595886, -0.13913409411907196, -0.11932285130023956, 0.008491292595863342, 0.1443280130624771, -0.2508622705936432, 0.1794920712709427, 0.07890685647726059, -0.1331515610218048, -0.26501989364624023, -0.06026165559887886, 0.04196316376328468, 0.17411814630031586, 0.05037657544016838, 0.15132881700992584, 0.09025062620639801, -0.019219104200601578, -0.260088711977005], [0.05837768688797951, -0.14285144209861755, 0.08499201387166977, -0.08457545936107635, -0.27602362632751465, -0.33205360174179077, 0.16095463931560516, 0.07453790307044983, 0.2138151377439499, 0.06743351370096207, -0.04588640481233597, 0.06930830329656601, 0.07078436017036438, 0.2558887302875519, 0.02441560849547386, 0.21737298369407654, -0.028088809922337532, -0.047540850937366486, 0.04724811017513275, -0.0747767984867096], [-0.07320652157068253, 0.13641926646232605, 0.5640509724617004, 0.061833105981349945, -0.6083072423934937, -0.17410801351070404, 0.17860357463359833, -0.14967569708824158, 0.26451587677001953, 0.14561980962753296, 0.02555888518691063, -0.08807501196861267, 0.20168258249759674, 0.475061297416687, 0.6198471188545227, 0.6151221394538879, -0.09413345903158188, 0.32660186290740967, 0.3939858675003052, 0.015686865895986557], [0.0260621290653944, 0.06702009588479996, 0.22207309305667877, -0.15793342888355255, -0.1996639221906662, -0.07469796389341354, -0.004821665585041046, 0.07929126173257828, 0.12586423754692078, 0.03934386000037193, 0.0639464259147644, -0.2506251931190491, -0.05230922996997833, 0.10300550609827042, 0.09871996194124222, 0.18960967659950256, -0.1960596889257431, 0.1230003759264946, -0.054053790867328644, -0.08627922087907791], [-0.05437210947275162, -0.08410043269395828, 0.014111927710473537, 0.12017824500799179, 0.023734066635370255, 0.5355945825576782, 0.007535723969340324, 0.040690384805202484, 0.200676828622818, 0.0675787702202797, -0.042863428592681885, 0.026060646399855614, 0.2791016697883606, -0.1520771086215973, -0.09238264709711075, -0.16405752301216125, -0.031150303781032562, 0.17962677776813507, 0.03229713439941406, -0.021541209891438484], [-0.04372420534491539, 0.061716701835393906, 0.2519167363643646, 0.06680119037628174, -0.029980115592479706, -0.1873370260000229, -0.029271889477968216, 0.011530333198606968, -0.012833070009946823, 0.06295210123062134, -0.05739938095211983, -0.047841452062129974, 0.08577129244804382, 0.08380907773971558, -0.1159684881567955, 0.13619962334632874, -0.06016585975885391, 0.0694093257188797, 0.13754664361476898, 0.047970280051231384], [-0.0024223129730671644, -0.14868946373462677, -0.05383364483714104, 0.006426547188311815, 0.08867999911308289, 0.3240663409233093, 0.034920789301395416, 0.05626838654279709, 0.024003325030207634, 0.1627662479877472, -0.1302739530801773, -0.013950799591839314, 0.16087958216667175, -0.1873035579919815, -0.2884502410888672, -0.02831876650452614, 0.0691164880990982, -0.017878333106637, -0.012034893967211246, -0.022640857845544815], [0.03151535242795944, 0.39851275086402893, 0.3606967031955719, -0.19960221648216248, -0.7527564167976379, -0.12252919375896454, 0.3116430640220642, -0.013784649781882763, 0.288974404335022, 0.5312943458557129, -0.38343337178230286, -0.20536421239376068, 0.17714525759220123, 1.0671387910842896, 0.05536619573831558, 0.41405144333839417, 0.04945552349090576, 0.3898855447769165, -0.14846785366535187, -0.005047036334872246], [0.059319719672203064, 0.01738567277789116, 0.1053147166967392, -0.039114754647016525, -0.0460083931684494, 0.29569655656814575, 0.03356762230396271, -0.06078033894300461, 0.1736355870962143, 0.2994076609611511, -0.15666142106056213, -0.15521982312202454, 0.24573799967765808, 0.12286989390850067, 0.03419201448559761, 0.023780638352036476, 0.10831376165151596, 0.050468701869249344, -0.10499107837677002, 0.046967651695013046], [0.19732432067394257, 0.026020625606179237, -0.2840440571308136, -0.07284464687108994, -0.022260352969169617, 0.1377369612455368, 0.019634054973721504, -0.3067615330219269, 0.04238497093319893, -0.044397298246622086, -0.18966296315193176, 0.028540030121803284, 0.10159672796726227, -0.07814914733171463, 0.1999722272157669, 0.30531227588653564, -0.03747868910431862, 0.4116489589214325, 0.07557126879692078, -0.11044448614120483], [0.0700845792889595, 0.007519769947975874, 0.21786867082118988, 0.3280657231807709, -0.1097838282585144, -0.1452968567609787, 0.12004050612449646, -0.18938426673412323, -0.30110713839530945, 0.07648062705993652, -0.01567218452692032, -0.18680402636528015, -0.10696502774953842, -0.024845099076628685, 0.12107767909765244, 0.3142593204975128, 0.029517490416765213, -0.1434987634420395, 0.2421855479478836, -0.09802182763814926], [0.3915075361728668, -0.09419406205415726, 0.01660303585231304, 0.029389245435595512, 0.06048673018813133, -0.18727543950080872, -0.03383983299136162, 0.02442084066569805, 0.26353755593299866, 0.1669538915157318, 0.24815836548805237, -0.2536538243293762, -0.44524165987968445, -0.28850460052490234, 0.262844443321228, -0.16972723603248596, 0.21633952856063843, -0.47678008675575256, -0.04296822100877762, 0.23224234580993652], [0.2786281406879425, -0.17527014017105103, 0.012397384271025658, 0.053997404873371124, -0.09668449312448502, -0.019889259710907936, -0.17588579654693604, 0.22693583369255066, 0.14547331631183624, 0.2316880226135254, 0.13559600710868835, 0.030706830322742462, -0.13710100948810577, 0.3490467071533203, 0.12198886275291443, -0.3472319543361664, 0.06809435784816742, -0.15256690979003906, -0.2896311581134796, 0.25510528683662415], [-0.10036291182041168, -0.09595102071762085, -0.018967200070619583, -0.15690217912197113, 0.23366998136043549, 0.17974911630153656, -0.26321715116500854, 0.4396235942840576, -0.1597512662410736, -0.0468832403421402, 0.05409006029367447, 0.03029385395348072, 0.4655488431453705, -0.2403445690870285, -0.22394216060638428, -0.0005813217139802873, -0.17370784282684326, -0.2576831877231598, -0.005746422801166773, 0.1105613261461258], [0.11638768762350082, 0.06332585960626602, 0.5824880599975586, 0.18728351593017578, -0.3445466160774231, 0.35592401027679443, 0.3906797468662262, -0.2822839319705963, 0.6398305296897888, 0.3534586727619171, 0.029703890904784203, -0.15223078429698944, 0.9035703539848328, -0.5388593673706055, 0.30400076508522034, -0.49571964144706726, 0.44539424777030945, -0.5795989632606506, -0.20610524713993073, -0.14002053439617157], [-0.051364999264478683, 0.14051008224487305, 0.18201293051242828, -0.1896584928035736, -0.1077398732304573, -0.10214678198099136, 0.1430717408657074, -0.3555068373680115, 0.005231281276792288, 0.12831702828407288, -0.23054976761341095, 0.06459695845842361, -0.20453616976737976, -0.08496467024087906, 0.02272898517549038, 0.1504514515399933, 0.04119526222348213, 0.36021146178245544, 0.15833504498004913, -0.2204468548297882], [-0.07614126801490784, 0.03714815899729729, 0.05114223062992096, -0.12142937630414963, 0.10654524713754654, 0.0811886414885521, -0.15484441816806793, 0.24859432876110077, -0.06210280954837799, 0.1888265758752823, 0.18746568262577057, 0.10473249107599258, 0.3042411804199219, -0.009484874084591866, 0.053947824984788895, -0.10734245181083679, -0.21295489370822906, -0.34499695897102356, -0.21180269122123718, 0.332144558429718], [0.35010650753974915, 0.22352802753448486, -0.3365952670574188, -0.05562792345881462, -0.23314769566059113, 0.09894009679555893, 0.3778601586818695, -0.29119256138801575, 0.028251351788640022, 0.18355904519557953, 0.0588383786380291, -0.4293268620967865, 0.36060452461242676, 0.07197774946689606, 0.2796715199947357, -0.36644864082336426, 0.14011923968791962, -0.3239498436450958, -0.5455142259597778, -0.17422905564308167], [0.1831149309873581, 0.01987254060804844, -0.08529926091432571, -0.23111788928508759, -0.03214535117149353, 0.12480480223894119, 0.123834989964962, -0.16643789410591125, -0.08854640275239944, 0.32033771276474, 0.4656776487827301, 0.010466741397976875, 0.13700313866138458, -0.1494813859462738, -0.10599042475223541, 0.1829310804605484, 0.1678270846605301, 0.019539304077625275, 0.06512367725372314, -0.15660403668880463], [0.11685018241405487, -0.11846696585416794, -0.47713372111320496, -0.062296733260154724, 0.07682371139526367, 0.1386042833328247, -0.14150314033031464, 0.03150065988302231, -0.06275228410959244, 0.4349575340747833, 0.3783082365989685, -0.0694621130824089, -0.061848003417253494, -0.22139319777488708, -0.40721607208251953, -0.21069912612438202, 0.339088499546051, -0.035655416548252106, 0.10731255263090134, -0.13261425495147705], [-0.23411133885383606, -0.08942851424217224, 0.4181392788887024, 0.16013619303703308, -0.10692229866981506, 0.24849221110343933, 0.028376778587698936, 0.2586435377597809, -0.12904353439807892, 0.277943879365921, 0.15444038808345795, 0.22434644401073456, 0.22989562153816223, 0.10053232312202454, 0.10117056965827942, 0.03434164077043533, -0.2009868621826172, -0.25023332238197327, -0.2146950662136078, 0.2736954987049103], [-0.45019567012786865, 0.29870954155921936, 0.8223777413368225, 0.4473309814929962, -0.4801635146141052, 0.4479601979255676, 0.030818073078989983, -0.12819446623325348, 0.3835107088088989, 0.1035221666097641, 0.38764750957489014, -0.2943421006202698, 0.3315376043319702, 0.18554647266864777, -0.04415445774793625, -0.02644975855946541, -0.1752810925245285, -0.8969117999076843, -0.10150068998336792, -0.21147659420967102], [-0.202113077044487, -0.027418790385127068, 0.08645933121442795, 0.1974712312221527, -0.08703973144292831, -0.15005500614643097, -0.04146476089954376, -0.024342456832528114, 0.2405068427324295, -0.24208509922027588, -0.07351981848478317, 0.22515863180160522, 0.0678774043917656, 0.19516617059707642, 0.08501268178224564, -0.13112984597682953, 0.008517960086464882, 0.09335435181856155, 0.07077285647392273, 0.1798727661371231], [-0.0585174635052681, -0.18627731502056122, -0.017510542646050453, -0.12288926541805267, 0.19575005769729614, -0.03847263753414154, 0.04757552966475487, -0.018291007727384567, -0.24777360260486603, 0.22277827560901642, 0.20247264206409454, 0.10433486104011536, 0.12503735721111298, -0.33005383610725403, 0.2340870201587677, 0.13112521171569824, 0.017418544739484787, 0.2539784014225006, 0.2572917938232422, -0.023547137156128883], [-0.15963537991046906, -0.20252695679664612, 0.4647039771080017, 0.11507462710142136, 0.1749863475561142, -0.20740573108196259, -0.2830716371536255, 0.07152146100997925, -0.1099918782711029, -0.10000404715538025, 0.2673143744468689, 0.3421030640602112, -0.3152713477611542, 0.030520478263497353, -0.0849732756614685, 0.1397223025560379, -0.27592143416404724, 0.21434925496578217, 0.39136558771133423, 0.24431024491786957], [0.030029604211449623, -0.05787430331110954, -0.21283619105815887, -0.22929145395755768, 0.004316439386457205, 0.02517368271946907, 0.3216024339199066, -0.43190041184425354, 0.09110859036445618, 0.16489867866039276, -0.1998230665922165, -0.15369533002376556, -0.1472809761762619, 0.03304059058427811, -0.06258510053157806, 0.05718512088060379, 0.14630357921123505, -0.04020971804857254, -0.016292769461870193, -0.4370810091495514], [-0.12928195297718048, -0.42351147532463074, 0.04744076356291771, -0.053756166249513626, 0.04280129820108414, 0.047404270619153976, -0.09801235795021057, 0.36449816823005676, -0.08068038523197174, 0.09511647373437881, -0.3712195158004761, 0.5951511859893799, 0.23632830381393433, 0.04536024108529091, -0.31453192234039307, -0.0779227465391159, -0.03686923533678055, -0.1762595921754837, -0.029888665303587914, 0.2705536186695099], [-0.08763118088245392, 0.15198171138763428, 0.1354745477437973, -0.10757292807102203, -0.1137981191277504, -0.023278988897800446, -0.1858927309513092, -0.11983385682106018, 0.08017340302467346, 0.09988173097372055, 0.15491428971290588, -0.29213693737983704, -0.18846438825130463, 0.2683095932006836, -0.20043565332889557, -0.031216638162732124, 0.06033739820122719, -0.009796171449124813, 0.5032241940498352, -0.06622513383626938], [0.16362187266349792, -0.04259302094578743, 0.14897486567497253, 0.18123897910118103, 0.187904492020607, 0.13159061968326569, -0.15811830759048462, 0.32917889952659607, -0.10257481038570404, -0.0546514131128788, 0.16949579119682312, 0.24732732772827148, 0.05668143182992935, 0.10313862562179565, -0.06092263013124466, 0.024212654680013657, -0.04468091204762459, -0.038134731352329254, -0.08866151422262192, 0.06801269203424454], [-0.04361922666430473, 0.10009827464818954, 0.14182744920253754, 0.023069342598319054, -0.033847641199827194, 0.10848596692085266, 0.0028127627447247505, 0.006491728127002716, -0.10581959038972855, 0.06123235821723938, 0.06915365159511566, -0.009581392630934715, 0.0037545037921518087, -0.00969486404210329, 0.0483517125248909, 0.07574006915092468, -0.07984060794115067, 0.012233023531734943, -0.02647245116531849, 0.014767251908779144], [0.008678304962813854, 0.1822723001241684, 0.025268731638789177, -0.07762230932712555, -0.13416604697704315, -0.19166751205921173, 0.10097546875476837, -0.09358875453472137, -0.10851821303367615, 0.1463623195886612, -0.10417359322309494, -0.0309581495821476, -0.006260202266275883, 0.08763378113508224, 0.11416956782341003, 0.09355723857879639, 0.010728908702731133, 0.011132773943245411, 0.040847618132829666, -0.02248798869550228], [0.0011529643088579178, 0.08367996662855148, 0.2943180203437805, 0.07277624309062958, -0.26204270124435425, 0.05452853813767433, 0.06887504458427429, -0.0484340563416481, 0.04032856598496437, 0.25513291358947754, 0.005054257810115814, -0.03367722034454346, -0.18744787573814392, 0.17464643716812134, 0.029149429872632027, 0.1580689251422882, -0.007203045301139355, 0.04403119161725044, 0.08018328249454498, 0.06936788558959961], [0.023923037573695183, -0.005419491324573755, 0.024346869438886642, 0.07114098966121674, -0.16394628584384918, 0.07485990971326828, 0.036543313413858414, 0.024027207866311073, 0.11869830638170242, 0.006748533807694912, -0.03423454985022545, 0.051234129816293716, 0.05185394734144211, 0.20504558086395264, 0.05251205712556839, 0.10775557160377502, -0.040727648884058, 0.10327057540416718, 0.08044801652431488, 0.04381030052900314], [-0.02632533386349678, 0.0956360250711441, 0.17240296304225922, 0.08684995025396347, 0.023366717621684074, -0.2035433053970337, -0.05216125771403313, 0.05919492989778519, 0.14432649314403534, 0.08801106363534927, -0.04289683699607849, -0.045485980808734894, 0.20776191353797913, 0.11691782623529434, 0.08756788074970245, -0.011141307651996613, -0.0468936450779438, -0.2139102965593338, 0.056844670325517654, 0.05405878648161888], [-0.045481860637664795, -0.20823164284229279, -0.008209282532334328, -0.011503384448587894, -0.11856822669506073, 0.28520679473876953, 0.10099102556705475, 0.08539267629384995, 0.23985527455806732, 0.051602646708488464, -0.15292468667030334, 0.06921568512916565, 0.17170655727386475, 0.12310052663087845, -0.10995538532733917, 0.19326038658618927, -0.053334034979343414, 0.2308780699968338, 0.1350385695695877, 0.010409319773316383], [-0.035278961062431335, 0.04543835669755936, 0.09962134063243866, 0.03440660983324051, 0.21584326028823853, 0.05637627840042114, -0.2127213180065155, 0.17036284506320953, 0.1149536594748497, 0.03659635782241821, 0.11634010821580887, -0.05375038459897041, 0.2608727216720581, -0.1495387703180313, 0.08354229480028152, -0.0224875807762146, -0.07080459594726562, -0.19772283732891083, -0.023659449070692062, 0.0748635083436966], [0.013446318916976452, 0.11776798963546753, 0.06400500982999802, 0.0706922709941864, 0.20765556395053864, -0.006987056694924831, -0.22134588658809662, 0.08623038977384567, -0.07053235173225403, 0.1788809597492218, 0.045179255306720734, -0.20831552147865295, 0.01604972593486309, -0.06725271046161652, 0.028543218970298767, -0.04575193300843239, -0.023541929200291634, -0.33353590965270996, -0.09932383894920349, 0.054683104157447815], [0.01887553371489048, 0.10986728966236115, 0.0501733161509037, -0.008491936139762402, -0.29261717200279236, -0.2985086143016815, 0.058859653770923615, -0.14231671392917633, 0.0026517920196056366, 0.23193687200546265, -0.07911185175180435, 0.035734742879867554, -0.28131967782974243, 0.22393125295639038, -0.03093528375029564, 0.04951903969049454, 0.07679740339517593, 0.023743152618408203, 0.001805845065973699, -0.0678052306175232], [0.01841244287788868, 0.05867080017924309, 0.17072387039661407, -0.025505313649773598, -0.15204903483390808, -0.07186293601989746, -0.037309691309928894, -0.09148889034986496, 0.18591144680976868, -0.14974312484264374, -0.14904484152793884, -0.06451623141765594, 0.0518035851418972, 0.2914727032184601, 0.15312455594539642, 0.38482367992401123, -0.2206069827079773, 0.07298248261213303, 0.1902645081281662, 0.08060687780380249], [-0.01495607290416956, 0.15641139447689056, 0.03243019059300423, -0.13649882376194, -0.03572570160031319, 0.1472940444946289, 0.0682678297162056, -0.13231956958770752, 0.1379859298467636, 0.013438363559544086, -0.09557995200157166, -0.07134407013654709, -0.04826144501566887, 0.00577819999307394, 0.15211409330368042, -0.07880260795354843, 0.07170858979225159, 0.080979123711586, 0.03694659471511841, -0.20512577891349792], [0.06491300463676453, 0.11144248396158218, -0.1903764009475708, -0.10023321211338043, -0.08371511101722717, -0.12400154769420624, 0.11174359917640686, -0.2177942395210266, 0.07767447829246521, 0.11265608668327332, -0.08723026514053345, -0.29033520817756653, -0.10733107477426529, -0.0040910798124969006, 0.13702994585037231, -0.02969684638082981, 0.10591955482959747, 0.01569703221321106, 0.04791952669620514, -0.31809988617897034], [0.0664893388748169, -0.06050952151417732, 0.20255093276500702, 0.03363145515322685, -0.23907560110092163, 0.005272211506962776, 0.10148480534553528, -0.00884094275534153, 0.17440593242645264, 0.28860846161842346, 0.04048620164394379, 0.0001287980267079547, 0.022670647129416466, 0.20756347477436066, 0.04229392856359482, 0.18810893595218658, 0.019892869517207146, 0.13795806467533112, 0.10180849581956863, 0.03975405544042587], [0.013692024163901806, -0.036751314997673035, 0.06519190967082977, 0.1800425499677658, -0.2749766409397125, -0.17501631379127502, 0.05145977437496185, -0.19089674949645996, 0.2388593703508377, -0.15270228683948517, -0.11111559718847275, -0.0910528302192688, -0.09841538965702057, 0.19234326481819153, 0.17740397155284882, 0.28216060996055603, -0.06362678855657578, 0.24873371422290802, 0.30075937509536743, -0.00903184525668621], [-0.04066840931773186, 0.04833975061774254, 0.11453454941511154, -0.03180118277668953, -0.2371063232421875, -0.08620171993970871, 0.09930936992168427, 0.0181503277271986, 0.09486888349056244, 0.2272474616765976, 0.05966974422335625, 0.008650175295770168, 0.04364176467061043, 0.18069393932819366, -0.024154767394065857, 0.12899911403656006, -0.03567659854888916, 0.16720764338970184, 0.074277363717556, 0.022379981353878975], [-0.008379815146327019, -0.011038551107048988, 0.234943687915802, 0.05297501012682915, 0.056432269513607025, 0.4629112780094147, 0.02162979356944561, 0.035383179783821106, 0.09789864718914032, 0.1927931159734726, 0.06337302178144455, 0.05884122475981712, 0.27663907408714294, -0.24705283343791962, 0.0034565413370728493, 0.17551261186599731, -0.06627179682254791, 0.20379258692264557, 0.014744892716407776, 0.11759407818317413], [-0.06636003404855728, 0.0992092564702034, 0.24542132019996643, 0.052956473082304, 0.03676450997591019, -0.1558225154876709, -0.08793221414089203, 0.0695028230547905, -0.020362796261906624, -0.16358494758605957, -0.05831561237573624, -0.03378778696060181, 0.15722733736038208, -0.006933016236871481, 0.0014525974402204156, 0.1271086037158966, -0.12082671374082565, 0.01435079611837864, 0.1290706992149353, 0.04547857493162155], [0.028869599103927612, -0.1647026091814041, -0.011104006320238113, 0.07533993571996689, -0.021661100909113884, 0.7217319011688232, 0.08742394298315048, 0.05696921795606613, 0.09184723347425461, 0.3630240559577942, 0.06763153523206711, 0.028179429471492767, 0.2671142816543579, -0.20814372599124908, -0.14448891580104828, 0.1500622034072876, -0.002403907012194395, 0.38343361020088196, 0.005020995158702135, 0.08842002600431442], [0.08641991019248962, -0.05570989474654198, 0.07297065854072571, -0.12067723274230957, 0.07360801845788956, 0.24798327684402466, -0.124740369617939, 0.10555998980998993, -0.0056186942383646965, -0.09087325632572174, -0.03031758777797222, -0.10726621747016907, 0.06759849190711975, 0.06760204583406448, -0.043287552893161774, -0.07354425638914108, 0.06927464157342911, -0.1435805708169937, 0.13970313966274261, -0.03508801385760307], [0.0772465243935585, -0.011504466645419598, -0.04995691031217575, 0.06353233009576797, 0.14612379670143127, 0.11119271069765091, -0.09286045283079147, 0.04932175576686859, 0.03728393465280533, 0.17441146075725555, -0.056065142154693604, -0.22196903824806213, 0.05253718048334122, -0.0892905667424202, 0.1186913400888443, -0.007735534105449915, -0.030597098171710968, -0.07920482754707336, -0.08383164554834366, 0.03494267165660858]], "rec.bias_ih_l0": [0.009456352330744267, -0.015435736626386642, 0.3405901789665222, 0.11512652784585953, 0.2160198837518692, 0.47099751234054565, -0.009439777582883835, 0.025781039148569107, 0.44562235474586487, 0.1670488864183426, -0.30948400497436523, -0.12705159187316895, 0.33694201707839966, -0.2783159911632538, -0.39157313108444214, 0.30196425318717957, -0.16555531322956085, 0.2795316278934479, -0.6288483142852783, -0.06749361008405685, 0.21475374698638916, 0.003334383014589548, 0.09344339370727539, 0.08636030554771423, 0.25626108050346375, 0.20749706029891968, 0.18520726263523102, 0.44980043172836304, 0.434883177280426, 0.2387312352657318, 0.9614117741584778, 0.15241767466068268, -0.008600419387221336, 0.555543065071106, 0.9363448023796082, 0.20344023406505585, 0.3641972243785858, 0.2566586434841156, 1.000546932220459, 0.4486748278141022, 0.058616358786821365, 0.042095258831977844, 0.102025605738163, -0.01760277710855007, -0.19175183773040771, 0.08113396912813187, 0.1962226778268814, -0.09460504353046417, 0.004931319504976273, 0.23280444741249084, 0.004079611971974373, 0.011040689423680305, -0.10929574072360992, 0.019943393766880035, 0.09102741628885269, 0.28507477045059204, 0.011902846395969391, 0.0766391009092331, -0.08757022768259048, 0.0905132070183754, 0.07992871850728989, 0.05084442347288132, 0.52007657289505, 0.16876600682735443, 0.1372402161359787, 0.03112918883562088, 0.15110503137111664, 0.26271554827690125, 0.5387481451034546, 0.014276087284088135, 0.05001995339989662, -0.11556781828403473, 0.5305822491645813, 0.06816251575946808, 0.5550870299339294, 0.2936095893383026, -0.1511436104774475, 0.4319014847278595, 0.12102806568145752, 0.25827011466026306], "rec.bias_hh_l0": [-0.06202656030654907, 0.04442699998617172, 0.3559354543685913, 0.0886005237698555, 0.07692255824804306, 0.37854456901550293, -0.07912106812000275, -0.03687915578484535, 0.37841254472732544, 0.15940818190574646, -0.5183058977127075, -0.1694130152463913, 0.2862837314605713, -0.2972410023212433, -0.32137948274612427, 0.21584078669548035, -0.04858793318271637, 0.22652782499790192, -0.5146672129631042, -0.08198539912700653, 0.1842874139547348, 0.09525131434202194, 0.09744567424058914, 0.22038261592388153, 0.2910308837890625, 0.31152552366256714, 0.16390164196491241, 0.3966706097126007, 0.3748273551464081, 0.4304526150226593, 1.0306816101074219, 0.088079534471035, 0.04214108735322952, 0.7131483554840088, 0.9716809391975403, 0.05990405008196831, 0.15934668481349945, 0.07462143152952194, 0.9868935942649841, 0.3975057303905487, -0.22830015420913696, -0.1073666512966156, 0.28886476159095764, -0.05890243500471115, -0.14297887682914734, -0.21009095013141632, -0.1318640559911728, 0.17603375017642975, 0.15769459307193756, 0.22015011310577393, 0.11745364964008331, -0.02476048283278942, -0.17683495581150055, 0.12788847088813782, -0.10571153461933136, 0.006513216532766819, -0.09188465774059296, 0.22976936399936676, -0.05757260322570801, 0.15261685848236084, 0.12978488206863403, 0.19780124723911285, 0.4743843972682953, 0.044266227632761, 0.33677035570144653, 0.08506612479686737, 0.08402545005083084, 0.26350298523902893, 0.5163283348083496, 0.14760924875736237, 0.03895406797528267, -0.11099296808242798, 0.5685169696807861, 0.23466859757900238, 0.5325182676315308, 0.3135219216346741, -0.021648164838552475, 0.23689857125282288, 0.06133842468261719, 0.16163961589336395], "lin.weight": [[0.26203230023384094, 0.3020385503768921, -0.3259804844856262, -0.2696745991706848, 0.004717906937003136, 0.7032791376113892, 0.055682018399238586, 0.18435537815093994, -0.857150673866272, 0.17686675488948822, 0.2282930612564087, 0.3313053250312805, 0.4381847679615021, -0.2869293689727783, 1.4254083633422852, 0.6010175943374634, -0.43389415740966797, 0.27643781900405884, 0.2972966432571411, 0.08146176487207413]], "lin.bias": [-0.18860676884651184]}}