{"model_data": {"model": "SimpleRNN", "input_size": 1, "skip": 1, "output_size": 1, "unit_type": "LSTM", "num_layers": 1, "hidden_size": 20, "bias_fl": true}, "state_dict": {"rec.weight_ih_l0": [[0.07235341519117355], [-0.07052100449800491], [-0.024439021944999695], [-0.0029377012979239225], [0.24713946878910065], [0.06396991014480591], [-0.062469471246004105], [0.010656232014298439], [-0.009920638054609299], [0.047510161995887756], [-0.053195562213659286], [-0.05157461762428284], [-0.013937652111053467], [-0.021243270486593246], [-0.06928855925798416], [0.026077428832650185], [0.17232979834079742], [-0.04790246859192848], [-0.03687426075339317], [0.010978449136018753], [0.13400502502918243], [-0.019397111609578133], [-0.09768533706665039], [-0.0554853156208992], [0.019680766388773918], [0.14259624481201172], [-0.053811438381671906], [0.09078076481819153], [0.02926335483789444], [-0.04042496532201767], [-0.08278833329677582], [-0.03718050196766853], [0.03369620814919472], [-0.009264804422855377], [-0.09401262551546097], [0.012798399664461613], [0.010538611561059952], [-0.08209874480962753], [0.004487873986363411], [-0.08054958283901215], [-0.28567326068878174], [0.3957061171531677], [-0.09412817656993866], [-0.027563026174902916], [0.44986996054649353], [0.32587847113609314], [-0.21659743785858154], [-0.2454570084810257], [2.1458873748779297], [0.036165300756692886], [0.033719249069690704], [-0.07216101884841919], [0.16903796792030334], [0.4205777049064636], [-0.07105050981044769], [-1.280725359916687], [-0.07850467413663864], [-0.16165010631084442], [-0.3115966320037842], [0.05022578313946724], [0.13380292057991028], [0.0488101989030838], [-0.047008298337459564], [0.0038620170671492815], [0.14401774108409882], [0.12590241432189941], [0.02800808660686016], [-0.07828862965106964], [-0.03627259284257889], [-0.0599297359585762], [-0.01749424822628498], [0.0008592486847192049], [0.00505291810259223], [-0.01130667794495821], [-0.0632934719324112], [0.023659296333789825], [0.12059451639652252], [0.02494024857878685], [-0.012633067555725574], [0.00503572728484869]], "rec.weight_hh_l0": [[-0.004985692910850048, 0.006464574486017227, 0.061006367206573486, -0.06365308910608292, 0.13395290076732635, -0.024723660200834274, -0.10228130221366882, -0.06852752715349197, 0.0593423955142498, -0.05044146999716759, -0.03314417600631714, 0.05789457634091377, -0.03395995497703552, -0.08265139162540436, 0.031004514545202255, -0.020804332569241524, -0.0329442024230957, -0.06690268963575363, 0.014036908745765686, -0.08436413109302521], [0.10189259052276611, 0.072089783847332, -0.010563253425061703, -0.12089543789625168, -0.09526465833187103, -0.16068485379219055, -0.0585947260260582, 0.14299088716506958, -0.282715380191803, -0.043083880096673965, 0.06401463598012924, -0.09927590936422348, -0.0037714920472353697, 0.05544541776180267, -0.08836127817630768, -0.24540899693965912, 0.0034259220119565725, -0.1031586229801178, 0.016695687547326088, -0.09104052931070328], [-0.052613627165555954, 0.25235551595687866, 0.018073489889502525, 0.0284583643078804, -0.0871855691075325, 0.0469757616519928, 0.011087702587246895, 0.35517504811286926, 0.03028765134513378, 0.03825807198882103, 0.3052275478839874, -0.5042628049850464, 0.010637599974870682, -0.09283241629600525, 0.07962275296449661, -0.07613068073987961, -0.02882516011595726, 0.09430231153964996, -0.22543971240520477, 0.024682285264134407], [-0.036007340997457504, -0.18591828644275665, -0.007835554890334606, 0.1309172511100769, 0.17962844669818878, 0.18632552027702332, -0.02059074677526951, -0.35236623883247375, 0.013322846964001656, -0.07720141857862473, -0.27091196179389954, 0.36590516567230225, 0.15254704654216766, 0.0005143962916918099, 0.0547889806330204, 0.030663197860121727, -0.14086264371871948, -0.05047368258237839, 0.06254879385232925, -0.014287455007433891], [0.05938103795051575, 0.25372233986854553, -0.019564349204301834, -0.11132217198610306, 0.31605562567710876, -0.13013626635074615, -0.2293001413345337, 0.12803219258785248, 0.02612358331680298, 0.05800870060920715, -0.22386951744556427, -0.5186131596565247, -0.03389320522546768, 0.06692425161600113, -0.05473588779568672, -0.18282563984394073, -0.17213383316993713, -0.08955653756856918, 0.00333052477799356, -0.008906924165785313], [-0.1486796736717224, -0.09914429485797882, 0.017085136845707893, -0.1306682825088501, 0.016220835968852043, -0.061693012714385986, 0.060999222099781036, -0.0947638526558876, 0.02693299390375614, -0.0658581554889679, -0.07622208446264267, 0.11028449982404709, -0.18844446539878845, 0.052974883466959, 0.10492613166570663, -0.15134505927562714, 0.00028995005413889885, -0.10304643958806992, 0.006176759023219347, -0.012497666291892529], [0.1579512655735016, 0.33535048365592957, -0.05834100767970085, -0.08683113008737564, 0.09613922983407974, -0.05146051570773125, -0.10753842443227768, 0.4732612371444702, -0.04525704309344292, 0.04941406473517418, -0.07445234060287476, -0.3348900377750397, -0.04033026099205017, -0.07000663131475449, 0.023900382220745087, -0.09893258661031723, 0.006596531253308058, 0.01059382688254118, -0.04587826877832413, 0.03287869691848755], [-0.20825493335723877, 0.06674987822771072, 0.011871791444718838, -0.16293227672576904, 0.2568044066429138, 0.10977062582969666, -0.07183176279067993, 0.16316135227680206, -0.056810539215803146, -0.028491495177149773, -0.07107924669981003, -0.2343634068965912, 0.2146838754415512, -0.00839200895279646, -0.22411811351776123, 0.032749202102422714, -0.3166413903236389, 0.050602901726961136, -0.02301408164203167, 0.08379978686571121], [-0.1427629292011261, -0.2330368608236313, 0.012915338389575481, 0.417484849691391, 0.13965004682540894, 0.26587969064712524, 0.03025810606777668, -0.532869279384613, 0.05943765863776207, -0.12510691583156586, -0.26575180888175964, 0.47218701243400574, -0.009764467366039753, -0.02322589047253132, 0.21667180955410004, -0.012141766026616096, -0.04552413150668144, -0.10571189224720001, 0.08385616540908813, -0.031084056943655014], [0.02097933739423752, 0.12748828530311584, 0.13464252650737762, 0.016408154740929604, -0.08328208327293396, 0.1645456999540329, 0.02816997654736042, 0.16834448277950287, 0.07178108394145966, -0.27953436970710754, 0.05149983614683151, -0.21006548404693604, -0.00496706273406744, 0.03704029321670532, -0.09093287587165833, -0.011702845804393291, 0.033874306827783585, -0.09187883138656616, -0.12048808485269547, 0.1897897571325302], [0.2463274598121643, 0.3231532871723175, -0.04453321173787117, -0.7622107267379761, 0.18078328669071198, -0.24678896367549896, -0.07889538258314133, 0.6669024229049683, -0.08764182031154633, 0.11767949163913727, -0.15225271880626678, -0.610167384147644, -0.0615118145942688, 0.12011278420686722, -0.1439879983663559, 0.3118472695350647, -0.1022636741399765, 0.009626474231481552, -0.0018513125833123922, -0.06404003500938416], [0.0642460435628891, -0.0502416230738163, 0.009455353952944279, -0.05004488676786423, 0.044076014310121536, 0.010982861742377281, 0.015583292581140995, 0.00526540307328105, 0.01822793483734131, 0.023312268778681755, -0.08047753572463989, 0.1654316782951355, 0.22051243484020233, -0.014442012645304203, -0.014161305502057076, 0.04909071698784828, 0.1025211438536644, -0.0002716030285228044, 0.054226525127887726, -0.0454912893474102], [-0.16251268982887268, -0.17773421108722687, -0.004014519974589348, 0.37119731307029724, 0.17966318130493164, 0.17921984195709229, -0.01058753952383995, -0.37679341435432434, 0.0028149925637990236, -0.08202578127384186, -0.2503318190574646, 0.3517073094844818, -0.07784657180309296, -0.007906196638941765, 0.15642422437667847, 0.16946233808994293, -0.12222010642290115, -0.04540126025676727, 0.1118326410651207, -0.011493127793073654], [0.16006837785243988, -0.028533415868878365, -0.020870937034487724, 0.001502801082096994, -0.002293764613568783, -0.04408503696322441, 0.05402817949652672, -0.057794228196144104, 0.053023748099803925, -0.08718445897102356, -0.0630796030163765, 0.20199795067310333, -0.031156549230217934, 0.06525091826915741, -0.035335980355739594, -0.010330509394407272, 0.054941825568675995, -0.08394543826580048, 0.13879747688770294, 0.009149743244051933], [0.05315079912543297, 0.07196703553199768, -0.06648125499486923, -0.21686884760856628, 0.1243525817990303, 0.10660836100578308, -0.014639046974480152, 0.07160700857639313, -0.04082093387842178, -0.029458895325660706, 0.053720735013484955, -0.027733970433473587, -0.02279581129550934, 0.06774140894412994, 0.02971399948000908, 0.1760435551404953, 0.0952594056725502, -0.024499187245965004, 0.019013667479157448, -0.05458970367908478], [-0.07979932427406311, -0.17587950825691223, 0.026498405262827873, 0.5861576199531555, 0.2587076723575592, 0.24988390505313873, -0.052235376089811325, -0.4580676853656769, 0.047872889786958694, -0.08612562716007233, -0.34102246165275574, 0.4210119843482971, 0.04027342051267624, -0.043202053755521774, 0.18107116222381592, -0.002520521404221654, -0.15306061506271362, -0.0977829098701477, 0.09092702716588974, 0.004158863797783852], [0.06638962775468826, 0.4094209372997284, -0.0074000284075737, -0.09510859847068787, 0.06522489339113235, -0.2168947011232376, -0.1319023221731186, 0.41523459553718567, -0.03115825541317463, 0.19064991176128387, 0.288526326417923, -0.4637742042541504, -0.01463904045522213, -0.0009184391237795353, -0.014751668088138103, 0.15134941041469574, -0.028906842693686485, 0.11771313846111298, -0.07222037762403488, 0.007582726888358593], [-0.07503083348274231, 0.24896015226840973, 0.014647376723587513, -0.024266693741083145, -0.011047369800508022, 0.06665313988924026, -0.03996250033378601, 0.2765888273715973, 0.023155923932790756, 0.07009556889533997, 0.0694422647356987, -0.359136164188385, -0.05584630370140076, -0.06891375035047531, 0.08254832029342651, -0.0899917408823967, -0.025127578526735306, -0.057506024837493896, -0.22016866505146027, -0.08419627696275711], [-0.020589664578437805, -0.029543956741690636, -0.041344787925481796, 0.014727730304002762, 0.08762818574905396, 0.016547584906220436, 0.03620116412639618, -0.12321142107248306, -0.004190410021692514, -0.05698641389608383, -0.11199195683002472, 0.2143491804599762, 0.052383262664079666, 0.15189781785011292, 0.03493504598736763, 0.17541469633579254, 0.026206187903881073, -0.05823005363345146, 0.1659470498561859, -0.02437247894704342], [0.0877123549580574, 0.15998956561088562, -0.01106791291385889, 0.04821857064962387, -0.003208588343113661, 0.007760112173855305, -0.02446056716144085, 0.093376025557518, -0.04521530866622925, 0.07889494299888611, 0.05276711657643318, -0.21623578667640686, 0.0005619573057629168, -0.07798247784376144, -0.0068605514243245125, -0.05442574992775917, -0.027710087597370148, -0.03956517577171326, -0.1516764611005783, -0.07460479438304901], [-0.007655477151274681, 0.054399359971284866, 0.11221165210008621, -0.17141194641590118, 0.15032683312892914, -0.0757952630519867, -0.1492822766304016, -0.08334039896726608, 0.0928814709186554, -0.016378140076994896, -0.029473694041371346, 0.05717102438211441, 0.0060186488553881645, -0.010605297051370144, -0.01407835353165865, -0.08773308992385864, -0.02524622157216072, -0.1572437435388565, 0.040134888142347336, -0.08385089039802551], [0.30324551463127136, 0.08231615275144577, 0.044840142130851746, 0.21781565248966217, 0.13678587973117828, -0.08891802281141281, -0.07783502340316772, -0.13388031721115112, -0.26621535420417786, -0.1178620234131813, -0.00490372022613883, 0.17358657717704773, -0.06601584702730179, 0.08072705566883087, -0.08374271541833878, 0.01559233944863081, -0.18686939775943756, -0.16923746466636658, 0.24123109877109528, -0.04000096768140793], [0.17184145748615265, -0.35057470202445984, -0.000875435653142631, -0.02324584126472473, -0.011319644749164581, 0.07101680338382721, 0.0675705075263977, -0.43507546186447144, 0.028223611414432526, -0.22267669439315796, -0.30846068263053894, 0.5420506596565247, -0.0062732030637562275, 0.060927584767341614, -0.04271523281931877, 0.06789155304431915, -0.1859910637140274, -0.12033243477344513, 0.25669002532958984, -0.06828051060438156], [-0.045178841799497604, -0.11068316549062729, -0.028665926307439804, 0.028583472594618797, 0.022103969007730484, 0.06432051211595535, 0.016182441264390945, -0.02834510989487171, -0.10147209465503693, 0.018670080229640007, -0.14587143063545227, 0.09026437252759933, -0.12120195478200912, 0.039223965257406235, -0.08813853561878204, -0.019265109673142433, -0.07614855468273163, -0.019096048548817635, 0.05076655000448227, -0.002981109544634819], [-0.06194204464554787, -0.04195466637611389, 0.051480770111083984, 0.36959993839263916, 0.016352348029613495, 0.17369304597377777, 0.17607659101486206, -0.6433896422386169, 0.05311333388090134, -0.12513203918933868, -0.05012008920311928, 0.5732511281967163, 0.036122143268585205, -0.045026760548353195, 0.14114665985107422, 0.31549787521362305, 0.2184276580810547, -0.04145975410938263, 0.2721560299396515, -0.07101444154977798], [-0.03434072434902191, 0.0801609456539154, 0.03661401569843292, -0.3272417187690735, 0.027809374034404755, 0.05967101827263832, 0.06758035719394684, -0.04201431944966316, 0.02517072670161724, -0.035673730075359344, -0.02950405701994896, 0.11224168539047241, 0.42404812574386597, -0.036247123032808304, 0.044953603297472, -0.3280441462993622, 0.020428044721484184, -0.08818486332893372, -0.0339188426733017, -0.006548464763909578], [0.1269916146993637, -0.12310264259576797, 0.02984718792140484, 0.025835568085312843, -0.06040182709693909, 0.05730365216732025, 0.10770580917596817, -0.33285850286483765, 0.008073152042925358, -0.07589665055274963, -0.237036794424057, 0.5002940893173218, 0.014484435319900513, -0.030793070793151855, 0.053472526371479034, 0.11331964284181595, -0.03453152999281883, 0.07782522588968277, 0.3574097454547882, 0.007909903302788734], [-0.029413610696792603, -0.3169063925743103, 0.08639123290777206, 0.5751148462295532, 0.03231251984834671, -0.02675768733024597, 0.11329634487628937, -0.12214860320091248, 0.13238947093486786, -0.10514406859874725, 0.3371836841106415, 0.5463607907295227, -0.00830080732703209, -0.058959461748600006, -0.21302565932273865, -0.2036455273628235, -0.04255509003996849, 0.038801614195108414, 0.07156144827604294, -0.14956994354724884], [-0.052572090178728104, 0.029745053499937057, 0.1535101979970932, 0.020530320703983307, -0.030609775334596634, 0.1288922280073166, 0.09070159494876862, -0.25429585576057434, 0.08996986597776413, 0.006210163701325655, 0.07300571352243423, 0.0046708169393241405, 0.04829808697104454, -0.11333788186311722, 0.27144619822502136, 0.15886707603931427, 0.2659531533718109, -0.058494530618190765, 0.13685350120067596, 0.06579320132732391], [0.18974925577640533, -0.1964145302772522, -0.08163170516490936, -0.07489856332540512, -0.0013487342512235045, -0.06119520962238312, 0.10577729344367981, -0.3286725580692291, -0.029238592833280563, -0.254401296377182, -0.18601001799106598, 0.5050304532051086, -0.0909184068441391, 0.11571916937828064, -0.09569200873374939, 0.09028802812099457, -0.14700210094451904, -0.027803348377346992, 0.18645519018173218, 0.10800404846668243], [-0.10611481219530106, -0.512175977230072, -0.24938584864139557, 0.5698509812355042, -0.29503747820854187, 0.40108293294906616, 0.18627917766571045, -0.5655410289764404, -0.2979389429092407, -0.18084268271923065, -0.16086576879024506, 0.5867706537246704, 0.592244029045105, -0.03197725489735603, 0.15692374110221863, 0.3704914450645447, -0.2981066107749939, 0.020922746509313583, 0.26188331842422485, -0.055836595594882965], [0.09242310374975204, -0.14034216105937958, -0.04795004799962044, 0.3849745988845825, 0.00523324916139245, 0.0024902191944420338, 0.06771587580442429, -0.12363329529762268, 0.10210085660219193, -0.003120268927887082, -0.17126424610614777, 0.23954236507415771, 0.14107510447502136, 0.01953067071735859, -0.018824521452188492, -0.007135245017707348, 0.08952036499977112, 0.030956903472542763, 0.16214369237422943, -0.09769129753112793], [0.08643671125173569, 0.10131406038999557, -0.07632230222225189, 0.6843934655189514, -0.08555471897125244, 0.1089252233505249, -0.004923664964735508, 0.11169502139091492, 0.11677555739879608, -0.01224014163017273, 0.21383467316627502, 0.03200239688158035, -0.3484007716178894, 0.10365327447652817, 0.048391833901405334, 0.26760953664779663, -0.011086054146289825, 0.04876697435975075, -0.017966631799936295, -0.03380005806684494], [-0.04705724120140076, 0.08678794652223587, 0.02327115833759308, -0.19598117470741272, -0.004627708345651627, 0.028477808460593224, 0.022844240069389343, 0.02046072855591774, -0.08118975907564163, -0.0771772488951683, -0.0942290648818016, 0.1648113876581192, 0.005582690238952637, 0.13003844022750854, 0.15133726596832275, -0.09100579470396042, -0.06514058262109756, 0.00020437325292732567, -0.01307734940201044, 0.023205628618597984], [0.025374937802553177, 0.0156972948461771, -0.07355335354804993, -0.05543864890933037, -0.02628152258694172, 0.1672411859035492, 0.018992962315678596, 0.1717415302991867, -0.10537184029817581, -0.035301923751831055, 0.013636404648423195, 0.028925076127052307, 0.016259143128991127, 0.07513641566038132, -0.03060804307460785, 0.08531413227319717, 0.19457001984119415, -0.054411761462688446, -0.015000001527369022, -0.02221040055155754], [-0.094626784324646, 0.06376157701015472, 0.04544547200202942, 1.4233450889587402, 0.013085538521409035, 0.5587224364280701, -0.017023829743266106, -0.049995195120573044, -0.14070139825344086, 0.036078646779060364, -0.22853489220142365, 0.262397438287735, 0.18503525853157043, -0.29689452052116394, 0.16159027814865112, 0.0975148007273674, -0.004965212196111679, -0.04468398541212082, 0.044559296220541, 0.08545982837677002], [0.11097975820302963, -0.2286832183599472, -0.09415793418884277, 0.16433587670326233, 0.16326431930065155, 0.010512691922485828, 0.03447922319173813, -0.4832073450088501, -0.04713316261768341, -0.01486942358314991, -0.45312249660491943, 0.32356134057044983, 0.09146278351545334, 0.022248005494475365, 0.021399952471256256, 0.18890313804149628, -0.21203812956809998, 0.020843790844082832, 0.3403998911380768, -0.11009803414344788], [0.17021843791007996, -0.21939712762832642, -0.024863943457603455, 0.056494779884815216, -0.0909394770860672, -0.01711537130177021, 0.13623830676078796, -0.23664113879203796, 0.07589621841907501, -0.11111149936914444, -0.07618560642004013, 0.5184726119041443, 0.05050244182348251, 0.04879187047481537, -0.02101496234536171, 0.07979676127433777, -0.10144391655921936, -0.06317464262247086, 0.3206872045993805, -0.11424627900123596], [-0.11243773996829987, 0.16975872218608856, -0.049324583262205124, -0.10680825263261795, 0.1240045353770256, 0.026228811591863632, -0.02598201483488083, -0.09432289749383926, -0.05836093798279762, -0.03729398548603058, -0.05491717532277107, 0.18721476197242737, -0.0551135316491127, 0.25382694602012634, 0.22895397245883942, -0.041164085268974304, -0.03840427100658417, 0.02952132187783718, -0.048089779913425446, -0.050296373665332794], [0.16173236072063446, -0.1993689090013504, -0.025418834760785103, -0.04473775997757912, -0.11852329969406128, -0.034445371478796005, 0.14399531483650208, -0.28151649236679077, -0.026722831651568413, -0.1450781226158142, 0.04600973799824715, 0.411517471075058, -0.013373401947319508, 0.07116705924272537, -0.09295292943716049, 0.02226312831044197, -0.15174734592437744, -0.004159027244895697, 0.33441826701164246, -0.07303421199321747], [0.35509976744651794, 0.29429197311401367, 0.06438402086496353, 0.01902543008327484, 0.2000151127576828, -0.1884736269712448, 0.11507916450500488, 0.4162648618221283, 0.29665687680244446, -0.13772670924663544, 0.06725692749023438, 0.1477157175540924, 0.13550369441509247, 0.17824898660182953, -0.19714194536209106, -0.2580008804798126, 0.025252293795347214, 0.025095341727137566, 0.1606520116329193, -0.05332905799150467], [-0.013341107405722141, 0.2535897493362427, 0.04161394014954567, 0.06883163750171661, 0.4150868356227875, -0.040193550288677216, 0.0035165222361683846, 0.31000539660453796, 0.31726184487342834, 0.008071202784776688, 0.12595541775226593, 0.09739315509796143, 0.0381263829767704, 0.023249005898833275, -0.005394394509494305, 0.11538156121969223, 0.07557274401187897, 0.07970541715621948, 0.14623279869556427, -0.05263350531458855], [0.05080718174576759, -0.18279410898685455, 0.670582115650177, -0.0010332317324355245, -0.017256993800401688, 0.15452514588832855, 0.02113146148622036, 0.09333010762929916, 0.03665856644511223, 0.390815407037735, -0.01685556024312973, -0.19513177871704102, 0.07909124344587326, 0.08296805620193481, 0.008677223697304726, -0.10049491375684738, -0.09699010848999023, -0.25282350182533264, 0.07877988368272781, 0.19157643616199493], [0.34854140877723694, -0.06786853820085526, 0.18184234201908112, -0.03620816022157669, -0.008388809859752655, -0.07729491591453552, 0.022703714668750763, 0.09957996755838394, 0.21520596742630005, 0.2407291978597641, -0.1426474004983902, -0.03042643703520298, -0.7346810698509216, -0.2856317460536957, -0.08349508047103882, -1.5425690412521362, 0.24655063450336456, -0.1377865970134735, -0.1013859435915947, 0.10380396246910095], [0.023270729929208755, 0.16559283435344696, 0.05751872435212135, -0.12333990633487701, 0.1331033557653427, -0.04632231220602989, 0.06948666274547577, -0.07342277467250824, 0.4155481159687042, 0.031628262251615524, 0.06801865249872208, 0.28133395314216614, -0.07467992603778839, -0.024032115936279297, 0.03879278898239136, -0.04663056135177612, 0.3069164752960205, -0.055550627410411835, -0.028808850795030594, 0.10589302331209183], [-0.07994135469198227, -0.3531914949417114, -0.042473696172237396, 0.21299788355827332, -0.2046932876110077, 0.14617986977100372, 0.056616783142089844, -0.13004601001739502, -0.054856620728969574, -0.193269282579422, -0.09223861992359161, 0.05275769531726837, 0.23093409836292267, 0.1425422877073288, 0.20042537152767181, 0.6187441945075989, 0.10854950547218323, -0.06064745411276817, -0.028970196843147278, 0.01897442154586315], [-0.008825340308248997, -0.19868849217891693, -0.05563920736312866, 0.029077665880322456, -0.30688557028770447, -0.005805502645671368, 0.2591962516307831, 0.026000838726758957, -0.12135323137044907, 0.2565656900405884, 0.01288522593677044, 0.05798601731657982, -0.05889879912137985, 0.037091825157403946, 0.03310758247971535, 0.19216619431972504, -0.020624397322535515, 0.20261304080486298, 0.13194173574447632, 0.048046305775642395], [0.10611769556999207, -0.12921325862407684, -0.019444655627012253, 0.011038809083402157, -0.30790233612060547, -0.19118303060531616, 0.12577399611473083, -0.007773712743073702, -0.4185737073421478, -0.024433473125100136, -0.22180761396884918, -0.06867578625679016, 0.020353002473711967, -0.18055352568626404, 0.10051320493221283, 0.1353358030319214, -0.07005307823419571, -0.051324184983968735, -0.17295359075069427, 0.10401985049247742], [0.12309808284044266, -0.3950323462486267, 0.16823717951774597, 0.036197908222675323, -0.38869231939315796, -0.019828328862786293, 0.32781997323036194, 0.4012022614479065, 0.04046754166483879, -0.018266253173351288, 0.00816302839666605, 0.09636817872524261, 0.026263324543833733, -0.005530999973416328, 0.08411622792482376, 0.06076953932642937, 0.49473047256469727, 0.027326475828886032, 0.08498720824718475, -0.12375608831644058], [-0.04890126734972, 0.043945495039224625, -0.2037939429283142, 0.036075565963983536, -0.02196553163230419, 0.03686269745230675, -0.1282215714454651, -0.00027981612947769463, 0.07427982240915298, 0.440934419631958, 0.0036378090735524893, 0.13870678842067719, 0.09413808584213257, -0.039115943014621735, -0.14937171339988708, -0.10344059765338898, 0.11581394076347351, 0.005893621128052473, 0.03792306408286095, -0.3830949664115906], [-0.08966592699289322, -0.04755470156669617, -0.15319639444351196, -0.05390943959355354, -0.03311106935143471, 0.15643879771232605, 0.16723428666591644, 0.0953817293047905, 0.4027038514614105, 0.09516488015651703, 0.5217076539993286, -0.010886884294450283, -0.08987359702587128, -0.13519950211048126, -0.20777548849582672, -0.488656222820282, 0.057710200548172, -0.07895052433013916, -0.09820724278688431, 0.08484507352113724], [-0.0680658370256424, -0.14070138335227966, -0.06223156675696373, -0.13241781294345856, -0.07837440818548203, 0.17628797888755798, 0.2172793596982956, -0.0926956981420517, 0.13817328214645386, -0.026741813868284225, 0.16610312461853027, 0.1944715529680252, -0.12702831625938416, 0.02702576108276844, 0.03762087598443031, -0.029538385570049286, 0.2952074706554413, -0.0075170909985899925, 0.18129464983940125, -0.12915737926959991], [-0.003120254725217819, -0.02001389116048813, -0.0569545142352581, 0.02358269691467285, 0.09491302818059921, -0.28632426261901855, -0.24151824414730072, -0.2500614821910858, -0.822516679763794, -0.20017658174037933, 0.33902817964553833, -0.16613158583641052, 1.0689897537231445, 0.13783659040927887, 0.26698580384254456, 2.596982479095459, -0.11005663871765137, 0.012772192247211933, -0.14122503995895386, 0.018924091011285782], [-0.07058394700288773, 0.12549161911010742, -0.003518438898026943, 0.014432569965720177, 0.07095083594322205, -0.17359404265880585, 0.12849970161914825, 0.12214195728302002, -0.058310672640800476, 0.30510762333869934, -0.017590397968888283, -0.09024759382009506, -0.05180338770151138, 0.2147464007139206, 0.00024409103207290173, 0.17641471326351166, 0.12978298962116241, -0.3009089529514313, -0.9365787506103516, 0.3197709023952484], [-0.13855724036693573, 0.28868168592453003, 0.1229807585477829, 0.3491503596305847, 0.2758948802947998, 0.2511873245239258, 0.06767795234918594, -0.1735174059867859, 0.11436659842729568, 0.012376238591969013, 0.21288038790225983, 0.4050825238227844, 0.1495424211025238, 0.10145039111375809, 0.17734086513519287, -0.2252764105796814, 0.24182966351509094, 0.0818416178226471, -0.16367684304714203, -0.08337900787591934], [0.6175146698951721, 0.2609499990940094, -0.0040413993410766125, -0.03234461694955826, 0.6733377575874329, -0.5483604669570923, -0.33939090371131897, -0.7446943521499634, -1.7003909349441528, -0.016322657465934753, 0.7761558294296265, -0.08044911921024323, -0.13652299344539642, -0.24786655604839325, 0.7348629832267761, 0.31343549489974976, -0.318867027759552, -0.00295432866550982, 0.20388059318065643, 0.015207264572381973], [0.011660730466246605, -0.20464813709259033, -0.06543385237455368, 0.030116740614175797, -0.33702757954597473, 0.02997627668082714, 0.05114854499697685, 0.30826279520988464, 0.20057283341884613, -0.04191548749804497, 0.03962215036153793, 0.12095176428556442, 0.008435417897999287, -0.10660865902900696, 0.09739147871732712, 0.1470581740140915, 0.24979038536548615, 0.005077372770756483, -0.22768546640872955, 0.03409717231988907], [0.03015247732400894, 0.05184375122189522, 0.09947936236858368, -0.030093686655163765, 0.03455285355448723, -0.09707129746675491, -0.05964725464582443, -0.07143346220254898, -0.03889748826622963, -0.16082881391048431, -0.10851749777793884, 0.041856296360492706, -0.010777094401419163, 0.05826452374458313, 0.07595846056938171, 0.08462196588516235, 0.013870642520487309, 0.5633640289306641, -0.028452659025788307, 0.5218896269798279], [-0.24137239158153534, 0.05656534805893898, -0.04767647013068199, 0.05565493926405907, 0.31618809700012207, -0.26995792984962463, -0.1383158564567566, 0.06898486614227295, 0.10015612095594406, -0.17939670383930206, 0.12487931549549103, -0.1427067369222641, 0.13495853543281555, 0.7769847512245178, 0.059054650366306305, 0.05307036265730858, 0.2258128672838211, 0.12595868110656738, 0.27390357851982117, -0.19040146470069885], [-0.08199441432952881, -0.07862842082977295, -0.09462200105190277, 0.05196966230869293, -0.06046159565448761, 0.09966325014829636, -0.483206570148468, 0.13160929083824158, 0.035951387137174606, 0.16439373791217804, 0.023410124704241753, 0.024041390046477318, 0.04010164737701416, 0.040138471871614456, -0.1675904393196106, -0.06217692792415619, 0.2572091519832611, -0.37604373693466187, 0.021144192665815353, 0.26450902223587036], [0.1448337435722351, -0.021069642156362534, 0.04258185625076294, 0.011793533340096474, 0.19896841049194336, -0.21317055821418762, -0.11877947300672531, -0.17321902513504028, 0.20924656093120575, -0.05080891400575638, -0.050017837435007095, 0.1536148637533188, 0.04886460676789284, -0.033239033073186874, 0.007949949242174625, 0.05406641215085983, -0.09006740897893906, -0.08369477093219757, 0.07054026424884796, -0.05235422030091286], [0.2097124457359314, -0.00793154165148735, -0.0296317245811224, 0.2795342206954956, 0.06723764538764954, -0.041875097900629044, -0.018166158348321915, -0.16044969856739044, -0.3140426278114319, -0.056969933211803436, -0.09557108581066132, 0.1707843393087387, -0.0035810167901217937, 0.09182406961917877, 0.08448344469070435, 0.15209634602069855, -0.05660613253712654, -0.18936686217784882, 0.20427443087100983, -4.475489549804479e-05], [0.16096138954162598, -0.03937416151165962, 0.040869735181331635, 0.020924551412463188, 0.02614879608154297, 0.031107312068343163, 0.03333564102649689, -0.046230923384428024, 0.027283847332000732, -0.12346283346414566, 0.060187291353940964, 0.021927310153841972, -0.0013858773745596409, 0.015107116661965847, -0.02890571393072605, 0.04041718319058418, -0.03688403591513634, -0.028813974931836128, 0.08341377228498459, -0.02627643011510372], [-0.2586340010166168, 0.026968378573656082, 0.0071251303888857365, 0.16286543011665344, 0.30489304661750793, 0.5210701823234558, -0.03939954191446304, -0.2166493833065033, -0.12451154738664627, -0.09386905282735825, -0.10909386724233627, 0.19273100793361664, 1.0938771963119507, -0.12193853408098221, 0.03881450742483139, 0.6852328181266785, -0.17840367555618286, -0.010649519972503185, 0.22779667377471924, -0.09836668521165848], [0.09629956632852554, 0.12053534388542175, -0.02389930747449398, 0.29544955492019653, 0.2980022132396698, -0.03648967668414116, -0.06387466937303543, -0.26335158944129944, 0.06801358610391617, -0.0669272169470787, -0.30815935134887695, 0.17038770020008087, 0.15586337447166443, 0.08920654654502869, -0.0375579334795475, 0.17963044345378876, -0.28873735666275024, -0.08571970462799072, 0.11088503152132034, 0.02753344736993313], [-0.11681821942329407, -0.10739806294441223, 0.03003259189426899, -0.2888660430908203, 0.05222180485725403, -0.06978294253349304, 0.058255624026060104, -0.1641046404838562, 0.16032813489437103, -0.06534966081380844, -0.08071909099817276, 0.18359699845314026, -0.14762309193611145, 0.1283196359872818, 0.12178894877433777, -0.28235509991645813, -0.009450831450521946, -0.1054249107837677, 0.09822779893875122, -0.012572173960506916], [0.21179629862308502, -0.015338398516178131, -0.03370334208011627, 0.003489234484732151, 0.038420021533966064, -3.6293982702773064e-05, -0.047122690826654434, 0.049675457179546356, 0.0017168038757517934, -0.019503643736243248, -0.19082659482955933, 0.1456250697374344, -0.027803612872958183, 0.05263161286711693, -0.13602615892887115, 0.10787753015756607, -0.049350764602422714, 0.00020537838281597942, -0.024449104443192482, -0.028214488178491592], [-0.0253898948431015, -0.10413219779729843, -0.005368444602936506, 0.4768427908420563, 0.20112384855747223, 0.15141209959983826, -0.027592210099101067, -0.301697701215744, 0.06089629977941513, -0.04850568249821663, -0.09227549284696579, 0.3806639015674591, 0.07946562021970749, -0.021358700469136238, 0.07240729033946991, 0.0009045074111782014, -0.23659418523311615, -0.016211433336138725, 0.099770687520504, 0.006792660336941481], [-0.20581172406673431, -0.23210658133029938, 0.019074169918894768, 0.3648171126842499, 0.09827690571546555, 0.3688587546348572, 0.05741066113114357, -0.456414133310318, 0.010942138731479645, -0.15233199298381805, -0.28266090154647827, 0.4870227873325348, -0.01603923924267292, -0.025608835741877556, 0.2053067684173584, 0.12862266600131989, -0.046150386333465576, -0.06950059533119202, 0.09727044403553009, -0.05600247532129288], [-0.04356549680233002, -0.10955564677715302, 0.04824482277035713, 0.27043816447257996, 0.011569180525839329, 0.025383658707141876, 0.012870821170508862, -0.15557590126991272, 0.0031877520959824324, -0.27763625979423523, -0.12770171463489532, 0.1760808229446411, 0.10292905569076538, -0.04942011833190918, -0.054483212530612946, 0.06117682904005051, -0.05879320576786995, 0.047339171171188354, -0.09618672728538513, -0.060585200786590576], [-0.005585885141044855, -0.05334772542119026, 0.20454227924346924, 0.5834986567497253, -0.023296616971492767, 0.1819033920764923, 0.06176764518022537, -0.10956846177577972, -0.11755659431219101, -0.025809157639741898, -0.5114327669143677, 0.18989022076129913, -0.20102277398109436, -0.09591840207576752, 0.05245489999651909, 0.27235880494117737, -0.21986441314220428, 0.013125291094183922, 0.011120540089905262, -0.14372563362121582], [-0.03414750471711159, -0.20253939926624298, 0.003908997401595116, 0.5921006202697754, 0.024061230942606926, 0.10364796221256256, 0.07111465185880661, -0.2627376616001129, 0.18469104170799255, -0.04761647805571556, -0.21699661016464233, 0.46731817722320557, 0.349833220243454, -0.010209199972450733, 0.05459157004952431, -0.08707469701766968, -0.013550407253205776, 0.037656404078006744, 0.05074209347367287, -0.06931262463331223], [-0.21074357628822327, -0.03648117184638977, -0.02729780226945877, -0.10707336664199829, -0.08546046167612076, 0.12940149009227753, 0.0916469395160675, -0.18095599114894867, 0.1184781938791275, -0.07627842575311661, -0.10634982585906982, 0.15037108957767487, 0.20269957184791565, 0.10644911974668503, 0.21970342099666595, -0.2322780340909958, 0.08326039463281631, 0.002726625418290496, -0.10599949955940247, 0.05373287573456764], [0.18994395434856415, -0.06511323153972626, -0.01566394977271557, 0.1345035284757614, 0.027301546186208725, -0.019176548346877098, 0.0325959175825119, -0.1122218668460846, 0.07879582792520523, -0.09542319178581238, -0.09088807553052902, 0.24496515095233917, -0.018362611532211304, 0.06994877755641937, -0.044511791318655014, 0.03594490513205528, 0.024817466735839844, -0.07161302119493484, 0.1519034057855606, -0.010822943411767483], [0.09980142116546631, -0.011999194510281086, -0.05410890653729439, 0.004545025527477264, 0.12511248886585236, 0.055908091366291046, -0.042494941502809525, 0.06860682368278503, -0.09980972111225128, -0.03753184154629707, -0.03705598786473274, 0.04404560104012489, -0.07929319888353348, 0.11734829843044281, -0.004374027252197266, 0.02895958535373211, 0.02420608140528202, -0.021999793127179146, 0.08622024208307266, -0.03136301413178444], [-0.007546077948063612, -0.15702369809150696, 0.03319530189037323, 0.8027952313423157, 0.260692834854126, 0.16091132164001465, -0.05953092500567436, -0.4445537030696869, 0.07491516321897507, -0.07835739850997925, -0.3358156979084015, 0.40246549248695374, -0.23367495834827423, -0.05832185968756676, 0.19216090440750122, 0.012855006381869316, -0.13822613656520844, -0.10851357877254486, 0.04663855955004692, 0.012817300856113434], [0.10136773437261581, -0.004914994351565838, -0.03053314797580242, 0.18056270480155945, 0.2710754871368408, -0.045151177793741226, -0.10350801795721054, -0.1677592694759369, 0.10838682949542999, -0.11105387657880783, -0.19296181201934814, -0.12060171365737915, 0.021923135966062546, 0.16101759672164917, -0.03652559220790863, 0.11677013337612152, -0.5003255605697632, 0.02950729802250862, 0.09956855326890945, 0.08586527407169342], [-0.07566187530755997, -0.0205867700278759, 0.01677897945046425, -0.02369934320449829, 0.033029332756996155, 0.13432322442531586, 0.03385787457227707, -0.09958639740943909, 0.018429894000291824, -0.011664268560707569, -0.07755868136882782, 0.09305907785892487, -0.03753518685698509, 0.053244009613990784, 0.0633709728717804, 0.015147079713642597, -0.06169106438755989, -0.11427558958530426, 0.10122327506542206, 0.007887032814323902], [0.05043543875217438, -0.04446442425251007, -0.036403875797986984, -0.09940800070762634, 0.1379515677690506, 0.04312743991613388, 0.00015300836821552366, -0.20420381426811218, 0.014559882692992687, -0.051348667591810226, -0.13459749519824982, 0.26703357696533203, -0.07501181215047836, 0.20145928859710693, 0.036573778837919235, 0.10818927735090256, -0.03012189082801342, -0.06713766604661942, 0.28051280975341797, -0.013797507621347904], [-0.014661578461527824, -0.07902361452579498, -0.0016952547011896968, 0.06022948399186134, 0.06634612381458282, 0.09143242239952087, 0.0037333916407078505, -0.1822035312652588, 0.06658726930618286, -0.11308635771274567, -0.0796838253736496, 0.16810722649097443, -0.04138258844614029, -0.024940572679042816, 0.047976985573768616, -0.014931282959878445, -0.06984706223011017, -0.062390390783548355, 0.019200794398784637, -0.10069718211889267]], "rec.bias_ih_l0": [0.11327506601810455, -0.06004004180431366, -0.7467846870422363, 0.43559199571609497, -0.49327829480171204, 0.17407706379890442, -0.507744312286377, -0.38634276390075684, 0.358039528131485, -0.5167101621627808, -0.49506330490112305, 0.08777783066034317, 0.4004630446434021, 0.29646366834640503, 0.08858241140842438, 0.45142287015914917, -0.4312155544757843, -0.49495357275009155, 0.26244673132896423, -0.3911014795303345, 0.27326667308807373, 0.29393404722213745, 1.0997848510742188, 0.12824682891368866, 0.8215089440345764, 0.25389593839645386, 0.6872679591178894, 0.7766376733779907, -0.02799566090106964, 0.8961445689201355, 1.006345272064209, 0.44067874550819397, 0.2760400176048279, 0.2747586667537689, 0.24399900436401367, -0.29115724563598633, 0.7160374522209167, 0.870276927947998, 0.1892874389886856, 0.7950259447097778, 0.07628864794969559, -0.24198639392852783, 0.06764112412929535, 0.4094829261302948, -0.1294565200805664, -0.012370428070425987, -0.016197610646486282, -0.13628366589546204, 0.27317196130752563, -0.061408624053001404, -6.589582335436717e-05, 0.2509515881538391, 0.08119161427021027, 0.2903769910335541, -0.13448543846607208, -0.06980637460947037, -0.02631223201751709, 0.02857769839465618, 0.12036911398172379, 0.14569367468357086, 0.25658947229385376, 0.2569269835948944, 0.05339052155613899, 0.18836596608161926, 0.15660561621189117, 0.32459917664527893, 0.26893261075019836, 0.4510047435760498, 0.4094446301460266, 0.2526693344116211, 0.2269531786441803, 0.42800912261009216, 0.2409144937992096, 0.35535943508148193, 0.2224363088607788, 0.43607297539711, 0.15085716545581818, 0.2275744378566742, 0.35369980335235596, 0.2559005618095398], "rec.bias_hh_l0": [0.11566483229398727, 0.09990394860506058, -0.7193816304206848, 0.43559199571609497, -0.5838567018508911, 0.19502252340316772, -0.5428544878959656, -0.31956401467323303, 0.4201466739177704, -0.5365889668464661, -0.6750202775001526, 0.1339486837387085, 0.4144550561904907, 0.2967394292354584, 0.06485752016305923, 0.4520811140537262, -0.4462850093841553, -0.4195777177810669, 0.26118165254592896, -0.40360358357429504, 0.2797679007053375, 0.3325766921043396, 1.1046303510665894, 0.13849230110645294, 0.6968225240707397, 0.2730497419834137, 0.6627926230430603, 0.9185574650764465, -0.13132594525814056, 0.8245909214019775, 1.0708779096603394, 0.48245036602020264, 0.08255277574062347, 0.27431008219718933, 0.21577198803424835, -0.22721421718597412, 0.6923264861106873, 0.9480865597724915, 0.17216964066028595, 0.7779536247253418, 0.21691368520259857, -0.09538675099611282, 0.07912956178188324, 0.41045746207237244, 0.21756868064403534, -0.18529193103313446, 0.05690578371286392, -0.30466321110725403, 0.1670818030834198, -0.032419998198747635, 0.11041019856929779, 0.3063415586948395, -0.1097826361656189, 0.1884416937828064, -0.1406347155570984, -0.06603513658046722, 0.040718547999858856, -0.1593869924545288, 0.1455458104610443, -0.052455976605415344, 0.27060601115226746, 0.2505296468734741, 0.024972666054964066, 0.203456312417984, 0.3198351263999939, 0.31845271587371826, 0.3039199411869049, 0.42791080474853516, 0.388164222240448, 0.2471504658460617, 0.04321623221039772, 0.46632692217826843, 0.1751389056444168, 0.3548309803009033, 0.2754180133342743, 0.43529200553894043, 0.14263875782489777, 0.08277840912342072, 0.353282630443573, 0.30113542079925537], "lin.weight": [[-0.20491111278533936, 0.271614134311676, 0.10208789259195328, 0.005210674833506346, -0.12141764909029007, -0.4928331673145294, 0.027857594192028046, 0.09166303277015686, 0.03304475173354149, -1.0239086151123047, -0.07415611296892166, 0.2967434227466583, -0.3314908444881439, -0.7928630709648132, 0.09555134922266006, 0.38735076785087585, 0.2729911208152771, 0.7256827354431152, -0.843886137008667, -1.162651777267456]], "lin.bias": [0.05740906670689583]}}