{"model_data": {"model": "SimpleRNN", "input_size": 1, "skip": 1, "output_size": 1, "unit_type": "LSTM", "num_layers": 1, "hidden_size": 20, "bias_fl": true}, "state_dict": {"rec.weight_ih_l0": [[0.018961001187562943], [0.06355024129152298], [0.14702171087265015], [-0.006150644272565842], [0.004807077348232269], [-0.002430965192615986], [0.049404315650463104], [0.09649594128131866], [0.0349649041891098], [0.039723578840494156], [0.0002754770393949002], [0.04248862341046333], [0.07287432253360748], [0.05406643822789192], [0.0179461557418108], [-0.054232943803071976], [-0.06838715076446533], [-0.002732411725446582], [0.08910726010799408], [-0.022306479513645172], [-0.040081240236759186], [-0.010642734356224537], [0.2540183365345001], [0.00038841902278363705], [0.007535658776760101], [0.06448914110660553], [0.1820259392261505], [-0.0063066850416362286], [-0.0934075266122818], [0.009527169167995453], [-0.05707264319062233], [0.09607914090156555], [0.04133579507470131], [0.05266031250357628], [0.008059772662818432], [-0.144155353307724], [0.018811648711562157], [-0.053277794271707535], [0.09834718704223633], [0.1390543133020401], [0.09611004590988159], [0.10539834946393967], [0.8832716941833496], [-1.2385262250900269], [-0.3544396758079529], [0.2107575386762619], [2.772141456604004], [0.308198481798172], [-0.45592200756073], [-0.5927004218101501], [-0.012942965142428875], [0.2709617018699646], [-0.5929187536239624], [-0.2974797189235687], [0.3080269694328308], [-0.6065959334373474], [0.3161856234073639], [-0.9760133028030396], [-0.08100961148738861], [-0.0013435037108138204], [0.07545100897550583], [0.03294288367033005], [0.15577757358551025], [-0.005476093385368586], [0.005287352949380875], [0.012539556249976158], [0.01090956013649702], [-0.030865872278809547], [-0.0016354020917788148], [-0.03615375608205795], [0.106977678835392], [0.009151319041848183], [0.04832341521978378], [0.0440862737596035], [0.02711511217057705], [-0.08769600093364716], [-0.1098099797964096], [-0.04201103746891022], [0.09451093524694443], [0.15867073833942413]], "rec.weight_hh_l0": [[-0.093097023665905, 0.09521497786045074, -0.016687404364347458, 0.061438366770744324, 0.08678693324327469, -0.04848108068108559, 0.07033039629459381, -0.11998579651117325, -0.04989093169569969, 0.05823463946580887, -0.06931015849113464, 0.07859121263027191, 0.15257315337657928, -0.04030643776059151, -0.028878772631287575, -0.0822732225060463, -0.08137640357017517, 0.27297866344451904, -0.18968680500984192, 0.06047535315155983], [-0.06417859345674515, -0.059501856565475464, 0.2054784744977951, -0.08495458960533142, 0.07559602707624435, 0.09156571328639984, 0.06523865461349487, 0.08035897463560104, 0.24183152616024017, 0.17797864973545074, -0.00504394480958581, 0.18142566084861755, -0.28490588068962097, 0.02473486214876175, -0.05735739320516586, -0.0449117086827755, -0.08148025721311569, 0.007858253084123135, -0.024749500676989555, 0.020746178925037384], [-0.021367937326431274, 0.19024938344955444, 0.1124926507472992, -0.06646879762411118, -0.23521418869495392, -0.13282623887062073, 0.2636270523071289, 0.10028260946273804, 0.13201233744621277, 0.007077563088387251, -0.027279963716864586, -0.023643692955374718, -0.06222826987504959, -0.10784900933504105, 0.177094504237175, 0.08300570398569107, 0.25266560912132263, -0.18650756776332855, -0.18360817432403564, 0.030980685725808144], [0.13965904712677002, -0.05305468663573265, 0.21103382110595703, -0.0025182210374623537, -0.07316785305738449, 0.03338693454861641, -0.15695255994796753, -0.07605095207691193, 0.15549561381340027, 0.08211510628461838, 0.058397598564624786, 0.1016438752412796, 0.13443131744861603, 0.03285304829478264, -0.06273013353347778, 0.17166389524936676, -0.23174233734607697, -0.25132906436920166, 0.07504566013813019, 0.08805619925260544], [-0.2966229021549225, 0.2251928150653839, 0.006278094369918108, 0.1234961599111557, 0.03791041672229767, -0.06351900100708008, -0.009746428579092026, -0.012782677076756954, -0.002355364151299, 0.01949041150510311, 0.05857556313276291, 0.13965313136577606, -0.010931441560387611, -0.034970059990882874, -0.0037576602771878242, -0.08349601179361343, -0.09306982904672623, 0.20396491885185242, -0.007402348797768354, 0.10495942831039429], [-0.010659333318471909, 0.1853255331516266, -0.09620311111211777, -0.05421322584152222, -0.09028512984514236, 0.032401375472545624, 0.055756762623786926, 0.045905232429504395, -0.16087326407432556, 0.08809620141983032, -0.05600534379482269, -0.036703478544950485, 0.11614040285348892, -0.08272895216941833, -0.02513786591589451, -0.0045271399430930614, -0.1049085184931755, 0.0838000625371933, -0.049005161970853806, -0.16485853493213654], [-0.08958235383033752, 0.17725414037704468, 0.1227230504155159, 0.09568164497613907, -0.0653444454073906, -0.06720012426376343, 0.2655405104160309, -0.20841236412525177, 0.016874562948942184, -0.16249506175518036, 0.14802595973014832, -0.05565363168716431, 0.12950162589550018, 0.006906823720782995, 0.08786793053150177, 0.12155693769454956, -0.04651673138141632, -0.013201354071497917, 0.04693380370736122, 0.03898894041776657], [0.17437143623828888, 0.21840055286884308, -0.36784490942955017, -0.46501657366752625, 0.02347656525671482, -0.12636315822601318, -0.14801025390625, -0.12338429689407349, 0.27702197432518005, 0.11480137705802917, -0.19185422360897064, -0.07073690742254257, -0.041338708251714706, 0.15819606184959412, -0.14507624506950378, -0.039814502000808716, 0.3818625509738922, 0.025172315537929535, 0.07748275995254517, -0.12262427061796188], [0.5586298704147339, 0.8814626932144165, -0.4066827893257141, -0.21737216413021088, 0.05786314979195595, -0.17645907402038574, -0.20683670043945312, -0.24046015739440918, -0.09427088499069214, 0.16421863436698914, -0.4777631163597107, -0.18287737667560577, 0.37812885642051697, -0.09441795200109482, 0.5749868154525757, -0.11712374538183212, -0.36213257908821106, 0.2941432595252991, -0.3336729407310486, 0.10506461560726166], [1.0089682340621948, 0.20559990406036377, -0.6977317333221436, -0.7612199783325195, -0.00922046322375536, 0.04008423909544945, -0.7933689951896667, 0.003553384682163596, -0.0475739911198616, 0.33622509241104126, -0.3846063017845154, -0.611496090888977, 0.3985498249530792, -0.43774503469467163, -0.29709747433662415, -0.07668156921863556, 0.13818499445915222, -0.30725911259651184, 0.24358250200748444, -0.06750676780939102], [-0.16069646179676056, 0.07099449634552002, 0.04603011533617973, 0.013761874288320541, -0.006600779015570879, -0.05834047868847847, 0.044052839279174805, 0.04177769273519516, -0.04206765815615654, -0.06799394637346268, 0.09195294976234436, 0.12459740042686462, 0.05033188685774803, -0.14186961948871613, -0.00595944095402956, -0.04602273181080818, -0.0560915544629097, 0.02766263112425804, -0.07158896327018738, 0.07920469343662262], [-0.14011532068252563, -0.034155599772930145, 0.05869966000318527, 0.19882822036743164, 0.10694213211536407, -0.08488693088293076, -0.0753600001335144, 0.022054921835660934, 0.14622846245765686, 0.08402670174837112, 0.13273566961288452, 0.22379204630851746, -0.2804207503795624, -0.00832082238048315, -0.10630214959383011, -0.06917940080165863, -0.16386418044567108, 0.13647036254405975, -0.027822917327284813, 0.030704010277986526], [-0.2658155560493469, -0.14924238622188568, 0.059592779725790024, -0.061695389449596405, -0.03775354102253914, 0.01824723370373249, 0.10916514694690704, 0.13467255234718323, -0.02663652040064335, -0.0038587257731705904, 0.06681700050830841, 0.04940954968333244, -0.021272359415888786, -0.06354789435863495, -0.04943011701107025, -0.037202510982751846, 0.007044849451631308, 0.16950364410877228, -0.07987207174301147, 0.10231014341115952], [0.17777584493160248, 0.06391429156064987, 0.024269167333841324, -0.04476030915975571, -0.04541968181729317, -0.07166434824466705, -0.026236435398459435, 0.0045893131755292416, -0.002603578846901655, -0.22764712572097778, 0.03900369256734848, -0.06133214011788368, 0.09392770379781723, -0.12594132125377655, -0.1137675866484642, 0.042698513716459274, 0.02987600862979889, -0.1644475758075714, 0.04000448063015938, 0.1876927763223648], [0.002059098333120346, -0.1303672045469284, 0.14791053533554077, 0.09084557741880417, 0.12519994378089905, -0.07253123074769974, 0.16754105687141418, 0.054595693945884705, -0.013653811998665333, -0.1619788110256195, -0.005683720111846924, -0.09633543342351913, 0.4376026690006256, 0.07724294811487198, -0.13216204941272736, 0.10439661145210266, 0.21604865789413452, -0.022251013666391373, -0.09198597818613052, 0.01791638508439064], [-0.01137282233685255, -0.16616302728652954, -0.07327386736869812, 0.0978599265217781, -0.2607567310333252, 0.060447823256254196, -0.03791474550962448, -0.004514708649367094, -0.11848036199808121, -0.058213718235492706, -0.0041301012970507145, 0.002197953639551997, 0.016836700960993767, -0.004411345813423395, 0.14613653719425201, -0.0413668230175972, -0.06378631293773651, -0.09485296159982681, -0.024875041097402573, -0.05161558836698532], [0.3269127905368805, -0.2500123679637909, 0.09303123503923416, 0.018003331497311592, -0.18041440844535828, 0.20815569162368774, 0.08878784626722336, -0.08135788887739182, 0.04426983743906021, 0.018200526013970375, 0.01670355349779129, -0.03507682681083679, -0.14050062000751495, 0.039471548050642014, -0.10787021368741989, 0.1896020770072937, -0.06393775343894958, -0.010600400157272816, 0.08346960693597794, -0.048735495656728745], [-0.33776912093162537, -0.15470491349697113, 0.05007648468017578, 0.2464895397424698, 0.07695113122463226, -0.00921447854489088, 0.004369121044874191, 0.1079961434006691, -0.029151851311326027, -0.06336361914873123, 0.1742640733718872, 0.02283702977001667, 0.09454920887947083, 0.01088255550712347, -0.021511636674404144, -0.024337396025657654, 0.04968210682272911, 0.2528262436389923, -0.007947522215545177, -0.0012027457123622298], [0.15107712149620056, 0.08597373962402344, -0.09445810317993164, -0.16383607685565948, 0.00639750761911273, -0.12964823842048645, -0.03716665506362915, 0.27759310603141785, -0.07624749839305878, 0.0772472470998764, -0.12858650088310242, -0.19035804271697998, 0.37142497301101685, -0.03287899121642113, -0.074528768658638, 0.047715332359075546, 0.10948112607002258, -0.10510669648647308, -0.03208412602543831, 0.07401309162378311], [0.7463089227676392, 1.276877999305725, -0.9213545918464661, -0.45904895663261414, 0.26107367873191833, -0.052321918308734894, -0.6447112560272217, -0.14484412968158722, -0.4312503933906555, 0.15171799063682556, -1.0202149152755737, -0.7104434370994568, 0.5846382975578308, -0.30386194586753845, 0.29440364241600037, 0.008234131149947643, -0.09639125317335129, -0.40459346771240234, -0.21896256506443024, -0.11058511584997177], [-0.43553468585014343, -0.016802527010440826, -0.20377595722675323, -0.0009525649365969002, 0.24642980098724365, -0.019879914820194244, -0.0914129763841629, 0.010408601723611355, -0.10689756274223328, 0.06198237091302872, 0.1710091382265091, 0.17200006544589996, -0.026601172983646393, -0.08445260673761368, -0.27520477771759033, -0.24162377417087555, -0.09003567695617676, 0.7372903227806091, -0.14058464765548706, 0.02973746880888939], [-0.08849282562732697, -0.05264788493514061, 0.3171441853046417, -0.07468082010746002, 0.08816739171743393, 0.1338566243648529, 0.060327526181936264, 0.17392116785049438, 0.24406974017620087, 0.3043328821659088, -0.026565635576844215, 0.03411703556776047, -0.1893972009420395, 0.05451076477766037, -0.14108926057815552, -0.02989443950355053, -0.054921120405197144, -0.09052549302577972, -0.06957335025072098, -0.0009270911104977131], [0.006235970184206963, -0.23511788249015808, 0.11027979850769043, -0.3128820061683655, -0.2084982693195343, -0.10225990414619446, 0.2869053781032562, -0.17880475521087646, 0.3777064085006714, -0.10990031808614731, -0.041870664805173874, 0.06589385867118835, -0.2720399498939514, -0.20251357555389404, 0.06033454090356827, 0.1874145120382309, 0.1895291954278946, -0.3054828345775604, -0.16216720640659332, 0.057877544313669205], [-0.029851403087377548, -0.24332711100578308, 0.24900126457214355, -0.14691996574401855, -0.11633442342281342, -0.06133750453591347, -0.14700712263584137, 0.05664949491620064, 0.24701061844825745, 0.015908554196357727, 0.06663154065608978, 0.03991642966866493, 0.11480215191841125, 0.03366415947675705, 0.017164450138807297, 0.344942182302475, -0.20336858928203583, -0.10295668989419937, 0.04029477387666702, 0.17976461350917816], [-0.17281067371368408, 0.07760697603225708, 0.013145482167601585, 0.00653904490172863, -0.1266406625509262, -0.015784798189997673, 0.08524409681558609, -0.06044866517186165, -0.026865441352128983, 0.11977507919073105, 0.12967392802238464, 0.11568575352430344, 0.12532374262809753, 0.0541810505092144, -0.13500607013702393, -0.051229532808065414, -0.05531856417655945, 0.0971338078379631, 0.05647348612546921, 0.14692382514476776], [-0.23773854970932007, 0.05577302351593971, 0.09473061561584473, -0.054512690752744675, -0.0831235721707344, 0.053033795207738876, 0.15065155923366547, 0.02589140273630619, -0.077725850045681, 0.15076695382595062, -0.043524064123630524, 0.12739624083042145, -0.009781303815543652, -0.06339642405509949, 0.06413749605417252, -0.01825534552335739, -0.10138563811779022, 0.14792010188102722, -0.1499556303024292, -0.16977636516094208], [-0.2784002125263214, -0.37558087706565857, 0.2821516692638397, 0.003049037419259548, 0.03018377162516117, -0.16041237115859985, 0.3521898090839386, 0.1229400485754013, 0.17268076539039612, -0.12201321870088577, 0.2716967463493347, 0.0037990130949765444, -0.2784644067287445, 0.19188322126865387, -0.27106910943984985, 0.10777159780263901, 0.0036155912093818188, 0.01060239877551794, 0.11738467961549759, 0.19295892119407654], [-0.5769721269607544, -0.22238445281982422, 0.15033522248268127, 0.11797986924648285, 0.09098902344703674, -0.10168540477752686, 0.19270853698253632, -0.09523595869541168, 0.21246686577796936, -0.1229676902294159, 0.05299506336450577, 0.18286675214767456, -0.06640024483203888, 0.04019847884774208, 0.214677095413208, -0.02720540016889572, -0.1029893308877945, 0.2373332977294922, -0.14486630260944366, -0.028285086154937744], [-0.5614576935768127, -0.3261064887046814, 0.15703976154327393, 0.298212468624115, -0.21277140080928802, 0.030253371223807335, 0.3057247996330261, 0.20532044768333435, -0.07304219156503677, -0.03769112005829811, 0.2596147358417511, 0.10866601020097733, -0.3807164132595062, 0.009320412762463093, -0.15904483199119568, 0.0693662166595459, -0.31433236598968506, 0.044323209673166275, 0.03755292668938637, -0.06131364032626152], [-1.327013373374939, -0.6704726219177246, 0.8754692077636719, 0.6967744827270508, -0.2320510447025299, -0.06824789941310883, 1.1442146301269531, 0.055185265839099884, -0.2772153317928314, 0.1023980900645256, 0.5509548783302307, 0.7692478895187378, -0.5903722047805786, -0.3341182470321655, 0.25895053148269653, 0.09179357439279556, -0.5023987889289856, 0.44024544954299927, -0.22895321249961853, -0.13390180468559265], [-0.22273239493370056, -0.04254346340894699, 0.11090407520532608, 0.09628894180059433, 0.011078494600951672, -0.012555340304970741, 0.0010208286112174392, 0.06551116704940796, -0.009708758443593979, -0.0729479268193245, 0.11239974945783615, 0.11964239925146103, -0.1890288144350052, -0.08739525824785233, -0.03732884302735329, -0.042996473610401154, 0.02656838484108448, 0.1569766104221344, 0.036256127059459686, 0.13479335606098175], [-0.014739876613020897, 0.04220051318407059, 0.06005438417196274, 0.2575363516807556, 0.14293351769447327, -0.14207564294338226, -0.20630009472370148, 0.07239198684692383, 0.2916918098926544, 0.1366390883922577, 0.0843145102262497, 0.18869568407535553, -0.4608401358127594, 0.08652143180370331, -0.2628706693649292, -0.14063788950443268, -0.10551287233829498, 0.029933614656329155, 0.017682362347841263, 0.07433504611253738], [-0.32640454173088074, -0.1664380431175232, -0.054072774946689606, -0.11136475205421448, -0.12478872388601303, 0.046161483973264694, 0.022904297336935997, 0.0653538703918457, -0.21291421353816986, 0.03301464021205902, 0.1050613597035408, -0.03812345117330551, -0.00985377561300993, -0.13363678753376007, -0.10586925595998764, -0.019095802679657936, 0.004340107087045908, 0.0447491817176342, -0.09717176854610443, 0.06398361176252365], [-0.11206181347370148, -0.2471536099910736, 0.2971560060977936, 0.07191058248281479, -0.13179954886436462, -0.06956012547016144, 0.18182268738746643, -0.020486054942011833, 0.023649156093597412, -0.4752267003059387, 0.15723741054534912, 0.06502175331115723, -0.00033552496461197734, -0.23293231427669525, 0.05620315670967102, 0.0993531346321106, 0.018956564366817474, -0.2109447866678238, 0.0061789811588823795, 0.27032893896102905], [-0.4771909713745117, -0.2122994363307953, -0.07971584051847458, 0.12402235716581345, -0.04234367609024048, -0.12124067544937134, 0.10899065434932709, 0.14993858337402344, 0.01741727814078331, 0.024570973590016365, -0.13164997100830078, 0.2183244377374649, -0.14927218854427338, 0.1524440348148346, 0.21261946856975555, -0.11297329515218735, -0.009650103747844696, -0.09801696985960007, -0.153054341673851, 0.0756589025259018], [-0.10563892871141434, -0.017050255089998245, -0.11872129142284393, 0.062363382428884506, -0.3643687963485718, 0.007866283878684044, -0.22543446719646454, -0.08733511716127396, -0.22612839937210083, -0.031907808035612106, 0.037133075296878815, 0.07984726876020432, -0.07942426204681396, 0.04712428152561188, 0.09594734758138657, -0.06608180701732635, -0.19828224182128906, -0.043350521475076675, 0.06299885362386703, -0.036385539919137955], [-0.28631898760795593, -0.404620498418808, 0.07253409177064896, -0.054429080337285995, -0.045739851891994476, 0.10005012899637222, 0.11214782297611237, 0.011335127986967564, 0.16589899361133575, -0.22835710644721985, 0.2594713270664215, 0.42579856514930725, -0.5260667204856873, -0.02162216231226921, -0.28885287046432495, -0.1925647109746933, -0.30414092540740967, 0.306075781583786, 0.05245770141482353, 0.2669577896595001], [-0.1137050986289978, 0.26999562978744507, 0.026039980351924896, 0.21861083805561066, 0.09644585847854614, -0.0770731195807457, 0.07292024046182632, -0.18544606864452362, 0.04660874232649803, -0.12226666510105133, 0.24729235470294952, 0.22725076973438263, 0.21462233364582062, 0.015237114392220974, -0.34455081820487976, -0.14266689121723175, 0.019801318645477295, 0.2811776399612427, 0.17421527206897736, 0.11906062811613083], [-0.1258414089679718, -0.3095233142375946, 0.11556977778673172, -0.06070224568247795, -0.05595538392663002, -0.1090884581208229, 0.22530674934387207, 0.11625979840755463, -0.018207132816314697, 0.18897069990634918, -0.21912455558776855, -0.08936607837677002, -0.008416619151830673, 0.056328389793634415, 0.3139175474643707, 0.11288774758577347, 0.18611808121204376, -0.2635868489742279, -0.16903366148471832, 0.12186310440301895], [-1.1906627416610718, -0.9802972078323364, 0.9011706709861755, 0.5094248652458191, -0.3806360363960266, 0.10556353628635406, 0.6724059581756592, 0.2296280860900879, -0.13928642868995667, -0.21939797699451447, 0.6605748534202576, 0.777087926864624, -0.7871376872062683, -0.2537981867790222, 0.09940823167562485, -0.012491836212575436, -0.26026561856269836, 0.2086370438337326, -0.16835053265094757, 0.09285273402929306], [0.0037687041331082582, 0.24184297025203705, 0.20370252430438995, -0.2659206986427307, -0.35345298051834106, 0.07003061473369598, 0.2730657756328583, 0.18901841342449188, 0.3236399292945862, -0.08958671987056732, -0.011136547662317753, 0.07345089316368103, -0.05884503200650215, 0.09009511768817902, -0.014136051759123802, -0.03923294320702553, -0.027349956333637238, 0.02467692270874977, 0.30150744318962097, 0.011679114773869514], [-0.13873401284217834, -0.07512515038251877, -0.31708425283432007, 0.3714451193809509, -0.0633608028292656, -0.012173301540315151, -0.6245746612548828, -0.05835157260298729, 0.11235453188419342, 0.01837356574833393, -0.009303830564022064, 0.16826970875263214, -0.4179178774356842, 0.05931785702705383, -0.3385821282863617, -0.41449326276779175, -0.20684252679347992, -0.10292459279298782, 0.1733415275812149, 0.21804898977279663], [-0.06524431705474854, 0.25537586212158203, 0.31486454606056213, -0.08059579133987427, -0.1033349484205246, 0.34131360054016113, 0.32868149876594543, 0.13127516210079193, 0.3844425082206726, -0.14668510854244232, 0.2942045331001282, 0.05648600682616234, -0.019896982237696648, 0.029359033331274986, -0.2720748782157898, -0.3036101460456848, 0.32988810539245605, -0.1294756382703781, 0.2972351014614105, -0.2434363216161728], [-0.10089419782161713, -0.028210150077939034, 0.15882693231105804, 0.07101888954639435, -0.4072938859462738, -0.10705123096704483, -0.5070257782936096, 0.02787349373102188, 0.4616714119911194, 0.1317218840122223, -0.21823948621749878, -0.2023884654045105, 0.32033100724220276, -0.1564352959394455, -0.13065384328365326, 0.5268983840942383, -0.08433996140956879, 0.03562135249376297, -0.11863010376691818, -0.17910289764404297], [0.18911466002464294, -0.03353148326277733, 0.1091921329498291, 0.4224572777748108, 0.1416652500629425, 0.0935337245464325, 0.2505955398082733, 0.24552810192108154, 0.6684570908546448, -0.12904402613639832, -0.10941065102815628, 0.19031132757663727, 0.4255262017250061, 0.28378522396087646, 0.15840665996074677, 0.27187633514404297, -0.3418218195438385, 0.6485270857810974, 0.1052851751446724, 0.1299634575843811], [0.23718182742595673, -0.115805484354496, 0.21485665440559387, -0.16917482018470764, -0.0956101268529892, 0.4213804006576538, -0.2615058124065399, 0.023393619805574417, -0.04985940828919411, 0.15895362198352814, 0.13248294591903687, -0.24389919638633728, -0.07826290279626846, 0.00862891599535942, 0.05565173923969269, -0.21523870527744293, -0.15215575695037842, -0.03591366857290268, 0.29851529002189636, -0.09740012884140015], [-0.023498041555285454, 0.08632981032133102, 0.1853615641593933, -0.04356804117560387, -0.12829430401325226, -0.04193747788667679, 0.08012472093105316, -0.059288665652275085, -0.2877447307109833, -0.04814934730529785, 0.017941853031516075, -0.052298497408628464, -0.03570486232638359, -0.03120329976081848, 0.002444236073642969, 0.07773493230342865, -0.1673005074262619, 0.08207199722528458, 0.11537982523441315, -0.3947216868400574], [-0.20109479129314423, -0.3793964385986328, -0.3322944641113281, -0.0173011627048254, 0.2704145610332489, -0.26616382598876953, 0.11523997783660889, 0.2850884199142456, 0.006978754885494709, -0.07821090519428253, 0.2942253649234772, 0.17278872430324554, 0.14586499333381653, -0.0972515344619751, 0.14025330543518066, -0.043641235679388046, 0.17817562818527222, 0.5453782081604004, 0.10759684443473816, -0.21381425857543945], [-0.0076047866605222225, -0.3569575548171997, -0.28208687901496887, -0.22962945699691772, 0.030451985076069832, -0.011874566785991192, 0.043128520250320435, 0.023704305291175842, 0.3202790319919586, 0.09208934754133224, 0.1563139408826828, -0.3151523470878601, -0.31332340836524963, -0.0030405567958950996, -0.01790292002260685, 0.07286014407873154, 0.204463928937912, -0.40410512685775757, 0.21992498636245728, 0.01360540371388197], [-0.16512484848499298, 0.08229738473892212, -0.035100504755973816, -0.28727245330810547, 0.01612411066889763, 0.1258496791124344, 0.05999203398823738, 0.5322392582893372, -0.2579067349433899, 0.3382852375507355, 0.15256495773792267, 0.0007123940740711987, -0.07421830296516418, 0.11125002056360245, -0.04591241478919983, -0.23008573055267334, -0.01218042429536581, -0.09426787495613098, -0.15359337627887726, -0.1665736585855484], [0.14944753050804138, -0.213026225566864, -0.16681747138500214, 0.5207541584968567, 0.017185494303703308, 0.026173412799835205, -0.03561517968773842, -0.18530072271823883, -0.19673116505146027, -0.155246764421463, 0.15887533128261566, 0.21525520086288452, -0.24778242409229279, -0.00760531285777688, -0.3799739480018616, -0.050275761634111404, -0.25116464495658875, 0.27986615896224976, 0.14862775802612305, -0.051168959587812424], [-0.007693336810916662, 0.45922139286994934, -0.23178845643997192, 0.6212475299835205, -0.3870110809803009, -0.21774592995643616, -0.551368772983551, -0.04707956686615944, 0.5975998044013977, 0.20641495287418365, -0.08407780528068542, 0.19145388901233673, -0.4122832119464874, 0.1084684431552887, 0.006279749795794487, -0.14941701292991638, -0.018561096861958504, 0.20875278115272522, 0.10610685497522354, 0.629360556602478], [-0.08257865905761719, 0.28628650307655334, 0.6536833643913269, -0.22942033410072327, -0.5069045424461365, -0.2927391529083252, 0.7641529440879822, 0.02228010632097721, -0.026212964206933975, -0.12656666338443756, 0.2883041799068451, -0.03935016691684723, 0.037637703120708466, 0.15408307313919067, -0.08039867132902145, 0.3854595124721527, -0.2435871958732605, 0.29855772852897644, -0.20923785865306854, 0.05056692659854889], [-0.06582483649253845, 0.030005212873220444, 0.06165478006005287, -0.0708998292684555, 0.1812891811132431, 0.12072021514177322, 0.10460571199655533, 0.09149783104658127, -0.09794718772172928, 0.3871508538722992, -0.02556152641773224, -0.01205450389534235, -0.11658300459384918, 0.3202691972255707, -0.09149529784917831, -0.0693448930978775, 0.08321536332368851, -0.27339398860931396, 0.26988309621810913, -0.2829992175102234], [-0.013072979636490345, -0.19025367498397827, -0.007670399267226458, -0.40108081698417664, 0.1590479016304016, -0.24920719861984253, 0.33672112226486206, 0.09081795066595078, 0.3109688460826874, 0.09098124504089355, -0.07222529500722885, -0.15140189230442047, 0.2875172197818756, 0.0436880886554718, 0.11293090134859085, 0.02966168522834778, 0.3466736078262329, -0.17692789435386658, -0.5545430183410645, 0.31205910444259644], [-0.2490953505039215, 0.04579826816916466, 0.3379514813423157, -0.5788837671279907, -0.050929710268974304, 0.10069456696510315, 0.2573917508125305, -0.06725551187992096, 0.026450706645846367, -0.03635808452963829, 0.07660391926765442, -0.4284299910068512, 0.2044335901737213, -0.21040558815002441, 0.15365353226661682, 0.28716886043548584, -0.19910578429698944, -0.189932182431221, 0.19497789442539215, -0.23082275688648224], [0.21552477777004242, -0.2067977488040924, 0.2721462547779083, -0.1846061497926712, 0.30498838424682617, 0.11596092581748962, 0.3741395175457001, 0.03957649692893028, -0.03792835399508476, -0.02876133657991886, -0.01551695354282856, -0.2751390039920807, 0.35421356558799744, 0.182470440864563, -0.04098845645785332, 0.3530297577381134, 0.3174890875816345, 0.15943817794322968, -0.06649063527584076, 0.00988132506608963], [0.11264560371637344, 0.5971822142601013, -0.13072389364242554, 0.1195559948682785, 0.5874143242835999, -0.04317557066679001, 0.1851615607738495, -0.2565886974334717, -0.028928818181157112, -0.2286013662815094, 0.15581488609313965, 0.43938586115837097, 0.16038087010383606, 0.01944507658481598, -0.6199986934661865, 0.0770018920302391, -0.9103246331214905, 0.5820897221565247, 0.44045424461364746, 0.2558669149875641], [-0.31554114818573, 0.14438040554523468, -0.21800631284713745, 0.2586650848388672, -0.0002939176047220826, -0.06140139698982239, -0.40057557821273804, 0.047325316816568375, -0.33846476674079895, 0.03611528500914574, 0.10089217126369476, -0.0589141845703125, -0.0633498877286911, 0.13634638488292694, -0.11788702756166458, 0.01749868504703045, 0.1361611932516098, -0.10564202815294266, 0.1920151561498642, 0.30536162853240967], [0.0006643562228418887, -0.47920534014701843, 0.15558570623397827, -0.27888160943984985, -0.27828362584114075, 0.05486556515097618, 0.21583710610866547, -0.0839301198720932, 0.2331056445837021, 0.0436207540333271, -0.12083221971988678, -0.045473191887140274, 0.17413674294948578, 0.04768413305282593, 0.3536492586135864, 0.21798038482666016, 0.5418520569801331, -0.022296441718935966, -0.22868455946445465, 0.5664255023002625], [-0.521391749382019, -0.09165164083242416, 0.09214002639055252, 0.08719288557767868, 0.08848652988672256, -0.019006872549653053, 0.1162719801068306, 0.17797036468982697, -0.1531248837709427, 0.10981972515583038, 0.14108239114284515, 0.22795508801937103, -0.09413539618253708, 0.0156724750995636, -0.010956675745546818, -0.1430632621049881, -0.12476389855146408, -0.10026521235704422, -0.12539416551589966, -0.09186159074306488], [0.051885802298784256, -0.02576505020260811, -0.03737308084964752, 0.160330131649971, -0.04854016378521919, 0.19757814705371857, -0.025058778002858162, -0.21141844987869263, 0.24815240502357483, 0.3382551074028015, 0.07786154001951218, 0.4081321358680725, -0.3585124611854553, 0.02242107503116131, -0.09449055790901184, -0.13649654388427734, -0.22919638454914093, 0.17483536899089813, 0.009468333795666695, 0.04125527665019035], [0.06907106190919876, 0.011009869165718555, 0.43338558077812195, -0.15818458795547485, -0.2893011271953583, -0.07190084457397461, 0.5009253025054932, 0.13734158873558044, 0.21201516687870026, -0.07322795689105988, 0.09137674421072006, -0.04276825115084648, 0.05616533383727074, -0.0673535019159317, -0.0010136005003005266, 0.19496816396713257, 0.3236563503742218, -0.3222063183784485, -0.14284645020961761, 0.008101330138742924], [-0.15516874194145203, -0.2418273389339447, 0.16043195128440857, 0.2192256599664688, -0.048214953392744064, 0.05341365560889244, -0.13573239743709564, -0.007141021080315113, 0.046686507761478424, 0.06481313705444336, 0.05349200591444969, 0.1841927468776703, 0.018027758225798607, -0.010355547070503235, -0.06508253514766693, 0.12767814099788666, -0.21018970012664795, 0.09329630434513092, 0.030068697407841682, -0.0032361072953790426], [-0.38062769174575806, 0.2618631422519684, 0.02976413443684578, 0.10171613097190857, 0.04181236773729324, -0.0755617618560791, -0.021757807582616806, 0.020708832889795303, 0.0009848512709140778, -0.00867316871881485, 0.08991258591413498, 0.1898924857378006, 0.07108383625745773, -0.06799342483282089, -0.02393488585948944, -0.1427319496870041, -0.12945598363876343, 0.27385014295578003, 0.027428671717643738, 0.14257019758224487], [-0.14657507836818695, 0.12021338194608688, -0.04725760221481323, -0.03678303584456444, -0.08301196992397308, 0.032302990555763245, 0.09398269653320312, 0.018958942964673042, -0.16201426088809967, 0.09498817473649979, -0.04932188615202904, 0.04447595775127411, 0.05368636175990105, -0.065289206802845, 0.002053012140095234, -0.010629290714859962, -0.059382449835538864, 0.19162186980247498, -0.1064043864607811, -0.14793305099010468], [-0.14093318581581116, -0.16975238919258118, 0.45179837942123413, 0.09977656602859497, -0.12273455411195755, 0.013545971363782883, 0.4578052759170532, -0.014275306835770607, -0.11103834211826324, -0.0651782676577568, 0.16959895193576813, 0.09141381084918976, 0.07678427547216415, 0.006412540562450886, 0.004220799542963505, 0.16939587891101837, -0.06811325997114182, 0.02684725634753704, 0.061699800193309784, -0.07934469729661942], [-0.3061446249485016, 0.1453850418329239, 0.12438182532787323, 0.16771437227725983, -0.22536300122737885, -0.02309965342283249, 0.015266179107129574, 0.07957860827445984, 0.01846797578036785, -0.021475113928318024, 0.2034476399421692, -0.07783003896474838, 0.14646181464195251, 0.06822573393583298, -0.011478275060653687, -0.16982831060886383, 0.26636239886283875, -0.05742591619491577, 0.0641229972243309, -0.08314721286296844], [-0.1495029628276825, -0.149856299161911, -0.0018890748033300042, 0.22290435433387756, -0.2878607213497162, 0.23751869797706604, 0.09182856976985931, -0.37850409746170044, -0.4237787425518036, 0.02067967876791954, 0.2738019824028015, 0.01989784650504589, 0.4972175061702728, -0.12083526700735092, 0.03676147013902664, -0.12994182109832764, -0.2858619689941406, 0.4709758460521698, -0.1940130591392517, -0.13054606318473816], [0.044511888176202774, 0.05239621549844742, 0.010348272509872913, 0.23842978477478027, 0.010015702806413174, 0.09032894670963287, 0.07558528333902359, 0.1295999437570572, 0.04778062552213669, 0.3177524209022522, 0.01934446580708027, -0.002708792919293046, 0.07460162788629532, -0.45376676321029663, 0.24597828090190887, 0.03755174204707146, -0.08189763128757477, 0.018774183467030525, -0.1511393040418625, -0.19865399599075317], [0.016609540209174156, -0.023569995537400246, 0.12735803425312042, -0.01670631393790245, -0.12125688046216965, -0.03299260511994362, 0.2876254916191101, 0.12374944984912872, -0.1830020248889923, -0.11724083125591278, -0.1541096419095993, 0.03591713681817055, 0.1554570347070694, -0.28580302000045776, 0.026577236130833626, -0.02776322141289711, -0.08206994831562042, -0.2991195619106293, -0.07546783238649368, 0.044596247375011444], [0.08302212506532669, 0.12041998654603958, 0.1391572505235672, 0.4270299971103668, -0.19004066288471222, -0.02371823601424694, -0.07430224865674973, -0.05542846769094467, 0.1033562421798706, 0.08933413028717041, 0.11915232241153717, 0.20566099882125854, -0.17536906898021698, -0.008590945973992348, -0.16826333105564117, -0.146534264087677, -0.33656975626945496, 0.12131816148757935, 0.03413652628660202, 0.0147679029032588], [-0.32047560811042786, -0.2649707794189453, 0.18662779033184052, 0.0469323955476284, 0.02510244958102703, 0.013961737975478172, 0.22320982813835144, 0.13973888754844666, -0.024632513523101807, 0.007993657141923904, 0.07607311755418777, 0.0519363209605217, -0.06041958928108215, -0.028953012079000473, -0.06519187241792679, 0.037800513207912445, 0.12983475625514984, 0.1350589394569397, -0.05849850922822952, 0.11748114973306656], [0.10558978468179703, -0.0911417305469513, 0.059372007846832275, -0.03487904369831085, -0.02456837333738804, -0.09088154137134552, 0.08231224119663239, -0.08983014523983002, 0.02325674146413803, -0.29438516497612, 0.013603324070572853, -0.07378973066806793, 0.07232535630464554, -0.1650324910879135, 0.11454793065786362, 0.07135539501905441, 0.08709743618965149, -0.15475308895111084, -0.030712299048900604, 0.1989857405424118], [-0.11080947518348694, -0.19981156289577484, 0.21978245675563812, -0.058945246040821075, 0.024576839059591293, -0.11892388015985489, 0.23417621850967407, 0.029397794976830482, 0.0026665038894861937, -0.20760051906108856, -0.0068144164979457855, 0.06481818854808807, -0.014270620420575142, 0.06171731650829315, 0.19608964025974274, 0.0597720667719841, 0.139901265501976, -0.11728602647781372, -0.16181764006614685, 0.1067989394068718], [-0.1433905065059662, -0.07713361829519272, -0.11027438938617706, 0.11902765929698944, -0.177742600440979, 0.07352002710103989, -0.15000779926776886, -1.4858829672448337e-05, -0.11281797289848328, -0.0022313385270535946, 0.0697614848613739, 0.14822030067443848, -0.0925716757774353, -0.019575737416744232, -0.08489389717578888, -0.15276752412319183, -0.20528365671634674, 0.05215351656079292, -0.007783267647027969, -0.08473213762044907], [-0.2820098400115967, -0.22778794169425964, -0.07132642716169357, 0.21737323701381683, -0.047238789498806, 0.023276016116142273, -0.0027213175781071186, 0.1570519506931305, -0.062393706291913986, -0.16192559897899628, 0.26668837666511536, 0.02592395432293415, -0.07065221667289734, -0.08098592609167099, -0.15512831509113312, 0.1271628737449646, -0.102043516933918, 0.31085601449012756, 0.042824212461709976, 0.002432883018627763], [-0.2356826364994049, 0.45435839891433716, -0.36293110251426697, 0.04320830479264259, -0.20700646936893463, -0.10630595684051514, -0.15610167384147644, 0.06155725196003914, 0.015606722794473171, -0.07929009944200516, 0.24809370934963226, 0.047429174184799194, 0.09362553805112839, 0.13813059031963348, -0.0862179845571518, -0.1198413223028183, 0.073093943297863, 0.4474988579750061, 0.2016453891992569, -0.02111116796731949], [-0.07257130742073059, -0.23924271762371063, 0.05646873265504837, 0.018232010304927826, -0.01404130831360817, -0.14243637025356293, 0.16770747303962708, 0.030795371159911156, -0.04202651605010033, 0.08901897817850113, -0.17049194872379303, -0.13494381308555603, 0.1319907009601593, -0.02686206065118313, 0.20156098902225494, 0.09719990938901901, 0.1517997682094574, -0.150447279214859, -0.2179965078830719, 0.08419506996870041], [-0.13841186463832855, -0.1902914196252823, 0.0984160304069519, 0.08786271512508392, -0.23712600767612457, 0.3287816643714905, -0.007294586859643459, -0.006569938268512487, -0.08897527307271957, 0.09527450799942017, -0.04907676577568054, -0.07335171848535538, -0.30531781911849976, -0.1945020854473114, -0.0352235808968544, -0.10256624221801758, -0.08642058819532394, 0.08307039737701416, -0.28291016817092896, -0.15409676730632782]], "rec.bias_ih_l0": [0.09963289648294449, 0.18132178485393524, 0.1938721239566803, 0.22396206855773926, 0.1973191648721695, -0.09837249666452408, 0.237115278840065, -0.9717725515365601, -0.7164967060089111, -1.33534574508667, 0.023297324776649475, 0.02455122396349907, 0.3521425426006317, -0.40357425808906555, -0.030023878440260887, 0.09068022668361664, -0.17099495232105255, 0.4103602468967438, -0.3692638576030731, -0.9479467868804932, 0.3775026500225067, 0.3468100130558014, 0.32733651995658875, 0.2008494883775711, 0.14585009217262268, 0.37217387557029724, 0.30225279927253723, 0.9551815986633301, 0.8872983455657959, 1.4250774383544922, 0.5242621898651123, 0.04456498101353645, 0.3331027925014496, 0.5787815451622009, 0.5176874995231628, 0.19866344332695007, 0.3266856372356415, 0.5553273558616638, 0.43231627345085144, 1.49921715259552, -0.363999605178833, -0.25057274103164673, 0.03497540205717087, 0.1777394711971283, -0.19460248947143555, 0.05479513481259346, 0.1061880886554718, -0.053015779703855515, 0.07109015434980392, -0.08544283360242844, 0.11407891660928726, 0.23573037981987, -0.21791048347949982, -0.0400204174220562, -0.06485595554113388, 0.13644498586654663, 0.04394280165433884, 0.16059161722660065, -0.10686885565519333, 0.011165972799062729, 0.49363619089126587, 0.22332005202770233, 0.0907384380698204, 0.5475631952285767, 0.2072787880897522, 0.10903415828943253, 0.4931536614894867, 0.2431519329547882, -0.08921506255865097, -0.037042926996946335, -0.10591036826372147, 0.1091902107000351, 0.48376715183258057, -0.0038193385116755962, 0.026878992095589638, 0.1857086569070816, 0.2220158874988556, 0.10725196450948715, 0.2197774350643158, -0.11556937545537949], "rec.bias_hh_l0": [0.12489083409309387, 0.1993837058544159, 0.2587810754776001, 0.2620948553085327, 0.22335956990718842, -0.05883274972438812, 0.3781355321407318, -0.7583073973655701, -0.8370150923728943, -1.152298092842102, 0.02114981599152088, 0.23827919363975525, 0.3571504056453705, -0.2453649640083313, -0.10875821113586426, 0.08476758748292923, -0.14532379806041718, 0.43229272961616516, -0.40791934728622437, -1.0772759914398193, 0.31569844484329224, 0.2836654484272003, 0.20423325896263123, 0.25964048504829407, 0.12961570918560028, 0.3882176876068115, 0.4652610123157501, 0.8994953632354736, 0.9790929555892944, 1.5400182008743286, 0.46065959334373474, 0.19889666140079498, 0.3748282194137573, 0.585720956325531, 0.5956451892852783, 0.1945744901895523, 0.2338307499885559, 0.6330617070198059, 0.43748676776885986, 1.4435817003250122, -0.3670985698699951, -0.3308993875980377, 0.11579807847738266, 0.058236025273799896, -0.03994675353169441, 0.07503847032785416, -0.06972011923789978, -0.19113095104694366, 0.013980032876133919, -0.027441686019301414, 0.2521369159221649, 0.1640605926513672, -0.40171724557876587, 0.058913975954055786, 0.09498254209756851, -0.14730505645275116, 0.014564442448318005, -0.08053877204656601, 0.10700586438179016, -0.12865199148654938, 0.5393791198730469, 0.2742576003074646, 0.28749752044677734, 0.42685261368751526, 0.2136542797088623, 0.14534880220890045, 0.5740536451339722, 0.2435118556022644, -0.04683134704828262, 0.04776083678007126, -0.07741745561361313, 0.16456174850463867, 0.4838239252567291, 0.09195379167795181, 0.1018732339143753, 0.18294616043567657, 0.26724231243133545, 0.0025035773869603872, 0.18723486363887787, -0.04123823344707489], "lin.weight": [[0.33661505579948425, -0.06959931552410126, -0.17450901865959167, 0.728857159614563, -0.10067766904830933, -0.17172160744667053, 0.00974967610090971, -1.0405865907669067, 0.5764652490615845, 0.463625967502594, -0.27777230739593506, 0.13891936838626862, 0.05107644572854042, -0.003998735453933477, 0.10491882264614105, 0.20644599199295044, 0.09226024895906448, 0.08958008885383606, 0.18863748013973236, 0.11101622879505157]], "lin.bias": [0.25789692997932434]}}