{"model_data": {"model": "SimpleRNN", "input_size": 1, "skip": 1, "output_size": 1, "unit_type": "LSTM", "num_layers": 1, "hidden_size": 20, "bias_fl": true}, "state_dict": {"rec.weight_ih_l0": [[-0.27339819073677063], [-0.10471810400485992], [-0.10971419513225555], [0.24350403249263763], [-0.01340467482805252], [-0.23178748786449432], [0.2256438285112381], [-0.13680881261825562], [0.011414701119065285], [-0.02777242287993431], [0.10339270532131195], [-0.139700248837471], [-0.19766350090503693], [-0.07387802749872208], [0.15972205996513367], [-0.014081770554184914], [0.11358290165662766], [0.05032820254564285], [-0.028811797499656677], [-0.12910890579223633], [0.6050629019737244], [0.002640636870637536], [-0.08782055228948593], [0.21886223554611206], [0.04256380721926689], [0.1373293697834015], [-0.006525212898850441], [0.0695817619562149], [0.03987403213977814], [0.044443413615226746], [0.186805859208107], [0.06955233961343765], [-0.10963388532400131], [0.19144806265830994], [0.06645455956459045], [0.09875363856554031], [0.2466210424900055], [0.08296962827444077], [0.22664949297904968], [-0.2645062506198883], [-0.24218317866325378], [-0.04088330268859863], [0.17260374128818512], [0.10638584941625595], [0.26979678869247437], [0.20008297264575958], [0.02215292677283287], [-0.042220816016197205], [0.09318539500236511], [-0.22788579761981964], [-0.3511633574962616], [-0.3899112641811371], [0.37898552417755127], [-0.5780020356178284], [0.20579899847507477], [-0.013861574232578278], [-0.4856685698032379], [-2.050497531890869], [0.18831218779087067], [-2.2238426208496094], [-0.12192246317863464], [0.4977776110172272], [0.23426958918571472], [-0.758617103099823], [-0.2757315933704376], [-0.04856566712260246], [0.061184242367744446], [-0.01521763764321804], [-0.2040647715330124], [0.1569085419178009], [0.039400361478328705], [-0.06800679862499237], [-0.1484968513250351], [0.7068376541137695], [0.011459446512162685], [0.08694528043270111], [0.08961104601621628], [0.09398236125707626], [-0.30446213483810425], [-0.05330091714859009]], "rec.weight_hh_l0": [[0.02888498269021511, -0.183478444814682, -0.028202101588249207, -0.34720197319984436, 0.19931717216968536, -0.01490589790046215, -0.0007153983460739255, 0.18275316059589386, 0.22913938760757446, 0.12251587957143784, -0.06432744115591049, 0.822036623954773, 0.551764965057373, 0.010677318088710308, 0.09957284480333328, -0.26650816202163696, 0.3576091527938843, 0.7158932685852051, 0.1913384646177292, -0.3143315613269806], [-0.05488976836204529, 0.00663803843781352, -0.18140363693237305, 0.1184091791510582, -0.3482074737548828, 0.40370526909828186, 0.03097386844456196, 0.057192981243133545, -0.09610971808433533, 0.15971872210502625, 0.3604089617729187, 0.6628528237342834, 0.5149340629577637, -0.013179357163608074, 0.5144118070602417, 0.15879830718040466, 0.22482216358184814, 0.028469307348132133, 0.17293250560760498, -0.14798270165920258], [0.18446031212806702, 0.19950874149799347, 0.299983412027359, 0.1665557473897934, -0.03662927448749542, 0.019310440868139267, -0.19778388738632202, 0.15302935242652893, 0.027868356555700302, 0.42309558391571045, -0.17899128794670105, -0.20060236752033234, -0.3282109200954437, -0.058133963495492935, -0.46606379747390747, 0.47883957624435425, -0.1875264197587967, 0.12339344620704651, -0.18577414751052856, 0.07304137200117111], [-0.42652133107185364, -0.4510709047317505, -0.30080196261405945, 0.16793839633464813, -0.5504367351531982, 0.021326251327991486, 0.1132097914814949, -0.06378733366727829, 0.14796417951583862, 0.1896498054265976, -0.014179692603647709, 0.3319530189037323, 0.40391144156455994, 0.03534616529941559, 0.2853083312511444, 0.4817298948764801, -0.11429565399885178, 0.32688480615615845, -0.06220752000808716, -0.10267089307308197], [-0.2027340680360794, -0.6855790615081787, -0.08379290997982025, 0.2476995885372162, -0.1527790129184723, -0.43891698122024536, 0.24109293520450592, -0.08669967204332352, 0.07362909615039825, 0.1975805163383484, -0.06417356431484222, 0.43510326743125916, 0.6121578216552734, 0.14412160217761993, 0.11371529847383499, 0.11074667423963547, -0.2679869830608368, 0.14582166075706482, -0.14974483847618103, 0.09848295152187347], [-0.09984388202428818, -0.3233501613140106, -0.179795503616333, 0.2642621695995331, -0.29846447706222534, 0.08946604281663895, 0.3900516927242279, -0.13078153133392334, 0.5255568623542786, -0.004345342982560396, -0.019820043817162514, 0.20133519172668457, 0.18227088451385498, 0.03354283794760704, 0.07483883202075958, 0.07111398875713348, 0.2390681356191635, 0.020550748333334923, 0.2175743579864502, -0.20498359203338623], [0.31667789816856384, 0.22212399542331696, 0.4306715726852417, 0.22513717412948608, 0.04948536306619644, 0.09308227151632309, -0.18716701865196228, 0.2845354676246643, -0.10996759682893753, 0.24926422536373138, -0.25232672691345215, -0.005738561972975731, -0.26468661427497864, 0.056017544120550156, -0.1249595582485199, 0.20762436091899872, -0.16005855798721313, 0.13370497524738312, -0.0003051798848900944, -0.001221702084876597], [0.06841748207807541, 0.012530745007097721, 0.4809417128562927, 0.12326795607805252, -0.0195152685046196, -0.05045609548687935, 0.1299429088830948, 0.15429718792438507, -0.07165952026844025, 0.014098281040787697, -0.0025430622044950724, -0.08634620159864426, -0.1194678544998169, 0.16135507822036743, -0.06508477032184601, -0.11463428288698196, -0.1588461846113205, 0.17165817320346832, 0.06623575091362, -0.01801040954887867], [-0.11785663664340973, 0.0019176455680280924, 0.003151563461869955, 0.35987910628318787, -0.22046293318271637, 0.11361602693796158, 0.11319942772388458, 0.008927539922297001, -0.0645560547709465, -0.01220746524631977, 0.1555987298488617, -0.05528073385357857, -0.07434737682342529, -0.02292429842054844, -0.059486325830221176, 0.07857152819633484, 0.08749938011169434, 0.31028273701667786, 0.0544406957924366, -0.25229015946388245], [0.12760713696479797, -0.12123826146125793, -0.44010356068611145, 0.1901272088289261, -0.31031331419944763, 0.020152512937784195, -0.04998210817575455, -0.16543066501617432, 0.06482676416635513, 0.2604999840259552, -0.1700865924358368, 0.24717125296592712, -0.025005724281072617, 0.02714785933494568, -0.29793581366539, 0.7454488277435303, -0.11080257594585419, -0.08164099603891373, 0.0355992391705513, -0.010126713663339615], [0.26200026273727417, 0.09064219892024994, -0.31644633412361145, 0.47755375504493713, -0.18759003281593323, 0.017509082332253456, -0.1503230631351471, 0.20944899320602417, 0.027116334065794945, -0.3390704095363617, 0.08015242964029312, 0.02604122832417488, 0.19302372634410858, 0.11281125247478485, -0.25607824325561523, -0.2958334982395172, -0.21413710713386536, 0.23703929781913757, -0.08346182107925415, -0.21835601329803467], [-0.39075273275375366, -0.18700063228607178, -0.35792869329452515, 0.24620570242404938, -0.2327784150838852, -0.02459835447371006, -0.06874240934848785, 0.18858730792999268, -0.058561574667692184, 0.282762736082077, 0.001252687769010663, 0.06701076030731201, 0.08941563218832016, 0.232076495885849, 0.3072166442871094, 0.19076916575431824, 0.16285298764705658, 0.7373898029327393, 0.4618202745914459, -0.11225271970033646], [0.44969284534454346, 0.028827078640460968, -0.007666037417948246, 0.16684404015541077, -0.11709210276603699, 0.0013818129664286971, 0.10400812327861786, 0.060866374522447586, 0.16034331917762756, 0.14567677676677704, -0.2651335895061493, -0.1371941715478897, -0.18885980546474457, 0.17174890637397766, -0.19271056354045868, -0.3955098092556, 0.12239406257867813, -0.11330366134643555, 0.005046238657087088, -0.09959454834461212], [-0.1662347912788391, 0.2019757181406021, -0.37596404552459717, -0.48073047399520874, 0.17284603416919708, -0.06590016186237335, 0.36326348781585693, 0.2058001011610031, -0.14698538184165955, 0.2285391241312027, 0.1522732973098755, -0.1860460788011551, 0.37265968322753906, -0.4776797890663147, 0.17084595561027527, 0.02992434799671173, -0.012604651972651482, -0.096000537276268, -0.25199592113494873, 0.11917468160390854], [-0.2864023745059967, -0.3672301769256592, -0.4933816194534302, 0.18573494255542755, -0.2839556336402893, 0.12267979234457016, -0.18747968971729279, 0.14684157073497772, 0.07417405396699905, 0.18404138088226318, 0.4313579797744751, 0.3137078583240509, 0.5597584843635559, 0.013382602483034134, 0.051700398325920105, 0.5997382998466492, -0.016522644087672234, 0.11991520971059799, 0.2190927416086197, -0.11250068992376328], [0.2622489631175995, 0.3315434157848358, 0.46525946259498596, -0.26640841364860535, 0.26140856742858887, -0.01576998457312584, -0.2120463103055954, 0.03842371329665184, -0.08730963617563248, 0.06712809205055237, -0.22851431369781494, -0.24130406975746155, -0.28823599219322205, -0.15426504611968994, -0.28100958466529846, 0.052108630537986755, -0.037332501262426376, -0.13562318682670593, -0.16590449213981628, 0.27921292185783386], [0.4512086510658264, 0.3251937925815582, 0.12954765558242798, 0.1883384883403778, 0.1383543163537979, -0.008028877899050713, 0.025131305679678917, 0.3811090886592865, -0.1346728801727295, -0.08186368644237518, -0.2793412506580353, -0.2329271286725998, -0.5369491577148438, -0.19520913064479828, -0.4046856760978699, -0.44309958815574646, -0.05841640755534172, 0.07159481197595596, -0.24108214676380157, -0.09593634307384491], [0.8251627683639526, 0.038044273853302, 0.5182037353515625, 0.5596640110015869, -0.31808561086654663, -0.07189154624938965, -0.24380670487880707, 0.35454055666923523, -0.06131704896688461, -0.22229258716106415, -0.196433886885643, -0.7072480320930481, -0.6755372881889343, 0.12365018576383591, -0.36594846844673157, -0.5660346150398254, -0.05288926512002945, 0.37423619627952576, -0.21353287994861603, -0.27576690912246704], [0.0754363164305687, -0.37028977274894714, -0.0995924323797226, -0.15365074574947357, -0.3542833626270294, -0.0589466355741024, 0.2818979024887085, 0.054981689900159836, 0.31632259488105774, -0.03432361036539078, 0.13760033249855042, 0.33209148049354553, 0.5060754418373108, 0.012305362150073051, 0.21995803713798523, 0.23646776378154755, 0.09899616986513138, 0.09325102716684341, 0.06292657554149628, 0.02929515950381756], [0.4505433142185211, 0.037049293518066406, 0.09893516451120377, 0.6323036551475525, -0.05058392882347107, -0.08255870640277863, -0.17069780826568604, 0.4724072515964508, -0.012700796127319336, -0.06130244582891464, -0.48942071199417114, -0.2613498866558075, -0.5747033357620239, 0.14780956506729126, -0.36569133400917053, 0.08688721060752869, -0.364101767539978, 0.2210722267627716, -0.08785365521907806, -0.2913413345813751], [0.2666492462158203, 0.5360210537910461, 0.3428697884082794, 0.6296058297157288, 0.11041571199893951, 0.10223434865474701, -0.08227100223302841, -0.012554772198200226, -0.47567903995513916, -0.0509498156607151, -0.26754605770111084, -0.30414408445358276, -0.7224540114402771, 0.03208925947546959, -0.27312394976615906, 0.06411702185869217, 0.23783330619335175, -0.31058818101882935, -0.33051609992980957, 0.018473438918590546], [0.023189112544059753, 0.940213143825531, -0.05170280858874321, -0.16807639598846436, 0.545651376247406, 0.2100469172000885, -0.21692946553230286, 0.16612479090690613, -0.5068258047103882, -0.1355172097682953, 0.004065750632435083, -0.1603258103132248, -0.35491710901260376, -0.3277096152305603, -0.22777459025382996, -0.06670039892196655, -0.19123616814613342, -0.16351112723350525, -0.6656347513198853, 0.2085869461297989], [-0.11952142417430878, -0.10369623452425003, -0.06247332692146301, 0.19360971450805664, -0.27590757608413696, -0.04823540896177292, 0.032459940761327744, -0.002686264691874385, 0.056243617087602615, -0.16035981476306915, 0.06598806381225586, -0.17612484097480774, -0.057032063603401184, 0.1517571657896042, 0.02621881291270256, 0.20067627727985382, 0.25293511152267456, 0.1180470809340477, 0.19217810034751892, -0.020853819325566292], [-0.038176875561475754, 1.1166011095046997, -0.046687930822372437, -0.5905401110649109, 0.6742798089981079, -0.19606663286685944, -0.13821472227573395, 0.11291953921318054, -0.026759883388876915, -0.11722949892282486, -0.056053608655929565, -0.45832017064094543, -0.4902734160423279, -0.3878994882106781, -0.642387330532074, -0.3776947855949402, -0.054575953632593155, -0.23704399168491364, -0.5822321772575378, 0.0728452205657959], [0.4965682923793793, 0.32202666997909546, 0.15819193422794342, -0.03819752112030983, 0.7443554401397705, -0.46219056844711304, 0.1419091671705246, -0.03843293711543083, -0.2338642030954361, 0.005756671074777842, -0.15629500150680542, -0.37117910385131836, -0.5434622168540955, -0.02392982877790928, -0.5465845465660095, -0.06314515322446823, 0.1672256588935852, -0.05295269936323166, -0.41840094327926636, 0.14509634673595428], [0.18795126676559448, 0.5691662430763245, -0.011563536711037159, -0.13524043560028076, 0.40026888251304626, -0.3724345266819, -0.5283775925636292, 0.5081717371940613, -0.027331609278917313, -0.06767261773347855, -0.28564366698265076, -0.30910158157348633, -0.4090366065502167, 0.20950309932231903, -0.37755975127220154, -0.5940133333206177, -0.02947263978421688, -0.2552071213722229, -0.29790598154067993, 0.03188481554389], [0.06255421787500381, 0.011343276128172874, 0.28162068128585815, 0.0769198089838028, -0.01647198759019375, 0.3273041844367981, -0.3966767191886902, 0.2419399470090866, -0.0653642937541008, -0.1358357071876526, 0.008755017071962357, -0.20798717439174652, -0.3280476927757263, -0.24226690828800201, 0.06085081398487091, 0.008673876523971558, -0.11142878979444504, 0.08944758027791977, -0.15627074241638184, 0.0044143772684037685], [0.084503173828125, 0.31139567494392395, -0.02835693024098873, 0.05531521514058113, 0.23828144371509552, -0.20905502140522003, -0.4931212067604065, -0.1504485160112381, -0.0863412618637085, -0.29391393065452576, -0.13609935343265533, 0.23030145466327667, 0.09559592604637146, 0.18795207142829895, -0.19441048800945282, -0.14911769330501556, 0.11279411613941193, 0.04086204245686531, 0.038861844688653946, -0.06407303363084793], [-0.301868736743927, 0.2472906857728958, 0.11202426999807358, -0.4193432033061981, 0.23306359350681305, 0.24653887748718262, 0.19792114198207855, -0.20123252272605896, 0.12425614893436432, -0.08217615634202957, -0.027796832844614983, 0.10858096182346344, 0.051327381283044815, -0.24282190203666687, -0.05975368246436119, 0.007178049068897963, -0.04418337345123291, -0.03181023150682449, 0.1385495364665985, 0.21013697981834412], [0.041115324944257736, 0.022893186658620834, 0.3245520293712616, 0.26803526282310486, -0.21656253933906555, 0.06035889685153961, -0.08975520730018616, -0.13408160209655762, 0.1143030896782875, 0.22486406564712524, -0.5390157699584961, -0.0941709503531456, -0.5043059587478638, -0.07247879356145859, -0.3575282692909241, -0.8262210488319397, -0.4897802770137787, 0.22655649483203888, -0.06220095232129097, -0.12855421006679535], [0.04435637593269348, 0.2061235010623932, 0.5095154643058777, 0.012290316633880138, 0.2721680998802185, -0.2843617796897888, 0.07630014419555664, -0.09044770151376724, 0.1261928826570511, -0.15819284319877625, 0.14966534078121185, -0.26554542779922485, -0.20546989142894745, -0.14998061954975128, -0.3959653377532959, -0.3235451281070709, 0.01680089719593525, -0.10856495797634125, -0.19505111873149872, 0.10440114885568619], [0.5039982795715332, 0.48735201358795166, 0.20611992478370667, 0.010675432160496712, 0.18890143930912018, -0.11459223181009293, 0.05847574397921562, 0.3358166217803955, -0.10444343835115433, -0.18588045239448547, -0.23807062208652496, -0.13218596577644348, -0.6076404452323914, 0.2523660659790039, -0.3603482246398926, -0.13276834785938263, 0.15844720602035522, 0.04263809695839882, 0.18361350893974304, 0.054746970534324646], [0.3026246130466461, 0.15131694078445435, 0.24358031153678894, 0.26249611377716064, -0.10254789143800735, 0.012387525290250778, 0.19190499186515808, 0.26033347845077515, 0.3272957503795624, -0.10123634338378906, -0.26178377866744995, -0.4045369029045105, -0.2351478934288025, 0.047044094651937485, -0.09868335723876953, -0.01005487609654665, 0.21399782598018646, -0.17218109965324402, 0.03364638239145279, -0.02452697604894638], [-0.03127216920256615, 0.1576250195503235, 0.18439942598342896, -0.16424760222434998, 0.12417571991682053, -0.013707924634218216, 0.6044878959655762, 0.4967711865901947, -0.505591869354248, 0.04728677496314049, -0.0114313755184412, -0.3341405689716339, -0.47980156540870667, -0.04679926484823227, -0.1925550103187561, -0.09279901534318924, -0.03136695176362991, 0.005262631457298994, -0.4557928442955017, 0.06820861995220184], [0.32592636346817017, 0.8662039637565613, 0.34814873337745667, -0.357467919588089, 0.3800237476825714, -0.11183243244886398, -0.5667409300804138, -0.13678456842899323, -0.1270131915807724, 0.1582983434200287, -0.8205128312110901, -0.8271102905273438, -0.684547483921051, -0.1698889434337616, -0.08367641270160675, -0.04459167271852493, -0.044586412608623505, -0.07823322713375092, -0.2666979134082794, 0.24637742340564728], [0.10465186834335327, -0.052914299070835114, -0.07823934406042099, -0.06684228777885437, -0.227610781788826, 0.1216806098818779, 0.1256008893251419, -0.10790839046239853, -0.1810992807149887, -0.11131628602743149, 0.1179758608341217, 0.07166264206171036, 0.09062553942203522, 0.06686152517795563, 0.11810562759637833, 0.07050856202840805, 0.2688271105289459, -0.3823978900909424, -0.10486815124750137, 0.28699880838394165], [-0.04390602931380272, -0.12873345613479614, -0.09403229504823685, -0.09084852039813995, 0.08920516073703766, 0.149897962808609, -0.11970927566289902, -0.08913905173540115, -0.09699399024248123, 0.010008931159973145, 0.04415949061512947, -0.14946618676185608, -0.288561075925827, 0.02184104733169079, 0.31062671542167664, 0.08261793851852417, -0.06497815996408463, 0.06842253357172012, -0.021186305209994316, 0.037523265928030014], [0.21409659087657928, -0.12979194521903992, -0.305100679397583, 0.21902583539485931, -0.19623135030269623, -0.02661903202533722, -0.09048676490783691, -0.3602970540523529, -0.06890590488910675, -0.12775853276252747, 0.03510849177837372, -0.33536818623542786, -0.29561179876327515, 0.03409998491406441, 0.23526081442832947, -0.13026446104049683, -0.2786727249622345, -0.0982840433716774, 0.22867286205291748, 0.1658254712820053], [0.13880261778831482, 0.4673050045967102, 0.18176276981830597, -0.3597220182418823, -0.04475000873208046, -0.2405187338590622, -0.4916095435619354, -0.006614296231418848, -0.2571871280670166, -0.03685598820447922, -0.018720777705311775, -0.19072677195072174, -0.27315086126327515, -0.28493326902389526, -0.2689264118671417, -0.16440677642822266, -0.00891303364187479, -0.2203553169965744, -0.4260804057121277, 0.062231261283159256], [0.1280115842819214, -0.3026387393474579, 0.11351896822452545, 0.4015478193759918, -0.38988935947418213, -0.058889638632535934, -0.1206848993897438, -0.15320268273353577, -0.200166255235672, 0.05588749051094055, 0.011446435935795307, -0.0854073166847229, 0.03972548618912697, -0.01802920736372471, 0.18063762784004211, -0.05869082733988762, -0.07360948622226715, 0.18133780360221863, 0.2257845550775528, -0.2244664877653122], [-0.07197681069374084, 0.027646712958812714, -0.28616559505462646, 0.15247584879398346, 0.03756090998649597, -0.11390787363052368, -0.12343017756938934, 0.28274303674697876, -0.09616300463676453, -0.22918473184108734, -0.03807825967669487, 0.10039317607879639, -0.06350594013929367, -0.034767866134643555, -0.4117603898048401, 0.32615700364112854, -0.4263744056224823, 0.03666223585605621, 0.0964682400226593, 0.79885333776474], [0.009753602556884289, 0.4303297698497772, -0.11059998720884323, 0.1887328028678894, -0.25365084409713745, -0.02013562060892582, 0.11501071602106094, -0.0763627365231514, -0.16325132548809052, 0.08885612338781357, -0.2429012954235077, 0.03359999135136604, 0.06959369033575058, 0.08875430375337601, -0.17539620399475098, 0.08402334898710251, 0.10610540211200714, -0.14798207581043243, -0.03478911891579628, 0.0687141865491867], [0.06779355555772781, 0.07527226209640503, -0.11662028729915619, 0.12596692144870758, -0.19054283201694489, 0.09194451570510864, -0.14012722671031952, 0.07455608993768692, -0.06913232058286667, -0.5863438248634338, -0.25183025002479553, -0.07473306357860565, -0.058554407209157944, 0.07313736528158188, 0.09751008450984955, 0.9864845871925354, 1.182636022567749, 0.6121417880058289, -0.0295003242790699, 0.08488461375236511], [0.29029420018196106, 0.4898952841758728, 0.09766396880149841, -0.014478117227554321, -0.13925093412399292, 0.14116454124450684, -0.05956712365150452, -0.07759031653404236, 0.1893576830625534, -0.0948474332690239, -0.1942749321460724, -0.339946448802948, -0.1066770926117897, -0.05082004889845848, 0.3284844756126404, -0.30368366837501526, 0.6758828163146973, 0.06121271848678589, -0.095164455473423, 0.05528433993458748], [-0.1761157512664795, 0.341158390045166, -0.19831037521362305, -0.0200339388102293, 0.28550443053245544, -0.03693631291389465, -0.06377667188644409, 0.0657828152179718, -0.08011388778686523, 0.05061127617955208, 0.14564993977546692, -0.0542476661503315, 0.2137722671031952, -0.09183081239461899, 0.12474118173122406, 0.13626530766487122, -0.3549107611179352, 0.2194996178150177, -0.4348185658454895, 0.2021707445383072], [0.07795374095439911, -0.26376911997795105, 0.00868180487304926, -0.0710492953658104, 0.2521730959415436, 0.5254611968994141, -0.13028128445148468, 0.11413738131523132, 0.31993627548217773, -0.044277481734752655, -0.09582201391458511, 0.0787663534283638, -0.03913917392492294, 0.43845829367637634, 0.02125977911055088, -0.032976698130369186, 0.006947818212211132, -0.14557874202728271, -0.43024367094039917, 0.03837733343243599], [0.2755715250968933, 0.11798502504825592, 0.5547237396240234, 0.5683466792106628, 0.3744170665740967, 0.14691241085529327, 0.9749917387962341, 0.006721275392919779, 0.39029258489608765, -1.3070403337478638, 0.9568873643875122, 0.29162898659706116, -0.04398718476295471, 0.266542911529541, 0.034674834460020065, -0.019259674474596977, -0.15089838206768036, 0.03250499069690704, 0.05302809923887253, -0.07753128558397293], [-0.20772986114025116, 0.22816790640354156, -0.22477459907531738, -0.12064529955387115, -0.1137443408370018, 0.25046834349632263, -0.0004610069445334375, 0.3830152750015259, -0.5857164263725281, -0.26921311020851135, -0.5189940333366394, -0.17062118649482727, 0.2910480201244354, 0.6028321385383606, -0.15639738738536835, 0.1285015493631363, 0.07079777866601944, 0.2842763066291809, 0.12306338548660278, -0.23076564073562622], [0.08181177824735641, 0.1283658891916275, -0.05336640775203705, -0.30668526887893677, 0.3628028929233551, -0.1893911361694336, -0.5222189426422119, 0.4918568432331085, -0.04936842992901802, -0.2337764948606491, -0.07143334299325943, -0.5005508065223694, 0.16723500192165375, -0.4109722673892975, 0.16364850103855133, 0.0520472414791584, 0.018661873415112495, 0.05726122856140137, -0.36495473980903625, 0.1580142229795456], [-0.24268414080142975, -0.028030620887875557, 1.0671128034591675, 0.22483308613300323, 0.4517347514629364, -0.10493402183055878, 0.01148806232959032, 0.09274560958147049, -0.18821878731250763, 0.30738890171051025, 0.2614786624908447, 0.1856858879327774, -0.012253208085894585, -0.008822180330753326, 0.1136479377746582, -0.14355090260505676, 0.015839530155062675, 0.05006111040711403, -0.1371258795261383, 0.10704994201660156], [0.021501382812857628, 0.5364591479301453, -0.5540318489074707, 0.2917046546936035, -0.021875567734241486, 0.2250484973192215, -0.037940602749586105, 0.29978662729263306, 0.6188306212425232, -0.19508230686187744, 0.16705739498138428, -0.43946003913879395, 0.2760608196258545, -0.253464937210083, 0.1587175726890564, -0.005706019699573517, 0.42571893334388733, 0.1310475766658783, -0.05882662534713745, 0.11913664638996124], [0.16223463416099548, -0.08123239874839783, -0.023615321144461632, 0.05847768858075142, -0.06682924181222916, 0.04063551500439644, 0.12478017807006836, -0.025608789175748825, 0.538190484046936, 0.18397046625614166, 0.23233209550380707, -0.0889679342508316, 0.24892021715641022, -0.22446024417877197, -0.5559659004211426, 0.01670946553349495, -0.6039897799491882, 0.3104827404022217, 0.12642915546894073, 0.24020257592201233], [-0.22767946124076843, -0.02018652856349945, -0.028723914176225662, -0.4127478003501892, -0.04778800532221794, -0.176343634724617, -0.22817464172840118, 0.04139406979084015, -0.7279391288757324, -0.005674837622791529, -0.03638028725981712, 0.38834354281425476, 0.026819100603461266, 0.2466825246810913, -0.11416013538837433, -0.023517178371548653, 0.11855746805667877, -0.03500974178314209, -0.19496488571166992, -0.2879970371723175], [0.004682602826505899, -0.1490350067615509, -0.09383523464202881, 0.8899962902069092, 0.29976433515548706, -0.041178323328495026, 0.12429764866828918, -0.4485458731651306, 0.7043552398681641, 0.11959519982337952, -0.055355414748191833, 0.26459625363349915, 0.0335877388715744, 0.05763155594468117, 0.017881125211715698, 0.030239703133702278, 0.1383620947599411, -0.3146558105945587, -0.012529888190329075, -0.22667300701141357], [0.6044855713844299, -0.0473431758582592, -0.20183265209197998, -0.05544758960604668, -0.2531372904777527, -0.05376489832997322, -0.11510337144136429, -0.20267069339752197, -0.211037278175354, 0.052760444581508636, -0.24269598722457886, 0.2493733912706375, -0.009869232773780823, 0.2730318605899811, 0.0978398323059082, -0.19507797062397003, 1.1682195663452148, -0.5379799604415894, 0.004064250271767378, -0.056750524789094925], [-0.8170158863067627, -0.0398406982421875, -0.09141121059656143, 0.6629265546798706, 0.32829049229621887, -0.1255963146686554, -0.007236890960484743, 0.3491228222846985, 0.05911080911755562, -0.40739771723747253, 0.41616809368133545, -0.2938154339790344, -0.13520264625549316, -0.19163641333580017, 0.5697937607765198, 1.6330419778823853, -2.3698620796203613, 0.3917476236820221, 0.11661489307880402, 1.0194813013076782], [0.763257622718811, 0.09700174629688263, -0.15125493705272675, -0.13485239446163177, 0.2620375454425812, -0.006777278613299131, -0.06292971223592758, 0.35878679156303406, 0.040444936603307724, -0.2701908051967621, -0.04197760671377182, 0.848759651184082, -0.25352683663368225, -0.21859648823738098, -0.5374689698219299, 0.5755063891410828, -0.02596903406083584, -2.979773998260498, 0.12272430956363678, -1.6937423944473267], [-0.8381247520446777, 0.10852426290512085, -0.1367868334054947, 1.3578096628189087, -0.2672872841358185, -0.02819698303937912, -0.027332879602909088, -0.09891162067651749, -0.15316644310951233, -0.12069691717624664, -0.12947048246860504, -0.27707186341285706, -0.4517339766025543, 0.10025535523891449, 0.2882038354873657, 0.0004396509611979127, 0.5402237772941589, -0.16616135835647583, -0.07661744952201843, 1.1923600435256958], [0.020152634009718895, -0.11875495314598083, -0.306770384311676, 0.2740824818611145, 0.6792217493057251, 0.33210664987564087, 0.04259553924202919, 0.022457808256149292, -0.19503921270370483, 0.2732207775115967, -0.03377515450119972, 0.013385378755629063, -0.23482497036457062, 0.006156220566481352, -0.03253837674856186, -0.014598455280065536, 0.26678869128227234, 0.0606175996363163, 0.4296976625919342, 0.1556570678949356], [-1.5138956308364868, 0.06933385878801346, 0.1101406067609787, -0.0715750902891159, 0.24078354239463806, 0.11175821721553802, -0.026843365281820297, 0.12825001776218414, 0.07237357646226883, -0.01029109675437212, 0.056011516600847244, 0.1651354283094406, 0.16836997866630554, -0.08255524933338165, -0.06328839063644409, 0.01288058701902628, -0.1769430935382843, -0.1261080503463745, 0.004475679714232683, -0.3782939016819], [0.27890509366989136, 0.5627557635307312, 0.0594719797372818, -0.004194778855890036, 0.20758230984210968, -0.05383189767599106, -0.09479989856481552, 0.11384373903274536, -0.11387776583433151, -0.23436862230300903, 0.07966674864292145, 0.06745751202106476, -0.22657173871994019, 0.06621796637773514, 0.030642570927739143, 0.1118776947259903, -0.11420509219169617, -0.24198701977729797, -0.10868135094642639, 0.5544384717941284], [0.09680786728858948, 0.6435177326202393, -0.06960038840770721, 0.016860179603099823, 0.04348932206630707, 0.050013620406389236, -0.6271283030509949, 0.013065285049378872, -0.05855599790811539, 0.2732972502708435, -0.1349601298570633, -0.11722969263792038, -0.0729450136423111, -0.1283995509147644, -0.35955628752708435, -0.20031683146953583, 0.009492914192378521, -0.2758965492248535, 0.049232494086027145, -0.00027853570645675063], [-0.05008586868643761, 0.20743760466575623, 0.3776303827762604, 0.2214488834142685, -0.0420357920229435, -0.07782334089279175, 0.48426273465156555, -0.09203382581472397, -0.14987868070602417, -0.2532752454280853, 0.1303865611553192, -0.632422685623169, -0.4183521270751953, -0.24266910552978516, -0.29832765460014343, -0.028165971860289574, -0.13880327343940735, 0.029593439772725105, -0.033947866410017014, -0.06459277868270874], [0.0728292390704155, -0.004124351777136326, 0.015243587084114552, -0.5184580087661743, 0.05136203020811081, -0.3577536642551422, -0.03269850090146065, -0.04951899126172066, -0.6499224901199341, 0.02472662180662155, -0.4042881727218628, 0.13421760499477386, -0.6085073947906494, 0.21403321623802185, -0.3093213737010956, 0.08768480271100998, 0.09539835155010223, 0.17112436890602112, -0.20771141350269318, 0.3021582365036011], [0.056242529302835464, 0.09138505905866623, 0.26513639092445374, -0.41662925481796265, 0.48177340626716614, 0.00029068731237202883, 0.0287567637860775, 0.02823210507631302, 0.13402612507343292, -0.024931693449616432, 0.2086566686630249, 0.14757376909255981, -0.02180909551680088, 0.04702053964138031, 0.04706191644072533, -0.17925427854061127, 0.14380645751953125, 0.16611403226852417, -0.14094701409339905, 0.060687582939863205], [0.11329499632120132, 0.22753769159317017, 0.031429484486579895, -0.22634555399417877, 0.3019431531429291, -0.08839227259159088, -0.0644601434469223, 0.02797984518110752, 0.17536020278930664, 0.018497789278626442, -0.10741044580936432, -0.181348517537117, -0.1811688095331192, 0.0877666100859642, -0.06236649304628372, -0.050010211765766144, -0.10501406341791153, -0.15960325300693512, -0.11387105286121368, 0.17876873910427094], [0.22964484989643097, -0.15833809971809387, -0.19965994358062744, -0.12851418554782867, -0.12933173775672913, 0.2731519043445587, -0.31585749983787537, 0.28887704014778137, -0.17534635961055756, 0.29590684175491333, 0.5346930623054504, 0.008095585741102695, 0.09486279636621475, -0.02780129946768284, 0.04947572574019432, -0.22289085388183594, 0.06960015743970871, -0.10131143033504486, -0.10021725296974182, 0.13465002179145813], [0.16819681227207184, 0.22121453285217285, 0.1970021277666092, -0.07836814969778061, 0.2014438807964325, -0.07345721125602722, 0.19968737661838531, 0.21014349162578583, -0.15348561108112335, -0.12405546754598618, -0.04297390580177307, -0.21357440948486328, -0.19272710382938385, -0.045383770018815994, -0.20802320539951324, 0.12579701840877533, 0.02593909576535225, 0.042574167251586914, -0.03884193301200867, 0.05701523646712303], [0.1120695099234581, 0.19633455574512482, 0.012669550254940987, -0.06729307770729065, 0.10825692117214203, 0.00667477585375309, 0.05194877088069916, 0.1985694020986557, -0.23680031299591064, -0.06363323330879211, -0.010295098647475243, -0.12770141661167145, -0.1640261709690094, -0.07455635070800781, -0.22257624566555023, 0.020691048353910446, -0.1781548261642456, 0.11068259179592133, -0.06448771804571152, 0.03465234860777855], [0.3282316327095032, 0.14293961226940155, 0.26176995038986206, 0.16192381083965302, -0.05965879186987877, -0.007214826066046953, -0.12454910576343536, -0.0828634575009346, -0.0048930468037724495, -0.0012393043143674731, -0.10412105172872543, 0.044117897748947144, -0.31004488468170166, 0.0050921086221933365, -0.3364129960536957, -0.26743704080581665, 0.15405498445034027, 0.07431891560554504, -0.064552903175354, -0.16196289658546448], [0.15644946694374084, 0.14518916606903076, 0.24237769842147827, 0.006652910728007555, 0.13162343204021454, -0.045411475002765656, 0.005607116501778364, 0.1687857210636139, -0.10717455297708511, -0.05361507087945938, -0.08759274333715439, -0.07670198380947113, -0.11944027990102768, -0.23399394750595093, -0.2694026231765747, 0.3371315598487854, -0.11335380375385284, -0.023497523739933968, -0.10444096475839615, 0.043097008019685745], [0.183919757604599, 0.2639232277870178, 0.12098723649978638, -0.25945845246315, 0.3254733979701996, -0.04758583754301071, -0.10348828881978989, 0.3448857367038727, -0.048221323639154434, -0.14085416495800018, -0.2533939778804779, 0.027724314481019974, -0.19147047400474548, -0.32334038615226746, -0.3282760679721832, -0.029555020853877068, 0.007784175220876932, -0.02437586709856987, -0.08319815248250961, 0.16550466418266296], [0.2964274287223816, 0.08880539238452911, 0.19817426800727844, -0.00044392095878720284, 0.16829490661621094, -0.05783978849649429, 0.06729815155267715, 0.176512211561203, -0.06013678386807442, -0.21701666712760925, -0.145523801445961, -0.2227025032043457, -0.40646615624427795, -0.002503062365576625, -0.20931337773799896, -0.4657110869884491, -0.6642752885818481, -0.04930516332387924, -0.1486930400133133, -0.1516723930835724], [0.20364953577518463, 0.3033416271209717, 0.03045457974076271, -0.29260390996932983, -0.12306906282901764, 0.2091313749551773, -0.4187297224998474, 0.5535711050033569, -0.5220968723297119, -0.03610635921359062, -0.24766306579113007, 0.06921952962875366, 0.2344636172056198, -0.5656882524490356, -0.12849023938179016, 0.008095966652035713, -0.14140911400318146, 0.2073734700679779, 0.04194437712430954, 0.15580908954143524], [0.03491581603884697, 0.14093837141990662, 0.30555760860443115, -0.039820488542318344, -0.013991175219416618, -0.17030538618564606, -0.11496865004301071, 0.08601809293031693, -0.14614509046077728, -0.13237960636615753, -0.4743478298187256, -0.06817211210727692, -0.3275323808193207, -0.021444277837872505, -0.33603382110595703, 0.133026123046875, 0.03806211054325104, 0.18963928520679474, -0.2918517291545868, 0.02647200971841812], [0.42147430777549744, 0.3054516017436981, -0.006365454290062189, -0.026916367933154106, 0.11694277077913284, 0.005595928058028221, -0.06552017480134964, 0.1746530532836914, -0.1631476730108261, -0.258005827665329, -0.16533394157886505, -0.18703195452690125, -0.39908871054649353, -0.11543837934732437, -0.2809423804283142, -0.3680819571018219, -0.11118091642856598, -0.08810653537511826, -0.18703265488147736, 0.1746189445257187], [0.4882134795188904, 0.2952353060245514, 0.40381574630737305, 0.2571907639503479, 0.09633045643568039, -0.0007600299431942403, 0.11503421515226364, 0.5409927368164062, -0.17178452014923096, -0.07932727038860321, -0.24117305874824524, -0.1836399883031845, -0.5037379264831543, -0.07648363709449768, -0.39998695254325867, -0.07575276494026184, 0.09731752425432205, 0.22953994572162628, -0.2519257962703705, -0.15372419357299805], [0.10652626305818558, 0.014723939821124077, 0.4713312089443207, 0.22012868523597717, -0.047523412853479385, -0.11059077829122543, 0.15682590007781982, 0.11325319111347198, 0.01773284189403057, -0.014959016814827919, -0.20804756879806519, -0.7051008939743042, -0.7621942758560181, -0.14724992215633392, -0.4600827991962433, 0.4547012746334076, -0.9304607510566711, 0.1509057730436325, -0.14136259257793427, 0.19439683854579926], [-0.09428027272224426, 0.05664171278476715, 0.18308702111244202, 0.15660053491592407, 0.023274563252925873, -0.34490859508514404, 0.27663400769233704, 0.3420822322368622, -0.102501779794693, -0.025804618373513222, -0.0034741268027573824, -0.24120250344276428, -0.04704335704445839, 0.07605020701885223, -0.06761115789413452, -0.19372336566448212, -0.1691771298646927, 0.023875370621681213, -0.22573396563529968, -0.21403144299983978], [0.4080994725227356, 0.16045299172401428, 0.17887398600578308, 0.6668844223022461, -0.03436606377363205, -0.050630729645490646, -0.12560924887657166, 0.5626229047775269, 0.020718198269605637, -0.1382862627506256, -0.07665381580591202, -0.7992151379585266, -0.5018037557601929, -0.09040294587612152, -0.05241160839796066, 0.17016132175922394, -0.31691834330558777, 0.04096372425556183, -0.04661450907588005, -0.2566632628440857]], "rec.bias_ih_l0": [-0.7367979884147644, -0.5536916255950928, 0.11187237501144409, -0.8214681148529053, -0.8065184354782104, -1.2778807878494263, 0.10414814949035645, 0.09182124584913254, 0.10801670700311661, -0.1116061732172966, -0.14709973335266113, -0.20990362763404846, -0.18823713064193726, -0.052419647574424744, -0.6871568560600281, 0.5458627343177795, 0.5464097261428833, 0.1798098087310791, -0.5535917282104492, 0.3724461793899536, 0.9818782210350037, 0.83901047706604, -0.08765635639429092, 1.24295973777771, 1.0475794076919556, 1.3188323974609375, 0.2500168979167938, 0.347167044878006, 0.44248637557029724, 0.21581044793128967, 0.2777446508407593, 0.4814363121986389, 0.45071887969970703, 0.2806202471256256, 1.1007689237594604, -0.1569867730140686, -0.10183741897344589, -0.2587049901485443, 0.9904309511184692, -0.2608078122138977, -0.15748487412929535, 0.14757955074310303, 0.09137718379497528, -0.027825595811009407, 0.18734538555145264, 0.07464124262332916, 0.029289424419403076, 0.1465633511543274, -0.4111899435520172, -0.07105083018541336, 0.001314737950451672, -0.20878055691719055, -0.14638112485408783, 0.3315941393375397, -0.06841019541025162, 0.10630077868700027, -0.47153693437576294, 0.07442130148410797, -0.1064872220158577, 0.6076039671897888, 0.34955012798309326, 0.387496680021286, 0.3195236921310425, 0.174254909157753, 0.437317430973053, 0.2287394255399704, 0.009303971193730831, 0.4084048569202423, 0.4209776222705841, 0.2596434950828552, 0.307821661233902, 0.47498467564582825, 0.3886775076389313, -0.0005983738810755312, 0.12393046915531158, 0.4941219985485077, 0.5458569526672363, 0.42883050441741943, 0.38307011127471924, 0.33814185857772827], "rec.bias_hh_l0": [-0.8444920778274536, -0.5699347257614136, 0.12930600345134735, -0.8083999156951904, -0.8310614824295044, -1.23329758644104, 0.1121409684419632, 0.0741446316242218, 0.08686251938343048, -0.05019098147749901, -0.15154951810836792, -0.220280259847641, -0.16595163941383362, -0.05408830568194389, -0.6220679879188538, 0.5464649796485901, 0.5464107990264893, 0.17888125777244568, -0.6225849390029907, 0.37283456325531006, 1.116504430770874, 0.8828586339950562, -0.09254105389118195, 1.2877097129821777, 1.011462688446045, 1.3976613283157349, 0.32752737402915955, 0.3813962936401367, 0.3828556537628174, 0.22684793174266815, 0.25258928537368774, 0.5776732563972473, 0.4486682116985321, 0.30019867420196533, 1.0172135829925537, -0.17855429649353027, -0.09522384405136108, -0.2701777219772339, 1.0507097244262695, -0.23643605411052704, -0.034668929874897, 0.055559203028678894, 0.25838127732276917, -0.3757753074169159, -0.030732881277799606, -0.1410650908946991, 0.12603577971458435, -0.07029416412115097, -0.42815130949020386, -0.22995640337467194, -0.10139944404363632, -0.08982208371162415, -0.24526450037956238, 0.0945807471871376, -0.0791037455201149, 0.1972886174917221, -0.374960720539093, 0.2530469596385956, -0.16052058339118958, 0.38674700260162354, 0.3439793884754181, 0.37436196208000183, 0.3178665339946747, 0.17694073915481567, 0.4553605020046234, 0.21994736790657043, 0.07222474366426468, 0.4081864058971405, 0.4212336242198944, 0.2736848294734955, 0.317875474691391, 0.4785601794719696, 0.3689561188220978, -0.00276785995811224, 0.23222550749778748, 0.49455490708351135, 0.545856773853302, 0.4288337528705597, 0.32289212942123413, 0.3441109359264374], "lin.weight": [[-0.1394786685705185, -0.610584020614624, -0.00431169243529439, -0.7336500883102417, 0.2687564790248871, -0.7493860721588135, -0.07947947084903717, 0.1507839560508728, 0.06600870937108994, -0.007044618483632803, -0.0027601500041782856, 0.3363438546657562, -0.46174871921539307, 1.7029929161071777, 0.03951843082904816, -0.0036495723761618137, -0.02264544740319252, 0.21283936500549316, -0.8425586819648743, 0.20243534445762634]], "lin.bias": [-0.03229927644133568]}}