{"model_data": {"model": "SimpleRNN", "input_size": 1, "skip": 1, "output_size": 1, "unit_type": "LSTM", "num_layers": 1, "hidden_size": 20, "bias_fl": true}, "state_dict": {"rec.weight_ih_l0": [[0.13331907987594604], [0.09868860244750977], [-0.1355990469455719], [-0.028450414538383484], [-0.23153841495513916], [0.020708244293928146], [0.28009113669395447], [-0.08484742045402527], [-0.09648392349481583], [0.1274433732032776], [0.2966555953025818], [-0.00840503815561533], [0.013115402311086655], [-0.04002591595053673], [0.017185475677251816], [0.045440468937158585], [-0.05398561432957649], [0.00423031160607934], [-0.057575322687625885], [-0.03524453192949295], [0.19453038275241852], [0.21437163650989532], [0.016343094408512115], [-0.0015317101497203112], [-0.04203123599290848], [0.10816469043493271], [0.2814199924468994], [-0.00811242125928402], [-0.06632161885499954], [-0.0013639481039717793], [-0.05577685311436653], [0.11038272082805634], [-0.047340165823698044], [0.018563834950327873], [-0.006507802754640579], [0.06421460956335068], [-0.13536320626735687], [-0.014952248893678188], [0.08747221529483795], [-0.013970081694424152], [0.11472029238939285], [-0.5659623742103577], [-0.5576101541519165], [-0.27405285835266113], [-0.2614854872226715], [-0.17670565843582153], [0.0076781101524829865], [-0.2761034071445465], [0.8613826036453247], [-0.06940881162881851], [0.9095165133476257], [0.23699089884757996], [0.26314955949783325], [-0.11609376966953278], [-0.3792688846588135], [-0.6507882475852966], [-3.7681288719177246], [0.03200637549161911], [0.5956025719642639], [-0.2536712884902954], [-0.06160290539264679], [0.15777599811553955], [-0.08140651881694794], [-0.31448230147361755], [-0.08522635698318481], [0.01578204147517681], [0.10378339141607285], [-0.12752769887447357], [-0.028657101094722748], [-0.13253456354141235], [0.11549344658851624], [0.020590223371982574], [-0.06732666492462158], [0.0562574565410614], [-0.048651423305273056], [0.07951819896697998], [0.027202636003494263], [-0.03392880782485008], [0.22307394444942474], [0.04020627960562706]], "rec.weight_hh_l0": [[-0.012320049107074738, -0.20733851194381714, -0.234500914812088, -0.6050512194633484, -0.5158782005310059, 0.0945500060915947, 0.2589339017868042, 0.1044916957616806, 0.6314198970794678, -0.12024958431720734, -0.2634866237640381, 0.06483931094408035, -0.7130846381187439, -0.9550549983978271, -0.23714090883731842, -0.15261515974998474, 0.036966722458601, -0.135729119181633, 0.0068261511623859406, 0.022022247314453125], [-0.04364098608493805, 0.12152969837188721, -0.0013487264513969421, 0.08964650332927704, 0.007624748628586531, 0.08574730902910233, -0.16172586381435394, -0.08900154381990433, -0.0390959158539772, -0.07339832186698914, 0.06366582214832306, -0.0932849571108818, 0.1321493536233902, 0.15423718094825745, 0.00036681443452835083, 0.09671331942081451, -0.023477355018258095, 0.040585897862911224, -0.11633685976266861, -0.15568915009498596], [-0.03458736464381218, 0.16697923839092255, -0.02572656236588955, -0.015770219266414642, 0.17825554311275482, -0.024332445114850998, -0.041490159928798676, -0.08514107763767242, 0.02129468321800232, -0.025795554742217064, 0.03384348750114441, -0.40215232968330383, 0.09995958209037781, 0.14460055530071259, 0.011675623245537281, 0.21987131237983704, 0.3199695646762848, -0.07504738867282867, 0.03383336588740349, -0.05539694428443909], [-0.06902359426021576, 0.1620425432920456, -0.056832652539014816, 0.22842013835906982, -0.02791660837829113, 0.034362852573394775, -0.07969991117715836, 0.08915017545223236, 0.2581619918346405, 0.012993172742426395, -0.02830042503774166, 0.09643813967704773, -0.04658253863453865, 0.23639293015003204, -0.007384332828223705, 0.0017177369445562363, 0.019514024257659912, -0.10436827689409256, 0.05924702435731888, 0.15019230544567108], [-0.48130154609680176, -0.26152026653289795, 0.2462007701396942, -0.10808133333921432, -0.15228162705898285, 0.06509071588516235, -0.03264189139008522, 0.08961432427167892, -0.005180863663554192, -0.07593102008104324, -0.2532825469970703, 0.015151627361774445, -0.017367221415042877, -0.024549243971705437, -0.17246556282043457, 0.10748874396085739, 0.18058638274669647, -0.033321961760520935, -0.049434732645750046, -0.45422661304473877], [0.058708082884550095, -0.040371280163526535, -0.05112183094024658, -0.25017836689949036, 0.04457750916481018, -0.05442867800593376, -0.03759237006306648, -0.1417328417301178, -0.12197472155094147, -0.059784650802612305, -0.25044915080070496, -0.038786403834819794, 0.05981910601258278, 0.11283744871616364, -0.16176848113536835, 0.2575831711292267, 0.05569855123758316, 0.039666712284088135, -0.09929832071065903, -0.13372884690761566], [-0.31487327814102173, 0.2963334023952484, 0.04917530715465546, 0.17485517263412476, -0.12450826168060303, 0.08380705863237381, -0.028919635340571404, 0.15321557223796844, -0.30584847927093506, -0.1340450495481491, -0.10947832465171814, 0.07639116048812866, -0.010526591911911964, -0.0778883695602417, 0.23673135042190552, -0.09327314049005508, -0.6185490489006042, -0.09318257123231888, 0.06511262059211731, 0.21884359419345856], [0.19691652059555054, 0.11880325525999069, 0.3167710304260254, 0.11163169890642166, 0.25985220074653625, 0.08788372576236725, 0.022840581834316254, -0.18415288627147675, -0.28023797273635864, -0.016343535855412483, 0.04754745587706566, 0.09314855188131332, 0.08812639862298965, 0.26504772901535034, -0.06777781248092651, 0.07557812333106995, 0.10890298336744308, -0.02608855441212654, 0.16762788593769073, -0.10342545807361603], [0.02307293377816677, -0.0036172426771372557, 0.04262382909655571, 0.03865691274404526, 0.11310577392578125, 0.021353725343942642, 0.01943366602063179, 0.07139073312282562, 0.04743088409304619, -0.04469307139515877, -0.1331443041563034, -0.3134104609489441, -0.044861797243356705, 0.01125025749206543, -0.009229798801243305, 0.05209299549460411, 0.11170509457588196, -0.04972492530941963, -0.01585506461560726, -0.21808412671089172], [-0.15550528466701508, -0.17410464584827423, -0.08928706496953964, -0.4264443516731262, 0.19226127862930298, 0.10395815223455429, -0.09415693581104279, 0.09476976841688156, 0.05906634032726288, -0.037911783903837204, 0.15578946471214294, 0.0238797627389431, -0.22388681769371033, 0.08906258642673492, -0.04610631987452507, -0.24679090082645416, -0.08840198814868927, 0.14457052946090698, -0.08465667068958282, 0.33240801095962524], [0.02872670814394951, -0.16960835456848145, -0.6233378648757935, -0.605836033821106, 0.4899730384349823, -0.021371498703956604, 0.7597012519836426, 0.1581166684627533, 0.26584357023239136, 0.12252011895179749, -0.05367119610309601, -0.1209961548447609, -0.18264375627040863, -0.5225695967674255, 0.11302133649587631, 0.012564729899168015, 0.5175918936729431, 0.03001815266907215, -0.3003702163696289, -0.25171715021133423], [-0.006924472749233246, 0.13998526334762573, 0.18156659603118896, 0.4472862184047699, -0.023387882858514786, 0.12994231283664703, -0.12073402851819992, 0.07650664448738098, 0.042053524404764175, 0.0209615807980299, -0.07278303056955338, 0.05805431306362152, 0.22924725711345673, 0.2851581275463104, 0.017192598432302475, -0.14733637869358063, 0.027773244306445122, -0.010737501084804535, 0.1369280368089676, 0.03843449801206589], [-0.16143865883350372, -0.040348783135414124, -0.2803038954734802, -0.46823033690452576, -0.09245804697275162, -0.29392948746681213, -0.009004211984574795, 0.18122529983520508, 0.11449135094881058, -0.018386000767350197, -0.010111960582435131, -0.09008738398551941, -0.3992827832698822, -0.15702494978904724, -0.22761742770671844, 0.0445801243185997, -0.07849769294261932, -0.006215990986675024, -0.09124645590782166, -0.1449676752090454], [0.07955172657966614, 0.05848100036382675, -0.2545326352119446, -0.16171997785568237, 0.2576797604560852, -0.14998677372932434, 0.05883015692234039, -0.27288079261779785, 0.005516865290701389, 0.1134425476193428, -0.026229247450828552, -0.1469275951385498, 0.28192606568336487, 0.03649578616023064, 0.14245887100696564, 0.2704903483390808, 0.04187549278140068, -0.09923794120550156, -0.16838069260120392, -0.20308175683021545], [0.3419105112552643, 0.11556176841259003, -0.06367859244346619, 0.25239700078964233, -0.005644968245178461, -0.14808052778244019, -0.028612634167075157, -0.06375215202569962, -0.12160535901784897, 0.0006572722340933979, 0.013029320165514946, -0.004317581187933683, -0.14523670077323914, 0.05320216715335846, -0.06318850815296173, 0.029325472190976143, 0.0440155491232872, 0.08151932805776596, -0.15237677097320557, -0.13164709508419037], [0.07044477760791779, -0.14131557941436768, -0.4026547968387604, -0.18065957725048065, -0.06263715028762817, -0.03923753276467323, 0.09169065952301025, 0.10408711433410645, -0.3912995755672455, 0.07594522833824158, 0.04130285978317261, 0.2884441018104553, -0.8297336101531982, -0.5411106944084167, 0.5654473304748535, -0.25477170944213867, -0.23698119819164276, -0.32563188672065735, -0.2733626961708069, 0.15640157461166382], [-0.2854214608669281, 0.025867769494652748, 0.33400020003318787, 0.5501919388771057, -0.2599959671497345, -0.1526041179895401, -0.6426881551742554, 0.3755781948566437, 0.14004351198673248, -0.04842297360301018, 0.32779932022094727, 0.17234890162944794, 0.764281153678894, 0.718640923500061, -0.030972681939601898, 0.2702123820781708, -0.26259636878967285, 0.30183646082878113, 0.13294807076454163, 0.021843325346708298], [-0.007485023699700832, -0.11145959794521332, -0.13439396023750305, 0.052008625119924545, -0.09181639552116394, 0.00146387773565948, 0.20451238751411438, 0.12304781377315521, -0.11254327744245529, -0.13714158535003662, -0.013145901262760162, -0.08554666489362717, -0.2346789687871933, -0.047211285680532455, -0.2862735688686371, -0.014306753873825073, -0.08468880504369736, 0.006483172532171011, -0.04198486730456352, -0.2597517967224121], [-0.09383416920900345, 0.019748471677303314, -0.11904329806566238, -0.17144928872585297, -0.10724256187677383, -0.027003781870007515, 0.14137570559978485, 0.08750572055578232, -0.18645048141479492, -5.2153514843666926e-05, -0.01019847858697176, -0.07390714436769485, 0.00424009095877409, 0.10966666042804718, -0.155680850148201, 0.362313449382782, 0.05979316681623459, 0.0024430355988442898, 0.024000614881515503, 0.04519598186016083], [-0.17276425659656525, -0.12748156487941742, 0.004166948143392801, 0.292026549577713, 0.052863385528326035, 0.12358926981687546, -0.08426463603973389, 0.030886290594935417, -0.153991237282753, -0.036716822534799576, -0.13976939022541046, -0.1188334971666336, -0.21260935068130493, 0.06968101114034653, -0.06624873727560043, 0.12620510160923004, -0.034308988600969315, -0.1580909937620163, -0.06671659648418427, -0.21400737762451172], [-0.14585207402706146, -0.11292927712202072, -0.1726667582988739, 0.6141244769096375, 0.13217784464359283, -0.23804907500743866, -0.15168805420398712, -0.21283377707004547, 0.3609165847301483, -0.4767686426639557, 0.035268738865852356, -0.39845380187034607, 0.46121111512184143, 0.7841126322746277, -0.1362183392047882, 0.19935156404972076, 0.18688265979290009, -0.012456375174224377, -0.30032697319984436, -0.05915174260735512], [0.1775899976491928, 0.059144336730241776, 0.03196227177977562, 0.07384611666202545, 0.02719140611588955, -0.021495511755347252, 0.16990265250205994, -0.01916777715086937, 0.03537214547395706, -0.016270464286208153, 0.030270883813500404, -0.008869322016835213, -0.1092347577214241, -0.009107688441872597, -0.335124671459198, -0.24867524206638336, -0.017662936821579933, -0.169241800904274, 0.16534602642059326, -0.029564470052719116], [-0.09856610745191574, 0.38766011595726013, 0.11539225280284882, 0.29683929681777954, 0.13402365148067474, -0.09411652386188507, 0.29126402735710144, -0.08680647611618042, -0.17306186258792877, -0.0581795871257782, 0.1756451278924942, 0.03949464485049248, 0.07386869192123413, 0.05296992510557175, 0.08687002211809158, -0.1094992533326149, -0.026752572506666183, 0.1246144250035286, 0.029344571754336357, 0.19817093014717102], [-0.15021398663520813, 0.17356140911579132, -0.08850625157356262, 0.5566022396087646, 0.05019933357834816, 0.025788655504584312, -0.09372514486312866, 0.1549226939678192, 0.14087948203086853, 0.05229342356324196, -0.11936546117067337, 0.220523402094841, -0.07813373953104019, 0.23299458622932434, 0.48933565616607666, 0.2557348310947418, -0.14058712124824524, 0.1400131732225418, -0.02050865814089775, 0.01624452695250511], [0.0014076662482693791, -0.0894126370549202, 0.20465140044689178, 0.07319676131010056, -0.43596869707107544, -0.09359247237443924, 0.17441456019878387, 0.09851916879415512, 0.32681313157081604, 0.08039858192205429, -0.05221748724579811, -0.1163923516869545, 0.0018899121787399054, 0.3185143768787384, -0.11372411996126175, 0.05179183930158615, 0.06356769055128098, 0.08041095733642578, 0.16166597604751587, -0.18054409325122833], [0.13675528764724731, 0.004573981277644634, 0.06484368443489075, 0.3969751298427582, -0.09220860153436661, -0.28433507680892944, 0.12150382250547409, -0.011267113499343395, -0.15490101277828217, -0.1186295598745346, 0.006880782078951597, 0.04696280509233475, 0.5861324667930603, 0.7351980209350586, -0.033056311309337616, 0.321208655834198, -0.042060378938913345, 0.05880986899137497, 0.07401833683252335, -0.10136491805315018], [0.4146919846534729, 0.1460806131362915, 0.054188698530197144, 0.17436596751213074, -0.15284113585948944, -0.151877760887146, 0.1717725247144699, -0.16104523837566376, -0.22264936566352844, -0.06047075614333153, 0.19973106682300568, 0.053161587566137314, 0.348158597946167, -0.13656000792980194, 0.04119206592440605, -0.07421643286943436, -0.15650570392608643, -0.06614332646131516, 0.3028236925601959, 0.10055623203516006], [0.39842507243156433, 0.06246344372630119, 0.1669733226299286, 0.035479750484228134, 0.24752488732337952, 0.16532239317893982, 0.2965848445892334, -0.09928258508443832, -0.30260786414146423, 0.10905922949314117, 0.21956345438957214, 0.3391716778278351, 0.07934004068374634, 0.544169545173645, 0.007278940640389919, -0.062199752777814865, -0.09265584498643875, 0.05282473936676979, 0.09499143064022064, 0.05193853750824928], [0.46297982335090637, 0.04198240488767624, 0.20689262449741364, 0.10938957333564758, 0.16135430335998535, -0.031753599643707275, 0.0486658550798893, -0.061856333166360855, 0.06654107570648193, -0.16375581920146942, 0.1367586851119995, 0.023187994956970215, 0.14729414880275726, 0.26589471101760864, -0.03374525159597397, 0.11519090086221695, 0.05801582336425781, 0.038213688880205154, 0.17949725687503815, 0.07385632395744324], [-0.03629118204116821, 0.24417158961296082, 0.020567286759614944, 0.6492753624916077, -0.1988823264837265, -0.01970149390399456, 0.20597586035728455, 0.1839929074048996, 0.16570456326007843, -0.23526974022388458, 0.108183853328228, 0.3141059875488281, 0.09114477783441544, 0.08459023386240005, 0.06801138073205948, -0.053368039429187775, 0.01215028390288353, 0.10480399429798126, 0.06504829227924347, -0.16374796628952026], [0.26589906215667725, -0.0969279408454895, 0.2691614329814911, 0.3687935471534729, -0.08270100504159927, 0.2366894781589508, 0.050120238214731216, 0.053263671696186066, 0.25534096360206604, 0.2680017948150635, 0.38724854588508606, 0.06148362532258034, 0.1892348825931549, 0.32525408267974854, 0.08939750492572784, -0.19763274490833282, 0.30250927805900574, 0.1162625327706337, 0.16866140067577362, 0.1746618151664734], [-0.24861854314804077, -0.24071291089057922, 0.6862785816192627, 0.4226691722869873, 0.037085115909576416, -0.07305805385112762, -0.1585891842842102, -0.004870671313256025, -0.1331675797700882, 0.1543978899717331, 0.005102389492094517, 0.18311361968517303, 0.05811154842376709, 0.2704443037509918, -0.16077767312526703, -0.3254094123840332, 0.2570551633834839, 0.02696891874074936, 0.377553254365921, -0.061629556119441986], [0.16324633359909058, -0.20116576552391052, 0.259774386882782, 0.7177093625068665, -0.010738000273704529, -0.2839635908603668, -0.06643830984830856, -0.12999369204044342, 0.2135881781578064, -0.07247521728277206, -0.08447583019733429, 0.01005171425640583, -0.2074611335992813, 0.22022433578968048, 0.30049407482147217, -0.3631056845188141, 0.33078452944755554, -0.0450199656188488, -0.04600852355360985, -0.0468871146440506], [0.014395097270607948, 0.11370744556188583, 0.16592560708522797, 0.4164336025714874, 0.37509235739707947, -0.13205692172050476, -0.07729272544384003, -0.09379054605960846, -0.15966495871543884, 0.2894930839538574, -0.0949939414858818, 0.24773992598056793, 0.3357663154602051, 0.09234833717346191, 0.33955466747283936, 0.10508965700864792, -0.002715210197493434, 0.0599830225110054, -0.06259427964687347, -0.08703349530696869], [0.08496451377868652, -0.11147012561559677, -0.0055367611348629, 0.12433633953332901, -0.10312468558549881, -0.1397266834974289, 0.24069704115390778, 0.1721244901418686, 0.0005815658369101584, -0.01809377409517765, -0.012751268222928047, 0.03794696554541588, -0.0501476526260376, -0.28375351428985596, -0.024845309555530548, -0.02952699549496174, 0.08005482703447342, -0.15315082669258118, 0.1661069691181183, -0.07317226380109787], [-0.12832997739315033, -0.4433620274066925, 0.34860289096832275, 0.7931492328643799, 0.5320842266082764, -0.07886052131652832, -0.2564949691295624, -0.14739492535591125, -0.14461441338062286, 0.10714273154735565, -0.08776538074016571, -0.22086547315120697, 0.48843544721603394, 0.9246698021888733, 0.40254291892051697, 0.26521944999694824, 0.11299624294042587, 0.28109416365623474, 0.42763394117355347, -0.38679203391075134], [-0.2676396667957306, -0.07605161517858505, 0.512258768081665, 0.19187742471694946, -0.4647635221481323, -0.22372537851333618, -0.7566146850585938, -0.06753938645124435, -0.18111564218997955, -0.11583948880434036, 0.3055635392665863, 0.18391631543636322, 0.004715884104371071, 0.04195539653301239, -0.012350850738584995, 0.008983159437775612, -0.29957956075668335, 0.1377502679824829, 0.21585668623447418, 0.18224956095218658], [0.18556462228298187, 0.01005596574395895, 0.2624010741710663, 0.23209699988365173, 0.13018126785755157, 0.011165795847773552, 0.0323159284889698, -0.06523315608501434, 0.14760932326316833, -0.25854653120040894, -0.05285279080271721, -0.04462854936718941, -0.08906973153352737, -0.1302163302898407, -0.12037266790866852, -0.24539902806282043, 0.07503227889537811, 0.00042823998956009746, 0.0843362957239151, -0.11433199048042297], [0.0446358248591423, -0.01740223355591297, 0.00993815716356039, 0.7293695211410522, 0.14250753819942474, -0.1481264978647232, -0.03342718631029129, 0.1848279982805252, -0.009934544563293457, 0.024241358041763306, 0.16820089519023895, -0.09005912393331528, 0.03699249401688576, -0.1139058768749237, -0.11762643605470657, 0.1570662558078766, 0.0718117505311966, -0.13583017885684967, 0.17082282900810242, -0.042678870260715485], [-0.04461207613348961, 0.09051535278558731, 0.11200051009654999, 0.5868777632713318, 0.2820992171764374, 0.09227682650089264, 0.05102081224322319, -0.22985327243804932, 0.08054032176733017, 0.05490926280617714, 0.0218553077429533, 0.22333088517189026, 0.16581030189990997, 0.16542086005210876, -0.015744075179100037, -0.008477993309497833, 0.0413786955177784, 0.026967283338308334, 0.11128953099250793, 0.08930766582489014], [0.4922202229499817, 0.11667825281620026, -0.1146339625120163, -0.12042874097824097, -0.6037490367889404, -0.26697689294815063, 0.5736718773841858, -0.458283007144928, 0.4898912012577057, -0.12800446152687073, -0.10707613080739975, -0.31168442964553833, 0.05161741003394127, 0.163470059633255, 0.24622566998004913, 0.13542112708091736, 0.0736350491642952, -0.159894660115242, -0.13437697291374207, 0.2850697636604309], [0.17800696194171906, -0.045567434281110764, -0.3989814817905426, 0.23176424205303192, 0.36636629700660706, -0.013778144493699074, 0.00290579698048532, -0.0205345768481493, 0.6055732369422913, -0.1582222878932953, -0.034919075667858124, 0.07544849812984467, 0.40222758054733276, -0.11034934967756271, -0.006015530321747065, -0.6334483027458191, -0.9995496273040771, -0.21208302676677704, 0.20581665635108948, -0.47057488560676575], [0.14356236159801483, 0.7484679222106934, 0.12627622485160828, -0.6315098404884338, 0.05392938479781151, 0.1803458333015442, -0.5508384704589844, 0.2566688656806946, -0.44955846667289734, -0.01048290729522705, 0.1581772416830063, -0.20322345197200775, 0.09443604201078415, 0.06474673002958298, 0.23660463094711304, 0.055669642984867096, 0.0019542137160897255, 0.013321180827915668, -0.2690771520137787, 0.1946094036102295], [-0.100019671022892, 0.36583009362220764, -0.2319459468126297, -0.03835161030292511, 0.29474809765815735, -0.2008865475654602, -0.08088377863168716, 0.02539592608809471, 0.2585701048374176, 0.18613140285015106, 0.08844753354787827, 0.6332170963287354, -0.3055543899536133, 0.259455144405365, 0.29311785101890564, 0.48668769001960754, -0.14887474477291107, 0.13860823214054108, 0.038636885583400726, 0.7899565696716309], [0.3524213135242462, -0.42586642503738403, -0.0198521725833416, -0.08794379979372025, 0.12649205327033997, 0.04421497881412506, -0.8596425652503967, -0.7252193689346313, 0.4550199806690216, 0.0859709307551384, 0.20735310018062592, -0.0985000878572464, 0.009167853742837906, -0.025307239964604378, -0.36797794699668884, -0.16129814088344574, -0.011731200851500034, 0.020333830267190933, -0.11196345090866089, -0.21002954244613647], [-0.4005459249019623, -0.2410833090543747, -0.06452983617782593, 0.15719418227672577, -0.016579994931817055, 0.3704967200756073, -0.02694266103208065, -0.23725421726703644, 0.27084609866142273, -0.17087744176387787, -0.23235414922237396, 0.0057686311192810535, -0.3369479477405548, -0.09323260188102722, -0.0390574187040329, -0.06557489186525345, 0.5691934823989868, 0.15991118550300598, 0.012007017619907856, 0.09644600003957748], [0.21352645754814148, -0.032240018248558044, 0.19957391917705536, 0.08763143420219421, -0.4511530101299286, -0.1849578469991684, 0.1275785267353058, 0.30637437105178833, -0.18691903352737427, 0.13291700184345245, -0.22213518619537354, 0.0608271099627018, -0.18254037201404572, 0.01703832298517227, -0.2127770483493805, 0.14817385375499725, -0.949840247631073, 0.222239688038826, -0.03207750990986824, 0.09907075762748718], [-0.5390369892120361, 0.3140999674797058, 0.4723242521286011, 0.18476523458957672, -0.2133953869342804, -0.13144713640213013, 0.020516328513622284, 0.9519753456115723, -0.7840716242790222, -0.14088831841945648, -0.6044174432754517, 0.14124834537506104, -0.29917192459106445, -0.03739960491657257, 0.06857762485742569, 0.16870851814746857, -1.378528356552124, -0.1911473423242569, 0.02075141854584217, 0.053883008658885956], [-0.2506296634674072, -0.13896338641643524, 0.518515944480896, 0.16244010627269745, -0.2483464479446411, -0.4034908413887024, 0.16909608244895935, -0.0012994024436920881, 0.32367971539497375, 0.063413105905056, -0.1395883560180664, 0.34578174352645874, 0.04298970848321915, 0.04299195110797882, -0.16108553111553192, -0.19549912214279175, 0.7206676006317139, -0.2239116132259369, 0.19297516345977783, -0.41102537512779236], [-0.045593857765197754, 0.495673805475235, -0.07711151987314224, -0.26022055745124817, 0.00608906801789999, 0.10865035653114319, -0.0648486539721489, 0.1525162011384964, 0.006085729226469994, 0.5013487339019775, 0.005954858846962452, -0.1566271036863327, -0.057818617671728134, -0.11958128958940506, -0.404326856136322, 0.012825663201510906, 0.23348817229270935, 0.020322609692811966, 1.0820642709732056, -0.2827605605125427], [0.06644617766141891, -0.14741069078445435, -0.08538699150085449, 0.055559705942869186, -0.11745786666870117, -0.11258988827466965, -0.1097123771905899, 0.018250230699777603, 0.05801074951887131, -0.08703701943159103, 0.2729392349720001, -0.01768338680267334, -0.0673905462026596, 0.01915174536406994, -0.05918165296316147, -0.050393663346767426, -0.967907190322876, 0.060018546879291534, -0.06435719132423401, 0.1634141057729721], [0.36497461795806885, -0.12173005938529968, 1.0828200578689575, 0.04643232002854347, 0.6641239523887634, -0.3401111960411072, -0.10894717276096344, 0.5420712828636169, -1.259795904159546, 0.24523605406284332, -0.06997831165790558, 1.63508141040802, 0.10973689705133438, -0.7649769186973572, -0.5248638987541199, -0.022006474435329437, 0.6348063945770264, -0.05617164820432663, 0.6548263430595398, -0.758477509021759], [0.2531695067882538, -0.4640282094478607, -0.01773182675242424, 0.13907717168331146, -0.13995997607707977, -0.1243361234664917, -0.29716742038726807, -0.15570223331451416, -0.10403583943843842, 0.03496171534061432, -0.17013682425022125, 0.012072381563484669, 0.5693764090538025, 0.2005077749490738, 0.3861481845378876, 0.17143985629081726, -0.2706075608730316, 0.03169023618102074, -0.176639124751091, -0.41154664754867554], [-0.4234502911567688, -0.3855273723602295, 0.3215804100036621, 0.09712076932191849, -0.43268728256225586, -0.1676645427942276, -0.13419243693351746, 0.9963263869285583, 0.24949529767036438, 0.18323908746242523, -0.004506399855017662, 0.19550900161266327, 0.06729856133460999, 0.3848644196987152, -0.21490056812763214, 0.17382586002349854, 0.21517451107501984, 0.29307425022125244, 0.05040915682911873, -0.0718640387058258], [-0.038407839834690094, -0.20280568301677704, -0.03348479047417641, -0.07035230845212936, 0.15042060613632202, 0.13464978337287903, 0.10281335562467575, -0.03282250463962555, 0.33506402373313904, 0.07499001175165176, 0.11626074463129044, -0.14158116281032562, -0.5544421076774597, -0.10558602213859558, 0.3349427580833435, 0.7357364296913147, -0.37879106402397156, -0.034323614090681076, 0.08238470554351807, 0.8025181889533997], [-0.07895225286483765, 0.49638649821281433, -0.33401358127593994, -0.03054221346974373, 0.17032265663146973, -0.026744239032268524, 0.10199286788702011, -0.10034103691577911, 0.20325113832950592, 0.15651099383831024, -0.10351493209600449, -0.13572275638580322, 0.03017701581120491, 0.19194981455802917, -0.9586546421051025, 0.49496009945869446, -0.2022494673728943, 0.05578598380088806, 0.21641436219215393, 0.11397305876016617], [-0.10921730846166611, 0.11503655463457108, 0.1048256903886795, 0.03629598021507263, -0.009255210869014263, -0.04155683517456055, 0.27307507395744324, 0.03391234204173088, -0.11325030773878098, 0.20691877603530884, 1.0862798690795898, 0.02237587794661522, -0.045744653791189194, 0.0017934039933606982, 0.03737291321158409, -0.012614874169230461, 0.5780000686645508, -0.02883053570985794, 0.00728102121502161, 0.005540667101740837], [0.2552318871021271, 0.3598049581050873, 0.2902108430862427, 0.10527908056974411, 0.009143967181444168, -0.183523029088974, -0.15222807228565216, 0.0011446846183389425, 0.23916853964328766, -0.28176167607307434, -0.10785167664289474, -0.09035921841859818, 0.013606044463813305, -0.01875409670174122, 0.427732914686203, 0.08575620502233505, 0.03270464763045311, 0.8945137858390808, -0.05072902515530586, -0.24704475700855255], [0.46176716685295105, -0.7755808234214783, 0.10945940017700195, 0.22473371028900146, 0.10397914797067642, 0.5000486969947815, -0.11165931820869446, 0.13095960021018982, -0.4332200288772583, -0.6745588183403015, -0.08002910017967224, -0.3086695969104767, -0.1896514892578125, 0.042737867683172226, 0.14473944902420044, -0.13152970373630524, -0.29614344239234924, 0.06284128129482269, 0.10481426864862442, -0.39137497544288635], [0.10460971295833588, 0.17374886572360992, -0.09547561407089233, 0.019255677238106728, 0.08877044171094894, -0.25312525033950806, -0.08099368214607239, -0.01637456938624382, 0.07108563929796219, 0.38108572363853455, -0.3515856862068176, 0.22172369062900543, -0.04203549027442932, 0.06788725405931473, -1.2777131795883179, -0.5522894859313965, -0.23312610387802124, 0.14846061170101166, 0.24846228957176208, 0.4272449016571045], [-0.09928888827562332, -0.12417808920145035, 0.17432719469070435, 0.2179124355316162, 0.09577635675668716, -0.05707329139113426, -0.000498496345244348, 0.08575116097927094, 0.02184586226940155, -0.10513516515493393, -0.08551458269357681, 0.12142972648143768, 0.05120741203427315, -0.15575143694877625, 0.07304850220680237, 0.018041329458355904, 0.16295549273490906, -0.19173166155815125, 0.025045866146683693, -0.1635930836200714], [0.0167236365377903, 0.2821946442127228, -0.0117489667609334, 0.18902933597564697, -0.06788428872823715, 0.0900779515504837, 0.006665253080427647, -0.13006272912025452, -0.0006661736406385899, -0.03082180954515934, 0.0006258749635890126, -0.022908344864845276, 0.0696510374546051, 0.09920887649059296, 0.02863342873752117, -0.04113072156906128, -0.040307242423295975, 0.01455535925924778, -0.053634610027074814, 1.3424853023025207e-05], [0.03407364338636398, -0.03322121873497963, 0.17082753777503967, 0.29416051506996155, -0.04438629746437073, 0.025689559057354927, 0.0459628701210022, 0.06106826663017273, -0.16479821503162384, 0.027056144550442696, -0.08731628209352493, -0.041426412761211395, -0.04093775898218155, -0.1591346561908722, 0.15736116468906403, -0.022700725123286247, 0.22243207693099976, -0.06881769001483917, 0.09655679762363434, 0.03797721862792969], [0.022249460220336914, -1.238443374633789, 0.5734056830406189, 0.5012947916984558, 0.36783385276794434, 0.04755932465195656, -0.13079151511192322, -0.011629528366029263, -0.12202822417020798, -0.12567175924777985, 0.007918043993413448, 0.886942982673645, -0.1081857681274414, 0.11517207324504852, -0.09879235923290253, -0.0565262995660305, -0.6719182133674622, 0.39124801754951477, -0.27028700709342957, -0.6518993377685547], [-0.5511652231216431, -0.06497066468000412, -0.14801301062107086, 0.3966863751411438, -0.044897012412548065, 0.2557103633880615, -0.31618019938468933, -0.009593321941792965, -0.07128491252660751, -0.04401753842830658, -0.3763806223869324, 0.2879527509212494, 0.3703431785106659, -0.08248204737901688, 0.0778687447309494, 0.40423110127449036, 0.10813746601343155, 0.052112728357315063, -0.30781564116477966, -0.1959734410047531], [0.050265926867723465, -0.07947134971618652, 0.005312442313879728, 0.009627067483961582, 0.29940280318260193, -0.03938581421971321, -0.06847278028726578, -0.13183072209358215, 0.008313390426337719, -0.004465058445930481, -0.16073811054229736, -0.06321243196725845, 0.26476165652275085, 0.394861102104187, -0.1796484887599945, 0.26302745938301086, 0.1916888952255249, 0.0581481009721756, -0.10141681134700775, -0.11259651184082031], [0.049327872693538666, 0.22154806554317474, 0.29420846700668335, 0.0333426408469677, -0.30950868129730225, -0.11818106472492218, 0.46092352271080017, 0.3540230691432953, -0.24582359194755554, -0.08085028827190399, 0.1750943809747696, 0.21032142639160156, 0.046501439064741135, 0.18820342421531677, 0.007845853455364704, -0.21092210710048676, -0.46214136481285095, -0.062230419367551804, 0.24336794018745422, 0.06886383146047592], [0.17905302345752716, 0.10954686999320984, 0.260111004114151, 0.17738811671733856, 0.12916168570518494, 0.05099466070532799, 0.02976633608341217, -0.15841543674468994, -0.0014862945536151528, 0.05227385461330414, 0.15785418450832367, -0.11308905482292175, 0.03326975926756859, 0.6096800565719604, -0.05970995873212814, 0.07367246598005295, 0.30382615327835083, 0.07739852368831635, 0.017544306814670563, -0.16998422145843506], [-0.033708084374666214, 0.1114538237452507, -0.062372468411922455, 0.458798885345459, -0.022167358547449112, 0.11787373572587967, 0.01564672589302063, 0.22531887888908386, 0.0831550806760788, 0.0039270194247365, -0.17107993364334106, 0.26795700192451477, -0.1130082905292511, -0.19364133477210999, 0.18189509212970734, -0.12165936827659607, 0.0459110401570797, -0.01954852230846882, 0.010877883061766624, 0.05922594293951988], [-0.030771680176258087, -0.07041870802640915, 0.11089326441287994, 0.06449645757675171, 0.21332016587257385, 0.2089872807264328, 0.3103254735469818, 0.11286177486181259, -0.02454976551234722, 0.03894435241818428, -0.027931474149227142, 0.04660864546895027, -0.23300103843212128, -0.10330966114997864, -0.20554374158382416, -0.29388365149497986, 0.11707218736410141, -0.01019628718495369, -0.07795564085245132, 0.021339084953069687], [0.0037571494467556477, 0.1277034729719162, 0.20576050877571106, 0.042211420834064484, 0.2548978924751282, 0.2961629629135132, 0.20325163006782532, 0.07587315887212753, -0.03988657519221306, 0.1757403314113617, -0.11829036474227905, 0.07531123608350754, -0.4352487325668335, -0.05975930765271187, -0.010505004785954952, -0.5804327726364136, 0.10669318586587906, -0.03555947169661522, -0.003646768629550934, -0.07141237705945969], [0.1640549898147583, 0.20250201225280762, -0.020939970389008522, 0.35703760385513306, -0.2111135870218277, 0.200228750705719, -0.40761488676071167, 0.06453893333673477, -0.04484895244240761, -0.19082626700401306, 0.11956042796373367, 0.7321834564208984, -0.1368965059518814, -0.4221329391002655, 0.21676285564899445, -0.24206815659999847, -0.09433373063802719, 0.002344704931601882, -0.04382766783237457, 0.09263672679662704], [-0.2131137251853943, -0.28984540700912476, -0.02290358394384384, 0.3591313064098358, 0.40368568897247314, -0.11100167036056519, -0.14457154273986816, -0.3161141872406006, -0.21773330867290497, -0.01911764405667782, -0.24605320394039154, 0.44841861724853516, -0.20943497121334076, 0.09900014847517014, 0.10543360561132431, 0.2098604291677475, -0.15791548788547516, 0.12045958638191223, -0.04479615390300751, -0.10687925666570663], [0.0736943930387497, -0.07163877040147781, 0.07718132436275482, -0.18019837141036987, 0.5745243430137634, -0.01041004341095686, -0.1530819684267044, -0.3655976355075836, -0.119147889316082, 0.06606147438287735, -0.09254532307386398, -0.15961237251758575, 0.320514976978302, -0.19510893523693085, -0.02912059612572193, 0.2849152684211731, 0.06662029027938843, -0.08293609321117401, -0.34555891156196594, -0.1669805943965912], [0.2302117794752121, 0.026091571897268295, -0.16224537789821625, 0.32000532746315, 0.14487215876579285, -0.0740194320678711, 0.0005346816615201533, 0.002757744397968054, 0.02038346603512764, 0.010108652524650097, -0.006092475727200508, 0.0459316186606884, -0.22428898513317108, 0.12990246713161469, 0.018354887142777443, -0.11433062702417374, -0.021911976858973503, -0.02146642468869686, -0.13710452616214752, -0.0802384540438652], [0.23200242221355438, -0.08920403569936752, 0.026298558339476585, 0.053446926176548004, 0.19885927438735962, -0.4665107727050781, 0.12214551866054535, 0.26007479429244995, -0.08960098773241043, 0.08553346991539001, 0.179364874958992, -0.1455465704202652, -0.18334081768989563, 0.024354396387934685, 0.1641300618648529, -0.19538402557373047, -0.01722860336303711, 0.0045222025364637375, 0.12610767781734467, 0.1475020945072174], [-0.31442496180534363, 0.04318079724907875, -0.18035322427749634, 0.14661510288715363, 0.712864100933075, 0.20110578835010529, -0.9540674090385437, -0.5911838412284851, 0.05495193600654602, -0.0807153582572937, -0.10594267398118973, -0.22421720623970032, 0.3598672151565552, 0.16759516298770905, -0.20595543086528778, 0.20751087367534637, 0.4362856447696686, 0.07178379595279694, 0.04715973138809204, -0.01075828168541193], [-0.027630651369690895, -0.03204664587974548, -0.18427878618240356, 0.16606900095939636, -0.04932685196399689, 0.08385603129863739, 0.14643022418022156, 0.04016687721014023, 0.07381267100572586, -0.06059424206614494, -0.08693154156208038, 0.1501900851726532, -0.235661581158638, -0.10653016716241837, -0.0513581708073616, -0.08972853422164917, 0.1115637794137001, -0.054036688059568405, 0.05516399070620537, -0.08100815117359161], [-0.07199640572071075, 0.1591556817293167, 0.03508007898926735, 0.12480321526527405, 0.18680134415626526, 0.12703222036361694, 0.10257399827241898, -0.040447864681482315, -0.28304824233055115, -0.026121212169528008, -0.11849485337734222, 0.06764933466911316, -0.02376912347972393, -0.04971180111169815, -0.024319250136613846, -0.03927220031619072, 0.06453283876180649, 0.11447577178478241, 0.04343469813466072, -0.13382813334465027], [0.10102139413356781, 0.066593237221241, 0.08706928789615631, 0.28603389859199524, 0.059566475450992584, 0.09061308205127716, -0.02588876709342003, -0.07870078831911087, -0.12904490530490875, 0.03652820363640785, -0.03424503654241562, -0.32486632466316223, -0.05218750983476639, 0.06725745648145676, -0.12786877155303955, 0.10416511446237564, -0.03531406819820404, -0.008230938576161861, 0.16448071599006653, 0.04722518473863602]], "rec.bias_ih_l0": [-0.8237960934638977, 0.2766643464565277, 0.19134187698364258, 0.44401198625564575, -0.07554365694522858, -0.6256041526794434, -0.6684828400611877, 0.16801151633262634, 0.0840245932340622, -1.7499996423721313, -1.2105153799057007, 0.8197289109230042, -0.6096512675285339, -0.1542932242155075, -0.14304453134536743, -1.1904455423355103, 0.2756524384021759, -0.3021693229675293, -0.6395740509033203, -0.623905599117279, 1.112851858139038, 0.3284454941749573, 0.4713559150695801, 0.5721997022628784, 0.6863422989845276, 0.5917066335678101, 0.6177054047584534, 0.2553977966308594, 0.4793623685836792, 2.047055721282959, 1.5041652917861938, 0.666411280632019, 1.0363314151763916, 0.5845069289207458, 0.655286967754364, 1.3499482870101929, 0.18387532234191895, 0.7980039119720459, 0.9520370364189148, 0.7052819132804871, 0.025701208040118217, -0.10883120447397232, 0.15524277091026306, 0.2701784372329712, 0.0530390702188015, 0.02718457765877247, 0.13734588027000427, 0.12208270281553268, -0.19984091818332672, 0.12917214632034302, 0.014127115719020367, -0.12057187408208847, -0.0353381484746933, 0.149478018283844, 0.08680833131074905, -0.0004346254572737962, 0.17452307045459747, -0.10651648044586182, 0.06098562479019165, -0.02774728834629059, 0.1397687792778015, 0.5395146608352661, 0.6104347109794617, 0.038519252091646194, 0.008882897906005383, -0.12917962670326233, 0.08849605917930603, -0.012336880899965763, 0.5061222314834595, -0.10082066804170609, 0.19134032726287842, -0.4382064938545227, 0.07536132633686066, -0.0013721787836402655, 0.3948911130428314, 0.08450300246477127, 0.6269005537033081, -0.06556811183691025, 0.3912127614021301, 0.3345277011394501], "rec.bias_hh_l0": [-0.8132977485656738, 0.28449663519859314, 0.17357303202152252, 0.4617619216442108, -0.10889168083667755, -0.5328461527824402, -0.6713131070137024, 0.2090044617652893, 0.14076121151447296, -1.742810606956482, -1.2777537107467651, 0.8252671360969543, -0.515310525894165, -0.16399338841438293, -0.12165723741054535, -1.1026535034179688, 0.3491320013999939, -0.30999550223350525, -0.5991453528404236, -0.5433741807937622, 1.1443116664886475, 0.36955976486206055, 0.44954562187194824, 0.7410321831703186, 0.6219147443771362, 0.8172608613967896, 0.6601821184158325, 0.11291516572237015, 0.5606281161308289, 2.016538143157959, 1.5032531023025513, 0.5061814188957214, 1.0057443380355835, 0.6251599788665771, 0.630271852016449, 1.3555139303207397, 0.06881789118051529, 0.8078737854957581, 0.9493626952171326, 0.7949310541152954, 0.08402067422866821, -0.014016334898769855, 0.1572607457637787, 0.260911226272583, 0.038982730358839035, -0.0011125280288979411, -0.2052796483039856, -0.14006610214710236, 0.012542404234409332, -0.07501658797264099, -0.03907082602381706, -0.03488343209028244, 0.026683814823627472, -0.10848976671695709, 0.15151968598365784, 0.003463173285126686, -0.09439645707607269, -0.035742420703172684, -0.0991499125957489, 0.00969858281314373, -0.00018103502225130796, 0.512000322341919, 0.622824490070343, -0.15617087483406067, 0.06677895784378052, 0.009766812436282635, 0.028157895430922508, -0.16834069788455963, 0.5392053723335266, -0.15860192477703094, 0.18337856233119965, -0.45887649059295654, 0.016691284254193306, 0.15018269419670105, 0.35107162594795227, 0.06929473578929901, 0.598682701587677, -0.09371396899223328, 0.4710882008075714, 0.34978851675987244], "lin.weight": [[0.27193427085876465, -1.0092183351516724, 0.3430390954017639, 0.5703991651535034, 0.11654888093471527, -0.0583106093108654, 0.09909370541572571, -0.006487120408564806, 0.10201843082904816, 0.7262076735496521, -0.08723438531160355, -0.04160655289888382, 0.004767364822328091, -0.07016243040561676, 0.8001664876937866, 0.20664863288402557, -0.2721072733402252, -0.03396594896912575, -1.6312410831451416, 0.16174300014972687]], "lin.bias": [-0.15126195549964905]}}