{"model_data": {"model": "SimpleRNN", "input_size": 1, "skip": 1, "output_size": 1, "unit_type": "LSTM", "num_layers": 1, "hidden_size": 20, "bias_fl": true}, "state_dict": {"rec.weight_ih_l0": [[-0.10245615243911743], [0.054470449686050415], [0.003913255408406258], [-0.03736984357237816], [0.07755158096551895], [0.22817076742649078], [0.010537154041230679], [0.08061397820711136], [-0.014749840833246708], [0.008147509768605232], [-0.00913508515805006], [-0.03359508141875267], [0.1456514149904251], [-0.32190123200416565], [0.012337859719991684], [0.02358264848589897], [0.10021728277206421], [-0.018161792308092117], [0.06036439910531044], [-0.21147073805332184], [0.11626763641834259], [-0.048911239951848984], [0.01135982945561409], [-0.08348888158798218], [-0.09638236463069916], [0.0023559543769806623], [-0.0025169949512928724], [-0.058857258409261703], [-0.09184655547142029], [-0.06719177216291428], [0.014433629810810089], [-0.003345104632899165], [-0.07466137409210205], [-0.06376563757658005], [-0.026654915884137154], [-0.029817553237080574], [-0.11795870959758759], [-0.08548527210950851], [-0.05889657139778137], [-0.07127892225980759], [-0.7439059615135193], [-0.13579648733139038], [-0.13070353865623474], [-0.08837676793336868], [0.0013742183800786734], [-0.22122839093208313], [0.09787771850824356], [-0.012458456680178642], [-0.7139512300491333], [-0.06906969845294952], [-0.14685563743114471], [-0.30773088335990906], [-0.2805740237236023], [0.3654644191265106], [-0.25744637846946716], [-0.11466087400913239], [0.018819086253643036], [0.1043323501944542], [-0.26679643988609314], [-0.10021208226680756], [-0.05847630277276039], [0.02813163958489895], [-0.08673131465911865], [-0.11516686528921127], [-0.12516695261001587], [-0.06376130878925323], [-0.01988992840051651], [-0.09691120684146881], [-0.007772704586386681], [-0.016079064458608627], [0.00895562581717968], [-0.04288234934210777], [0.17672288417816162], [-0.04140308126807213], [-0.045737914741039276], [-0.08466272056102753], [0.18951335549354553], [0.4275675415992737], [-0.09528981894254684], [-0.04257664456963539]], "rec.weight_hh_l0": [[-0.045113034546375275, 0.06593018770217896, 0.020008912310004234, 0.09024568647146225, 0.03361048921942711, -0.0241607166826725, -0.05820304527878761, -0.0015364596620202065, 0.05664626136422157, 0.0702727735042572, -0.019654156640172005, -0.02843223139643669, -0.046877019107341766, 0.0887119472026825, 0.05354326590895653, -0.018445514142513275, -0.06924963742494583, 0.17328830063343048, 0.10324463248252869, 0.1837879866361618], [-0.08472610265016556, 0.02920582704246044, -0.06162300705909729, 0.0010853548301383853, 0.026045016944408417, 0.07000575959682465, 0.21554169058799744, 0.015012277290225029, -0.04684799164533615, 0.007991854101419449, -0.0248271394520998, 0.0005808999994769692, 0.012649177573621273, 0.11075079441070557, -0.0051775421015918255, -0.001977816689759493, 0.061337269842624664, -0.01581939309835434, 0.008997504599392414, 0.08229012787342072], [-0.18913941085338593, 0.00163195317145437, -0.011726480908691883, 0.054891157895326614, -0.0028812300879508257, 0.12495961785316467, -0.11230888217687607, 0.06082892045378685, -0.0008878922089934349, -0.03911985456943512, 0.07886574417352676, -0.12007567286491394, 0.10976286977529526, -0.09155890345573425, 0.16008196771144867, 0.0065649827010929585, -0.053424589335918427, -0.041634224355220795, 0.0777389258146286, 0.008771784603595734], [0.025140713900327682, 0.10403836518526077, -0.1033792495727539, 0.0080823739990592, -0.023487012833356857, -0.16510161757469177, 0.3057982623577118, -0.020160656422376633, -0.07801403105258942, -0.10680529475212097, -0.006434521172195673, 0.061878010630607605, 0.08009612560272217, -0.08677033334970474, 0.07378675788640976, 0.08014599978923798, -0.05986371636390686, 0.14478500187397003, -0.010770021006464958, -0.08715229481458664], [-0.09677459299564362, 0.008684412576258183, -0.10678384453058243, 0.045651063323020935, -0.002233800943940878, -0.08983726799488068, 0.12365663051605225, 0.047346748411655426, -0.09251716732978821, 0.015413383953273296, -0.06959317624568939, 0.055654242634773254, 0.014497976750135422, -0.17871345579624176, -0.00401267921552062, 0.04068492352962494, -0.13514558970928192, 0.10000360757112503, 0.051879558712244034, -0.33155137300491333], [0.05424913391470909, -0.12124940007925034, -0.009895949624478817, -0.06280582398176193, 0.004897479433566332, 0.18602389097213745, -0.31023794412612915, -0.0240780021995306, -0.06597095727920532, 0.18596194684505463, -0.013949096202850342, -0.06541529297828674, -0.07323765754699707, 0.13439951837062836, 0.011979876086115837, -0.1884348839521408, -0.028879547491669655, -0.050229262560606, 0.0654509887099266, 0.25276362895965576], [-0.0014773346483707428, -0.005479705519974232, -0.010407642461359501, -0.014853161759674549, 0.05556676909327507, 0.010266291908919811, 0.004626615904271603, -0.07783761620521545, 0.012435155920684338, 0.07430986315011978, -0.002428375417366624, -0.014180389232933521, -0.027030710130929947, 0.2229537069797516, -0.06809399276971817, 0.04083538427948952, 0.017700189724564552, 0.07963607460260391, 0.03924065828323364, 0.315669447183609], [-0.058812808245420456, 0.09404876828193665, 0.03313177451491356, 0.048488691449165344, -0.09655070304870605, -0.07490670680999756, 0.21145036816596985, 0.0815698653459549, -0.09031038731336594, -0.0022369578946381807, -0.010127312503755093, 0.08502952754497528, 0.10272139310836792, -0.27862468361854553, 0.07621260732412338, -0.03793666139245033, -0.1663265973329544, -0.10910863429307938, -0.0022490336559712887, -0.3485177457332611], [-0.07592485100030899, 0.025021212175488472, -0.008806522004306316, 0.024937773123383522, 0.028389787301421165, -0.0014133141376078129, 0.015434760600328445, 0.02112230844795704, -0.00012253937893547118, 0.054960284382104874, -0.009861603379249573, -0.055665191262960434, 0.0054604895412921906, 0.06076968088746071, 0.031200148165225983, -0.06526966392993927, 0.049278486520051956, 0.1413332223892212, 0.06021711602807045, 0.14654457569122314], [0.06191323697566986, -0.03501756116747856, 0.02803238295018673, -0.011746152304112911, -0.004937588702887297, 0.022625701501965523, -0.08339949697256088, 0.047006577253341675, 0.057172197848558426, 0.017062298953533173, 0.010180347599089146, -0.02766151912510395, -0.16076864302158356, 0.13912983238697052, -0.05415390059351921, -0.11624874919652939, 0.002956976881250739, 0.001654922729358077, -0.046742528676986694, 0.13721583783626556], [0.022703280672430992, -0.004455290734767914, -0.017333587631583214, 0.03299141302704811, -0.01608886383473873, -0.010319889523088932, -0.08021914213895798, 0.03844853863120079, 0.02698690816760063, 0.08292640745639801, -0.06625248491764069, 0.05152531713247299, -0.010316241532564163, -0.012920012697577477, -0.04180457070469856, 0.034192558377981186, -0.01719052903354168, -0.003266420913860202, 0.051586832851171494, -0.10037577897310257], [-0.07717789709568024, -0.0003726120921783149, -0.043421804904937744, 0.09732334315776825, -0.05066552385687828, -0.02857351303100586, 0.07879491150379181, -0.05053359642624855, 0.07074384391307831, -0.025021202862262726, -0.005969984456896782, -0.07488957792520523, 0.08898414671421051, -0.07319773733615875, 0.01705801673233509, 0.07682818174362183, -0.18121401965618134, 0.1115826964378357, 0.07284232974052429, -0.1211681067943573], [-0.14142431318759918, -0.005932742264121771, -0.03490467369556427, 0.11786747723817825, -0.04808753728866577, 0.09040378034114838, 0.10905353724956512, -0.04919806122779846, -0.02906140126287937, 0.046102963387966156, 0.003504663472995162, -0.06100387126207352, -0.03819090500473976, 0.020868225023150444, 0.030067719519138336, 0.004388279747217894, -0.17669092118740082, 0.06411680579185486, -0.0225157979875803, 0.12148347496986389], [-0.02712072804570198, -0.011563821695744991, -0.04481663554906845, -0.12187033891677856, -0.0026811445131897926, 0.0288102850317955, 0.04590684920549393, -0.053250059485435486, 0.07537198066711426, -0.14846383035182953, 0.04218779876828194, -0.06823902577161789, 0.06406651437282562, -0.07504379749298096, 0.2943826913833618, -0.125000461935997, -0.15730392932891846, -0.016770601272583008, 0.1718885898590088, 0.025274982675909996], [-0.0009770105825737119, -0.0937342569231987, 0.06908148527145386, 0.12455666810274124, -0.05470995232462883, 0.010352806188166142, -0.1564396172761917, -0.11250195652246475, -0.03690466284751892, 0.005550554487854242, 0.025182880461215973, 0.0016860233154147863, -0.07361212372779846, -0.16090917587280273, 0.022223614156246185, -0.06587060540914536, -0.0734887644648552, -0.03622397407889366, 0.08997680246829987, -0.15981602668762207], [-0.1887611299753189, -0.06898214668035507, 0.1421177089214325, 0.1941062957048416, 0.10802765190601349, 0.03966481611132622, -0.16736046969890594, 0.08214995265007019, 0.19372868537902832, -0.23408815264701843, -0.028173545375466347, 0.032503433525562286, -0.0968303233385086, -0.3056027293205261, 0.10626555234193802, 0.08168285340070724, -0.08703582733869553, -0.1418139785528183, -0.05541352927684784, -0.8253073692321777], [-0.12454170733690262, -0.030844934284687042, 0.030020464211702347, 0.17837859690189362, -0.00867353193461895, -0.03023028001189232, -0.1394481211900711, 0.007998235523700714, -0.028953751549124718, 0.051290277391672134, 0.04709872603416443, -0.021258501335978508, 0.0580679327249527, -0.09971081465482712, 0.00727852201089263, 0.015793846920132637, 0.01772988773882389, 0.15859468281269073, 0.061592742800712585, -0.24307948350906372], [-0.0897778570652008, -0.15428782999515533, -0.03712327778339386, 0.2262885421514511, 0.12980492413043976, 0.04633155092597008, -0.5122347474098206, -0.31649351119995117, 0.006040517706423998, -0.06048323214054108, 0.07847383618354797, -0.21081575751304626, -0.04794008657336235, -0.20151138305664062, -0.04988037422299385, -0.15099430084228516, -0.13575425744056702, -0.07314543426036835, -0.07844164222478867, -0.2157660573720932], [-0.0725390762090683, -0.10512465238571167, -0.10157351940870285, 0.07487790286540985, -0.014949643053114414, 0.03375138342380524, -0.04978863522410393, 0.03359677270054817, 0.11980981379747391, 0.006524018477648497, -0.019253216683864594, -0.12857265770435333, 0.018146855756640434, -0.055111583322286606, 0.017882656306028366, -0.0350225567817688, -0.043729256838560104, -0.023215277120471, 0.012678297236561775, 0.06260126829147339], [0.019197985529899597, 0.038617830723524094, 0.059318043291568756, 0.16027610003948212, 0.04857842996716499, 0.3160454332828522, -0.014521078206598759, 0.008696164935827255, 0.111897312104702, 0.08104495704174042, -0.033853672444820404, -0.07237957417964935, -0.07910133898258209, 0.08933337777853012, 0.08654163777828217, -0.10298024863004684, 0.10723475366830826, -0.03476155176758766, 0.011303547769784927, 0.1514030545949936], [0.012371466495096684, 0.03225262090563774, 0.02636602334678173, -0.09024173021316528, -0.08304973691701889, 0.06659160554409027, 0.015263956040143967, 0.23462747037410736, 0.12169773876667023, 0.04535480588674545, -0.10687082260847092, 0.04707581549882889, 0.020180881023406982, 0.1932116150856018, 0.1009039357304573, -0.01679246872663498, -0.11849290877580643, 0.07454866915941238, 0.037001144140958786, 0.0049201725050807], [0.04805992171168327, 0.12377449870109558, 0.04500356689095497, -0.3386005759239197, -0.07892270386219025, 0.0116748521104455, -0.03564827889204025, 0.18536528944969177, -0.07930727303028107, -0.016824258491396904, 0.04195498675107956, 0.2370709478855133, 0.27736225724220276, 0.2815643846988678, -0.05148601531982422, 0.09018831700086594, 0.2070576399564743, -0.18749479949474335, -0.08710774034261703, 0.17990742623806], [-0.10486697405576706, 0.08041303604841232, -0.04637983441352844, 0.038653887808322906, 0.01936963200569153, 0.00697228591889143, 0.08038847893476486, 0.1010301411151886, -0.034316372126340866, 0.07921714335680008, -0.02014636993408203, -0.03513481095433235, 0.05012418329715729, 0.182541623711586, 0.005191364325582981, 0.011382407508790493, -0.12889237701892853, -0.07121080905199051, 0.03749876841902733, 0.20178669691085815], [-0.0007953023305162787, -0.0667998343706131, -0.17097583413124084, 0.12466581165790558, 0.09676250070333481, -0.032257091253995895, 0.17550693452358246, -0.10700757801532745, -0.1401931345462799, -0.13764242827892303, -0.02866213023662567, -0.04602101445198059, 0.054353758692741394, -0.1954161673784256, 0.11667291074991226, 0.035744354128837585, -0.10563275218009949, 0.06810107082128525, 0.013666043989360332, -0.10313142836093903], [-0.008570922538638115, 0.040456537157297134, 0.03111301362514496, -0.008876113221049309, -0.007652570027858019, -0.016794439405202866, -0.0679207444190979, 0.1655818074941635, 0.01923244260251522, 0.010868554003536701, -0.08745167404413223, -0.05843903869390488, 0.04786130040884018, 0.11020606756210327, 0.10861998796463013, 0.011348443105816841, -0.03367511183023453, -0.047436777502298355, 0.06650541722774506, 0.21279071271419525], [0.05094722658395767, -0.03483881428837776, -0.019003916531801224, -0.16765102744102478, 0.014720350503921509, 0.10628246515989304, 0.09329481422901154, 0.08237923681735992, -0.025664912536740303, 0.14917267858982086, -0.004277566913515329, 0.018461547791957855, 0.01086250226944685, 0.06980615109205246, 0.034217577427625656, -0.10224758833646774, 0.1281924843788147, -0.033503543585538864, 0.04021189361810684, 0.010628344491124153], [0.10730740427970886, 0.05979572609066963, -0.005100259091705084, -0.06366170942783356, -0.011352479457855225, -0.015905337408185005, 0.0852256640791893, -0.06640537828207016, 0.04460810497403145, -0.07674355804920197, 0.016605587676167488, 0.10091324150562286, -0.026383450254797935, 0.018457230180501938, -0.11835132539272308, 0.14950807392597198, 0.09526333957910538, -0.08416424691677094, -0.047948356717824936, -0.0597737580537796], [-0.026505736634135246, 0.09377191215753555, 0.03788028284907341, -0.08824487030506134, -0.11039046198129654, -0.009874467737972736, 0.07845199108123779, 0.14043422043323517, -0.012811233289539814, -0.03135700151324272, 0.020940929651260376, -0.05187760666012764, 0.09951964020729065, 0.06934332102537155, 0.0431915819644928, 0.018493544310331345, -0.04086775705218315, -0.16108745336532593, 0.02430102974176407, 0.16370853781700134], [0.05355477333068848, 0.07545161992311478, -0.017997650429606438, 0.03340092673897743, -0.012508307583630085, -0.0783173143863678, -0.09373883903026581, 0.09341124445199966, 0.03891007974743843, 0.021779058501124382, -0.08130752295255661, -0.06970410794019699, 0.05595555156469345, -0.034227434545755386, -0.05630204826593399, 0.02912772260606289, -0.0004926769761368632, 0.06864207983016968, 0.05786293372511864, 0.006784468423575163], [-0.12064290791749954, -0.11773695796728134, 0.0020193408709019423, 0.024494990706443787, -0.043562501668930054, -0.07036899030208588, 0.061939090490341187, -0.023743266239762306, 0.16667576134204865, 0.023687152191996574, -0.00032709946390241385, 0.16232803463935852, 0.04163753241300583, 0.0015717670321464539, 0.008336897008121014, -0.1236853301525116, -0.04867062345147133, 0.0056878565810620785, 0.14515666663646698, 0.2095659375190735], [0.03796335309743881, 0.04226253926753998, 0.03503809869289398, 0.008912252262234688, 0.027760099619627, 0.02775483764708042, 0.0433928407728672, -0.05997820198535919, -0.07592956721782684, 0.06880037486553192, -0.10471121221780777, 0.011887648142874241, 0.03259623423218727, 0.20049582421779633, -0.04592924192547798, 0.04547172039747238, 0.09444036334753036, -0.00712558813393116, -0.008960106410086155, 0.20777182281017303], [0.0433911494910717, 0.02349143847823143, -0.08391279727220535, -0.025952206924557686, -0.021594548597931862, -0.04510270804166794, -0.017699826508760452, -0.009490752592682838, 0.026241673156619072, -0.09343843162059784, -0.011961712501943111, -0.056324202567338943, 0.05958139896392822, 0.11757224053144455, 0.025901533663272858, 0.004123621620237827, -0.15214672684669495, 0.06194232404232025, 0.0664086565375328, 0.22472669184207916], [-0.010963832959532738, 0.009235945530235767, -0.07537952810525894, 0.08298944681882858, 0.008591537363827229, -0.05978851765394211, -0.002566674491390586, -0.06568381935358047, -0.11821947246789932, 0.031419891864061356, -0.0061870417557656765, -0.10532016307115555, -0.033865638077259064, -0.14020906388759613, -0.03750105947256088, 0.04024343565106392, -0.09731525927782059, -0.10914869606494904, 0.023705868050456047, 0.09865575283765793], [-0.12408501654863358, 0.12466079741716385, -0.06029113382101059, -0.16350241005420685, 0.01577760837972164, -0.12569455802440643, 0.021814996376633644, -0.021963905543088913, -0.14425137639045715, -0.1341370940208435, 0.0214616097509861, -0.09394785016775131, 0.10014644265174866, -0.02351904846727848, 0.2406388819217682, -0.06319127976894379, -0.07274974137544632, -0.00914053712040186, 0.18831606209278107, 0.21810920536518097], [-0.06329390406608582, 0.010670775547623634, 0.08498908579349518, 0.00037187026464380324, -0.04062848165631294, 0.060767583549022675, 0.12798482179641724, 0.06575863063335419, 0.007310002110898495, 0.047976333647966385, 0.02056565135717392, -0.008363062515854836, -0.008852924220263958, 0.020227966830134392, 0.048149608075618744, -0.012426916509866714, -0.06603637337684631, 0.017394036054611206, 0.05940923094749451, 0.2070067822933197], [-0.08785765618085861, -0.04709866642951965, 0.1049591675400734, 0.1710875779390335, -0.11783602833747864, 0.09165968745946884, -0.3118988275527954, -0.09582962095737457, 0.0817536786198616, 0.11156586557626724, 0.027285881340503693, 0.05079847574234009, 0.05511905997991562, 0.2426418513059616, 0.03046710044145584, 0.3367363512516022, 0.09065301716327667, -0.03208186849951744, -0.12125289440155029, 0.2635232210159302], [0.04130799323320389, 0.07365009188652039, 0.03735124692320824, -0.006089685019105673, 0.09627216309309006, -0.027079232037067413, -0.11286647617816925, 0.04527764767408371, -0.08899205923080444, -0.06292329728603363, 0.02430214174091816, -0.020398134365677834, 0.10013635456562042, 0.02849232219159603, 0.04416486993432045, 0.2062925100326538, 0.08712034672498703, -0.048452649265527725, 0.05619914457201958, 0.27188214659690857], [-0.08774752169847488, -0.03404456004500389, -0.11135655641555786, 0.25820645689964294, 0.07349662482738495, 0.18610312044620514, 0.33803513646125793, -0.11635009944438934, 0.07037194073200226, 0.028258809819817543, -0.054090872406959534, -0.051732081919908524, 0.019183337688446045, -0.028295548632740974, 0.08697331696748734, -0.034500181674957275, -0.18658441305160522, 0.15920497477054596, 0.03610944747924805, 0.285304456949234], [-0.04310627654194832, 0.020975198596715927, -0.17285451292991638, 0.08263669162988663, -0.07241246104240417, -0.01972794532775879, 0.01679779775440693, 0.050300464034080505, 0.030803993344306946, -0.00648862449452281, -0.11258071660995483, -0.11592984199523926, 0.0820813849568367, -0.08137515187263489, 0.13940094411373138, 0.09002368152141571, -0.09819993376731873, 0.08356830477714539, 0.008670774288475513, 0.14528930187225342], [-0.034542664885520935, -0.09414827823638916, -0.014723683707416058, 0.04265985265374184, 0.05952756106853485, 0.15015558898448944, -0.19374480843544006, 0.03709454834461212, 0.15086902678012848, 0.11759936064481735, -0.08449867367744446, -0.06348267942667007, -0.12328944355249405, 0.13962657749652863, -0.025327350944280624, -0.18724094331264496, 0.15095369517803192, -0.06450146436691284, -0.05057823657989502, 0.32756179571151733], [-0.2580971419811249, -0.41444358229637146, -0.2762763202190399, -0.3980235755443573, -0.20809538662433624, 0.2268550992012024, -0.027209892868995667, -0.052595578134059906, -0.48563051223754883, 0.23726296424865723, -0.13787531852722168, -0.036766596138477325, 0.11387619376182556, 0.22108078002929688, -0.6395471692085266, 0.16412611305713654, -0.3930250108242035, 0.3353351056575775, -0.4770599901676178, -0.2461504340171814], [0.9611338973045349, 0.29335662722587585, -0.16492584347724915, -0.0325637124478817, -0.3423392176628113, -0.028515784069895744, -0.09959867596626282, 0.20167793333530426, 0.7407438158988953, -0.01262089516967535, -0.1204041987657547, 0.40669897198677063, 0.10976743698120117, 0.3410565257072449, 0.28604215383529663, 0.05139142647385597, -0.4010629951953888, 0.44122791290283203, 0.235982745885849, 0.14324434101581573], [0.08742368966341019, 0.16091419756412506, 0.4801096022129059, -0.04064818471670151, -0.07499053329229355, 0.08476929366588593, -0.054137568920850754, -0.04277101159095764, -0.6149225831031799, -0.05152421072125435, -0.02807169035077095, -0.06453067809343338, -0.44524455070495605, 0.14574503898620605, 0.09463232010602951, 0.1797959953546524, -0.1125183179974556, 0.022500179708003998, 0.2444993108510971, -0.11639981716871262], [-0.14512240886688232, 0.2583447992801666, 0.06200335547327995, 0.2726152241230011, -0.161067396402359, 0.14527781307697296, 0.1286560446023941, -0.35700953006744385, 0.41330137848854065, 0.1023738905787468, -0.021479792892932892, 0.08201096951961517, -0.24490474164485931, 0.049601007252931595, 0.11958746612071991, 0.2533043920993805, -0.284515380859375, 0.22262051701545715, -0.10057119280099869, -0.17274858057498932], [-0.17220115661621094, 0.26758548617362976, 0.08027027547359467, 0.10102277249097824, 0.4454704821109772, -0.01660015992820263, 0.06763873994350433, -0.022421227768063545, -0.0002873589692171663, -0.02281198464334011, -0.11712121218442917, 0.26027023792266846, 0.20257067680358887, 0.13126307725906372, -0.1526731699705124, -0.10672435164451599, -0.14392957091331482, -0.10041233152151108, -0.13282836973667145, -0.04530042037367821], [0.26392391324043274, -1.017491340637207, 0.044340360909700394, 0.18058305978775024, 0.14698699116706848, 0.6523560881614685, 0.8008467555046082, 0.009558633901178837, 0.3349361717700958, -0.045144978910684586, -0.021135784685611725, 0.016912437975406647, -0.09847086668014526, 0.24829941987991333, -0.392626017332077, 0.1456456333398819, 0.19334402680397034, 0.19059866666793823, -0.28644490242004395, -0.6166790723800659], [-0.6128838062286377, 1.7248005867004395, -0.12050268054008484, 0.014658692292869091, -0.3446641266345978, -0.1438935101032257, 1.1451425552368164, 0.2174614667892456, -0.39714303612709045, 0.002231984632089734, -0.0411897674202919, 0.3301103711128235, 0.35583046078681946, 0.017140807583928108, 0.08866904675960541, 0.12559671700000763, -0.254652738571167, 0.27833467721939087, 0.023205915465950966, -0.07653243839740753], [-0.004421974532306194, -0.06639032810926437, -0.08032599091529846, -0.10412458330392838, 0.007037767209112644, 0.30416470766067505, -0.1788923591375351, 0.5403133630752563, 0.06450864672660828, 0.022207090631127357, -0.029570063576102257, 0.04413452744483948, -0.16351376473903656, -0.07727445662021637, -0.09903643280267715, 0.026706285774707794, 0.07624442875385284, 0.12140657007694244, -0.10414429008960724, 0.11227699369192123], [-0.43849310278892517, -0.6201431751251221, 0.3694874048233032, 0.189127579331398, -0.2371942400932312, -0.37892627716064453, 0.0658535286784172, 0.27081918716430664, -0.11826924234628677, -0.0939040556550026, -0.07496849447488785, -0.13489094376564026, -0.341508686542511, 0.5068324208259583, 0.19489595293998718, -0.08687494695186615, -0.2257063388824463, 0.17873722314834595, -0.24160698056221008, -0.20130522549152374], [-0.723334789276123, -0.18904227018356323, 0.6374170780181885, -0.23365825414657593, 0.059893980622291565, 0.09899790585041046, 0.03265560418367386, -0.062319785356521606, 0.6889753937721252, 0.2979065477848053, -0.10110808908939362, -0.2694801986217499, 0.40856537222862244, 0.013530699536204338, 0.19500432908535004, 0.1443294733762741, 0.08055843412876129, 0.03514756262302399, -0.044881947338581085, 0.2277827262878418], [-0.12183661758899689, 0.12275217473506927, -0.01629750244319439, -0.0622713565826416, -0.04416161775588989, 0.04188200458884239, -0.012038856744766235, 0.012796451337635517, -0.13687089085578918, 0.06734984368085861, 0.5373715758323669, 0.020484721288084984, -0.1343873292207718, 0.07608269900083542, 0.10950783640146255, 0.05306798592209816, -0.20737779140472412, 0.09774018824100494, -0.42534443736076355, 0.029609551653265953], [-0.26578208804130554, -0.1573386937379837, -0.052455853670835495, -0.10399501770734787, -0.29646041989326477, 0.11187512427568436, -0.10745518654584885, -0.11800525337457657, -0.1341114640235901, 0.07695940881967545, -0.08011657744646072, 0.5827815532684326, -0.31866180896759033, 0.11811434477567673, 0.0431111715734005, 0.07125766575336456, -0.0762215331196785, 0.19860650599002838, -0.28548958897590637, 0.09994211047887802], [-0.2569451630115509, 0.05297549068927765, 0.23310093581676483, 0.14181944727897644, -0.5907835364341736, 0.29850971698760986, -0.18435394763946533, 0.035816606134176254, 0.01326284185051918, -0.053446389734745026, -0.13511987030506134, 0.26494109630584717, 0.4079104959964752, 0.049334317445755005, -0.27803054451942444, -0.11480081081390381, -0.12411786615848541, 0.13623298704624176, -0.3586772680282593, 0.2536792755126953], [-0.07221219688653946, 0.04624331742525101, -0.12133356183767319, 0.011315534822642803, 0.3256452977657318, -0.01534220203757286, 0.08135345578193665, -0.05408095940947533, -0.3592435419559479, 4.2717943870229647e-05, 0.14454366266727448, -0.2743106186389923, -0.09490752220153809, 0.4989680349826813, 0.07890994846820831, -0.0059407977387309074, 0.16185586154460907, -0.17942076921463013, 0.10311927646398544, -0.1078668162226677], [0.23651881515979767, -0.3863619863986969, -0.20616915822029114, -0.05073411390185356, 0.029616303741931915, 0.21545931696891785, -0.05966774374246597, 0.15040700137615204, -0.3603781461715698, -0.08566867560148239, -0.1874786615371704, 0.09133558720350266, 0.2003016471862793, -0.1395614743232727, 0.4649766981601715, -0.0037745044101029634, 0.11627896130084991, 0.3856104016304016, -0.1587861031293869, 0.0033086324110627174], [-0.12019455432891846, -0.11744707822799683, -0.020018240436911583, -0.019404396414756775, 0.0030399931129068136, -0.010121278464794159, -0.007253296207636595, 0.04016801714897156, 0.010086528956890106, -0.15150722861289978, -0.08506891876459122, 0.004100560676306486, -0.03359343484044075, 0.0922292172908783, -0.037163861095905304, 0.5878259539604187, -0.06821206212043762, 0.04341081529855728, -0.02688474953174591, 0.07450751960277557], [-0.1265370398759842, 0.5389404296875, -0.08757662028074265, 0.013874449767172337, -0.2112189382314682, 0.08814317733049393, -0.011407215148210526, -0.09141440689563751, -0.05454152822494507, 0.05383557081222534, 0.043540794402360916, 0.1312103569507599, 0.10218281298875809, 0.38591983914375305, -0.040697041898965836, 0.10002505779266357, 0.33260583877563477, -0.10019046813249588, -0.0783691257238388, -0.2380024939775467], [0.15682514011859894, -0.31271958351135254, 0.038395460695028305, 0.22307197749614716, 0.1234566792845726, -0.00381881813518703, -0.18504631519317627, -0.10616482049226761, -0.018212266266345978, 0.04760555922985077, 0.04216083511710167, -0.10308331996202469, -0.18661455810070038, 0.06523825228214264, 0.01867874339222908, -0.06861265003681183, -0.05633814260363579, 0.43935683369636536, 0.0381307378411293, 0.07098410278558731], [-0.260823518037796, -0.3351248800754547, -0.30580899119377136, -0.018774839118123055, 0.016083629801869392, 0.2788064181804657, -0.1007821187376976, 0.16578546166419983, -0.1316903978586197, -0.03934966400265694, 0.2611350417137146, 0.28241798281669617, 0.29916349053382874, -0.07362668216228485, -0.32368043065071106, -0.10646560043096542, 0.1100868359208107, 0.27863389253616333, 0.38293740153312683, 0.013962273485958576], [0.05436105281114578, -0.3147033751010895, 0.06600960344076157, 0.24472421407699585, 0.04025799781084061, 0.03169098496437073, -0.18334870040416718, -0.1691976934671402, 0.20081456005573273, -0.13460597395896912, -0.06030819192528725, 0.003977697342634201, -0.28069835901260376, -0.0880390927195549, -0.06481067091226578, 0.27552783489227295, -0.037289250642061234, 0.1925763487815857, -0.16783058643341064, 0.4508792459964752], [-0.06939732283353806, 0.10815343260765076, 0.01908554881811142, 0.07671819627285004, 0.03339111804962158, -0.019303934648633003, 0.03407289460301399, -0.006606210023164749, 0.08737464994192123, 0.0528985857963562, -0.018310774117708206, -0.01848628558218479, -0.033981453627347946, 0.11564088612794876, 0.036204684525728226, 0.003735183971002698, -0.056330371648073196, 0.17235687375068665, 0.08559845387935638, 0.2356262058019638], [-0.07394861429929733, 0.07293020933866501, -0.05529308319091797, 0.021796977147459984, 0.060707684606313705, 0.017435096204280853, 0.17357616126537323, -0.01425115205347538, -0.04886512830853462, 0.07835868000984192, -0.014098827727138996, -0.0030558041762560606, 0.029858049005270004, 0.13727986812591553, -0.02042977884411812, 0.01646469719707966, 0.054975759238004684, 0.08007193356752396, 0.03931165859103203, 0.19644109904766083], [-0.0576225146651268, -0.02230551652610302, -0.010058819316327572, 0.04113854095339775, 0.03662137687206268, 0.04391637071967125, -0.040802475064992905, 0.010240407660603523, 0.017952509224414825, -0.0016339652938768268, 0.06891673803329468, -0.11196576803922653, 0.05353011190891266, 0.0023751603439450264, 0.046258192509412766, 0.01471221074461937, 0.04870716109871864, -0.00719144893810153, 0.04236666113138199, 0.06030984967947006], [0.021157318726181984, -0.05427870154380798, -0.0751190111041069, 0.060827769339084625, 0.030183270573616028, 0.032208316028118134, 0.09815196692943573, -0.0710427463054657, -0.014010794460773468, -0.13503064215183258, -0.003803923027589917, -0.036810122430324554, -0.05873968079686165, 0.007764571812003851, 0.1137547418475151, 0.07170568406581879, -0.01680455170571804, 0.15137217938899994, 0.038717661052942276, 0.009255786426365376], [-0.056703634560108185, 0.060162387788295746, -0.006176530849188566, 0.08446899056434631, 0.03586668521165848, 0.017154740169644356, 0.006055158097296953, -0.05439137667417526, 0.15102052688598633, -0.0796162337064743, -0.023907748982310295, -0.05735890939831734, -0.06364868581295013, 0.027962172403931618, 0.0310659259557724, 0.07062079757452011, -0.009950266219675541, 0.04175695404410362, -0.013696663081645966, -0.010636710561811924], [0.0556841604411602, 0.2666173577308655, -0.06996557861566544, -0.17670516669750214, 0.09741196781396866, -0.10692419856786728, 0.22515468299388885, 0.1451442390680313, 0.03745202720165253, -0.07682207971811295, -0.0649803876876831, -0.05242075026035309, 0.029989667236804962, 0.11845459789037704, -0.008466078899800777, -0.2937800884246826, 0.03698260337114334, 0.005156378261744976, 0.0443999208509922, 0.1283259093761444], [0.04842930659651756, 0.0705137848854065, 0.009452037513256073, -0.06199571117758751, 0.026184512302279472, -0.0007673668442294002, 0.007558985613286495, -0.06903709471225739, 0.018853411078453064, 0.0631716325879097, 0.0030789459124207497, 0.040540486574172974, 0.007645492907613516, 0.20113547146320343, -0.06825512647628784, 0.06661751866340637, 0.031202977523207664, 0.005938265938311815, 0.007027372717857361, 0.2703702449798584], [-0.04027056321501732, 0.050832152366638184, -0.0037367308977991343, 0.01916709914803505, 0.052723053842782974, 0.00807909294962883, -0.11229638010263443, -0.08417673408985138, 0.02905339188873768, -0.06537041068077087, -0.019102782011032104, -0.12625165283679962, -0.057517148554325104, 0.0162727702409029, 0.04183775186538696, -0.040241654962301254, -0.0038203452713787556, -0.13532419502735138, -0.006762129254639149, -0.026960432529449463], [-0.056985385715961456, 0.026061002165079117, -0.014938748441636562, 0.0508558452129364, 0.03085445985198021, 0.06514360010623932, 0.016258690506219864, 0.00398354372009635, 0.0004558289365377277, 0.06342748552560806, -0.014312103390693665, -0.061927858740091324, -0.011158694513142109, 0.10067585855722427, 0.031737711280584335, -0.03860718384385109, 0.041131921112537384, 0.12855449318885803, 0.05492611601948738, 0.20445173978805542], [-0.03356986865401268, -0.04363471269607544, -0.029454654082655907, 0.08034156262874603, -0.07231669127941132, -0.0018545795464888215, -0.06139415502548218, 0.06168806552886963, 0.00556041719391942, -0.12500698864459991, 0.005188827868551016, -0.06386116147041321, -0.10015231370925903, -0.10952132940292358, -0.037260498851537704, -0.09355305880308151, -0.024326391518115997, -0.12815727293491364, -0.08477814495563507, -0.01725805550813675], [0.0030650291591882706, 0.03521885350346565, 0.017464132979512215, 0.047919150441884995, 0.016024813055992126, 0.007867934182286263, 0.02879822999238968, 0.004889237694442272, -0.006502632983028889, -0.01663188450038433, -0.04774445295333862, 0.012509518302977085, 0.008155237883329391, 0.018431812524795532, 0.0010301173897460103, 0.02851531282067299, 0.00014507307787425816, 0.04222485050559044, -0.0063346978276968, 0.03475065156817436], [-0.06365939974784851, 0.05799822509288788, -0.013327376917004585, 0.14215794205665588, -0.01472874078899622, 0.051621150225400925, 0.04596809297800064, -0.07247042655944824, 0.07146812975406647, 0.04308806359767914, -0.013374301604926586, -0.10745904594659805, 0.01731288805603981, -0.0298968143761158, 0.0375855378806591, 0.08265235275030136, -0.0828072801232338, 0.07512795180082321, 0.06123596057295799, 0.012884220108389854], [-0.12210249900817871, -0.10128359496593475, 0.004255121108144522, 0.06736698746681213, -0.03710247203707695, 0.08955041319131851, 0.034845020622015, -0.05821646377444267, -0.036656156182289124, 0.054626986384391785, 0.0008771161665208638, -0.06295430660247803, -0.053903136402368546, 0.13000372052192688, 0.014931509271264076, 0.008415117859840393, -0.15001553297042847, 0.07890671491622925, -0.030492432415485382, 0.1668052226305008], [-0.06955784559249878, -0.07977510988712311, 0.08455974608659744, -0.0893067941069603, -0.01991126500070095, 0.14309102296829224, 0.1952442228794098, -0.061818357557058334, 0.16645067930221558, -0.043672434985637665, 0.0189743060618639, -0.06499084085226059, -0.07475628703832626, -0.008116154000163078, 0.220974862575531, -0.09657370299100876, -0.0906829684972763, 0.04571359604597092, 0.10910309851169586, 0.0851489007472992], [-0.04689425975084305, 0.004026876296848059, 0.023895813152194023, 0.1737285852432251, -0.0032329605892300606, 0.03557687625288963, -0.03489396721124649, -0.1002093106508255, 0.0074560754001140594, 0.023496288806200027, 0.005785707384347916, -0.03948456048965454, -0.05487503856420517, -0.07155872881412506, 0.016180695965886116, -0.039461612701416016, -0.0474141463637352, -0.013559998944401741, 0.060601700097322464, -0.018131358548998833], [-0.05986645817756653, 0.10983030498027802, 0.028815623372793198, 0.10375847667455673, 0.0692489817738533, 0.002879292005673051, 0.01703675650060177, -0.025507604703307152, 0.052067216485738754, -0.1740921437740326, 0.009142312221229076, -0.026237135753035545, -0.02182650752365589, 0.0330020897090435, -0.012233450077474117, 0.0987895056605339, 0.0531245619058609, 0.018166223540902138, -0.04623012617230415, -0.11764795333147049], [-0.07061660289764404, -0.07357681542634964, 0.04311462864279747, 0.09793570637702942, 0.0310532134026289, 0.10189627856016159, 0.12735645473003387, -0.02826937846839428, -0.006779154296964407, -0.05727909132838249, 0.024088947102427483, -0.06146210432052612, -0.0683930367231369, 0.039170101284980774, 0.0467204675078392, 0.03360249847173691, -0.0035212389193475246, 0.15302036702632904, 0.07167574763298035, -0.08202806860208511], [0.0032603784929960966, -0.09076005965471268, -0.0559125654399395, -0.15311488509178162, 0.014872750267386436, 0.02829005755484104, 0.11058727651834488, -0.07639186829328537, -0.13152141869068146, 0.06571706384420395, 0.06099870055913925, -0.0108427032828331, -0.012522352859377861, 0.12273554503917694, 0.006405149586498737, -0.06444137543439865, -0.12113241106271744, -0.009568379260599613, 0.04165186360478401, 0.04536014795303345], [0.011557814665138721, 0.03384389355778694, -0.1119966059923172, 0.04763854295015335, -0.0117601677775383, 0.015447222627699375, -0.027139747515320778, 0.02231322042644024, 0.06805574148893356, -0.012528713792562485, -0.02014767937362194, -0.09256947040557861, -0.009049181826412678, -0.027085546404123306, 0.06199868023395538, -0.017760369926691055, -0.07007699459791183, -0.005235656164586544, 0.041276365518569946, 0.10534141212701797], [0.07214527577161789, -0.07133316248655319, 0.03658410906791687, 0.021806512027978897, 0.03641295060515404, 0.07018499076366425, -0.35065555572509766, 0.06730306893587112, 0.07617224752902985, -0.0213906392455101, 0.008715377189218998, 0.014181751757860184, 0.05159591883420944, 0.19431111216545105, -0.04254401847720146, -0.0008960475097410381, 0.10873617231845856, 0.032735757529735565, -0.006950858980417252, 0.37187743186950684]], "rec.bias_ih_l0": [0.49246618151664734, 0.5141233205795288, -0.04809311404824257, 0.10295266658067703, -0.36407479643821716, 0.3145454525947571, 0.6294704079627991, -0.3908012807369232, 0.42984282970428467, 0.3404078185558319, -0.32646825909614563, -0.14381611347198486, 0.1821429431438446, -0.17582128942012787, -0.02807549200952053, -0.6261499524116516, -0.1592588722705841, -0.9181408286094666, 0.01922643929719925, 0.08529111742973328, 0.15106898546218872, 0.27734485268592834, 0.600619912147522, 0.2973398268222809, 0.9262073636054993, -0.004478848073631525, -0.06914728879928589, 1.0522745847702026, 0.23219040036201477, 0.7788613438606262, 0.8175150156021118, 0.7409813404083252, 0.48137667775154114, 0.5210258960723877, 0.631027102470398, 1.187463641166687, 0.6839996576309204, 1.372533917427063, 0.5892667174339294, 0.376299649477005, 0.02061723917722702, 0.031345974653959274, -0.048768721520900726, 0.0277094729244709, -0.06690160930156708, 0.2337396889925003, 0.05942286550998688, -0.08146430552005768, 0.13325318694114685, -0.16646772623062134, -0.06603765487670898, -0.13333314657211304, -0.1342812031507492, 0.20541851222515106, -0.09216462820768356, -0.21674112975597382, 0.1292881965637207, 0.03762926906347275, 0.08246410638093948, 0.15811361372470856, 0.6160933971405029, 0.7657269835472107, 0.3245547115802765, 0.273691862821579, 0.2608482837677002, -0.015535230748355389, 0.4368920624256134, 0.11878527700901031, 0.5672271847724915, 0.23962819576263428, 0.18879173696041107, 0.21104556322097778, 0.3796769678592682, 0.17410676181316376, 0.3196370303630829, 0.3588848114013672, 0.23946627974510193, 0.15821747481822968, 0.26131823658943176, 0.2954457104206085], "rec.bias_hh_l0": [0.4912060499191284, 0.5144938826560974, -0.05555753409862518, 0.10062334686517715, -0.3881587088108063, 0.20284239947795868, 0.6173079013824463, -0.37629270553588867, 0.42786797881126404, 0.30953532457351685, -0.2409924864768982, -0.11763089150190353, 0.19250597059726715, -0.13267087936401367, -0.04957738518714905, -0.5691405534744263, -0.15367966890335083, -0.8459113836288452, 0.02130233496427536, 0.05689157545566559, 0.14546523988246918, 0.27192312479019165, 0.6583409309387207, 0.2772577106952667, 1.0215920209884644, 0.07401114702224731, -0.11114318668842316, 1.0496201515197754, 0.19494038820266724, 0.7660768628120422, 0.8632879257202148, 0.7355109453201294, 0.44413965940475464, 0.5187346339225769, 0.65546053647995, 1.2307039499282837, 0.6998528242111206, 1.3611012697219849, 0.5748993158340454, 0.5083342790603638, -0.0450378842651844, -0.11196834594011307, 0.020412644371390343, -0.03591349720954895, 0.08773979544639587, -0.006023851688951254, -0.057335738092660904, 0.03424420207738876, -0.15555715560913086, 0.03513305261731148, 0.026562191545963287, 0.03668893873691559, 0.06072835624217987, -0.01534463930875063, 0.1255376785993576, 0.18177926540374756, -0.1254444271326065, -0.06524063646793365, -0.05489470437169075, 0.032202016562223434, 0.6162263751029968, 0.7657232880592346, 0.2704581916332245, 0.2589746117591858, 0.1812688410282135, -0.002494676737114787, 0.4911998212337494, 0.1298799067735672, 0.5532426834106445, 0.23457054793834686, 0.19209140539169312, 0.23709817230701447, 0.3716665506362915, 0.1565432846546173, 0.31397438049316406, 0.24262303113937378, 0.23820564150810242, 0.08809296786785126, 0.2655610144138336, 0.29065898060798645], "lin.weight": [[1.064958095550537, 0.21235451102256775, 0.6442002654075623, 0.6055412292480469, 0.07199505716562271, -0.18229031562805176, 0.05007804557681084, -0.25705787539482117, 0.3056475520133972, 1.394673228263855, 0.6703608632087708, -0.06196080148220062, 0.6425583362579346, -0.5443499684333801, 0.16748058795928955, 0.7084723114967346, 0.4995761513710022, -0.473476767539978, -0.05776876583695412, -0.03732772544026375]], "lin.bias": [0.021416759118437767]}}