{"model_data": {"model": "SimpleRNN", "input_size": 1, "skip": 1, "output_size": 1, "unit_type": "LSTM", "num_layers": 1, "hidden_size": 20, "bias_fl": true}, "state_dict": {"rec.weight_ih_l0": [[0.09344613552093506], [0.03949684277176857], [0.05228304862976074], [0.027859896421432495], [-0.024896813556551933], [0.15426534414291382], [-0.06176641955971718], [-0.12404520064592361], [-0.19754436612129211], [-0.08165775239467621], [0.022896166890859604], [0.1950586587190628], [-0.24844884872436523], [-0.09462089836597443], [0.12682852149009705], [-0.15443292260169983], [0.2024604082107544], [0.02492663450539112], [0.07656455785036087], [-0.007433568127453327], [0.08707679808139801], [0.06032977253198624], [0.1721724271774292], [-0.059779711067676544], [-0.006058516446501017], [0.27790477871894836], [-0.002169233513996005], [-0.06660961359739304], [-0.09973910450935364], [0.022078262642025948], [-0.08915263414382935], [0.08697835355997086], [-0.204206183552742], [0.10031243413686752], [0.049272697418928146], [-0.004908123053610325], [-0.027134327217936516], [0.007240019738674164], [-0.058804966509342194], [-0.10243448615074158], [0.5278440713882446], [0.31132733821868896], [-0.07980266213417053], [-0.43531402945518494], [-0.012171045877039433], [-0.4526382386684418], [-0.178466796875], [-0.07324498891830444], [-0.4305509924888611], [-0.31091973185539246], [0.0034449014347046614], [0.15978844463825226], [-0.2132236808538437], [0.2488112896680832], [0.023792840540409088], [0.07065974920988083], [-0.1992870718240738], [0.17115874588489532], [0.619009256362915], [-0.13771560788154602], [0.09410171955823898], [0.009156621992588043], [0.1364874392747879], [0.01440706942230463], [-0.039072953164577484], [0.16678844392299652], [-0.16067399084568024], [-0.16075439751148224], [-0.113179050385952], [-0.10214307904243469], [-0.1536812037229538], [0.2373535931110382], [-0.19768153131008148], [0.3148441016674042], [0.2088659554719925], [-0.004592237528413534], [0.08480124175548553], [0.0016964226961135864], [-0.11887673288583755], [-0.019710417836904526]], "rec.weight_hh_l0": [[-0.00045902369311079383, 0.02640288695693016, -0.04985275864601135, -0.06320875138044357, -0.013068148866295815, -0.01995418220758438, -0.015058767050504684, 0.0009254596079699695, -0.07692273706197739, -0.06330717355012894, 0.027780266478657722, 0.004404584877192974, 0.023792339488863945, -0.012388686649501324, -0.037423357367515564, -0.023781225085258484, -0.06317129731178284, 0.01764800399541855, 0.0501009076833725, -0.03808443248271942], [-0.010418161749839783, -0.020476916804909706, -0.1208731159567833, -0.026100080460309982, 0.00830813404172659, -0.07737071067094803, 0.005131681449711323, 0.04947899281978607, 0.11273635178804398, -0.007013392634689808, -0.0222944188863039, 0.011140520684421062, 0.11065386235713959, 0.16018332540988922, 0.05006113275885582, 0.011087607592344284, 0.004659680649638176, -0.052813008427619934, 0.030816620215773582, 0.03205849602818489], [0.004128891509026289, 0.008976946584880352, -0.07540606707334518, -0.002648732392117381, 0.01625005342066288, -0.17872002720832825, 0.03862305358052254, 0.04675444960594177, 0.08697731792926788, 0.0005101262358948588, 0.0036185316275805235, 0.12879642844200134, 0.08008687198162079, 0.06947800517082214, -0.014816217124462128, -0.009327338077127934, -0.07220016419887543, -0.023883484303951263, -0.06187886372208595, -0.009549376554787159], [0.022350747138261795, 0.004714554641395807, -0.07550475746393204, -0.0009203933295793831, -0.0014826504047960043, -0.03016132488846779, -0.00357722956687212, 0.05027839168906212, 0.06044057011604309, 0.014646743424236774, -0.02626524120569229, 0.04998521879315376, 0.1124243512749672, 0.07643553614616394, -0.034253835678100586, 0.01853742077946663, -0.01890650764107704, 0.007833290845155716, 0.012713530100882053, -0.012804582715034485], [0.010822376236319542, -0.009418265894055367, 0.010148581117391586, 0.009706137701869011, -0.0018656074535101652, 0.005911383777856827, -0.0008055538055486977, 0.012611466459929943, 0.014982238411903381, 0.024585513398051262, -0.007491088472306728, 0.006518352311104536, -0.011432511731982231, -0.002732831286266446, -0.006933409254997969, 0.015692612156271935, 0.01632733829319477, -0.0003998601750936359, 0.004700675141066313, 0.0037155940663069487], [0.03157984837889671, 0.076331727206707, -0.0008693020790815353, -0.04065005108714104, 0.001757931662723422, -0.2655625343322754, 0.03571770712733269, -0.07243282347917557, -0.0434560589492321, 0.10261358320713043, 0.06830762326717377, 0.10149460285902023, -0.015633322298526764, -0.08757827430963516, -0.021020876243710518, -0.10236864537000656, -0.13416652381420135, 0.08858776837587357, 0.06986627727746964, 0.1908109486103058], [0.0364677794277668, 0.0025631124153733253, -0.09011706709861755, -0.0189495999366045, -0.0014713314594700933, -0.1000189557671547, -0.04361411929130554, 0.04827867075800896, 0.1403510868549347, 0.03449422866106033, -0.1741437017917633, 0.11230155825614929, 0.03512255474925041, 0.03371095657348633, -0.024543728679418564, 0.05089994892477989, 0.04221527650952339, 0.06177521497011185, -0.0025693033821880817, 0.01652153953909874], [0.0284009650349617, -0.030285868793725967, -0.025365296751260757, 0.0895683765411377, 0.02821393311023712, -0.16830967366695404, -0.03212909400463104, 0.027227383106946945, 0.19997496902942657, 0.07800716161727905, -0.13861848413944244, -0.006616521626710892, -0.007688307203352451, -0.1274489015340805, -0.18158794939517975, 0.023963481187820435, 0.1673014909029007, 0.011060848832130432, -0.02043330669403076, 0.14481617510318756], [-0.004146833438426256, 0.06081222742795944, -0.09838949888944626, 0.1120399609208107, -0.0004532301099970937, -0.2907494604587555, -0.042559798806905746, -0.040587760508060455, 0.10273925215005875, 0.06789480894804001, -0.14711667597293854, 0.17763133347034454, 0.08479160815477371, 0.12405744940042496, 0.16921937465667725, 0.04069588705897331, 0.1622457206249237, -0.09898485243320465, -0.05438234284520149, -0.2701159119606018], [0.039578069001436234, -0.03210080415010452, -0.006819658447057009, 0.06361240148544312, 0.0012350671458989382, 0.020724289119243622, -0.038228243589401245, 0.09337452054023743, 0.17288954555988312, 0.07684192806482315, 0.0048763141967356205, 0.0714457631111145, 0.0158450435847044, 0.03139814734458923, -0.03781633451581001, 0.040211815387010574, -0.010929527692496777, -0.006941429805010557, 0.0296920295804739, -0.06475012749433517], [0.06837606430053711, 0.05844146013259888, -0.2488633543252945, 0.21136292815208435, 0.05796337127685547, -0.16552697122097015, 0.16131462156772614, -0.1487511545419693, -0.010371927171945572, 0.1666729599237442, -0.273827463388443, 0.00247842981480062, 0.109731025993824, 0.193814218044281, 0.05654733255505562, 0.15128757059574127, 0.025392144918441772, -0.06174646317958832, -0.0004212016938254237, 0.23786748945713043], [0.10533909499645233, 0.09439026564359665, 0.062522292137146, -0.12784384191036224, 0.005678368266671896, -0.15203656256198883, -0.11442634463310242, -0.0022613583132624626, 0.036240942776203156, -0.2553144693374634, 0.06559950113296509, 0.162241131067276, -0.02024640329182148, -0.07416722923517227, -0.17352190613746643, -0.047294385731220245, -0.19188253581523895, 0.19560964405536652, 0.08579574525356293, -0.23358972370624542], [0.03715066984295845, 0.024302279576659203, -0.015916364267468452, -0.08560289442539215, 0.005727624986320734, -0.02291458286345005, -0.0370517335832119, 0.08326733112335205, 0.20057524740695953, 0.1568315178155899, 0.10189832001924515, -0.010226660408079624, 0.160448357462883, -0.22468921542167664, -0.3344694972038269, -0.13915178179740906, -0.072348453104496, 0.13422545790672302, -0.03472548723220825, 0.18639613687992096], [-0.06533095240592957, 0.2399326115846634, -0.12253294140100479, -0.05382906273007393, 0.09443444013595581, -0.1488766372203827, 0.12567295134067535, -0.19795343279838562, -0.1875632405281067, -0.04810827970504761, -0.31503763794898987, 0.020063569769263268, 0.20024791359901428, 0.029361369088292122, 0.32492297887802124, 0.10845694690942764, 0.293489545583725, -0.1730850785970688, -0.2830396890640259, -0.009312176145613194], [-0.03522349148988724, -0.07104293256998062, -0.19344379007816315, -0.07140035182237625, 0.10340860486030579, -0.024573057889938354, 0.07172274589538574, 0.05062370374798775, -0.07804258912801743, 0.28843504190444946, 0.13957475125789642, 0.08061815798282623, -0.008245051838457584, -0.2181810438632965, 0.019173959270119667, -0.11398793011903763, -0.14878956973552704, -0.16547179222106934, -0.015661414712667465, -0.11960766464471817], [0.04327841475605965, -0.052689772099256516, -0.06406519562005997, 0.005768757779151201, 0.03981238976120949, -0.05383892357349396, -0.02997482195496559, 0.007019071839749813, 0.10917438566684723, -0.0371524877846241, -0.00247841770760715, 0.06911151856184006, 0.23675839602947235, 0.041551198810338974, -0.07856665551662445, -0.027890438213944435, -0.13710249960422516, 0.07645756751298904, 0.0505991131067276, -0.17580409348011017], [0.09949090331792831, 0.08735872060060501, 0.013720587827265263, -0.0867081955075264, -0.011754279024899006, -0.094362273812294, 0.07624167203903198, -0.05727605149149895, -0.008992115966975689, 0.11640902608633041, -0.05826451629400253, 0.13218028843402863, -0.051714275032281876, -0.046094752848148346, 0.14475367963314056, 0.10148436576128006, -0.15700019896030426, 0.13191039860248566, -0.1304064840078354, 0.07688552141189575], [0.07246293872594833, 0.1762259304523468, 0.03849252685904503, -0.08130907267332077, 0.06456560641527176, -0.16893215477466583, 0.013043810613453388, -0.13902324438095093, 0.14880797266960144, -0.1843804568052292, 0.1035260260105133, 0.07974714785814285, 0.29030686616897583, -0.04518565163016319, -0.09430287033319473, -0.06189938262104988, -0.1180284172296524, 0.014528942294418812, -0.006224525161087513, 0.049488406628370285], [-0.0022377155255526304, 0.012325895018875599, 0.06228073686361313, -0.01945166476070881, 0.003192521631717682, -0.046521756798028946, 0.008245240896940231, 0.03713349997997284, 0.013778619468212128, -0.07941953092813492, 0.03677103668451309, 0.018397025763988495, 0.0009896111441776156, -0.0797848030924797, -0.1490785777568817, -0.027255557477474213, 0.027076952159404755, 0.06209896132349968, -0.044836193323135376, 0.09058241546154022], [0.02211725153028965, 0.029934488236904144, -0.2606560289859772, 0.007635920308530331, -0.007745558861643076, -0.29307517409324646, -0.07872679084539413, 0.04439033567905426, 0.10852868109941483, 0.2251923680305481, -0.22573257982730865, 0.1006118506193161, 0.20174826681613922, 0.29915550351142883, 0.07049331814050674, -0.015390952117741108, 0.0008759538759477437, 0.06361731886863708, 0.08956274390220642, -0.08202704042196274], [0.016149312257766724, 0.040211763232946396, 0.007485066540539265, -0.0529002770781517, -0.009793651290237904, 0.02258104272186756, -0.024416882544755936, 0.0021923042368143797, -0.06553570926189423, -0.022823991253972054, 0.0795145183801651, -0.021658042445778847, 0.02172134257853031, -0.06910169869661331, -0.0785655528306961, -0.038385502994060516, -0.053398389369249344, 0.0430319719016552, 0.04328421875834465, 0.025137607008218765], [0.014474206604063511, -0.04658912122249603, -0.025024674832820892, 0.0024384409189224243, 0.008430752903223038, -0.011351343244314194, -0.031352683901786804, 0.06192737817764282, 0.15163366496562958, -0.03398974612355232, 0.004934907890856266, -0.015386194922029972, 0.06916593760251999, 0.13645793497562408, 0.057506632059812546, 0.00847001001238823, 0.013220432214438915, -0.045660343021154404, 0.009869429282844067, -0.1006888747215271], [0.015469296835362911, -0.058803070336580276, -0.08441205322742462, -0.029273875057697296, -0.0400284081697464, -0.046016380190849304, -0.03696279972791672, 0.056251220405101776, -0.05051199346780777, -0.04577608406543732, -0.07285451143980026, 0.1010451465845108, 0.06898196786642075, 0.34971633553504944, 0.1893722116947174, -0.024993961676955223, -0.2263096272945404, -0.06231949105858803, 0.06553980708122253, -0.22626610100269318], [-0.07677170634269714, -0.016101522371172905, -0.030669517815113068, 0.0976034626364708, -0.021878641098737717, 0.0945855900645256, 0.061115194112062454, -0.10034400224685669, -0.20260946452617645, 0.06999120861291885, 0.0157758891582489, -0.0600714385509491, 0.09189076721668243, 0.03252275288105011, 0.11122015118598938, 0.005309937987476587, -0.04938044399023056, -0.020295117050409317, -0.00433500437065959, -0.09147119522094727], [0.0071455915458500385, -0.0031952091958373785, 0.008310247212648392, 0.005944433622062206, -0.000420882977778092, 0.0023144285660237074, 0.0007518412894569337, 0.003997864201664925, 0.0009085904457606375, 0.008680141530930996, -0.00045585710904560983, 0.005514552816748619, -0.00833660364151001, -0.00199531321413815, -0.007554516661912203, 0.010843619704246521, 0.005137498490512371, 0.001970447599887848, 0.005450045689940453, 0.002915817778557539], [0.06756508350372314, 0.07627031207084656, -0.036719225347042084, -0.07486298680305481, -0.017279868945479393, -0.33346015214920044, 0.023704271763563156, -0.08160673826932907, -0.11328558623790741, 0.03849488124251366, 0.11727623641490936, 0.1788341999053955, -0.06748513132333755, 0.0002610724768601358, 0.10387890040874481, -0.11238227784633636, -0.4331161379814148, 0.11132659763097763, 0.1871218979358673, -0.041930027306079865], [0.04098638519644737, -0.01176904235035181, 0.0564209520816803, -0.057315532118082047, -0.01323346421122551, 0.11325029283761978, -0.09223263710737228, 0.1018219143152237, 0.016066154465079308, -0.11195652186870575, 0.01974562369287014, -0.0411144383251667, -0.05159160867333412, -0.07784353941679001, -0.17415861785411835, -0.019752996042370796, -0.031023679301142693, 0.10669367760419846, 0.0538560152053833, -0.14643968641757965], [0.05643341690301895, -0.004078722093254328, -0.006310752592980862, 0.028260666877031326, 0.005865984130650759, -0.0905906930565834, -0.19501426815986633, 0.1316215842962265, 0.25977450609207153, 0.0956500917673111, -0.1463388204574585, -0.012232298962771893, -0.059940241277217865, -0.044969815760850906, -0.0602080337703228, 0.027765866369009018, 0.12038575112819672, 0.04493294656276703, -0.01427384465932846, -0.08957983553409576], [-0.025589285418391228, -0.0658125951886177, 0.08955851942300797, -0.07998444885015488, -0.05400947853922844, 0.006845920346677303, -0.1788598895072937, 0.0658317282795906, 0.08253230154514313, -0.06748433411121368, -0.036982182413339615, 0.0036400984972715378, 0.06067155301570892, 0.07997769862413406, -0.03977208957076073, -0.0694410502910614, -0.02181975170969963, 0.03307931870222092, -0.02175140380859375, -0.4028061032295227], [-0.019820360466837883, 0.005867054685950279, 0.03374220058321953, 0.04089559242129326, 0.002036107238382101, 0.06242646276950836, -0.002977471798658371, 0.00352855515666306, 0.000634648953564465, 0.04201004281640053, 0.09148868173360825, -0.04965115711092949, 0.007632400840520859, -0.04673608019948006, -0.04851047694683075, -0.02480137348175049, -0.10037313401699066, 0.028075560927391052, 0.023998629301786423, 0.0872199758887291], [0.05806734412908554, -0.35372743010520935, -0.23074066638946533, -0.004336218815296888, -0.061962369829416275, 0.15573830902576447, -0.11418864130973816, 0.3311581313610077, 0.22150616347789764, 0.07875853776931763, -0.2809489369392395, 0.048056699335575104, 0.016973745077848434, 0.6136884093284607, 0.023851381614804268, 0.21115688979625702, -0.09245862066745758, -0.027445055544376373, 0.1347217559814453, -0.41470563411712646], [0.038367852568626404, 0.042052775621414185, 0.10750867426395416, -0.11879768967628479, -0.0068473536521196365, -0.05063016340136528, -0.06569217890501022, -0.01641206070780754, 0.03857525810599327, -0.2188529521226883, 0.06626181304454803, 0.16913945972919464, -0.02902703359723091, -0.10818502306938171, -0.05105635151267052, -0.029979374259710312, -0.10071010142564774, 0.1723647117614746, 0.01149660162627697, -0.18040023744106293], [0.04880114644765854, 0.026186669245362282, 0.011921852827072144, -0.18056423962116241, -0.010077979415655136, 0.049915019422769547, -0.10021843016147614, 0.11275288462638855, 0.21652065217494965, 0.02734975703060627, 0.12844043970108032, -0.012764548882842064, 0.20034268498420715, -0.1926700323820114, -0.3390834927558899, -0.16862718760967255, -0.1347830891609192, 0.2221887856721878, -0.000980527140200138, 0.03374331444501877], [-0.037529412657022476, -0.4435705244541168, -0.10130332410335541, -0.5130661725997925, -0.31693875789642334, 0.4054451882839203, -0.5447387099266052, 0.418254554271698, 0.1544833779335022, -0.02846379205584526, -0.28540483117103577, 0.2885974049568176, 0.11983019858598709, 0.2641189992427826, 0.4578482508659363, 0.1524762511253357, -0.23926056921482086, 0.2064191997051239, 0.34489917755126953, -0.8128615617752075], [0.05403083190321922, -0.10266012698411942, -0.1934937983751297, -0.2055494338274002, 0.05554746091365814, -0.034245483577251434, -0.11948760598897934, 0.20778043568134308, 0.061846792697906494, -0.0629352405667305, -0.022416338324546814, 0.1349191963672638, 0.2438591569662094, 0.5368282198905945, -0.025037402287125587, -0.07411252707242966, -0.14639224112033844, 0.0169848445802927, 0.07027629762887955, -0.8216351866722107], [0.12844331562519073, 0.0029801963828504086, -0.052371617406606674, 0.03712945058941841, -0.03987396880984306, -0.06337185204029083, -0.08925247937440872, -0.06932259351015091, 0.16442175209522247, -0.13800618052482605, -0.15475371479988098, 0.2158554047346115, 0.38915643095970154, 0.4245132803916931, 0.1554449498653412, 0.07243505865335464, 0.005476428661495447, 0.1923004686832428, -0.06914197653532028, -0.3260419964790344], [0.1434749960899353, -0.14084257185459137, 0.00016393566329497844, -0.20385760068893433, -0.20191353559494019, -0.15991240739822388, -0.11388254165649414, 0.03807104378938675, 0.10172828286886215, 0.03682303428649902, -0.11109720170497894, 0.46541377902030945, -0.016280336305499077, 0.31658878922462463, 0.04098968207836151, 0.12105854600667953, -0.059261973947286606, 0.33824339509010315, -0.09734120219945908, -0.37932288646698], [0.06931687146425247, -0.01844421587884426, 0.07710479944944382, -0.20520484447479248, -0.013900334015488625, 0.0058341179974377155, -0.17403006553649902, 0.08615761995315552, 0.25357359647750854, -0.19767335057258606, 0.20665040612220764, 0.10116342455148697, 0.3158363699913025, 0.09829592704772949, -0.2362508922815323, -0.12612424790859222, -0.2988450527191162, 0.10305960476398468, 0.21883134543895721, -0.30909544229507446], [0.023293789476156235, -0.03098308853805065, 0.06481269001960754, -0.003859384683892131, -0.0151303606107831, -0.010301470756530762, -0.027810413390398026, 0.050116654485464096, 0.06775877624750137, -0.1310124397277832, 0.015389294363558292, 0.09634604305028915, -0.04866691678762436, 0.01594649627804756, -0.01365916058421135, 0.07253890484571457, 0.005285301711410284, 0.06584881991147995, -0.06178900972008705, 0.06366472691297531], [0.018835725262761116, -0.048276882618665695, -0.05970735847949982, 0.05834155157208443, -0.025578968226909637, 0.03626289218664169, -0.06922351568937302, -0.018958324566483498, -0.21106886863708496, 0.07439983636140823, -0.03495487943291664, -0.043452948331832886, 0.026252981275320053, 0.1779220998287201, 0.10830236226320267, -0.01611057110130787, -0.06307320296764374, 0.014087321236729622, 0.06479049474000931, -0.1109044998884201], [0.1425284892320633, -0.2546146810054779, 0.1597357839345932, -0.1087198331952095, -0.029182251542806625, 0.3098016083240509, -0.14918667078018188, 0.06557376682758331, 0.2683728039264679, 0.5818495154380798, -0.18465715646743774, 0.04252093657851219, 0.07754944264888763, 0.020994551479816437, -0.06324376165866852, -0.31227144598960876, -0.05841876193881035, 0.24276024103164673, 0.07979832589626312, -0.480979323387146], [0.32227128744125366, 0.01174688059836626, -0.22750291228294373, -0.185475155711174, -0.04150347411632538, 0.011547395028173923, -0.2891721725463867, 0.09466613084077835, -0.09181929379701614, -0.021686462685465813, 0.020381297916173935, -0.1210889220237732, 0.18108776211738586, -0.24045154452323914, 0.11670950800180435, -0.1456896811723709, -0.15779325366020203, 0.20708435773849487, 0.11113735288381577, 0.4123791456222534], [-0.3694806694984436, -0.12522007524967194, 0.45498523116111755, -0.3842521607875824, -0.07032165676355362, -0.08109049499034882, -0.009716328233480453, -0.2059897780418396, -0.24757634103298187, -0.4263814389705658, 0.040081992745399475, -0.08268820494413376, -0.1921728104352951, -0.14829203486442566, -0.07199567556381226, 0.078431636095047, 0.4236879050731659, -0.08647865056991577, -0.40355026721954346, 0.2102535516023636], [0.037734270095825195, 0.5065898895263672, 0.11400418728590012, 0.01822369545698166, -0.08601479977369308, 0.18259897828102112, -0.6875064969062805, 0.5067850351333618, 0.24836944043636322, -0.40202444791793823, 0.07816319912672043, 0.18205340206623077, -0.3005530834197998, 0.7326362133026123, 0.3947649300098419, 0.02983531355857849, -0.40628692507743835, -0.2431696206331253, 0.60568767786026, 0.7938095331192017], [-0.03236595168709755, 0.023408589884638786, -0.1155204102396965, 0.021898627281188965, -0.04076426103711128, 0.009284875355660915, -0.14758168160915375, 0.18241561949253082, 0.12959925830364227, -0.18123477697372437, 0.01878262870013714, 0.06185167282819748, 0.03882228210568428, 0.10589906573295593, -0.054869625717401505, -0.025291360914707184, -0.08537732064723969, -0.007042324636131525, 0.058927539736032486, -0.08483201265335083], [0.0833016186952591, 0.00018361874390393496, 0.29730239510536194, -0.1820337474346161, 0.12216521054506302, 0.13651837408542633, -0.10014670342206955, 0.0524444617331028, 0.35164862871170044, -0.14275360107421875, -0.2333194762468338, -0.258428692817688, -0.10135608166456223, 0.2509259283542633, 0.028633421286940575, 0.2530103623867035, 0.45794081687927246, -0.15709716081619263, -0.21442903578281403, -0.189167320728302], [-0.2497856616973877, -0.23121099174022675, -0.4142671823501587, -0.04405058175325394, 0.18067514896392822, 0.08837836235761642, 0.04771697521209717, -0.027509596198797226, -0.013781372457742691, 0.15892823040485382, 0.6796108484268188, 0.37175479531288147, -0.39344900846481323, 0.0023290913086384535, -0.06752586364746094, 0.3230571746826172, -0.2669917643070221, -0.5183523893356323, 0.22549842298030853, -0.3623315989971161], [0.2532574534416199, -0.07091096043586731, 0.10893114656209946, -0.7211470603942871, -0.06821241229772568, 0.19964875280857086, 0.08434298634529114, 0.18358711898326874, 0.5117194652557373, 0.0054573058150708675, -0.15260450541973114, -0.024602744728326797, -0.09343079477548599, 0.04509860277175903, -0.05006767436861992, 0.16408126056194305, 0.405987024307251, -0.3108431398868561, -0.1958930790424347, -0.06791502237319946], [0.25759053230285645, -0.1925494372844696, 0.13994349539279938, -0.41761064529418945, -0.021784590557217598, 0.16813607513904572, -0.2501920163631439, 0.2931687533855438, 0.08302871882915497, -0.2634660601615906, 0.11942446231842041, 0.6454137563705444, -0.10548039525747299, 0.12176068872213364, -0.06942237913608551, 0.2875061333179474, -0.037626609206199646, -0.25643256306648254, -0.3684636354446411, -0.6899676322937012], [-0.4246358275413513, -0.17126508057117462, 0.018005860969424248, 0.9308901429176331, 0.32788753509521484, -0.11832528561353683, -0.013445170596241951, 0.13773056864738464, 0.6306950449943542, 0.1043701171875, 0.36115559935569763, 0.3694680333137512, -0.1958240419626236, 0.27129286527633667, 0.10343892872333527, 0.09219963848590851, -0.43604010343551636, 0.08436868339776993, 0.4422650933265686, 0.4903803765773773], [0.2567811906337738, 0.2216547578573227, 0.07513166964054108, -0.20382124185562134, -0.13366477191448212, 0.31458672881126404, -0.29660913348197937, -0.048201579600572586, 0.3469668924808502, -0.08684112876653671, 0.40264976024627686, 0.6171364784240723, -0.2849676311016083, -0.08390706032514572, -0.24904488027095795, -0.14592526853084564, -0.2927284836769104, 0.2357092648744583, 0.4008994400501251, -0.483710378408432], [0.2672775089740753, -0.05374784395098686, 0.30994224548339844, -1.5058770259201992e-05, 0.013082414865493774, -0.04624362289905548, -0.3617858290672302, 0.22905413806438446, 0.19709156453609467, -0.1428738385438919, 0.18441176414489746, 0.06899530440568924, -0.0932752937078476, 0.06841030716896057, 0.162301167845726, 0.17565666139125824, -0.46550559997558594, 0.30362874269485474, 0.1003389060497284, -0.7531777024269104], [-0.25171637535095215, 0.002004203386604786, -0.005005871877074242, -0.05047880858182907, -0.033754635602235794, -0.058322276920080185, 0.07415835559368134, -0.07540186494588852, 0.05702764540910721, 0.34683677554130554, -0.021655986085534096, -0.03810565918684006, 0.2581915557384491, -0.4430207312107086, -0.26017236709594727, -0.24497562646865845, -0.1948114037513733, 0.1731511503458023, -0.20071081817150116, 0.45906391739845276], [-0.16575799882411957, 0.21295733749866486, 0.16748689115047455, -0.1643594354391098, -0.26924005150794983, -0.0012771242763847113, -0.21037545800209045, -0.23924443125724792, -0.30414262413978577, 0.2513448894023895, -0.19567376375198364, -0.13854728639125824, -0.04487483575940132, 0.23389333486557007, 0.5361868739128113, 0.17801988124847412, 0.1948867291212082, -0.19936950504779816, -0.4147786796092987, -0.3232668936252594], [0.12463410198688507, -0.1773216277360916, 0.12177618592977524, 0.2116563469171524, 0.031182123348116875, -0.18284273147583008, 0.34291404485702515, -0.31840837001800537, -0.10965318977832794, 0.04341758415102959, -0.2059316188097, 0.23634056746959686, -0.04768010601401329, 0.2994174659252167, 0.3279331922531128, 0.011691097170114517, -0.09250356256961823, -0.23905090987682343, 0.09908559173345566, -0.04875599592924118], [0.2526017129421234, 0.11974629759788513, -0.135234534740448, 0.19841694831848145, 0.10716627538204193, 0.30629289150238037, -0.34941041469573975, 0.24812844395637512, -0.02485821209847927, -0.23760749399662018, -0.025528863072395325, -0.1225297823548317, -0.17059996724128723, 0.3977435529232025, 0.13704557716846466, 0.1328345537185669, 0.23619817197322845, -0.07495929300785065, 0.014004617929458618, -0.1914214789867401], [-0.14278382062911987, 0.21380417048931122, -0.09980324655771255, -0.06049121543765068, -0.1545078456401825, 0.001370912417769432, -0.12830467522144318, 0.24909205734729767, -0.08030756562948227, 0.0976705253124237, -0.42919716238975525, -0.035429347306489944, -0.060218386352062225, 0.1061340868473053, -0.1238986924290657, 0.5983393788337708, 0.3024856746196747, -0.2563466727733612, -0.3914683759212494, -0.0007308921194635332], [-0.1594708263874054, 0.08823804557323456, 0.23519977927207947, 0.3953053653240204, 0.14102867245674133, -0.07202187925577164, -0.6012772917747498, 0.2176147848367691, -0.13799957931041718, 0.08866247534751892, 0.16639471054077148, -0.2265523076057434, 0.10259388387203217, -0.33132728934288025, -0.47326716780662537, -0.5360838174819946, -0.4682333171367645, -0.04390547797083855, 0.016769539564847946, 0.3982994556427002], [0.2048717737197876, 0.22570961713790894, -0.15439626574516296, 0.0565347895026207, 0.0028439979068934917, -0.24669329822063446, 0.278601735830307, -0.08709341287612915, 0.17265459895133972, 0.16279692947864532, 0.19610176980495453, 0.16605085134506226, 0.23334290087223053, 0.11115820705890656, 0.14811085164546967, -0.16623955965042114, -0.11130889505147934, 0.09038708359003067, 0.05464302375912666, 0.17556671798229218], [0.1269911229610443, -0.45337533950805664, 0.03657781705260277, -0.5565230846405029, -0.21988651156425476, 0.14425329864025116, 0.9010214805603027, 0.2129502147436142, 0.32531315088272095, -0.22691133618354797, 0.11430331319570541, 0.1405809372663498, -0.07219906896352768, -0.21493767201900482, 0.08861849457025528, 0.029808463528752327, -0.21947002410888672, -0.583696186542511, 0.2312401384115219, 0.279050350189209], [-0.0038280487060546875, 0.031005598604679108, -0.05069825425744057, -0.0729009285569191, -0.014156883582472801, -0.022056955844163895, -0.0171113982796669, -0.011476540938019753, -0.1044556125998497, -0.09930871427059174, 0.03115149587392807, 0.003811465110629797, 0.021807707846164703, -0.0032309170346707106, -0.029663261026144028, -0.027663039043545723, -0.07733628153800964, 0.019240763038396835, 0.052707698196172714, -0.0646698996424675], [0.006143135484308004, -0.02960573136806488, -0.11542710661888123, 0.013917512260377407, 0.011497984640300274, -0.05798144266009331, 0.02849584072828293, 0.0439080186188221, 0.10258368402719498, 0.09670053422451019, -0.027762509882450104, 0.006737399380654097, 0.056226298213005066, 0.16616426408290863, 0.06160195916891098, 0.05020182952284813, 0.006785296369343996, -0.05682169273495674, 0.0585390143096447, 0.009660270065069199], [0.04628540575504303, 0.03745734691619873, -0.13427329063415527, 0.006319456268101931, -0.0009839325211942196, -0.1685500293970108, 5.281017001834698e-05, 0.016507720574736595, -0.018284659832715988, -0.02099435031414032, -0.03499428927898407, 0.06661169230937958, 0.03012917935848236, 0.1357148140668869, 0.06433659791946411, 0.018540624529123306, -0.08270542323589325, -0.018234116956591606, 0.008076337166130543, -0.07381882518529892], [0.021252086386084557, -0.003880898468196392, -0.06578335165977478, -0.015257802791893482, -0.005472417455166578, -0.023222660645842552, -0.017870476469397545, 0.04111861065030098, 0.042737927287817, 0.022834159433841705, -0.028199652209877968, 0.03631333261728287, 0.1141708716750145, 0.08672337979078293, -0.022746577858924866, 0.007356773596256971, -0.02420317567884922, 0.0019592931494116783, 0.01258221734315157, -0.061133988201618195], [0.013021851889789104, -0.005583616439253092, 0.0071045756340026855, 0.006492233369499445, -0.003104712814092636, 0.004378655459731817, -0.0009195301681756973, 0.011082946322858334, 0.011620189063251019, 0.01737792044878006, -0.007897873409092426, 0.006042951717972755, -0.008025535382330418, -0.008329766802489758, -0.011586025357246399, 0.012996570207178593, 0.017337610945105553, 0.0021414386574178934, 0.002119295531883836, 0.004263232462108135], [0.032345596700906754, 0.10047227889299393, -0.0629175528883934, -0.08566181361675262, -0.020654089748859406, -0.36601513624191284, 0.059190403670072556, -0.13404904305934906, -0.21987922489643097, 0.07682329416275024, 0.08685176819562912, 0.1072978749871254, -0.012569867074489594, -0.04812675341963768, 0.11352699995040894, -0.1407921314239502, -0.2982509732246399, 0.09808751195669174, 0.13966193795204163, 0.08701976388692856], [0.028266074135899544, 0.0276168305426836, -0.0952044352889061, -0.018916618078947067, -0.007103350944817066, -0.10512223839759827, -0.05728840455412865, 0.04527381807565689, 0.11692735552787781, -0.05118529126048088, -0.12829217314720154, 0.10322753340005875, 0.0397445373237133, 0.1401074081659317, -0.023326896131038666, 0.016649233177304268, 0.01275077648460865, 0.06366673856973648, 0.04256109893321991, -0.05614505335688591], [0.03549449145793915, 0.006483939941972494, -0.0228643249720335, -0.02073909156024456, 0.002248198725283146, -0.1488092690706253, 0.012185301631689072, 0.03326049819588661, 0.11994338035583496, 0.03187103942036629, -0.1202760562300682, -0.017193112522363663, 0.018271109089255333, -0.04482578858733177, -0.08509541302919388, -0.01636640913784504, 0.1275162398815155, 0.018687309697270393, -0.007271451875567436, 0.06338346004486084], [-0.01342274434864521, 0.004654122516512871, -0.06749303638935089, -0.060874972492456436, -0.018947992473840714, -0.17581599950790405, -0.04801112413406372, -0.023604929447174072, 0.087691530585289, -0.006216872483491898, -0.04717450588941574, 0.06496042758226395, 0.12952470779418945, 0.14086760580539703, 0.1143745630979538, -0.0463707409799099, -0.040518078953027725, -0.02492554485797882, 0.002355851698666811, -0.36819884181022644], [0.0513005368411541, -0.043515902012586594, -0.02288747765123844, 0.07401945441961288, -0.01276473794132471, 0.027050001546740532, -0.03352761268615723, 0.06787185370922089, 0.0966334119439125, 0.11467698961496353, -0.017385058104991913, 0.055338483303785324, 0.004388794302940369, 0.0773489847779274, 0.021610843017697334, 0.035858165472745895, -0.04387519136071205, -0.01214095950126648, 0.05579914152622223, -0.09502144902944565], [0.004964960739016533, -0.0888638123869896, -0.29210928082466125, 0.15306779742240906, -0.0232302937656641, -0.06828919798135757, 0.09137127548456192, 0.05567944422364235, -0.09732029587030411, 0.21869805455207825, -0.21466504037380219, 0.07903701066970825, 0.06248234212398529, 0.3006802797317505, 0.03464188054203987, 0.15306413173675537, 0.1503363996744156, 0.008447006344795227, 0.013115408830344677, -0.0017334030708298087], [0.08879247307777405, 0.07209430634975433, 0.06604321300983429, -0.08840171247720718, 0.002919607562944293, -0.17193563282489777, -0.08803989738225937, -0.0061193048022687435, 0.09271763265132904, -0.24055662751197815, 0.06437844038009644, 0.2720344364643097, -0.045493755489587784, -0.04578946530818939, -0.02291850373148918, -0.026128847151994705, -0.21868093311786652, 0.17227187752723694, 0.07772936671972275, -0.3001735508441925], [0.022380273789167404, 0.02763192355632782, -0.003114924766123295, -0.07663136720657349, 0.0014542742865160108, -0.02667541243135929, -0.062297385185956955, 0.0931612178683281, 0.20235471427440643, 0.14228832721710205, 0.08441057801246643, 0.0022310782223939896, 0.18852075934410095, -0.18893200159072876, -0.32454776763916016, -0.15543821454048157, -0.08741219341754913, 0.15366443991661072, -0.015301822684705257, 0.15673983097076416], [-0.01529164519160986, 0.11199852079153061, -0.3806959390640259, 0.026074975728988647, 0.019059762358665466, -0.09975268691778183, -0.013857193291187286, -0.05926526337862015, -0.21213217079639435, -0.24646002054214478, -0.41717076301574707, 0.12212584167718887, 0.14845335483551025, 0.13031558692455292, 0.433004766702652, 0.2689943015575409, 0.18047907948493958, -0.1467406153678894, -0.002687026746571064, -0.2575386166572571], [-0.0050706746987998486, -0.21319827437400818, -0.21331049501895905, -0.1342378556728363, 0.09882804751396179, -0.15722201764583588, 0.0018542925827205181, 0.11783793568611145, 0.09830459207296371, -0.04888254776597023, 0.06469583511352539, 0.062417808920145035, 0.02130543254315853, 0.08631883561611176, -0.20759423077106476, -0.08451436460018158, 0.00852888822555542, -0.06504165381193161, 0.007006462663412094, -0.2093251645565033], [0.09875009953975677, -0.02389294095337391, -0.09043603390455246, 0.025503812357783318, 0.01734238676726818, -0.05183916911482811, -0.0062881759367883205, 0.060732077807188034, 0.17586486041545868, 0.0013833600096404552, -0.07891669124364853, 0.10715856403112411, 0.22030137479305267, 0.16014285385608673, 0.021488193422555923, 0.04851090908050537, 0.034065425395965576, 0.08778293430805206, -0.014714295044541359, -0.05039403215050697], [0.09685041755437851, 0.1558218151330948, -0.0824650302529335, -0.12017552554607391, -0.0048972624354064465, -0.3050786256790161, 0.02835959941148758, -0.021456874907016754, 0.12879841029644012, 0.006242749281227589, -0.0724404826760292, 0.3004484176635742, -0.02955738827586174, -0.04141676053404808, -0.03623524680733681, -0.004991104360669851, -0.04795575141906738, 0.28927308320999146, -0.1977279782295227, -0.04734586924314499], [0.03334009274840355, 0.11570948362350464, 0.027980243787169456, -0.06772980839014053, 0.04529953375458717, -0.14564894139766693, -0.021681517362594604, -0.06291182339191437, 0.22571821510791779, -0.07765807211399078, 0.1526823192834854, 0.09994303435087204, 0.2907963991165161, 0.07300534844398499, -0.1722431480884552, -0.037680357694625854, -0.1747901439666748, 0.06261616200208664, 0.07744543254375458, -0.02948780357837677], [-0.033645786345005035, 0.019802216440439224, 0.07382629811763763, 0.0181654691696167, 0.008651992306113243, -0.03160637244582176, 0.007153800688683987, 0.03184152767062187, 0.04164230078458786, -0.13912507891654968, 0.03541462495923042, 0.04701584205031395, -0.02629682421684265, -0.028813105076551437, -0.06119212880730629, 0.004925094544887543, 0.0004167610895819962, 0.019755642861127853, -0.11362248659133911, 0.12722381949424744], [-0.0035439112689346075, -0.03837364912033081, -0.10612718015909195, -0.010049431584775448, -0.02111758477985859, -0.08619806170463562, -0.05353236943483353, 0.0306786447763443, -0.01328942459076643, 0.0603988841176033, -0.12365084886550903, 0.04226236045360565, 0.048146478831768036, 0.18448930978775024, 0.09819930046796799, -0.003498905338346958, -0.039095114916563034, 0.00219500670209527, 0.047612644731998444, -0.21714362502098083]], "rec.bias_ih_l0": [0.14644278585910797, -0.10744220018386841, -0.33711469173431396, 0.3554850220680237, -0.18991926312446594, -0.24323828518390656, -0.08011778444051743, -0.22881977260112762, -0.2072741836309433, 0.34720557928085327, -0.35222408175468445, -0.17956456542015076, -0.29457157850265503, -0.46587955951690674, -0.36431485414505005, -0.4409261643886566, -0.3065181374549866, -0.20880424976348877, -0.2162536382675171, 0.1627635508775711, 0.1536874622106552, 0.12646080553531647, 0.6641404032707214, 0.370532751083374, -0.08007361739873886, 0.360419362783432, 0.3915316164493561, 0.28270548582077026, 0.5929492115974426, 0.19074276089668274, 0.5644354224205017, 0.37213999032974243, 0.2593354284763336, 0.5685202479362488, 0.6641833782196045, 0.5229251980781555, 0.48906809091567993, 0.3037482798099518, 0.26691725850105286, 0.5984163880348206, -0.056887947022914886, -0.22020357847213745, 0.19605201482772827, -0.14338426291942596, -0.06122586876153946, -0.05931233987212181, -0.06954161822795868, -0.14498084783554077, -0.2249954640865326, 0.13276222348213196, -0.0516171008348465, -0.05407027155160904, 0.05379218980669975, 0.16151955723762512, 0.13130053877830505, -0.18666507303714752, 0.02786790207028389, 0.006899531930685043, 0.09564704447984695, -0.13423070311546326, 0.1863904446363449, 0.06621730327606201, -0.03947725147008896, 0.39185330271720886, -0.18790146708488464, 0.003954768646508455, 0.06984852999448776, 0.0819481909275055, 0.28334301710128784, 0.5551982522010803, -0.19869334995746613, -0.12259704619646072, -0.1426105797290802, -0.24653619527816772, -0.03126728907227516, -0.03630853071808815, -0.17151899635791779, -0.0979941263794899, -0.1806611716747284, 0.7923011183738708], "rec.bias_hh_l0": [0.15988600254058838, -0.0684519112110138, -0.3646257221698761, 0.22325630486011505, -0.2184266597032547, -0.2825845181941986, -0.06505749374628067, -0.34598299860954285, -0.30571049451828003, 0.44623392820358276, -0.41382142901420593, -0.27754369378089905, -0.21382851898670197, -0.39800161123275757, -0.23984038829803467, -0.3521500825881958, -0.0045666745863854885, -0.21399655938148499, -0.34917378425598145, 0.1992374062538147, 0.1603236198425293, 0.10934993624687195, 0.6881575584411621, 0.17174242436885834, -0.019573824480175972, 0.299199640750885, 0.2032908946275711, 0.21286652982234955, 0.8190941214561462, 0.12340563535690308, 0.4431602954864502, 0.27915382385253906, 0.3158174455165863, 0.4764958620071411, 0.6881060600280762, 0.506529688835144, 0.5858532786369324, 0.33172738552093506, 0.25196754932403564, 0.6526252031326294, -0.05896012857556343, 0.09527821838855743, -0.0403829887509346, -0.04348311200737953, -0.12900936603546143, 0.17841027677059174, -0.09477824717760086, 0.19767864048480988, 0.055942241102457047, -0.21441717445850372, -0.08072742074728012, -0.056992676109075546, 0.02765076607465744, -0.0027901961002498865, -0.08440088480710983, 0.060345061123371124, -0.15570510923862457, 0.022556867450475693, 0.13788510859012604, 0.007828257977962494, 0.13988444209098816, -0.024973900988698006, -0.04173984378576279, 0.471952348947525, -0.2404605895280838, -0.18886548280715942, -0.02258603647351265, -0.07039565593004227, 0.30942514538764954, 0.5683342218399048, -0.03942941501736641, -0.1533324122428894, -0.03980036824941635, -0.1670546680688858, -0.08256219327449799, -0.15443019568920135, 0.16178274154663086, -0.11345017701387405, 0.02610711194574833, 0.8234279751777649], "lin.weight": [[0.23188675940036774, -0.5280054211616516, -0.022518420591950417, 0.8048086166381836, 0.17665700614452362, 0.45204591751098633, 0.2251470535993576, 0.6291007995605469, 1.2290992736816406, 0.9582176804542542, 0.10635349899530411, -0.10574346035718918, 0.03573020547628403, -0.18460381031036377, -0.3518375754356384, 0.25491923093795776, 0.31298625469207764, -0.10503935813903809, -0.2366563379764557, 0.8572479486465454]], "lin.bias": [0.1699838787317276]}}