{"model_data": {"model": "SimpleRNN", "input_size": 1, "skip": 1, "output_size": 1, "unit_type": "LSTM", "num_layers": 1, "hidden_size": 20, "bias_fl": true}, "state_dict": {"rec.weight_ih_l0": [[-0.011709311977028847], [-0.06323321908712387], [-0.0009020482539199293], [-0.005030393600463867], [0.005618398077785969], [-0.0014521711273118854], [-0.079255111515522], [-0.011180435307323933], [-0.002223620656877756], [-0.01235753484070301], [0.01997547224164009], [0.00516215106472373], [0.005326294340193272], [-0.0022870737593621016], [-0.003882436081767082], [0.05787406489253044], [-0.02149529568850994], [0.021442990750074387], [-0.014767030254006386], [-0.0035751385148614645], [0.027254341170191765], [-0.07865656912326813], [0.03373929113149643], [-0.0028777047991752625], [0.023348230868577957], [0.09522046148777008], [-0.0017593583324924111], [-0.031637270003557205], [0.02013661153614521], [0.008182533085346222], [0.10249363631010056], [0.021766120567917824], [0.016674697399139404], [-0.04767918959259987], [0.004614666569977999], [-0.02212809957563877], [-0.010378355160355568], [0.04006609320640564], [-0.03319020941853523], [0.009237055666744709], [0.01068524457514286], [-0.10573964565992355], [-0.06385406106710434], [0.039269570261240005], [-0.9482071995735168], [0.03745374456048012], [0.14485515654087067], [0.27519750595092773], [2.019636869430542], [2.2322278022766113], [-1.2214016914367676], [-0.9057148098945618], [0.04478834569454193], [3.4330637454986572], [-1.6016712188720703], [-0.05550883337855339], [-0.5492275357246399], [0.13410939276218414], [0.12845468521118164], [0.08120623230934143], [0.1331194043159485], [-0.17418822646141052], [0.0026225943583995104], [0.023754728958010674], [0.015091350302100182], [0.03215882554650307], [0.039172541350126266], [-0.020638903602957726], [0.00023117195814847946], [0.0012890641810372472], [0.04208234325051308], [0.037831854075193405], [-0.024450019001960754], [-0.0074460431933403015], [-0.00434453971683979], [0.007429794874042273], [-0.0872199535369873], [-0.016995146870613098], [0.05419212579727173], [-0.040412142872810364]], "rec.weight_hh_l0": [[0.08718212693929672, 0.4881182909011841, -0.19246886670589447, 0.653619110584259, 0.12517236173152924, -0.476545512676239, -0.1811746507883072, 0.30497920513153076, -0.1412169337272644, 0.004132227506488562, 0.03839448466897011, 0.07477021217346191, -0.7564244866371155, -6.857373955426738e-05, 0.010089781135320663, 0.06745977699756622, 0.022962180897593498, -0.60599285364151, -0.3575997054576874, -0.7410598397254944], [-0.25122660398483276, 0.2711835503578186, 0.15789739787578583, 0.036420512944459915, 0.138569176197052, -0.12067022919654846, 0.06315414607524872, 0.052356842905282974, 0.012268980965018272, 0.19896994531154633, 0.027080513536930084, -0.09072361886501312, -0.051520589739084244, 0.06832826882600784, 0.029286013916134834, 0.013542195782065392, 0.0075467294082045555, -0.09339920431375504, -0.19475100934505463, -0.08984961360692978], [-0.012426785193383694, -0.09117981791496277, -0.09652457386255264, -0.14678257703781128, 0.0934232622385025, 0.14193640649318695, 0.08141515403985977, -0.17279113829135895, -0.09768039733171463, 0.01231405045837164, -0.1066579595208168, 0.23785808682441711, 0.12723857164382935, 0.03650669381022453, -0.037815824151039124, -0.06050598993897438, 0.1589633673429489, 0.13330905139446259, 0.15018881857395172, 0.1257382035255432], [0.008062709122896194, -0.05516139045357704, 0.0024795574136078358, -0.05468444153666496, 0.0040076132863759995, 0.06408464908599854, 0.009690982289612293, -0.10650186985731125, 0.0028854883275926113, 0.01613076776266098, -0.011950717307627201, 0.008140500634908676, 0.08117108047008514, 0.01230137050151825, -0.004838434047996998, 0.0013107992708683014, 0.014373460784554482, 0.07652299106121063, 0.04420333728194237, 0.08263878524303436], [0.07303224503993988, -0.11938455700874329, -0.13380685448646545, -0.18536020815372467, 0.012299998663365841, 0.18424849212169647, 0.07794903218746185, -0.14256015419960022, 0.033489372581243515, 0.007746386341750622, -0.011621358804404736, -0.05805331468582153, 0.21599853038787842, -0.028947025537490845, -0.025748230516910553, -0.0973893478512764, -0.051346149295568466, 0.20925535261631012, 0.18058480322360992, 0.21065737307071686], [-0.012338760308921337, 0.0658680722117424, 0.13017629086971283, 0.08033191412687302, -0.059369318187236786, -0.0597691535949707, -0.29388153553009033, -0.06922241300344467, -0.035944703966379166, -0.10021810233592987, -0.03627024218440056, -0.021284645423293114, -0.049363452941179276, 0.07652407884597778, -0.01387746911495924, 0.18761634826660156, -0.020148687064647675, -0.02188151143491268, -0.005603914614766836, -0.031242161989212036], [0.07009433209896088, 0.36436522006988525, 0.350851833820343, 0.2795341908931732, 0.180514395236969, -0.2604345679283142, 0.2508423924446106, 0.4222452938556671, -0.11823851615190506, 0.0751195028424263, 0.41985252499580383, -0.14353007078170776, -0.3318512737751007, -0.02257363498210907, -0.13313959538936615, -0.029100868850946426, 0.03723174333572388, -0.33848515152931213, -0.20893451571464539, -0.16979259252548218], [-0.12931284308433533, -0.03037411719560623, -0.04924015328288078, -0.02454352378845215, 0.013548100367188454, -0.03576206788420677, 0.007178707979619503, 0.019958067685365677, 0.09373767673969269, 0.08018289506435394, 0.06626855581998825, -0.15913419425487518, 0.011933183297514915, 0.004503767937421799, 0.007497603539377451, 0.12162212282419205, -0.06336759030818939, 0.03669686242938042, -0.03955252096056938, 0.031000753864645958], [0.09416645020246506, -0.21955065429210663, -0.21945089101791382, -0.320716917514801, 0.017895149067044258, 0.31174275279045105, 0.1385425627231598, -0.2988475263118744, 0.017297081649303436, 0.03290805220603943, -0.03593554347753525, 0.0021828338503837585, 0.3195447325706482, 0.02034176141023636, 0.002835077466443181, -0.14636245369911194, 0.010273453779518604, 0.3158584535121918, 0.3171331584453583, 0.32061994075775146], [0.02052580751478672, -0.18486490845680237, -0.29309147596359253, -0.2755512595176697, 0.0369727686047554, 0.28765684366226196, 0.09846378117799759, -0.2958482503890991, -0.002375127049162984, 0.03775467723608017, -0.04594094306230545, 0.01607631891965866, 0.24469411373138428, 0.0577101856470108, 0.020557770505547523, -0.10213921964168549, -0.002905898727476597, 0.24212606251239777, 0.3038777709007263, 0.23999729752540588], [0.11721903830766678, -0.19194301962852478, -0.0207399632781744, -0.22053146362304688, -0.059432655572891235, 0.21553713083267212, 0.11243945360183716, -0.18262510001659393, 0.07472793757915497, 0.04416573792695999, 0.0006527972873300314, -0.05828925967216492, 0.24959878623485565, -0.04087350144982338, -0.01253060158342123, -0.12672632932662964, -0.029921328648924828, 0.23138129711151123, 0.16730722784996033, 0.2513764202594757], [0.08471164852380753, -0.2399059534072876, -0.2900845408439636, -0.348470002412796, 0.06376560032367706, 0.3393038213253021, 0.1654052436351776, -0.34035438299179077, -0.025888541713356972, 0.058043576776981354, -0.04471501708030701, 0.062247663736343384, 0.3453391492366791, 0.07021286338567734, -0.002108778804540634, -0.17801210284233093, 0.05335225537419319, 0.3447211980819702, 0.3464640974998474, 0.33731839060783386], [0.05471009388566017, -0.057621993124485016, 0.01944393664598465, -0.0681602954864502, -0.007662965916097164, 0.06728333979845047, 0.028802774846553802, -0.04759564995765686, 0.007475219201296568, 0.011123262345790863, 0.0016074322629719973, 0.006674223113805056, 0.10191938281059265, 0.007683499250560999, -0.015642652288079262, -0.031829189509153366, 0.01008845679461956, 0.08978354185819626, 0.01801113970577717, 0.10035709291696548], [0.14944860339164734, -0.2801096439361572, -0.2210458368062973, -0.3930600583553314, -0.02046521008014679, 0.3844832181930542, 0.16666336357593536, -0.3402743637561798, 0.03283850848674774, 0.05049317702651024, -0.03866267204284668, 0.010247614234685898, 0.3939885199069977, 0.007785168942064047, -0.0024145622737705708, -0.19598627090454102, 0.0034624591935425997, 0.3812820017337799, 0.3584321141242981, 0.39579305052757263], [0.202446848154068, -0.2423277348279953, -0.03309250622987747, -0.3394300043582916, -0.058436319231987, 0.3290495276451111, 0.09338390082120895, -0.26652273535728455, 0.047372497618198395, -0.002179584000259638, -0.018919406458735466, -0.08698783814907074, 0.33473193645477295, -0.05328826978802681, -0.02599501982331276, -0.15308308601379395, -0.040624167770147324, 0.31343477964401245, 0.25965332984924316, 0.3388422727584839], [-0.07584020495414734, 0.33765584230422974, 0.5980134606361389, 0.2342880219221115, 0.1056479886174202, -0.2141084372997284, 0.018255768343806267, 0.2661627233028412, -0.0977683812379837, 0.13303226232528687, 0.47759199142456055, -0.10777335613965988, -0.2148018628358841, 0.2729979157447815, -0.04876565560698509, -0.13695912063121796, -0.040607012808322906, -0.37082526087760925, -0.19442415237426758, -0.2501550316810608], [0.10703867673873901, -0.21314387023448944, -0.2014516294002533, -0.3154319226741791, 0.023437071591615677, 0.28763121366500854, 0.10890870541334152, -0.3102726340293884, -0.03730720281600952, 0.004727059043943882, -0.034895990043878555, -0.029995694756507874, 0.26129579544067383, 0.012797222472727299, -0.006282656453549862, -0.12160131335258484, 0.008187927305698395, 0.26166221499443054, 0.2496878057718277, 0.2605639100074768], [0.07771126180887222, -0.07810874283313751, -0.025516027584671974, -0.08102647215127945, -0.03300556167960167, 0.07900906354188919, 0.020381612703204155, -0.06453864276409149, 0.010775972157716751, 0.045608554035425186, 0.003204651642590761, -0.04808526113629341, 0.12172506749629974, 0.011208181269466877, -0.01711205393075943, -0.031445104628801346, -0.048258163034915924, 0.1153009831905365, 0.04503525421023369, 0.11706429719924927], [0.06621266901493073, 0.1467749923467636, -0.08828745782375336, 0.024217791855335236, 0.032911136746406555, -0.027150221168994904, -0.24828298389911652, -0.06455907225608826, 0.03324092924594879, -0.18719221651554108, -0.018572282046079636, -0.08527356386184692, -0.09168247133493423, -0.03143764287233353, -0.04119529575109482, 0.1990860104560852, -0.05818791687488556, 0.02534189447760582, 0.006830073427408934, -0.1760886162519455], [0.04284663498401642, -0.06143615022301674, 0.03562132641673088, -0.05663178116083145, 0.010256975889205933, 0.057165298610925674, 0.02297775261104107, -0.06315114349126816, -0.0013588020810857415, 0.0062263659201562405, 0.0170743390917778, 0.018313530832529068, 0.10498896986246109, -0.005464065354317427, -0.021011872217059135, -0.021383076906204224, 0.031020376831293106, 0.09301658719778061, 0.006891358643770218, 0.09203964471817017], [0.6132059693336487, -0.5563005805015564, 0.014509291388094425, -0.7549005746841431, -0.11884472519159317, 0.6954966187477112, 0.06754077225923538, -0.46481984853744507, 0.1441463679075241, -0.08047772198915482, 0.015109495259821415, -0.01760167069733143, 0.8312889337539673, 0.0488564632833004, -0.05300155654549599, -0.24730566143989563, -0.017879730090498924, 0.7614126801490784, 0.5340087413787842, 0.883775532245636], [-0.17340008914470673, 0.18198458850383759, -0.04074244573712349, -0.3357250392436981, 0.16061392426490784, 0.2887187898159027, 0.024321645498275757, -0.2500680983066559, 0.04910077899694443, 0.16769202053546906, -0.03730367124080658, -0.020933035761117935, 0.33326461911201477, 0.11628445237874985, 0.027909226715564728, 0.016943184658885002, 0.04801555350422859, 0.22566016018390656, 0.09089311212301254, 0.3713222146034241], [-0.15564028918743134, 0.01063858438283205, 0.05406491458415985, -0.042873021215200424, 0.15932288765907288, 0.04126795753836632, 0.1269448846578598, -0.11742346733808517, -0.010297478176653385, 0.10216425359249115, -0.06315632164478302, 0.1109657734632492, -0.015009570866823196, 0.18578161299228668, 0.0468851663172245, -0.04230775311589241, 0.07606474310159683, 0.013735541142523289, 0.08483763784170151, -0.020240774378180504], [0.01593879796564579, -0.12404799461364746, -0.017443837597966194, -0.1486717313528061, -0.0024799280799925327, 0.15607383847236633, -4.4897089537698776e-05, -0.22205963730812073, 0.03208202123641968, 0.04498262330889702, -0.010988890193402767, -0.005072152707725763, 0.21037669479846954, 0.057630885392427444, 0.022934261709451675, 0.00787834357470274, -0.003164059715345502, 0.18492180109024048, 0.14001025259494781, 0.20610462129116058], [-0.013406394980847836, 0.0632273331284523, -0.19603416323661804, 0.02120974287390709, 0.1828107237815857, -0.011297923512756824, 0.03230946511030197, -0.002928970381617546, -0.15719738602638245, -0.09074252843856812, -0.055739931762218475, -0.008871697820723057, 0.01602477766573429, -0.08896737545728683, -0.131371408700943, -0.03526239097118378, -0.046211451292037964, 0.04164581000804901, 0.0892041027545929, 0.006812375970184803], [-0.01071207970380783, -0.1727989763021469, 0.08744329959154129, -0.07899818569421768, -0.1168980523943901, 0.14563272893428802, -0.19340382516384125, -0.2045043706893921, 0.05062719061970711, 0.05065096169710159, 0.057988230139017105, -0.12199307978153229, 0.2715667188167572, 0.15458130836486816, 7.938023190945387e-05, 0.07807715982198715, -0.012863709591329098, 0.22704586386680603, 0.18868808448314667, 0.2888340950012207], [0.0935659185051918, -0.04567825794219971, -0.2982012629508972, -0.4376109540462494, -0.23076190054416656, 0.36153510212898254, -0.16210129857063293, -0.19453191757202148, -0.12111883610486984, 0.23836582899093628, -0.07062385231256485, -0.1262696087360382, 0.4141766130924225, 0.10000675916671753, 0.0407804436981678, 0.09749727696180344, 0.14317740499973297, 0.42738476395606995, 0.3950693905353546, 0.48957085609436035], [-0.14285854995250702, -0.24910911917686462, -0.1421588957309723, -0.16918426752090454, 0.12237286567687988, 0.12806832790374756, 0.14824500679969788, -0.08291134238243103, -0.03534387797117233, 0.12829776108264923, 0.02619624137878418, 0.06146637722849846, 0.11223748326301575, 0.012359259650111198, -0.02219066023826599, 0.08004577457904816, 0.1781901866197586, 0.10028191655874252, 0.08107628673315048, 0.18772763013839722], [-0.1974068433046341, -0.016905926167964935, -0.23497526347637177, -0.08993274718523026, 0.22912617027759552, 0.058871276676654816, 0.1109272763133049, -0.17955265939235687, -0.12901805341243744, 0.02353297919034958, 0.039376210421323776, -0.1399163007736206, -0.01759534515440464, 0.11021839082241058, 0.013338493183255196, -0.03992881625890732, 0.10941348224878311, 0.028286892920732498, 0.1456085592508316, -0.03376825526356697], [-0.35796689987182617, -0.04757019504904747, -0.10095971822738647, -0.06269998848438263, 0.13912084698677063, 0.14347195625305176, 0.08079790323972702, -0.17511436343193054, 0.09214044362306595, 0.11300401389598846, 0.022169146686792374, 0.04300328716635704, -0.01979382149875164, 0.16633152961730957, 0.1521340310573578, -0.01415476854890585, -0.03568543121218681, -0.08567939698696136, 0.17372551560401917, -0.04573231190443039], [-0.15670089423656464, -0.03927328437566757, 0.22166670858860016, 0.07837556302547455, -0.016459979116916656, -0.14313209056854248, 0.20438647270202637, 0.032406337559223175, 0.03285045921802521, 0.24187029898166656, -0.01340095791965723, -0.05894465371966362, -0.006856871303170919, 0.12699346244335175, 0.04061730206012726, -0.0874607041478157, 0.05391302332282066, 0.003327802987769246, -0.15524570643901825, 0.0321306474506855], [-0.05902642756700516, 0.1439063549041748, -0.1546468287706375, 0.20515218377113342, 0.04887611046433449, -0.15961772203445435, -0.024076366797089577, 0.10710389912128448, -0.0554688423871994, 0.005309498403221369, 0.04464207589626312, -0.059075433760881424, -0.19059470295906067, -0.08344842493534088, -0.05932426452636719, 0.02443404495716095, -0.1553179770708084, -0.17609569430351257, -0.11834567785263062, -0.18985380232334137], [0.10654105991125107, -0.12883895635604858, 0.0071167415007948875, -0.14568893611431122, -0.03074433095753193, 0.1456364542245865, 0.07683351635932922, -0.0949961468577385, 0.031947650015354156, 0.038950081914663315, 0.030957438051700592, -0.012797587551176548, 0.22213441133499146, 0.019621428102254868, -0.02500821277499199, -0.08444220572710037, -0.007891898974776268, 0.18893006443977356, 0.06101249158382416, 0.21910524368286133], [-0.35187530517578125, 0.021654760465025902, -0.5459736585617065, -0.08684302866458893, 0.09611034393310547, 0.05422502011060715, 0.13916099071502686, -0.2515900135040283, 0.026945872232317924, 0.020955529063940048, -0.0049367668107151985, 0.09990577399730682, -0.03193635493516922, 0.07822798937559128, 0.05977076292037964, -0.008201216347515583, -0.23026488721370697, 0.06304927170276642, 0.2206786721944809, -0.04549282044172287], [-0.049487415701150894, 0.0818977877497673, 0.04565875232219696, 0.18600350618362427, -0.03643325716257095, -0.1744435429573059, -0.037184908986091614, 0.17699657380580902, -0.14506776630878448, 0.0025549486745148897, 0.0006693807663396001, -0.0015786902513355017, -0.1853906661272049, -0.13259878754615784, -0.052140265703201294, 0.010169883258640766, -0.0041467733681201935, -0.1830117553472519, -0.21530543267726898, -0.18022841215133667], [-0.3425474762916565, -0.16997908055782318, -0.06170864403247833, -0.4506705105304718, 0.0990416631102562, 0.40416431427001953, -0.047000955790281296, -0.4181869328022003, -0.01668403670191765, 0.2428193837404251, 0.23235471546649933, -0.03939263895153999, 0.45371001958847046, 0.10569633543491364, -0.1396092027425766, -0.03246165066957474, 0.08267313987016678, 0.3550982177257538, 0.2248859852552414, 0.6384342908859253], [-0.11350792646408081, 0.03868787735700607, -0.21209213137626648, 0.11974471807479858, 0.1418951153755188, -0.13695016503334045, -0.04202751815319061, 0.07268749922513962, -0.2134389728307724, -0.00681344885379076, -0.04448801279067993, 0.0487540103495121, -0.1450427621603012, 0.17842814326286316, 0.022733265534043312, 0.041609443724155426, 0.13341759145259857, -0.12760069966316223, -0.13550660014152527, -0.14195945858955383], [0.12991802394390106, -0.1083657369017601, -0.043232738971710205, -0.10966923087835312, -0.0017533308127894998, 0.09281877428293228, -0.017540255561470985, -0.07042321562767029, -0.05583212897181511, 0.040031805634498596, -0.08845214545726776, -0.03375134617090225, 0.19095323979854584, -0.06866496801376343, -0.07745646685361862, -0.002869558520615101, -0.06376079469919205, 0.16091826558113098, 0.07432552427053452, 0.19033780694007874], [0.1663714349269867, -0.22900189459323883, -0.0460137240588665, -0.3175387680530548, 0.15478236973285675, 0.2847350835800171, -0.18003779649734497, -0.3084210455417633, -0.12433323264122009, -0.2131529450416565, -0.268962562084198, -0.005758760496973991, 0.2271733433008194, -0.1706608533859253, -0.1489243060350418, 0.06446163356304169, 0.1726602166891098, 0.2422914057970047, 0.2838078737258911, 0.30881914496421814], [0.07620740681886673, -0.1202603131532669, 0.04028533771634102, -0.11854841560125351, -0.006714752875268459, 0.12578898668289185, 0.07107733190059662, -0.1048513799905777, 0.02909936010837555, 0.03853766992688179, 0.04863135144114494, -0.010263161733746529, 0.22210371494293213, 0.005539197940379381, -0.03267661854624748, -0.0655789002776146, 0.01200068648904562, 0.18624073266983032, 0.05164027214050293, 0.2094939798116684], [0.22795851528644562, 0.05528710409998894, 0.27082139253616333, 0.12767726182937622, 0.31832101941108704, 0.007225230801850557, 0.16824088990688324, 0.11818236112594604, -0.17573344707489014, -0.16075126826763153, 0.32455626130104065, 0.6554908156394958, 0.3162194490432739, -0.20305590331554413, -0.10072934627532959, 0.3201422691345215, -0.03291889280080795, 0.30178987979888916, 0.09540683776140213, -0.05736638605594635], [0.07133933156728745, 0.1624128222465515, 0.019094765186309814, 0.10367939621210098, 0.030811432749032974, -0.1831820011138916, -0.27284201979637146, -0.08722721040248871, -0.05195583403110504, -0.28674450516700745, 0.03569744899868965, -0.02639724686741829, 0.031998202204704285, -0.10894592106342316, 0.006418733391910791, 0.21187174320220947, 0.03907423093914986, -0.015117195434868336, 0.1475074142217636, 0.09994761645793915], [0.07332589477300644, -0.10195799171924591, 0.18469081819057465, 0.14495640993118286, 0.07054714858531952, -0.26587599515914917, -0.12362264096736908, 0.073857881128788, -0.5428525805473328, -0.30531153082847595, -0.27699705958366394, 0.04452944174408913, 0.03928515687584877, -0.38336601853370667, -0.21381372213363647, -0.12441416084766388, 0.7177191972732544, 0.08898043632507324, -0.25429201126098633, 0.058583274483680725], [0.056855589151382446, 0.06855249404907227, -0.026027623564004898, 0.0707220584154129, 0.022161152213811874, -0.25437790155410767, 0.12444180250167847, 0.18126730620861053, 0.14227087795734406, -0.0005546273314394057, 0.08035102486610413, -0.06230529025197029, -0.23383969068527222, -0.019212394952774048, 0.010995451360940933, -0.09462840855121613, -0.03176507353782654, -0.0733039528131485, -0.12692409753799438, -0.1785045564174652], [0.04855726286768913, -0.24936093389987946, -0.11392819136381149, 0.04455912485718727, 0.22097864747047424, -0.3209196627140045, 0.48367998003959656, -0.041726067662239075, -0.26941409707069397, -0.3011798560619354, 0.017239559441804886, -0.09348026663064957, 0.020948613062500954, -0.41016852855682373, 0.6034494638442993, 0.27418482303619385, 0.1687585711479187, -0.06351684778928757, -0.12129293382167816, 0.06792736798524857], [0.05873838812112808, -0.06446602940559387, 0.08700991421937943, -0.12097834795713425, -0.03732936829328537, 0.35401299595832825, -0.2426798939704895, -0.040453556925058365, -0.10526976734399796, 0.060962192714214325, -0.11584602296352386, 0.013179323635995388, 0.25689616799354553, 0.024748023599386215, -0.018975909799337387, 0.22887690365314484, -0.0747608095407486, 0.10399630665779114, 0.208093523979187, 0.10576970875263214], [-0.20918945968151093, -0.13541799783706665, -0.0051279691979289055, -0.34931331872940063, -0.2766773998737335, -0.11939766258001328, 0.02654535509645939, 0.09289683401584625, 0.17852278053760529, 0.30364298820495605, -0.16471830010414124, 0.13477207720279694, 0.1592472493648529, 0.42504218220710754, 0.02192852273583412, -0.27210015058517456, -0.022904902696609497, -0.05141469091176987, -0.23387257754802704, -0.16341517865657806], [0.14750708639621735, 0.10955527424812317, -0.07339777797460556, 0.09802328050136566, -0.1488981992006302, 0.02023523859679699, 0.32650327682495117, 0.0008846877026371658, 0.09132417291402817, 0.27113980054855347, -0.28093934059143066, -0.03881541267037392, -0.21280437707901, 0.13720057904720306, -0.04897512122988701, -0.494282990694046, 0.0026510958559811115, -0.0767449289560318, -0.09433393180370331, -0.2606362998485565], [0.24561893939971924, 0.39275798201560974, 0.3896621763706207, -0.6243717670440674, -0.1683521866798401, 0.45442214608192444, -0.10254963487386703, -0.06412910670042038, 0.3744841516017914, 0.931291937828064, -0.7284566760063171, 0.05264526605606079, -0.17270125448703766, 1.2027406692504883, -1.129707932472229, 0.675311267375946, -0.3311186134815216, -0.10799047350883484, 0.13430893421173096, -0.11419142782688141], [-0.5476778745651245, -0.04989878833293915, 0.01984451897442341, -0.06810768693685532, -0.13840699195861816, 0.34131312370300293, -0.04221665859222412, -0.06055457517504692, 0.10510186851024628, 0.02894660271704197, -0.10587293654680252, 0.026034176349639893, -0.14806896448135376, 0.13786198198795319, -0.2658030688762665, 0.06169408932328224, -0.03386806324124336, -0.08673384040594101, -0.02378854900598526, -0.037178173661231995], [0.05791878700256348, -0.34472209215164185, -0.1257513016462326, 0.15646445751190186, -0.060291070491075516, -0.48474451899528503, 0.38096439838409424, 0.14229770004749298, 0.36267122626304626, -0.19368024170398712, -0.10921469330787659, 0.08584285527467728, -0.19735805690288544, 0.49151232838630676, 0.3492717444896698, -0.22131191194057465, -0.20796754956245422, 0.0008068487513810396, -0.024266140535473824, -0.14980000257492065], [-0.12664347887039185, -0.08304156363010406, 0.534583568572998, 0.26983416080474854, 0.915824294090271, -0.09890399873256683, 0.03574343025684357, -0.1387287974357605, -2.402247667312622, -1.334254503250122, 0.702051043510437, 0.9195574522018433, 0.23960141837596893, -3.361956834793091, -0.4941435158252716, -0.44289618730545044, 0.5185508728027344, 0.10099630057811737, -0.33385875821113586, 0.21464136242866516], [0.11224091053009033, -0.0814671590924263, 0.08364105224609375, -0.13164624571800232, -0.039044979959726334, 0.13030287623405457, 0.06817199289798737, -0.031695254147052765, -0.0006986408261582255, 0.027988025918602943, -0.04274742677807808, 0.07703138887882233, 0.189796581864357, 0.03931920975446701, -0.03809265047311783, -0.04968670383095741, 0.0509604811668396, 0.154868021607399, 0.03296075761318207, 0.2150142639875412], [-0.011461085639894009, 0.7303903102874756, -0.03772713616490364, -0.5134424567222595, -0.11971141397953033, 0.20980380475521088, -0.587796688079834, -0.359068900346756, 0.15759378671646118, 1.1997146606445312, -0.7017517685890198, 0.11624984443187714, -0.09404021501541138, 0.2810397446155548, -1.5267382860183716, 0.749478816986084, -0.08853847533464432, -0.04210136458277702, 0.20621563494205475, -0.034758325666189194], [0.08183896541595459, -0.28892549872398376, 0.1661890298128128, -0.26669931411743164, -0.5227518081665039, 0.10886010527610779, 0.4109220504760742, 0.15411584079265594, 0.49695271253585815, 0.63299959897995, -0.7373150587081909, 0.11594407260417938, -0.422587513923645, 1.1474056243896484, -1.31702721118927, -0.09972093999385834, -0.19344639778137207, -0.20030605792999268, 0.13684937357902527, -0.30543026328086853], [0.02309497632086277, 0.18773046135902405, 0.12888047099113464, -0.31094640493392944, -0.035192444920539856, 0.2627871334552765, -0.370451956987381, -0.17767494916915894, -0.3992440104484558, -0.0978950560092926, 0.10827160626649857, 0.2018224149942398, -0.24726970493793488, -0.32621461153030396, 0.19177007675170898, -0.06951259821653366, 0.05125463008880615, -0.11971540004014969, 0.053351182490587234, -0.017034310847520828], [-0.013415355235338211, -0.15369364619255066, 0.14667107164859772, 0.2954346239566803, 0.49308544397354126, -0.1525091975927353, 0.018273402005434036, 0.07360251992940903, -1.1301063299179077, -0.4987293779850006, -0.11164196580648422, -0.021549031138420105, -0.11695027351379395, -1.4637876749038696, -0.8530862927436829, -0.2537117600440979, 0.8245985507965088, -0.13775478303432465, -0.11718440800905228, 0.2554195821285248], [0.16963720321655273, -0.11597113311290741, -0.028467508032917976, 0.025092698633670807, 0.07096005231142044, 0.015321341343224049, -0.10398765653371811, 0.05484183505177498, -0.156571626663208, -0.05536791682243347, -0.29857853055000305, -0.05147450417280197, 0.22419624030590057, -0.0841178223490715, -0.19142940640449524, 0.07080407440662384, 0.03569871932268143, 0.16273052990436554, -0.0031726553570479155, 0.18102334439754486], [-0.0025489123072475195, 0.024898095056414604, -0.02736937813460827, -0.1958378106355667, 0.04512954130768776, 0.2905757427215576, 0.07689549028873444, 0.04551568999886513, 0.09919760376214981, -0.02702539972960949, -0.18085327744483948, -0.0950193777680397, 0.023894771933555603, 0.048350702971220016, 0.04207894578576088, 0.16178911924362183, -0.09918249398469925, 0.055156346410512924, 0.2756895124912262, -0.0688263326883316], [0.12822295725345612, -0.05676757171750069, 0.15420196950435638, -0.15654821693897247, -0.08281566947698593, 0.16300830245018005, 0.11321233212947845, 0.006044596899300814, 0.07865467667579651, 0.04790862277150154, -0.11112529039382935, 0.09842950850725174, 0.22095786035060883, 0.14911101758480072, -0.0026570709887892008, -0.03213830292224884, 0.0417712964117527, 0.18129950761795044, 0.045888930559158325, 0.3287416100502014], [0.5138145089149475, -0.06643931567668915, 0.07601170241832733, -0.10302061587572098, -0.12244243919849396, 0.13202132284641266, 0.057683806866407394, -0.03461713343858719, 0.11708459258079529, -0.036973994225263596, -0.04310920834541321, -0.0352117195725441, 0.19822482764720917, 0.07300426810979843, 0.06272660195827484, -0.1863679736852646, 0.05055630952119827, 0.20534707605838776, 0.15045619010925293, 0.17682448029518127], [0.28828343749046326, 0.28673020005226135, -0.05976595729589462, -0.11772572994232178, -0.05961286276578903, -0.011715613305568695, -0.04128190502524376, 0.028192410245537758, -0.07263156771659851, 0.04292966052889824, 0.076323501765728, -0.08172926306724548, 0.10338485985994339, -0.2615604102611542, -0.5508540272712708, 0.06989952176809311, 0.11059325188398361, 0.1638505607843399, -0.19049109518527985, 0.29440170526504517], [-0.12710551917552948, -0.06595602631568909, -0.20204851031303406, -0.1292905956506729, 0.30057933926582336, 0.16432170569896698, 0.06285229325294495, -0.3009761571884155, -0.2972393035888672, -0.057986486703157425, -0.3506888449192047, 0.505543053150177, 0.0628044530749321, 0.010621906258165836, -0.1464611142873764, -0.01409338042140007, 0.33171552419662476, 0.11916378885507584, 0.22637870907783508, 0.058187469840049744], [-0.015182709321379662, -0.16091850399971008, -0.10063035786151886, -0.29763877391815186, 0.03824887424707413, 0.2800266742706299, 0.03142022714018822, -0.26039376854896545, -0.059086497873067856, 0.029845450073480606, -0.07299172133207321, 0.03855237737298012, 0.3216634690761566, 0.023744843900203705, 0.03599110618233681, -0.05361359566450119, 0.09943067282438278, 0.29172781109809875, 0.24254772067070007, 0.31057074666023254], [0.08564489334821701, -0.1163230836391449, -0.10332214087247849, -0.17677408456802368, 0.025871874764561653, 0.18677502870559692, 0.06297625601291656, -0.1215602457523346, 0.008331808261573315, -0.003785722656175494, -0.02997797541320324, -0.034717876464128494, 0.23202307522296906, -0.08269121497869492, -0.06998150795698166, -0.09427677094936371, -0.03137873485684395, 0.22775711119174957, 0.18301770091056824, 0.22540950775146484], [0.0382697694003582, -0.15220344066619873, -0.26856839656829834, -0.22573934495449066, 0.04183375835418701, 0.24889437854290009, -0.034866396337747574, -0.28727391362190247, -0.12366020679473877, 0.006173846777528524, -0.004749436397105455, -0.07134909927845001, 0.25256338715553284, 0.04096243157982826, -0.035097282379865646, -0.039405036717653275, 0.21050137281417847, 0.31384769082069397, 0.2644054591655731, 0.32557785511016846], [0.09640805423259735, 0.02424369938671589, -0.20930002629756927, -0.15618130564689636, -0.02158755622804165, 0.08225119858980179, 0.1712692677974701, 0.01727694645524025, 0.17740203440189362, 0.1671697497367859, 0.15615157783031464, -0.0004392035480123013, 0.23189042508602142, 0.11550939083099365, -0.02676163986325264, -0.04000449553132057, 0.04844538867473602, 0.12913082540035248, 0.1622524857521057, 0.1816767305135727], [-0.06081251800060272, -0.2592845559120178, -0.19861164689064026, -0.22912630438804626, 0.034838370978832245, 0.1484217345714569, 0.06276064366102219, -0.2372582107782364, -9.463591413805261e-05, 0.05198124796152115, -0.11033401638269424, -0.05391509085893631, 0.2388882040977478, 0.09360410273075104, 0.07964920252561569, -0.053718943148851395, 0.08152042329311371, 0.21827715635299683, 0.24322320520877838, 0.2067440301179886], [0.08151931315660477, -0.2255607694387436, -0.18208593130111694, -0.32105350494384766, 0.034080833196640015, 0.3134443163871765, 0.1583506315946579, -0.3100385069847107, 0.009789207950234413, 0.02112078107893467, -0.037158071994781494, -0.004443970508873463, 0.31840595602989197, -0.014280962757766247, -0.01712845265865326, -0.15529146790504456, 0.032550569623708725, 0.3196604251861572, 0.32641953229904175, 0.31915226578712463], [-0.09568725526332855, -0.193926602602005, -0.6242368817329407, -0.21979036927223206, 0.002019043080508709, 0.2621864378452301, 0.1102166697382927, -0.30580466985702515, -0.050960980355739594, 0.08368547260761261, 0.0570378378033638, -0.02847142331302166, 0.1688760370016098, 0.03465431183576584, -0.018026145175099373, -0.08605259656906128, -0.18491122126579285, 0.1696806401014328, 0.31735488772392273, 0.16458526253700256], [0.14280761778354645, -0.20613260567188263, -0.03947063907980919, -0.22274696826934814, -0.09353700280189514, 0.21407167613506317, 0.13405637443065643, -0.17544478178024292, 0.09238006919622421, 0.07629206776618958, 0.03861011192202568, -0.060877956449985504, 0.2676425576210022, 0.007001455873250961, 0.015095606446266174, -0.16009198129177094, -0.032766878604888916, 0.24028639495372772, 0.1514330506324768, 0.2671041488647461], [-0.10238822549581528, 0.042537033557891846, -0.742047905921936, -0.14432524144649506, 0.06615915894508362, 0.16230522096157074, 0.1443922519683838, -0.24894626438617706, 0.09353408217430115, 0.16154879331588745, 0.08247274160385132, 0.07605741918087006, 0.12412768602371216, 0.2620365619659424, 0.03592357784509659, -0.125517800450325, -0.06349292397499084, 0.15299031138420105, 0.36749565601348877, 0.11539112776517868], [0.09541027992963791, -0.24856415390968323, -0.02903451770544052, -0.23660029470920563, -0.0069715846329927444, 0.2371959388256073, 0.07833971083164215, -0.18327690660953522, 0.0066789365373551846, 0.044573407620191574, -0.048904214054346085, 0.0844126045703888, 0.361648827791214, 0.05616908147931099, 0.013178338296711445, -0.08947417140007019, -0.014070606790482998, 0.2837764322757721, 0.15520478785037994, 0.3681985139846802], [0.13602231442928314, -0.2831207513809204, -0.23638784885406494, -0.3881368339061737, -0.016275055706501007, 0.37997615337371826, 0.18270643055438995, -0.33917099237442017, 0.02281082421541214, 0.046178050339221954, -0.026946324855089188, -0.009861188940703869, 0.38919398188591003, -0.0024493972305208445, -0.00496816448867321, -0.20363539457321167, -0.013299969956278801, 0.37751832604408264, 0.35680195689201355, 0.39006462693214417], [0.2052619755268097, -0.24424347281455994, -0.031489674001932144, -0.344168484210968, -0.05607053264975548, 0.333391010761261, 0.09372973442077637, -0.26761239767074585, 0.04332650825381279, -0.002527342177927494, -0.019714370369911194, -0.08828531205654144, 0.3392426073551178, -0.05311549827456474, -0.02754811756312847, -0.15480320155620575, -0.040154483169317245, 0.31684714555740356, 0.26092514395713806, 0.34375178813934326], [0.1021241769194603, 0.030841771513223648, -0.03901609405875206, -0.2231450378894806, -0.09879515320062637, 0.13665848970413208, 0.11637141555547714, -0.043770406395196915, -0.031199485063552856, 0.11838462948799133, 0.10337650030851364, -0.022549428045749664, 0.22460277378559113, 0.08462554216384888, -0.06308403611183167, -0.22094126045703888, 0.07819169014692307, 0.2564975321292877, 0.18299105763435364, 0.2854320704936981], [-0.12263930588960648, -0.24983486533164978, -0.3734828233718872, -0.2605098485946655, 0.1829768568277359, 0.17996472120285034, 0.2256489247083664, -0.3925136923789978, -0.3003733456134796, 0.04210292547941208, -0.039650388062000275, 0.10442041605710983, 0.13830259442329407, 0.10488607734441757, 0.022096632048487663, -0.13297833502292633, 0.21355906128883362, 0.14806388318538666, 0.1479196548461914, 0.13456666469573975], [0.12339993566274643, -0.22899365425109863, -0.06091166287660599, -0.24623367190361023, 0.008478722535073757, 0.21479462087154388, 0.06677462160587311, -0.21436277031898499, 0.010641738772392273, 0.03493091091513634, -0.06893230974674225, 0.029881032183766365, 0.3176487684249878, 0.03480293229222298, 0.002306652022525668, -0.07405049353837967, 0.0025878497399389744, 0.2973003387451172, 0.15903455018997192, 0.30510979890823364], [0.1136086955666542, -0.09721359610557556, -0.14032500982284546, -0.28867533802986145, 0.05853557214140892, 0.25411075353622437, -0.03083420731127262, -0.29918888211250305, -0.07264578342437744, -0.019396301358938217, -0.10359784960746765, 0.20982041954994202, 0.18660728633403778, -0.009493669494986534, -0.04479674994945526, 0.08730851113796234, -0.005202161613851786, 0.1644526869058609, 0.272893488407135, 0.20527860522270203], [0.0822417363524437, -0.20391201972961426, -0.004209284204989672, -0.25998327136039734, -0.0004662286664824933, 0.25226038694381714, 0.07562793046236038, -0.2256043404340744, 0.009457371197640896, 0.03792927414178848, -0.009827022440731525, -0.0665653795003891, 0.3489241898059845, -0.02592673897743225, -0.021428177133202553, -0.062407005578279495, -0.007921011187136173, 0.29750514030456543, 0.14773494005203247, 0.34472084045410156]], "rec.bias_ih_l0": [-0.6752073168754578, 2.7505779144121334e-05, 0.13268984854221344, 0.08938711136579514, 0.25349149107933044, 0.08112797886133194, -0.2840614318847656, 0.07706358283758163, 0.3474067151546478, 0.2707117795944214, 0.30159619450569153, 0.38674554228782654, 0.09907077997922897, 0.4254935681819916, 0.3483453691005707, -0.4345012903213501, 0.26023510098457336, 0.13640011847019196, -0.18808996677398682, 0.15742579102516174, 0.8987573981285095, 0.32015764713287354, -0.03429491072893143, 0.2763112187385559, 0.024034885689616203, 0.4153636693954468, 0.5449122190475464, 0.31430625915527344, -0.07764193415641785, -0.12531377375125885, 0.09789860248565674, -0.20607928931713104, 0.2501557767391205, -0.0699031874537468, -0.193272203207016, 0.554625391960144, -0.13988658785820007, 0.20109246671199799, 0.2632046043872833, 0.28365015983581543, -0.09553787857294083, -0.3077668249607086, -0.04945502057671547, 0.1736506223678589, 0.16041424870491028, -0.0743257999420166, 0.06840820610523224, -0.23528306186199188, -0.09130074083805084, 0.11142479628324509, 0.2696567177772522, 0.11183513700962067, 0.11171280592679977, -0.10345681011676788, -0.08403552323579788, 0.01615956984460354, 0.1771216094493866, 0.07725353538990021, -0.10873089730739594, -0.0532989539206028, 0.24090328812599182, 0.2562773823738098, 0.056993287056684494, 0.33878830075263977, 0.27557873725891113, 0.2853687107563019, 0.26464882493019104, 0.3078191876411438, 0.3437296748161316, 0.17227496206760406, 0.3275061249732971, 0.14774905145168304, 0.4197811186313629, 0.4196644127368927, 0.35103222727775574, 0.21376250684261322, 0.1290089637041092, 0.3263451159000397, 0.25630199909210205, 0.4017340838909149], "rec.bias_hh_l0": [-0.727629542350769, 0.08263067156076431, 0.1326960027217865, 0.08952616900205612, 0.25349149107933044, 0.0025661622639745474, -0.10206402838230133, 0.08827156573534012, 0.3474067151546478, 0.27070948481559753, 0.3029767572879791, 0.38674554228782654, 0.09783376008272171, 0.4254935681819916, 0.3483453691005707, -0.26321643590927124, 0.26042038202285767, 0.13742244243621826, -0.14085091650485992, 0.1574259251356125, 0.9690365195274353, 0.2710002064704895, -0.03591541573405266, 0.27297475934028625, 0.022072888910770416, 0.2899220883846283, 0.5772627592086792, 0.35939693450927734, -0.09300944209098816, -0.1282528042793274, 0.09826881438493729, -0.214369535446167, 0.24754835665225983, -0.07686719298362732, -0.19228874146938324, 0.5279223322868347, -0.15367820858955383, 0.19543977081775665, 0.20249155163764954, 0.2836434245109558, 0.04390720650553703, -0.1432843655347824, -0.09932952374219894, -0.04441356286406517, -0.03604338318109512, 0.000525431358255446, -0.015161992982029915, -0.05957287549972534, -0.1760188341140747, 0.012502382509410381, 0.13923205435276031, 0.21003015339374542, 0.02637162059545517, -0.016472993418574333, 0.017462581396102905, -0.25191250443458557, 0.2933889925479889, 0.1758817434310913, -0.004842054098844528, -0.0552409365773201, 0.13970594108104706, 0.2648071348667145, 0.06028033792972565, 0.36433470249176025, 0.27557873725891113, 0.2971339821815491, 0.27277839183807373, 0.3021816313266754, 0.343729704618454, 0.17217344045639038, 0.3261497914791107, 0.1357770711183548, 0.3614727258682251, 0.4196644127368927, 0.35103222727775574, 0.27418792247772217, 0.13076962530612946, 0.31277239322662354, 0.18737883865833282, 0.3882419466972351], "lin.weight": [[-0.19894017279148102, 0.13807757198810577, 0.29668179154396057, -0.18111065030097961, 0.6448277235031128, -0.09291023761034012, 0.10678154230117798, -0.2678620219230652, 0.01661054417490959, -0.15035668015480042, 0.3228127956390381, 1.6837401390075684, 0.15990637242794037, -0.06525281816720963, 0.06211932376027107, 0.5073966383934021, -1.0632848739624023, 0.1746813803911209, -0.23178817331790924, 0.18298357725143433]], "lin.bias": [0.027873244136571884]}}