{"model_data": {"model": "SimpleRNN", "input_size": 1, "skip": 1, "output_size": 1, "unit_type": "LSTM", "num_layers": 1, "hidden_size": 20, "bias_fl": true}, "state_dict": {"rec.weight_ih_l0": [[0.0003933296538889408], [-0.005631964188069105], [-0.004056352190673351], [-0.05406133458018303], [0.0028411997482180595], [0.050163429230451584], [0.02019704505801201], [0.005540741607546806], [0.00803017895668745], [0.016233814880251884], [-0.00793564785271883], [-0.009936343878507614], [-0.1843583881855011], [0.011447880417108536], [-0.008632326498627663], [-0.021136868745088577], [-0.015577050857245922], [-0.012057805433869362], [-0.01252013724297285], [0.03299928456544876], [0.0023955770302563906], [-0.05704160034656525], [0.03521430119872093], [-0.06817951798439026], [0.02061489410698414], [0.20353788137435913], [0.02209109254181385], [0.023607637733221054], [-0.017922082915902138], [0.06086589768528938], [-0.004126324318349361], [-0.01519444677978754], [-0.021150054410099983], [-0.09084247052669525], [0.03200560435652733], [-0.05062663182616234], [-0.063050776720047], [-0.035855475813150406], [-0.024488074705004692], [0.11907242238521576], [0.003601627890020609], [-0.08142099529504776], [1.9829301834106445], [-0.16494084894657135], [0.19972003996372223], [-1.0133498907089233], [0.1962771713733673], [0.005021883640438318], [0.11586057394742966], [0.2113441824913025], [-0.2838836908340454], [1.1950125694274902], [0.2519299387931824], [-0.13605134189128876], [-0.8962808847427368], [-1.5615063905715942], [1.9020681381225586], [-0.2450343668460846], [0.05425955727696419], [0.6220435500144958], [-0.04537772387266159], [-0.001995020778849721], [-0.024849645793437958], [-0.18218813836574554], [0.03485175222158432], [0.08698298037052155], [0.01620526984333992], [0.04949566349387169], [-0.05094512552022934], [0.06384148448705673], [-0.04839419946074486], [-0.0033180289901793003], [0.03385422006249428], [0.0709090456366539], [0.025267064571380615], [-0.01898990571498871], [-0.02083112671971321], [-0.034225497394800186], [-0.0591430701315403], [0.10274701565504074]], "rec.weight_hh_l0": [[-0.08663376420736313, 0.0017144469311460853, 0.021024001762270927, 0.04071929678320885, -0.0034635665360838175, -0.022760653868317604, -0.0659877359867096, 0.08570361137390137, 0.035750966519117355, 0.07735922187566757, -0.005750075448304415, 0.015429473482072353, 0.0061829774640500546, -0.007365100085735321, 0.008931539952754974, 0.0014511762419715524, 0.004131596069782972, -0.007686282508075237, -0.08599546551704407, 0.05177105963230133], [0.1325724571943283, 0.04034266620874405, 0.055967871099710464, -0.07778092473745346, -0.1406865119934082, 0.04019836336374283, 0.3127143979072571, -0.11244133859872818, -0.12194288522005081, -0.2220921516418457, 0.18845495581626892, 0.0032358593307435513, -0.022123735398054123, -0.004693805705755949, 0.1689525991678238, 0.06812357157468796, -0.022621558979153633, 0.026808060705661774, 0.18736675381660461, -0.1368958204984665], [-0.3353620171546936, -0.007716899272054434, 0.026181122288107872, 0.24206994473934174, 0.039287883788347244, -0.09391248226165771, -0.312581330537796, 0.3339483141899109, 0.1947174072265625, 0.3163793385028839, -0.086582250893116, -0.0016590390587225556, 0.03703934699296951, -0.021639753133058548, -0.0112742455676198, 0.010022146627306938, 0.009753432124853134, -0.01860847882926464, -0.332512229681015, 0.2554793059825897], [0.4153844118118286, 0.15086713433265686, 0.12584084272384644, -0.20184572041034698, 0.11584043502807617, 0.15741415321826935, 0.4901859760284424, -0.2730602025985718, -0.3183501064777374, -0.24918793141841888, 0.4220081865787506, 0.06788256019353867, -0.19500507414340973, 0.18692946434020996, 0.10704928636550903, -0.23692160844802856, -0.14581702649593353, -0.17927242815494537, 0.4454948902130127, -0.32460537552833557], [0.35783514380455017, -0.16954593360424042, -0.07907809317111969, -0.1286398321390152, 0.043176136910915375, 0.1896459013223648, 0.29795220494270325, -0.30328935384750366, -0.10673658549785614, -0.3114697337150574, 0.08096257597208023, -0.07028035074472427, -0.06903323531150818, 0.21201997995376587, -0.015622079372406006, 0.07920724153518677, -0.027584310621023178, 0.01995355822145939, 0.33333322405815125, -0.1453552395105362], [-0.21133391559123993, -0.026995999738574028, 0.002536066109314561, 0.14937201142311096, 0.012343455106019974, -0.044312916696071625, -0.1801113337278366, 0.21042510867118835, 0.12264490127563477, 0.19789548218250275, -0.039660848677158356, -9.702410170575604e-05, 0.05210523307323456, -0.019026832655072212, -0.00642632320523262, 0.021563488990068436, 0.03724760562181473, 0.01211431436240673, -0.20403112471103668, 0.16548697650432587], [-0.17433321475982666, -0.0006139336619526148, -0.010295949876308441, 0.11089160293340683, 0.02106044813990593, -0.02289709448814392, -0.05533769354224205, 0.135425865650177, 0.05154026672244072, 0.1353032886981964, -0.10307127237319946, -0.012721984647214413, 0.045597538352012634, -0.016385352239012718, -0.0907978042960167, -0.05502220615744591, 0.012234057299792767, 0.040118567645549774, -0.14859431982040405, 0.10213097184896469], [-0.08213131874799728, -0.006759778130799532, 0.013251286000013351, 0.04650837928056717, 0.00087493855971843, -0.02116900123655796, -0.059330035001039505, 0.08439163863658905, 0.03885175287723541, 0.07836447656154633, -0.0011875343043357134, 0.004049580544233322, 0.01048322580754757, -0.023103540763258934, 0.006685328204184771, 0.022729231044650078, -0.004639206454157829, -0.007787520997226238, -0.07996850460767746, 0.06420651823282242], [-0.03688719496130943, 0.02781231887638569, 0.07278481125831604, -0.03437899425625801, -0.05583057180047035, 0.04877028614282608, -0.11392371356487274, 0.038628097623586655, 0.013267593458294868, 0.06387383490800858, 0.09169328957796097, 0.0378074124455452, 0.12304019927978516, -0.013029590249061584, 0.30868175625801086, 0.15068282186985016, -0.0809931606054306, -0.009662659838795662, -0.03993895277380943, 0.0969090536236763], [-0.09199969470500946, -0.005508663598448038, 0.012586954049766064, 0.042801178991794586, 0.012350666336715221, -0.007568009197711945, -0.08639183640480042, 0.09492547065019608, 0.043473295867443085, 0.09504019469022751, 0.018237149342894554, 0.009047651663422585, 0.034983132034540176, -0.015061929821968079, 0.0446319542825222, 0.05592188239097595, -0.012529010884463787, 0.005872371606528759, -0.0863197073340416, 0.10240891575813293], [-0.2575550675392151, -0.012182970531284809, 0.02841530181467533, 0.1824687272310257, -0.0004906508256681263, -0.07642614096403122, -0.2355627715587616, 0.25655776262283325, 0.14801383018493652, 0.2567998468875885, -0.09277592599391937, 0.0047364141792058945, 0.015841102227568626, 0.015795469284057617, 0.08385699987411499, 0.04125501215457916, -0.01579909771680832, -0.024912817403674126, -0.25424009561538696, 0.229803666472435], [-0.31594738364219666, -0.009986204095184803, 0.01272269245237112, 0.21231728792190552, 0.02067412994801998, -0.08768448978662491, -0.2788158655166626, 0.3143083453178406, 0.1690727174282074, 0.3075442910194397, -0.046652354300022125, -0.015198053792119026, 0.0439680851995945, -0.030242672190070152, 0.0028209001757204533, 0.020919524133205414, 0.004895995836704969, 0.0028750423807650805, -0.3117421567440033, 0.22426213324069977], [0.5081101655960083, 0.19341613352298737, 0.33192017674446106, -0.12979842722415924, 0.08129396289587021, 0.27310535311698914, 0.6479037404060364, -0.4577932357788086, -0.19970259070396423, -0.36302971839904785, 0.13879694044589996, -0.20456643402576447, 0.1602151095867157, 0.03079393319785595, 0.062234655022621155, -0.27661606669425964, -0.15167543292045593, -0.03796613961458206, 0.5666494965553284, -0.18339066207408905], [0.5097211003303528, 0.23485620319843292, 0.26741454005241394, -0.4019705653190613, 0.06312315165996552, 0.2247529774904251, 0.36565035581588745, -0.4916830360889435, -0.49068668484687805, -0.26156339049339294, 0.23011495172977448, 0.21829073131084442, -0.16745908558368683, 0.05544087290763855, -0.14848460257053375, -0.16327761113643646, -0.35740235447883606, -0.010415888391435146, 0.4584192633628845, -0.45052048563957214], [-0.3508012890815735, 0.011410288512706757, 0.0151669355109334, 0.24307094514369965, 0.0037410168442875147, -0.09647242724895477, -0.3429858386516571, 0.345537394285202, 0.18943661451339722, 0.3314954340457916, -0.06394270062446594, -0.0048177652060985565, 0.03755541890859604, 0.005602588411420584, -0.06983742862939835, 0.033803410828113556, 0.006982773542404175, 0.013888935558497906, -0.3511950969696045, 0.259275883436203], [-0.3107980191707611, 0.0161418616771698, -0.0014375896425917745, 0.2578301429748535, 0.037163008004426956, -0.056946758180856705, -0.34863725304603577, 0.3133360743522644, 0.1969008892774582, 0.3291608691215515, -0.03723130002617836, -0.010104653425514698, 0.03768439218401909, 0.032085224986076355, 0.02183866687119007, 0.13995209336280823, -0.024325404316186905, -0.023790061473846436, -0.3103772699832916, 0.31458160281181335], [-0.30070459842681885, -0.008243085816502571, -0.0031715843360871077, 0.2170904129743576, 0.0121780876070261, -0.09595638513565063, -0.29872390627861023, 0.30182966589927673, 0.1656709909439087, 0.30400192737579346, -0.075596883893013, -0.027178039774298668, 0.02921004220843315, -0.022103091701865196, 0.02128170244395733, 0.03906532749533653, -0.022567110136151314, 0.014322069473564625, -0.29991430044174194, 0.2556004524230957], [-0.21171410381793976, -0.038302816450595856, 0.008580593392252922, 0.13535822927951813, -0.015336419455707073, -0.05292186513543129, -0.1905585378408432, 0.21002820134162903, 0.10771039873361588, 0.20544931292533875, -0.015577472746372223, -0.024637222290039062, 0.04718751460313797, -0.02279799059033394, -0.03246954828500748, 0.005615160334855318, -0.0018957615830004215, -0.004557017236948013, -0.20733751356601715, 0.1351417750120163], [-0.08379343152046204, 0.045684292912483215, 0.015352293848991394, 0.030792713165283203, -0.008146275766193867, -0.037283509969711304, -0.08523578941822052, 0.07631930708885193, 0.021880697458982468, 0.06645254790782928, -0.03208693489432335, 0.025919156149029732, -0.026209084317088127, 0.006703505292534828, -0.020076654851436615, -0.017318500205874443, 0.005191004369407892, 0.0008881265530362725, -0.0875001847743988, 0.04785911738872528], [-0.20665080845355988, -0.007542235776782036, -0.006906621158123016, 0.14036907255649567, 0.007762087509036064, -0.05637718364596367, -0.15536044538021088, 0.19580313563346863, 0.08778870105743408, 0.17950166761875153, -0.09032132476568222, -0.040464840829372406, 0.01608864963054657, 0.013430443592369556, -0.11367226392030716, -0.048245109617710114, 0.02995225042104721, 0.04065244644880295, -0.19671162962913513, 0.10321871191263199], [-0.203105628490448, 0.008306690491735935, 0.049518052488565445, 0.08883058279752731, -0.008211126551032066, -0.05297841131687164, -0.1696152687072754, 0.19642698764801025, 0.08344820886850357, 0.18058247864246368, -0.02182791940867901, 0.03773010894656181, 0.013953960500657558, -0.00728331133723259, 0.02055949904024601, 0.004137698095291853, 0.014012315310537815, -0.018792560324072838, -0.20813801884651184, 0.12057685852050781], [-0.3218219578266144, 0.10905878990888596, 0.10470639169216156, 0.1610591858625412, -0.08141473680734634, -0.08928286284208298, -0.1421424150466919, 0.35298606753349304, 0.015179633162915707, 0.2996922731399536, -0.11434529721736908, 0.011487927287817001, 0.011821344494819641, -0.015372639521956444, -0.005501430016011, -0.05386301502585411, 0.011003910563886166, 0.04953734204173088, -0.33923548460006714, 0.17480577528476715], [-0.010850674472749233, -0.06284268945455551, 0.031595584005117416, 0.10685986280441284, 0.0699143037199974, -0.07338650524616241, -0.033510688692331314, 0.031385574489831924, 0.11319933831691742, 0.0600002221763134, -0.18540355563163757, 0.007723558694124222, -0.03911122679710388, 0.017705494537949562, 0.1343422681093216, 0.008157574571669102, 0.05906523019075394, -0.05458202213048935, -0.06933149695396423, 0.0663776770234108], [-0.4691690504550934, -0.08563607931137085, 0.11836101859807968, 0.10275150090456009, 0.11227859556674957, -0.38571327924728394, -0.5008291006088257, 0.4708791673183441, 0.020426975563168526, 0.5485849976539612, -0.16268396377563477, 0.10373567044734955, 0.16626214981079102, 0.29070648550987244, -0.05837446451187134, 0.037075676023960114, 0.041242409497499466, 0.06931942701339722, -0.42419201135635376, 0.5658197999000549], [-0.42992493510246277, -0.10603531450033188, 0.00041397844324819744, 0.4125410318374634, 0.005842216312885284, -0.13453219830989838, -0.375738263130188, 0.44422274827957153, 0.31142768263816833, 0.4577932059764862, -0.3059949278831482, 0.006283175200223923, 0.02034519985318184, 0.20786042511463165, -0.06397635489702225, 0.12168971449136734, -0.023702383041381836, 0.02468862012028694, -0.4355500042438507, 0.48222288489341736], [-0.04018484801054001, -0.2369498908519745, -0.014371493831276894, 0.11048620939254761, 0.029115401208400726, 0.03223928064107895, -0.01251960638910532, 0.03673591464757919, 0.07334993779659271, 0.03163071721792221, 0.019661784172058105, 0.03758843615651131, 0.11382127553224564, 0.017924202606081963, -0.011192725971341133, -0.03170444071292877, 0.18258938193321228, 0.012636707164347172, -0.05068559572100639, 0.042910385876894], [-0.14051617681980133, 0.04816161468625069, -0.14652368426322937, 0.04724337160587311, 0.03223535418510437, 0.054734669625759125, 0.015864089131355286, 0.06336953490972519, -0.003208320587873459, 0.12159554660320282, -0.026423165574669838, -0.1003994345664978, 0.09198730438947678, -0.06059824675321579, 0.209750697016716, 0.1805073618888855, -0.1261996030807495, 0.23121681809425354, -0.1693483293056488, 0.06961330771446228], [-0.20624646544456482, -0.026772048324346542, 0.03858518227934837, 0.1314045637845993, 0.009693973697721958, -0.05218842253088951, -0.13655978441238403, 0.21538418531417847, 0.10537081956863403, 0.20169618725776672, -0.041125304996967316, 0.018867187201976776, 0.03883923962712288, -0.03759871795773506, -0.031508918851614, 0.014532283879816532, 0.012569714337587357, -0.02120251953601837, -0.20559807121753693, 0.14570270478725433], [-0.044676002115011215, 0.02993878163397312, 0.09628697484731674, -0.07639945298433304, -0.024929607287049294, 0.012687976472079754, -0.09648336470127106, -0.001781738130375743, -0.06526482105255127, 0.02668917365372181, -0.08095312118530273, 0.09060230106115341, 0.06765870749950409, 0.025329526513814926, 0.18182727694511414, 0.03747285157442093, -0.05684902146458626, 0.005334917455911636, -0.01233158353716135, 0.08530282229185104], [-0.19601327180862427, -0.019131923094391823, 0.0027006834279745817, 0.09961757808923721, 0.04557367041707039, 0.014597423374652863, -0.22629503905773163, 0.21893484890460968, 0.10731641948223114, 0.20913206040859222, 0.026149574667215347, 0.009082403965294361, 0.13040347397327423, -0.00639713741838932, 0.12836147844791412, 0.14336520433425903, -0.013188584707677364, 0.009522872045636177, -0.12992556393146515, 0.22984668612480164], [-0.0011659280862659216, -0.12499523162841797, -0.0016388340154662728, 0.02271360345184803, -0.08430744707584381, -0.0782003402709961, 0.030197368934750557, -0.06535431742668152, 0.06298406422138214, -0.03325024992227554, -0.3026092052459717, -0.03777646645903587, -0.037474580109119415, 0.022441335022449493, 0.21470089256763458, -0.021308714523911476, -0.011994807980954647, 0.02541392855346203, -0.03403639420866966, 0.04921022802591324], [0.026292715221643448, 0.022820033133029938, -0.0004116629424970597, -0.008520767092704773, 0.014242086559534073, -0.01957528665661812, 0.022952472791075706, -0.030154045671224594, 0.007528729736804962, -0.03227737173438072, -0.0418877899646759, 0.002709741238504648, -0.04397550970315933, -0.006274942774325609, 0.06330399960279465, -0.031107623130083084, 0.01707986742258072, -0.030675461515784264, 0.02272251807153225, -0.03413603827357292], [-0.5963057279586792, -0.07870015501976013, 0.361110121011734, 0.29701974987983704, 0.10773231834173203, -0.371492862701416, -0.4023979604244232, 0.5618600249290466, 0.059190645813941956, 0.6125121712684631, -0.2587716579437256, 0.12947629392147064, 0.10934431850910187, -0.2428353726863861, 0.2916249632835388, -0.005415450781583786, 0.054857488721609116, -0.016630452126264572, -0.5083813071250916, 0.4944270849227905], [-0.6949340105056763, -0.07921195030212402, 0.17722086608409882, 0.46625223755836487, 0.103911392390728, -0.36535900831222534, -0.6140338778495789, 0.5227460265159607, 0.1572151929140091, 0.7875052690505981, -0.10925017297267914, 0.13375407457351685, 0.14123041927814484, 0.35481947660446167, -0.3037375211715698, -0.1450401395559311, -0.03239208087325096, 0.16801515221595764, -0.5822013020515442, 0.6225969195365906], [0.15989679098129272, -0.020659204572439194, 0.09668473154306412, -0.09612446278333664, -0.12951619923114777, -0.03845451399683952, 0.031720418483018875, -0.15325665473937988, -0.04369886592030525, -0.12710373103618622, 0.18847471475601196, 0.1611981838941574, -0.050174929201602936, 0.05671538785099983, -0.21523010730743408, -0.046453919261693954, 0.03264728933572769, -0.09448788315057755, 0.14262305200099945, -0.0967872217297554], [0.07100001722574234, -0.17005793750286102, -0.22422337532043457, 0.06722120940685272, 0.06327061355113983, 0.02754185162484646, -0.27487677335739136, -0.06719609349966049, 0.021844495087862015, -0.012150985188782215, -0.08402843028306961, -0.0476456955075264, -0.02044154517352581, 0.2520976960659027, 0.024961644783616066, 0.35826143622398376, -0.08665236830711365, 0.09778687357902527, -0.03470015898346901, 0.20246416330337524], [0.02596442587673664, -0.013622617349028587, -0.08827368915081024, -0.0031299933325499296, -0.07584171742200851, -0.1262795776128769, -0.16356243193149567, 0.0048096575774252415, -0.05825289338827133, 0.061175357550382614, -0.13853329420089722, -0.025777170434594154, -0.08905339241027832, -0.03575228154659271, 0.05435488000512123, 0.10163027048110962, -0.14054761826992035, 0.10271001607179642, -0.03770093992352486, 0.11390268802642822], [0.057240113615989685, -0.04839438572525978, -0.004879277665168047, -0.07102754712104797, -0.08148767054080963, 0.0009070124360732734, -0.025270134210586548, -0.07263343781232834, -0.0349663570523262, -0.07892484962940216, 0.050120096653699875, -0.03277019411325455, 0.009487263858318329, -0.04082112014293671, -0.04406273737549782, 0.01900818943977356, -0.0582827664911747, -0.013521039858460426, 0.06073451042175293, -0.0276617631316185], [-0.17554698884487152, 0.10008174180984497, 0.03381174057722092, 0.10010071098804474, -0.016775179654359818, -0.08330004662275314, -0.18029503524303436, 0.1856670379638672, 0.05826643481850624, 0.1647733896970749, -0.07268988341093063, 0.06148325279355049, -0.05736060440540314, 0.031170915812253952, -0.0021190429106354713, -0.00927336048334837, 0.016646407544612885, 0.006467999424785376, -0.19345377385616302, 0.14165592193603516], [-0.05948580801486969, -0.012920762412250042, -0.060165002942085266, 0.09358705580234528, -0.023723099380731583, -0.03843041509389877, 0.056945014744997025, 0.07449142634868622, 0.022494696080684662, 0.031843725591897964, -0.0189356729388237, -0.05069681257009506, -0.05479421094059944, 0.07234128564596176, -0.13940578699111938, 0.03451770544052124, 0.07998412102460861, 0.12519168853759766, -0.07506540417671204, 0.003976096399128437], [0.15035367012023926, -0.007404920179396868, -0.03053317964076996, -0.0668143704533577, 0.007825596258044243, 0.03845728561282158, 0.1099337637424469, -0.14467266201972961, -0.05691152065992355, -0.12640361487865448, 0.014929325319826603, -0.023160146549344063, -0.005623545031994581, 0.011314953677356243, -0.019659029319882393, -0.002488601952791214, -0.0034665490966290236, 0.01189434714615345, 0.14174428582191467, -0.08370164036750793], [-0.008119220845401287, 0.23613658547401428, -0.16614870727062225, -0.041472602635622025, 0.16171297430992126, -0.05481056869029999, -0.13758429884910583, -0.17094343900680542, 0.23384487628936768, 0.03190759941935539, 0.07525527477264404, -0.040035270154476166, -0.27865058183670044, -0.13384172320365906, 0.23608148097991943, 0.017189908772706985, -0.05678131803870201, 0.04707424342632294, -0.0867369994521141, -0.21189935505390167], [0.1394478976726532, 0.19307374954223633, 0.027477633208036423, -0.12540164589881897, -0.1389848291873932, -0.08344920724630356, 0.019571349024772644, 0.1795942783355713, -0.3224959373474121, -0.18901628255844116, 0.31150609254837036, -0.08344098925590515, -1.0974370241165161, -0.23914042115211487, -0.13538691401481628, -0.05038679391145706, -0.11095180362462997, -0.11981417238712311, -0.03154648467898369, 0.16518163681030273], [-0.09943915158510208, 0.023806944489479065, 0.18475061655044556, 0.14890353381633759, 0.15160632133483887, -0.07455364614725113, 0.07701178640127182, 0.13496939837932587, 0.08392398804426193, 0.052372775971889496, -0.0828283354640007, 0.19177491962909698, -0.028673160821199417, 0.4725615680217743, -0.07648760080337524, -0.20734471082687378, 0.02635783702135086, -0.2405688613653183, -0.06960844248533249, 0.07412837445735931], [-0.02186317928135395, 0.0491461418569088, 0.05668921396136284, -0.02048010565340519, 0.39848944544792175, -0.23038539290428162, 0.018298257142305374, -0.027028141543269157, -0.11714340001344681, 0.08179154247045517, -0.05383528023958206, 0.017003588378429413, 0.032725267112255096, 0.0722222626209259, 0.03245964273810387, 0.070795439183712, 0.2451019436120987, -0.1676233857870102, 0.1953372359275818, 0.02236902341246605], [0.12990710139274597, 0.1284642070531845, -0.1529059112071991, 0.16117963194847107, 0.16935433447360992, -0.027443353086709976, 0.2406567484140396, 0.14686796069145203, 0.136002779006958, 0.014838642440736294, 0.10942219197750092, 0.21383650600910187, 0.8556917905807495, 0.2934531569480896, -0.007060056086629629, -0.05229576304554939, -0.0026453332975506783, -0.17903156578540802, 0.08811504393815994, -0.04297279193997383], [0.27073317766189575, -0.19592511653900146, 0.23420457541942596, -0.0656438022851944, 0.08201618492603302, -0.026639536023139954, 0.05714595317840576, 0.018566448241472244, 0.02729797177016735, 0.23138630390167236, 0.0770416408777237, -0.10692054033279419, 0.427115261554718, 0.14005538821220398, 0.12365815043449402, -0.45593583583831787, 0.14250050485134125, -0.1616087257862091, 0.24906687438488007, 0.08231084793806076], [-0.13744597136974335, -0.011468537151813507, 0.01927010901272297, 0.09404212981462479, -0.0002562407753430307, -0.03520020842552185, -0.08078581094741821, 0.15705466270446777, 0.06965430080890656, 0.13715726137161255, -0.004910826217383146, 0.0045962147414684296, 0.01534205861389637, -0.06487907469272614, 0.03429139778017998, 0.0651189461350441, -0.028267212212085724, -0.015673745423555374, -0.13429296016693115, 0.11924427002668381], [-0.053808435797691345, -0.0509822852909565, 0.27244216203689575, 0.2865586578845978, -0.05685598403215408, -0.023862851783633232, -0.07318130880594254, 0.1317633092403412, 0.035119831562042236, 0.158789724111557, -0.2877998352050781, 0.36799153685569763, 0.23683974146842957, 0.17806603014469147, 0.006342367269098759, -0.08362086117267609, 0.005102591589093208, -0.08655030280351639, -0.023928271606564522, 0.042697250843048096], [-0.10772629082202911, -0.12455549836158752, -0.0366450697183609, -0.08646288514137268, 0.10842248797416687, 0.04551047086715698, -0.15252746641635895, 0.03800282999873161, 0.05023482069373131, 0.04730633646249771, -0.19460785388946533, 0.06583200395107269, 0.2592514455318451, 0.022970709949731827, -0.047937147319316864, 0.025349406525492668, 0.17929427325725555, 0.021671032533049583, -0.05062952637672424, 0.1524299532175064], [-0.0035833774600178003, -0.4049968123435974, -0.7048063278198242, 0.32910966873168945, -0.13892418146133423, 0.31770843267440796, 0.09874868392944336, 0.07066535949707031, 0.22647550702095032, -0.3285183608531952, 0.3272216022014618, -0.7018794417381287, 0.12890905141830444, 0.13341715931892395, -0.4237523376941681, 0.9378647804260254, -0.4298552870750427, 0.3352319598197937, -0.0806460902094841, -0.37688034772872925], [0.24080459773540497, 0.3091164529323578, 0.9371359348297119, -0.2247087061405182, 0.09326867759227753, -0.5028041005134583, -0.19632326066493988, 0.0459897480905056, -0.3634170889854431, 0.044817421585321426, 0.3716607987880707, -0.23147031664848328, -0.46818459033966064, 0.05941145867109299, -0.06302251666784286, -0.03388804569840431, 0.6725596785545349, 0.6159949898719788, 0.194626584649086, 0.6149232983589172], [0.013044209219515324, -0.06761769205331802, 0.17121490836143494, -0.19802764058113098, -0.12000895291566849, -0.1994539499282837, 0.2402973622083664, 0.2836914360523224, -0.04463733732700348, 0.14973527193069458, -0.3549036681652069, 0.28816521167755127, 0.222972109913826, 0.07115104794502258, 0.3163590729236603, -0.17985579371452332, 0.3088574707508087, -0.3331880271434784, 0.2646018862724304, 0.14234408736228943], [0.08133488893508911, -0.14243187010288239, 0.04610752314329147, 0.3063812851905823, -0.03458613157272339, -0.0399358794093132, 0.2144833654165268, 0.06349746882915497, 0.08251193910837173, 0.17495444416999817, -0.024060826748609543, 0.18847395479679108, -0.14176076650619507, 0.3851248025894165, -0.16023242473602295, -0.2738696038722992, 0.2656291425228119, -0.031822457909584045, 0.15507662296295166, 0.04601413384079933], [-0.3973705768585205, -0.39575305581092834, -1.3879387378692627, 0.7094565629959106, -0.02632642164826393, 0.7904231548309326, -0.05592784658074379, -0.12353304028511047, 0.4009321630001068, -0.30220386385917664, 0.6601415872573853, -1.5810964107513428, 0.5997369885444641, 0.35467052459716797, 0.06792012602090836, 1.499654769897461, -1.2818689346313477, 0.6701548099517822, -0.41586142778396606, -0.8131647109985352], [-0.04236549139022827, -0.14630255103111267, -0.7907514572143555, 0.6800318956375122, 0.24250160157680511, 0.772547721862793, 0.16042034327983856, -0.09740243852138519, 0.13880716264247894, -0.21621926128864288, 0.5280094146728516, -0.5342831611633301, 0.7492793798446655, 0.1047772541642189, -0.38684457540512085, 0.6696851253509521, -1.0379852056503296, 0.07864715903997421, -0.2872680723667145, -0.6769806742668152], [-0.11760175228118896, 0.06890104711055756, 0.4453703463077545, -0.003977852873504162, -0.1426951140165329, -0.17459744215011597, -0.12190987914800644, 0.0288186427205801, 0.030848080292344093, 0.0338241271674633, 0.021832408383488655, -0.23622888326644897, -0.6340258121490479, -0.08766332268714905, 0.043176162987947464, -0.00922627653926611, 0.10945574194192886, 0.25955095887184143, 0.17990083992481232, -0.21519887447357178], [-0.0732630267739296, -0.23065617680549622, -0.5486565232276917, 0.0616421215236187, -0.026485852897167206, 0.4164502024650574, 0.003625007811933756, -0.19550897181034088, -0.1125950962305069, -0.26558905839920044, -0.4244875907897949, -0.35543107986450195, 0.2838176488876343, 0.16875821352005005, 0.18854311108589172, -0.0969887524843216, -0.7524663209915161, -0.13146251440048218, -0.180216982960701, -0.43432214856147766], [0.12182402610778809, -0.11205849051475525, -0.01131186168640852, -0.07546894997358322, 0.03407075256109238, 0.07177692651748657, 0.15825125575065613, -0.08303658664226532, -0.007205604575574398, -0.06122675538063049, 0.017122073099017143, -0.05664406344294548, 0.11741598695516586, -0.04276548698544502, 0.03641365468502045, 0.011012326925992966, 0.013670618645846844, -0.011372680775821209, 0.11065786331892014, -0.05481942370533943], [-0.012557181529700756, -0.10356246680021286, -0.06096648797392845, 0.03246321529150009, -0.048952747136354446, -0.13893480598926544, -0.18336176872253418, 0.19321241974830627, 0.03475012630224228, 0.20558640360832214, 0.3521188497543335, -0.10163126140832901, -0.18049077689647675, -0.1383233517408371, -0.10435991734266281, 0.6162909865379333, 0.10202977806329727, 0.42158159613609314, 0.019632192328572273, -0.08835644274950027], [-0.23355546593666077, 0.08572940528392792, 0.05163411796092987, 0.15912291407585144, 0.009627901948988438, -0.06716469675302505, -0.18651291728019714, 0.3220381438732147, 0.107368104159832, 0.35182103514671326, -0.21329692006111145, 0.051121391355991364, 0.02333446964621544, 0.010281031019985676, -0.15577208995819092, -0.04795197397470474, -0.028462229296565056, -0.04917415976524353, -0.31486746668815613, 0.12584735453128815], [-0.12034793198108673, 0.006576292682439089, 0.025389844551682472, 0.08331912755966187, -0.05137510597705841, -0.03158651664853096, -0.06445794552564621, 0.11324110627174377, 0.01423837710171938, 0.06260718405246735, -0.0105607770383358, 0.025241954252123833, 0.01578585058450699, 0.00926101766526699, -0.011681311763823032, 0.0423835925757885, -0.02269372157752514, 0.042057301849126816, -0.10514353215694427, 0.12433423101902008], [-0.318580687046051, 0.00019879660976585, -0.01965857669711113, 0.2656313180923462, 0.039896149188280106, -0.06517790257930756, -0.3305543065071106, 0.3210381865501404, 0.18817181885242462, 0.30738183856010437, -0.06408084183931351, -0.054581183940172195, 0.036765795201063156, -0.0006054071127437055, 0.0436258427798748, 0.0473722368478775, -0.020672453567385674, 0.020351897925138474, -0.31744563579559326, 0.26472386717796326], [-0.0745818093419075, -0.005056581925600767, 0.020573537796735764, -0.0832480639219284, 0.10345263034105301, -0.08257386088371277, -0.15654729306697845, 0.043416302651166916, -0.0731641873717308, 0.20056571066379547, 0.0023178751580417156, 0.018678130581974983, 0.25770309567451477, 0.17006762325763702, -0.308139830827713, 0.04839444160461426, -0.05378695949912071, 0.0957142561674118, -0.06274327635765076, 0.13402491807937622], [-0.03970593586564064, -0.12561611831188202, -0.002431086963042617, 0.1225353553891182, 0.09806723892688751, -0.008268206380307674, -0.05832739546895027, 0.052115317434072495, 0.11696484684944153, 0.06451082229614258, -0.13493546843528748, 0.0055670468136668205, 0.004214131738990545, 0.15356531739234924, -0.029319241642951965, 0.012654993683099747, 0.016114935278892517, -0.006974740419536829, -0.04062828794121742, 0.14278817176818848], [-0.2375059276819229, -0.031083833426237106, 0.05092175677418709, 0.16073332726955414, 0.011519408784806728, -0.06803534924983978, -0.18457205593585968, 0.23582927882671356, 0.1330539882183075, 0.2201680839061737, -0.05386676266789436, 0.010343085043132305, 0.04681655764579773, -0.03119640238583088, -0.024925993755459785, 0.01395080890506506, 0.06556059420108795, -0.01046551950275898, -0.2300271838903427, 0.1596219390630722], [-0.3676711320877075, 0.06446094810962677, 0.002930328482761979, 0.15682807564735413, 0.024798071011900902, -0.01596805267035961, -0.2981247007846832, 0.29561248421669006, 0.09005600214004517, 0.25883615016937256, -0.09971882402896881, -0.02579410746693611, 0.03993477672338486, -0.009404500015079975, -0.10028195381164551, -0.011983041651546955, -0.04249531403183937, -0.004745722282677889, -0.2748982608318329, 0.22450728714466095], [-0.35508984327316284, -0.02407909743487835, 0.03735781088471413, 0.16470937430858612, -0.0013828950468450785, -0.1138538047671318, -0.20528917014598846, 0.30127111077308655, 0.12233313918113708, 0.2924482226371765, -0.11037627607584, 0.006808621343225241, 0.041675351560115814, -2.312484684807714e-05, -0.11865577101707458, 0.04218311235308647, 0.024785786867141724, 0.029438277706503868, -0.25743749737739563, 0.23210756480693817], [-0.15393176674842834, -0.005182129796594381, 0.025597790256142616, 0.042242392897605896, -0.011747307144105434, -0.007778316270560026, -0.14972442388534546, 0.1309400349855423, 0.04345643147826195, 0.12495266646146774, -0.00873174425214529, 0.004636965226382017, 0.1041838675737381, 0.008284729905426502, 0.09802616387605667, 0.08724410086870193, -0.020042581483721733, 0.07654526084661484, -0.13002252578735352, 0.10166952759027481], [-0.28505730628967285, 0.0001494474709033966, 0.10838938504457474, 0.1740168333053589, 0.03202744573354721, -0.07258103787899017, -0.3233594596385956, 0.30990782380104065, 0.09091224521398544, 0.316691517829895, -0.08526536822319031, 0.02044537104666233, 0.07553622871637344, 0.023300182074308395, 0.025647321715950966, 0.016358673572540283, -0.02171414904296398, 0.019532324746251106, -0.20259882509708405, 0.2489553689956665], [-0.22569620609283447, 0.013128680177032948, -0.059823084622621536, 0.13145489990711212, -0.0419585257768631, -0.00515037402510643, -0.2753239572048187, 0.19601202011108398, 0.12469544261693954, 0.21538522839546204, 0.03169887512922287, -0.03190923109650612, 0.02259162627160549, 0.052837397903203964, 0.1255294382572174, 0.285487562417984, -0.07572165876626968, 0.05538207292556763, -0.22646616399288177, 0.3448691666126251], [-0.32481762766838074, -0.013891606591641903, 0.020455999299883842, 0.2155260145664215, 0.022078480571508408, -0.09692114591598511, -0.2775932848453522, 0.32275667786598206, 0.17328020930290222, 0.31520816683769226, -0.05721256136894226, -0.0073358602821826935, 0.043305590748786926, -0.03620930388569832, -0.0071203517727553844, 0.006024881266057491, 0.012558831833302975, -0.0031735897064208984, -0.32041001319885254, 0.22349974513053894], [-0.26966390013694763, -0.07862824201583862, 0.10959932953119278, 0.18091276288032532, 0.05319630354642868, 0.036990936845541, -0.13617300987243652, 0.2882424294948578, 0.05342409759759903, 0.2433825582265854, -0.0016002331394702196, 0.0811113491654396, 0.14827470481395721, 0.01353810541331768, 0.037300966680049896, -0.11343764513731003, 0.05242561921477318, 0.07667408138513565, -0.26299741864204407, 0.25209107995033264], [-0.11411707103252411, 0.011730512604117393, 0.05570080131292343, 0.12460414320230484, 0.09137259423732758, 0.015680357813835144, -0.03463303670287132, 0.2098226249217987, 0.11842266470193863, 0.2684895396232605, -0.10844999551773071, 0.06526323407888412, 0.06872773915529251, 0.17154698073863983, -0.025318153202533722, -0.0903899073600769, 0.12430960685014725, -0.007310043554753065, -0.11877777427434921, 0.11812607198953629], [-0.21583914756774902, -0.04730789735913277, 0.012588449753820896, 0.18656302988529205, -0.03771556541323662, -0.09648142009973526, -0.26097381114959717, 0.18221475183963776, 0.06916747987270355, 0.20534971356391907, 0.15506894886493683, 0.01911166124045849, 0.001899741473607719, 0.10102523118257523, 0.2154960334300995, 0.09595024585723877, 0.06986459344625473, 0.05245305597782135, -0.251953125, -0.04792642593383789], [-0.263358473777771, -0.06427980959415436, -0.04726289585232735, 0.24119919538497925, -0.017796620726585388, -0.06711375713348389, -0.30446943640708923, 0.2653850018978119, 0.20805007219314575, 0.3054673969745636, -0.3766210079193115, -0.03171302378177643, 0.09147952497005463, 0.041869327425956726, -0.12494800984859467, -0.08925731480121613, 0.04100252315402031, -0.01845741644501686, -0.25679874420166016, 0.25745725631713867], [-0.31151458621025085, 0.006138961762189865, 0.016775337979197502, 0.21144896745681763, 0.008477955125272274, -0.10008250921964645, -0.30541861057281494, 0.3112725019454956, 0.15334774553775787, 0.29892697930336, -0.06513851135969162, -0.02266928367316723, 0.014204909093677998, -0.03451811522245407, 0.041658610105514526, 0.06488139927387238, -0.04359390214085579, 0.015124697238206863, -0.31072574853897095, 0.26511120796203613], [-0.20752127468585968, -0.0382293164730072, -0.024839119985699654, 0.15055182576179504, -0.013840830884873867, -0.026095645502209663, -0.20639193058013916, 0.20567578077316284, 0.10281290858983994, 0.20342163741588593, -0.007365408819168806, -0.06503292918205261, 0.058490220457315445, -0.004606926813721657, -0.04672563076019287, 0.017130525782704353, -0.03184454143047333, 0.022421520203351974, -0.20299436151981354, 0.13980337977409363], [-0.2850041687488556, 0.11236787587404251, 0.015529138967394829, 0.08716043829917908, 0.016324134543538094, -0.09141048043966293, -0.2616913616657257, 0.23524276912212372, 0.08600781857967377, 0.2567644715309143, -0.17232564091682434, 0.056168582290410995, 0.016827790066599846, -0.0392422080039978, -0.09528500586748123, 0.014462732709944248, -0.013261476531624794, 0.0008002068498171866, -0.2903303802013397, 0.2413433939218521], [-0.2899291217327118, -0.0019552779849618673, 0.06583511829376221, 0.14336508512496948, 0.02065202407538891, -0.09270919114351273, -0.2616938352584839, 0.25732338428497314, 0.09497465938329697, 0.24303442239761353, -0.07677549868822098, -0.054743967950344086, 0.00415280694141984, 0.009869396686553955, -0.08395065367221832, -0.02149849571287632, 0.01855122111737728, 0.04171363264322281, -0.2758249044418335, 0.17034278810024261]], "rec.bias_ih_l0": [0.09392547607421875, -0.12743885815143585, 0.3703480064868927, -0.18823076784610748, -0.42355668544769287, 0.2316647171974182, 0.19932810962200165, 0.08163366466760635, 0.10657099634408951, 0.11289418488740921, 0.276509553194046, 0.3560628890991211, -0.41115137934684753, -0.6500129699707031, 0.421250581741333, 0.3523344099521637, 0.33400842547416687, 0.24337820708751678, 0.10786034166812897, 0.23609739542007446, 0.26664820313453674, 0.3553180396556854, -0.11173547804355621, 0.7900064587593079, 0.4408280849456787, -0.012240231968462467, 0.18075309693813324, 0.22094601392745972, 0.14763425290584564, 0.2542129158973694, -0.01872982643544674, -0.02246423438191414, 0.7548924684524536, 0.7211561799049377, -0.17308658361434937, -0.19885414838790894, -0.0697801262140274, 0.007046148180961609, 0.2300344705581665, 0.07814425975084305, -0.14691032469272614, -0.051614489406347275, 0.2805943191051483, 0.07766618579626083, 0.023097477853298187, -0.17839404940605164, -0.306375116109848, 0.09277449548244476, 0.10338593274354935, 0.056027185171842575, -0.11720089614391327, 0.007840904407203197, -0.06876415759325027, 0.03558952733874321, -0.15671789646148682, 0.027348406612873077, 0.16922669112682343, 0.3607870936393738, -0.16355888545513153, 0.03722110018134117, 0.38984715938568115, 0.11878146231174469, 0.34934020042419434, 0.3001086413860321, 0.032256461679935455, 0.26353123784065247, 0.33202746510505676, 0.3113814890384674, 0.22753366827964783, 0.3348083794116974, 0.22780442237854004, 0.36580175161361694, 0.36753126978874207, 0.04035535827279091, 0.3137575387954712, 0.2776948809623718, 0.34929704666137695, 0.2418539971113205, 0.374504953622818, 0.30418339371681213], "rec.bias_hh_l0": [0.09464191645383835, -0.17868684232234955, 0.37036821246147156, -0.41169288754463196, -0.4280906617641449, 0.23139068484306335, 0.1922764927148819, 0.08112746477127075, 0.07810867577791214, 0.11603568494319916, 0.27542975544929504, 0.3560628890991211, -0.452035129070282, -0.5506556630134583, 0.4212304353713989, 0.35231319069862366, 0.33385777473449707, 0.24404747784137726, 0.11484669148921967, 0.2360571026802063, 0.2319333851337433, 0.3270114064216614, -0.05294227600097656, 0.7624464631080627, 0.46550342440605164, 0.0128124775364995, 0.17795222997665405, 0.21527068316936493, 0.08753380924463272, 0.21878299117088318, -0.0029254411347210407, -0.022464122623205185, 0.5821910500526428, 0.5048608183860779, -0.1866888850927353, -0.15990252792835236, -0.04508398473262787, 0.007094293367117643, 0.19219155609607697, 0.11705387383699417, -0.13201791048049927, 0.006416731514036655, 0.18793989717960358, -0.13109254837036133, 0.08805656433105469, 0.03722945600748062, -0.262561172246933, 0.06162635609507561, -0.12945279479026794, 0.1627092957496643, 0.190000981092453, -0.003566406201571226, 0.10534582287073135, -0.17016911506652832, -0.2622814178466797, 0.20724642276763916, -0.06941495835781097, 0.16627253592014313, -0.1653977930545807, 0.1828135997056961, 0.3550266921520233, 0.13827018439769745, 0.34933605790138245, 0.29906609654426575, 0.033549536019563675, 0.26398879289627075, 0.37822020053863525, 0.3254738450050354, 0.19622205197811127, 0.2582111060619354, 0.2190127670764923, 0.36580175161361694, 0.34725433588027954, 0.2107248157262802, 0.3578547537326813, 0.2822912931442261, 0.34956175088882446, 0.2417057603597641, 0.38164597749710083, 0.30404412746429443], "lin.weight": [[-0.25473302602767944, 0.27415731549263, 0.07841336727142334, 0.13630014657974243, 0.04249291121959686, 0.2032686471939087, -0.36172816157341003, -0.26193708181381226, -0.22875574231147766, -0.11148186028003693, -0.4326545298099518, -0.14294272661209106, -0.26769039034843445, 0.03806189447641373, 1.299379825592041, -0.17615249752998352, -0.43750235438346863, -0.05010782182216644, -0.10899188369512558, -0.2449507713317871]], "lin.bias": [-0.01490489300340414]}}