{"model_data": {"model": "SimpleRNN", "input_size": 1, "skip": 1, "output_size": 1, "unit_type": "LSTM", "num_layers": 1, "hidden_size": 20, "bias_fl": true}, "state_dict": {"rec.weight_ih_l0": [[-0.29255229234695435], [0.032642047852277756], [0.1287103146314621], [-0.071151502430439], [-0.2705746293067932], [-0.05282759293913841], [0.0077934712171554565], [0.06879666447639465], [0.06261682510375977], [0.009400596842169762], [-0.03980620950460434], [-0.1498185098171234], [0.12132105976343155], [-0.021952150389552116], [0.010493068024516106], [0.07827699184417725], [0.010630374774336815], [-0.02473793923854828], [-0.10240781307220459], [0.025100722908973694], [-0.3539367914199829], [0.039189621806144714], [0.20541389286518097], [-0.24972426891326904], [-0.06538398563861847], [-0.07730114459991455], [0.04459112137556076], [0.12064159661531448], [0.09337999671697617], [0.22188489139080048], [-0.07587747275829315], [-0.004610523581504822], [0.08968115597963333], [-0.12743957340717316], [0.021490372717380524], [-0.054008599370718], [0.020679594948887825], [-0.10133162140846252], [-0.3356153666973114], [0.030052922666072845], [-0.9575105309486389], [0.19807112216949463], [0.4904495179653168], [1.0685794353485107], [-2.2787914276123047], [-0.1016182154417038], [0.5817596912384033], [0.19481399655342102], [-0.2435661107301712], [2.358170747756958], [0.1918703019618988], [-0.15414108335971832], [0.4346603751182556], [-1.4385106563568115], [-0.010332409292459488], [-0.17790968716144562], [0.005659095942974091], [2.7013208866119385], [-0.41632676124572754], [0.07181819528341293], [-0.2003987431526184], [0.15413255989551544], [0.11961439996957779], [-0.10817626118659973], [0.0038998296950012445], [-0.06796252727508545], [-0.0249323807656765], [0.11309236288070679], [0.07744935154914856], [0.09708808362483978], [-0.15609002113342285], [0.007493221666663885], [0.12045420706272125], [-0.027386240661144257], [0.0032201947178691626], [0.039217714220285416], [-0.2638280987739563], [-0.015203185379505157], [-0.13796962797641754], [0.004827000200748444]], "rec.weight_hh_l0": [[-0.046611715108156204, -0.024549705907702446, -0.3621855676174164, 0.37074539065361023, 0.09497872740030289, -0.12904253602027893, 0.09687201678752899, -0.11237254738807678, -0.29230087995529175, -1.128943681716919, 1.0125954151153564, -0.5199469327926636, 0.5752838253974915, -0.030562007799744606, -0.598523736000061, -0.2559019923210144, -0.6644300222396851, 0.34282395243644714, -0.2145516574382782, 0.07066772133111954], [-0.06848791241645813, -0.029438981786370277, 0.01252602506428957, 0.14652270078659058, -0.0048906574957072735, 0.002844431670382619, 0.0947643294930458, 0.0421435721218586, -0.023972954601049423, 0.05594678968191147, 0.15363746881484985, -0.19076600670814514, 0.08576177060604095, -0.08796101808547974, -0.0430157408118248, -0.0058196005411446095, 0.027136411517858505, 0.061212822794914246, 0.005808363202959299, 0.10283917188644409], [0.10228844732046127, -0.02972518466413021, -0.3893151581287384, 0.09291683882474899, 0.05830628052353859, -0.006478579714894295, 0.022934850305318832, 0.5749789476394653, -0.06109118461608887, -0.01899772696197033, 0.03742231801152229, 0.041304320096969604, 0.08333190530538559, -0.025040077045559883, 0.10726815462112427, -0.011988872662186623, 0.020490296185016632, -0.08763210475444794, 0.015172338113188744, -0.08191513270139694], [-0.009711839258670807, 0.1053135097026825, -0.049893759191036224, -0.18546713888645172, 0.08701293915510178, 0.022637464106082916, 0.022502083331346512, 0.05184167996048927, -0.025912193581461906, 0.11776280403137207, -0.34332937002182007, 0.19069543480873108, 0.034891530871391296, -0.05669194832444191, -0.026210185140371323, -0.008023714646697044, 0.18768878281116486, -0.057389818131923676, 0.07203185558319092, 0.03746796026825905], [0.2267172634601593, -0.05432599410414696, 0.008638053201138973, -0.3595902919769287, 1.2187777757644653, 0.0827459990978241, -0.37412869930267334, 0.20061688125133514, 0.0651545524597168, -0.04103768989443779, -0.5295544266700745, 0.21571104228496552, -0.06906167417764664, 0.1753375232219696, 0.14885388314723969, 0.0015797759406268597, 0.26265737414360046, -0.4143114387989044, 0.07083497196435928, 0.0457167774438858], [0.11786004155874252, -0.007537317927926779, -0.03149358928203583, -0.0430225171148777, -0.04651807248592377, 0.04935643821954727, -0.18486200273036957, 0.08308375626802444, 0.0011945744045078754, -0.14043937623500824, -0.04281676188111305, 0.013868534937500954, -0.04838933050632477, 0.08307357877492905, 0.029729248955845833, 0.034534841775894165, 0.11021079868078232, -0.0778580829501152, 0.05854441970586777, 0.06604200601577759], [0.11172348260879517, 0.05346154421567917, -0.06727107614278793, -0.15599043667316437, -0.05504020303487778, 0.07046360522508621, 0.03614684194326401, 0.11842650920152664, -0.0179792121052742, 0.1323241889476776, -0.31860965490341187, 0.1960592418909073, -0.010028056800365448, -0.08810469508171082, 0.023783903568983078, 0.0573875866830349, 0.2332805097103119, -0.030813807621598244, 0.07897926867008209, 0.05222762003540993], [-0.1844441145658493, -0.41858381032943726, 0.07005464285612106, 0.7742941975593567, -0.011556706391274929, -0.1342734694480896, 0.1218281164765358, 0.07524397224187851, -0.05330900847911835, -0.720356822013855, 0.7959727644920349, -0.6304638981819153, 0.3292100131511688, -0.20679642260074615, -0.3877321779727936, -0.358731746673584, -0.7590279579162598, 0.6511849164962769, -0.2608570456504822, -0.7378329634666443], [-0.0434974804520607, 0.08723140507936478, -0.06424084305763245, -0.012994310818612576, -0.003183582564815879, 0.021241996437311172, 0.07179421186447144, 0.058375272899866104, -0.0704813003540039, 0.04024680331349373, 0.014249258674681187, -0.036239877343177795, 0.07546310871839523, -0.03991439566016197, -0.030321029946208, 0.021807683631777763, 0.004440092947334051, 0.09047280251979828, 0.02729877084493637, 0.06039320304989815], [0.18179114162921906, 0.004859828855842352, -0.004899079445749521, -0.13586211204528809, 0.11478936672210693, -0.008625490590929985, -0.05194125324487686, 0.11444732546806335, 0.02821161411702633, 0.20590166747570038, -0.36399224400520325, 0.2519427239894867, -0.04888462647795677, -0.013432333245873451, 0.06577061861753464, -0.02548445574939251, 0.2686559855937958, -0.07908834517002106, 0.03177197277545929, -0.0031032380647957325], [0.4903421700000763, 0.0376160554587841, 2.8578127967193723e-05, 0.19479915499687195, 0.27009257674217224, 0.009616398252546787, -0.09127065539360046, -0.13200195133686066, -0.043535396456718445, -0.35777872800827026, 0.14008572697639465, 0.13612332940101624, 0.05084336921572685, -0.045670513063669205, -0.04999890550971031, -0.1968621164560318, 0.10681181401014328, -0.08888563513755798, 0.09616558253765106, -0.0713891014456749], [-0.11517900228500366, -0.05835837125778198, 0.1759408563375473, 0.07535668462514877, 0.16760855913162231, 0.05063439533114433, -0.296276330947876, -0.44288206100463867, 0.10437902063131332, -0.21474678814411163, 0.12884384393692017, -0.17022080719470978, 0.006363764405250549, 0.27528321743011475, 0.10262960940599442, -0.24259880185127258, -0.17373526096343994, -0.0030294936150312424, 0.059469178318977356, 0.03642340749502182], [0.341089129447937, -0.08400493860244751, 0.0628214180469513, 0.3946746289730072, -0.14531093835830688, -0.07682300359010696, 0.27741485834121704, -0.2744976282119751, -0.06378533691167831, 0.03814919665455818, -0.06593287736177444, -0.17386876046657562, 0.17461371421813965, -0.22913378477096558, -0.03849518671631813, -0.1746232956647873, 0.03535713255405426, 0.34376537799835205, -0.09182611107826233, -0.00840813759714365], [0.19607938826084137, 0.059749554842710495, -0.043442852795124054, -0.1650228649377823, -0.005203302018344402, 0.026076074689626694, -0.011566328816115856, 0.17017151415348053, -0.0066460189409554005, 0.19374997913837433, -0.35341978073120117, 0.2230987846851349, -0.021232781931757927, -0.06003269925713539, 0.0633937418460846, 0.00040310286567546427, 0.3004518747329712, -0.10715696960687637, 0.06875171512365341, 0.04469497129321098], [-0.0734015479683876, 0.03935149684548378, 0.010271979495882988, -0.014658809639513493, 0.10227781534194946, 0.019614331424236298, 0.22789882123470306, -0.002399797085672617, 0.00428587244823575, -0.047120045870542526, 0.013700670562684536, -0.014299931935966015, 0.04253864288330078, -0.07075205445289612, -0.048136454075574875, -0.002055579097941518, -0.09541396051645279, 0.09429192543029785, 0.053538788110017776, 0.00247751222923398], [-0.26839005947113037, -0.16849108040332794, -0.05505556985735893, 0.3606381416320801, 0.07426641881465912, -0.23107735812664032, -0.14407296478748322, -0.07197088748216629, -0.03596247732639313, -0.1911795288324356, 0.4719310998916626, -0.5668136477470398, -0.06510493159294128, -0.08463278412818909, 0.03739219158887863, -0.10073540359735489, -0.43427565693855286, 0.07243089377880096, -0.15239372849464417, 0.09426148980855942], [0.15324579179286957, 0.09802240878343582, 0.017404602840542793, 0.005139066372066736, 0.04767340049147606, -0.0015860373387113214, 0.06948236376047134, 0.05656195059418678, -0.014477270655333996, -0.025582734495401382, -0.08787377178668976, 0.057967737317085266, -0.002413833048194647, 0.007758022751659155, -0.00997566431760788, -0.09121822565793991, 0.1294214427471161, -0.008533108048141003, 0.014737756922841072, 0.05277397483587265], [-0.08622248470783234, 0.05996447429060936, 0.031368695199489594, -0.2949478030204773, -0.07312200218439102, -0.005689461715519428, 0.07769925892353058, 0.0007837776211090386, 0.01258804276585579, 0.27014675736427307, -0.32942402362823486, 0.17195026576519012, -0.02874837815761566, -0.015612032264471054, 0.030470002442598343, 0.026500094681978226, 0.2347123622894287, -0.04149894788861275, -0.04489855095744133, 0.010112766176462173], [0.2464326173067093, -0.029115108773112297, -0.062300100922584534, 0.1044778898358345, -0.03480419144034386, 0.02859344333410263, -0.0022456205915659666, 0.11058565974235535, 0.011129295453429222, -0.044717904180288315, -0.07098256051540375, 0.05469406396150589, -0.044400185346603394, -0.029286343604326248, 0.03487372770905495, -0.06607034802436829, 0.08111181110143661, -0.05916139855980873, 0.09542921930551529, -0.0014564866432920098], [-0.1949937641620636, -0.05132812634110451, 0.05859417840838432, 0.13330940902233124, -0.18237029016017914, 0.031995344907045364, -0.15432026982307434, -0.19968290627002716, -0.06562953442335129, -0.2230873703956604, 0.03220422565937042, -0.19710923731327057, 0.04458996653556824, -0.130975604057312, -0.04085734859108925, 0.16832438111305237, -0.24757355451583862, 0.06448375433683395, -0.07475003600120544, -0.05783766135573387], [0.3550484776496887, 0.38688233494758606, -0.263231098651886, -0.9087989926338196, 0.04364076256752014, 0.37717440724372864, -0.48874127864837646, 0.3380335569381714, 0.01606655679643154, 0.5472161173820496, -0.9912274479866028, 0.6779501438140869, 0.1554880142211914, 0.02421792782843113, 0.08763621002435684, 0.1277659684419632, 1.1100761890411377, -0.20843125879764557, 0.28485098481178284, -0.02732378989458084], [-0.2399350106716156, 0.32370027899742126, 0.005123627372086048, -0.11415567994117737, -0.04016668349504471, 0.06238153576850891, 0.10885698348283768, 0.02477339096367359, -0.04815598204731941, 0.0009503820911049843, 0.4394884705543518, -0.10939241200685501, 0.2338896542787552, -0.011104153469204903, -0.06931154429912567, -0.05238186568021774, -0.041118789464235306, 0.025710666552186012, -0.009135695174336433, 0.23072968423366547], [-0.007067043799906969, 0.030468670651316643, -0.6838216781616211, -0.09140109270811081, -0.031129930168390274, 0.020685529336333275, -0.016869081184267998, 0.8399015069007874, -0.12224209308624268, 0.11938852816820145, 0.02689347416162491, 0.01881089061498642, 0.055174294859170914, 0.057021237909793854, 0.17030364274978638, 0.10915889590978622, 0.07930585741996765, -0.16244173049926758, 0.033651936799287796, -0.039276622235774994], [-0.3182533085346222, 0.15711450576782227, -0.05419643968343735, -0.055765435099601746, 0.13820579648017883, 0.011878415942192078, -0.10035701096057892, -0.10012465715408325, -0.04939601942896843, -0.0063399760983884335, -0.1492539644241333, 0.06838478147983551, 0.09889540076255798, -0.012262017466127872, -0.1776600182056427, 0.06187886744737625, -0.007282043807208538, 0.004132342990487814, 0.07377466559410095, 0.025772571563720703], [-0.19461406767368317, -0.18468917906284332, 0.04205836355686188, 0.2093227207660675, 0.1251426488161087, -0.13075067102909088, -0.2709255814552307, 0.014345374889671803, -0.017963390797376633, -0.6062155961990356, 0.1076427698135376, -0.09880667179822922, -0.032610729336738586, 0.04536370187997818, -0.17146512866020203, 0.13124129176139832, -0.1734553575515747, -0.1814294308423996, -0.07879598438739777, -0.03250805661082268], [0.05237680301070213, -0.014612508937716484, -0.015825828537344933, -5.4753081712988205e-06, -0.019634010270237923, 0.07034559547901154, -0.20940211415290833, 0.03158339858055115, 0.001565058366395533, -0.2478152960538864, -0.002562562469393015, -0.026101451367139816, -0.028086261823773384, 0.14001616835594177, 0.003407111158594489, 0.027372675016522408, 0.03036395087838173, -0.04097096621990204, 0.05602385848760605, 0.05599866434931755], [-0.18633656203746796, 0.028606059029698372, -0.057674556970596313, 0.03177647292613983, -0.34607943892478943, 0.07642827928066254, 0.21729277074337006, -0.2533702254295349, -0.042774371802806854, 0.021826449781656265, -0.17287078499794006, -0.007069029845297337, 0.032029926776885986, -0.25015926361083984, -0.19440974295139313, 0.23220869898796082, -0.06314066052436829, 0.28332722187042236, 0.10254804790019989, -0.005422352347522974], [-0.11814171075820923, 0.6942123770713806, -0.4868050217628479, -0.554289698600769, -0.17124877870082855, 0.41227293014526367, 0.27056238055229187, 0.8886587619781494, 0.06724226474761963, 0.9119463562965393, -0.8536552786827087, 0.7085562944412231, 0.2043045461177826, -0.19222401082515717, 0.1708299070596695, 0.04894203692674637, 0.7522649168968201, 0.11715412139892578, 0.4586738049983978, -0.3573707938194275], [-0.13249917328357697, 0.16071532666683197, -0.0939284935593605, -0.01668638363480568, -0.028306517750024796, 0.005475584417581558, 0.11731289327144623, 0.025543997064232826, -0.12315580993890762, 0.03079385682940483, 0.26973533630371094, -0.07539323717355728, 0.1589416265487671, -0.03806840628385544, -0.07640485465526581, 0.0020556405652314425, -0.07810946553945541, 0.13749705255031586, 0.018312864005565643, 0.0697798952460289], [0.21248826384544373, 0.05891716107726097, 0.1395440250635147, 0.07515861093997955, 0.01962294429540634, -0.182011678814888, 0.0589274987578392, -0.04480648785829544, 0.09612353891134262, 0.3927113115787506, 0.03953332453966141, 0.2106577605009079, -0.050431616604328156, -0.16436025500297546, -0.13335533440113068, 0.056397683918476105, 0.04458973556756973, 0.2682594060897827, -0.015256385318934917, -0.09195920079946518], [0.33431997895240784, 0.5447289347648621, -0.15135890245437622, -0.17690064013004303, -0.09434426575899124, 0.1619383990764618, -0.3827252984046936, 0.2544868290424347, -0.15993937849998474, 0.14161813259124756, -0.3629211187362671, 0.5285536050796509, 0.08750470727682114, -0.2067490518093109, -0.12517261505126953, 0.1323656141757965, 0.5333524346351624, -0.13731662929058075, 0.17709782719612122, 0.004073240328580141], [0.37495601177215576, 0.14440828561782837, 0.09808442741632462, -0.2677415609359741, 0.052833158522844315, 0.020469356328248978, 0.03541915491223335, 0.21923097968101501, -0.018857356160879135, 0.4683799147605896, -0.5162570476531982, 0.44598084688186646, 0.06099585443735123, -0.16447332501411438, 0.08569878339767456, -0.2811172604560852, 0.522113025188446, -0.23786702752113342, 0.22739671170711517, 0.1559905707836151], [-0.17592260241508484, 0.5400823950767517, -0.07170067727565765, -0.17442549765110016, 0.13806189596652985, 0.052505847066640854, 0.23651401698589325, -0.09740243852138519, -0.18508179485797882, 0.14651872217655182, 0.30908238887786865, -0.013865059241652489, 0.5646611452102661, -0.02000213786959648, -0.05485384166240692, -0.19432146847248077, -0.010011252015829086, 0.22795505821704865, -0.09061633795499802, 0.22258538007736206], [0.35558754205703735, -0.04636063799262047, -0.027458103373646736, 0.16845735907554626, -0.057344935834407806, 0.03171167150139809, -0.22051560878753662, 0.02566523291170597, 0.03160500153899193, -0.008084318600594997, -0.07205317169427872, -0.06615059077739716, -0.05880594626069069, -0.3367784321308136, 0.11601723730564117, -0.021572507917881012, 0.13054601848125458, -0.05185209959745407, 0.21229662001132965, 0.011364242993295193], [-0.14616477489471436, 0.07387137413024902, 0.0015834638616070151, -0.0261903777718544, 0.14032438397407532, 0.0007171877659857273, 0.2368757575750351, -0.04422762244939804, -0.02447660081088543, -0.032188255339860916, 0.037183187901973724, -0.05090286582708359, 0.0647532194852829, -0.04505322128534317, -0.07405376434326172, -0.0016350329387933016, -0.14024882018566132, 0.10701661556959152, 0.04588722810149193, 0.023359453305602074], [0.06937851756811142, 0.1482047736644745, 0.00195393362082541, -0.5409121513366699, 0.08505990356206894, 0.05698832497000694, -0.14179769158363342, -0.03160844370722771, -0.07176585495471954, 0.46963202953338623, -0.7584663033485413, 0.4238054156303406, -0.02065092884004116, -0.2168710082769394, 0.054696112871170044, -0.21354642510414124, 0.6705316305160522, -0.01715702936053276, 0.0015476616099476814, 0.1955099254846573], [0.26944786310195923, 0.19946210086345673, 0.020729243755340576, -0.2635437250137329, -0.10822194814682007, -0.03427019715309143, 0.09674177318811417, 0.3149125874042511, -0.03491940721869469, 0.3996157646179199, -0.4838789403438568, 0.3571693003177643, -0.019839361310005188, 0.018551133573055267, -0.03378831222653389, 0.022787444293498993, 0.5806108713150024, -0.03640773147344589, 0.03171057999134064, 0.046672992408275604], [-0.4940582513809204, -0.008293209597468376, 0.23135776817798615, 0.008910855278372765, -0.283247709274292, 0.04510798677802086, 0.2601321041584015, -0.3915850818157196, 0.140092670917511, 0.23225969076156616, 0.05866001546382904, -0.24343720078468323, -0.10255050659179688, -0.2931719124317169, -0.012943612411618233, 0.15220355987548828, -0.07124865800142288, 0.1393517404794693, -0.1601230651140213, -0.07139349728822708], [0.624043345451355, -0.03170407563447952, -0.1208171620965004, 0.2645336389541626, -0.06435810774564743, 0.09451207518577576, -0.06503409892320633, 0.1424218863248825, 0.04503323510289192, -0.16994507610797882, -0.08552294224500656, 0.1388491988182068, -0.044797588139772415, -0.14926056563854218, 0.034639663994312286, -0.1456100195646286, 0.15369883179664612, -0.04177175462245941, 0.3183803856372833, -0.046997882425785065], [-0.41750362515449524, 0.12136096507310867, 0.001413022167980671, -0.1690492182970047, -0.4432525336742401, 0.11561556160449982, -0.24379967153072357, -0.1493259221315384, -0.0682331919670105, 0.020525123924016953, 0.0706992894411087, 0.011941700242459774, 0.0343010388314724, -0.1433090716600418, -0.013450448401272297, 0.30520373582839966, -0.08221302926540375, 0.007753693964332342, -0.0655951201915741, -0.021854916587471962], [0.09819245338439941, -0.3880104720592499, -0.010205565020442009, 0.013842792250216007, 0.16648808121681213, -0.03775301203131676, -0.41936442255973816, 0.04361388087272644, 0.07807952165603638, -0.23254887759685516, -0.35675087571144104, 0.16959714889526367, -0.14830972254276276, 0.4296494722366333, 0.135530486702919, -0.17474843561649323, 0.19217881560325623, -0.18406394124031067, -0.1501171737909317, 0.11593518406152725], [-0.01641698367893696, 0.14506205916404724, 0.039556458592414856, 0.1861785501241684, -0.1933819204568863, -0.06731140613555908, 0.36165305972099304, 0.002411403227597475, -0.03289487212896347, 0.5783141255378723, 0.24326066672801971, 0.1684737652540207, 0.2920511066913605, 0.03543059527873993, -0.11460000276565552, -0.1084209755063057, 0.05754717066884041, 0.05399059131741524, 0.05557486414909363, -0.012875320389866829], [0.24691565334796906, -0.03880564495921135, 0.22610631585121155, -0.1088787093758583, -0.020204035565257072, 0.08431451767683029, 0.06692582368850708, -0.6801555156707764, 0.04481540247797966, -0.04732046648859978, -0.16487780213356018, 0.100785031914711, -0.19821763038635254, 0.06636732071638107, 0.062267154455184937, -0.016301600262522697, -0.002684474689885974, -0.05165025219321251, 0.00029061961686238647, 0.23039510846138], [0.5914521813392639, -0.4394950270652771, 0.2659512162208557, 0.1056324914097786, -0.29219844937324524, 0.10421820729970932, 0.060303717851638794, -0.15108709037303925, 0.230539470911026, -0.21442563831806183, 0.1430477350950241, -0.09279079735279083, -0.24600684642791748, -0.011911412701010704, 0.44543612003326416, -0.43453696370124817, -0.049871236085891724, 0.21559599041938782, 0.4685591757297516, -0.2274458408355713], [-0.5285650491714478, -0.2241416871547699, -0.5349825620651245, -0.709926426410675, 1.184231162071228, 0.0762709453701973, -0.5867466926574707, -0.07377995550632477, 0.09628617763519287, -1.2595303058624268, 0.03145463019609451, -0.03661463037133217, 0.21325746178627014, 1.1732255220413208, 0.15981578826904297, -0.08297502994537354, -0.018466509878635406, -1.1987589597702026, -0.01435811910778284, 0.5119819641113281], [-0.0033328512217849493, 0.0900082066655159, -0.2606146037578583, -0.07689227908849716, 0.23614780604839325, -0.11491513252258301, -0.2940055727958679, -0.06908857822418213, -0.11971945315599442, -0.3988824784755707, 0.22607102990150452, 0.08022084832191467, 0.255378395318985, 0.056889988481998444, -0.1467282623052597, 0.29195937514305115, -0.12298434972763062, -0.25517183542251587, 0.16451963782310486, 0.09568101167678833], [-0.23963989317417145, 0.11012870818376541, 0.31037500500679016, 0.2626577913761139, 0.1402531862258911, 0.11687061190605164, -0.24149276316165924, 0.5061708092689514, 0.23237645626068115, 1.1140847206115723, 0.13899070024490356, 0.1793704330921173, 0.14767087996006012, -0.47439950704574585, 0.29358816146850586, -0.2788260877132416, 0.047484323382377625, 1.0695562362670898, 0.03465570509433746, -0.22702984511852264], [0.3264182209968567, -0.026806550100445747, 0.19485093653202057, 0.09678910672664642, 0.1833680123090744, -0.2687772512435913, 0.5004476308822632, 0.5111116766929626, -0.22484460473060608, -0.19112809002399445, 0.12617428600788116, -0.16481071710586548, -0.2595049738883972, 0.015261098742485046, -0.184928297996521, -0.043409984558820724, 0.2615349590778351, -0.2651579976081848, -0.16660363972187042, 0.26329949498176575], [-0.03517352417111397, -0.08057039976119995, 0.05052080750465393, 0.013275869190692902, 0.29626959562301636, -0.12467233836650848, 0.04709770530462265, -0.1019119992852211, 0.1315399408340454, -0.24645575881004333, -0.054338935762643814, 0.1498696208000183, -0.22364993393421173, 0.209011510014534, -0.25540244579315186, 0.07401952147483826, -0.08721300959587097, -0.02310127206146717, 0.1322513371706009, 0.04578622058033943], [0.07595261931419373, 0.17886842787265778, 0.2283828854560852, 0.31521034240722656, -0.028936490416526794, 0.28761452436447144, -0.12167776376008987, 0.13388793170452118, 0.06864339858293533, -0.026294469833374023, -0.15358449518680573, 0.14365820586681366, 0.30259719491004944, -0.2728045880794525, 0.038965579122304916, -0.2557982802391052, 0.20347771048545837, 0.747590959072113, 0.14840517938137054, 0.2476566582918167], [-0.40419065952301025, 0.17912884056568146, 0.1511254906654358, 0.21358729898929596, -0.1953774243593216, 0.09740537405014038, 0.09709378331899643, -0.015102208591997623, -0.008225742727518082, 0.15638965368270874, 0.4128853678703308, -0.07356546074151993, 0.2850211262702942, -0.20843304693698883, 0.0129907988011837, 0.07629133015871048, -0.40363800525665283, 0.19302330911159515, -0.17217513918876648, 0.06450770795345306], [0.2729872763156891, 0.23973292112350464, 0.001655878615565598, -0.26097142696380615, 0.2750592827796936, 0.13527937233448029, -0.049162011593580246, -0.2191391885280609, 0.0669822245836258, -0.09620826691389084, -0.09745374321937561, 0.12218406051397324, 0.17920608818531036, 0.28564342856407166, -0.06334933638572693, -0.1477036029100418, 0.31222429871559143, -0.14406119287014008, 0.10703568160533905, -0.18845729529857635], [-0.193599134683609, 0.06561128050088882, 0.03886245936155319, 0.13972815871238708, 0.00899144634604454, 0.055026520043611526, 0.13852408528327942, -0.2791491150856018, 0.10395660251379013, 0.5109238028526306, 0.19747331738471985, 0.11589639633893967, 0.1613621860742569, 9.153856808552518e-05, 0.17697538435459137, -0.31886494159698486, -0.06930789351463318, 0.21672047674655914, 0.20782141387462616, -0.1565089076757431], [-0.6804044842720032, 0.04766421020030975, -0.1998671293258667, -0.29248863458633423, -0.0075054164044559, 0.03389474377036095, 0.20046931505203247, 0.1791120320558548, 0.0012876404216513038, 0.15247340500354767, -0.0031669456511735916, 0.31107476353645325, 0.24366657435894012, 0.17729134857654572, -0.15068869292736053, -0.05202487111091614, -0.0546930730342865, -0.5786214470863342, -0.33722981810569763, 0.13907891511917114], [0.021539906039834023, -0.1937478482723236, -0.10585707426071167, -0.239463672041893, 0.46512195467948914, 0.0071020545437932014, -0.3558279871940613, 0.3456313908100128, 0.031166110187768936, -0.3851465582847595, -0.20054680109024048, -0.12646058201789856, -0.16140538454055786, 0.1779259294271469, 0.08057127147912979, -0.11366371810436249, 0.07583838701248169, 0.061056867241859436, 0.043245527893304825, 0.21525998413562775], [-0.18528686463832855, -0.3687506318092346, 0.021101782098412514, 0.32867470383644104, -0.4619932770729065, 0.08120134472846985, -0.19716258347034454, 0.2055264115333557, -0.06936873495578766, 0.5076507925987244, 0.07725276052951813, -0.3735107481479645, -0.3042631447315216, -0.10148197412490845, 0.18490925431251526, 0.2061706930398941, 0.04516689106822014, 0.2168508768081665, -0.0014706754591315985, -0.1215599849820137], [0.321170836687088, 0.04845423623919487, -0.02133903279900551, -0.10712061077356339, 0.09081652760505676, -0.018628673627972603, 0.2750009596347809, 0.1400541514158249, -0.03018842451274395, 0.24086128175258636, -0.35169538855552673, 0.15674206614494324, -0.005080101080238819, -0.0540897399187088, -0.02597651071846485, -0.2250467836856842, 0.08185933530330658, 0.0056652226485311985, 0.18305735290050507, 0.16347889602184296], [0.11144551634788513, -0.14850689470767975, 0.49787893891334534, -0.16747921705245972, 0.0708165168762207, 0.04993815720081329, -0.16549360752105713, -0.432696670293808, 0.017049962654709816, 0.0005917453090660274, 0.023188678547739983, 0.0031653319019824266, -0.07108870893716812, 0.35584643483161926, -0.060480523854494095, 0.018022635951638222, -0.06372685730457306, 0.05580288544297218, -0.09883567690849304, 0.05649001896381378], [0.4685825705528259, 0.15665414929389954, -0.20945940911769867, 0.013032673858106136, 0.11195244640111923, -0.25720030069351196, 0.06642235070466995, 0.08088306337594986, -0.1379588544368744, -0.15592560172080994, 0.10361970216035843, 0.13632947206497192, -0.06981062144041061, 0.03809564933180809, -0.44774630665779114, 0.28012150526046753, -0.4861072301864624, -0.055434029549360275, 0.05871265009045601, -0.04474137723445892], [-0.17605341970920563, 0.24395006895065308, -0.32984575629234314, -0.026461485773324966, 0.058154888451099396, -0.10112982988357544, 0.4418222904205322, 0.713381826877594, -0.18016161024570465, 0.11132917553186417, -0.01610715128481388, -0.17277373373508453, 0.005855830851942301, 0.035931773483753204, 0.029273690655827522, 0.18632321059703827, 0.14599598944187164, -0.17155721783638, -0.04677587375044823, 0.08850691467523575], [0.5572089552879333, -0.06946144998073578, -0.1920843869447708, -0.11134988069534302, 0.2551489770412445, -0.050988126546144485, 0.05032328516244888, 0.5049704313278198, 0.04129336029291153, -0.06575767695903778, -0.2093898355960846, 0.3553726375102997, 0.05339990556240082, -0.061697691679000854, 0.12943364679813385, -0.22716139256954193, 0.5446712970733643, -0.2363416701555252, 0.21705546975135803, 0.016741139814257622], [-0.1978987604379654, 0.21711847186088562, -0.09891000390052795, -0.026199204847216606, 0.23862490057945251, 0.07388979196548462, -0.049450915306806564, 0.03746172413229942, -0.15845680236816406, -0.17478637397289276, 0.43731802701950073, -0.10525979846715927, 0.31148433685302734, -0.17205974459648132, -0.07136738300323486, -0.05809573084115982, -0.07253052294254303, 0.13272401690483093, -0.0198197141289711, 0.22779910266399384], [-0.006965151522308588, 0.1251891702413559, -0.475263774394989, -0.14392158389091492, -0.07955915480852127, 0.0332845002412796, 0.027714379131793976, 0.6263014078140259, -0.15210334956645966, 0.17118655145168304, 0.0724971815943718, 0.03769416734576225, 0.09221646189689636, 0.06770116835832596, 0.054305363446474075, 0.08433496206998825, 0.11288626492023468, -0.13805121183395386, 0.01273311022669077, 0.07625944167375565], [-0.04746429622173309, 0.15370358526706696, -0.07377292960882187, -0.3143403232097626, 0.27122852206230164, 0.05646231397986412, 0.08478356897830963, 0.07021892070770264, -0.027353832498192787, 0.09321865439414978, -0.3472006618976593, 0.2240549921989441, 0.07438934594392776, -0.010830260813236237, -0.012085432186722755, 0.011856259778141975, 0.23012085258960724, -0.09737696498632431, 0.07263562083244324, 0.06170312687754631], [-0.04637838527560234, 0.15091706812381744, -0.03435682877898216, -0.0939340591430664, 0.024596786126494408, -0.06774439662694931, -0.15118443965911865, 0.1429644078016281, 0.01530763041228056, 0.8716942667961121, -0.2590547800064087, 0.3324674963951111, -0.06744547188282013, -0.10235541313886642, 0.06354334950447083, -0.035524141043424606, 0.16203589737415314, -0.3635472059249878, 0.0066617876291275024, -0.06407565623521805], [0.12192652374505997, -0.02772267907857895, -0.04493659734725952, -0.09254495054483414, 0.015468870289623737, 0.09686017036437988, -0.2190352976322174, 0.11600898206233978, 0.023004895076155663, -0.18975898623466492, -0.12547963857650757, 0.06146911159157753, -0.048543646931648254, 0.10193213820457458, 0.06702477484941483, 0.015801087021827698, 0.14050845801830292, -0.09198498725891113, 0.06909019500017166, 0.05548454076051712], [0.12360571324825287, 0.05704815313220024, -0.04635279253125191, -0.2192213088274002, -0.1289905160665512, 0.0679343119263649, 0.07146278023719788, 0.12320730835199356, -0.007877027615904808, 0.16314609348773956, -0.38944321870803833, 0.23052984476089478, -0.03864642232656479, -0.06559966504573822, 0.009541311301290989, 0.04118197038769722, 0.2942105829715729, -0.08445069938898087, 0.09365390241146088, 0.05712154135107994], [0.2584008574485779, -0.04064531996846199, -0.29807987809181213, 0.0931805670261383, 0.08706077188253403, -0.02846941538155079, 0.11928650736808777, 0.6959453225135803, -0.06642305105924606, 0.21294143795967102, -0.17618155479431152, 0.21684257686138153, 0.14745353162288666, -0.08186590671539307, 0.17800457775592804, 0.017036747187376022, 0.18277478218078613, 0.16794294118881226, 0.18777260184288025, -0.29698416590690613], [-0.06244105473160744, 0.11586656421422958, -0.08362296968698502, -0.07371349632740021, 0.0027893914375454187, 0.025073522701859474, 0.0932374894618988, 0.09125394374132156, -0.08777756243944168, 0.0611901581287384, 0.08495362848043442, -0.019839439541101456, 0.10218266397714615, -0.036549750715494156, -0.03744196891784668, 0.019091174006462097, 0.02178737334907055, 0.10074269771575928, 0.024604525417089462, 0.0707690492272377], [0.23171330988407135, -0.08547636866569519, -0.016443245112895966, -0.09675278514623642, 0.6032851338386536, 0.028926430270075798, -0.34143468737602234, 0.21206997334957123, 0.0658641904592514, 0.09259571880102158, -0.3792305886745453, 0.38259896636009216, -0.07703850418329239, -0.04992381110787392, 0.16226480901241302, -0.13250821828842163, 0.24016086757183075, -0.00413896981626749, -0.030672110617160797, -0.060831811279058456], [0.31920191645622253, 0.4595869481563568, -0.024641502648591995, -0.3109724819660187, 0.04250241443514824, 0.1729857623577118, -0.2371634542942047, 0.1504117101430893, -0.03706890344619751, 0.13673894107341766, -0.17083413898944855, 0.20623187720775604, 0.026117496192455292, 0.0847068503499031, 0.12836402654647827, -0.09480511397123337, 0.31423646211624146, -0.21515433490276337, 0.037717923521995544, 0.004736614413559437], [0.3182680308818817, -0.05974460020661354, 0.12159144878387451, 0.016004279255867004, -0.2560838758945465, 0.07679139077663422, -0.1589728742837906, -0.16974185407161713, 0.060602862387895584, 0.20685723423957825, -0.16978663206100464, 0.26137858629226685, 0.0737501010298729, 0.1307174563407898, 0.14581985771656036, -0.41584113240242004, 0.23164232075214386, -0.15118837356567383, 0.08864262700080872, 0.012636427767574787], [-0.03359348699450493, 0.3406822681427002, -0.07348001003265381, 0.014316773973405361, 0.06314080953598022, 0.022123126313090324, 0.2891716957092285, 0.09548093378543854, -0.18716605007648468, 0.06692297756671906, 0.285914808511734, -0.08390801399946213, 0.4466593563556671, -0.09795249998569489, -0.06126229092478752, -0.155389204621315, 0.012460452504456043, 0.16498596966266632, -0.0289436224848032, 0.18262673914432526], [0.2205662876367569, 0.05811886489391327, -0.04498501494526863, -0.14733782410621643, 0.012915806844830513, 0.03328542038798332, 0.0035670713987201452, 0.17345531284809113, -0.003146602539345622, 0.20589187741279602, -0.37702232599258423, 0.23297350108623505, -0.016245830804109573, -0.09068702161312103, 0.06863433867692947, -0.00945186521857977, 0.3238794207572937, -0.09735862910747528, 0.0881839171051979, 0.043615635484457016], [-0.07178839296102524, 0.04645094275474548, 0.0009398965048603714, -0.07423478364944458, 0.12474194169044495, 0.0423990897834301, 0.21463407576084137, 0.02188492752611637, 0.0008104837033897638, -0.08326082676649094, -0.04267144203186035, -0.0023093216586858034, 0.048135578632354736, -0.05288534611463547, -0.04302087053656578, 0.007783889304846525, -0.06328053027391434, 0.08129604160785675, 0.07769583910703659, 0.01950935646891594], [0.1515020877122879, 0.01196928322315216, -0.08920226246118546, -0.07118839770555496, 0.32290446758270264, 0.010275381617248058, -0.02736477181315422, 0.2374173104763031, -0.05895671620965004, 0.126128688454628, -0.1384519338607788, 0.05261753499507904, -0.036126043647527695, -0.04624234139919281, 0.12205149978399277, -0.2114553153514862, 0.1979757845401764, -0.10581213235855103, -0.06106877699494362, 0.168418750166893], [0.7595207095146179, 0.1671449840068817, 0.08509591221809387, -0.08746284246444702, 0.05238629877567291, 0.09972129762172699, -0.26343363523483276, 0.2178982049226761, -0.07065129280090332, -0.09718331694602966, -0.13426412642002106, 0.21772661805152893, 0.0030652654822915792, 0.007946731522679329, 0.07505695521831512, -0.3379842936992645, 0.4642868638038635, -0.049326639622449875, 0.022942036390304565, -0.11135260760784149], [-0.9077053070068359, 0.08820459991693497, 0.1472340077161789, -0.44992655515670776, -0.44465893507003784, -0.04585136100649834, 0.17511537671089172, -0.17825889587402344, -0.0001113968828576617, 0.42906519770622253, -0.17952094972133636, -0.17467017471790314, -0.024466674774885178, 0.1932787299156189, 0.004739038646221161, 0.1985449492931366, 0.011640142649412155, -0.20450440049171448, -0.3878607749938965, 0.06686301529407501], [0.3450484275817871, -0.026803459972143173, -0.09632677584886551, 0.04413742572069168, 0.1022116020321846, 0.0703783705830574, -0.06896597146987915, 0.18523167073726654, 0.028560815379023552, -0.07112255692481995, -0.2170436531305313, 0.16856497526168823, -0.059365853667259216, -0.06888946145772934, 0.08846283704042435, -0.10545948147773743, 0.22533297538757324, -0.12007388472557068, 0.21510225534439087, 0.008754152804613113], [-0.3212902247905731, 0.03744403272867203, 0.047234080731868744, -0.00044553252519108355, -0.17789770662784576, 0.07700487971305847, -0.18225330114364624, -0.3564411997795105, -0.08387298882007599, -0.20446957647800446, 0.12463337928056717, -0.16200637817382812, 0.0782959833741188, -0.04150742292404175, -0.04101955518126488, 0.2379496842622757, -0.2588585317134857, 0.0441397987306118, -0.08775463700294495, 0.005090239457786083]], "rec.bias_ih_l0": [-0.49373266100883484, -0.011582010425627232, -0.15781264007091522, 0.4281206727027893, 0.5180859565734863, 0.014748619869351387, 0.4099677801132202, -0.8256328105926514, -0.10117663443088531, 0.5357455611228943, -0.2899548411369324, -0.28328362107276917, -0.4777805209159851, 0.46913549304008484, -0.03018566407263279, -0.6620581150054932, -0.2003859430551529, 0.644565761089325, 0.026980137452483177, -0.21658015251159668, 0.7217493653297424, 0.43187078833580017, 0.08416042476892471, 0.012681802734732628, -0.26638397574424744, -0.008846087381243706, 0.0479150228202343, 1.1041229963302612, 0.1348821520805359, 0.03757043555378914, 0.5547861456871033, 0.49057337641716003, 0.4072965085506439, 0.04337433725595474, 0.11171235889196396, 0.816707193851471, 0.3783353269100189, 0.0004173839115537703, -0.012411539442837238, 0.5723974704742432, -0.10451952368021011, 0.14057883620262146, 0.010665244422852993, -0.08532490581274033, 0.026338499039411545, 0.16353285312652588, -0.02117079496383667, -0.00453649926930666, -0.012567116878926754, -0.11044265329837799, -0.09561249613761902, -0.04636663571000099, -0.0004011171404272318, -0.034192800521850586, 0.0950624868273735, 0.1262775957584381, 0.14930643141269684, -0.021915581077337265, 0.09609254449605942, 0.15173695981502533, 0.2033982276916504, 0.09582573920488358, 0.130111962556839, 0.44264674186706543, 0.30318161845207214, 0.1278364509344101, 0.5126703381538391, 0.07747980207204819, 0.16490258276462555, 0.5204684138298035, 0.29112938046455383, -0.04429292678833008, 0.1425779014825821, 0.4800742268562317, 0.020195985212922096, 0.01597585715353489, -0.16920137405395508, 0.7003427147865295, 0.1856096088886261, -0.015717197209596634], "rec.bias_hh_l0": [-0.6772626638412476, -0.08317440748214722, -0.19767755270004272, 0.41521403193473816, 0.5874504446983337, 0.06712544709444046, 0.4137459993362427, -0.8636482357978821, -0.02860002964735031, 0.5912047624588013, -0.23586143553256989, -0.3295374810695648, -0.6418445706367493, 0.45957887172698975, -0.06277116388082504, -0.5865150094032288, -0.13453787565231323, 0.62007737159729, 0.02349630743265152, -0.24718497693538666, 0.8630669713020325, 0.19586563110351562, 0.020134666934609413, -0.002637328580021858, -0.32613661885261536, 0.03288008272647858, -0.01327864546328783, 1.1230860948562622, 0.1439398229122162, -0.010563268326222897, 0.6215530633926392, 0.30180296301841736, 0.3350871205329895, 0.09324171394109726, 0.09448765963315964, 0.7241440415382385, 0.4117574691772461, 0.054338227957487106, -0.015368207357823849, 0.5535997152328491, -0.16869263350963593, 0.1638338416814804, -0.10836393386125565, -0.09280385076999664, 0.01676168479025364, 0.1630837619304657, -0.19606263935565948, 0.14148007333278656, 0.11832495778799057, 0.2749529778957367, -0.23756495118141174, 0.21785525977611542, -0.07835181802511215, -0.1996498852968216, 0.04670678451657295, 0.08691839873790741, 0.05238279700279236, -0.10413862019777298, 0.10543585568666458, -0.1183881089091301, 0.042442161589860916, 0.21274234354496002, 0.16984356939792633, 0.5573087334632874, 0.3723475933074951, 0.14819206297397614, 0.47659218311309814, 0.2361103594303131, 0.1302025318145752, 0.6106063723564148, 0.41228997707366943, -0.10081010311841965, 0.024943720549345016, 0.4909594655036926, 0.06228770688176155, 0.01886935532093048, -0.09531091898679733, 0.5859435200691223, 0.19744041562080383, 0.0005988320917822421], "lin.weight": [[0.30414915084838867, -0.09692297130823135, -0.035290688276290894, -0.2615711987018585, -0.684750497341156, 0.36103904247283936, 0.02839704044163227, 0.1243901476264, 0.31985339522361755, 0.04904978349804878, 0.18557077646255493, -0.2635367214679718, -0.23459181189537048, -0.009976573288440704, 0.2267633080482483, 0.18865972757339478, 0.020683038979768753, 0.07599087059497833, 0.33881792426109314, 0.07897472381591797]], "lin.bias": [-0.10522148758172989]}}