{"model_data": {"model": "SimpleRNN", "input_size": 1, "skip": 1, "output_size": 1, "unit_type": "LSTM", "num_layers": 1, "hidden_size": 20, "bias_fl": true}, "state_dict": {"rec.weight_ih_l0": [[0.01990235038101673], [0.040911123156547546], [0.02491813525557518], [0.056457407772541046], [0.004172605462372303], [-0.08517197519540787], [0.020539699122309685], [0.01752263866364956], [0.011334079317748547], [0.0137871028855443], [-0.047576818615198135], [-0.028581786900758743], [-0.009709537029266357], [-0.04036227613687515], [-0.01250743679702282], [0.07291754335165024], [-0.029688870534300804], [-0.03508923947811127], [0.006652185693383217], [0.0009278098586946726], [0.035380009561777115], [0.013041921891272068], [-0.051893092691898346], [0.08844497054815292], [-0.07110526412725449], [-0.04083012416958809], [0.04659503325819969], [0.08172324299812317], [-0.0021735106129199266], [0.12729862332344055], [-0.1807796061038971], [-0.002618861384689808], [-0.07320893555879593], [-0.027166644111275673], [-0.07698033004999161], [0.08231997489929199], [-0.04896295815706253], [0.0483301505446434], [-0.10831516236066818], [0.05174003913998604], [-0.29260173439979553], [-0.006998808588832617], [-0.14278621971607208], [-0.10459402203559875], [-0.24405063688755035], [0.37222498655319214], [-0.2177395075559616], [0.7130497694015503], [-0.7747254967689514], [0.2671155631542206], [-0.1784580796957016], [-0.9231994152069092], [0.3430245518684387], [-0.4986135959625244], [0.3699464499950409], [0.6195619106292725], [0.5480222105979919], [0.3199312686920166], [-0.10177171230316162], [-0.05516081675887108], [0.050549499690532684], [0.03553678095340729], [-0.03637615963816643], [0.10797560214996338], [-0.0050636595115065575], [-0.08426599949598312], [0.0035086411517113447], [0.013215059414505959], [-0.025032546371221542], [0.05625949054956436], [-0.09041983634233475], [-0.008824551478028297], [0.028952986001968384], [-0.01487024873495102], [-0.06993919610977173], [0.04579652100801468], [-0.02748468890786171], [0.059653062373399734], [-0.09871336817741394], [0.004814547020941973]], "rec.weight_hh_l0": [[0.05041157826781273, 0.11402332037687302, -0.08061818778514862, -0.008452849462628365, -0.02565997838973999, 0.03167444467544556, 0.010143933817744255, 0.1005028560757637, 0.02380000799894333, -0.05035978555679321, -0.08626800775527954, -0.04505814611911774, 0.0006749210297130048, 0.030557118356227875, -0.0513681136071682, 0.010572277009487152, -0.004720940720289946, 0.004207015503197908, 0.003197112586349249, -0.024731766432523727], [0.053903963416814804, 0.055144671350717545, -0.014189706183969975, 0.091602623462677, -0.03324894234538078, -0.04840242490172386, -0.06461358815431595, 0.0353853702545166, -0.062439389526844025, 0.034291546791791916, -0.04325072094798088, -0.06251230090856552, 0.049690186977386475, 0.038006801158189774, 0.08454284071922302, 0.09766410291194916, -0.062731072306633, 0.05290810018777847, -0.1570671945810318, 0.01204101275652647], [-0.03007247857749462, 0.11143917590379715, 0.1200406476855278, 0.00625189021229744, 0.06928680837154388, -0.2158816009759903, -0.040118634700775146, 0.022992752492427826, -0.050121478736400604, -0.1355220228433609, -0.16935956478118896, -0.04912200942635536, 0.11304870247840881, 0.007195453159511089, 0.1195814311504364, -0.0432223305106163, -0.10797873884439468, -0.035259779542684555, -0.09508123248815536, 0.04843656346201897], [0.11846479773521423, 0.0769670307636261, 0.004255519714206457, -0.16555245220661163, -0.005265593063086271, 0.059541795402765274, -0.028276853263378143, 0.21745361387729645, 0.03916488587856293, -0.052602898329496384, -0.036539893597364426, 0.025211665779352188, 0.012142249383032322, 0.14253611862659454, -0.08372930437326431, -0.003872640896588564, 0.06659451872110367, 0.005057030823081732, 0.10742364823818207, -0.130252867937088], [0.0009736897191032767, 0.009329426102340221, -0.09215331822633743, -0.028968939557671547, 0.11555813252925873, -0.06909250468015671, -0.03913940489292145, -0.0020477960351854563, 0.024742474779486656, -0.04549017921090126, -0.014029919169843197, -0.10915664583444595, -0.006312486249953508, 0.0022657804656773806, -0.07912348955869675, 0.012829790823161602, 0.08539777249097824, -0.11720263212919235, 0.07713553309440613, 0.016731617972254753], [0.051189176738262177, 0.0940205529332161, -0.06167362630367279, -0.12875956296920776, 0.02789340913295746, 0.07082335650920868, 0.05280372127890587, 0.049175649881362915, 0.08615078032016754, -0.12825408577919006, -0.05022314563393593, 0.07332630455493927, 0.0711900144815445, 0.010293521918356419, -0.10186359286308289, -0.07261890172958374, -0.033130984753370285, 0.07630813866853714, -0.02813141979277134, -0.13596299290657043], [-0.04378697648644447, 0.11612998694181442, 0.04339272901415825, 0.024778837338089943, -0.05673033371567726, 0.004396187607198954, -0.03823579102754593, 0.004298031330108643, 0.013020004145801067, -0.08564989268779755, 0.02454671449959278, -0.11615785956382751, -0.004157242365181446, -0.042262446135282516, 0.013558486476540565, 0.06270629912614822, -0.04413309693336487, -0.06572780013084412, -0.05297854170203209, 0.05057690665125847], [0.08873450011014938, 0.0801658108830452, -0.1348373293876648, -0.019864164292812347, 0.02384687028825283, 0.21160560846328735, 0.069698266685009, 0.2205311357975006, 0.06093192473053932, 0.009586903266608715, -0.13823816180229187, -0.024959895759820938, 0.01802980713546276, 0.07102548331022263, -0.1303989291191101, -0.04671831429004669, 0.11130821704864502, 0.006550589110702276, 0.10505788028240204, -0.0009527234360575676], [0.026677222922444344, 0.06409240514039993, 0.0807255357503891, -0.12972316145896912, -0.01787600666284561, -0.04877111688256264, -0.01510363258421421, 0.02191914990544319, 0.043714456260204315, -0.12512415647506714, 0.03567294403910637, -0.0919012501835823, 0.09047628939151764, 0.06504307687282562, -0.045869071036577225, 0.03313092514872551, 0.0862269252538681, -0.040230780839920044, 0.022995680570602417, 0.003302880795672536], [-0.05410037189722061, -0.003450883785262704, 0.16977915167808533, -0.023281890898942947, -0.03471112251281738, -0.012457363307476044, -0.04087739437818527, -0.038664646446704865, 0.049409061670303345, -0.1337978094816208, 0.03433533385396004, 0.048700641840696335, -0.007567249704152346, -0.009195195510983467, 0.043943099677562714, 0.11151998490095139, 0.022930823266506195, 0.08405111730098724, -0.017429212108254433, -0.007077619433403015], [0.04406110942363739, -0.0035813471768051386, -0.1988508403301239, 0.05007801204919815, -0.020317671820521355, 0.04942445084452629, -0.003016215981915593, -0.022651206701993942, -0.021522967144846916, 0.019943317398428917, -0.21904972195625305, -0.08814528584480286, 0.02400999516248703, 0.013786650262773037, 0.008386823348701, -0.04974699392914772, -0.044909264892339706, -0.1708814799785614, 0.09169244766235352, 0.021949177607893944], [-0.0732039213180542, 0.060634512454271317, -0.03826262429356575, -0.017654206603765488, -0.014222155325114727, 0.09598144888877869, 0.03633364289999008, 0.007618968840688467, 0.10007878392934799, -0.016751710325479507, -0.01925787888467312, 0.012851562350988388, 0.013935577124357224, -0.09110626578330994, -0.06769134104251862, -0.007806603331118822, 0.007944651879370213, 0.008735123090445995, -0.03297789767384529, 0.03425773233175278], [-0.0527094304561615, 0.05892278999090195, -0.021020179614424706, 0.05387585982680321, -0.08872704207897186, 0.12947314977645874, 0.00888682622462511, 0.0056005618534982204, 0.0440974123775959, -0.057651471346616745, -0.015487752854824066, -0.055256184190511703, -0.042484864592552185, -0.04730500280857086, -0.04305122047662735, 0.06580958515405655, 0.006411394570022821, -0.05277453735470772, 0.013320984318852425, 0.07740068435668945], [-0.005984597373753786, 0.09592118114233017, -0.08411229401826859, -0.02990392968058586, -0.027129728347063065, 0.06696930527687073, 0.046493373811244965, 0.06476914137601852, 0.10737331211566925, -0.06675095111131668, -0.08692272007465363, -0.033653244376182556, 0.02644057758152485, -0.02883327193558216, -0.10120812803506851, -0.0002857823856174946, 0.053906265646219254, -0.03484027087688446, 0.06367982178926468, -0.006776786874979734], [-0.008113870397210121, -0.02804524637758732, -0.0028026613872498274, -0.052220072597265244, 0.14434193074703217, 0.0344293937087059, 0.036555930972099304, -0.06425956636667252, 0.011646313592791557, -0.09368125349283218, 0.049382828176021576, -0.004785357974469662, 0.058383598923683167, 0.004341703373938799, -0.11958678066730499, -0.0014009271981194615, 0.13239429891109467, 0.019040778279304504, 0.09899454563856125, 0.021299036219716072], [-0.010330931283533573, 0.09373190253973007, 0.0015657595358788967, -0.10460758954286575, -0.009992199949920177, -0.04411771520972252, -0.02847180888056755, 0.08122151345014572, 0.05223381519317627, -0.0667077973484993, -0.024739688262343407, -0.11450754851102829, 0.0060453349724411964, 0.020795350894331932, -0.042051661759614944, 0.0932743027806282, 0.059783149510622025, -0.023043192923069, -0.09687832742929459, 0.032070569694042206], [-0.022973863407969475, 0.022326411679387093, -0.10790775716304779, -0.0275486558675766, -0.05690549314022064, 0.04752868786454201, -0.044863011687994, -0.023785723373293877, 0.1010185182094574, -0.007234867662191391, -0.09601099789142609, -0.09950462728738785, -0.12855426967144012, -0.0765858143568039, 0.018917175009846687, 0.032924823462963104, -0.030020706355571747, -0.01525236014276743, -0.043822407722473145, 0.08213351666927338], [-0.19384028017520905, -0.0035041351802647114, 0.08377411961555481, -0.0070297010242938995, -0.05160205066204071, -0.15416768193244934, 0.0474359467625618, -0.20107489824295044, 0.027860969305038452, -0.16520269215106964, 0.0011820581275969744, -0.049625370651483536, 0.17291077971458435, -0.28436312079429626, 0.046406880021095276, 0.0715719610452652, -0.020425254479050636, -0.3099355101585388, -0.12894877791404724, 0.12498602271080017], [-0.0021581135224550962, -0.04277358576655388, 0.04073620215058327, -0.08293062448501587, 0.477657675743103, -0.2380639910697937, 0.009591524489223957, -0.21350540220737457, -0.13808196783065796, 0.19819460809230804, 0.11628164350986481, 0.05778531730175018, 0.21256296336650848, 0.005421043373644352, 0.0013873187126591802, 0.029656080529093742, 0.11146817356348038, -0.04147587716579437, -0.12063568830490112, 0.006320834159851074], [-0.017399966716766357, -0.008970309048891068, 0.03513602539896965, -0.007640712428838015, -0.04000840336084366, 0.09520890563726425, -0.04159895330667496, -0.0762098953127861, -0.010983981192111969, -0.03694900497794151, 0.0553128719329834, 0.017595354467630386, -0.0064855641685426235, -0.0035448544658720493, -0.011672924272716045, 0.011856643483042717, -0.04678977280855179, 0.06434428691864014, 0.019729645922780037, -0.07056450098752975], [0.07786202430725098, 0.09086834639310837, -0.002796983579173684, 0.018348535522818565, -0.03656982630491257, 0.06887596100568771, -0.018543217331171036, 0.03858799859881401, -0.08784981817007065, -0.0230418611317873, -0.032391879707574844, 0.024642018601298332, 0.0518813356757164, 0.0450921505689621, -0.00463691633194685, 0.05851161479949951, -0.05864662304520607, 0.08397160470485687, -0.05855053290724754, -0.08132264018058777], [0.048496175557374954, 0.06191309913992882, -2.3827005861676298e-05, 0.12490585446357727, -0.042691539973020554, -0.05632619559764862, -0.07997342199087143, 0.007600149139761925, -0.05134133994579315, 0.04316661134362221, -0.04936815798282623, -0.030649447813630104, 0.07657095044851303, 0.006027522962540388, 0.10288964211940765, 0.12936440110206604, -0.11406123638153076, 0.05154474452137947, -0.22385291755199432, 0.030626334249973297], [-0.05165531858801842, 0.21764537692070007, -0.07996894419193268, 0.07984381914138794, -0.15908430516719818, 0.43223443627357483, -0.009952409192919731, 0.06543398648500443, 0.15712836384773254, -0.23744738101959229, -0.3000715970993042, -0.11882179230451584, -0.1338820904493332, 0.012457231990993023, -0.16859397292137146, 0.0660686194896698, -0.03860560804605484, 0.0874905213713646, 0.18183261156082153, 0.06828717887401581], [0.05884247273206711, 0.08908529579639435, 0.05801859125494957, -0.22313839197158813, -0.015078415162861347, 0.006854458712041378, -0.011492487043142319, 0.16108165681362152, 0.034167882055044174, -0.13602246344089508, -0.025644894689321518, -0.006558672524988651, 0.07743328809738159, 0.0927494540810585, -0.10168054699897766, 0.11123073846101761, 0.14322340488433838, -0.06304611265659332, 0.06969265639781952, -0.10832548141479492], [-0.03243270888924599, -0.016662489622831345, -0.1999073326587677, -0.04614537954330444, 0.2400553971529007, 0.1291702687740326, 0.04160529375076294, -0.026768473908305168, 0.10424163937568665, -0.04050987586379051, -0.0900721475481987, -0.10299520939588547, -0.059771325439214706, -0.05401940271258354, -0.2293769121170044, -0.013579174876213074, 0.16804519295692444, -0.14981600642204285, 0.20867964625358582, 0.05566830560564995], [-0.19185811281204224, 0.10695119947195053, -0.11637351661920547, -0.05902639031410217, -0.27916666865348816, 0.2723231613636017, 0.023727640509605408, -0.01784348674118519, 0.19855189323425293, -0.33859050273895264, -0.001290968619287014, 0.030500570312142372, -0.2427830845117569, -0.07944191247224808, -0.20597103238105774, 0.15245118737220764, -0.06750132888555527, 0.12944898009300232, -0.054048895835876465, -0.005035913083702326], [-0.06581597030162811, 0.07757542282342911, 0.06518542021512985, 0.04671476036310196, -0.13581301271915436, 0.08899737894535065, -0.04080486670136452, 0.044590063393116, 0.02074938826262951, -0.09700741618871689, 0.027346262708306313, -0.1551775187253952, -0.1200888380408287, -0.03634792938828468, -0.012941688299179077, 0.1448819488286972, -0.0035411841236054897, -0.06261460483074188, -0.023169448599219322, 0.09409333020448685], [0.10747738927602768, 0.007002959959208965, 0.062070708721876144, 0.010251524858176708, 0.022370396181941032, 0.23477764427661896, 0.054014138877391815, 0.24592188000679016, 0.014162030071020126, 0.042017873376607895, -0.01623753271996975, 0.12073267251253128, 0.006999642588198185, 0.12069521844387054, -0.1174953356385231, -0.05020930618047714, 0.1145312488079071, 0.07404524832963943, 0.10795488953590393, -0.054976340383291245], [-0.01392630860209465, 0.018385889008641243, 0.10745103657245636, 0.0012190481647849083, -0.006910291966050863, 0.0255537461489439, -0.01273159496486187, -0.022939836606383324, -0.028518838807940483, -0.10666506737470627, 0.05730785056948662, -0.05193806439638138, -0.10243464261293411, 0.06684715300798416, 0.002169092884287238, 0.07277657091617584, 0.06444275379180908, 0.04630766436457634, -0.020627854391932487, 0.0761241689324379], [-0.06752361357212067, 0.0937160924077034, 0.32463231682777405, -0.0838773101568222, -0.13030649721622467, -0.1065865159034729, -0.07514622807502747, 0.016958165913820267, 0.0594695582985878, -0.35515308380126953, 0.09218472242355347, -0.06753729283809662, 0.03986792638897896, 0.043237727135419846, 0.05334252119064331, 0.2377183735370636, 0.09705043584108353, 0.15057452023029327, -0.11011220514774323, 0.04694107174873352], [0.05797894671559334, 0.03392433747649193, -0.4146823585033417, 0.07940699905157089, -0.0226563923060894, 0.2406526803970337, 0.0352679081261158, -0.020176943391561508, 0.06462273001670837, 0.08077102899551392, -0.41844671964645386, -0.06517211347818375, -0.0063336314633488655, -0.035712942481040955, -0.09016641974449158, -0.11934724450111389, -0.07583965361118317, -0.18653370440006256, 0.20373718440532684, 0.04444069042801857], [-0.1227957084774971, 0.03729954734444618, 0.06853403896093369, 0.08521237224340439, 0.006253333296626806, 0.06636932492256165, 0.011277039535343647, -0.08517498522996902, 0.007930312305688858, -0.011360143311321735, 0.05246292054653168, 0.09137967228889465, 0.03594796359539032, -0.10867947340011597, -0.019665811210870743, 0.03251595422625542, -0.057740289717912674, 0.1655135452747345, -0.10578800737857819, 0.0476837083697319], [-0.1883114129304886, -0.010770891793072224, 0.15929438173770905, 0.30484920740127563, -0.003970020450651646, 0.10702039301395416, -0.04486452788114548, -0.3566502332687378, -0.2171294093132019, 0.02093345671892166, 0.14834719896316528, 0.20966407656669617, -0.05076076462864876, -0.06524703651666641, 0.08047076314687729, 0.05586769059300423, -0.24132488667964935, 0.3724137842655182, -0.13508500158786774, 0.018769480288028717], [-0.0047403122298419476, 0.03330784663558006, -0.004018859472125769, 0.04537688568234444, 0.0394662469625473, 0.010021306574344635, 0.02433907613158226, -0.05342999845743179, -0.030438732355833054, -0.03739169239997864, -0.027348903939127922, 0.0492011196911335, -0.010744443163275719, -0.022103317081928253, -0.03247467428445816, 0.01312180794775486, -0.02962571382522583, 0.05627536028623581, 0.03934585675597191, -0.07590305805206299], [-0.06322084367275238, -0.0629439726471901, -0.09037631750106812, 0.01880454458296299, 0.13000410795211792, 0.21043533086776733, 0.11424777656793594, -0.1121855303645134, 0.014211347326636314, -0.1237211674451828, -0.001810751506127417, 0.0021668709814548492, -0.019671155139803886, -0.02759268879890442, -0.24971194565296173, 0.014145571738481522, 0.2014686018228531, 0.0563543476164341, 0.2678948938846588, 0.030895980075001717], [7.859423021727707e-06, 0.17874287068843842, 0.07580841332674026, -0.15686556696891785, -0.037808142602443695, -0.1485743522644043, -0.06468131393194199, 0.07819372415542603, 0.05778281018137932, -0.1423550695180893, 0.014424978755414486, -0.12899190187454224, 0.09187839925289154, 0.044326089322566986, -0.01117671187967062, 0.14658071100711823, -0.012651747092604637, 0.0039023379795253277, -0.2925536334514618, -0.020282071083784103], [-0.0896802470088005, -0.031103843823075294, -0.053843893110752106, 0.010734452866017818, -0.10853729397058487, 0.08483240008354187, -0.02960403822362423, -0.057071030139923096, 0.14304690062999725, -0.04699504375457764, -0.06805070489645004, -0.10604645311832428, -0.18311317265033722, -0.14392335712909698, 0.01037910021841526, 0.11646021157503128, 0.006661125458776951, -0.029560428112745285, -0.051257528364658356, 0.13890574872493744], [-0.22768115997314453, -0.06616546958684921, 0.09128913283348083, 0.04383084177970886, -0.06266997754573822, 0.03567676246166229, 0.010355743579566479, -0.17390483617782593, -0.0872228667140007, -0.13695397973060608, -0.03699025884270668, -0.11569799482822418, 0.006490194704383612, -0.2397179901599884, 0.055227480828762054, 0.11703797429800034, -0.008456666953861713, -0.3090256154537201, -0.08484983444213867, 0.18668821454048157], [-0.10638683289289474, 0.32121676206588745, -0.14291170239448547, -0.11695583909749985, -0.11504925042390823, 0.28429800271987915, -0.06807859987020493, 0.07928285002708435, 0.3386790156364441, -0.18303485214710236, 0.019096020609140396, -0.10949013382196426, -0.024256519973278046, -0.004469631239771843, -0.45268088579177856, 0.4552525579929352, 0.09460995346307755, 0.02768494188785553, -0.27222564816474915, -0.03243325650691986], [-0.031191319227218628, -0.09592072665691376, 0.08293089270591736, 0.04752485826611519, -0.04799532890319824, 0.1964622139930725, -0.0687539130449295, -0.12879283726215363, -0.12569202482700348, 0.017490969970822334, 0.12520992755889893, 0.04824570566415787, -0.14644743502140045, 0.007859863340854645, 0.01797071099281311, 0.05376030132174492, -0.06213807687163353, 0.13634182512760162, 0.01823071390390396, -0.07135851681232452], [0.21231433749198914, -0.008859454654157162, -0.1778932511806488, 0.31973639130592346, -0.15066106617450714, 0.3179405629634857, -0.02562130056321621, 0.2508423924446106, -0.26160556077957153, -0.20250222086906433, -0.04960525408387184, -0.19979369640350342, -0.020814325660467148, 0.845267653465271, 0.05558370053768158, 0.28377336263656616, 0.016575099900364876, -0.04724789410829544, -0.02889709174633026, -0.046330053359270096], [0.2586831748485565, 0.2139836996793747, -0.17400091886520386, -0.03677698224782944, 0.12407325208187103, -0.22010654211044312, 0.0721035823225975, 0.18840822577476501, 0.1432388424873352, -0.06297456473112106, -0.2651006579399109, -0.03058469109237194, 0.12990622222423553, 0.23325708508491516, -0.1095355674624443, -0.07319838553667068, 0.05115428939461708, 0.14356455206871033, -0.359336256980896, -0.11552660167217255], [0.06857901811599731, -0.20947325229644775, 0.4068472683429718, -0.0825117751955986, -0.014536095783114433, -0.17439238727092743, 0.005575955845415592, -0.021565767005085945, 0.032555993646383286, -0.42741724848747253, 0.05947613716125488, 0.07773351669311523, -0.006603329908102751, 0.1643548607826233, -0.048552822321653366, 0.13396893441677094, 0.08381959795951843, 0.3328743577003479, -0.1514209508895874, -0.024871621280908585], [-0.5612108111381531, 0.028725264593958855, -0.1541990488767624, 0.18037311732769012, -0.24270601570606232, 0.08677618950605392, 0.02211274579167366, -0.12030120193958282, -0.17860892415046692, 0.1541195660829544, 0.032829321920871735, -0.3590523898601532, 0.2172410786151886, -0.17528079450130463, 0.3132847249507904, -0.21417205035686493, -0.06851457059383392, -0.049931153655052185, 0.03003401681780815, 0.18620337545871735], [-0.026302149519324303, -0.15558867156505585, 0.032650332897901535, -0.0974358394742012, 0.2709617614746094, 0.48969438672065735, 0.133377343416214, -0.10808465629816055, -0.006551338359713554, -0.050420235842466354, 0.039741311222314835, 0.17621900141239166, 0.15450924634933472, 0.08216860145330429, -0.29915353655815125, -0.16529090702533722, 0.16301248967647552, 0.11888416856527328, 0.1344984471797943, -0.0074804010801017284], [-0.18136325478553772, -0.22991591691970825, -0.2625545859336853, 0.18873800337314606, 0.10359003394842148, 0.31402066349983215, 0.1344500482082367, 0.04104798659682274, 0.021838724613189697, 0.13625609874725342, -0.09621325135231018, 0.06027272343635559, -0.07139483094215393, -0.07031577825546265, -0.26129427552223206, 0.00922409351915121, 0.03292779251933098, 0.15229538083076477, 0.09582459926605225, -0.01566292718052864], [-0.4051598608493805, -0.054507777094841, 0.11715637892484665, 0.030946388840675354, 0.20907916128635406, 0.08773625642061234, 0.2353065013885498, 0.0032002837397158146, 0.016992103308439255, 0.058731455355882645, -0.11862830072641373, 0.055270902812480927, 0.16646048426628113, -0.21840757131576538, -0.17101195454597473, -0.10586720705032349, 0.2410319745540619, -0.0021344691049307585, 0.055828727781772614, 0.12577545642852783], [0.06622631847858429, 0.11609632521867752, -0.1580125093460083, 0.017878836020827293, 0.056164857000112534, 0.31280267238616943, 0.11334143579006195, 0.38270819187164307, -0.2537757456302643, 0.2551569938659668, -0.3534383177757263, -0.330538809299469, 0.0008841342059895396, 0.053092945367097855, -0.06579473614692688, 0.06944800168275833, 0.36910343170166016, -0.008817747235298157, -0.2362583875656128, 0.0493624247610569], [0.10121461749076843, 0.029138639569282532, -0.024579107761383057, -0.24824650585651398, 0.13012784719467163, -0.2500995397567749, 0.08488919585943222, 0.07922796905040741, 0.19831706583499908, -0.23478883504867554, -0.13098561763763428, 0.09136597812175751, -0.08221887052059174, 0.3075379431247711, -0.29515329003334045, 0.12483584135770798, 0.12167009711265564, -0.1121135875582695, -0.2240619957447052, 0.11200305074453354], [-0.03672102466225624, 0.07077441364526749, -0.37824857234954834, 0.24091410636901855, 0.07721871882677078, 0.36986324191093445, -0.08861038833856583, -0.07370646297931671, 0.041399966925382614, 0.29564088582992554, -0.14109550416469574, -0.08903874456882477, -0.0841134563088417, 0.012016247026622295, 0.09636653959751129, -0.051666975021362305, -0.14734014868736267, -0.0002011423057410866, -0.17450501024723053, 0.00708855502307415], [-0.0709051638841629, -0.08792151510715485, 0.3216499984264374, -0.15586629509925842, -0.07823537290096283, -0.1749786138534546, -0.22871795296669006, -0.1159142330288887, 0.1325821727514267, 0.0077148848213255405, 0.3308870494365692, -0.02579500339925289, 0.04121926426887512, -0.09881766885519028, 0.07666782289743423, 0.009341820143163204, 0.03616934269666672, 0.2624783515930176, 0.15586905181407928, 0.022327477112412453], [0.18783432245254517, -0.12752853333950043, 0.30201083421707153, 0.21773992478847504, -0.00606680940836668, 0.2086518257856369, 0.20516140758991241, -0.024298418313264847, 0.013251036405563354, -0.06677451729774475, 0.13822610676288605, 0.15716804563999176, -0.06315850466489792, 0.6531849503517151, 0.02796301245689392, -0.008604539558291435, -0.04870527610182762, 0.15226112306118011, -0.1110742911696434, 0.008439847268164158], [0.5485123991966248, 0.511959433555603, 0.2199852019548416, -0.7560005187988281, -0.0020639582071453333, 0.027518438175320625, -0.3909933269023895, -0.06234939023852348, 0.34171444177627563, -0.1575753539800644, -0.22688335180282593, 0.6887080669403076, 0.19043375551700592, -0.23614907264709473, -0.22585350275039673, -0.5040993094444275, -0.6957049369812012, 0.6396569609642029, 0.09948449581861496, -0.6120852828025818], [-0.12095063179731369, -0.007567970082163811, -0.03344866633415222, -0.0032880075741559267, -0.16699735820293427, 0.267801433801651, -0.17065462470054626, 0.626095175743103, -0.7055706977844238, 0.037874720990657806, -0.0539645217359066, -0.6650057435035706, -0.0009393726941198111, 0.2889663279056549, 0.12912510335445404, 0.2485145479440689, 0.22219277918338776, 0.23120379447937012, 0.14655271172523499, -0.20298510789871216], [-0.11466705054044724, -0.169031023979187, -0.035482488572597504, 0.21773117780685425, -0.12520620226860046, -0.21875318884849548, -0.12666048109531403, -0.16172516345977783, 0.04963567852973938, -0.06647101789712906, -0.1031043753027916, -0.040942322462797165, 0.08775043487548828, -0.1873093843460083, 0.12534843385219574, 0.2153874933719635, -0.22503916919231415, -0.007172083482146263, -0.3157542943954468, 0.0895557701587677], [-0.19085825979709625, -0.08607366681098938, 0.03459968790411949, -0.14668752253055573, 0.15753492712974548, -0.4015042781829834, 0.09312477707862854, -0.15838000178337097, -0.30722376704216003, 0.12893666326999664, 0.11011558771133423, -0.16389073431491852, -0.06319920718669891, -0.351093053817749, 0.19897803664207458, 0.2743644714355469, 0.06672237813472748, -0.12803927063941956, -0.1390937715768814, 0.10161300748586655], [-0.4866774082183838, 0.07519610226154327, 0.06304700672626495, -0.14101818203926086, 0.2595504820346832, 0.1887545883655548, 0.19018937647342682, 0.24181470274925232, -0.03148384392261505, -0.033926792442798615, 0.04680541157722473, -0.10298731923103333, -0.04914121702313423, -0.2540040910243988, -0.11079872399568558, 0.10477954149246216, 0.1393449902534485, -0.20124152302742004, 0.23982608318328857, 0.04896712303161621], [0.2503598630428314, -0.012161573395133018, 0.031154200434684753, 0.31627193093299866, 0.020293639972805977, 0.32392510771751404, 0.08027748018503189, 0.477461576461792, -0.19943074882030487, 0.09917010366916656, -0.055540844798088074, 0.03031671978533268, -0.07102073729038239, 0.3877456486225128, -0.2610352337360382, -0.23513385653495789, 0.19376462697982788, 0.26487746834754944, -0.14188694953918457, -0.16961655020713806], [0.0527014285326004, -0.1140853613615036, -0.011570625938475132, 0.1326090693473816, 0.2703517973423004, 0.1031133234500885, -0.08493238687515259, -0.01589345932006836, -0.11527051031589508, -0.10721352696418762, 0.03590858727693558, -0.17097608745098114, -0.044989097863435745, 0.0977831482887268, -0.36551353335380554, -0.07594259828329086, 0.02705405466258526, -0.21026238799095154, 0.43507468700408936, -0.04251027852296829], [-0.36715295910835266, -0.08982793241739273, 0.07594012469053268, 0.09516697376966476, -0.19258128106594086, -0.11935418099164963, 0.05260131508111954, -0.2681882679462433, 0.11936542391777039, -0.13172811269760132, -0.041124776005744934, -0.11616358906030655, 0.12470854818820953, -0.5904156565666199, 0.06711581349372864, -0.066233329474926, 0.1019025519490242, -0.1893506795167923, -0.04312858730554581, 0.4670264720916748], [0.05667645484209061, 0.1101561114192009, -0.06586115807294846, -0.03613726794719696, -0.04507949948310852, 0.061331432312726974, -0.012058736756443977, 0.09526253491640091, -0.003784329630434513, -0.03978538513183594, -0.0750574842095375, -0.061325833201408386, 0.01960054412484169, 0.030765585601329803, -0.05432499945163727, 0.042211271822452545, 0.004747654777020216, 0.00628284364938736, 0.0071427300572395325, -0.03446028009057045], [0.08911596983671188, 0.07124168425798416, -0.02269045077264309, 0.06274291127920151, -0.04119989648461342, -0.056299399584531784, -0.07833453267812729, 0.051374804228544235, -0.04942198470234871, 0.029384642839431763, -0.057476431131362915, -0.051015742123126984, 0.07713757455348969, 0.056711312383413315, 0.08435254544019699, 0.09931229799985886, -0.0790923535823822, 0.05894454941153526, -0.1697101593017578, -0.008080605417490005], [-0.04454511031508446, -0.017255540937185287, -0.11631501466035843, 0.03695610538125038, -0.010472760535776615, 0.18150827288627625, 0.01300086360424757, -0.09050767123699188, 0.035766057670116425, -0.12904775142669678, -0.2401922345161438, -0.058363962918519974, -0.09449318051338196, -0.07275786995887756, -0.03261404484510422, 0.02912789024412632, -0.011464872397482395, -0.01993877999484539, 0.14091582596302032, 0.12879106402397156], [0.10918350517749786, 0.09223693609237671, 0.010824327357113361, -0.19981785118579865, -0.013437931425869465, 0.06511299312114716, -0.030512653291225433, 0.19641640782356262, 0.00900501199066639, -0.0759354755282402, -0.03870972618460655, -0.03343185782432556, 0.07700792700052261, 0.15000508725643158, -0.0992429181933403, 0.04968136548995972, 0.10409752279520035, -0.0004967294516973197, 0.09733426570892334, -0.13969306647777557], [-0.011473551392555237, -0.0016888899262994528, -0.12598183751106262, -0.05803495645523071, 0.18875834345817566, 0.04977589473128319, -0.04154491797089577, -0.0226490069180727, 0.03165222704410553, -0.04954973980784416, -0.019697533920407295, -0.11808750778436661, 0.01864842139184475, -0.01112894807010889, -0.16723553836345673, -0.032672859728336334, 0.09835554659366608, -0.10342059284448624, 0.15155786275863647, 0.005395954474806786], [-0.033982016146183014, 0.10999727249145508, -0.16620145738124847, -0.1356280893087387, 0.08564332127571106, 0.19841884076595306, 0.044386688619852066, 0.041779570281505585, 0.13745896518230438, -0.2009207159280777, -0.12065132707357407, -0.026637503877282143, 0.08767346292734146, -0.036356303840875626, -0.2163791060447693, 0.051810335367918015, 0.0784037709236145, -0.010324382223188877, -0.10496436059474945, -0.07477542012929916], [-0.04285399243235588, 0.08280739188194275, 0.02211332879960537, 0.02200314588844776, -0.05132637172937393, 0.028241433203220367, -0.022287368774414062, 0.003970409277826548, 0.026202505454421043, -0.07889879494905472, -0.004989305976778269, -0.10010559856891632, -0.07000760734081268, -0.042343318462371826, -0.003551310859620571, 0.07273653149604797, -0.012328547425568104, -0.06828035414218903, -0.026790518313646317, 0.06690599769353867], [0.0254843607544899, 0.01548742689192295, -0.10415929555892944, 0.0419490672647953, 0.008300584740936756, 0.22385229170322418, 0.08386943489313126, 0.16928650438785553, 0.04050109162926674, 0.03670294210314751, -0.10955019295215607, 0.01103711687028408, -0.12316863983869553, 0.01665572263300419, -0.10088219493627548, 0.01944039948284626, 0.11723873019218445, -0.002351104747503996, 0.06556375324726105, -0.007008541841059923], [0.08724731206893921, 0.05779949575662613, 0.05689901113510132, -0.1276378184556961, -0.018719196319580078, -0.017591148614883423, -0.025787072256207466, 0.03474917635321617, 0.07523863017559052, -0.10877819359302521, 0.009703805670142174, -0.021304847672581673, -0.03880703076720238, 0.08873684704303741, -0.06352850794792175, 0.016643084585666656, 0.05751096457242966, -0.00016968981071840972, 0.05316745117306709, -0.01420565601438284], [-0.02552255615592003, 0.062085844576358795, 0.2150597721338272, -0.09769593179225922, -0.07676879316568375, -0.09553024172782898, -0.06043509766459465, 0.013174631632864475, 0.06200483441352844, -0.22317562997341156, 0.049352068454027176, -0.015476067550480366, 0.05248839780688286, 0.03097630850970745, 0.03994954004883766, 0.131571963429451, 0.030419785529375076, 0.07428576797246933, -0.12386695295572281, -0.016517633572220802], [0.04437502101063728, -0.00999379251152277, -0.276297926902771, 0.0701909214258194, -0.026793647557497025, 0.15655836462974548, 0.05012059211730957, 0.02562640607357025, 0.045759331434965134, 0.047730930149555206, -0.296848863363266, -0.06048586592078209, -0.05838961899280548, -0.017327159643173218, -0.05421119183301926, -0.07213887572288513, 0.004067038651555777, -0.1480109542608261, 0.14930523931980133, 0.08523432165384293], [-0.095055490732193, 0.05867920070886612, -0.036904796957969666, -0.007566092535853386, -0.01739385537803173, 0.10345827788114548, 0.03301101177930832, 0.015761511400341988, 0.0870201364159584, -0.023520098999142647, -0.02143581211566925, -0.018131671473383904, 0.03296627104282379, -0.10020925104618073, -0.06502799689769745, 0.011201947927474976, 0.020628906786441803, -0.003913609776645899, -0.03854632005095482, 0.06149372085928917], [0.029242105782032013, -0.014718768186867237, 0.08799388259649277, 0.03557802736759186, -0.005502668209373951, 0.0730176642537117, 0.009521824307739735, 0.1894637644290924, 0.16341423988342285, -0.14487063884735107, 0.0029540318064391613, 0.005910288542509079, 0.011301230639219284, 0.09725826978683472, -0.047252386808395386, -0.046511709690093994, -0.0058289445005357265, 0.005166460759937763, 0.049196768552064896, 0.07999765127897263], [-0.010903402231633663, 0.08751638978719711, -0.07590009272098541, -0.039914730936288834, -0.03787738457322121, 0.08602899312973022, 0.023786235600709915, 0.0474715493619442, 0.08123514801263809, -0.05159939080476761, -0.08278567343950272, -0.031329669058322906, -0.002925878157839179, -0.02620070055127144, -0.09490620344877243, 0.023952998220920563, 0.03900660574436188, -0.011759896762669086, 0.05024680495262146, -0.012114707380533218], [0.02829029969871044, 0.013788117095828056, -0.18213650584220886, -0.08515866845846176, 0.24914206564426422, 0.20087362825870514, 0.07282549142837524, -0.019944777712225914, 0.08543150126934052, -0.09143131226301193, -0.09719299525022507, -0.00722575793042779, 0.06873436272144318, 0.02682102657854557, -0.15538640320301056, -0.03837740793824196, 0.2055886685848236, -0.001652178238146007, 0.2020086795091629, -0.011288093402981758], [-0.02959424816071987, 0.12119212001562119, 0.02606227621436119, -0.11837142705917358, -0.01694442890584469, -0.11757051199674606, -0.028930995613336563, 0.07577435672283173, 0.08595672249794006, -0.118535116314888, -0.021770650520920753, -0.13427293300628662, -0.0024104034528136253, 0.002629216993227601, -0.029910914599895477, 0.1265665888786316, 0.05146673694252968, -0.062092144042253494, -0.1978415697813034, 0.05205129459500313], [-0.0495314784348011, 0.029511692002415657, -0.11543794721364975, -0.0051965718157589436, -0.04726872593164444, 0.05984468013048172, -0.02975696697831154, -0.02365061268210411, 0.09923972934484482, -0.008820862509310246, -0.09037314355373383, -0.10185280442237854, -0.06865113973617554, -0.0943206176161766, 0.0006591966957785189, 0.038327209651470184, -0.024017836898565292, -0.015112175606191158, -0.03426048159599304, 0.0936584323644638], [-0.08267097920179367, 0.08187498152256012, 0.010419298894703388, -0.009463168680667877, -0.031780268996953964, -0.08412756025791168, -0.05043637752532959, -0.0500151664018631, -0.09874827414751053, -0.11834544688463211, -0.07845627516508102, -0.07814041525125504, 0.1504216343164444, -0.12279936671257019, 0.018792416900396347, 0.036174263805150986, -0.1307581514120102, -0.18730299174785614, -0.09458108991384506, 0.09732864052057266], [-0.038401708006858826, 0.15148039162158966, 0.05206534266471863, 0.0072844792157411575, 0.09944918006658554, -0.08892020583152771, -0.008665943518280983, -0.08678171038627625, 0.07427918910980225, -0.006555323489010334, 0.039657432585954666, 0.009019185788929462, 0.06249496340751648, -0.04122001677751541, -0.09638258069753647, 0.14835511147975922, -0.014351855963468552, 0.05390305817127228, -0.21942220628261566, 0.004001581110060215], [-0.014954231679439545, -0.00782445352524519, 0.03572232276201248, 0.010064547881484032, -0.04137502238154411, 0.09787502139806747, -0.028119023889303207, -0.10904879122972488, -0.053222715854644775, -0.032882820814847946, 0.04716137796640396, 0.02471385896205902, 0.04390891641378403, -0.017402425408363342, 0.0040799998678267, 0.028937743976712227, -0.06327908486127853, 0.029066603630781174, 0.008799945004284382, -0.07436929643154144]], "rec.bias_ih_l0": [0.3110889494419098, -0.00888417474925518, -0.38668519258499146, 0.08891366422176361, -0.09503483772277832, -0.07059027999639511, 0.034161828458309174, 0.25523310899734497, 0.1869366317987442, -0.036178793758153915, -0.023708626627922058, 0.37763503193855286, 0.6702391505241394, 0.44313159584999084, -0.2431512176990509, 0.01684534177184105, 0.21193063259124756, 0.0028945065569132566, -0.4102463722229004, 0.20210880041122437, 0.25418248772621155, 0.27407824993133545, 0.8632112145423889, 0.26766642928123474, -0.027881674468517303, 0.5021091103553772, 0.2581641972064972, 0.3711111843585968, 0.21382251381874084, 0.2681000232696533, 0.24384258687496185, 0.13663385808467865, 0.46616655588150024, 0.13303184509277344, 0.27685222029685974, 0.052103038877248764, 0.16803735494613647, 0.3180612325668335, 0.9065354466438293, 0.2280506044626236, -0.00012862034782301635, 0.052175670862197876, 0.039754193276166916, -0.03093285672366619, -0.21661894023418427, 0.09606188535690308, 0.005403886549174786, -0.05936853960156441, -0.0352998785674572, -0.04829009249806404, 0.04133462533354759, -0.10366343706846237, 0.05085727944970131, 0.0815434530377388, 0.021763525903224945, 0.10867823660373688, -0.13141395151615143, -0.06943466514348984, -0.08848211914300919, -0.04527030140161514, 0.41506272554397583, 0.003812800394371152, 0.18164341151714325, 0.24371959269046783, -0.08303139358758926, 0.05313783138990402, 0.09824039787054062, 0.2905810475349426, 0.3033859431743622, 0.1985408216714859, 0.19091716408729553, 0.4148772358894348, 0.2682526111602783, 0.5456936359405518, -0.06997428089380264, -0.01686669886112213, 0.2834245264530182, 0.150650754570961, 0.1267383098602295, 0.2108658403158188], "rec.bias_hh_l0": [0.29941508173942566, 0.01156643033027649, -0.3287292420864105, 0.08503569662570953, -0.015670208260416985, 0.12736351788043976, 0.10350468754768372, 0.22881965339183807, 0.19969186186790466, -0.10035861283540726, 0.03110320121049881, 0.3394726514816284, 0.6692455410957336, 0.45879295468330383, -0.2686445116996765, 0.03945222496986389, 0.19425655901432037, 0.13551968336105347, -0.44015297293663025, 0.20349986851215363, 0.2271052449941635, 0.17383983731269836, 0.7692620754241943, 0.27256521582603455, 0.153123676776886, 0.32336199283599854, 0.1833072453737259, 0.37123575806617737, 0.2128835767507553, 0.19413834810256958, 0.2718079090118408, 0.14404714107513428, 0.39958852529525757, 0.13475392758846283, 0.36054787039756775, 0.060502078384160995, 0.15697038173675537, 0.21341727674007416, 1.033252477645874, 0.2123737782239914, -0.13768945634365082, 0.042897891253232956, -0.019790370017290115, 0.06981731951236725, -0.14499740302562714, 0.03337925300002098, -0.01644541695713997, -0.017013179138302803, 0.11682933568954468, -0.05193713679909706, -0.004526819568127394, 0.0459931343793869, -0.08609404414892197, -0.1759977489709854, -0.10250987112522125, 0.09759849309921265, 0.0867195799946785, 0.06223783642053604, 0.08833418041467667, 0.0672927126288414, 0.4163680970668793, 0.07825327664613724, 0.08947160094976425, 0.2434006929397583, -0.07957207411527634, 0.3129361569881439, 0.09112359583377838, 0.3746032416820526, 0.30881941318511963, 0.23204849660396576, 0.18702523410320282, 0.39319172501564026, 0.1498803198337555, 0.5467718839645386, -0.09610272198915482, 0.13283467292785645, 0.2829544246196747, 0.16013400256633759, 0.27337953448295593, 0.259869247674942], "lin.weight": [[-0.07891632616519928, 0.07958158850669861, 0.10639164596796036, 0.0030250288546085358, 0.2513526976108551, -0.0692673772573471, 0.15658743679523468, -0.05551495775580406, 0.2907266914844513, -0.07269653677940369, -0.08689279109239578, 0.46331503987312317, 1.1582285165786743, -0.08613009005784988, -0.22314666211605072, -0.32895004749298096, -0.18184009194374084, 0.010762394405901432, 0.3092716634273529, 0.5830214619636536]], "lin.bias": [0.1081734150648117]}}