{"model_data": {"model": "SimpleRNN", "input_size": 1, "skip": 1, "output_size": 1, "unit_type": "LSTM", "num_layers": 1, "hidden_size": 20, "bias_fl": true}, "state_dict": {"rec.weight_ih_l0": [[0.007456331513822079], [-0.006495063658803701], [-0.019297437742352486], [-0.031729139387607574], [0.02944258414208889], [-0.019746774807572365], [-0.05864289402961731], [-0.013728144578635693], [0.0758562907576561], [0.029985133558511734], [-0.12946535646915436], [-0.08643083274364471], [-0.005960993003100157], [0.01037170086055994], [-0.07029157876968384], [0.001520081190392375], [-0.029954396188259125], [-0.04669788479804993], [0.31053704023361206], [0.0008344324305653572], [0.12691086530685425], [-0.030945535749197006], [0.03993707150220871], [-0.12106761336326599], [0.012718790210783482], [-0.07234836369752884], [-0.08322998881340027], [9.445218893233687e-05], [0.12263456732034683], [0.07877320796251297], [-0.12521789968013763], [-0.09876148402690887], [0.029276885092258453], [0.027022069320082664], [-0.10000850260257721], [-0.07042359560728073], [-0.12054405361413956], [-0.002238164423033595], [0.14816275238990784], [-0.032740265130996704], [-1.3322588205337524], [-0.20726117491722107], [0.027665670961141586], [0.05089502036571503], [1.1284339427947998], [-0.06781480461359024], [-0.8397188782691956], [-0.7619014978408813], [0.08876704424619675], [0.4867013990879059], [-0.00032559764804318547], [-0.32186850905418396], [0.48049119114875793], [-1.4591981172561646], [-0.3493953347206116], [0.46804043650627136], [-0.25513002276420593], [0.13693653047084808], [0.10851866006851196], [0.028546571731567383], [-0.012794798240065575], [-0.034744858741760254], [0.09844142198562622], [-0.19319096207618713], [0.005859618075191975], [-0.1084560826420784], [-0.08127535879611969], [0.036403778940439224], [0.08097831159830093], [0.11714538186788559], [-0.17472925782203674], [-0.3884635269641876], [-0.1405138224363327], [0.002490441082045436], [-0.0803205817937851], [-0.01042232196778059], [-0.011296392418444157], [-0.04790891706943512], [0.4331231415271759], [-0.010777455754578114]], "rec.weight_hh_l0": [[-0.10502263158559799, 0.019611841067671776, -0.34049805998802185, 0.11619468778371811, 0.11100414395332336, 0.17603006958961487, -0.014009750448167324, 0.09786864370107651, 0.09093534201383591, 0.06039078161120415, 0.39801499247550964, 0.4456336498260498, -0.027548763900995255, 0.08793892711400986, -0.22330550849437714, 0.03827469050884247, 0.14847053587436676, 0.00836927816271782, -0.46577224135398865, 0.06237023323774338], [0.1476193517446518, 0.11196073889732361, 0.09219183772802353, -0.022902123630046844, 0.07496539503335953, -0.15392592549324036, -0.029035883024334908, 0.07827772200107574, -0.0818377211689949, -0.08434691280126572, -0.154358372092247, -0.26841866970062256, -0.07012571394443512, 0.010373614728450775, 0.031970083713531494, 0.03236069530248642, -0.29293471574783325, 0.021978484466671944, 0.3791812062263489, -0.2554267942905426], [0.1406412273645401, 0.026812955737113953, -0.20067059993743896, -0.13366159796714783, -0.044634416699409485, -0.1878066509962082, -0.2535025179386139, 0.14580170810222626, -0.09647314250469208, -0.022713137790560722, 0.03267170861363411, -0.29081982374191284, 0.027621500194072723, -0.06849729269742966, -0.1516209989786148, 0.00012625365343410522, -0.2848875820636749, 0.1079832911491394, 0.1278589367866516, -0.31317058205604553], [0.0158343818038702, -0.02937944605946541, -0.0344904288649559, 0.06903015077114105, -0.04879452660679817, -0.0014598813140764832, -0.09411616623401642, 0.06875192373991013, 0.06200506538152695, -0.0160398930311203, -0.008605278097093105, 0.04419402778148651, 0.011382320895791054, 0.06320642679929733, -0.009931571781635284, 0.023616628721356392, -0.052307359874248505, 0.028930721804499626, -0.03423430025577545, 0.01807522401213646], [-0.1560681313276291, -0.04356158897280693, -0.19495980441570282, 0.11384929716587067, 0.0709838941693306, 0.2174193561077118, 0.02873525768518448, -0.010710296221077442, 0.2122136801481247, 0.030689552426338196, 0.21345864236354828, 0.4345530569553375, -0.11496884375810623, 0.049821000546216965, -0.08472102135419846, 0.029912376776337624, 0.3321702182292938, -0.05076887086033821, -0.280284583568573, 0.2484608143568039], [0.05301786586642265, 0.019055437296628952, -0.15257768332958221, 0.022812258452177048, -0.0904587060213089, 0.16068586707115173, -0.01811099983751774, 0.1258205622434616, -0.00288021145388484, 0.06531962752342224, -0.0006574763101525605, -0.09633637219667435, -0.006286768242716789, -0.0665048286318779, -0.05658918246626854, 0.22039029002189636, 0.03325358405709267, 0.008552285842597485, -0.11194144934415817, -0.09668062627315521], [-0.004882964305579662, 0.011035189032554626, -0.09360101819038391, 0.13914772868156433, 0.06167187541723251, 0.22326187789440155, 0.14079450070858002, 0.0843132734298706, 0.08577534556388855, 0.08249407261610031, 0.1361548900604248, 0.24308441579341888, -0.12245380133390427, -0.015360796824097633, -0.017247244715690613, 0.05944012105464935, 0.15172399580478668, -0.00574912317097187, -0.20075349509716034, 0.227051243185997], [-0.13668179512023926, 0.08108901977539062, 0.02246183156967163, 0.14880622923374176, -0.0013427645899355412, 0.21983927488327026, 0.06856285780668259, -0.48289117217063904, 0.03886217251420021, 0.05398884788155556, 0.08951591700315475, 0.09277544170618057, -0.30113306641578674, 0.10940961539745331, 0.01375016663223505, 0.04794127866625786, 0.14084266126155853, 0.051467351615428925, -0.2160758674144745, 0.2060115933418274], [-0.08947856724262238, -0.05795082449913025, -0.09721218794584274, -0.008610439486801624, 0.1441078931093216, 0.021784452721476555, -0.12334715574979782, -0.13352999091148376, 0.05815454199910164, 0.03906545415520668, 0.05133737251162529, 0.036952413618564606, 0.02712932974100113, 0.05710996687412262, -0.04987258091568947, 0.005591017194092274, 0.04656244441866875, -0.046611983329057693, 0.015347098000347614, -0.009005588479340076], [-0.040580060333013535, 0.020579829812049866, 0.00172647915314883, -0.06863082945346832, 0.043614666908979416, -0.021444860845804214, -0.0791306123137474, -0.017129704356193542, -0.08164992928504944, 0.11571688950061798, -0.10842400044202805, -0.09221488982439041, 0.2717422842979431, 0.06225339695811272, -0.04942691698670387, 0.04990669712424278, 0.06183154135942459, 0.028975695371627808, -0.04363061115145683, -0.3358084261417389], [0.07168642431497574, 0.03933047130703926, -0.23407843708992004, -0.1744501143693924, 0.012969388626515865, -0.20580781996250153, 0.019498931244015694, 0.12370751798152924, -0.014169505797326565, -0.27867335081100464, 0.08008348941802979, -0.12377960979938507, -0.044133055955171585, 0.02075367234647274, -0.10419867187738419, -0.10386030375957489, -0.1537286341190338, 0.15741319954395294, 0.1552838832139969, -0.31953099370002747], [0.15934181213378906, 0.02934294380247593, -0.16894102096557617, -0.16612927615642548, -0.17698830366134644, -0.4753459692001343, -0.08230910450220108, 0.31282737851142883, 0.12117275595664978, -0.24308684468269348, -0.18135295808315277, -0.2805006504058838, -0.008474461734294891, -0.06827665120363235, -0.01750093512237072, -0.12736113369464874, -0.24963060021400452, -0.014362840913236141, 0.3382549285888672, -0.3004383444786072], [-0.15040133893489838, 0.03206945210695267, 0.06684546917676926, 0.19688758254051208, -0.04841307923197746, 0.18714217841625214, 0.061340756714344025, -0.0483429878950119, 0.13074947893619537, 0.1593509465456009, 0.017077945172786713, 0.09642644971609116, -0.045582327991724014, 0.014457449316978455, 0.015514385886490345, -0.05767425149679184, 0.2675861716270447, -0.009560876525938511, -0.03711167350411415, 0.33496806025505066], [-0.13063308596611023, 0.007471034303307533, -0.04376060515642166, 0.15208488702774048, 0.051747508347034454, 0.22640126943588257, 0.1113457977771759, -0.010748360306024551, 0.09056040644645691, 0.08447952568531036, 0.13256198167800903, 0.25900477170944214, -0.04013892263174057, 0.01582462340593338, -0.09383731335401535, 0.0010085818357765675, 0.192872554063797, -0.034922197461128235, -0.179437056183815, 0.2969328761100769], [0.15040916204452515, -0.058495525270700455, -0.07936656475067139, -0.0254684966057539, -0.04594333469867706, 0.008524051867425442, 0.12287447601556778, 0.07302791625261307, 0.07548436522483826, 0.015205614268779755, 0.18789328634738922, 0.07944116741418839, 0.11397792398929596, -0.15279127657413483, 0.06515457481145859, -0.00991864688694477, 0.020762871950864792, 0.0255745742470026, -0.029126761481165886, -0.07394161075353622], [0.01268235594034195, 0.067720927298069, -0.2864120602607727, -0.09150324016809464, 0.06288423389196396, -0.25835251808166504, -0.20092643797397614, 0.09220906347036362, 0.07339442521333694, -0.24080772697925568, 0.060894593596458435, 0.004274072125554085, 0.14180555939674377, 0.1542028933763504, 0.07314648479223251, -0.09721065312623978, -0.09615866094827652, 0.19129028916358948, -0.12093017250299454, -0.15175577998161316], [-0.03368241339921951, 0.02415919303894043, -0.10776609927415848, 0.08808255195617676, 0.07289093732833862, 0.081453837454319, 0.002038859762251377, -0.10207988321781158, 0.0667828917503357, 0.08020506799221039, 0.07509229332208633, 0.03970544785261154, 0.2781660258769989, 0.04476068541407585, -0.01888638734817505, -0.1918865591287613, 0.26427161693573, -0.058370016515254974, 0.01621357910335064, 0.17939332127571106], [0.22606022655963898, -0.1339484304189682, -0.3167952597141266, -0.4538502097129822, -0.16653038561344147, -0.42333081364631653, -0.08956257998943329, 0.10175612568855286, 0.07194004207849503, -0.3878478705883026, -0.18709301948547363, -0.04957674816250801, -0.004853770136833191, -0.09752384573221207, -0.1892470270395279, -0.3249928057193756, -0.4679539203643799, 0.0907600000500679, 0.2305113971233368, -0.7340978384017944], [0.2573765218257904, -0.13363274931907654, -0.32338985800743103, -0.06487003713846207, 0.1546373814344406, -0.25432100892066956, -0.5749123096466064, -0.009777680970728397, -0.17301145195960999, -0.11092691868543625, -0.030299808830022812, -0.2067679762840271, -0.019450297579169273, 0.09054002165794373, 0.18511474132537842, -0.09559233486652374, -0.4968441128730774, 0.21974346041679382, 0.14023029804229736, -0.3286690413951874], [-0.030256154015660286, 0.07447223365306854, 0.037221509963274, 0.09179966896772385, -0.04958154633641243, 0.030782753601670265, -0.01640823855996132, 0.029506325721740723, 0.05855311080813408, 0.021517809480428696, 0.09819994121789932, 0.03283136710524559, 0.0390353798866272, -0.01357373408973217, -0.04047933220863342, -0.0553140752017498, 0.06293542683124542, -0.018370727077126503, -0.0034068396780639887, 0.18612544238567352], [-0.10853874683380127, -0.02501399628818035, -0.22451752424240112, 0.1470944881439209, 0.0629023090004921, 0.19538424909114838, -0.004771774169057608, 0.008385165594518185, 0.07734788954257965, 0.052274685353040695, 0.18601788580417633, 0.257848858833313, -0.14082561433315277, -0.040097735822200775, -0.06486158072948456, 0.05068732798099518, 0.24044717848300934, 0.048444535583257675, -0.40054500102996826, 0.0646185427904129], [-0.014638996683061123, 0.16646094620227814, 0.3544522225856781, 0.2929287552833557, 0.12086896598339081, 0.12635226547718048, 0.12796564400196075, -0.023096958175301552, 0.09553951770067215, 0.17818783223628998, -0.2655966281890869, -0.14326001703739166, 0.06419109553098679, 0.09730937331914902, 0.09411317855119705, -0.03237849473953247, 0.02698187530040741, -0.02412688173353672, 0.28041747212409973, 0.22694282233715057], [-0.22721247375011444, 0.013023520819842815, 0.31848782300949097, 0.5468802452087402, 0.09514734148979187, 0.3419035077095032, 0.1558748483657837, -0.25529441237449646, 0.26137325167655945, 0.4255496859550476, 0.04144876450300217, 0.059900641441345215, -0.03535125404596329, -0.06170022860169411, 0.17789866030216217, 0.1548600196838379, 0.2599930763244629, 0.12827834486961365, -0.06028454005718231, 0.45208775997161865], [0.0019202284747734666, 0.017158444970846176, -0.0045082904398441315, 0.26530522108078003, -0.16507646441459656, 0.20755785703659058, 0.0035094551276415586, 0.15019476413726807, 0.0950794443488121, 0.011099632829427719, -0.08967407047748566, 0.03745253011584282, -0.1639554798603058, -0.01675064116716385, 0.09594335407018661, -0.04480831325054169, 0.04811832681298256, 0.13221898674964905, -0.09968212246894836, 0.19245627522468567], [-0.10880862921476364, -0.055276140570640564, -0.15748345851898193, 0.04772327095270157, 0.17140603065490723, 0.17968936264514923, -0.04304378852248192, -0.07818618416786194, 0.14693006873130798, -0.002291572978720069, 0.07790900766849518, 0.34050416946411133, -0.02935931831598282, 0.11084944009780884, 0.05529915913939476, 0.062151018530130386, 0.2295401394367218, 0.014853520318865776, -0.35416752099990845, 0.218322291970253], [-0.025904987007379532, 0.08649624139070511, -0.28731992840766907, 0.07917660474777222, -0.12519501149654388, 0.3109282851219177, -0.0361449234187603, 0.029814478009939194, 0.06629785895347595, 0.17802885174751282, 0.139729306101799, -0.11432678252458572, -0.10977929830551147, -0.11098644137382507, -0.08778523653745651, 0.17257371544837952, 0.15147125720977783, -0.08041507750749588, -0.20658788084983826, 0.04467900097370148], [0.08622905611991882, -0.016306918114423752, 0.11617399007081985, 0.01277254056185484, 0.19413523375988007, 0.09948401153087616, 0.1479002684354782, 0.03654228895902634, 0.012519660405814648, 0.11324063688516617, -0.017765095457434654, 0.08979851007461548, -0.13036684691905975, 0.05405300483107567, 0.03421556204557419, 0.1721663475036621, -0.0838785395026207, 0.0772869661450386, -0.04656396433711052, -0.010170652531087399], [-0.11348182708024979, 0.037185218185186386, 0.0929078459739685, 0.185530424118042, -0.0388331301510334, 0.2788771092891693, 0.006767651531845331, -0.10524996370077133, -0.13536444306373596, 0.0533740259706974, 0.06274080276489258, -0.10183709114789963, 0.01856193318963051, -0.07451166212558746, 0.031177278608083725, 0.1516307294368744, 0.11127504706382751, -0.020577464252710342, -0.27323412895202637, 0.1772807240486145], [-0.1872970312833786, -0.07921042293310165, -0.10412704199552536, 0.029558343812823296, 0.1365112066268921, 0.08298984915018082, -0.03528036177158356, -0.1343642920255661, 0.15030069649219513, 0.1333087682723999, 0.11904203146696091, 0.1636073738336563, 0.07895410060882568, 0.08295953273773193, -0.11845595389604568, 0.014521046541631222, 0.20523066818714142, -0.1137813851237297, 0.05902387201786041, 0.0535263754427433], [-0.13229021430015564, 0.029825055971741676, 0.04008542001247406, 0.19802184402942657, 0.10434176027774811, 0.2722404897212982, -0.05477293208241463, -0.06888644397258759, 0.06534633040428162, 0.3358292281627655, -0.09250108897686005, -0.14476372301578522, 0.21490229666233063, -0.06994440406560898, 0.10268161445856094, 0.12060299515724182, 0.37488144636154175, -0.044844768941402435, -0.28005313873291016, -0.02489939145743847], [-0.3117285668849945, 0.026717567816376686, 0.2152295857667923, 0.3677797317504883, 0.14509525895118713, 0.31434810161590576, 0.2614476680755615, -0.20236802101135254, 0.25318121910095215, 0.07755855470895767, -0.11594925820827484, 0.06864046305418015, -0.15365782380104065, 0.34203290939331055, 0.09591995179653168, -0.053227394819259644, 0.3602760434150696, 0.03543556109070778, -0.09371186047792435, 0.4862472116947174], [-0.2539999783039093, 0.025993159040808678, 0.10366497933864594, 0.38344085216522217, -0.08476312458515167, 0.4841364920139313, 0.21281838417053223, -0.13067226111888885, 0.32980501651763916, 0.15928517282009125, -0.10237643867731094, -0.06542660295963287, -0.05910845845937729, 0.22171728312969208, 0.17122551798820496, -0.07874264568090439, 0.6927023530006409, -0.14796242117881775, -0.01953948847949505, 0.5327805280685425], [-0.16057169437408447, 0.07106464356184006, 0.25079575181007385, 0.24071986973285675, -0.06741272658109665, 0.11878186464309692, -0.0721723809838295, -0.04424117133021355, -0.09876840561628342, 0.11562531441450119, -0.182827889919281, -0.005786926485598087, -0.04562516510486603, -0.0547821968793869, -0.04065166786313057, -0.01851765811443329, 0.026645971462130547, 0.020485209301114082, -0.19898734986782074, 0.11832594126462936], [-0.006200175266712904, -0.07400009036064148, 0.16010263562202454, -0.035077016800642014, 0.20197612047195435, 0.0002683668280951679, 0.06574245542287827, -0.02557932212948799, -0.04895220324397087, 0.07228375971317291, -0.09723594784736633, 0.20380304753780365, 0.11549659073352814, 0.14620749652385712, -0.10050014406442642, -0.12562492489814758, -0.1935829073190689, -0.008877502754330635, -0.1466422826051712, -0.09988123923540115], [0.07063169032335281, -0.05074865370988846, 0.09406820684671402, 0.11916685104370117, -0.06301376968622208, 0.17767645418643951, 0.18386825919151306, 0.08786002546548843, 0.1736738383769989, 0.12060194462537766, 0.16937750577926636, 0.1126985102891922, 0.23802423477172852, -0.20112545788288116, 0.21127744019031525, -0.046756867319345474, 0.29199841618537903, 0.024302097037434578, -0.10335136950016022, 0.20799699425697327], [-0.17228645086288452, 0.15750400722026825, 0.12146960198879242, 0.3098686933517456, 0.0379171296954155, 0.17904242873191833, 0.020665233954787254, 0.008322489447891712, 0.36864593625068665, 0.13370008766651154, -0.09256213158369064, -0.08510785549879074, -0.20137768983840942, 0.033844999969005585, 0.3134881258010864, 0.030664511024951935, 0.35908034443855286, 0.17916619777679443, 0.12571096420288086, 0.327011376619339], [0.052054621279239655, 0.043103281408548355, -0.2808251678943634, 0.0230904221534729, 0.014726546593010426, 0.11713586002588272, 0.21867673099040985, -0.2850884795188904, 0.11299638450145721, 0.04975484684109688, 0.31041234731674194, 0.19414915144443512, 0.13402459025382996, 0.024573393166065216, -0.13443194329738617, -0.24692334234714508, 0.13571879267692566, -0.07818570733070374, 0.007769636809825897, 0.0024719901848584414], [-0.3425667881965637, 0.04739359766244888, 0.25505226850509644, 0.543645977973938, -0.03378957509994507, 0.7912982106208801, 0.2199036031961441, -0.17208778858184814, 0.42089787125587463, 0.33454546332359314, -0.0489438995718956, 0.17706270515918732, -0.2207278311252594, -0.16803096234798431, 0.12132380157709122, -0.07531934231519699, 0.7398333549499512, 0.18761920928955078, -0.12803229689598083, 0.7195868492126465], [-0.3923129737377167, 0.07299355417490005, 0.339216023683548, 0.5783565640449524, 0.17762571573257446, 0.5470733642578125, 0.2733868658542633, -0.09308315813541412, 0.25033846497535706, 0.4604882001876831, 0.08997546881437302, 0.16098351776599884, -0.15940742194652557, -0.0909050703048706, 0.1902129054069519, 0.23066753149032593, 0.4723568260669708, 0.027634145691990852, 0.050589419901371, 0.6311067938804626], [-0.17586861550807953, 0.1906261444091797, 0.2100229114294052, 0.31024110317230225, -0.0797698125243187, 0.13076649606227875, -0.007283341605216265, -0.027451327070593834, 0.10684214532375336, 0.17456544935703278, 0.10818222165107727, 0.09261905401945114, 0.006923424545675516, -0.08607302606105804, 0.010877711698412895, -0.13041391968727112, 0.1890818178653717, -0.0027576813008636236, -0.06675714999437332, 0.39599278569221497], [0.11788754165172577, -0.14823560416698456, -0.17823946475982666, 0.13779109716415405, -0.1616533398628235, 0.24397926032543182, 0.44427716732025146, 0.19445082545280457, -0.09521480649709702, -0.11531587690114975, 0.015604867599904537, 0.4221188724040985, 0.049889903515577316, 0.3208990693092346, 0.11591968685388565, -0.1470157504081726, -0.24618621170520782, 0.06294069439172745, 0.010640236549079418, -0.17640794813632965], [0.1559138298034668, 0.34996089339256287, -0.06801002472639084, 0.1732921302318573, -0.03280043229460716, 0.019546138122677803, 0.34182995557785034, 0.03615206107497215, -0.010331332683563232, -0.09389347583055496, 0.2490333765745163, -0.15376496315002441, 0.018703732639551163, 0.23136602342128754, -0.1376122236251831, 0.019611680880188942, -0.059706978499889374, 0.030264250934123993, -0.023558564484119415, 0.07509948313236237], [-0.01202648226171732, 0.14901132881641388, 0.3530130982398987, -0.1672307699918747, 0.030567552894353867, -0.16710612177848816, 0.10552586615085602, -0.033765759319067, 0.06559012830257416, 0.11634194850921631, -0.2006453424692154, 0.16951653361320496, 0.13359089195728302, -0.09487666934728622, 0.19084207713603973, 0.11653153598308563, -0.2569844424724579, 0.0720343142747879, 0.2269163429737091, 0.0016044465592131019], [0.293052077293396, -0.18426893651485443, 0.24030046164989471, 0.21191217005252838, 0.015866855159401894, 0.12094496935606003, -0.09348814934492111, 0.07247120141983032, -0.09804799407720566, 0.17156369984149933, -0.007080125156790018, 0.003793558571487665, -0.010922311805188656, -0.1465776264667511, 0.025825226679444313, -0.2151394933462143, 0.08484791964292526, 0.08722856640815735, -0.31423044204711914, 0.17519165575504303], [-0.49113592505455017, 0.2844952642917633, -0.14874953031539917, 0.1302308738231659, 0.2999797761440277, -0.13900814950466156, -0.07629607617855072, -0.017724379897117615, -0.050643984228372574, 0.18298621475696564, -0.1676403433084488, -0.32074013352394104, 0.0071176569908857346, -0.36388713121414185, -0.05406784638762474, 0.00903099961578846, -0.2911212742328644, 0.12977798283100128, -0.6127643585205078, 0.05032085254788399], [0.011622968129813671, -0.08304789662361145, -0.044877272099256516, 0.2606719434261322, -0.08338962495326996, 0.02183123677968979, -0.07332035899162292, -0.10807755589485168, 0.2011585831642151, 0.1884654313325882, -0.28036198019981384, -0.15093672275543213, -0.025008544325828552, -0.12780725955963135, -0.01119326800107956, 0.37722015380859375, 0.1117335706949234, -0.19088400900363922, -0.3674960732460022, -0.04486895352602005], [0.25818517804145813, -0.7448441982269287, 0.2275959551334381, 0.13276641070842743, -0.2998126149177551, 0.14389562606811523, 0.22816301882266998, 0.030885446816682816, -0.1575155258178711, 0.12930496037006378, 0.20554842054843903, 0.3656449615955353, -0.20641463994979858, 0.4437045156955719, -0.08231808245182037, 0.19246134161949158, -0.19096408784389496, -0.09763193875551224, 0.4621172547340393, -0.13763296604156494], [0.41680073738098145, -0.23982684314250946, 0.24552078545093536, -0.04768601804971695, -0.4062640964984894, 0.08237086981534958, 0.42514675855636597, 0.6518125534057617, 0.14872333407402039, -0.2727210521697998, 0.26579686999320984, 0.5391741991043091, 0.1310027688741684, 0.04338166117668152, 0.34345775842666626, 0.2127549797296524, 0.3072829246520996, -0.13978327810764313, 0.32528290152549744, 0.06238870695233345], [0.06368351727724075, 0.17467451095581055, -0.040088798850774765, 0.023717690259218216, -0.07711206376552582, -0.1675315797328949, 0.26932433247566223, -0.05640082806348801, 0.13838712871074677, 0.06422755867242813, 0.12603335082530975, 0.3264569640159607, -0.05114525184035301, -0.3635301887989044, -0.04165688157081604, 0.15646864473819733, 0.23686282336711884, -0.08888170123100281, 0.19636079668998718, -0.05203205719590187], [-0.05643823742866516, 0.38063159584999084, 0.19827795028686523, -0.20102626085281372, 0.05205633118748665, -0.09184270352125168, 0.06917837262153625, 0.006727397441864014, 0.20930922031402588, 0.3176358640193939, 0.18593864142894745, -0.29862263798713684, 0.25150367617607117, -0.004532465711236, -0.017098134383559227, 0.037539009004831314, 0.021272357553243637, 0.0011092227650806308, -0.30728328227996826, -0.15861758589744568], [-0.16348178684711456, 0.06000465154647827, -0.38294321298599243, -0.2537620961666107, 0.10987293720245361, 0.20663976669311523, -0.05137721821665764, 0.015700748190283775, 0.0743677094578743, 0.39392364025115967, 0.2023804932832718, 0.05186421796679497, 0.003561034332960844, 0.17843598127365112, -0.16209465265274048, 0.11769454181194305, -0.054511621594429016, 0.15879198908805847, 0.06700190156698227, -0.13388343155384064], [-0.10869061946868896, -0.15549905598163605, -0.04364992305636406, -0.16903890669345856, 0.21338586509227753, -0.052421435713768005, -0.1903058886528015, -0.01863947883248329, 0.030159637331962585, 0.0907050296664238, 0.22757473587989807, 0.15916773676872253, -0.06176157295703888, 0.13438518345355988, -0.2839865982532501, -0.04523118585348129, -0.12492123246192932, -0.031995657831430435, 0.060863494873046875, 0.11453873664140701], [0.5400958061218262, -0.15223807096481323, 0.010685415007174015, -0.02968052588403225, -0.8904263973236084, 0.09392152726650238, 0.6049581170082092, 1.13632071018219, 0.3566337525844574, -0.24911093711853027, 0.21105758845806122, 0.5019357204437256, 0.9337348341941833, -1.7671908140182495, 0.0916232243180275, 0.3541378378868103, 0.21989355981349945, -0.2579382359981537, 0.3909716308116913, 0.13652901351451874], [-0.5176829099655151, -0.052186623215675354, 0.18903006613254547, -0.09146175533533096, 0.609939694404602, -0.07999809086322784, -0.610811710357666, -0.33002808690071106, 0.3402884602546692, 0.28954583406448364, -0.21458476781845093, -0.09679122269153595, -0.01175204198807478, 0.060558851808309555, -0.12318801134824753, 0.03750383108854294, 0.19687926769256592, -0.1418856531381607, -0.06361989676952362, 0.2915383279323578], [0.5139949917793274, -0.3887416124343872, 0.3309345245361328, 0.04044137895107269, -0.07913669943809509, 0.24036143720149994, 0.08414847403764725, -0.038904521614313126, -0.1621420830488205, -0.014760106801986694, -0.04682640731334686, 0.13078787922859192, -0.012084553949534893, -0.16683797538280487, 0.06771492213010788, -0.09080353379249573, -0.07590848952531815, -0.07860206067562103, 0.1682644635438919, 0.10654869675636292], [0.07921340316534042, 0.27138739824295044, -0.07831206172704697, -0.22159668803215027, 0.03620189428329468, 0.04493249952793121, 0.033735278993844986, 0.10502130538225174, 0.006220553535968065, -0.554271936416626, -0.22127042710781097, 0.06727352738380432, -0.17666886746883392, 0.04773123934864998, -0.14457574486732483, 0.27542150020599365, 0.09160411357879639, 0.03210362792015076, -0.05545729026198387, 0.1095057800412178], [0.2408558428287506, 0.10027020424604416, -0.39346128702163696, 0.08936644345521927, 0.23910081386566162, -0.11070702970027924, 0.3697928488254547, -0.2257452756166458, -0.1866752952337265, -0.3427210748195648, 0.013611609116196632, 0.37370869517326355, 0.2592674493789673, -0.44786521792411804, -0.04185822233557701, -0.3235446512699127, 0.1584954559803009, -0.2382706105709076, 0.5839220881462097, 0.057869501411914825], [0.12266912311315536, -0.0079860994592309, 0.025738315656781197, 0.14537778496742249, -0.14566200971603394, -0.15266932547092438, -0.0620899461209774, -0.0008402727544307709, -0.07657722383737564, -0.10269556939601898, 0.03734946250915527, 0.08112626522779465, 0.25695279240608215, 0.11678357422351837, 0.07006704807281494, -0.19182290136814117, 0.12438090145587921, 0.5813912749290466, -0.010189449414610863, 0.051518362015485764], [-0.35178589820861816, 0.1549432873725891, 0.043337807059288025, -0.06952586770057678, 0.22343631088733673, 0.1177324429154396, -0.16783730685710907, -0.06603065878152847, -0.0155539121478796, 0.07469231635332108, -0.1442660689353943, -0.3057800233364105, -0.09489668160676956, 0.3180597722530365, -0.22796136140823364, -0.09555084258317947, 0.015848184004426003, -0.02960166148841381, 0.29354074597358704, -0.09593881666660309], [0.0814933329820633, 0.1591358631849289, 0.005105589982122183, 0.18741807341575623, -0.05657624080777168, -0.09259073436260223, -0.14457297325134277, -0.06172226741909981, -0.11293154209852219, -0.3501426577568054, -0.1425582319498062, 0.20684726536273956, -0.1512536257505417, -0.07382392138242722, -0.026944700628519058, -0.4919292628765106, -0.08519136905670166, 0.09539473056793213, 0.02114393562078476, 0.31562677025794983], [-0.21699360013008118, 0.028076957911252975, -0.23466432094573975, 0.17703482508659363, 0.13258861005306244, 0.2238161861896515, 0.00278343609534204, -0.047688111662864685, 0.126991406083107, 0.14745236933231354, 0.24755580723285675, 0.37323981523513794, -0.004174061119556427, 0.05378365144133568, -0.1289362609386444, 0.06640505790710449, 0.20108763873577118, -0.008368609473109245, -0.5068122744560242, 0.18980799615383148], [0.06197446584701538, 0.1486034095287323, 0.22929216921329498, 0.1513163149356842, -0.1372189223766327, 0.010250604711472988, 0.09052688628435135, -0.04428289458155632, 0.06486891210079193, 0.03930533304810524, -0.2012336403131485, -0.31932759284973145, 0.039451513439416885, -0.0901203602552414, 0.14399273693561554, 0.004088443238288164, 0.020102012902498245, 0.04141323268413544, 0.3980797231197357, 0.04011539742350578], [-0.19366362690925598, -0.046059925109148026, 0.2380620837211609, 0.004235513042658567, 0.026209060102701187, -0.062143344432115555, -0.01736423559486866, -0.29773178696632385, 0.16047555208206177, 0.22954244911670685, 0.06405066698789597, 0.01136276125907898, -0.024142108857631683, -0.03625652566552162, -0.0031843234319239855, -0.06653003394603729, 0.041638556867837906, 0.09405355900526047, 0.26529037952423096, 0.0633070170879364], [0.19189319014549255, 0.03820137307047844, -0.1297316551208496, 0.027477765455842018, -0.12428145855665207, 0.1896291822195053, 0.14431822299957275, 0.2255692332983017, 0.0634518563747406, -0.10189306735992432, -0.042841773480176926, 0.02427363023161888, 0.16045160591602325, 0.0013970506843179464, 0.05260290950536728, -0.12167871743440628, -0.06951369345188141, 0.12342572212219238, -0.10545463114976883, 0.04570140689611435], [-0.1568334698677063, -0.017033874988555908, -0.15577173233032227, 0.14465419948101044, 0.07135330140590668, 0.24037693440914154, 0.033153317868709564, -0.04151271656155586, 0.20662665367126465, 0.0458824597299099, 0.16598311066627502, 0.34516480565071106, -0.0879397913813591, 0.06014903634786606, -0.049176204949617386, 0.0025992675218731165, 0.32955172657966614, -0.034728240221738815, -0.26416248083114624, 0.28239676356315613], [-0.031673744320869446, 0.026585450395941734, -0.21009352803230286, 0.15560859441757202, 0.05402160435914993, 0.31806305050849915, -0.04227715730667114, -0.025308866053819656, 0.008069722913205624, 0.054712146520614624, 0.1605033278465271, -0.03298041224479675, -0.05281370133161545, 0.06069590896368027, -0.08347214013338089, 0.29613950848579407, 0.0008399803191423416, -0.03644952550530434, -0.1709529161453247, 0.1437544822692871], [0.018161840736865997, 0.03014187514781952, -0.07205641269683838, 0.15692687034606934, 0.0463530533015728, 0.23233792185783386, 0.20654286444187164, 0.05348848178982735, 0.09353721141815186, 0.06699671596288681, 0.12372733652591705, 0.22289066016674042, -0.07371418923139572, -0.03950687125325203, -0.00986039824783802, 0.05436785891652107, 0.17704817652702332, -0.011008148081600666, -0.18492409586906433, 0.24381497502326965], [-0.2100975066423416, -0.05435139313340187, -0.01939166896045208, 0.0963711068034172, 0.14594611525535583, 0.11960751563310623, -0.007470234762877226, -0.16993728280067444, 0.03478458151221275, 0.1757088005542755, 0.22667202353477478, 0.2436218410730362, 0.033452995121479034, 0.07037601619958878, -0.020064635202288628, -0.005576424766331911, 0.1831481158733368, -0.008680040016770363, -0.2444598376750946, 0.09751059114933014], [-0.2273886352777481, -0.05166284739971161, -0.08817683160305023, 0.03482804447412491, 0.1446852833032608, 0.04009663313627243, -0.13008105754852295, -0.15193688869476318, 0.10157988965511322, 0.08037537336349487, 0.08670906722545624, 0.07972387969493866, 0.011936536058783531, 0.03612330183386803, -0.07130075991153717, 0.011663476005196571, 0.09978212416172028, -0.03907407447695732, 0.03428124263882637, 0.025004662573337555], [-0.21363966166973114, 0.013643372803926468, 0.09876002371311188, 0.17221035063266754, 0.065919890999794, 0.0145017234608531, -0.12969772517681122, -0.07723403722047806, 0.12863782048225403, 0.2924750745296478, -0.0049475557170808315, -0.04613166302442551, 0.09425915777683258, -0.0635347068309784, -0.038239169865846634, 0.02794674038887024, 0.05680372565984726, -0.03974565491080284, -0.007694734260439873, -0.07912949472665787], [0.10797271877527237, 0.08583419770002365, -0.08181647211313248, 0.1493031084537506, -0.04272724315524101, 0.16162271797657013, 0.07183820754289627, -0.04723844677209854, 0.02274392358958721, -0.043928008526563644, -0.06728317588567734, -0.14954185485839844, -0.005722496658563614, 0.2759036421775818, 0.024701878428459167, -0.05439598113298416, 0.08241772651672363, 0.10916496813297272, -0.07969764620065689, 0.03988200053572655], [0.20688003301620483, 0.19552934169769287, 0.169035404920578, 0.1576693058013916, -0.24268674850463867, -0.05931152030825615, 0.17349296808242798, 0.208714097738266, -0.005381757393479347, -0.025282926857471466, -0.20770230889320374, -0.292000412940979, -0.050080567598342896, -0.012148919515311718, 0.0427439883351326, -0.1763305515050888, 0.1613823026418686, 0.05636784806847572, 0.3664134442806244, 0.16070671379566193], [-0.0985616073012352, -0.005523424595594406, -0.08386656641960144, -0.13622061908245087, -0.09474556148052216, -0.09688498824834824, -0.025489971041679382, 0.09711651504039764, 0.07425892353057861, -0.016232704743742943, -0.001983105204999447, -0.12945374846458435, 0.03470296412706375, 0.0458294153213501, -0.1115720123052597, 0.09897207468748093, -0.08857960999011993, -0.11161862313747406, 0.10163584351539612, -0.10932953655719757], [-0.11946997791528702, 0.023831486701965332, -0.01495523564517498, 0.17937122285366058, 0.03641321137547493, 0.24344390630722046, 0.14233453571796417, -0.013349797576665878, 0.08648635447025299, 0.09969080239534378, 0.1107655018568039, 0.2491745948791504, -0.03398421034216881, -0.0026192329823970795, -0.07462646067142487, 0.004340231418609619, 0.21001185476779938, -0.031869739294052124, -0.1698703169822693, 0.3291875422000885], [0.06378987431526184, -0.007211834192276001, -0.04639410227537155, 0.1388041228055954, -0.06732895970344543, 0.1032467782497406, 0.06504732370376587, 0.17815713584423065, 0.1286143958568573, -0.039731673896312714, 0.09879731386899948, 0.01899762824177742, 0.09132359176874161, -0.12074067443609238, 0.16452868282794952, -0.05704145133495331, 0.20544251799583435, 0.025837386026978493, -0.04390103742480278, 0.09311725199222565], [-0.1287994384765625, 0.043411847203969955, 0.018463196232914925, 0.12490791827440262, -0.08263691514730453, 0.13996447622776031, 0.090133897960186, 4.208797221849636e-08, 0.1527983695268631, 0.032967448234558105, 0.0440681092441082, 0.0839221253991127, -0.03770740330219269, -0.027864210307598114, 0.14730378985404968, -0.0704701840877533, 0.14784207940101624, 0.06448960304260254, -0.04757104068994522, 0.3090130686759949], [-0.11478772014379501, 0.05774671211838722, -0.06107340753078461, 0.17623180150985718, -0.04626918584108353, 0.17557132244110107, -0.06664679944515228, 0.047152258455753326, 0.18186010420322418, 0.12692071497440338, 0.10440032184123993, 0.110330730676651, 0.26752907037734985, 0.003072212217375636, 0.025078078731894493, -0.12967544794082642, 0.3871946632862091, -0.08202777802944183, -0.040652915835380554, 0.2711326777935028], [0.004728040657937527, 0.058818213641643524, -0.02313527837395668, 0.021290725097060204, -0.07433518767356873, 0.10939797013998032, 0.031349338591098785, -0.06737173348665237, 0.07812198996543884, -0.031219469383358955, -0.10865991562604904, 0.0014307465171441436, -0.08510939031839371, 0.011529026553034782, -0.035803746432065964, -0.04560104385018349, 0.021559754386544228, 0.06902230530977249, 0.06886760145425797, -0.049594197422266006], [-0.299880713224411, -0.1257655769586563, 0.09609071165323257, 0.01858324185013771, 0.19623778760433197, 0.07068327069282532, -0.26022204756736755, -0.21230247616767883, 0.2949201762676239, 0.22174017131328583, 0.0751657485961914, 0.16716550290584564, 0.03713404759764671, -0.21125683188438416, 0.069282166659832, 0.0014430041192099452, 0.18232984840869904, 0.0011919441167265177, 0.23460407555103302, 0.17507992684841156], [-0.1565191149711609, 0.15555471181869507, 0.08753316849470139, 0.19727660715579987, -0.009294426999986172, 0.058268073946237564, -0.0396244116127491, 0.06198294460773468, 0.169168159365654, 0.17812480032444, 0.10279586166143417, 0.15994343161582947, 0.2882945239543915, -0.0059587545692920685, 0.06263226270675659, -0.13311071693897247, 0.3788689076900482, -0.05992215871810913, -0.10165680944919586, 0.2953180968761444]], "rec.bias_ih_l0": [0.006248072721064091, -0.12241304665803909, -0.34439244866371155, 0.034281954169273376, 0.271491676568985, 0.11228359490633011, 0.32882198691368103, 0.3321293294429779, -0.019269529730081558, -0.14653104543685913, -0.3168121576309204, -0.3797033131122589, 0.570385754108429, 0.5203553438186646, -0.25872430205345154, -0.29787519574165344, 0.17892546951770782, -0.8521870970726013, -0.6407555341720581, 0.12238840013742447, 0.0747847855091095, 0.5167038440704346, 0.41931676864624023, 0.11063145101070404, -0.011956724338233471, 0.10323797911405563, 0.18710951507091522, 0.08648575842380524, 0.19006724655628204, 0.3384493589401245, 0.6378653645515442, 0.7407325506210327, 0.4231390655040741, -0.09285501390695572, 0.10183551907539368, 0.6384999752044678, 0.1378071904182434, 1.153268575668335, 0.7582623362541199, 0.42401742935180664, -0.23326508700847626, -0.0030957218259572983, 0.06132456660270691, 0.20517219603061676, -0.06686045229434967, 0.06614576280117035, 0.25515222549438477, -0.1634134203195572, -0.0658629983663559, 0.22525747120380402, -0.17775072157382965, 0.10661964863538742, -0.14777295291423798, -0.384487122297287, 0.06735768914222717, -0.03507709875702858, 0.3047970235347748, -0.14231589436531067, 0.07378638535737991, 0.16002774238586426, 0.1917690634727478, 0.11694828420877457, 0.054208774119615555, 0.17937873303890228, 0.29845747351646423, 0.23916558921337128, 0.407253235578537, 0.23929378390312195, 0.08407604694366455, 0.046964891254901886, 0.07732962816953659, 0.3250572681427002, -0.17200106382369995, 0.5844225287437439, 0.04833154007792473, 0.2005886733531952, 0.36970508098602295, 0.16623322665691376, 0.27224329113960266, 0.35502132773399353], "rec.bias_hh_l0": [0.025789789855480194, -0.1556287556886673, -0.16867107152938843, 0.05303523689508438, 0.23336684703826904, 0.018298964947462082, 0.3882359564304352, 0.3722192049026489, -0.01977323368191719, 0.05015402287244797, -0.3549295961856842, -0.4458308517932892, 0.5707297325134277, 0.4803192615509033, -0.08090756088495255, -0.37405461072921753, 0.25853386521339417, -0.8056738972663879, -0.539455771446228, 0.20554617047309875, 0.26260650157928467, 0.39847543835639954, 0.43132254481315613, 0.1208437904715538, -0.008372431620955467, 0.26370930671691895, 0.039974864572286606, 0.092415951192379, 0.23227645456790924, 0.45368367433547974, 0.5755049586296082, 0.9781774878501892, 0.3031662106513977, -0.08812355250120163, 0.26525992155075073, 0.5016162395477295, 0.22339534759521484, 1.1183154582977295, 0.6919355988502502, 0.36305391788482666, 0.11660165339708328, 0.017701147124171257, 0.17653004825115204, 0.28320062160491943, -0.0031186093110591173, 0.2563183903694153, -0.04944757744669914, -0.033259760588407516, 0.21277257800102234, 0.06250961124897003, 0.23352229595184326, 0.004683922044932842, 0.031405266374349594, -0.08054650574922562, -0.028383327648043633, 0.17235688865184784, 0.11143416911363602, 0.12804540991783142, -0.12683995068073273, 0.2382655143737793, 0.2462928593158722, 0.045019347220659256, 0.22599832713603973, 0.13468144834041595, 0.3264215886592865, 0.20045800507068634, 0.4031746983528137, 0.22436387836933136, 0.12478343397378922, 0.18992474675178528, 0.03416780009865761, 0.1553111970424652, -0.09253548085689545, 0.538983941078186, 0.05597403272986412, 0.3725808560848236, 0.4514866769313812, 0.18125249445438385, 0.22831250727176666, 0.26574936509132385], "lin.weight": [[0.18923932313919067, 0.02070487290620804, -0.2912401258945465, 0.00612061470746994, -0.6329646110534668, -0.3440268933773041, -0.4572620689868927, 0.1426432579755783, -0.22573161125183105, -0.01639600656926632, -0.4368637800216675, 0.2888740003108978, 0.4252714514732361, 0.7822667956352234, 0.24191495776176453, -1.4390218257904053, 0.4423229396343231, -0.1651504784822464, -0.1799096316099167, 0.3760860562324524]], "lin.bias": [-0.12479178607463837]}}