{"model_data": {"model": "SimpleRNN", "input_size": 1, "skip": 1, "output_size": 1, "unit_type": "LSTM", "num_layers": 1, "hidden_size": 20, "bias_fl": true}, "state_dict": {"rec.weight_ih_l0": [[0.0027784735430032015], [0.004141439218074083], [0.10630828887224197], [0.012904258444905281], [-0.0524529404938221], [-0.06880556792020798], [-0.06383418291807175], [-0.0771443173289299], [-0.005723839160054922], [-0.005175930913537741], [-0.1726110875606537], [-0.05560311675071716], [0.0580708347260952], [0.025708142668008804], [0.009369699284434319], [0.023893065750598907], [0.04819478467106819], [0.02014865167438984], [0.10593824833631516], [-0.03591392561793327], [0.005982543341815472], [-0.008733753114938736], [0.028515804558992386], [0.1064806655049324], [-0.10358860343694687], [-0.04920371621847153], [-0.12954972684383392], [0.0825684443116188], [-0.030624398961663246], [-0.00767510337755084], [-0.1644514799118042], [0.022824909538030624], [0.07606779038906097], [0.008952555246651173], [0.05867766588926315], [0.06462617218494415], [-0.06801639497280121], [0.04126248508691788], [0.09732162952423096], [-0.05246006324887276], [0.2767099440097809], [-0.00922424253076315], [0.384040892124176], [0.676678478717804], [-0.456163614988327], [0.39230042695999146], [-0.8914319276809692], [-0.23242446780204773], [2.9303414821624756], [0.09535760432481766], [-0.4538594186306], [-0.6275531649589539], [0.1474454253911972], [-1.1521925926208496], [1.0991085767745972], [-0.9933195114135742], [-0.28197985887527466], [0.09437060356140137], [0.2806571424007416], [0.7599824666976929], [0.01647048443555832], [-0.4778886139392853], [0.05963753163814545], [-0.0939195454120636], [-0.15042170882225037], [0.0526089072227478], [-0.13915741443634033], [0.14774061739444733], [-0.004376978147774935], [-0.003743688575923443], [-0.16322579979896545], [-0.08657657355070114], [0.41238635778427124], [0.027743320912122726], [0.01432724017649889], [0.02342970483005047], [-0.24968001246452332], [0.04268508777022362], [0.7888147234916687], [-0.03997610881924629]], "rec.weight_hh_l0": [[0.012977518141269684, 0.07586704939603806, 0.005081704817712307, 0.0293910950422287, 0.05315205827355385, 0.04746800661087036, 0.019813232123851776, 0.05531568452715874, 0.00017606203618925065, -0.008783775381743908, 0.050926756113767624, 0.02922705002129078, 0.09601537883281708, 0.005629268009215593, 0.05885612964630127, -0.048984576016664505, 0.07539541274309158, 0.10887258499860764, 0.14978426694869995, -0.004599374253302813], [-0.03531792759895325, 0.19638048112392426, -0.03876183182001114, -0.006414494942873716, 0.06168611720204353, 0.04785552993416786, 0.015321885235607624, 0.019464118406176567, 0.023312781006097794, -0.0007793257245793939, -0.03676091134548187, 0.006059496197849512, 0.1964191347360611, -0.02353709004819393, 0.050177935510873795, -0.005904168821871281, 0.04873494803905487, 0.04010753706097603, 0.2526549994945526, 0.05923325568437576], [-0.006394663825631142, -0.2839473783969879, 0.07737451791763306, 0.10201691091060638, -0.23303790390491486, -0.0646430179476738, 0.01362041849642992, -0.03286988288164139, 0.005906445439904928, -0.0025541651993989944, 0.0471874438226223, 0.01669919490814209, -0.11831145733594894, 0.08654610812664032, 0.002115091308951378, -0.17902116477489471, -0.2561541497707367, 0.08334361761808395, -0.02104339748620987, -0.02206268534064293], [-0.13618168234825134, -0.8393579721450806, -0.3163309395313263, -0.1745249629020691, -0.540496826171875, -0.41937217116355896, -0.07854890078306198, 0.2332295924425125, -0.13918307423591614, -0.002872603014111519, -0.09195651859045029, 0.35599401593208313, -0.5607488751411438, -0.014590777456760406, -0.08116042613983154, 0.1295604258775711, -0.7421372532844543, 0.22073453664779663, -0.5258842706680298, -0.0814611092209816], [-0.005891720298677683, 0.008738599717617035, -0.03610498830676079, 0.02384057641029358, 0.027193233370780945, -0.033690303564071655, 0.08941509574651718, 0.0034986587706953287, 0.03487791866064072, 0.005499307066202164, -0.0011200227309018373, 0.008979558013379574, 0.08989466726779938, -0.047986146062612534, 0.00955605786293745, -0.003242931328713894, 0.07896523922681808, 0.089723601937294, -0.11824630200862885, -0.014233147725462914], [0.10757549852132797, -0.1128181517124176, -0.03140796720981598, -0.0002924277796410024, -0.03989006578922272, -0.028427623212337494, 0.14061903953552246, 0.04872666671872139, -0.054695975035429, 0.0008160709403455257, 0.0774001032114029, 0.08230989426374435, -0.04623131826519966, 0.10037267953157425, -0.0675182044506073, -0.06613030284643173, -0.016917413100600243, 0.049451470375061035, -0.052922774106264114, -0.1066724956035614], [0.00750374561175704, 0.13459233939647675, -0.06286688894033432, -0.03589538857340813, 0.09090620279312134, 0.04662320762872696, 0.06358162313699722, 0.055771131068468094, -0.008071187883615494, 0.0045492821373045444, 0.015240087173879147, -0.049324627965688705, 0.09817172586917877, -0.017917808145284653, 0.02339623123407364, 0.049469806253910065, 0.14453771710395813, 0.10174276679754257, 0.07518230378627777, -0.02521035075187683], [0.05435379222035408, -0.5829746723175049, 0.040832120925188065, -0.08795838057994843, -0.5930011868476868, -0.5780608057975769, -0.08929609507322311, 0.039877284318208694, 0.189660906791687, 0.004456338007003069, 0.22007369995117188, -0.16552338004112244, -0.43724608421325684, 0.06606140732765198, 0.08406440168619156, -0.05283217132091522, -0.7709929347038269, -0.06603994965553284, -0.7052440047264099, -0.24706120789051056], [0.001591144478879869, 0.38728129863739014, -0.013099292293190956, -0.023305822163820267, 0.26716846227645874, 0.26756468415260315, 0.06075355038046837, -0.016484662890434265, 0.007835392840206623, -0.0014240465825423598, -0.04232538491487503, -0.01741194911301136, 0.4914609491825104, -0.021574949845671654, 0.032224129885435104, 0.002869304968044162, 0.4728280007839203, 0.3078586757183075, 0.35162055492401123, 0.026961319148540497], [0.0032757434528321028, -0.0016698285471647978, 0.0009613045840524137, 0.0022247149609029293, 0.007761507295072079, 0.0034093032591044903, 0.01009716559201479, 0.0030221412889659405, 0.0015106601640582085, -0.0014304898213595152, 0.005278963129967451, 0.002932843752205372, -0.005080892238765955, -0.0011888222070410848, 0.006148054730147123, -0.0018081176094710827, -0.0010037595639005303, 0.006410684436559677, 0.004064762033522129, -0.005296939518302679], [0.0867033302783966, -0.0440717488527298, 0.0007427252130582929, -0.022279176861047745, 0.06720887124538422, -0.13114233314990997, 0.09498277306556702, 0.03190607205033302, -0.07692437618970871, -0.027142765000462532, 0.07855348289012909, 0.05712544545531273, -0.12023651599884033, -0.07825274020433426, 0.005703348200768232, 0.11411300301551819, 0.0017551108030602336, 0.021118998527526855, -0.2322552502155304, -0.11560864746570587], [-0.015044069848954678, -0.2633362114429474, -0.04206668213009834, -0.07319122552871704, -0.20877927541732788, -0.1440187692642212, 0.08288408070802689, -0.07132799923419952, -0.011830976232886314, 0.0014263753546401858, 0.13814780116081238, -0.05210263282060623, -0.13001103699207306, -0.009184176102280617, 0.003200995037332177, 0.03374078497290611, -0.5127648115158081, 0.022812988609075546, -0.13172118365764618, -0.153667151927948], [-0.052057038992643356, -0.07109607756137848, 0.07635267078876495, 0.004322913940995932, 0.009413436986505985, 0.07986172288656235, -0.019658999517560005, -0.11981208622455597, 0.003852844936773181, 0.0007591999019496143, -0.008939419873058796, 0.0605931282043457, 0.18200114369392395, 0.05598265677690506, -0.038478828966617584, -0.055868882685899734, -0.0562315471470356, 0.19095873832702637, -0.11537913233041763, -0.0035821162164211273], [-0.015424428507685661, 0.24833136796951294, -0.017119430005550385, -0.019836604595184326, 0.1526179313659668, 0.15839868783950806, 0.06119054928421974, 0.039300162345170975, 0.014865772798657417, 0.006168943829834461, 0.005644676275551319, -0.017763599753379822, 0.32302987575531006, 0.014153910800814629, 0.05047222599387169, -0.037362340837717056, 0.300780713558197, 0.2083350121974945, 0.23946762084960938, 0.00047627155436202884], [-0.0033174147829413414, 0.17764221131801605, 0.0048551419749855995, -0.005447248462587595, 0.10020025819540024, 0.11693849414587021, 0.039526619017124176, 0.013054036535322666, -0.002849496901035309, 0.003483488690108061, -0.0009961185278370976, -0.01548896636813879, 0.23574447631835938, -0.004891969263553619, 0.03130491077899933, -0.023301882669329643, 0.1922193020582199, 0.1363428235054016, 0.17407959699630737, 0.0025080835912376642], [0.012970182113349438, 0.14770114421844482, -0.006290649529546499, -0.01743159256875515, 0.1256600022315979, 0.11315733194351196, 0.05804293230175972, 0.026409242302179337, 0.025360073894262314, 0.00273327250033617, 0.010599961504340172, 0.0012405198067426682, 0.2436448484659195, 0.07519950717687607, 0.010959011502563953, -0.05096367746591568, 0.24214573204517365, 0.1632576584815979, 0.1629742681980133, -0.011513312347233295], [-0.04495465010404587, 0.12076687067747116, -0.054059822112321854, 0.0010883413488045335, 0.03922032564878464, 0.033804185688495636, -0.005107160657644272, 0.034256551414728165, 0.0708225667476654, 0.006219674367457628, -0.016916662454605103, -0.03871915489435196, 0.296394944190979, 0.01633378677070141, 0.05960988625884056, -0.008375651203095913, 0.0957188606262207, 0.1223936527967453, 0.09001865983009338, 0.04741993919014931], [-0.000988702173344791, 0.02059165947139263, -0.10890129208564758, -0.04245980083942413, 0.06432214379310608, 0.0036587552167475224, 0.0676337257027626, 0.028675725683569908, 0.08227882534265518, 0.00338003970682621, 0.038504861295223236, -0.03851764649152756, 0.014122506603598595, 0.09099840372800827, -0.03995091840624809, -0.05983182415366173, 0.14775142073631287, 0.1469922512769699, -0.012598742730915546, -0.03115694969892502], [0.18371793627738953, -0.19349735975265503, 0.19296382367610931, -0.1656622439622879, -0.1938592791557312, -0.06491735577583313, -0.058356449007987976, 0.17769451439380646, -0.000777192588429898, -0.019296834245324135, 0.07916843891143799, -0.06006677448749542, -0.16143010556697845, 0.08249984681606293, 0.13772761821746826, -0.1603369414806366, -0.22184671461582184, -0.1612313985824585, -0.02489803358912468, -0.11298641562461853], [0.018182937055826187, 0.09102091193199158, -0.01113101840019226, -0.08460541814565659, 0.06476645916700363, 0.02705906704068184, 0.04689425602555275, 0.007609532680362463, 0.0019591350574046373, -0.002738290000706911, 0.04156240448355675, -0.004399898927658796, 0.06397484242916107, 0.027600008994340897, 0.0333019495010376, 0.026729967445135117, 0.08552389591932297, 0.09768503904342651, 0.07983529567718506, -0.05070208013057709], [-0.01319046225398779, 0.15851254761219025, 0.1123393252491951, 0.03817012533545494, 0.10591421276330948, 0.1436200886964798, 0.018260682001709938, -0.0069150058552622795, 0.027248267084360123, -0.01779392547905445, 0.03867688402533531, 0.07589428126811981, 0.2253815233707428, -0.06954231858253479, 0.09354781359434128, -0.07349386811256409, 0.160323828458786, 0.16962800920009613, 0.2246558964252472, -0.0024330192245543003], [-0.08981422334909439, 0.12610170245170593, -0.07140186429023743, -0.05248914286494255, 0.059015512466430664, 0.08135917037725449, -0.018811970949172974, 0.0024162898771464825, 0.06857966631650925, -0.0028926325030624866, -0.09156837314367294, -0.02074110507965088, 0.04171578213572502, -0.05044311285018921, 0.1229253038764, -0.03533901274204254, 0.08772715926170349, 0.09998209774494171, 0.2584512531757355, 0.13789454102516174], [-0.017520228400826454, 0.40592050552368164, -0.0722738653421402, 0.14633294939994812, 0.24864840507507324, 0.14655716717243195, 0.18260668218135834, -0.1045830100774765, -0.009618035517632961, 0.0010545568075031042, -0.011942300945520401, -0.13096147775650024, 0.6088587045669556, -0.018570229411125183, 0.013507520779967308, -0.05596577003598213, 0.40570068359375, 0.15284594893455505, 0.40312546491622925, 0.08134517073631287], [-0.07803130149841309, 0.8336931467056274, 0.11864529550075531, 0.0666235014796257, 0.5240870714187622, 0.5771640539169312, 0.13025440275669098, -0.18486446142196655, 0.05426592752337456, -0.008976411074399948, -0.01222333312034607, 0.01812043972313404, 0.8424647450447083, -0.015628991648554802, 0.11130128800868988, -0.16839784383773804, 0.600139319896698, 0.246243417263031, 0.7481992244720459, -0.04276487976312637], [0.0005343543598428369, 0.14039942622184753, -0.03502059355378151, 0.03204011544585228, 0.1619202047586441, -0.045893214643001556, 0.09464465826749802, -0.0010913789737969637, 0.035651858896017075, 0.0029339101165533066, 0.0016846103826537728, 0.011574368923902512, 0.15617795288562775, -0.10697171837091446, 0.019274944439530373, 0.04128784313797951, 0.035270076245069504, 0.047890398651361465, -0.13827009499073029, -0.02959386631846428], [0.08825292438268661, 0.057827211916446686, -0.011229529976844788, 0.08568288385868073, 0.0998121052980423, 0.10225000977516174, 0.10345263034105301, 0.016355054453015327, -0.08023816347122192, 0.009720531292259693, -0.009771355427801609, 0.09193281084299088, 0.24264243245124817, 0.08998903632164001, -0.056178610771894455, -0.09642312675714493, 0.33400633931159973, 0.07565613836050034, 0.1280113160610199, 0.040132973343133926], [0.004697524476796389, 0.0583304762840271, -0.10621064156293869, -0.05857275426387787, 0.07574443519115448, -0.014713317155838013, 0.1335432380437851, 0.1294977366924286, -0.01268800999969244, 0.004393538925796747, 0.04448144882917404, -0.06243928149342537, -0.031173665076494217, -0.0418207161128521, 0.041944876313209534, 0.08975782245397568, 0.05724586173892021, 0.04430899769067764, -0.035752858966588974, -0.08484823256731033], [-0.18189562857151031, 0.7066066265106201, -0.19409650564193726, -0.11624956876039505, 0.4015931189060211, 0.6572999954223633, 0.3085622191429138, -0.4515325427055359, 0.06055612862110138, 0.016594743356108665, 0.025075184181332588, 0.22269503772258759, 0.9865829348564148, 0.016863560304045677, 0.18125304579734802, -0.10037756711244583, 0.6773722767829895, 0.5059506893157959, 1.016737461090088, 0.07336636632680893], [-0.00448173051699996, -0.11592154949903488, 0.02765764482319355, 0.022497301921248436, -0.006417097989469767, -0.03434431180357933, 0.023934511467814445, 0.041516706347465515, -0.020673906430602074, -0.007767328526824713, -0.017935387790203094, 0.0322268083691597, -0.12444780021905899, -0.04818492382764816, 0.025022445246577263, 0.02143702283501625, -0.04139705374836922, -0.08261194825172424, -0.11083226650953293, -0.03501296043395996], [0.004251784645020962, -0.00011196796549484134, 0.0012807744788005948, 0.001987939700484276, 0.006868870463222265, 0.0018249622080475092, 0.009342731907963753, -0.00017510019824840128, 0.0006298084044829011, -0.0018974515842273831, 0.003956738859415054, 0.0024701959919184446, 0.0026858400087803602, -0.003072300460189581, 0.00424018083140254, 0.0019114597234874964, 0.004187689162790775, 0.0034531087148934603, 0.00356801669113338, -0.005549851339310408], [0.07920659333467484, 0.010137845762073994, -0.005083607975393534, -0.029484156519174576, 0.07981210201978683, -0.09577993303537369, 0.09948568791151047, 0.024986764416098595, -0.06338723748922348, -0.024467678740620613, 0.06463013589382172, 0.04435199126601219, 0.01636381633579731, -0.06526149809360504, 0.008095834404230118, 0.10674763470888138, 0.09587021917104721, -0.0019044461660087109, -0.1408105492591858, -0.10038083046674728], [-0.14473985135555267, 0.4435710906982422, -0.2319725900888443, 0.03882656991481781, 0.44327887892723083, 0.31911084055900574, 0.15310518443584442, -0.05552874505519867, -0.022531360387802124, 0.008337752893567085, -0.013671515509486198, 0.023566892370581627, 0.7365201115608215, -0.039441898465156555, 0.12389747053384781, 0.027852078899741173, 0.3223431706428528, 0.4780358374118805, 0.5789604783058167, 0.12120495736598969], [-0.05068777874112129, 0.3464033305644989, 0.13367334008216858, 0.07800979912281036, 0.30128732323646545, 0.2062465250492096, 0.03628791123628616, -0.27009934186935425, -0.035568006336688995, -0.006569318939000368, -0.008900466375052929, 0.17168590426445007, 0.45668932795524597, -0.017883915454149246, -0.056110139936208725, -0.03483688458800316, 0.41692033410072327, 0.26008340716362, 0.049053072929382324, -0.027415232732892036], [-0.0017132338834926486, 0.10863403230905533, 0.014252636581659317, -0.04987531155347824, 0.11390360444784164, 0.10215229541063309, 0.03626096621155739, 0.0026306521613150835, 0.030331403017044067, -0.008789541199803352, -0.008401961997151375, 0.0029299315065145493, 0.15607869625091553, 0.008519956842064857, 0.0769844576716423, 0.00954336579889059, 0.17316526174545288, 0.10830974578857422, 0.14133119583129883, -0.005161220207810402], [-0.030884234234690666, 0.0164407417178154, 0.003936091437935829, 0.011483409442007542, -0.026455052196979523, 0.019672857597470284, -0.005999911576509476, 0.033051714301109314, 0.007336515001952648, 0.010142444632947445, 0.019825248047709465, -0.05436018854379654, 0.006981302052736282, 2.303575456608087e-06, 0.06538451462984085, -0.03566285967826843, -0.09858916699886322, -0.008213750086724758, 0.052809711545705795, 0.013291606679558754], [-0.0048239510506391525, 0.05900842323899269, 0.030796410515904427, -0.00894679594784975, 0.06093618646264076, 0.08459777384996414, 0.02944796346127987, -0.009161329828202724, 0.05308178439736366, 0.005182413384318352, -0.021339520812034607, -0.009024495258927345, 0.16942098736763, 0.0710197389125824, 0.0019570738077163696, -0.0682770237326622, 0.16103099286556244, 0.06936180591583252, 0.06864642351865768, 0.004443937446922064], [-0.04022851586341858, 0.09100404381752014, -0.022338736802339554, 0.013250050134956837, 0.18300598859786987, -0.12008477002382278, -0.0071076867170631886, 0.03177154064178467, 0.149111807346344, -0.007179429288953543, -0.03064265474677086, -0.024541407823562622, 0.4571654200553894, -0.03222829848527908, 0.12959790229797363, 0.07948469370603561, 0.06189872696995735, 0.10429586470127106, 0.025027859956026077, 0.06959228217601776], [-0.016276061534881592, 0.097437784075737, -0.17303216457366943, -0.060252998024225235, 0.10091187804937363, -0.027898671105504036, 0.06096673384308815, 0.031426798552274704, 0.12541493773460388, 0.012147927656769753, 0.024585623294115067, -0.09685631096363068, 0.02112213894724846, 0.13359756767749786, -0.0656755119562149, -0.07069715857505798, 0.2377435714006424, 0.1371779590845108, -0.022774435579776764, -0.0054958052933216095], [0.21563228964805603, 0.3351898789405823, 0.05009296163916588, -0.06855697184801102, 0.24235890805721283, 0.22058838605880737, 0.11308500170707703, -0.05546531453728676, -0.08854994922876358, -0.024815354496240616, 0.056895412504673004, -0.056768614798784256, 0.43198370933532715, 0.015500017441809177, 0.190423384308815, -0.12008900940418243, 0.29753801226615906, 0.0829445868730545, 0.5690532922744751, -0.018628429621458054], [0.014211914502084255, 0.0736583024263382, -0.037504587322473526, -0.14860989153385162, 0.065180703997612, -0.018093274906277657, 0.08637680113315582, 0.023579446598887444, 0.014485388994216919, -0.0015789770986884832, 0.07079927623271942, -0.020957309752702713, 0.03865310177206993, 0.059921182692050934, 0.04004603251814842, 0.05294805020093918, 0.09438791871070862, 0.07219219207763672, 0.04004848003387451, -0.0993434488773346], [0.2949782907962799, 0.14891143143177032, 0.47076210379600525, -0.10627539455890656, -0.14707492291927338, -0.3386487066745758, 0.07460257411003113, -0.02338503487408161, -0.45452168583869934, -0.05528625473380089, 0.0836503803730011, -0.1848578304052353, -0.008329872041940689, 0.04723742604255676, 0.16025781631469727, 0.5042851567268372, 0.0977872759103775, -0.0683920681476593, -0.17821967601776123, 0.1319359689950943], [-0.09589149802923203, 0.1714112013578415, -0.6310597658157349, -0.03265288099646568, 0.09949124604463577, -0.04483978450298309, 0.06439226865768433, 0.4146882891654968, 0.07643602788448334, 0.07600440829992294, -0.04304807633161545, -0.4963398873806, 0.04602485150098801, -0.033141788095235825, 0.11623931676149368, 0.07130309194326401, 0.04546983540058136, -0.11089666187763214, 0.297519326210022, 0.16130509972572327], [0.052743688225746155, -0.20573391020298004, -0.007953640073537827, 0.35206061601638794, 0.05171351134777069, 0.32933714985847473, 0.048994190990924835, -0.2178053855895996, -0.3161051869392395, -0.05657992511987686, 0.2293507605791092, 0.19610007107257843, 0.4970415234565735, 0.12018481642007828, -0.02644273266196251, -0.08656914532184601, 0.18648403882980347, -0.005936512723565102, -0.5197490453720093, -0.17595042288303375], [-0.23617732524871826, 0.16535940766334534, -0.5359736084938049, 0.29596611857414246, -0.0702599287033081, -0.1305161565542221, 0.32194048166275024, 0.2206183522939682, -0.5802921056747437, 0.05419066175818443, 0.07550294697284698, -0.2898525595664978, -0.04162849113345146, 0.4510364532470703, -0.3665062487125397, -0.1643221229314804, 0.15731489658355713, 0.04200828820466995, -0.16948291659355164, -0.028572874143719673], [-0.09324564039707184, 0.20328527688980103, -0.1966111809015274, -0.030866572633385658, 0.08452001959085464, -0.22542184591293335, 0.14528991281986237, -0.08273987472057343, 0.108774334192276, 0.003218606114387512, -0.015897661447525024, 0.16080531477928162, -0.0060849906876683235, -0.18973153829574585, 0.04596864432096481, 0.1302763819694519, 0.059042125940322876, 0.10545345395803452, -0.07519547641277313, -0.03699873015284538], [0.2817288041114807, -0.11083357781171799, 0.16159464418888092, 0.24182404577732086, 0.03838329017162323, 0.0007740079890936613, 0.10671227425336838, -0.13508567214012146, 0.015899723395705223, 0.013484915718436241, -0.04652385786175728, 0.18078435957431793, 0.17463727295398712, 0.2840842008590698, -0.1860257089138031, -0.28836074471473694, 0.26437896490097046, 0.4225233197212219, -0.09757410734891891, -0.04166962578892708], [-0.046210624277591705, 0.0130836246535182, -0.0960669070482254, 0.01260995864868164, 0.10804906487464905, -0.1420658677816391, -0.008842493407428265, -0.019842280074954033, 0.12845894694328308, 0.043850094079971313, 0.12000210583209991, -0.12167296558618546, -0.04974798113107681, 0.2698834240436554, 0.005658257752656937, -0.33264294266700745, -0.08899068832397461, 0.30092406272888184, -0.11694159358739853, -0.2468368262052536], [-0.027115246281027794, -0.06254304945468903, -0.21763652563095093, -0.13748961687088013, 0.15814223885536194, -0.022343048825860023, 0.05537993088364601, 0.47328510880470276, -0.4990389347076416, 0.0679532140493393, 0.09995415061712265, 0.19905298948287964, -0.0876946970820427, 0.32409173250198364, -0.021905500441789627, 0.22712694108486176, 0.16034890711307526, 0.37171486020088196, -0.213075190782547, -0.256897896528244], [0.834309995174408, -0.014823805540800095, -0.0784188061952591, -0.22098173201084137, 0.47840291261672974, -0.665177583694458, 0.5443142056465149, -0.1951328068971634, -0.628093957901001, -0.20064593851566315, 0.3765887916088104, 0.5257003903388977, 0.0264976117759943, -0.6804820895195007, -0.1386055052280426, 1.0492894649505615, 0.1769210249185562, -0.2848310172557831, -0.19014614820480347, -0.5208198428153992], [-0.04751281440258026, 0.007650880143046379, -0.09065520763397217, -0.030347051098942757, -0.11787425726652145, 0.008622966706752777, 0.055928800255060196, 0.10053412616252899, 0.08327016979455948, 0.006218949798494577, -0.049253273755311966, -0.06296336650848389, 0.05408622324466705, 0.11504523456096649, -0.0740453451871872, -0.06956719607114792, 0.005268085282295942, 0.3061164319515228, 0.0007460979977622628, -0.02351001836359501], [0.18497811257839203, -0.27336373925209045, -0.03949396312236786, -0.07504252344369888, 0.004775742068886757, -0.411770761013031, 0.08422154933214188, -0.011101768352091312, 0.09163758903741837, -0.014901116490364075, -0.005016959272325039, 0.04383141174912453, 0.11076691746711731, -0.10043367743492126, 0.1193469986319542, 0.09604892134666443, -0.006892133038491011, 0.18506033718585968, -0.38221898674964905, 0.011367342434823513], [-0.22321362793445587, -0.14327581226825714, 0.18379329144954681, 0.2843795716762543, 0.026069456711411476, -0.14310605823993683, -0.055258508771657944, -0.3669181764125824, 0.13621783256530762, -0.024338409304618835, 0.043151628226041794, 0.14945124089717865, -0.05386798083782196, 0.09850374609231949, 0.21392226219177246, 0.06877496093511581, 0.10318586230278015, -0.23107320070266724, 0.1642882227897644, 0.31006085872650146], [-0.05617488548159599, 0.02328137494623661, 0.30562180280685425, 0.18100272119045258, 0.1271713227033615, 0.2027239203453064, -0.07096128165721893, -0.4320243000984192, -0.014905736781656742, -0.03307473659515381, 0.009060616604983807, 0.36631593108177185, 0.31368324160575867, 0.07634509354829788, -0.2319639027118683, -0.10285232961177826, 0.13519126176834106, 0.2722615897655487, -0.19058416783809662, -0.18581999838352203], [0.01755216158926487, -0.07935873419046402, -0.07708299160003662, -0.11035441607236862, -0.04643559083342552, -0.3666471838951111, -0.3043011426925659, 3.8922673411434516e-05, 1.5598502159118652, 0.03845764696598053, -0.1314687728881836, -0.18816904723644257, -0.20493152737617493, 0.15200838446617126, 0.2160681039094925, -0.7235510945320129, 0.2737329602241516, 0.351163387298584, -0.22536137700080872, 0.2219318449497223], [0.09195096790790558, -0.09835221618413925, 0.29877009987831116, -0.14661403000354767, -0.0012520881136879325, -0.236429825425148, 0.35532864928245544, 0.38054895401000977, -0.5564665198326111, -0.03612012043595314, 0.009008539840579033, -0.0024745024275034666, 0.1928490400314331, -0.4675651490688324, -0.06073876470327377, 0.4324903190135956, -0.04432443156838417, -0.5475864410400391, 0.16368617117404938, -0.0967172309756279], [-0.4103661775588989, 0.24081802368164062, -0.09461800754070282, -0.18572521209716797, -0.02146674506366253, 0.06294021755456924, -0.1104058101773262, -0.05866072326898575, -0.16309626400470734, 0.0524311289191246, -0.28714966773986816, -0.37165170907974243, 0.06598229706287384, -0.031878769397735596, 0.1632077544927597, -0.291089802980423, -0.12305252999067307, -0.44858023524284363, 0.13269248604774475, 0.25176727771759033], [0.10100440680980682, 0.3348616659641266, -0.07381246984004974, -0.14648571610450745, 0.25633323192596436, -0.492217481136322, 0.030351489782333374, 0.11641623079776764, 0.3358736038208008, -0.03244989737868309, -0.06505461782217026, 0.02365972101688385, 0.06447247415781021, -0.07010982930660248, 0.2702468931674957, 0.35749298334121704, -0.014141750521957874, 0.005326707381755114, -0.17679978907108307, 0.052884701639413834], [0.18352095782756805, 0.10054133087396622, -0.19894298911094666, -0.07841658592224121, 0.09206543117761612, -0.1389622837305069, 0.08265247195959091, -0.20077966153621674, 0.3007773756980896, -0.0049918885342776775, 0.11310421675443649, 0.03165620565414429, -0.12070749700069427, 0.07633543014526367, -0.01657254807651043, -0.11691374331712723, 0.41598838567733765, 0.13943089544773102, 0.03946749493479729, 0.05113580822944641], [0.32935360074043274, 0.10922326892614365, 0.03527733311057091, -0.11332676559686661, -0.11892833560705185, -0.036874983459711075, 0.08861012756824493, 0.15828384459018707, -0.17896467447280884, -0.04500637948513031, 0.012290540151298046, -0.06346224248409271, 0.07269589602947235, -0.0023923497647047043, 0.102271668612957, -0.12902824580669403, 0.1234375461935997, -0.08330325037240982, 0.3983117640018463, -0.01723225973546505], [-0.04772622510790825, -0.12797415256500244, 0.04949546232819557, 0.164849653840065, 0.043809834867715836, 0.1505323052406311, -0.0958375483751297, 0.17243584990501404, -0.3917250335216522, -0.05393408611416817, -0.09724550694227219, -0.046011801809072495, 0.11469214409589767, 0.036961909383535385, -0.11012859642505646, 0.25381213426589966, -0.10472581535577774, -0.2728261351585388, 0.376358300447464, -0.06729451566934586], [0.014394369907677174, 0.17359013855457306, -0.021030191332101822, 0.012983826920390129, 0.08935442566871643, 0.07351408898830414, 0.010718845762312412, 0.05502630025148392, 0.011192087084054947, -0.0073812613263726234, 0.05646531283855438, 0.013597551733255386, 0.21671752631664276, 0.05150529742240906, 0.05379510298371315, -0.03880838677287102, 0.17621131241321564, 0.16101934015750885, 0.21520128846168518, 0.004133790731430054], [-0.13015706837177277, 0.1430661827325821, -0.03508944809436798, -0.08070948719978333, 0.032116636633872986, 0.049016132950782776, 0.010667775757610798, -0.1694054752588272, 0.3267171382904053, 0.0024251393042504787, -0.0436524823307991, -0.12425974011421204, 0.0811767652630806, -0.15923894941806793, 0.1569669395685196, -0.2255612015724182, 0.09242536127567291, 0.1422106772661209, 0.12657149136066437, 0.20444723963737488], [-0.0172688290476799, 0.08832499384880066, 0.0677257776260376, 0.039226993918418884, 0.05994202196598053, 0.1294529139995575, 0.0055880676954984665, -0.03359752520918846, 0.020621908828616142, -0.008261242881417274, -0.004438165109604597, 0.039940301328897476, 0.2627136707305908, -0.02182782255113125, 0.04915947839617729, -0.09254959225654602, 0.13121448457241058, 0.15775512158870697, 0.23665250837802887, 0.03455671668052673], [0.017072241753339767, 0.0426349900662899, 0.18983717262744904, -0.0642731636762619, 0.07195964455604553, 0.01761934719979763, 0.1142914667725563, -0.11732335388660431, -0.006774891633540392, -0.018331438302993774, 0.03836553543806076, 0.12848079204559326, 0.12995804846286774, -0.057417795062065125, 0.04388399049639702, -0.016812579706311226, 0.039303265511989594, 0.13319627940654755, 0.15082481503486633, -0.15451116859912872], [-0.003216024488210678, 0.17327168583869934, -0.04904839023947716, 0.028064163401722908, 0.12057071924209595, -0.016838736832141876, 0.07285887002944946, 0.014223097823560238, -0.027125904336571693, -0.01642666943371296, 0.04854971542954445, 0.015555164776742458, 0.11731108278036118, 0.07798416167497635, 0.041032787412405014, 0.048675574362277985, 0.06656642258167267, 0.10922286659479141, -0.15151436626911163, -0.07389213144779205], [-0.05250983685255051, -0.08962966501712799, 0.037264738231897354, 0.01761835813522339, -0.10142342001199722, 0.19754613935947418, 0.1297139823436737, 0.06183647736907005, 0.06263546645641327, 0.03460795059800148, 0.08982086926698685, 0.0441022552549839, 0.07418594509363174, -0.1491582691669464, -0.0008481680997647345, -0.30407801270484924, -0.10110205411911011, 0.1308196485042572, 0.17860768735408783, -0.03805384412407875], [0.038431841880083084, 0.17347842454910278, -0.06247686967253685, -0.04487941786646843, 0.133794903755188, 0.04188035428524017, 0.09302251785993576, 0.04622260481119156, -0.04287837818264961, -0.007968724705278873, 0.037854231894016266, -0.023612111806869507, 0.15230748057365417, 0.007405194919556379, 0.015995288267731667, 0.0872931182384491, 0.2005433738231659, 0.1185087189078331, 0.09199871867895126, -0.06498221307992935], [-0.07604838907718658, -0.13625295460224152, 0.044895537197589874, 0.11088097095489502, 0.028401698917150497, -0.031351324170827866, 0.037595201283693314, -0.08550000935792923, 0.09295570105314255, 0.0028338453266769648, 0.00988616980612278, 0.01616097055375576, 0.16167759895324707, 0.019606081768870354, 0.09490963071584702, -0.17379926145076752, -0.18447187542915344, 0.007081176154315472, 0.086495041847229, 0.05072423443198204], [0.0009309827000834048, 0.3903655409812927, -0.01463385671377182, -0.023799212649464607, 0.2688872218132019, 0.26885750889778137, 0.06072907894849777, -0.014706258662045002, 0.007960711605846882, -0.001129430253058672, -0.04271642491221428, -0.01885892264544964, 0.49443358182907104, -0.021441126242280006, 0.03428390994668007, 0.0028771748766303062, 0.477160781621933, 0.3100767731666565, 0.35443249344825745, 0.027887657284736633], [0.0026759481988847256, 0.0024467287585139275, 0.00029740124591626227, 0.0019799573346972466, 0.007998739369213581, 0.003998427651822567, 0.009334917180240154, 0.0034497606102377176, 0.0015431249048560858, -0.0011774302693083882, 0.005911055486649275, 0.0031850046943873167, 0.003177387872710824, 0.0028427268844097853, 0.0052763731218874454, -0.0032547530718147755, 0.007341957185417414, 0.008206015452742577, 0.007700855378061533, -0.004566373769193888], [0.1047360748052597, -0.035861674696207047, -0.0067112320102751255, -0.025144461542367935, 0.10665569454431534, -0.1384403109550476, 0.11890294402837753, 0.035870086401700974, -0.0501507930457592, -0.025225279852747917, 0.08456810563802719, 0.05709788575768471, -0.060555629432201385, -0.10330751538276672, -0.0008423267863690853, 0.10977335274219513, 0.06323602050542831, 0.061266884207725525, -0.18673497438430786, -0.11423874646425247], [0.020229432731866837, -0.01596130058169365, 0.0231944527477026, -0.0697626918554306, 0.08497616648674011, 0.09934033453464508, 0.036882463842630386, -0.13086798787117004, 0.014023948460817337, -0.019884923473000526, 0.07180868834257126, 0.10026794672012329, 0.23217475414276123, -0.03134719282388687, 0.07497939467430115, 0.07226865738630295, -0.10018298029899597, 0.21447506546974182, 0.20244207978248596, -0.03134011849761009], [-0.008758075535297394, 0.03809021785855293, 0.1374649852514267, 0.31390494108200073, 0.17180193960666656, 0.12567459046840668, 0.205362007021904, -0.1538049578666687, -0.23699557781219482, 0.015282499603927135, 0.02573925442993641, 0.3555724620819092, 0.5004989504814148, -0.14823874831199646, 0.1838010549545288, -0.01977238617837429, 0.031138785183429718, 0.2848178446292877, 0.0350089929997921, -0.07687856256961823], [-0.011265059001743793, 0.2772877514362335, -0.028436308726668358, -0.02253800816833973, 0.17051108181476593, 0.1700313687324524, 0.06774290651082993, 0.042021244764328, 0.014179109595716, 0.00590249290689826, 0.007664183620363474, -0.020323297008872032, 0.35361647605895996, 0.032837554812431335, 0.04522078484296799, -0.03807066008448601, 0.3390437960624695, 0.23300662636756897, 0.2623978555202484, 0.0014516657683998346], [-0.001826859312132001, 0.18970580399036407, 0.0020600331481546164, -0.004418386146426201, 0.10333768278360367, 0.12235119938850403, 0.03769287094473839, 0.014573611319065094, -0.000181629802682437, 0.004150427412241697, -0.0021963329054415226, -0.01882854290306568, 0.24734090268611908, -0.01474848948419094, 0.036674533039331436, -0.0240602046251297, 0.19555158913135529, 0.14174793660640717, 0.19196559488773346, 0.007822076790034771], [0.0011754374718293548, 0.21865452826023102, -0.016805777326226234, -0.024788260459899902, 0.13970011472702026, 0.126470148563385, 0.0609295591711998, 0.03841631859540939, 0.01739608310163021, 0.0053061144426465034, 0.01677468791604042, -0.005094542633742094, 0.2964180111885071, 0.07763909548521042, 0.010864184238016605, -0.054500922560691833, 0.30947110056877136, 0.19764745235443115, 0.20434652268886566, -0.005002154037356377], [-0.09761562943458557, 0.11514383554458618, -0.05898018553853035, 0.03564839065074921, 0.16176113486289978, 0.20971916615962982, 0.04179569333791733, 0.06397923082113266, 0.10150495171546936, -0.0033174401614814997, 0.03277524188160896, -0.04496777802705765, 0.42932209372520447, 0.36841848492622375, 0.026860851794481277, -0.15475840866565704, 0.10045158118009567, 0.5938712358474731, -0.024798111990094185, -0.01280010025948286], [-0.05540252849459648, 0.043776821345090866, -0.1305517554283142, -0.07688084989786148, 0.04914327338337898, 0.07089511305093765, 0.009499423205852509, 0.04434766247868538, 0.24747148156166077, 0.016719164326786995, 0.05207173898816109, -0.07408607751131058, 0.046986423432826996, 0.18977174162864685, -0.02793441154062748, -0.17415674030780792, 0.18510040640830994, 0.20564711093902588, 0.042877841740846634, -0.006934868637472391], [-0.10016115009784698, -0.004562250338494778, 0.03106016106903553, -0.014486992731690407, -0.07678736001253128, 0.29365766048431396, 0.06740839779376984, -0.10073196142911911, -0.1727464646100998, -0.03159109130501747, 0.020964255556464195, 0.14458544552326202, 0.35059627890586853, -0.1993371546268463, 0.15601322054862976, -0.007273120805621147, -0.18467247486114502, -0.06635154038667679, 0.6128374338150024, 0.11196932941675186], [0.03565182164311409, 0.14003652334213257, -0.04150744900107384, -0.07996765524148941, 0.10408705472946167, 0.03987511992454529, 0.07955499738454819, 0.028128208592534065, 0.002423475729301572, -0.0008144834428094327, 0.053413961082696915, -0.008924390189349651, 0.12546023726463318, 0.039631880819797516, 0.016843488439917564, 0.024862607941031456, 0.15927615761756897, 0.1464797407388687, 0.12329275906085968, -0.05192997306585312]], "rec.bias_ih_l0": [0.09594408422708511, 0.016379689797759056, -0.2870786786079407, -0.8968523144721985, -0.05256650224328041, 0.0019979255739599466, 0.15306128561496735, -0.6662907600402832, 0.7593807578086853, -0.046619854867458344, -0.18608161807060242, -0.43414321541786194, -0.09994107484817505, 0.5237684845924377, 0.34950751066207886, 0.24396884441375732, 0.1449880450963974, -0.026162784546613693, -0.3285737633705139, 0.09625925123691559, 0.29586106538772583, 0.28015726804733276, 0.6512353420257568, 1.10520339012146, 0.21893435716629028, 0.19952747225761414, 0.09111973643302917, 0.9466612339019775, -0.13485103845596313, 0.018260274082422256, 0.00633201003074646, 0.5919801592826843, 0.48107418417930603, 0.22496309876441956, -0.008631819859147072, 0.18595649302005768, 0.27799901366233826, 0.08928904682397842, 0.49237558245658875, 0.13421891629695892, 0.10205041617155075, 0.2841610908508301, -0.18503278493881226, -0.07819348573684692, 0.28969311714172363, 0.08820820599794388, 0.10068562626838684, -0.006763635203242302, 0.1314007192850113, -0.19721880555152893, 0.0877341777086258, 0.033552952110767365, 0.037270087748765945, -0.09159290790557861, 0.043989673256874084, -0.04757704958319664, 0.27034369111061096, 0.3273906111717224, 0.0949523001909256, 0.1514960527420044, 0.29627421498298645, 0.034260381013154984, 0.34603315591812134, 0.12080606818199158, 0.20853833854198456, 0.09927007555961609, 0.2818463444709778, -0.0863688737154007, 0.7649866342544556, -0.002768659731373191, -0.11826185882091522, -0.13477273285388947, 0.12110674381256104, 0.5767525434494019, 0.36590641736984253, 0.4381150007247925, -0.0009635799797251821, 0.1135198324918747, 0.04318467900156975, 0.14571347832679749], "rec.bias_hh_l0": [0.08475327491760254, 0.30547669529914856, -0.10268948972225189, -0.8311325907707214, 0.07643771916627884, 0.10054506361484528, 0.1740754097700119, -0.6261569857597351, 0.7593194246292114, -0.04989799112081528, -0.19881671667099, -0.4193011224269867, -0.16242477297782898, 0.5271252989768982, 0.3347994387149811, 0.28432244062423706, 0.19596073031425476, 0.00879604835063219, -0.20994426310062408, 0.15286655724048615, 0.2804674506187439, 0.12701044976711273, 0.4706684350967407, 1.326137900352478, -0.031063100323081017, 0.2997273802757263, 0.09568826109170914, 0.9118233919143677, -0.14434073865413666, 0.01741425134241581, -2.059956568700727e-05, 0.5779761075973511, 0.5459117293357849, 0.24444478750228882, 0.0246723685413599, 0.15317367017269135, 0.090028777718544, 0.0942102000117302, 0.537066638469696, 0.04857524484395981, 0.049695935100317, 0.2357378900051117, -0.015762338414788246, 0.06687932461500168, 0.18142549693584442, -0.0011873642215505242, 0.007533309981226921, -0.08304622024297714, 0.04722319915890694, 0.06120112165808678, -0.013806039467453957, 0.041189227253198624, 0.1552991271018982, 0.174125537276268, 0.167049840092659, 0.014890880323946476, 0.33863717317581177, -0.013771035708487034, 0.07297525554895401, -0.1480511873960495, 0.29242679476737976, -0.04549012333154678, 0.23807884752750397, 0.00019631836039479822, -0.005439706612378359, 0.04045088216662407, 0.21281345188617706, 0.08364111930131912, 0.7649708390235901, -0.0031378730200231075, -0.025251640006899834, 0.006815447937697172, 0.029526058584451675, 0.5741829872131348, 0.31918150186538696, 0.4166727662086487, 0.2204069197177887, 0.17371919751167297, -0.05446448549628258, 0.2048489898443222], "lin.weight": [[-0.2526220381259918, 0.24804441630840302, -0.5968222618103027, -0.35985854268074036, 0.1146601065993309, -0.045119576156139374, 0.45226380228996277, -0.001564530422911048, -1.6728836297988892, 0.10862509906291962, 0.31771302223205566, -0.02412991225719452, -0.2025212049484253, 0.7967555522918701, -0.47606581449508667, 0.37947699427604675, 0.2946232259273529, 0.18718619644641876, -0.2700706720352173, -0.3606939911842346]], "lin.bias": [-0.10774438828229904]}}