{"model_data": {"model": "SimpleRNN", "input_size": 1, "skip": 1, "output_size": 1, "unit_type": "LSTM", "num_layers": 1, "hidden_size": 20, "bias_fl": true}, "state_dict": {"rec.weight_ih_l0": [[0.37819233536720276], [-0.16255956888198853], [-0.37668538093566895], [0.1512341946363449], [-0.05864039808511734], [-0.19719281792640686], [0.1504371166229248], [0.032668087631464005], [-0.39745670557022095], [-0.09253879636526108], [0.19250471889972687], [0.08469286561012268], [0.30190855264663696], [-0.03882439807057381], [0.2271086424589157], [-0.03345227986574173], [-0.018285401165485382], [0.207613006234169], [0.2890006899833679], [-0.19745421409606934], [0.3268866240978241], [-0.21640998125076294], [-0.40060490369796753], [0.29605215787887573], [-0.10350608825683594], [-0.2034245878458023], [0.12494867295026779], [-0.007118023466318846], [-0.6198764443397522], [-0.19101157784461975], [0.3435017466545105], [0.1040661484003067], [0.30365946888923645], [-0.13205546140670776], [0.33089739084243774], [-0.14876791834831238], [0.0017633388051763177], [0.3117990791797638], [0.44851478934288025], [-0.3592161238193512], [0.5723983645439148], [-0.2827511131763458], [-0.3174996078014374], [-0.30072927474975586], [-0.46551600098609924], [0.10161974281072617], [-1.6591851711273193], [-0.8068848848342896], [-0.42185351252555847], [-0.9021734595298767], [0.13301946222782135], [-0.9151834845542908], [-0.30332401394844055], [-0.2597055733203888], [1.1089829206466675], [0.22452251613140106], [-0.11555041372776031], [1.1216578483581543], [0.9486640095710754], [0.5272434949874878], [0.4305538237094879], [-0.2933541238307953], [-0.5192581415176392], [0.3659738302230835], [-0.04709653928875923], [-0.21240797638893127], [0.18584004044532776], [0.0311871450394392], [-0.30144432187080383], [-0.0965598002076149], [0.3337228298187256], [0.16236448287963867], [0.30081361532211304], [-0.006030174903571606], [0.2847887873649597], [-0.2544701397418976], [0.00026480702217668295], [0.4298078417778015], [0.4039321839809418], [-0.44081905484199524]], "rec.weight_hh_l0": [[0.12323594838380814, -0.031132183969020844, 0.002846226328983903, 0.03731793165206909, -0.010585810989141464, 0.020174851641058922, -0.0235865730792284, -0.052775606513023376, -0.12575721740722656, -0.027841120958328247, -0.028251849114894867, -0.20720767974853516, -0.02388463169336319, -0.18955345451831818, 0.002568252384662628, 0.031185809522867203, -0.055364418774843216, 0.16983166337013245, 0.06261354684829712, 0.06572278589010239], [0.10941507667303085, 0.08608654886484146, 0.21761676669120789, 0.009257561527192593, -0.024298785254359245, -0.06455574929714203, 0.059463463723659515, 0.059926699846982956, -0.04141385853290558, 0.059205617755651474, -0.01969030313193798, 0.047883424907922745, -0.029968900606036186, 0.07271412760019302, -0.052321657538414, -0.1794385015964508, -0.0005818399949930608, -0.055921804159879684, 0.1295921951532364, -0.06677412241697311], [-0.05966166779398918, 0.10742529481649399, 0.0485423244535923, 0.10445056855678558, -0.05090309679508209, -0.021566374227404594, 0.09189900755882263, 0.053284622728824615, 0.12247467041015625, -0.012878176756203175, -0.13789430260658264, 0.21205389499664307, 0.05303480476140976, 0.07676200568675995, 0.005292423069477081, -0.07890476286411285, 0.02605380490422249, -0.28263264894485474, -0.1032068282365799, -0.026737678796052933], [-0.08849354833364487, 0.0068787503987550735, 0.029646456241607666, -0.10650491714477539, -0.03509647026658058, 0.05866661295294762, 0.03922072425484657, -0.08317120373249054, -0.06412464380264282, 0.10215417295694351, 0.05028086155653, 0.056437306106090546, -0.036941323429346085, -0.14041587710380554, 0.17846903204917908, -0.138985276222229, 0.014461332932114601, -0.13330993056297302, -0.08276375383138657, 0.13251660764217377], [-0.04925831779837608, 0.10813171416521072, 0.15320712327957153, -0.034293338656425476, -0.050993382930755615, -0.08830194920301437, 0.041855521500110626, -0.007305005099624395, 0.10768382251262665, 0.08838824927806854, -0.05408671125769615, 0.13777925074100494, 0.040283020585775375, -0.02316707745194435, 0.08080574870109558, -0.2054125964641571, 0.07560742646455765, -0.21185848116874695, -0.10250423103570938, -0.2314811795949936], [-0.01763719692826271, 0.05915365740656853, 0.0797717347741127, 0.13657517731189728, 0.045045156031847, -0.08761598914861679, 0.07646487653255463, 0.08355081081390381, -0.09977974742650986, 0.03883781284093857, -0.054650675505399704, 0.05455833673477173, -0.024343758821487427, 0.06055249646306038, -0.0697021484375, -0.07869363576173782, -0.007895177230238914, -0.04843970015645027, -0.024304503574967384, 0.14997155964374542], [0.08524040132761002, 0.01027031522244215, -0.07756677269935608, -0.10006825625896454, -0.061617132276296616, 0.07760235667228699, -0.07616893947124481, -0.03228724002838135, -0.011275360360741615, -0.05903270095586777, -0.08097061514854431, -0.09996474534273148, 0.02555738389492035, -0.038864437490701675, 0.06476260721683502, 0.12071424722671509, -0.029334435239434242, 0.08241738379001617, 0.005816440563648939, 0.019649019464850426], [0.06137316673994064, 0.00159882428124547, 0.008430656045675278, 0.014992790296673775, 0.018903793767094612, 0.006326179951429367, 0.006089575123041868, -0.007248348090797663, -0.07374992221593857, 0.030390381813049316, -0.005531139671802521, -0.008931783959269524, -0.023387061432003975, -0.04841301962733269, 0.0338880755007267, 0.015827378258109093, -0.022089682519435883, 0.07522128522396088, 0.02409990504384041, 0.04131227731704712], [-0.05437273159623146, -0.00037820046418346465, -0.16544215381145477, 0.11234087496995926, -0.008163449354469776, -0.06969372183084488, 0.13177108764648438, 0.029730310663580894, -0.12586167454719543, 0.07145077735185623, -0.09211339056491852, -0.07276792079210281, 0.02608029916882515, 0.1007298156619072, 0.048292916268110275, -0.12042004615068436, -0.030088527128100395, 0.018309690058231354, 0.023956775665283203, 0.11878158152103424], [-0.05179828032851219, -0.07290487736463547, -0.04887727275490761, 0.03682183846831322, 0.05866650119423866, -0.0366637222468853, -0.026421118527650833, -0.054933350533246994, -0.21474985778331757, 0.18119491636753082, -0.2384110689163208, -0.018046338111162186, 0.012417798861861229, -0.04385555908083916, -0.04565691947937012, -0.05355249345302582, 0.023906363174319267, -0.07809146493673325, -0.20745809376239777, 0.3291763365268707], [0.027279434725642204, 0.023003144189715385, 0.051701661199331284, 0.2769700884819031, -0.08117742091417313, -0.0011142113944515586, 0.010451429523527622, -0.036820538341999054, -0.06401882320642471, -0.013533264398574829, 0.13607734441757202, -0.0626450851559639, -0.022383080795407295, -0.2870998978614807, 0.1418306529521942, -0.07072027772665024, 0.03194314241409302, -0.2064933329820633, -0.024227991700172424, -0.04035182297229767], [0.12043697386980057, 0.05323731154203415, 0.20584551990032196, -0.12630073726177216, -0.06500884890556335, -0.034370649605989456, 0.059961557388305664, -0.05215059965848923, -0.12117094546556473, 0.09014023095369339, -0.0261579230427742, -0.10657316446304321, -0.06140577048063278, -0.17713899910449982, -0.008510016836225986, -0.17581984400749207, 0.03129887580871582, -0.011112617328763008, 0.05841134861111641, 0.10658925026655197], [0.13164372742176056, -0.011007780209183693, 0.0069075413048267365, 0.01961699314415455, -0.025285635143518448, 0.04397880658507347, -0.05773283541202545, -0.02210298553109169, -0.06526526808738708, -0.11532154679298401, 0.13127483427524567, -0.1405326873064041, -0.061423398554325104, -0.1129864901304245, 0.03764478489756584, 0.07363253831863403, -0.07266340404748917, 0.04600818082690239, 0.09815976023674011, -0.049015529453754425], [0.156895712018013, 0.1179383173584938, 0.1158190444111824, -0.0519927553832531, -0.03496928513050079, -0.014953238889575005, -0.05645805597305298, 0.032717496156692505, -0.027833042666316032, 0.05201049894094467, -0.10787413269281387, -0.03727372735738754, -0.011923129670321941, 0.02601102739572525, 0.0013243439607322216, -0.020783694460988045, -0.015882126986980438, 0.07176844775676727, 0.007007448468357325, 0.0225592702627182], [0.16554923355579376, 0.017093600705266, 0.10807455331087112, 0.060933586210012436, -0.14956386387348175, 0.024013742804527283, 0.0610576868057251, 0.009405325166881084, 0.01971910148859024, -0.09548789262771606, 0.10212994366884232, -0.06503448635339737, -0.022760635241866112, -0.17119790613651276, 0.1247103288769722, -0.0805685818195343, 0.011020563542842865, 0.0425928495824337, 0.1146995797753334, -0.44661009311676025], [0.1574420928955078, 0.02579919621348381, 0.011767725460231304, -0.06886054575443268, -0.02514198049902916, -0.03449377417564392, 0.06505665183067322, 0.02758721448481083, 0.017895303666591644, -0.025516709312796593, -0.12574224174022675, 0.09310247004032135, 0.0009535866556689143, -0.01906227320432663, 0.005263002123683691, 0.006097740028053522, -0.017564257606863976, -0.07962564378976822, 0.07065783441066742, -0.023870131000876427], [0.011346407234668732, 0.00058140535838902, 0.06426447629928589, 0.09659776091575623, 0.05378885939717293, -0.013936568051576614, 0.0673467367887497, 0.0011723762145265937, -0.07462358474731445, -0.00019121378136333078, 0.054563283920288086, -0.07988285273313522, -0.035828184336423874, -0.06791727989912033, -0.027573253959417343, -0.06307468563318253, 0.003017940791323781, 0.03467826917767525, 0.018802298232913017, -0.024698490276932716], [-0.004817120730876923, -0.0117470258846879, -0.22246776521205902, 0.008566075935959816, -0.026093577966094017, 0.27801060676574707, -0.06350471824407578, -0.010044177062809467, -0.015478876419365406, -0.11547857522964478, -0.25726285576820374, -0.10382740199565887, 0.09844858199357986, 0.10495324432849884, 0.21301054954528809, 0.21577775478363037, -0.04098831117153168, 0.03626185655593872, -0.1655939370393753, -0.18617908656597137], [0.060273587703704834, -0.014985297806560993, -0.014758358709514141, 0.07410754263401031, 0.05893732234835625, 0.0029732242692261934, -0.09204122424125671, 0.018994303420186043, -0.06341889500617981, 0.021399708464741707, -0.05373108386993408, 0.01757594384253025, 0.03255392611026764, -0.08214542269706726, -0.05179045349359512, 0.005080903880298138, 0.02339651808142662, 0.10406475514173508, -0.011540954932570457, 0.014782654121518135], [-0.15296295285224915, 0.047200363129377365, -0.19822806119918823, -0.04757072031497955, -0.055029191076755524, -0.08755651861429214, 0.1507902592420578, 0.03497869521379471, 0.14462555944919586, 0.16558615863323212, -0.0011442445684224367, 0.11864393949508667, -0.001396827632561326, 0.023493222892284393, 0.25537630915641785, -0.03157979995012283, -0.10748497396707535, -0.052702970802783966, -0.052901316434144974, -0.13994532823562622], [0.14298661053180695, -0.09977851808071136, -0.05452762544155121, 0.007586001884192228, 0.007543375249952078, 0.03012811951339245, -0.11407044529914856, -0.07493162900209427, -0.15595272183418274, -0.03939606994390488, -0.013991368003189564, -0.16075682640075684, -0.049864690750837326, -0.19823600351810455, -0.05236494913697243, 0.09707940369844437, -0.032708119601011276, 0.21304616332054138, 0.0975913479924202, 0.15859940648078918], [0.09687487035989761, 0.07501152157783508, 0.13125711679458618, -0.09722711890935898, -0.10047397017478943, 0.00702695595100522, 0.03480944037437439, 0.021600162610411644, -0.013095169328153133, 0.07920291274785995, -0.10033245384693146, 0.06210998073220253, 0.017041407525539398, 0.11404696106910706, 0.025951310992240906, -0.10301203280687332, 0.0023198272101581097, -0.06713560223579407, 0.05649452283978462, 0.05652126669883728], [-0.019195787608623505, 0.12566398084163666, 0.06754285842180252, 0.16428200900554657, -0.10207238793373108, 0.03332895413041115, 0.18670177459716797, 0.01753009855747223, 0.01568029634654522, -0.03644375130534172, -0.10663288086652756, 0.026845818385481834, 0.04181402176618576, 0.02202160470187664, 0.08332774043083191, -0.11539196968078613, -0.03590202331542969, -0.15793251991271973, -0.14014917612075806, 0.04389157146215439], [0.15741823613643646, -0.027921997010707855, -0.12587545812129974, -0.18056653439998627, -0.30422481894493103, 0.20002005994319916, -0.21114571392536163, -0.11958204209804535, -0.13560347259044647, 0.01307652797549963, 0.06332480162382126, -0.07545436173677444, -0.014828287996351719, 0.13479672372341156, 0.06678491085767746, 0.0955670028924942, -0.023098843172192574, 0.08554130792617798, -0.07667267322540283, 0.3702152371406555], [-0.03669492155313492, 0.19023452699184418, 0.19185537099838257, -0.0847959816455841, -0.1347474604845047, -0.035552285611629486, 0.040289655327796936, -0.04882064461708069, 0.08797404915094376, 0.07163657248020172, -0.030710576102137566, 0.08930668979883194, 0.055411480367183685, -0.036568574607372284, 0.13316002488136292, -0.1901559978723526, 0.02774859219789505, -0.21987035870552063, -0.1268608570098877, -0.1842310130596161], [-0.044608958065509796, 0.06998370587825775, 0.03019244410097599, 0.08134494721889496, 0.029900886118412018, -0.07788781821727753, 0.05646682158112526, 0.08724997937679291, -0.06112786754965782, 0.07323867827653885, -0.1251782923936844, 0.10675337165594101, 0.0045181019231677055, 0.10092148929834366, -0.06952819973230362, -0.03657038137316704, 0.0074003334157168865, -0.046021364629268646, -0.10127396136522293, 0.238735631108284], [-0.04665277898311615, -0.028581049293279648, -0.09298039227724075, -0.07201602309942245, 0.019634325057268143, 0.07484129816293716, -0.07347819209098816, -0.036191437393426895, 0.03917904198169708, -0.0356542132794857, -0.10972880572080612, 0.016109133139252663, 0.03256157785654068, -0.014752008952200413, 0.04150821268558502, 0.09757904708385468, 0.02778669260442257, 0.02677823044359684, -0.07427383214235306, -0.015721414238214493], [-0.0011936974478885531, -0.01370500959455967, -0.015981795266270638, -0.005083898548036814, 0.008074748329818249, 0.005984414368867874, 0.01748060993850231, -0.019856862723827362, -0.07740726321935654, 0.05887584388256073, -0.05087777227163315, 0.036308132112026215, -0.02020706608891487, -0.052265144884586334, 0.037541039288043976, -0.006688951514661312, -0.021227361634373665, -0.01337654609233141, -0.04234980791807175, 0.12590745091438293], [0.06362701952457428, -0.05438796430826187, -0.137556254863739, 0.08859293162822723, -0.08845888078212738, -0.08622977137565613, 0.025644782930612564, -0.04599827155470848, -0.2952403724193573, 0.09603384137153625, -0.12452688813209534, -0.2102566808462143, 0.049908075481653214, -0.005030880682170391, 0.04462014138698578, -0.0030773442704230547, 0.03388766199350357, 0.23295778036117554, -0.03141612932085991, 0.19138911366462708], [-0.0475318618118763, -0.11471734941005707, -0.09210173040628433, 0.05392704904079437, 0.12243328988552094, -0.0454910583794117, -0.0735708698630333, -0.053164053708314896, -0.20136508345603943, 0.1814868152141571, -0.28899016976356506, 0.047163017094135284, -0.0005464743007905781, 0.016031809151172638, -0.11679113656282425, 0.016298552975058556, 0.055579181760549545, 0.012672822922468185, -0.20601457357406616, 0.3551439940929413], [0.06486428529024124, 0.013849355280399323, 0.059512585401535034, 0.26274701952934265, -0.13641831278800964, 0.013821282424032688, -0.03689933568239212, -0.07111646234989166, -0.07004451751708984, -0.02476525865495205, 0.1863083690404892, -0.1012192815542221, -0.0606926828622818, -0.31767162680625916, 0.1701289564371109, -0.07514531910419464, 0.013940630480647087, -0.19546176493167877, 0.011364639736711979, -0.04273964464664459], [0.053911242634058, 0.0011141389841213822, 0.07963726669549942, -0.15696945786476135, 0.02410094439983368, 0.052409641444683075, -0.031910285353660583, -0.0859745517373085, -0.12115895003080368, 0.048354823142290115, -0.001362381037324667, -0.05214262008666992, -0.05773987993597984, -0.09868446737527847, -0.08851326256990433, -0.06237966939806938, 0.07287954539060593, 0.0694684237241745, 0.04361908510327339, 0.18024250864982605], [0.16994823515415192, -0.06560113281011581, -0.026946155354380608, 0.002945143496617675, -0.018100515007972717, 0.04635327309370041, -0.11005354672670364, -0.03636862337589264, -0.08246397227048874, -0.13413207232952118, 0.17083169519901276, -0.13994911313056946, -0.10188082605600357, -0.09933022409677505, 0.012899850495159626, 0.13002391159534454, -0.0693308562040329, 0.05053236708045006, 0.1440683901309967, -0.02281094901263714], [-0.08524559438228607, -0.03116147220134735, -0.19912686944007874, -0.10701171308755875, 0.01653665117919445, 0.00549031887203455, -0.0824277326464653, -0.00992413517087698, 0.05665622279047966, 0.15368367731571198, -0.4582216143608093, 0.09154573827981949, 0.07182212173938751, 0.0961524173617363, 0.06430349498987198, 0.07920283824205399, 0.07772962749004364, 0.07757887989282608, -0.29758331179618835, 0.06235535442829132], [0.1637166440486908, -0.06705840677022934, -0.045313820242881775, -0.030163735151290894, -0.14138753712177277, 0.08196230977773666, -0.21350836753845215, -0.03280048817396164, 0.029284803196787834, -0.13516901433467865, 0.1549871861934662, 0.0857938826084137, -0.03307999297976494, -0.10253386199474335, -0.08950067311525345, 0.10801205784082413, 0.06913400441408157, -0.0029583554714918137, 0.1853543519973755, -0.2640944719314575], [0.13596057891845703, 0.004004324786365032, -0.021893683820962906, 0.07658249884843826, -0.05348462983965874, 0.07162093371152878, 0.14208626747131348, -0.01899210549890995, -0.09190541505813599, -0.09882248193025589, -0.08944857120513916, -0.0913018062710762, -0.032862186431884766, -0.07009319961071014, 0.0509147085249424, -0.03479643538594246, -0.09473521262407303, 0.013111742213368416, -0.050182294100522995, 0.13426844775676727], [0.01366574689745903, 0.0038204300217330456, 0.05127069726586342, 0.07075906544923782, 0.04060133546590805, -0.00933375209569931, 0.04303271695971489, -0.00672513572499156, -0.05930706113576889, -0.002025872003287077, 0.04835624247789383, -0.08832407742738724, -0.027019258588552475, -0.05039852485060692, -0.014274277724325657, -0.040588051080703735, -0.006152249872684479, 0.0750061646103859, 0.020954512059688568, -0.029681550338864326], [-0.11022721230983734, -0.09430333971977234, -0.24976007640361786, 0.07078105211257935, 0.10060156136751175, 0.2926938235759735, -0.17569002509117126, -0.05393986403942108, -0.1453622728586197, -0.14324070513248444, -0.21282610297203064, -0.12819965183734894, 0.06700199097394943, 0.039307113736867905, 0.13329769670963287, 0.24000442028045654, -0.04461726173758507, 0.021348292008042336, -0.2868165969848633, 0.015813635662198067], [0.08264967054128647, -0.0021517283748835325, -0.05135439336299896, -0.10426223278045654, 0.012642158195376396, -0.019266178831458092, -0.25507211685180664, 0.08490019291639328, 0.10895014554262161, -0.013758350163698196, -0.003257612232118845, 0.17560242116451263, 0.08643372356891632, 0.04835658147931099, -0.06076088175177574, 0.13799835741519928, 0.07486869394779205, 0.08335641771554947, 0.06026465445756912, -0.08503613620996475], [0.22068242728710175, -0.06757934391498566, -0.2588294744491577, -0.056244101375341415, -0.3145107626914978, -0.08841808885335922, 0.028029581531882286, -0.1001158282160759, -0.1466601938009262, 0.21314576268196106, 0.06781286746263504, -0.15695270895957947, -0.0500335730612278, 0.22494767606258392, 0.19605354964733124, 0.19127917289733887, -0.09069015085697174, 0.4206293225288391, 0.1878782957792282, 0.08653245121240616], [-0.0763477012515068, 0.020356539636850357, 0.0800812691450119, 0.031288716942071915, -0.1783721148967743, -0.18801219761371613, 0.15778380632400513, -0.08784891664981842, -0.0846266970038414, -0.13144515454769135, -0.07728207856416702, -0.21038052439689636, -0.10130242258310318, -0.22856099903583527, 0.06360265612602234, 0.04787834361195564, -0.010600741021335125, 0.16379034519195557, 0.17072398960590363, 0.09538771957159042], [-0.19486714899539948, 0.21192720532417297, 0.18173128366470337, -0.2264150232076645, -0.11938709765672684, -0.024326127022504807, 0.04782041534781456, 0.19871191680431366, 0.15829545259475708, 0.1170802116394043, 0.04783036559820175, 0.10391497611999512, 0.07768896222114563, 0.37037914991378784, -0.10141532123088837, -0.33765244483947754, -0.068599171936512, 0.11454687267541885, -0.08359289914369583, -0.15408776700496674], [-0.01744399033486843, 0.2569581866264343, 0.2673613727092743, 0.00840982235968113, -0.07865035533905029, -0.2627403140068054, 0.00786915048956871, 0.21160393953323364, 0.16398361325263977, 0.1201973631978035, 0.2376418560743332, 0.09775018692016602, 0.10726967453956604, 0.031483933329582214, -0.16009211540222168, -0.23675374686717987, 0.07883332669734955, -0.0864029973745346, 0.21440860629081726, 0.02809489145874977], [-0.10032272338867188, -0.06317055970430374, -0.12112295627593994, 0.6243837475776672, 0.14614559710025787, 0.13793280720710754, -0.06406418979167938, 0.2154165357351303, -0.0261757280677557, -0.0429636649787426, -0.1044657751917839, -0.18201611936092377, -0.17648129165172577, 0.1427428424358368, -0.20889310538768768, -0.09429061412811279, -0.14387668669223785, -0.017781006172299385, -0.06763265281915665, -0.3133411407470703], [0.3749445676803589, -0.36643093824386597, -0.19988158345222473, 0.14938433468341827, -0.11237230896949768, 0.060967739671468735, -0.2372981607913971, -0.19612544775009155, -0.43218478560447693, -0.04285140335559845, 0.08448191732168198, -0.10030572861433029, -0.1440984159708023, 0.204478919506073, -0.32237735390663147, 0.2601713538169861, -0.10725869238376617, 0.2705015242099762, 0.22238631546497345, 0.18193797767162323], [-0.024706773459911346, -0.0038544349372386932, 0.017676599323749542, -0.03529579937458038, -0.2241978645324707, -0.009097498841583729, 0.05568681284785271, -0.21378658711910248, -0.0008299874025397003, -0.3552264869213104, -0.19196271896362305, -0.4410369098186493, 0.039329446852207184, 0.05744190886616707, 0.5062578320503235, 0.1632223129272461, 0.023827122524380684, 0.10489508509635925, -0.09272541105747223, -0.040750693529844284], [0.44902893900871277, -0.4473503828048706, -0.15367525815963745, -0.424152672290802, -0.02695850282907486, 0.24356693029403687, -0.283286452293396, 0.17323580384254456, -0.15182040631771088, 0.3655760586261749, 0.5037925839424133, 0.00393935851752758, 0.2820045053958893, -1.2599678039550781, -0.12760843336582184, 0.5399821400642395, 0.08388885110616684, 0.07570841908454895, -0.001670192927122116, -0.515663206577301], [0.23162609338760376, 0.06794551759958267, 0.03756280243396759, -0.001523574348539114, 0.05997604876756668, 0.10681149363517761, -0.44861316680908203, -0.16740597784519196, -0.03304675221443176, -0.2458232343196869, 0.16795819997787476, -0.007306949235498905, -0.09579633921384811, 0.402145117521286, 0.10871586203575134, 0.16654318571090698, -0.01707826368510723, -0.014494052156805992, 0.14202304184436798, -0.19714388251304626], [0.11735264956951141, -0.0019220527028664947, -0.22318531572818756, -0.24879392981529236, -0.1383274644613266, 0.05310225486755371, -0.32453808188438416, 0.15807896852493286, 0.11337772011756897, 0.016565317288041115, 0.176363006234169, 0.17850267887115479, 0.0828453078866005, 0.537516713142395, 0.08920778334140778, 0.20393797755241394, -0.08100365102291107, -0.003280340926721692, 0.20327967405319214, -0.41279950737953186], [0.06894959509372711, -0.0035313430707901716, -0.19522665441036224, -0.08940940350294113, -0.009335469454526901, -0.03512031212449074, -0.5102189183235168, -0.11768800020217896, -0.21141043305397034, 0.01843338832259178, 0.09879840910434723, 0.1872452050447464, -0.002244366332888603, -0.17358055710792542, 0.17523245513439178, 0.1585775911808014, 0.18489743769168854, -0.11839381605386734, 0.002141892444342375, 0.2691149413585663], [0.23066948354244232, 0.08016657084226608, 0.28530165553092957, 0.025465520098805428, -0.2712392807006836, -0.29703909158706665, -0.03174739331007004, -0.34194424748420715, -0.0888485386967659, -0.4088893532752991, 0.1540699601173401, -0.14394401013851166, -0.07122667133808136, 0.014684800058603287, 0.19932058453559875, -0.09882079809904099, 0.08991463482379913, -0.270474910736084, 0.5104885697364807, -0.08078045397996902], [-0.05495857074856758, -0.20997652411460876, -0.1639893800020218, -0.10363376140594482, 0.272624671459198, 0.10236244648694992, -0.6218456625938416, -0.1950121521949768, 0.10889235883951187, -0.10088388621807098, 0.05765515938401222, 0.054382745176553726, -0.18263262510299683, 0.6171547770500183, -0.3731575608253479, 0.28190159797668457, -0.029430484399199486, -0.20667286217212677, 0.2747659385204315, -0.16368725895881653], [-0.10189824551343918, 0.4063490331172943, 0.12900713086128235, -0.08860111981630325, -0.14246678352355957, 0.04424501582980156, -0.5049412846565247, 0.1399495005607605, 0.25699883699417114, -0.13842390477657318, -0.0704578310251236, 0.08477488160133362, 0.031089534983038902, 0.11309371143579483, -0.049770668148994446, -0.1600375920534134, -0.06135931238532066, 0.17865581810474396, -0.24711838364601135, 0.04839272424578667], [0.18990011513233185, -0.526474118232727, -0.25399893522262573, -0.5259144902229309, 0.19456951320171356, 0.32173460721969604, 1.3776278495788574, -0.014428057707846165, -0.023892605677247047, 0.15047776699066162, 0.24165810644626617, 0.10713587701320648, -0.44311216473579407, 0.285953551530838, -0.4143087565898895, 0.4924677908420563, -0.24657347798347473, -0.12708941102027893, -0.08636079728603363, -0.08619889616966248], [-0.23852331936359406, 0.2614242434501648, 0.13321539759635925, 0.17874464392662048, -0.18426212668418884, -0.024971941486001015, 0.3112550377845764, -0.003210644470527768, 0.3636859655380249, 0.17989350855350494, -0.27655351161956787, 0.07688653469085693, 0.29121318459510803, -0.3659123182296753, 0.2187613844871521, -0.2894454896450043, 0.0033201815094798803, -0.35765084624290466, -0.38971030712127686, -0.12462686747312546], [0.16060364246368408, -0.2874857187271118, -0.24766208231449127, -0.09664089232683182, 0.19568322598934174, 0.06930668652057648, 0.07275787740945816, -0.29019397497177124, 0.1470271348953247, -0.2748296856880188, -0.13573218882083893, -0.04696878790855408, 0.05425388365983963, -0.3450687825679779, 0.1421278864145279, 0.18244676291942596, 0.1346261352300644, 0.08410967141389847, 0.21037466824054718, -0.022576937451958656], [0.11274457722902298, 0.020014023408293724, -0.1810711771249771, 0.10406879335641861, 0.06820511072874069, 0.006536019034683704, -0.2591135501861572, 0.13265110552310944, 0.2451954036951065, -0.022143462672829628, -0.11798061430454254, 0.21295566856861115, 0.0800958052277565, 0.1588589996099472, -0.3070508539676666, 0.08269631862640381, -0.05525330454111099, -0.06765581667423248, 0.10175085067749023, 0.07804418355226517], [0.39270517230033875, -0.08254114538431168, -0.0993887260556221, -0.05712899938225746, 0.04724062234163284, -0.04535682871937752, 0.9148477911949158, -0.24922065436840057, -0.5539547801017761, 0.06755739450454712, -0.03445538878440857, -0.6924121975898743, -0.16891467571258545, -0.5503201484680176, 0.3386208713054657, 0.2588111162185669, -0.43891534209251404, 0.6976752281188965, 0.08562328666448593, 0.21885564923286438], [0.05836128816008568, -0.21856194734573364, 0.11402610689401627, 0.053907353430986404, 0.08069757372140884, -0.2185802459716797, 0.24886788427829742, -0.028799837455153465, -0.12518616020679474, 0.15822742879390717, 0.23606792092323303, -0.101956807076931, -0.1231723353266716, 0.22381611168384552, -0.1884508579969406, -0.008655828423798084, -0.15020054578781128, 0.022807752713561058, 0.1260010302066803, -0.29770344495773315], [-0.26479238271713257, 0.050552770495414734, 0.04672782123088837, 0.0584571436047554, 0.10830231010913849, -0.2662642300128937, 0.1910552978515625, 0.15639835596084595, -0.27993449568748474, 0.43385007977485657, -0.14281527698040009, 0.22282575070858002, 0.28191089630126953, 0.04571514576673508, -0.3398040533065796, -0.19643670320510864, 0.04303603246808052, -0.1307276040315628, -0.2662273645401001, 0.45607709884643555], [0.23443514108657837, -0.08765949308872223, 0.013079950585961342, 0.00912939477711916, -0.027093086391687393, -0.002421103185042739, -0.07050497084856033, -0.14302942156791687, -0.2019946128129959, -0.06559035927057266, 0.05915277823805809, -0.31432482600212097, -0.10763286799192429, -0.23185290396213531, 0.09299221634864807, 0.11462187021970749, -0.057609785348176956, 0.2627407908439636, 0.16190668940544128, 0.11713599413633347], [0.15779216587543488, 0.12297496944665909, 0.33876246213912964, 0.051244549453258514, -0.05194046348333359, -0.13783419132232666, 0.13845457136631012, 0.06568592041730881, -0.08774338662624359, 0.09402386844158173, 0.012229688465595245, 0.06691166758537292, -0.06824265420436859, 0.12026476114988327, -0.0514816977083683, -0.19252699613571167, 0.011620554141700268, -0.054976385086774826, 0.1695048063993454, -0.0022256721276789904], [-0.04644303023815155, 0.19747354090213776, 0.1688884049654007, 0.15172606706619263, -0.06958296149969101, -0.08035564422607422, 0.1852135956287384, 0.07927189022302628, 0.07372935861349106, 0.04160674661397934, -0.11388873308897018, 0.17244836688041687, 0.03306761756539345, 0.1520206779241562, -0.030106883496046066, -0.17589910328388214, 0.003964818082749844, -0.23971658945083618, -0.11168976873159409, 0.05684668570756912], [0.18380825221538544, -0.13639408349990845, 0.008623731322586536, -0.14581212401390076, -0.0033585375640541315, -0.05604519322514534, -0.03840334340929985, -0.1505320817232132, -0.15909506380558014, 0.07263889908790588, 0.15983550250530243, -0.08230789750814438, -0.21226975321769714, -0.006435260642319918, 0.083045594394207, -0.02667909301817417, 0.04905827343463898, 0.10822410136461258, 0.10087740421295166, 0.1997067779302597], [-0.03013855591416359, 0.08969800174236298, 0.15389147400856018, -0.014205208979547024, -0.0640709325671196, -0.07565151154994965, 0.046957194805145264, -0.04953979328274727, 0.058958083391189575, 0.07724743336439133, -0.05740192160010338, 0.09988542646169662, 0.02172393910586834, -0.046289198100566864, 0.08236952126026154, -0.2059755027294159, 0.06295542418956757, -0.19789119064807892, -0.09791474044322968, -0.18388228118419647], [-0.013683750294148922, 0.088853619992733, 0.11155055463314056, 0.13679707050323486, 0.031426746398210526, -0.10739602148532867, 0.08944520354270935, 0.0877765342593193, -0.08063095808029175, 0.04810958728194237, -0.04014034941792488, 0.06484417617321014, -0.019769584760069847, 0.06426378339529037, -0.05863097682595253, -0.1045617014169693, -0.009398816153407097, -0.06329069286584854, -0.03173462301492691, 0.18491244316101074], [0.10754460841417313, 0.0023624133318662643, -0.07905737310647964, -0.11183905601501465, -0.06981120258569717, 0.08058816194534302, -0.11101481318473816, -0.045297376811504364, -0.022265298292040825, -0.07311930507421494, -0.06426329910755157, -0.13647912442684174, 0.008339211344718933, -0.01417743694037199, 0.06734196841716766, 0.12776164710521698, -0.03667169436812401, 0.08692336827516556, 0.028497101739048958, 0.021605681627988815], [0.09059806168079376, 0.0033992656972259283, 0.029302164912223816, 0.0163425225764513, 0.016062630340456963, -0.0017671951791271567, 0.029503418132662773, -0.01731692999601364, -0.10504744201898575, 0.029857520014047623, 0.009278031066060066, -0.030105486512184143, -0.03672542795538902, -0.05206269770860672, 0.034553926438093185, 0.009005612693727016, -0.03545503318309784, 0.10220059007406235, 0.0497126579284668, 0.051092736423015594], [0.06695602089166641, -0.03750620409846306, -0.1407596468925476, 0.05623418837785721, -0.08904071897268295, -0.01777741312980652, 0.10429485142230988, -0.04947972297668457, -0.2624107003211975, 0.01402860414236784, -0.01954239420592785, -0.22642967104911804, 0.0038351844996213913, -0.039795905351638794, 0.19588777422904968, -0.013516711071133614, -0.0775386244058609, 0.10582572966814041, 0.021748041734099388, 0.10861954092979431], [-0.05040593072772026, -0.05901089310646057, -0.031561050564050674, 0.03360147401690483, 0.04507751017808914, -0.06001727655529976, -0.00765244523063302, -0.06015240028500557, -0.2006015032529831, 0.19133634865283966, -0.22477656602859497, -0.0008222557953558862, 0.009252043440937996, -0.06004996970295906, -0.03746653348207474, -0.06403812766075134, 0.033808235079050064, -0.10057184845209122, -0.19764553010463715, 0.35976824164390564], [0.10907619446516037, -0.03957446664571762, 0.029102956876158714, 0.21003110706806183, -0.07376416772603989, 0.026215173304080963, -0.06716766208410263, -0.10528258979320526, -0.12344483286142349, -0.053051598370075226, 0.20061297714710236, -0.16684329509735107, -0.0867433026432991, -0.30189672112464905, 0.19661320745944977, -0.010479733347892761, -0.01394719909876585, -0.0837128534913063, 0.049630146473646164, -0.024299051612615585], [0.16913366317749023, 0.0610811710357666, 0.2290976494550705, -0.11112342774868011, -0.07579691708087921, -0.02979995869100094, 0.046733397990465164, -0.10072968155145645, -0.2306685894727707, 0.0663834661245346, 0.0470455102622509, -0.2237771898508072, -0.08275867253541946, -0.22834518551826477, 0.01810961775481701, -0.16754181683063507, -0.007868564687669277, 0.06611892580986023, 0.10781721025705338, 0.2060466855764389], [0.1741151660680771, -0.04379640892148018, 0.009676493704319, -0.0020166884642094374, -0.02025579661130905, 0.03926507756114006, -0.09201261401176453, -0.020048189908266068, -0.0905304029583931, -0.12048275768756866, 0.17516490817070007, -0.15243996679782867, -0.10136140882968903, -0.09464047104120255, 0.020964637398719788, 0.10208861529827118, -0.06193423643708229, 0.054352328181266785, 0.14124156534671783, -0.04597126320004463], [0.14684677124023438, 0.12704689800739288, 0.12045352160930634, -0.04426439106464386, -0.04528645798563957, -0.02143462374806404, -0.044335562735795975, 0.023298321291804314, -0.04212016612291336, 0.041001785546541214, -0.08222019672393799, -0.06831426918506622, -0.0008464713464491069, 0.011584315448999405, -0.009587977081537247, -0.023525115102529526, -0.028867622837424278, 0.1483173817396164, 0.014036166481673717, 0.0673079788684845], [0.18169161677360535, -0.033130843192338943, 0.07641205936670303, -0.01666022650897503, -0.15954077243804932, 0.02016911283135414, 0.04038316383957863, -0.03642260655760765, -0.026924224570393562, -0.09525952488183975, 0.09533361345529556, -0.06883741170167923, -0.043509822338819504, -0.1301533579826355, 0.06426309049129486, 0.0018816028023138642, 0.02901029959321022, 0.13982956111431122, 0.16641812026500702, -0.28793758153915405], [0.17784784734249115, 0.1033817008137703, 0.12259429693222046, -0.01654653623700142, -0.060898687690496445, -0.11772283166646957, 0.17016519606113434, 0.03049662709236145, -0.02571026235818863, 0.024879176169633865, -0.10366862267255783, 0.009205569513142109, -0.06637022644281387, 0.16524329781532288, 0.034966230392456055, 0.009327870793640614, -0.03144758939743042, 0.08666141331195831, 0.055141352117061615, 0.09633612632751465], [0.020734544843435287, -0.004669867921620607, 0.06336510181427002, 0.09121362864971161, 0.06313116103410721, -0.013227793388068676, 0.06329482048749924, 0.001939229085110128, -0.07902128994464874, -0.0020147901959717274, 0.06868699938058853, -0.07240933179855347, -0.03991690278053284, -0.07441487908363342, -0.032328926026821136, -0.055781420320272446, 0.0042533306404948235, 0.03941969946026802, 0.029902223497629166, -0.025751424953341484], [0.021206112578511238, -0.07103832066059113, -0.1558833122253418, -0.13285227119922638, 0.011554325930774212, 0.21943078935146332, -0.1616009920835495, -0.04216954484581947, -0.08312788605690002, -0.10437297821044922, -0.11731211841106415, -0.09119727462530136, 0.04696938768029213, 0.11141426861286163, 0.2696259915828705, 0.2047087550163269, -0.013724162243306637, -0.04590310528874397, -0.04054173454642296, -0.12991945445537567], [0.1725940853357315, -0.06515095382928848, 0.01333819329738617, 0.004440938122570515, 0.009445416741073132, -0.07354728132486343, -0.08914745599031448, -0.02169099450111389, -0.05255145579576492, 0.016070494428277016, 0.06800611317157745, -0.013920196332037449, -0.035433925688266754, -0.1512918323278427, -0.028566012158989906, 0.06458161026239395, 0.08084175735712051, 0.08923899382352829, 0.10080123692750931, -0.0018254840979352593], [-0.08464644849300385, 0.059995729476213455, -0.023296810686588287, -0.012052735313773155, -0.09928302466869354, -0.2024827003479004, 0.31311434507369995, 0.021039577201008797, 0.06761741638183594, 0.309583842754364, 0.011723993346095085, 0.048876937478780746, -0.03056698478758335, 0.09264057129621506, 0.17977915704250336, -0.1825324296951294, -0.08829201012849808, 0.16031083464622498, -0.02773161232471466, 0.12756434082984924]], "rec.bias_ih_l0": [0.010558011010289192, -0.1324034184217453, -0.1023489236831665, -0.2870323956012726, -0.10062356293201447, -0.240738183259964, 0.8203557729721069, 0.11309141665697098, -0.28215479850769043, -0.009629263542592525, 0.2198418229818344, 0.098340705037117, 0.02937641367316246, 0.6121056079864502, -0.03917858004570007, -0.18535013496875763, -0.12356693297624588, 0.13998277485370636, -0.051894813776016235, -0.17621593177318573, -0.07543843984603882, 0.25893905758857727, 0.23204708099365234, 0.8240138292312622, 0.192536860704422, 0.04706058278679848, -0.024612002074718475, -0.03541218861937523, 0.3559771776199341, -0.13094447553157806, 0.13483479619026184, 0.16596849262714386, 0.04452335089445114, 0.3072141110897064, 0.39902445673942566, 0.4078112840652466, -0.04561600461602211, 0.010243376716971397, 0.16230742633342743, 0.6741673350334167, 0.1298612356185913, -0.12280844151973724, -0.09649036079645157, 0.08907405287027359, -0.049113769084215164, 0.08131149411201477, -0.005937216803431511, 0.03934381157159805, -0.15535473823547363, -0.078386090695858, 0.05269170552492142, 0.14394885301589966, 0.036704279482364655, 0.04840545356273651, 0.03330545872449875, -3.095132706221193e-05, -0.07342252135276794, -0.1217975914478302, -0.0386168472468853, -0.04095218703150749, -0.046376604586839676, -0.03844175860285759, -0.04753606393933296, -0.04813096672296524, 0.009613143280148506, -0.02632501721382141, 0.8440884947776794, -0.05039852485060692, 0.11275427788496017, 0.12873981893062592, 0.24582849442958832, 0.3177311420440674, 0.06351597607135773, 0.7655038237571716, 0.2712920904159546, 0.2087361365556717, -0.1255837380886078, -0.010092752985656261, 0.03635204955935478, 0.06259351223707199], "rec.bias_hh_l0": [-0.17609252035617828, -0.17911194264888763, -0.11604221165180206, -0.24616897106170654, 0.030203483998775482, -0.09307442605495453, 0.8181887865066528, 0.07872452586889267, -0.03463173657655716, 0.029695216566324234, 0.22721368074417114, 0.22973889112472534, 0.033025987446308136, 0.530013382434845, -0.04031982272863388, -0.22277036309242249, -0.12581220269203186, 0.17313414812088013, -0.0583406500518322, -0.08389101177453995, 0.1591516137123108, 0.2800210416316986, 0.19769495725631714, 0.7872723937034607, -0.04617119953036308, -0.0786982849240303, -0.011382187716662884, -0.12791253626346588, 0.31765681505203247, -0.03251326456665993, 0.12820792198181152, 0.06853003054857254, 0.04490513354539871, 0.2205921709537506, 0.14578507840633392, 0.45482659339904785, -0.0924004390835762, 0.03484748303890228, 0.179382786154747, 0.7088344097137451, -0.09948094934225082, 0.1629263311624527, 0.025803860276937485, -0.08798891305923462, -0.07903147488832474, -0.06499166786670685, -0.04102867841720581, -0.07644789665937424, 0.10736065357923508, -0.004770908039063215, -0.1261167824268341, -0.16553884744644165, -0.02130211517214775, 0.008004160597920418, 0.09478896111249924, 0.05941810458898544, -0.004696925636380911, 0.1366066038608551, 0.04068025201559067, 0.11264973133802414, -0.01431102305650711, -0.02351732738316059, -0.010343427769839764, -0.004386755172163248, 0.016567889600992203, -0.038736969232559204, 0.8595429062843323, 0.0025779425632208586, 0.0542236752808094, -0.000878402846865356, 0.25546324253082275, 0.1934288591146469, 0.06753067672252655, 0.767894983291626, 0.0464889220893383, 0.2340056300163269, -0.13470330834388733, 0.006869098171591759, 0.05000389367341995, 0.12210850417613983], "lin.weight": [[-0.24689117074012756, 0.15059025585651398, 0.20146489143371582, 0.33356940746307373, 0.10935968905687332, -0.3495171368122101, 0.8570892810821533, 0.12218566238880157, 0.2224740982055664, 0.4081122875213623, -0.25960367918014526, 0.3598344922065735, 0.17410747706890106, -0.4693700969219208, -0.2734387218952179, -0.3639909625053406, 0.10515987128019333, -0.3946916162967682, -0.3007456362247467, 0.0738297775387764]], "lin.bias": [0.14907976984977722]}}