{"model_data": {"model": "SimpleRNN", "input_size": 1, "skip": 1, "output_size": 1, "unit_type": "LSTM", "num_layers": 1, "hidden_size": 20, "bias_fl": true}, "state_dict": {"rec.weight_ih_l0": [[0.006522501818835735], [0.009615052491426468], [-0.08643891662359238], [-0.016505366191267967], [0.043928440660238266], [0.0487978495657444], [-0.03677588328719139], [0.02781703509390354], [-0.06771709024906158], [-0.059306368231773376], [-0.1757744997739792], [0.05492608994245529], [0.05913073197007179], [-0.6460699439048767], [-0.11073258519172668], [-0.02698868326842785], [0.01697739027440548], [0.0073334332555532455], [-0.054387446492910385], [0.11718850582838058], [-0.021730387583374977], [-0.07796195149421692], [-0.09177877008914948], [-0.012578981928527355], [0.07824195921421051], [0.040320489555597305], [0.0740344375371933], [0.0014482708647847176], [-0.006566935684531927], [0.069877989590168], [0.0696721076965332], [0.0890951007604599], [0.07921027392148972], [-0.2931059002876282], [0.1348150074481964], [-0.007286417298018932], [0.04751665145158768], [0.04145178198814392], [0.15481410920619965], [-0.028044437989592552], [-0.04288047179579735], [-0.05859654024243355], [-0.7828195691108704], [-0.2322266846895218], [0.14442819356918335], [-2.2508769035339355], [0.49300113320350647], [0.3833792209625244], [0.01302982959896326], [0.0763436108827591], [0.05287010222673416], [-0.892916738986969], [0.04405024275183678], [0.011869226582348347], [-0.5396830439567566], [0.2623228132724762], [0.3566098213195801], [0.23015622794628143], [0.658739447593689], [0.09226463735103607], [0.057104695588350296], [0.017030032351613045], [-0.09376298636198044], [-0.07723642885684967], [0.04026253893971443], [-0.05417223647236824], [-0.03798823803663254], [0.08273010700941086], [-0.042777568101882935], [-0.030907614156603813], [-0.08201172947883606], [0.07059241086244583], [0.06638675928115845], [-0.19638702273368835], [0.10022654384374619], [0.03299179673194885], [-0.14729942381381989], [0.021188415586948395], [0.10228317975997925], [-0.09537959843873978]], "rec.weight_hh_l0": [[0.032666075974702835, 0.2454015016555786, 0.19166824221611023, 0.37796878814697266, -0.10545055568218231, -0.12018068879842758, -0.4846644401550293, 0.5896453261375427, -0.2926590144634247, -0.20073799788951874, -0.17928054928779602, 0.363606333732605, 0.45585551857948303, -0.053381964564323425, 0.2710011601448059, -0.026930106803774834, -0.2852841913700104, -0.3016873598098755, -0.0209248848259449, -0.07996748387813568], [-0.04472027346491814, -0.15901216864585876, 0.10563294589519501, -0.13702532649040222, 0.010785135440528393, -0.1242290660738945, -0.007088025566190481, 0.2730715274810791, -0.08017721772193909, 0.1375390738248825, -0.25453850626945496, -0.01839657500386238, -0.00046649627620354295, 0.027952760457992554, 0.13006694614887238, 0.012307366356253624, -0.04778692498803139, 0.1389549821615219, -0.009450335055589676, 0.03793793544173241], [-0.011727012693881989, 0.032847244292497635, -0.07545136660337448, 0.022429663687944412, 0.14237618446350098, 0.013543771579861641, 0.2079882025718689, -0.03262488171458244, 0.033546220511198044, -0.18038110435009003, 0.20121492445468903, -0.16819320619106293, -0.04771915823221207, -0.06754827499389648, 0.03717326372861862, 0.09239950776100159, -0.009762615896761417, -0.004870904143899679, -0.045379601418972015, 0.13580474257469177], [0.06809034198522568, -0.09421980381011963, 0.17726029455661774, -0.08652442693710327, -0.11670713126659393, -0.0639798641204834, -0.16839733719825745, 0.18861731886863708, 0.1415943056344986, 0.087196484208107, -0.0542362779378891, 0.26240772008895874, 0.3516336977481842, 0.07916565239429474, 0.137873575091362, 0.07501278817653656, -0.2649995684623718, -0.18857568502426147, -0.1109239012002945, 0.11710919439792633], [-0.0391220785677433, -0.10450968891382217, -0.0807398334145546, 0.09185926616191864, -0.051830779761075974, -0.15613356232643127, 0.0986907109618187, -0.05505045875906944, 0.10032452642917633, 0.021729564294219017, -0.004238950088620186, -0.028499247506260872, -0.02610272355377674, 0.03647176921367645, -0.07980482280254364, -0.01821686141192913, -0.04529613256454468, -0.008566493168473244, 0.051644060760736465, -0.05927008390426636], [0.0007517980993725359, 0.10259546339511871, -0.1542491763830185, -0.08878947794437408, -0.026816297322511673, -0.11661384999752045, -0.20174357295036316, -0.20769189298152924, -0.04195992648601532, 0.06591562926769257, 0.1901174634695053, -0.2680529057979584, 0.03612516075372696, -0.4245322048664093, -0.0583709217607975, 0.12806598842144012, -0.005112173967063427, 0.09189555794000626, 0.09653469920158386, 0.07427354156970978], [-0.020603440701961517, 0.01831320859491825, 0.04475529491901398, 0.060510486364364624, 0.05363305285573006, 0.047046925872564316, 0.10201258957386017, -0.00798045750707388, -0.15634603798389435, 0.014938999898731709, -0.03588620573282242, -0.06707052141427994, -0.07175122946500778, 0.02861100435256958, -0.08313602954149246, 0.09536762535572052, -0.08129572123289108, -0.003677085041999817, -0.058690160512924194, -0.02239551953971386], [0.13066942989826202, -0.29286494851112366, -0.2702292501926422, 0.3375930190086365, 0.18923500180244446, -0.138877272605896, 0.22463476657867432, -0.9702029228210449, -0.09935314208269119, -0.0038966599386185408, 0.0537126362323761, 0.24503181874752045, -0.04219125211238861, -0.20599579811096191, -0.05535493418574333, 0.2524544894695282, 0.3130496144294739, -0.002739742398262024, -0.025487776845693588, 0.06320777535438538], [0.1645355373620987, 0.0894460380077362, -0.04294036328792572, 0.10496646165847778, 0.032237011939287186, 0.007933753542602062, 0.11580167710781097, -0.03003920055925846, 0.1232575848698616, 0.018749328330159187, -0.2528779208660126, 0.09413283318281174, -0.09337429702281952, 0.07130201160907745, 0.048710618168115616, 0.1392275094985962, -0.1332118809223175, 0.07491163909435272, 0.10625305771827698, 0.1745052933692932], [0.15906770527362823, -0.018644964322447777, 0.22574003040790558, 0.009913562797009945, -0.058659639209508896, 0.009630261920392513, -0.22430936992168427, 0.3230288326740265, -0.03262444958090782, 0.10189399123191833, 0.012567171826958656, 0.012599983252584934, -0.004170111380517483, -0.14857491850852966, 0.027970848605036736, 0.0030568325892090797, 0.10055676847696304, -0.01611253060400486, 0.040128882974386215, 0.029094766825437546], [0.051021210849285126, 0.0029866632539778948, 0.31881189346313477, -0.009964457713067532, 0.14050741493701935, 0.193616583943367, 0.17538411915302277, -0.3033428192138672, 0.003674028441309929, 0.030656693503260612, -0.16887064278125763, 0.019417282193899155, -0.008117170073091984, 0.16101260483264923, -0.11981766670942307, 0.16166654229164124, -0.06395790725946426, -0.03420175984501839, 0.08492975682020187, 0.024377670139074326], [0.07972213625907898, -0.038634706288576126, -0.019211649894714355, 0.07232131063938141, 0.03944101929664612, 0.01826232485473156, 0.005394549109041691, -0.14408136904239655, -0.1008419468998909, 0.13806010782718658, -0.023812199011445045, -0.08947788923978806, -0.0010557377245277166, -0.07006146758794785, -0.07225442677736282, -0.03457794338464737, 0.22325505316257477, -0.013238213025033474, -0.05958555266261101, 0.0620654933154583], [-0.34986191987991333, -0.0015164813958108425, -0.0715084820985794, -0.010586194694042206, 0.1287861317396164, 0.019864654168486595, -0.08887922763824463, 0.0898914635181427, -0.007193370722234249, -0.07232433557510376, -0.03736970201134682, -0.053990136831998825, 0.1013021320104599, -0.07921510189771652, 0.054482053965330124, -0.06083208695054054, 0.00716793118044734, -0.0018860108684748411, -0.16585585474967957, -0.06358744204044342], [0.28332090377807617, -0.13942793011665344, 0.31974461674690247, -0.1739509552717209, -0.2701428532600403, -0.054458897560834885, -0.023389263078570366, 0.4040651023387909, -0.01996089331805706, 0.027220498770475388, -0.17790555953979492, 0.30607494711875916, 0.27570703625679016, -0.16080929338932037, 0.3520318269729614, 0.09050317853689194, -0.18457485735416412, -0.06704866141080856, -0.2898634076118469, 0.17454247176647186], [0.07382066547870636, 0.09918712824583054, 0.1268577128648758, 0.015746479853987694, 0.32785579562187195, 0.08481395244598389, -0.3270006477832794, 0.19772282242774963, -0.020354753360152245, -0.04904758185148239, -0.0394640788435936, -0.017958611249923706, 0.026214413344860077, 0.24525846540927887, -0.05413537845015526, 0.07466508448123932, 0.3123350739479065, -0.17765775322914124, -0.41603708267211914, -0.05862836912274361], [0.00958310067653656, 0.04767080023884773, 0.017069648951292038, -0.0864575058221817, -0.1677873581647873, -0.0026690978556871414, -0.0385599210858345, 0.24153964221477509, 0.020181819796562195, -0.03024754673242569, -0.4563051462173462, 0.19028586149215698, 0.022517671808600426, 0.19106046855449677, 0.1640094667673111, -0.1318613588809967, -0.0324271023273468, -0.05966662988066673, 0.09125032275915146, 0.037981174886226654], [-0.08083873987197876, -0.16043026745319366, 0.07851485908031464, -0.007371341343969107, 0.35055410861968994, -0.020924212411046028, 0.11466968804597855, -0.020245270803570747, 0.0199454203248024, -0.12105506658554077, 0.715538501739502, -0.21482324600219727, -0.18464303016662598, 0.06181953847408295, 0.33188241720199585, -0.1141892746090889, 0.6806259751319885, -0.11528211086988449, -0.12670014798641205, 0.002485189586877823], [0.33090415596961975, -0.0782676637172699, 0.015935489907860756, -0.03687275946140289, -0.07958333194255829, 0.024513600394129753, 0.1274477243423462, -0.12122184038162231, 0.0981997549533844, -0.049305398017168045, 0.03564503416419029, -0.017831861972808838, -0.021016642451286316, 0.16830065846443176, -0.03116907738149166, -0.08006646484136581, -0.05237825959920883, -0.11610344797372818, 0.024822793900966644, -0.022571731358766556], [0.01721542328596115, 0.041982028633356094, -0.11019247770309448, 0.08676344156265259, 0.09312725067138672, 0.2472480982542038, 0.2093658298254013, -0.11420734226703644, -0.17172864079475403, -0.02764001302421093, -0.02148795872926712, -0.03337404504418373, -0.06071808934211731, 0.15806275606155396, 0.17297017574310303, 0.1623980849981308, 0.17056334018707275, -0.06016761437058449, -0.15716774761676788, 0.04043521732091904], [0.2541789412498474, -0.0006221526418812573, 0.14673414826393127, 0.020976055413484573, 0.028056401759386063, -0.012421836145222187, -0.3017251491546631, 0.3803020119667053, 0.0630016028881073, -0.04298898205161095, -0.13647939264774323, 0.5832020044326782, 0.623029351234436, -0.05282911658287048, 0.22459180653095245, 0.03804818540811539, -0.2797679007053375, -0.097484290599823, -0.01850890927016735, -0.13270901143550873], [-0.05865459516644478, -0.2144601196050644, -0.11357180774211884, -0.3146781027317047, -0.0007959350477904081, -0.029324794188141823, 0.32221710681915283, -0.4613465964794159, 0.09786733984947205, -0.16624151170253754, 0.18821632862091064, -0.5544715523719788, 0.09449729323387146, 0.07969681173563004, -0.2722724378108978, -0.0017455031629651785, 0.33117762207984924, -0.3731515407562256, -0.15885865688323975, -0.2264586091041565], [-0.08557169884443283, -0.0426967553794384, -0.16948820650577545, -0.09142138808965683, -0.084843710064888, -0.08521620184183121, 0.4076319634914398, -0.12616278231143951, 0.03594111651182175, -0.10957446694374084, 0.2078995257616043, -0.19151833653450012, -0.15546610951423645, 0.23885971307754517, -0.06611234694719315, 0.18477050960063934, 0.16234204173088074, 0.1037096381187439, -0.05744127184152603, -0.06460750102996826], [-0.06386127322912216, 0.09413975477218628, -0.2739003598690033, 0.08864954859018326, 0.15801241993904114, -0.010041361674666405, -0.03591136634349823, -0.07607671618461609, -0.023200567811727524, -0.24204488098621368, 0.17948929965496063, 0.12036596238613129, 0.034403834491968155, -0.2182958722114563, -0.06589503586292267, 0.16244226694107056, -0.16372330486774445, 0.00034761271672323346, 0.19219118356704712, 0.027155650779604912], [-0.01689385063946247, -0.13914570212364197, 0.006954503245651722, -0.06741752475500107, -0.07648592442274094, 0.023379871621727943, 0.16602064669132233, -0.541508138179779, -0.0032044770196080208, -0.0699014663696289, 0.29512301087379456, -0.3039916455745697, 0.1512337476015091, -0.0010863114148378372, -0.09532172232866287, 0.11940547078847885, 0.2153095155954361, -0.06300995498895645, 0.08637074381113052, -0.027496520429849625], [-0.12087265402078629, -0.18232539296150208, -0.09177063405513763, -0.057840634137392044, -0.13699863851070404, -0.2738265097141266, 0.2785354256629944, 0.1617078334093094, 0.13384705781936646, 0.02592805027961731, 0.0838407352566719, -0.0361737497150898, -0.033106397837400436, 0.13333521783351898, 0.022174667567014694, -0.2672697901725769, -0.200384259223938, 0.0262856837362051, 0.26909396052360535, -0.08724687993526459], [-0.08611087501049042, 0.2269970178604126, 0.004834460094571114, 0.011114704422652721, 0.20795531570911407, -0.06098917871713638, -0.13918954133987427, -0.06330323219299316, -0.0799667239189148, 0.1530018001794815, 0.1424105316400528, -0.1165425032377243, 0.1105414554476738, -0.4220275282859802, -0.06066066771745682, 0.17247311770915985, -0.26072385907173157, 0.06335301697254181, -0.023554131388664246, 0.051846206188201904], [-0.01315923873335123, -0.11592904478311539, 0.00487078120931983, -0.16949929296970367, -0.02274608612060547, -0.0202968530356884, 0.24938136339187622, -0.0513230599462986, -0.17041923105716705, -0.1455705314874649, 0.39782482385635376, -0.05565105751156807, -0.06825529783964157, 0.03076213225722313, 0.23474237322807312, -0.11665964126586914, 0.13081254065036774, -0.003759967628866434, 0.045339878648519516, 0.06406091153621674], [0.01665530353784561, -0.4151977598667145, -0.10610989481210709, 0.5936768651008606, 0.4796755611896515, -0.0875922292470932, 0.31930169463157654, -0.29006990790367126, -0.6263802647590637, 0.19179600477218628, 0.033165670931339264, 0.3818160593509674, -0.18556250631809235, -0.20888955891132355, -0.026328042149543762, 0.3245084285736084, 0.3518175184726715, -0.016942137852311134, 0.1013050451874733, -0.04407438635826111], [0.12871618568897247, 0.016700370237231255, -0.05174185335636139, 0.05373479053378105, 0.07144064456224442, -0.04834210127592087, 0.22980108857154846, -0.22023019194602966, 0.15083159506320953, -0.056921251118183136, 0.22217202186584473, -0.15545961260795593, -0.1939723789691925, -0.023401128128170967, 0.05847518891096115, -0.08559957146644592, 0.1820349097251892, 0.049891553819179535, -0.019651401787996292, 0.18366818130016327], [-0.008964910171926022, -0.05851695314049721, -0.10953184217214584, -0.041702136397361755, 0.11526187509298325, -0.07724396139383316, 0.20937621593475342, -0.1927279233932495, 0.06937902420759201, 0.05495942756533623, 0.3471425175666809, -0.3376626968383789, -0.2181481420993805, -0.17989204823970795, -0.07621320337057114, -0.09714673459529877, 0.08952055871486664, 0.08588291704654694, -0.01610046997666359, -0.037062570452690125], [0.09129379689693451, 0.018666444346308708, 0.0890926644206047, 0.01155334897339344, -0.053184788674116135, -0.1443648636341095, -0.24348869919776917, 0.10381375998258591, -0.012336242012679577, 0.05946703255176544, -0.057939574122428894, -0.204098179936409, -0.046059221029281616, -0.002882633823901415, -0.02152533456683159, -0.08929185569286346, 0.1400895118713379, -0.02405836619436741, 0.27634990215301514, 0.04908372834324837], [0.06064624339342117, 0.04476172477006912, -0.04956042021512985, 0.0642058253288269, 0.06351257860660553, 0.04984239861369133, 0.00698803411796689, 0.06159741431474686, -0.010280149057507515, 0.05964365974068642, -0.11242862790822983, -0.13136662542819977, -0.028568698093295097, -0.07850904762744904, 0.033745281398296356, -0.09279563277959824, 0.06472349911928177, -0.005145098082721233, -0.12710142135620117, 0.12983977794647217], [-0.5321569442749023, -0.09581604599952698, -0.1567990481853485, -0.02490747906267643, 0.11636320501565933, 0.020031612366437912, 0.03962889313697815, -0.21291658282279968, 0.015346287749707699, -0.04597816616296768, 0.006883284077048302, -0.16170547902584076, 0.1264655441045761, -0.03236698731780052, -0.014288216829299927, -0.08199477195739746, 0.0661400705575943, 0.04889298602938652, -0.1867561638355255, -0.10112948715686798], [-0.17487366497516632, -0.03652060031890869, 0.26434969902038574, -0.07170109450817108, -0.14962738752365112, -0.09330481290817261, 0.20429089665412903, -0.46780914068222046, 0.14561007916927338, -0.03981667011976242, 0.15044881403446198, -0.367540568113327, 0.024599434807896614, 0.13522504270076752, -0.3026726245880127, -0.34375065565109253, 0.10602395981550217, -0.002406200859695673, 0.06810717284679413, -0.16883783042430878], [-0.08252161741256714, -0.40392330288887024, 0.5838985443115234, 0.07351233065128326, 0.22297435998916626, -0.35542452335357666, 0.1659620851278305, -0.5229836106300354, 0.232326939702034, 0.22590161859989166, 0.3614242374897003, -0.2876489460468292, -0.09603504091501236, -0.1536913812160492, -0.15686772763729095, -0.41550639271736145, -0.4598279893398285, 0.10538986325263977, -0.005356841720640659, -0.007704641669988632], [-0.07249168306589127, 0.002255939645692706, 0.16007249057292938, -0.049380745738744736, -0.0734260082244873, -0.06675492227077484, 0.1763182282447815, -0.27147191762924194, 0.10457129031419754, 0.00502103753387928, -0.01785685494542122, -0.226846382021904, 0.05463260039687157, 0.03196320682764053, -0.24579915404319763, -0.19336259365081787, 0.11748349666595459, -0.07733777165412903, -0.036423828452825546, -0.0435352548956871], [0.10449326038360596, -0.21382099390029907, 0.2011677473783493, -0.05898357927799225, -0.07293230295181274, -0.1046241819858551, 0.2358107715845108, -0.21047855913639069, 0.046217791736125946, -0.20784756541252136, 0.7918294668197632, -0.34522849321365356, -0.1582511067390442, 0.09278512001037598, 0.31507235765457153, -0.026009317487478256, 0.48377901315689087, 0.03643450140953064, -0.06288543343544006, 0.09596546739339828], [0.4057762324810028, -0.12840165197849274, 0.016063785180449486, -0.04527939856052399, -0.10327627509832382, -0.016227494925260544, 0.11320214718580246, -0.05451881140470505, 0.060901939868927, -0.07532169669866562, 0.0442376546561718, -0.07278406620025635, -0.029776912182569504, 0.19560500979423523, -0.1259968876838684, -0.11609846353530884, -0.060331810265779495, -0.17982789874076843, 0.11339414864778519, -0.02329239249229431], [-0.05100370943546295, 0.07430557161569595, 0.04810173436999321, 0.1641436368227005, 0.14996708929538727, 0.16757802665233612, 0.02333403192460537, 0.11007888615131378, 0.09542980045080185, 0.035032957792282104, -0.1924937516450882, 0.019461078569293022, -0.13433656096458435, 0.11047614365816116, 0.16629299521446228, -0.2012060433626175, -0.1046234592795372, 0.04543657228350639, 0.009522251784801483, -0.04624431952834129], [0.10531209409236908, -0.13220155239105225, -0.12810054421424866, -0.32916146516799927, 0.01603817194700241, 0.07098489254713058, 0.480012446641922, -0.7244207262992859, 0.2162896692752838, 0.0462128184735775, 0.18005579710006714, -0.5790625810623169, 0.1724274903535843, 0.11790594458580017, -0.25213074684143066, 0.03860674053430557, 0.40971851348876953, -0.00918514747172594, 0.008468017913401127, -0.056829582899808884], [0.6511195302009583, -0.08958649635314941, -0.028613634407520294, 0.032606858760118484, 0.09631156176328659, 0.03275560215115547, 0.041087519377470016, 0.0994604304432869, 0.0012746488209813833, 0.00418839929625392, 0.04843957722187042, -0.03563378378748894, -0.1294393390417099, -0.03800621256232262, -0.021948006004095078, -0.11272357404232025, -0.030729567632079124, -0.06120982766151428, 0.00972821842879057, 0.21172164380550385], [-0.01934649609029293, 0.47491663694381714, 0.21173356473445892, -0.1437859684228897, 0.39324626326560974, 0.4173637330532074, -0.221841499209404, -0.3833637535572052, 0.4049737751483917, -0.061189621686935425, -0.0532001294195652, -0.02773289568722248, -0.32941704988479614, -0.36543986201286316, -0.09974222630262375, -0.20353259146213531, 0.08755239099264145, -0.27038267254829407, 0.018192578107118607, 0.09064006060361862], [0.021259015426039696, -0.589012861251831, 0.32774871587753296, -0.060979995876550674, -0.2903173863887787, 1.1358870267868042, 0.11763369292020798, -0.06773892045021057, 0.04083385318517685, -0.15735211968421936, 0.0564141720533371, 0.1939854472875595, 0.01616557687520981, -1.070286750793457, -0.1552899032831192, -0.6144719123840332, 0.11364634335041046, -0.2137095034122467, 0.04120437055826187, 0.17453758418560028], [-0.1076156347990036, 0.029167212545871735, 0.1451854258775711, 0.3870411813259125, -0.297125905752182, 0.12230433523654938, -0.6369921565055847, 0.3270241916179657, -0.10314895957708359, -0.14956936240196228, 0.2371019423007965, -0.2968270182609558, -0.028474081307649612, -0.017267251387238503, 0.007328966166824102, 0.09146805107593536, 0.2781703770160675, 0.2840769290924072, -0.07734313607215881, -0.20693178474903107], [0.03708162531256676, -0.23119835555553436, 0.18941132724285126, 0.41984567046165466, 0.003537724493071437, 0.3554620146751404, 0.8379387259483337, 0.5308382511138916, 0.05299157649278641, -0.02127985656261444, -0.23087410628795624, -0.06703834235668182, 0.3442500829696655, -0.6681867241859436, -0.0777072012424469, 0.08678185939788818, 0.21581736207008362, -0.08936900645494461, -0.3385188579559326, -0.11618056893348694], [-0.030852224677801132, -0.07037022709846497, -0.2609112560749054, 0.03547181934118271, -0.09315089881420135, 0.19342295825481415, -0.02815164625644684, 0.07485811412334442, 0.028275052085518837, -0.13624271750450134, -0.10066580772399902, 0.12095104157924652, 0.11685506999492645, -0.15490850806236267, 0.008099179714918137, -0.3024043142795563, 0.12224914878606796, 0.14912009239196777, -0.0894564613699913, -0.05262015014886856], [0.13991189002990723, -0.030821505934000015, 0.3629719018936157, 0.3475033640861511, -0.7064046263694763, 0.19111408293247223, 0.26086100935935974, 0.31654077768325806, -0.840643584728241, 0.09266006201505661, 0.16715964674949646, 0.21446047723293304, -0.1700025498867035, 0.019613441079854965, 0.40417811274528503, 0.39051178097724915, -0.7825956344604492, 0.279095858335495, -0.08678527176380157, 0.18066222965717316], [0.2449268251657486, 0.6288204193115234, 0.19591082632541656, -0.9180447459220886, -0.6534693241119385, 0.441567599773407, -0.6005573868751526, 0.10955560952425003, 0.14471042156219482, -0.07534243166446686, 0.11291281133890152, -0.6202515363693237, 0.06374643743038177, 0.08513298630714417, 0.2310810685157776, -0.32700425386428833, -0.12086094915866852, 0.35851091146469116, -0.04057532548904419, 0.5965796709060669], [0.12344077229499817, 0.029632914811372757, -0.045374996960163116, 0.050861891359090805, -0.0649079978466034, -0.05193684250116348, 0.42722582817077637, -0.26110532879829407, 0.5501174926757812, -0.22823762893676758, -0.32080361247062683, 0.2908901274204254, 0.07962138205766678, -0.15329129993915558, -0.016542498022317886, -0.02242046594619751, -0.13837626576423645, 0.10914982855319977, 0.05867048725485802, 0.0567840039730072], [-0.27296915650367737, 0.2506254315376282, 0.016847580671310425, -0.10297811031341553, -0.40610480308532715, 0.2884161174297333, -0.10704504698514938, 0.20908071100711823, -0.27937155961990356, 0.5314628481864929, 0.05774133279919624, -0.12316089868545532, 0.10823055356740952, -0.36294621229171753, -0.16496722400188446, -0.5181010961532593, 0.1554751694202423, -0.00773087702691555, -0.1954769790172577, -0.13674227893352509], [-0.025448335334658623, 0.49470168352127075, -0.11975914239883423, -0.21456106007099152, 0.3119020462036133, 0.1550840437412262, 0.4672325849533081, 0.05883518233895302, 0.13971558213233948, -0.536117672920227, 0.1167897880077362, 0.19388741254806519, 0.10572445392608643, -0.3613545000553131, 0.6372852325439453, 0.18631355464458466, 0.12943808734416962, -0.05668412148952484, 0.6290037035942078, 0.09583760052919388], [-0.1452675759792328, -0.057254400104284286, -0.248660147190094, 0.5951313376426697, 0.39747512340545654, -0.3094450831413269, 0.166073739528656, -0.020472411066293716, -0.3276304602622986, 0.2730892300605774, 0.05137623846530914, -0.08344962447881699, -0.09953334927558899, 0.2149330973625183, 0.03281423822045326, 0.22195632755756378, -0.2695368826389313, -0.22737723588943481, 0.29618701338768005, -0.5753554105758667], [-0.655610978603363, 0.04529368132352829, 0.03506837785243988, -0.05397595837712288, -0.2820715606212616, 0.012601369060575962, -0.1561136543750763, -0.23691731691360474, -0.09001568704843521, 0.44241881370544434, 0.06998884677886963, 0.2288016378879547, 0.44867026805877686, 0.05696815997362137, 0.1058947890996933, 0.0207979679107666, 0.015549400821328163, 0.09208513051271439, 0.047626595944166183, 0.21268075704574585], [-0.010700872167944908, 0.18945185840129852, 0.6957359313964844, 0.1818227469921112, 0.16400974988937378, 0.4285420775413513, 0.22164388000965118, 0.11561120301485062, 0.14056630432605743, -0.006440388970077038, -0.2985556721687317, -0.1161811426281929, -0.004390704445540905, 0.5695929527282715, 0.06636663526296616, -0.05426844581961632, -0.03140515461564064, -0.05020491033792496, -0.1083914265036583, 0.05786285549402237], [0.042281195521354675, 0.25626638531684875, -0.6545069217681885, 0.043051403015851974, 0.13707607984542847, 0.22709853947162628, -0.18431636691093445, -0.10627108812332153, -0.011721941642463207, -0.007654779590666294, -0.5927339792251587, 0.10924428701400757, -0.05183076858520508, -0.32834216952323914, 0.8813267946243286, -0.08930586278438568, -0.2901425361633301, 0.07172193378210068, -0.21468529105186462, 0.09955434501171112], [0.05946607142686844, -0.2714475691318512, 0.4808737337589264, -0.16966477036476135, 0.4220506548881531, 0.25456246733665466, 0.06973665207624435, 0.1937480866909027, -0.21338696777820587, 0.3138096034526825, 0.04224488511681557, -0.033208318054676056, 0.17907069623470306, 0.10503244400024414, 0.0023960117250680923, 0.40907859802246094, 0.07711362093687057, 0.07733401656150818, -0.06384789943695068, -0.1208982914686203], [-0.005544204730540514, -0.09882332384586334, 0.09549117833375931, -0.1893523633480072, -0.05163327604532242, 0.01090350840240717, 0.9051510095596313, 0.09973304718732834, 0.35513800382614136, -0.2792332172393799, 0.23910781741142273, -0.08055144548416138, 0.2040666788816452, 0.04093011096119881, 0.6525669693946838, -0.275456964969635, 1.3074125051498413, 0.017149783670902252, -0.06261087208986282, 0.023845700547099113], [-0.4310341477394104, 0.024841809645295143, 0.2515864670276642, -0.08657460659742355, 0.0168488547205925, 0.03416258469223976, -0.08588113635778427, -0.4276520907878876, 0.14911380410194397, 0.21147018671035767, -0.15752828121185303, -0.015930799767374992, -0.23982182145118713, -0.07813463360071182, 0.17385606467723846, -0.060141198337078094, 0.09143365174531937, 0.44163933396339417, -0.02001700922846794, -0.0815456435084343], [-0.23561237752437592, -0.14044290781021118, -1.6754919290542603, 0.04816148057579994, -0.8005310893058777, -0.41368919610977173, -0.17049342393875122, -0.026551397517323494, -0.14647917449474335, -0.35557711124420166, 0.2620239555835724, 0.23136495053768158, 0.10274232178926468, 0.3528067469596863, -0.19222818315029144, -0.11445526778697968, 0.10991130024194717, 0.05002536624670029, 1.252871036529541, -0.07262861728668213], [-0.19636176526546478, 0.019040293991565704, -0.01809285767376423, 0.26012030243873596, 0.2665885090827942, 0.021058503538370132, 0.2479943484067917, -0.2231139987707138, 0.10970407724380493, 0.12687979638576508, 0.010148001834750175, 0.1275012195110321, 0.18916019797325134, -0.009471924044191837, 0.10633214563131332, -0.1789025217294693, -0.24885815382003784, 0.06794192641973495, 0.025684617459774017, 0.8193879127502441], [0.08113705366849899, 0.13071756064891815, -0.08567622303962708, -0.09019757807254791, 0.060991618782281876, -0.04811537638306618, -0.0524078793823719, 0.056473203003406525, 0.09109441190958023, -0.20242686569690704, -0.06975749135017395, 0.06735146045684814, 0.30566686391830444, -0.09231209754943848, 0.013232667930424213, 0.01652543805539608, -0.15493440628051758, -0.27206313610076904, -0.015465255826711655, -0.09951848536729813], [-0.10757316648960114, -0.3868565261363983, -0.10687807202339172, 0.014249824918806553, 0.07333868741989136, -0.07200885564088821, 0.1897573471069336, -0.027700552716851234, -0.0942714586853981, 0.04401453584432602, -0.011154902167618275, -0.08619137853384018, -0.06118761748075485, 0.08318404108285904, 0.08072546869516373, -0.08420448005199432, 0.1487503945827484, 0.046942088752985, 0.010172364301979542, -0.00833437405526638], [0.012165822088718414, 0.02675529569387436, -0.024923956021666527, 0.019518466666340828, 0.12883800268173218, 0.03855019435286522, 0.21549728512763977, -0.22082698345184326, 0.01384599320590496, -0.0902610570192337, 0.034507714211940765, -0.13374750316143036, -0.0710790604352951, -0.012679250910878181, -0.0015453773085027933, 0.08066894114017487, -0.02714236080646515, 0.010900993831455708, -0.0928279310464859, 0.06861040741205215], [0.05551733449101448, -0.197560653090477, -0.0833471268415451, -0.025102075189352036, 0.02166884019970894, 0.08313898742198944, 0.06570164114236832, -0.06608828157186508, -0.10379204154014587, 0.011672528460621834, -0.039240241050720215, -0.024926811456680298, 0.08717051148414612, 0.12187164276838303, -0.05125310271978378, 0.11253247410058975, 0.18526583909988403, -0.10707902163267136, -0.04417464882135391, -0.008147194981575012], [-0.02054140716791153, -0.09887141734361649, -0.1628459095954895, 0.06869929283857346, -0.04289146512746811, -0.15220603346824646, 0.07874511182308197, -0.21352583169937134, 0.06799736618995667, -0.00755799887701869, 0.029167985543608665, -0.016926612704992294, -0.016293853521347046, 0.051865044981241226, -0.07883425056934357, 0.0022282691206783056, 0.058010075241327286, -0.006796002853661776, -0.09616941958665848, -0.04179612174630165], [0.01841655746102333, 0.12052036076784134, -0.10909011960029602, -0.10235925763845444, -0.00467709032818675, -0.04099801927804947, -0.21660904586315155, -0.10182719677686691, -0.019601695239543915, 0.07179935276508331, 0.2397294044494629, -0.202672079205513, 0.019414022564888, -0.4148387312889099, 0.06565086543560028, 0.10188864916563034, 0.03457699343562126, 0.04319670796394348, 0.09314445406198502, 0.06262911111116409], [0.012622212059795856, -0.048238836228847504, 0.039016637951135635, 0.076510488986969, 0.019468288868665695, 0.016939455643296242, 0.16145016252994537, -0.019100474193692207, -0.14988407492637634, 0.002240028465166688, 0.022356359288096428, -0.114588662981987, -0.05940904840826988, 0.0134938545525074, -0.09557565301656723, 0.0797702744603157, 0.01712597906589508, 0.0047826748341321945, 0.07815978676080704, -0.03849434107542038], [-0.17249485850334167, -0.174576997756958, 0.02672364003956318, 0.16536931693553925, 0.4845432937145233, -0.1713770031929016, 0.250520259141922, -0.6099221706390381, 0.3627774119377136, 0.07389714568853378, 0.1911514848470688, 0.4331482946872711, -0.28368857502937317, -0.17496946454048157, -0.18486785888671875, -0.19395945966243744, -0.1746331751346588, -0.04900757968425751, -0.08085993677377701, -0.2090534120798111], [0.14330843091011047, 0.06585730612277985, -0.08240252733230591, 0.07491358369588852, -0.10234665125608444, 0.009871385060250759, 0.01658778265118599, -0.11779262125492096, 0.1750982254743576, 0.0017215502448379993, -0.04594194516539574, -0.022937651723623276, -0.07095751911401749, 0.10993769019842148, -0.030529364943504333, 0.12007565796375275, 0.12478538602590561, 0.06805627793073654, 0.10319313406944275, 0.10973034799098969], [0.13701841235160828, 0.03481212258338928, 0.018055874854326248, -0.05639555677771568, -0.03817038983106613, 0.0017239577136933804, -0.1019071713089943, 0.033390726894140244, 0.03188972547650337, 0.17273670434951782, 0.017442764714360237, -0.08046812564134598, -0.01919974945485592, -0.11828071624040604, 0.039795272052288055, -0.04347220063209534, 0.08883392065763474, 0.0057274880819022655, -0.011215973645448685, 0.03399096429347992], [0.01442995760589838, 0.0009014392853714526, 0.01144079677760601, 0.04935905709862709, -0.04003420099616051, 0.08812307566404343, 0.16908688843250275, -0.2451533079147339, -0.12353098392486572, 0.09473808109760284, -0.28536728024482727, -0.0034771300852298737, -0.008450973778963089, 0.13475540280342102, -0.12296469509601593, 0.1754741072654724, -0.11629047989845276, -0.002027652459219098, 0.1391766220331192, -0.013968588784337044], [0.08040160685777664, -0.0447164885699749, 0.025261741131544113, 0.05797053501009941, 0.07514713704586029, -0.028505178168416023, 0.02301112562417984, -0.13333238661289215, -0.10319965332746506, 0.14728985726833344, -0.051923952996730804, -0.1278022825717926, -0.00386129436083138, -0.08555277436971664, -0.07463277131319046, -0.058242883533239365, 0.2910948395729065, 0.0033391264732927084, -0.02671564742922783, 0.09340591728687286], [-0.45864468812942505, -0.08197173476219177, -0.06907117366790771, 0.06783543527126312, 0.14338187873363495, 0.03476773202419281, -0.06333616375923157, -0.13705764710903168, -0.08821620047092438, -0.0025151462759822607, -0.0035794037394225597, -0.04778728261590004, 0.16949352622032166, -0.06332286447286606, 0.11406843364238739, -0.0181850828230381, 0.13414153456687927, 0.05977027118206024, -0.2526373267173767, -0.005409286357462406], [0.12819118797779083, -0.17912085354328156, 0.1651429533958435, 0.021334581077098846, -0.2489147186279297, 0.006469310726970434, 0.27830934524536133, -0.10001862049102783, -0.08037637919187546, -0.0021098738070577383, -0.04048464447259903, 0.00034784930176101625, 0.14006678760051727, 0.6657445430755615, -0.027408095076680183, 0.23594626784324646, 0.27073198556900024, 0.05487654358148575, -0.1467275321483612, -0.009451240301132202], [7.138860382838175e-05, -0.29151174426078796, -0.3354848027229309, 0.1236577183008194, -0.10493029654026031, -0.2220086306333542, -0.01734607107937336, -0.33039161562919617, 0.08996908366680145, -0.03491227328777313, 0.17262746393680573, 0.07026581466197968, 0.03614947572350502, -0.08624736964702606, -0.06598949432373047, -0.07629729062318802, -0.30785661935806274, -0.07830336689949036, 0.23159979283809662, -0.08126607537269592], [0.029595643281936646, -0.24223071336746216, 0.07756981253623962, 0.030191471800208092, -0.29073578119277954, -0.021328164264559746, 0.05839855596423149, -0.05788847804069519, -0.21198047697544098, 0.049739908427000046, -0.1134764775633812, -0.11068615317344666, 0.05427001416683197, 0.19403176009655, 0.07694506645202637, -0.18200093507766724, 0.25223660469055176, 0.025971882045269012, 0.09114929288625717, -0.0005754153244197369], [0.035092610865831375, -0.22909881174564362, -0.1855684220790863, 0.003760207211598754, 0.01897840015590191, 0.06767922639846802, 0.6088080406188965, -0.16088992357254028, 0.16166356205940247, -0.02379957027733326, 0.07683004438877106, -0.13364356756210327, -0.11564961075782776, 0.10847672820091248, 0.3631431758403778, -0.13528947532176971, 0.6602209806442261, 0.07930764555931091, 0.1025611087679863, -0.09591566026210785], [0.331129789352417, -0.07498728483915329, 0.00038863581721670926, -0.061583880335092545, -0.1066238209605217, -0.012233426794409752, 0.12218601256608963, -0.09659720212221146, 0.10320999473333359, -0.0702473446726799, 0.035680074244737625, -0.0747554674744606, -0.024139877408742905, 0.1551600694656372, -0.07151138037443161, -0.08369260281324387, -0.0669192522764206, -0.10600671917200089, 0.012970813550055027, -0.03065832518041134], [0.09964700788259506, -0.06908569484949112, 0.5637343525886536, 0.05749020725488663, 0.10247508436441422, 0.11241243779659271, 0.3247014284133911, 0.1329195648431778, 0.034711260348558426, -0.0197506844997406, -0.10463637858629227, 0.14769913256168365, -0.028439996764063835, 0.0518045537173748, 0.24192120134830475, -0.13665972650051117, -0.08219607919454575, -0.08217135816812515, -0.0030581187456846237, 0.011290070600807667], [0.2937065362930298, -0.03656023368239403, -0.0633404552936554, -0.18755432963371277, -0.11577235907316208, -0.020577987655997276, -0.030192077159881592, -0.06036800518631935, 0.16245153546333313, 0.02682972140610218, 0.046356942504644394, -0.09682275354862213, -0.2698281705379486, -0.03627566248178482, -0.06216218322515488, 0.06208471581339836, 0.0933527797460556, 0.14404210448265076, 0.0012629956472665071, -0.24466153979301453]], "rec.bias_ih_l0": [-0.8039297461509705, -0.4845522940158844, 0.4840317666530609, -0.868184506893158, 0.11856497824192047, 0.20964209735393524, 0.3563413918018341, 0.10350658744573593, -0.22258546948432922, -0.5195533037185669, -0.2141772359609604, 0.2494063377380371, -0.341871440410614, -1.1188609600067139, -0.44183191657066345, -0.7488929033279419, 0.002598302438855171, -0.18929356336593628, 0.514757513999939, -1.1449085474014282, 1.401976227760315, 0.8361935615539551, 0.34232985973358154, 1.333547830581665, 0.27855050563812256, 0.08893019706010818, 0.349305123090744, 0.3304535150527954, 0.694196879863739, 1.119920015335083, 0.5969064831733704, 0.11346238106489182, 0.5640511512756348, 1.4198182821273804, 0.7774752378463745, 1.1865383386611938, 0.24555334448814392, 0.3092232942581177, 0.20010434091091156, 1.6565155982971191, 0.16607914865016937, -0.1781141459941864, -0.028297696262598038, 0.019546736031770706, -0.055912598967552185, 0.05814003571867943, 0.04907013848423958, -0.10774831473827362, -0.05504351854324341, 0.08364275097846985, 0.05706871300935745, -0.10304012894630432, -0.06623641401529312, -0.1018884927034378, 0.1169477105140686, 0.11721556633710861, 0.034060776233673096, -0.09176125377416611, 0.10202427208423615, 0.11079562455415726, 0.008133171126246452, 0.3294052183628082, 0.726201057434082, 0.0629740059375763, 0.4028322994709015, 0.22762037813663483, 0.66661536693573, -0.05312907323241234, 0.014747084118425846, -0.16691264510154724, 0.18808186054229736, 0.23598092794418335, -0.15450315177440643, -0.02407829277217388, -0.01903463527560234, 0.08495701104402542, -0.0477571114897728, -0.08685780316591263, -0.2542558014392853, -0.08810923248529434], "rec.bias_hh_l0": [-0.6649608612060547, -0.36475634574890137, 0.4448690712451935, -0.8530659675598145, 0.12080109119415283, 0.10930175334215164, 0.37520459294319153, 0.25037047266960144, -0.3212941586971283, -0.35632047057151794, -0.062309496104717255, 0.20848427712917328, -0.33739301562309265, -1.1525417566299438, -0.42509278655052185, -0.6641992926597595, -0.03658253699541092, -0.24050086736679077, 0.4473279118537903, -1.1300526857376099, 1.2644931077957153, 0.9679455161094666, 0.30438464879989624, 1.2706605195999146, 0.22685302793979645, 0.2478606402873993, 0.37678053975105286, 0.36252567172050476, 0.7211644649505615, 0.9060829877853394, 0.5427122712135315, 0.014038149267435074, 0.5998843908309937, 1.4227937459945679, 0.7901052236557007, 1.188878059387207, 0.472603976726532, 0.22342824935913086, 0.4003221392631531, 1.5944035053253174, -0.17083321511745453, 0.08752914518117905, -0.030283667147159576, -0.002234518527984619, 0.07499778270721436, -0.004296764265745878, 0.1721947342157364, -0.038975294679403305, 0.05038437619805336, -0.07946880906820297, 0.06053270399570465, -0.1906564086675644, -0.03749935328960419, 0.14110930263996124, -0.009439455345273018, -0.10973852127790451, -0.1746949702501297, 0.07749120146036148, -0.1363929659128189, -0.11996958404779434, 0.06606569141149521, 0.3121107816696167, 0.8210386037826538, 0.02523798681795597, 0.3391273021697998, 0.2645264267921448, 0.6248254776000977, -0.03928191214799881, 0.11146938055753708, 0.03841481730341911, 0.22034241259098053, 0.2680143117904663, -0.22471097111701965, -0.001380745554342866, -0.16926166415214539, 0.13668113946914673, -0.21457482874393463, -0.12091684341430664, -0.21175116300582886, -0.11673709750175476], "lin.weight": [[-0.056822456419467926, 0.6371467709541321, 0.32660967111587524, 0.18706431984901428, -0.41168174147605896, 0.20696772634983063, -0.3880702555179596, -1.0550979375839233, -0.002098965458571911, 0.26292145252227783, 0.15858054161071777, 0.5179860591888428, 0.05377647653222084, 0.2031668871641159, 0.3362133800983429, -0.4494614899158478, -0.21248580515384674, 0.1459951549768448, -0.1405041515827179, -1.4247390031814575]], "lin.bias": [-0.08049523085355759]}}