{"model_data": {"model": "SimpleRNN", "input_size": 1, "skip": 1, "output_size": 1, "unit_type": "LSTM", "num_layers": 1, "hidden_size": 20, "bias_fl": true}, "state_dict": {"rec.weight_ih_l0": [[0.0037368079647421837], [0.01967088133096695], [-0.03847382962703705], [0.024334780871868134], [-0.020527468994259834], [0.003901946358382702], [0.18637025356292725], [0.024263223633170128], [-0.03152807056903839], [0.05014912039041519], [0.03234325721859932], [-0.02487987093627453], [-0.11335556954145432], [0.039093416184186935], [-0.01577877067029476], [-0.06570549309253693], [-0.06218167021870613], [0.0018604886718094349], [0.01694757118821144], [0.06996902823448181], [-0.08372151106595993], [0.015054255723953247], [-0.05362291634082794], [0.01763179711997509], [-0.033503275364637375], [0.0317985899746418], [0.23053541779518127], [0.056880827993154526], [-0.0166457649320364], [0.06404659897089005], [-0.029374968260526657], [-0.06046488508582115], [-0.21852684020996094], [0.03004569560289383], [0.00872803758829832], [-0.05533616244792938], [-0.0654536709189415], [-0.05127837136387825], [-0.014855669811367989], [0.0452047660946846], [0.012979436665773392], [-0.4166553318500519], [0.0028800400905311108], [1.055577039718628], [-1.4152271747589111], [0.6262217164039612], [-0.31438273191452026], [-0.23667012155056], [0.4632106125354767], [0.11406812071800232], [-0.03403303027153015], [-0.009466434828937054], [-0.3233523368835449], [0.10720561444759369], [1.3287805318832397], [-0.24079348146915436], [-0.28849273920059204], [0.3126864433288574], [-0.6737741231918335], [0.5331805348396301], [-0.08019455522298813], [0.01908068172633648], [-0.04845497012138367], [0.025706226006150246], [-0.02009502612054348], [0.03516993671655655], [0.22537487745285034], [0.01839596964418888], [-0.009016097523272038], [0.08168186992406845], [-0.035155657678842545], [-0.09910177439451218], [-0.1718171387910843], [0.02720632217824459], [0.00865304283797741], [-0.025827985256910324], [-0.04922943189740181], [-0.06173401325941086], [0.001737286918796599], [0.05934056639671326]], "rec.weight_hh_l0": [[0.0005586161278188229, 0.02922557294368744, -0.16955909132957458, 0.034075163304805756, -0.0015646327519789338, -0.007619350682944059, -0.18911747634410858, 0.04933534562587738, -0.08279097080230713, -0.07661370187997818, -0.026779377833008766, -0.010783173143863678, -0.1294817179441452, 0.11315669119358063, 0.042961958795785904, -0.12555964291095734, 0.03428994491696358, 0.08224954456090927, -0.00028352063964121044, -0.012971244752407074], [0.04453854262828827, -0.02054736018180847, 0.041973356157541275, -0.009621790610253811, -0.03953452408313751, -0.055394358932971954, 0.005583795253187418, -0.08110339194536209, -0.07160447537899017, -0.0745493620634079, 0.011004052124917507, 0.032296258956193924, 0.01655094511806965, -0.06450946629047394, 0.047823552042245865, -0.05219133943319321, -0.04158742353320122, -0.02445952780544758, -0.07504972815513611, -0.024455711245536804], [-0.014904230833053589, 0.009989704005420208, 0.02837730012834072, -0.019802546128630638, 0.057043660432100296, 0.03982678800821304, 0.008509396575391293, 0.011619942262768745, 0.06895719468593597, 0.03039446473121643, -0.05461791902780533, 0.005053658038377762, 0.0051150270737707615, -0.02661701664328575, -0.019912732765078545, -0.048298753798007965, 0.05945244058966637, 0.02689269930124283, 0.019595634192228317, -0.2193824052810669], [0.03631867468357086, 0.04245024174451828, 0.04542146995663643, -0.026896143332123756, -0.09606907516717911, 0.031560394912958145, 0.03680914267897606, -0.0041791214607656, -0.09880151599645615, -0.02540384605526924, 0.06266456097364426, -0.08077452331781387, 0.047280799597501755, 0.009569595567882061, -0.026009630411863327, 0.06354187428951263, -0.04465111717581749, -0.010201842524111271, -0.003634450025856495, 0.05830248445272446], [0.040543027222156525, 0.03915739431977272, 0.0012033699313178658, 0.050657518208026886, -0.019759654998779297, 0.09271921217441559, 0.09056910872459412, 0.040520936250686646, -0.08468540757894516, -0.017447086051106453, 0.039623670279979706, -0.08888629823923111, 0.03159360587596893, 0.013295423239469528, -0.07101765275001526, 0.08859634399414062, 0.12195596843957901, 0.04264874383807182, 0.04884476214647293, 0.05530430004000664], [0.04010728746652603, -0.039154186844825745, 0.01934077963232994, -0.01243849191814661, -0.0286135021597147, -0.08760753273963928, -0.1575719267129898, -0.05168858915567398, -0.06457866728305817, -0.14004014432430267, 0.011215153150260448, 0.05455847829580307, -0.06733584403991699, -0.1549527645111084, -0.06704221665859222, 0.03912864997982979, -0.08070652186870575, 0.10487550497055054, 0.11618410795927048, -0.0274216141551733], [-0.03559572249650955, 0.039500605314970016, -0.022198552265763283, -0.01685524545609951, -0.1800326555967331, -0.05522496625781059, -0.16145795583724976, 0.03082929737865925, 0.06501130014657974, -0.047117386013269424, 0.10384583473205566, -0.09138990193605423, 0.009943594224750996, -0.022023648023605347, 0.1551218032836914, 0.06992854923009872, -0.14169113337993622, -0.07183513790369034, -0.1619931012392044, 0.03685561567544937], [0.007725121453404427, -0.05188049003481865, -0.24044054746627808, -0.06220385804772377, -0.10553769022226334, -0.13639244437217712, -0.07503020018339157, 0.0692715123295784, -0.39541539549827576, 0.001797375502064824, -0.19569100439548492, 0.10824250429868698, -0.0522490069270134, -0.09704842418432236, -0.08903645724058151, -0.1750657856464386, -0.23721420764923096, 0.20680080354213715, 0.009512354619801044, 0.39377522468566895], [-0.04420091584324837, 0.02566317468881607, -0.013464243151247501, -0.0073972903192043304, -0.006807467434555292, -0.05802737548947334, 0.03375054895877838, -0.003930979873985052, 0.030070066452026367, 0.006836174987256527, -0.03765380382537842, 0.02848810702562332, -0.020275745540857315, -0.08330463618040085, -0.060550395399332047, -0.003888871055096388, -0.01724644936621189, -0.34075528383255005, -0.0340348556637764, -0.06866349279880524], [0.010434787720441818, -0.0017010741867125034, -0.07848146557807922, -0.013152348808944225, -0.04091591387987137, -0.0524730384349823, -0.14855676889419556, 0.10526968538761139, 0.15415515005588531, -0.04751475527882576, 0.005444115959107876, 0.020933525636792183, -0.0790066346526146, 0.023769548162817955, 0.05818796157836914, -0.008320621214807034, -0.06904947757720947, -0.06611660122871399, -0.05059419944882393, 0.02203684113919735], [0.09882646799087524, -0.10956427454948425, 0.024437090381979942, 0.01045112032443285, -0.08802969008684158, -0.1669696867465973, -0.09818059951066971, -0.01382904127240181, -0.21428322792053223, -0.08981160819530487, -0.043842218816280365, -0.008685415610671043, -0.08654269576072693, -0.06538005918264389, -0.039674047380685806, 0.003922781441360712, -0.09004179388284683, 0.07213196158409119, 0.022624274715781212, 0.11303111910820007], [-0.09945961087942123, -0.005769779440015554, 0.046591293066740036, -0.022631576284766197, 0.00645423261448741, -0.07503372430801392, -0.013291244395077229, -0.15870514512062073, 0.04192235693335533, 0.07157101482152939, -0.12228521704673767, 0.054369233548641205, -0.053935736417770386, 0.05869802087545395, 0.08218763023614883, -0.11471018195152283, -0.05971211940050125, -0.1911383867263794, -0.08161033689975739, 0.09893058240413666], [-0.09048961848020554, -0.042757946997880936, -0.09450355172157288, 0.01870749704539776, 0.13628077507019043, -0.08176904171705246, 0.016003623604774475, 0.008653181605041027, 0.008514145389199257, 0.01194059383124113, -0.12393733114004135, 0.08706492185592651, -0.09715492278337479, -0.015026411972939968, -0.07228653877973557, -0.0751829445362091, -0.07516010850667953, 0.05916304141283035, 0.08967527747154236, 0.06635333597660065], [-0.04534369334578514, 0.03818420320749283, 0.016145801171660423, -0.017911655828356743, -0.08903688937425613, 0.011918287724256516, -0.0323772095143795, 0.0012856669491156936, 0.17406576871871948, -0.01652313396334648, 0.05384250730276108, 0.0014134806115180254, -0.023065462708473206, -0.07484441995620728, 0.08294209837913513, 0.09723769873380661, -0.024671660736203194, -0.16203969717025757, 0.0016289566410705447, 0.13105672597885132], [0.008125223219394684, -0.012948345392942429, 0.005879767704755068, 0.05090566724538803, 0.041205987334251404, 0.085540272295475, 0.13016416132450104, 0.06647013872861862, 0.08074560761451721, 0.022407453507184982, 0.014748115092515945, -0.057785965502262115, 0.1147649735212326, 0.00699475547298789, -0.01360795833170414, 0.014625819399952888, 0.07643164694309235, 0.04114207625389099, 0.035827282816171646, 0.013324701227247715], [-0.017181377857923508, 0.047616127878427505, -0.07052329927682877, -0.07865973562002182, -0.14980627596378326, -0.013385787606239319, 0.05080083757638931, -0.020113173872232437, 0.17755688726902008, -0.11978210508823395, 0.1480783075094223, 0.11739163845777512, 0.06247836351394653, -0.0868673175573349, 0.0039006953593343496, 0.08659108728170395, 0.004259682726114988, -0.025095529854297638, -0.054708924144506454, 0.01812807098031044], [-0.1474531888961792, 0.02044345624744892, -0.16901274025440216, -0.04399583488702774, -0.008202211000025272, -0.038541533052921295, -0.0347607284784317, 0.06682571023702621, -0.061582475900650024, 0.026707185432314873, -0.0832677111029625, 0.08590871840715408, -0.1232861578464508, 4.820012327400036e-05, -0.032623860985040665, -0.011976282112300396, -0.11754103004932404, 0.015530976466834545, 0.07735883444547653, -0.06271868199110031], [-0.10511871427297592, -0.054250568151474, 0.05025532469153404, 0.009010435082018375, -0.12862971425056458, 0.06480266898870468, 0.0913197249174118, 0.07940957695245743, 0.9027971625328064, -0.00953116174787283, 0.09860739856958389, 0.3022283613681793, -0.01905157044529915, -0.17059238255023956, 0.33153513073921204, 0.15662351250648499, 0.17742064595222473, -0.01379884872585535, 0.030939379706978798, -0.950520932674408], [0.009311133064329624, 0.06546304374933243, 0.05214714631438255, -0.0329526886343956, -0.05144495889544487, 0.07107347995042801, 0.043063122779130936, -0.06954576820135117, 0.024347633123397827, 0.008402935229241848, 0.03215266019105911, 0.018607717007398605, 0.07981742173433304, 0.07186732441186905, 0.01441784854978323, 0.05833275243639946, -0.00503925047814846, -0.04520818963646889, -0.017311885952949524, 0.06282774358987808], [0.12380068004131317, -0.07184155285358429, 0.034954965114593506, 0.07598321884870529, 0.12544727325439453, 0.1343102902173996, -0.031198501586914062, 0.0425458624958992, 0.17671926319599152, 0.054206784814596176, -0.09411213546991348, -0.09405670315027237, -0.004810682963579893, 0.07365629822015762, 0.062291841953992844, -0.006983493454754353, -0.0405859611928463, 0.6338357329368591, 0.18660545349121094, -0.035903919488191605], [-0.018847955390810966, 0.10183244198560715, -0.07625019550323486, 0.01258973777294159, 0.08769279718399048, -0.010464447550475597, -0.15362030267715454, -0.024614999070763588, -0.056899167597293854, -0.17961522936820984, 0.049254752695560455, 0.20435984432697296, -0.24003946781158447, -0.049105290323495865, 0.0046695820055902, 0.11371283233165741, 0.09068603813648224, -0.030028576031327248, 0.023268627002835274, 0.03809645026922226], [0.06530192494392395, -0.04391571879386902, 0.06446528434753418, 0.0034609998110681772, 0.001352899707853794, -0.09066591411828995, 0.007581926882266998, -0.14834927022457123, -0.03393682464957237, -0.07470408827066422, -0.009208699688315392, 0.0706157386302948, 0.02623613178730011, -0.0406537689268589, 0.08232518285512924, -0.11698123812675476, -0.019453097134828568, 0.010345536284148693, -0.10017982125282288, -0.046656228601932526], [-0.11994154006242752, 0.06843680143356323, 0.016586225479841232, -0.014317919500172138, 0.08551063388586044, 0.1395561397075653, 0.04968072474002838, 0.0038295823615044355, 0.10994460433721542, 0.09476013481616974, -0.05514666438102722, 0.09428946673870087, -0.003535991767421365, -0.0040032691322267056, 0.002066897228360176, 0.02823140285909176, 0.07397010922431946, -0.0204048752784729, 0.07013847678899765, -0.24521398544311523], [0.062472421675920486, 0.05625123530626297, 0.02309034764766693, 0.03220377489924431, -0.0934717059135437, 0.03703675791621208, 0.07194618880748749, 0.03417528420686722, -0.06445416808128357, 0.011966655030846596, 0.07083533704280853, -0.19530998170375824, 0.04976325109601021, 0.02608080580830574, -0.01627369597554207, 0.031917914748191833, 0.02033727802336216, 0.004791737534105778, -0.020399367436766624, 0.045430462807416916], [0.006234460510313511, 0.14173883199691772, 0.03289194777607918, 0.02872537076473236, -0.031965095549821854, 0.19725292921066284, 0.12906406819820404, -0.047790829092264175, -0.047726910561323166, 0.05251478776335716, 0.002323682187125087, -0.11966226994991302, 0.022281110286712646, 0.136158749461174, -0.1108560711145401, 0.08808436989784241, 0.23761458694934845, 0.011434484273195267, 0.03218147158622742, 0.08284114301204681], [0.05250312015414238, -0.06885776668787003, 0.15747836232185364, 0.0028862948529422283, 0.030018774792551994, -0.20280691981315613, -0.16097790002822876, -0.3280949890613556, -0.03745422884821892, -0.16972216963768005, 0.024151170626282692, 0.14811445772647858, -0.054981037974357605, -0.10005197674036026, -0.02308138832449913, -0.060294028371572495, -0.034237902611494064, 0.05246977135539055, 0.06223231926560402, -0.1059662401676178], [0.084727942943573, -0.051187679171562195, 0.031091419979929924, 0.00167629006318748, -0.20230519771575928, -0.17877312004566193, -0.286247193813324, 0.017928514629602432, 0.08872507512569427, -0.23520830273628235, 0.19752441346645355, -0.08472026139497757, -0.02107556350529194, -0.18350857496261597, 0.15212653577327728, 0.164653018116951, -0.15903715789318085, -0.0484946146607399, -0.1668976992368698, 0.006309269927442074], [0.12540820240974426, -0.029028983786702156, 0.002286624861881137, -0.012808802537620068, -0.11833475530147552, -0.2746054232120514, 0.07973617315292358, 0.0354888029396534, -0.056923408061265945, -0.15499822795391083, 0.08729754388332367, 0.0223265178501606, 0.037284284830093384, -0.26015567779541016, -0.11974703520536423, -0.035978980362415314, -0.20091119408607483, -0.12106799334287643, -0.07450834661722183, 0.1998356580734253], [-0.012097278609871864, 0.08493612706661224, 0.0772668793797493, -0.018903443589806557, -0.035674236714839935, 0.05380246043205261, 0.08243346959352493, -0.02057648077607155, -0.09416859596967697, 0.06427334994077682, 0.027900870889425278, -0.06508792191743851, -0.0062307086773216724, -0.007747066672891378, -0.2052028477191925, 0.04791492596268654, 0.11511591076850891, -0.17380645871162415, 0.0665452778339386, -0.3976563811302185], [0.17460137605667114, -0.02760324813425541, 0.041189342737197876, -0.032539643347263336, -0.035805873572826385, -0.07702954113483429, -0.2105109691619873, 0.10807628184556961, 0.011820906773209572, -0.1791437417268753, 0.13502295315265656, 0.029313573613762856, -0.06689505279064178, -0.0700172558426857, -0.01871715486049652, 0.05557045340538025, -0.04742219299077988, 0.040872715413570404, -0.03438599035143852, -0.1268164962530136], [0.030072670429944992, -0.15250426530838013, -0.04637869447469711, 0.027378829196095467, 0.09465103596448898, -0.22106428444385529, -0.0937429815530777, -0.038141991943120956, -0.11804467439651489, -0.045238036662340164, -0.16215845942497253, 0.15614581108093262, -0.2125210016965866, -0.06235461309552193, -0.10387115925550461, 0.0009618523763492703, -0.15536022186279297, 0.2139807790517807, 0.08994270116090775, 0.12092152237892151], [-0.16280750930309296, -0.004403954837471247, 0.0974225178360939, -0.0662761703133583, 0.06781407445669174, -0.08896664530038834, -0.02958129532635212, -0.18209631741046906, 0.05473911017179489, 0.07705759257078171, -0.10866846889257431, 0.12501487135887146, -0.10311011970043182, 0.027265770360827446, 0.018979383632540703, -0.16196681559085846, -0.05431636422872543, -0.29315781593322754, -0.047997377812862396, -0.01928887329995632], [-0.228654146194458, -0.020379748195409775, -0.1849895715713501, -0.01543757226318121, 0.16448314487934113, -0.07743395119905472, 0.0415773019194603, 0.03176707774400711, 0.15426050126552582, 0.0838528573513031, -0.21370050311088562, 0.20294325053691864, -0.16644355654716492, 0.003108135424554348, -0.07631463557481766, -0.0940714031457901, -0.09503158181905746, 0.0587640255689621, 0.15838316082954407, 0.04214644432067871], [-0.013296587392687798, 0.03410620614886284, 0.031272146850824356, -0.018874092027544975, -0.12262877076864243, 0.0016905679367482662, -0.04516971483826637, 0.043536726385354996, 0.1970575749874115, -0.062034159898757935, 0.0856470838189125, -0.02102045901119709, -1.9178749425918795e-05, -0.11776094138622284, 0.05326542258262634, 0.20284020900726318, -0.042522527277469635, -0.1805674284696579, 0.027770960703492165, 0.21552087366580963], [0.032710961997509, -0.01306709460914135, 0.0069516426883637905, 0.04604386165738106, 0.007234127726405859, 0.11216703057289124, 0.16940546035766602, 0.07928264886140823, -0.033969566226005554, 0.08453330397605896, -0.008543075993657112, -0.09518416970968246, 0.15549425780773163, 0.06941404193639755, -0.05057082697749138, -0.08183097094297409, 0.06100163981318474, 0.03769214078783989, -0.043489791452884674, -0.19005195796489716], [-0.11424747854471207, 0.09982117265462875, 0.05687685310840607, -0.03916182741522789, 0.02270970493555069, 0.09069202840328217, 0.13905082643032074, -0.15474845468997955, 0.218163400888443, -0.022940337657928467, 0.1563764363527298, 0.11450998485088348, 0.14277398586273193, -0.008786988444626331, -0.020333485677838326, 0.06709160655736923, 0.11549119651317596, -0.14566834270954132, -0.034531548619270325, -0.06252525001764297], [-0.21188023686408997, 0.05337035283446312, -0.17567159235477448, -0.10679658502340317, -0.07020255923271179, -0.020882919430732727, -0.10883493721485138, 0.14780595898628235, -0.0072499895468354225, -0.0008918648818507791, -0.044392265379428864, 0.12270147353410721, -0.17471830546855927, -0.04940095543861389, -0.047806449234485626, 0.1033870130777359, -0.19400006532669067, -0.0647520050406456, 0.14466072618961334, -0.05187292397022247], [-0.024726077914237976, -0.07068432122468948, 0.033724345266819, 0.005464266519993544, 0.27618587017059326, 0.22597432136535645, 0.06879046559333801, 0.03507227078080177, 0.2513384521007538, -0.048570357263088226, 0.22654667496681213, 0.17191767692565918, -0.05325353145599365, -0.19145400822162628, 0.007207623682916164, -0.009251479059457779, 0.28985363245010376, 0.16626186668872833, 0.05126125365495682, -0.6487900614738464], [0.017006829380989075, 0.01730465516448021, -0.025140445679426193, 0.00647501228377223, 0.02486543171107769, -0.008057785220444202, 0.060413908213377, -0.07131421566009521, -0.040011536329984665, -0.016127940267324448, -0.027183692902326584, 0.0682460218667984, 0.055744364857673645, 0.062460239976644516, -0.046144451946020126, -0.06523991376161575, -0.028701752424240112, -0.07803580164909363, -0.04519036412239075, 0.07267431914806366], [-0.019894247874617577, 0.06841234117746353, 0.06444080919027328, 0.15260781347751617, 0.05481235682964325, 0.19862176477909088, 0.004063022322952747, 0.12541164457798004, 0.5492711663246155, 0.06613697856664658, -0.038177233189344406, -0.06415370106697083, 0.04957720637321472, 0.04581909626722336, 0.36625346541404724, 0.07339145243167877, 0.009110699407756329, -0.023507777601480484, 0.03729535639286041, 0.29762065410614014], [0.3652602732181549, -0.09295038133859634, 0.15731920301914215, -0.03493416681885719, -0.16816934943199158, -0.0726870745420456, -0.10469499975442886, 0.04208223894238472, 0.021511226892471313, -0.2620355784893036, 0.18054355680942535, -0.1530086100101471, 0.0492982417345047, -0.01312872301787138, 0.05990089103579521, -0.11213953793048859, 0.039862699806690216, 0.11487981677055359, 0.04093554615974426, 0.012536582536995411], [-0.2700614631175995, 0.24296189844608307, -0.033520981669425964, 0.219582661986351, -0.4758322834968567, 0.4374997317790985, 0.15102079510688782, -0.09234619140625, -0.12878011167049408, 0.3993068039417267, 0.0781804695725441, -0.2157708704471588, -0.07837940752506256, 0.042321670800447464, 0.48640215396881104, 0.005202113650739193, -0.15248645842075348, -0.030646497383713722, -0.043072812259197235, 0.031944990158081055], [0.038542814552783966, -0.01543988287448883, 0.39516204595565796, 0.09114331007003784, -0.27223360538482666, -0.10648723691701889, 0.07365096360445023, -0.4730361998081207, -0.18350957334041595, 0.1511843353509903, 0.04505620151758194, -0.09927389025688171, 0.05291473865509033, 0.03325802832841873, 0.18632860481739044, 0.37147992849349976, 0.045223668217659, -0.1972230076789856, -0.2745130658149719, -0.2659052312374115], [-0.15187197923660278, -0.3344314992427826, -0.07641098648309708, 0.09603366255760193, 0.3552432060241699, 0.08800534158945084, 0.06603612005710602, 0.047721438109874725, 0.11040642857551575, -0.2950960099697113, -0.032919541001319885, 0.08516988903284073, 0.15181128680706024, -0.01499101985245943, -0.4666336476802826, -0.1415942907333374, 0.3907724618911743, -0.06214697286486626, 0.46751049160957336, 0.20529207587242126], [0.11177119612693787, -0.23581990599632263, 0.2679484188556671, -0.22370724380016327, 0.4861946105957031, -0.4609984755516052, -0.013884376734495163, -0.06482309848070145, 0.11567196995019913, -0.31459733843803406, 0.06511063873767853, 0.09851236641407013, 0.2199181318283081, 0.041647687554359436, -0.3753596246242523, -0.12239152938127518, 0.33174777030944824, -0.014905051328241825, 0.4195713698863983, 0.029101300984621048], [-0.41096827387809753, 0.11429760605096817, 0.15536785125732422, -0.023477638140320778, -0.24832844734191895, 0.08037157356739044, 0.5567336678504944, 0.16230855882167816, -0.07801660150289536, 0.35379165410995483, -0.030170295387506485, 0.08780874311923981, -0.015742536634206772, 0.14980247616767883, 0.025705328211188316, 0.18279039859771729, 0.019022222608327866, -0.005988034885376692, 0.12638303637504578, -0.20294061303138733], [-0.06328079849481583, -0.030388666316866875, -0.11346390843391418, 0.21976204216480255, 0.20490723848342896, -0.06657901406288147, 0.14811572432518005, -0.012853428721427917, 0.1018352061510086, -0.06854239851236343, -0.04861750453710556, 0.14225362241268158, -0.030499424785375595, -0.08817965537309647, -0.32729801535606384, -0.03430140018463135, 0.3421725034713745, 0.04685018211603165, 0.02485697530210018, 0.11293374747037888], [-0.12597481906414032, 0.020952150225639343, 0.13205444812774658, -0.2264614701271057, 0.497708797454834, 0.22981871664524078, -0.16238656640052795, 0.534984290599823, 0.1242981106042862, -0.15028686821460724, 0.4027971029281616, -0.1054048240184784, 0.09176304936408997, -0.1684628278017044, 0.052501313388347626, 0.20328713953495026, -0.13613365590572357, 0.02307877503335476, 0.13852006196975708, 0.2634565830230713], [-0.078664131462574, 0.004134674556553364, 0.40053924918174744, -0.3176646828651428, 0.2744182348251343, 0.4114952087402344, -0.07002194970846176, -0.3698709011077881, 0.5647398829460144, 0.005517527461051941, -0.19855360686779022, 0.5316510796546936, -0.08375027775764465, 0.13481375575065613, 0.5027660131454468, 0.5241702795028687, -0.3412935137748718, 0.046062029898166656, 0.08744512498378754, 0.14711590111255646], [-0.23388232290744781, -0.038690440356731415, -0.16236034035682678, 0.015646012499928474, -0.026356074959039688, 0.18567109107971191, 0.1738591343164444, -0.023792261257767677, 0.05484947934746742, 0.33997368812561035, -0.2199191004037857, -0.14580446481704712, -0.13414700329303741, 0.21695490181446075, -0.13688379526138306, -0.21250902116298676, 0.11482550203800201, -0.019412364810705185, 0.21099337935447693, -0.08667894452810287], [0.2903977930545807, -0.029126642271876335, 0.12452355027198792, 0.1895432472229004, -0.23645775020122528, 0.0834210142493248, -0.18064653873443604, 0.2757917642593384, 0.007332018110901117, -0.23697012662887573, 0.1788829118013382, -0.17392711341381073, -0.19168008863925934, -0.06960970163345337, 0.36004579067230225, 0.26369792222976685, 0.03272891417145729, -0.15015926957130432, -0.10202877968549728, -0.14466486871242523], [-0.3372066020965576, -0.021279223263263702, -0.0933222621679306, -0.20334801077842712, 0.024741696193814278, -0.23882311582565308, -0.04127748683094978, -0.6412768959999084, -0.10248923301696777, 0.1874985247850418, -0.3447374999523163, 0.18350829184055328, -0.1984916776418686, 0.03919721767306328, 0.060958683490753174, 0.28582414984703064, -0.049892064183950424, -0.22739721834659576, -0.021967217326164246, -0.2943492829799652], [0.2634619474411011, 0.3573974668979645, 0.12328917533159256, -0.16649582982063293, 0.026204142719507217, 0.35791754722595215, 0.05816341191530228, -0.2403334677219391, -0.11214430630207062, 0.016557546332478523, 0.33619171380996704, -0.025179779157042503, 0.1736563891172409, 0.13691984117031097, 0.2874937057495117, -0.06283994019031525, -0.1756441444158554, 0.0668860673904419, -0.23756282031536102, 0.12001106142997742], [0.12071523815393448, 0.07196329534053802, -0.18084639310836792, -0.07871142774820328, -0.09327956289052963, 0.047239772975444794, 0.2103286236524582, -0.22692203521728516, -0.015846066176891327, 0.30992040038108826, -0.1951231062412262, -0.2256155163049698, 0.06332481652498245, 0.1769983321428299, -0.07538622617721558, -0.21764077246189117, 0.1665351688861847, 0.2438163310289383, -0.07542391121387482, 0.15409477055072784], [-0.08417663723230362, -0.23385101556777954, 0.1365184336900711, 0.43368881940841675, -0.19792050123214722, 0.42455199360847473, 0.14322194457054138, -0.06377781182527542, 0.13585470616817474, 0.1874620020389557, -0.20439080893993378, 0.20502346754074097, -0.42417943477630615, 0.0061125908978283405, 0.22435685992240906, 0.01924377866089344, -0.1287025660276413, 0.07488128542900085, 0.01376096997410059, 0.04546640068292618], [-0.10573572665452957, 0.37612926959991455, 0.021762840449810028, -0.8199287056922913, -0.8251096606254578, 0.24260744452476501, 0.13242563605308533, -0.2433394491672516, 0.16510124504566193, 0.19561384618282318, 0.10026897490024567, 0.0627751499414444, 0.0031049014069139957, 0.11154590547084808, 0.2386668473482132, 0.5663921236991882, -0.42897656559944153, 0.00037254983908496797, -0.2058236449956894, -0.11838757246732712], [0.3028492331504822, 0.04922240599989891, 0.038675859570503235, -0.07574933022260666, 0.44521626830101013, 0.14420771598815918, 0.056522101163864136, -0.012350465171039104, 0.2724284529685974, -0.14255473017692566, 0.15552985668182373, -0.1108919158577919, 0.5434088110923767, -0.10114406049251556, -0.2521119713783264, -0.03913647308945656, 0.3649367094039917, -0.03148879483342171, 0.030501076951622963, -0.13413472473621368], [0.14178992807865143, 0.034409232437610626, -0.0715118944644928, -0.3900317847728729, -0.1989288032054901, -0.0659777820110321, -0.10161259025335312, -0.0798872783780098, -0.4056382477283478, 0.054903749376535416, 0.18662306666374207, 0.17478860914707184, -0.12145467847585678, -0.08688343316316605, -0.5583472847938538, -0.14810273051261902, 0.24799679219722748, 0.6288962364196777, 0.39922550320625305, -0.5284890532493591], [-0.042821530252695084, 0.15933512151241302, 0.06492151319980621, -0.3415803611278534, 0.2072928547859192, 0.021835286170244217, -0.14702507853507996, -0.03753662109375, 0.03187116980552673, -0.037408847361803055, -0.009296235628426075, -0.003715256694704294, 0.05787104740738869, -0.15101709961891174, -0.31858962774276733, 0.3044806122779846, -0.05408325791358948, -0.028866799548268318, 0.1578012853860855, -0.14195135235786438], [-0.011638225056231022, 0.18788184225559235, 0.44894853234291077, -0.3277131915092468, 0.33379626274108887, 0.3310789167881012, -0.28371188044548035, -0.4911283552646637, 0.2965022325515747, 0.11526493728160858, -0.4315617084503174, 0.024967461824417114, -0.04999915137887001, -0.05198027938604355, 0.05224383622407913, 0.4914815425872803, -0.25777745246887207, -0.03804637864232063, 0.19301046431064606, 0.5657145380973816], [-0.05100710317492485, 0.05717868357896805, -0.11506294459104538, -0.02949514053761959, 0.003991078585386276, -0.0264443326741457, -0.19338376820087433, 0.1487210988998413, 0.038584787398576736, -0.08026185631752014, -0.011934814043343067, 0.186569944024086, -0.2344246357679367, -0.05263016000390053, 0.0319988951086998, 0.09518972039222717, -0.09325625747442245, 0.042080480605363846, 0.13171984255313873, 0.045302409678697586], [0.0633290484547615, -0.02178019843995571, 0.07398630678653717, -0.02747207321226597, -0.060354314744472504, -0.08471962809562683, -0.003349513979628682, -0.1281382441520691, -0.1187538355588913, -0.10083233565092087, 0.01989765278995037, 0.048011813312768936, 0.03357439488172531, -0.06951192766427994, 0.041284479200839996, -0.07076173275709152, -0.042784783989191055, -0.015196407213807106, -0.08768563717603683, -0.04450515657663345], [-0.03869101405143738, -0.0016355665866285563, 0.0032242066226899624, -0.0008504503057338297, 0.11181489378213882, 0.028189832344651222, 0.01933266408741474, 0.006324751302599907, 0.0631207525730133, 0.04905540868639946, -0.04547835886478424, 0.02501128986477852, -0.005549040623009205, 0.020530063658952713, -0.053018905222415924, -0.0416521281003952, 0.08671632409095764, 0.014695540070533752, 0.03661440312862396, -0.14573171734809875], [0.027374038472771645, 0.056636616587638855, 0.055208440870046616, -0.044193536043167114, -0.11817576736211777, 0.039347466081380844, 0.04194643348455429, -0.031825970858335495, -0.09837507456541061, -0.014317822642624378, 0.05674188956618309, -0.06716988235712051, 0.055580023676157, 0.025490904226899147, -0.010951568372547626, 0.07417219877243042, -0.05365346744656563, -0.026474835351109505, -0.014972107484936714, 0.07823790609836578], [0.02036353014409542, 0.05101460963487625, 0.05462219938635826, 0.0852687656879425, 0.0075673130340874195, 0.18595929443836212, 0.21516574919223785, -0.0037236541975289583, -0.08885259181261063, 0.07455091923475266, 0.049775753170251846, -0.14697614312171936, 0.13393889367580414, 0.1397927850484848, -0.06979887932538986, -0.013679984025657177, 0.20133383572101593, 0.014701859094202518, 0.014413492754101753, -0.022684166207909584], [0.0906083881855011, -0.13367779552936554, 0.039590984582901, 0.027639107778668404, 0.029348202049732208, -0.18022137880325317, -0.1286410689353943, -0.10281042009592056, -0.04461934044957161, -0.16975675523281097, 0.03624405711889267, 0.061659447848796844, -0.07210991531610489, -0.11070024222135544, -0.040181636810302734, -0.08953863382339478, -0.03128386288881302, 0.15315110981464386, 0.03731049597263336, -0.03597943112254143], [0.11375439167022705, -0.00639573996886611, 0.05910151079297066, -0.005112008657306433, -0.21133632957935333, -0.057000864297151566, -0.24653176963329315, 0.06895402818918228, 0.0702311173081398, -0.1999981850385666, 0.1910521537065506, -0.10432004183530807, 0.015709154307842255, -0.14067257940769196, 0.17737151682376862, 0.14998787641525269, -0.09717541188001633, -0.029848597943782806, -0.154595285654068, 0.061749041080474854], [0.16035400331020355, -0.06955136358737946, -0.042415257543325424, -0.005633913911879063, -0.16759653389453888, -0.1592850685119629, 0.06579820066690445, -0.09024941176176071, 0.007832793518900871, -0.10600657016038895, -0.009508209303021431, 0.01663488708436489, -0.003817942924797535, -0.1136675626039505, -0.09331964701414108, 0.133884996175766, -0.0442219041287899, 0.1630999594926834, -0.024932945147156715, 0.10098081082105637], [-0.008485428057610989, -0.0349779948592186, -0.014039757661521435, 0.04353875666856766, 0.15381865203380585, -0.05810908228158951, 0.006910029798746109, 0.006502950564026833, -0.22228020429611206, 0.026974288746714592, -0.0747995525598526, -0.004658734425902367, -0.0586850643157959, -0.10054890811443329, -0.2143007218837738, -0.08485721796751022, 0.05636438727378845, -0.19709846377372742, 0.004888505674898624, -0.368553102016449], [0.10194049030542374, -0.08228655159473419, 0.012135332450270653, 0.009530028328299522, -0.020872967317700386, -0.13337591290473938, -0.2634223699569702, 0.0401904433965683, 0.14986829459667206, -0.2069099247455597, 0.11714120954275131, 0.047046296298503876, -0.09258505702018738, -0.12374402582645416, 0.06733794510364532, 0.060299988836050034, -0.07440077513456345, 0.07461347430944443, -0.026759594678878784, 0.006323083303868771], [-0.005884454119950533, -0.16069172322750092, -0.050130248069763184, 0.02463219314813614, 0.03102841228246689, -0.26167917251586914, -0.07240764796733856, -0.06488772481679916, -0.17189271748065948, -0.03284388408064842, -0.10924777388572693, 0.12373679131269455, -0.2177794873714447, -0.004958938341587782, -0.03884085267782211, -0.06696289777755737, -0.1425461322069168, 0.18538621068000793, 0.02051910199224949, 0.07133229076862335], [-0.21474289894104004, -0.038710325956344604, -0.006622662302106619, -0.050447240471839905, 0.08905398845672607, -0.1387149542570114, -0.006007719319313765, -0.15705640614032745, 0.15169936418533325, 0.10893614590167999, -0.1861504763364792, 0.19103799760341644, -0.12782397866249084, 0.06241952255368233, 0.03614041209220886, -0.1466509997844696, -0.07765171676874161, -0.2586834132671356, -0.049653060734272, 0.11216741055250168], [-0.17247386276721954, -0.04450013488531113, -0.1812366247177124, 0.006673624739050865, 0.18605011701583862, -0.11272843182086945, 0.035046353936195374, 0.01617691107094288, -0.03834942355751991, 0.05075022205710411, -0.17728380858898163, 0.16216066479682922, -0.19606897234916687, -0.008798349648714066, -0.11419562995433807, -0.1240374967455864, -0.10930376499891281, 0.024529628455638885, 0.11992175877094269, -0.005253396928310394], [0.012785429134964943, 0.03730267286300659, 0.01296145562082529, 0.008511003106832504, -0.1124407947063446, -0.02028547041118145, -0.036750245839357376, 0.039416804909706116, 0.25208574533462524, -0.05506020039319992, 0.08983027189970016, -0.0305325910449028, 0.0007278015254996717, -0.11647092550992966, 0.0998527780175209, 0.15839025378227234, -0.020468857139348984, -0.13708126544952393, -0.02191779948771, 0.2483675628900528], [0.010233411565423012, 0.01401183009147644, 0.032598577439785004, 0.023119686171412468, 0.018701449036598206, 0.09609375149011612, 0.10435474663972855, 0.0504579059779644, 0.18573720753192902, 0.020107140764594078, 0.03739824518561363, -0.0639202669262886, 0.12782920897006989, 0.02206183783710003, 0.024648403748869896, 0.0715947076678276, 0.10177512466907501, 0.008152308873832226, -0.011620474979281425, -0.028402268886566162], [-0.05897238478064537, 0.06391698867082596, -0.01779010333120823, -0.014829817228019238, 0.04531647264957428, 0.051759496331214905, 0.03725912421941757, -0.01262526586651802, 0.13857804238796234, -0.0607726015150547, 0.13116195797920227, 0.0886959359049797, 0.056863706558942795, -0.0844586193561554, -0.02656436339020729, -0.012673551216721535, 0.12054845690727234, -0.05225224792957306, -0.019016612321138382, -0.24942800402641296], [-0.18730488419532776, 0.02271236851811409, -0.20781667530536652, -0.06507748365402222, -0.01941208727657795, -0.027258582413196564, -0.05224718526005745, 0.10723589360713959, -0.04678993672132492, 0.020653877407312393, -0.08131653815507889, 0.09801231324672699, -0.1789001077413559, -0.050040580332279205, -0.04526075720787048, 0.050848886370658875, -0.2147223800420761, 0.01183704286813736, 0.09480959922075272, -0.07671252638101578], [-0.009788074530661106, -0.07128691673278809, 0.037365179508924484, 0.029663709923624992, -0.013896038755774498, -0.09036016464233398, 0.07861877977848053, -0.04439244419336319, -0.10867529362440109, -0.06162097305059433, 0.052570559084415436, 0.24017861485481262, -0.018306996673345566, -0.21217000484466553, 0.14476577937602997, -0.10168995708227158, 0.1398390531539917, -0.01201636716723442, -0.0704154297709465, -0.23612311482429504], [-0.021413607522845268, 0.06185784190893173, 0.03764209896326065, -0.02696964517235756, -0.003845598315820098, 0.06414829939603806, 0.04757274314761162, -0.07333030551671982, -0.002603930188342929, 0.02248452790081501, 0.010426809079945087, 0.04807787388563156, 0.060018714517354965, 0.07688221335411072, -0.012613873928785324, 0.01828186772763729, -0.0061746323481202126, -0.06682396680116653, -0.013531696982681751, 0.03433111310005188], [-0.015070519410073757, 0.14812321960926056, -0.024296851828694344, -0.09059743583202362, -0.17951394617557526, 0.19696781039237976, -0.08995601534843445, 0.05353701487183571, 0.5583175420761108, 0.09201699495315552, -0.07012169063091278, -0.05058569461107254, 0.06795653700828552, 0.12720993161201477, 0.3526225686073303, 0.1172000989317894, -0.1538122147321701, 0.2589914798736572, 0.0426667220890522, 0.2922849953174591]], "rec.bias_ih_l0": [-0.20744730532169342, 0.21989494562149048, -0.08395927399396896, 0.4206031858921051, 0.4494767487049103, -0.02576400898396969, -0.34672534465789795, -0.5177851319313049, 0.31733784079551697, -0.1275016963481903, -0.0938003659248352, -0.014027832075953484, -0.015215735882520676, 0.008761256001889706, 0.49360373616218567, 0.33055904507637024, 0.10169704258441925, -0.38719847798347473, 0.3102039396762848, 0.03988747298717499, 0.6119517683982849, 0.10433471202850342, 0.4122050404548645, 0.06649003177881241, 0.2829364240169525, 0.44673728942871094, 0.26550301909446716, 0.8165822625160217, 0.28730976581573486, 0.4629319906234741, 0.3199322521686554, 0.39368781447410583, 0.1041717603802681, 0.3299699127674103, 0.2611178457736969, 0.19420531392097473, 0.3115655183792114, 0.588893711566925, 0.22142261266708374, 0.2739110291004181, -0.006542132701724768, 0.013487191870808601, 0.04190249368548393, -0.048812106251716614, -0.058972325176000595, -0.19518619775772095, -0.049029845744371414, -0.060362767428159714, -0.08030135184526443, -0.07273108512163162, -0.07103347033262253, -0.050003569573163986, 0.06602928787469864, -0.0705064907670021, 0.0018918509595096111, -0.04437689110636711, 0.10761170834302902, 0.20832110941410065, 0.12590838968753815, 0.04839044064283371, 0.1383080780506134, 0.11503724008798599, 0.2066076099872589, 0.42626598477363586, 0.30683839321136475, 0.3132548928260803, 0.10799195617437363, 0.3307129740715027, 0.23046866059303284, 0.05309547483921051, 0.0451606884598732, 0.034158844500780106, 0.07867196947336197, 0.1086888462305069, 0.5022619366645813, 0.2046528309583664, 0.268358439207077, 0.2506476044654846, 0.38860124349594116, 0.22085726261138916], "rec.bias_hh_l0": [-0.19578835368156433, 0.21315619349479675, -0.042385537177324295, 0.36624935269355774, 0.5853038430213928, 0.013332633301615715, -0.3356764316558838, -0.5342738628387451, 0.27473869919776917, -0.12833020091056824, -0.008312568068504333, -0.014058061875402927, -0.0019344500033184886, -0.13283048570156097, 0.3928302824497223, 0.2904314398765564, 0.08219078183174133, -0.4586726725101471, 0.30443477630615234, 0.04276590049266815, 0.6161578297615051, 0.06600544601678848, 0.4495770037174225, 0.14648579061031342, 0.27614283561706543, 0.3271908760070801, 0.18758352100849152, 0.8350483179092407, 0.24994084239006042, 0.3805031478404999, 0.3045707941055298, 0.2627396285533905, 0.13725176453590393, 0.31958144903182983, 0.11291450262069702, 0.12119124829769135, 0.2651732563972473, 0.7088019847869873, 0.22510038316249847, 0.3024892807006836, 0.02097630687057972, 0.0008997575496323407, -0.04554888606071472, 0.01909087970852852, 0.06236550584435463, 0.21196378767490387, 0.14779892563819885, 0.025497348979115486, 0.10537637025117874, 0.08457428216934204, 0.12368334829807281, 0.02809605747461319, -0.03232729807496071, 0.08194299787282944, 0.0023598414845764637, 0.06477180868387222, -0.10906388610601425, -0.2155546098947525, -0.13511142134666443, -0.13502050936222076, 0.15488183498382568, 0.1440451443195343, 0.20983651280403137, 0.3874862790107727, 0.35899829864501953, 0.32200613617897034, 0.1116814985871315, 0.3201543092727661, 0.21044544875621796, 0.07483498007059097, -0.0350264310836792, 0.0383923165500164, 0.14597447216510773, -0.013379685580730438, 0.5134682059288025, 0.2938690781593323, 0.2720741629600525, 0.3206954896450043, 0.38709163665771484, 0.18864138424396515], "lin.weight": [[-0.07991508394479752, 0.19922788441181183, 0.13976959884166718, -0.14514531195163727, -0.054747432470321655, 0.05134423077106476, 0.15062718093395233, 0.41806095838546753, -0.17711855471134186, -0.10780196636915207, 0.13454946875572205, 0.08722886443138123, -0.18500185012817383, -0.6257898211479187, -0.29733142256736755, -0.06464087963104248, 0.21208904683589935, -1.1041258573532104, 0.6374501585960388, -0.18391047418117523]], "lin.bias": [-0.046585094183683395]}}