{"model_data": {"model": "SimpleRNN", "input_size": 1, "skip": 1, "output_size": 1, "unit_type": "LSTM", "num_layers": 1, "hidden_size": 20, "bias_fl": true}, "state_dict": {"rec.weight_ih_l0": [[-0.002915012650191784], [0.05313516780734062], [0.061009448021650314], [0.008381649851799011], [-0.018253764137625694], [0.060003623366355896], [-0.11325349658727646], [-0.13471607863903046], [0.02097211219370365], [-0.005437707994133234], [-0.06308770924806595], [0.040026936680078506], [0.45396745204925537], [-0.34662067890167236], [-0.0038484579417854548], [-0.506344735622406], [-0.020275188609957695], [-0.013311299495398998], [-0.143077552318573], [0.012677949853241444], [-0.003030750434845686], [0.056263599544763565], [0.05176278576254845], [0.06385958194732666], [-0.027836421504616737], [0.050420984625816345], [-0.17231884598731995], [-0.08031531423330307], [0.00012084680929547176], [0.039192307740449905], [-0.07133355736732483], [0.2505497634410858], [0.31660789251327515], [0.17373745143413544], [-0.008107680827379227], [0.01520345639437437], [-0.06490448117256165], [-0.1890362799167633], [-0.18153798580169678], [0.024425294250249863], [-0.0825132429599762], [0.0004830329562537372], [0.895158588886261], [-0.6597148776054382], [-0.13062597811222076], [0.5756192207336426], [-0.1462278664112091], [-1.143786072731018], [0.03692294657230377], [0.33333978056907654], [-0.15637768805027008], [1.8095451593399048], [1.1808029413223267], [2.7046592235565186], [-0.011433415114879608], [0.15733744204044342], [0.13809391856193542], [-0.46181851625442505], [0.12957526743412018], [-0.03660094738006592], [-0.0017380091594532132], [0.04768841341137886], [-0.01907375641167164], [-0.0620897002518177], [-0.06088527292013168], [-0.04414131119847298], [0.018075427040457726], [-0.19651058316230774], [-0.1072939857840538], [0.0017750175902619958], [0.15998178720474243], [0.04581860452890396], [-0.02002342790365219], [-0.08849044144153595], [-0.004973520524799824], [-0.35171693563461304], [-0.04026630520820618], [0.020663760602474213], [-0.22429294884204865], [0.016481565311551094]], "rec.weight_hh_l0": [[-0.000803217408247292, -0.010890494100749493, 0.07984074205160141, -0.0002353916788706556, -0.03300110623240471, -0.01823645643889904, -0.04056737944483757, 0.0019742432050406933, -0.02999081276357174, -0.01097901165485382, 0.044063251465559006, -0.010481862351298332, -0.02438092604279518, -0.006190645508468151, -0.0013589237350970507, -0.0037676633801311255, -0.009612862020730972, 0.013013406656682491, 0.018241150304675102, 0.002223782939836383], [0.003947837743908167, 0.0453597828745842, 0.06448781490325928, 0.057539455592632294, 0.017701782286167145, 0.11939577758312225, -0.013456571847200394, -0.024400098249316216, 0.01707865484058857, 0.018916351720690727, 0.005988376680761576, 0.010551998391747475, 0.12261200696229935, -0.08604498952627182, -0.026701537892222404, 0.03242291510105133, 0.009783698245882988, 0.05763319507241249, -0.0240077655762434, 0.017423994839191437], [-0.05629944056272507, -0.5978587865829468, -0.7357908487319946, -1.34433114528656, -0.6933386921882629, -0.9515142440795898, -1.3682805299758911, -0.6596947312355042, -1.3669759035110474, -0.24212446808815002, 1.1853468418121338, -0.9717680811882019, -1.1059157848358154, 1.1128342151641846, 0.2670474350452423, 0.10155168175697327, -0.6782302260398865, -0.823659360408783, 0.011643911711871624, -0.05752268433570862], [0.0515817254781723, 0.10928446054458618, -0.9731398820877075, -0.24439458549022675, 0.1513771414756775, 0.18805910646915436, 0.12434591352939606, -0.050667911767959595, 0.005041125696152449, -0.08695019781589508, -0.14669351279735565, -0.11236753314733505, 0.3536182641983032, 0.37053999304771423, -0.020328542217612267, -0.11454502493143082, -0.1780306100845337, -0.17468225955963135, -0.3656272888183594, 0.016394613310694695], [0.0169911440461874, 0.031950172036886215, -0.07894905656576157, -0.01811378449201584, 0.05216699093580246, 0.1135537177324295, 0.1267126202583313, 0.031263720244169235, 0.1463141143321991, -0.044335175305604935, -0.1510974019765854, -0.03079429641366005, 0.003546994412317872, -0.029232950881123543, -0.035141780972480774, -0.00042378262151032686, 0.006297294050455093, 0.06555518507957458, 0.003469158662483096, 0.014082100242376328], [0.03962920978665352, 0.014142141677439213, -0.40500232577323914, -0.1248604953289032, -0.20389290153980255, -0.049060504883527756, -0.18269546329975128, -0.1609608232975006, -0.23971471190452576, 0.03431712090969086, 0.22627192735671997, 0.07998885214328766, 0.3018084466457367, -0.04592438414692879, 0.0487213097512722, 0.012344849295914173, -0.004627165384590626, -0.19670630991458893, -0.127241313457489, 0.017067978158593178], [0.04598814994096756, 0.038361478596925735, -0.02692173607647419, 0.04435296729207039, -0.16294817626476288, 0.07861831039190292, 0.054206814616918564, 0.015042508020997047, -0.10146859288215637, 0.17501869797706604, 0.16991853713989258, -0.003722776658833027, 0.24166424572467804, -0.25061988830566406, 0.029130522161722183, -0.3112971782684326, -0.04097208008170128, -0.09453006833791733, -0.09302683919668198, 0.013057979755103588], [-0.008097496815025806, -0.019067099317908287, -0.15794265270233154, 0.09627857059240341, 0.035662852227687836, 0.13516680896282196, -0.006697038654237986, 0.046037670224905014, 0.030315620824694633, 0.0002750078565441072, -0.04354076460003853, 0.0712791308760643, -0.12929685413837433, -0.1075608879327774, -0.017219657078385353, -0.008138389326632023, -0.021220657974481583, 0.07821018248796463, -0.009821700863540173, -0.026766682043671608], [0.003464752808213234, 0.028954513370990753, 0.024614598602056503, -0.005215540062636137, 0.04520638287067413, 0.09399602562189102, 0.20743829011917114, 0.005412735976278782, 0.11182665079832077, -0.01543790940195322, -0.1108211800456047, 0.05706087127327919, 0.12621425092220306, -0.07206610590219498, -0.01574791967868805, -0.12562131881713867, 0.021317293867468834, 0.015010896138846874, -0.021051622927188873, 0.011064109392464161], [-0.006795512046664953, 0.0038855234161019325, -0.13331958651542664, -0.03270117565989494, 0.04427633434534073, 0.007432190235704184, 0.019285812973976135, 0.0178470928221941, 0.011684679426252842, -0.05640101432800293, -0.03717181459069252, -0.009137422777712345, 0.01888209953904152, -0.022710338234901428, -0.00837158877402544, 0.03319571167230606, 0.07023700326681137, -0.08296408504247665, 0.04393436014652252, 0.009169118478894234], [0.04287619888782501, 0.08314650505781174, -0.01231734175235033, -0.0569470189511776, 0.059453465044498444, 0.04809147119522095, 0.3003852367401123, 0.003224711399525404, 0.10678165405988693, 0.09366089105606079, -0.0845518559217453, -0.08988137543201447, 0.23694397509098053, 0.09804127365350723, 0.008500517345964909, -0.09434624761343002, -0.04286973550915718, -0.0810762420296669, -0.09193770587444305, 0.01568819023668766], [0.013728372752666473, 0.10526178777217865, -0.032472386956214905, 0.03351910784840584, 0.16952352225780487, 0.2078365683555603, 0.4106011390686035, 0.0160350501537323, 0.3478667140007019, -0.004101235885173082, -0.35972002148628235, 0.04193544015288353, 0.19423674046993256, 0.0027215827722102404, -0.0631645992398262, -0.00895014964044094, 0.1212591752409935, 0.19443239271640778, -0.008363058790564537, 0.024829553440213203], [0.039452578872442245, -0.41916000843048096, -0.01757175475358963, 0.13908791542053223, -0.7930748462677002, -0.44092729687690735, -0.20949670672416687, -0.40636637806892395, -0.6057039499282837, 0.17272914946079254, 0.6593112945556641, -0.4493945837020874, -0.05741148814558983, -0.042789753526449203, 0.35989704728126526, 0.046011004596948624, -0.4867069721221924, -0.14349716901779175, 0.12988634407520294, -0.05588943511247635], [0.010766669176518917, -0.22106260061264038, -2.2520899772644043, -0.0102914497256279, 0.17599855363368988, 0.042556919157505035, -0.20180438458919525, -0.10848165303468704, -0.4407329261302948, 0.06134060397744179, -0.3627263307571411, -0.2702057659626007, -0.028111353516578674, 0.14268416166305542, 0.21920129656791687, 0.013872411102056503, -0.18950185179710388, -0.638730525970459, -0.5280566215515137, -0.11406061053276062], [0.0064380718395113945, 0.005150915589183569, 0.06276296824216843, -0.01298545952886343, -0.05220964550971985, -0.05051364749670029, -0.021073797717690468, 0.001939995912835002, -0.011350746266543865, -0.016599636524915695, 0.06397616863250732, -0.0329301618039608, 0.033227335661649704, 0.0012617988977581263, -0.009137208573520184, -0.03845991566777229, -0.0013199332170188427, 0.03358127921819687, 0.017130035907030106, 0.009562165476381779], [-0.08373280614614487, -0.22454684972763062, 0.03229577839374542, 0.7426548600196838, -0.28395843505859375, -0.21093596518039703, -0.3856866955757141, 0.2374616265296936, -0.31073370575904846, 0.056665658950805664, 0.5093249082565308, 0.01522551104426384, -0.13073331117630005, -1.2433313131332397, 0.04631244018673897, -0.3032223582267761, 0.2070556879043579, 0.16394053399562836, -0.012958316132426262, -0.11009673774242401], [0.014282716438174248, 0.01787382736802101, 0.12280382961034775, -0.04772389680147171, 0.05167621001601219, 0.0027602093759924173, 0.1302470862865448, 0.035221561789512634, 0.10229600965976715, -0.06016599386930466, -0.09578507393598557, -0.05493975430727005, -0.03866258263587952, 0.046270713210105896, -0.06195346638560295, 0.019258549436926842, 0.029249699786305428, 0.1849038302898407, 0.11528826504945755, 0.02392040751874447], [0.010092558339238167, 0.07000000774860382, -0.11502789705991745, 0.017115779221057892, 0.12729497253894806, 0.08746010810136795, 0.21425287425518036, 0.022781290113925934, 0.1970938742160797, 0.004269993398338556, -0.2211758941411972, -0.01654563657939434, 0.16622187197208405, 0.0755186453461647, -0.039160504937171936, -0.023336026817560196, 0.07566206902265549, 0.09911665320396423, -0.04593939706683159, 0.0161178857088089], [0.018675895407795906, 0.03517025709152222, 0.12884055078029633, 0.1336035281419754, -0.00543474406003952, 0.06054861098527908, 0.10952600091695786, 0.05331754684448242, 0.08972141146659851, 0.02343563735485077, -0.047547634690999985, -0.0902944952249527, 0.08262509107589722, -0.0625983327627182, -0.03628940135240555, -0.14165587723255157, 0.004188764840364456, 0.22477133572101593, -0.050317082554101944, 0.01531643234193325], [0.006165526807308197, 0.004688646644353867, 0.11904139071702957, -0.030402934178709984, -0.02540898136794567, -0.012834111228585243, -0.0980815589427948, -0.008179869502782822, -0.11215183138847351, -0.007172744255512953, 0.055147022008895874, -0.027702417224645615, 0.06837811321020126, 0.09639403223991394, -0.0003790826885960996, -0.02307059057056904, 0.006245181895792484, -0.09909630566835403, -0.004145999904721975, 0.01399270910769701], [5.0386130169499665e-05, -0.005923721939325333, 0.041405271738767624, -0.006052754819393158, -0.014601079747080803, -0.009053638204932213, -0.010100016370415688, 0.0019828120712190866, -0.009791268967092037, -0.011018085293471813, 0.013774221763014793, -0.00880653876811266, -0.013885942287743092, -0.0018432228825986385, -0.002530579222366214, -0.004812606144696474, -0.009417855180799961, 0.010615911334753036, 0.01201740000396967, 0.0021242336370050907], [0.0045254831202328205, 0.0591498501598835, 0.038652125746011734, 0.04664912819862366, -0.006975769996643066, 0.0807148665189743, -0.0190312247723341, -0.024549029767513275, 0.0396285317838192, 0.01970837637782097, -0.017255494371056557, 0.009976617060601711, 0.13803836703300476, -0.028837900608778, -0.03157905489206314, 0.03540567308664322, 0.014902586117386818, 0.05386975780129433, -0.030741849914193153, 0.020953897386789322], [0.07072217017412186, 0.31543973088264465, 0.40143418312072754, -0.018598811700940132, 0.833649218082428, 0.593390941619873, 1.496346354484558, 0.131486177444458, 1.419658899307251, -0.16558247804641724, -1.5010918378829956, 0.019143108278512955, 0.8496569991111755, 0.4124664068222046, -0.29157403111457825, -0.09445671737194061, 0.17519482970237732, 0.9379566311836243, -0.07045663148164749, 0.06489694863557816], [0.015936370939016342, 0.06371056288480759, -0.7127153277397156, -0.09930606186389923, 0.032747846096754074, 0.015585117042064667, -0.11863324046134949, -0.06622307002544403, -0.05820100009441376, 0.2552804946899414, -0.035271402448415756, 0.04452260211110115, 0.3974950313568115, 0.504987895488739, 0.033705610781908035, 0.05016506835818291, -0.04650165140628815, -0.18185946345329285, -0.2045547366142273, -0.02683076076209545], [0.03069792315363884, 0.04167354106903076, -0.20479975640773773, 0.006183032877743244, 0.03885722905397415, 0.17304755747318268, 0.10985339432954788, 0.061711519956588745, 0.2053033411502838, -0.12449152767658234, -0.16415861248970032, -0.06673366576433182, -0.04170925170183182, -0.08653642237186432, -0.06995179504156113, 0.05003783106803894, -0.005621291697025299, 0.05429917201399803, 0.026308439671993256, 0.03416550159454346], [0.04795036464929581, 0.001707857009023428, -0.4953482747077942, -0.14600446820259094, 0.4185732901096344, -0.4285857081413269, 0.2505483031272888, 0.12915371358394623, 0.15795905888080597, -0.029229743406176567, -0.45982998609542847, 0.0992041751742363, 0.3557601869106293, -0.12201010435819626, 0.0891982913017273, -0.14971569180488586, -0.0323590524494648, -0.04079248756170273, -0.13426576554775238, 0.022833172231912613], [0.01957244984805584, 0.06209428608417511, 0.013277743011713028, -0.020042182877659798, 0.37655261158943176, 0.22495587170124054, 0.5619766712188721, 0.14265404641628265, 0.33964669704437256, -0.03449537232518196, -0.5620337724685669, -0.027273865416646004, 0.3114268481731415, 0.07304642349481583, -0.04884820431470871, -0.35116949677467346, 0.00348917068913579, 0.1174832209944725, 0.0375090017914772, 0.007272765971720219], [-0.007164608221501112, -0.04236328974366188, -0.0813043937087059, 0.017449889332056046, -0.07672499865293503, 0.0036318760830909014, -0.1586523801088333, 0.011531995609402657, -0.10301376134157181, -0.012107868678867817, 0.08658671379089355, 0.051701921969652176, -0.13487942516803741, -0.07932298630475998, -0.0003308432933408767, 0.00594028364866972, -0.04500803351402283, -0.012599524110555649, -0.0028753108344972134, -0.018710441887378693], [0.008530684746801853, 0.04876991733908653, 0.014034029096364975, 0.04013720527291298, 0.1573977917432785, 0.18975204229354858, 0.30817392468452454, 0.05437198281288147, 0.20818482339382172, -0.10358282923698425, -0.2529577612876892, 0.08352920413017273, 0.200550839304924, -0.11758501082658768, -0.04758410155773163, -0.18004213273525238, 0.05554403364658356, 0.10334430634975433, 0.01025102287530899, 0.01114813331514597], [-0.004723475780338049, -0.021373892202973366, -0.24420487880706787, -0.22953671216964722, 0.011051535606384277, -0.01881060004234314, -0.0030870777554810047, -0.028014469891786575, -0.04327251762151718, -0.09945409744977951, -0.008074197918176651, -0.06058458611369133, -0.03934764862060547, 0.05295664072036743, 0.012309376150369644, 0.045956164598464966, 0.015173203311860561, -0.20020239055156708, 0.05583970993757248, 0.028452040627598763], [0.051450878381729126, 0.194522887468338, 0.03211557865142822, -0.011307037435472012, 0.19774775207042694, 0.19062687456607819, 0.4594462513923645, 0.08313799649477005, 0.2799820601940155, 0.02253822796046734, -0.16960778832435608, -0.20506012439727783, 0.5812843441963196, 0.15352319180965424, -0.046715278178453445, -0.08791555464267731, -0.021140536293387413, 0.12432257831096649, -0.041826192289590836, 0.038973625749349594], [-0.017278244718909264, 0.08138345927000046, 0.5004080533981323, 0.05640073120594025, -0.06962069869041443, 0.021206500008702278, 0.02514844946563244, -0.06488639861345291, 0.10006650537252426, 0.06042585149407387, -0.033176325261592865, 0.2607584297657013, 0.11488248407840729, -0.14558188617229462, -0.025673141703009605, 0.09566012024879456, 0.18761663138866425, 0.04229028895497322, 0.11767164617776871, 0.034319471567869186], [0.15920603275299072, 0.558652937412262, -0.0906941369175911, -0.8848173022270203, 0.43647098541259766, 0.3701320290565491, 1.0854718685150146, 0.4932797849178314, 0.7010298371315002, -0.4762938916683197, -0.7248377799987793, -0.24167972803115845, 0.8613074421882629, 0.9510669112205505, -0.5828289985656738, -0.06325066089630127, -0.10627532750368118, 0.5859395861625671, -0.09354276210069656, 0.41772931814193726], [0.021074887365102768, -0.09777860343456268, -1.3006685972213745, 0.05092935636639595, 0.112934410572052, 0.14677120745182037, -0.20003005862236023, -0.09887014329433441, -0.17763838171958923, 0.14334776997566223, -0.4161768853664398, 0.21507661044597626, -0.2170681208372116, -0.016439873725175858, 0.05739320069551468, 0.40427446365356445, 0.04168885201215744, -0.211317777633667, -0.12965689599514008, -0.14111821353435516], [0.004889818839728832, 0.002683377591893077, 0.05144483968615532, -0.0087526123970747, 0.005713254678994417, -0.05021354928612709, -0.02472895383834839, 0.003362045856192708, -0.007544039748609066, -0.012077728286385536, -0.0008404099498875439, -0.030661597847938538, 0.02108840085566044, -0.004727678839117289, -0.007779611274600029, -0.03216032683849335, 0.0007851377595216036, 0.03573504835367203, 0.017541280016303062, 0.007585382089018822], [-0.0060407682321965694, -0.037106823176145554, -0.539796769618988, -0.3172515332698822, 0.23733018338680267, 0.2028159648180008, 0.4675206243991852, 0.06542399525642395, 0.3086269199848175, -0.33419135212898254, -0.2311055213212967, 0.19451598823070526, -0.2927381694316864, -0.3701624870300293, -0.04936289042234421, -0.4798486828804016, -0.21769914031028748, 0.2078133374452591, -0.2135741412639618, -0.04090441018342972], [0.01450588833540678, 0.010561876930296421, 0.12720440328121185, -0.012238986790180206, 0.05827237293124199, 0.001330953324213624, 0.14985647797584534, 0.06942286342382431, 0.12056650221347809, -0.08293993026018143, -0.104180246591568, -0.07424575090408325, -0.06553240865468979, 0.008527439087629318, -0.07290247082710266, 0.022059988230466843, 0.029581597074866295, 0.22280345857143402, 0.148841992020607, 0.017914704978466034], [0.0030560679733753204, 0.036893103271722794, -0.12687206268310547, 0.14744988083839417, 0.09901295602321625, -0.014048922806978226, 0.06424662470817566, 0.09182679653167725, 0.10673759877681732, 0.008963871747255325, -0.08977462351322174, -0.1273745447397232, 0.10853979736566544, -0.021492663770914078, -0.026015102863311768, -0.03337997943162918, 0.12574666738510132, 0.04972294345498085, -0.06418600678443909, -0.004006200470030308], [0.026699336245656013, 0.0608288049697876, 0.09504276514053345, 0.1508803516626358, 0.012656652368605137, 0.09157636761665344, 0.17291410267353058, 0.06793563812971115, 0.14084205031394958, 0.03349015489220619, -0.10477517545223236, -0.10707876086235046, 0.1425221860408783, -0.03739267960190773, -0.05231602489948273, -0.1904793232679367, 0.005334580782800913, 0.2510335147380829, -0.061177611351013184, 0.02860519103705883], [0.006859768647700548, 0.006694742478430271, 0.0569993257522583, -0.04580429941415787, -0.04231012985110283, -0.00431443564593792, -0.044265225529670715, -0.015492821112275124, -0.019603727385401726, -0.011046363040804863, -0.0019708946347236633, -0.024020841345191002, 0.08286740630865097, 0.10549871623516083, -0.0009512698743492365, -0.014047891832888126, -0.004739748314023018, -0.09069382399320602, -0.001186797278933227, 0.015464389696717262], [-0.028300650417804718, 0.029640398919582367, -0.03598978742957115, -0.06900936365127563, 0.2454695999622345, -0.07408320903778076, 0.2519490420818329, 0.030493348836898804, 0.14531324803829193, 0.11736852675676346, -0.05187851935625076, -0.03603002429008484, -0.1044272631406784, 0.2060052752494812, 0.10772697627544403, -0.12148848176002502, 0.025612913072109222, -0.18230915069580078, 0.029942963272333145, 0.0069762724451720715], [0.06769107282161713, 0.051974836736917496, 0.05076553672552109, -0.17007151246070862, -0.020202724263072014, 0.2510366439819336, 0.39260900020599365, -0.16787269711494446, 0.16466008126735687, 0.004100016783922911, 0.030407998710870743, 0.2446247786283493, 0.31316959857940674, 0.17912544310092926, -0.11048250645399094, -0.10034198313951492, 0.005844125524163246, -0.22171801328659058, -0.13022175431251526, 0.07439132034778595], [0.20243485271930695, -0.006722038146108389, 0.4340061843395233, -0.7517079710960388, -0.0845259502530098, -0.2934153974056244, 0.23476989567279816, 0.02877059578895569, -0.15353399515151978, 0.22861914336681366, -0.2864290773868561, -0.42149174213409424, 0.2784338891506195, 0.5241036415100098, -0.06014712154865265, -1.0032209157943726, -0.08087832480669022, -0.09390564262866974, -0.06108355522155762, 0.15987545251846313], [-0.029129967093467712, -0.03099282644689083, 0.2017766237258911, 0.11881717294454575, -0.3303143084049225, 0.08798270672559738, -0.007662646938115358, -0.06104345619678497, 0.051369015127420425, -0.38475826382637024, 0.16338010132312775, -0.7437113523483276, 0.674889862537384, -0.714367151260376, -0.08034448325634003, 0.5074957013130188, 0.2540353536605835, 0.0907972976565361, -0.30750665068626404, 0.18860125541687012], [0.06895405799150467, -0.011408217251300812, -0.1287546306848526, -0.2481006234884262, 0.018547911196947098, 0.14599591493606567, -0.014896835200488567, 0.13533680140972137, 0.0407818928360939, -0.1668429970741272, -0.2335398942232132, -0.28212225437164307, -0.38087156414985657, -0.05100866034626961, -0.05832548812031746, 0.05790369585156441, -0.16094271838665009, 0.09650538116693497, 0.064332015812397, 0.01625104248523712], [-0.138077974319458, 0.051551204174757004, -0.18933962285518646, -0.03135640546679497, 0.16404572129249573, 0.31458789110183716, 0.19833844900131226, -0.22281065583229065, 0.04685703665018082, 0.07799287885427475, -0.008949007838964462, -0.11880399286746979, 0.39444252848625183, 0.14234429597854614, 0.018597207963466644, 0.22716881334781647, 0.02353145182132721, -0.0818898156285286, 0.1377979815006256, -0.14631910622119904], [0.014086974784731865, 0.2729061245918274, -0.08010789752006531, 0.00941923912614584, 0.13961462676525116, -0.02035394310951233, 0.3150515556335449, 0.22488509118556976, 0.14670422673225403, 0.12642545998096466, -0.19793616235256195, 0.03206215053796768, 0.10490153729915619, 0.23397818207740784, -0.10435314476490021, -0.19404777884483337, -0.13062399625778198, -0.1370168775320053, -0.15752732753753662, 0.017054783180356026], [0.05692947283387184, 0.20175610482692719, 0.11743716150522232, 0.1503700613975525, -0.14164389669895172, 0.20833855867385864, 0.08433303236961365, -0.21578510105609894, 0.08084382116794586, -0.03448444604873657, 0.113169826567173, 0.019318029284477234, -0.1891038715839386, -0.2355773001909256, -0.14119648933410645, 0.0905657410621643, 0.14667952060699463, 0.17462918162345886, 0.06984572112560272, 0.14007572829723358], [0.011492397636175156, 0.058931101113557816, 0.14775896072387695, -0.0010825453791767359, 0.021360158920288086, 0.2601402699947357, 0.43520587682724, -0.03797723725438118, 0.16666093468666077, -0.03366539999842644, -0.22703102231025696, 0.16850541532039642, 0.3037824034690857, -0.026432618498802185, -0.09488328546285629, -0.24405896663665771, 0.03780347481369972, 0.054624877870082855, -0.02497601881623268, 0.04917081817984581], [0.09669703990221024, 0.04399678483605385, 0.1467866450548172, 0.3532991111278534, 0.06130358576774597, 0.03552570939064026, -0.15613101422786713, -0.01298883929848671, 0.06177574396133423, 0.030428826808929443, -0.07499239593744278, 0.09847201406955719, 0.27128833532333374, 0.12149365991353989, -0.03201784938573837, -0.013730662874877453, 0.24703019857406616, 0.28046751022338867, -0.20395861566066742, -0.018824677914381027], [-0.08208891749382019, -0.3413139283657074, 0.08706210553646088, -0.009968038648366928, -0.05602933466434479, -0.16333478689193726, -0.027187692001461983, -0.15328848361968994, -0.07437828928232193, -0.17182686924934387, 0.025971794500947, 0.2450704276561737, -0.23660676181316376, 0.01103314571082592, 0.11111079156398773, 0.18338742852210999, 0.2854222357273102, -0.038494206964969635, 0.027368860319256783, -0.12524034082889557], [-0.14005351066589355, -0.1470424085855484, -0.26792749762535095, 0.5539134740829468, 0.061697330325841904, -0.35788694024086, 0.08410757780075073, -0.13726098835468292, -0.17041687667369843, -0.020314686000347137, -0.19961363077163696, -0.36523565649986267, -0.21153628826141357, -0.35289865732192993, 0.03862133249640465, -0.33789971470832825, -0.02712022326886654, 0.2895471453666687, -0.0904311090707779, -0.3199077546596527], [-0.1389724463224411, -0.19443631172180176, -0.012134362012147903, -0.019124148413538933, 0.08486996591091156, -0.1307583600282669, 0.30999380350112915, -0.17163895070552826, 0.07314205914735794, 0.06002667546272278, -0.20787353813648224, -0.3172186315059662, 0.24318525195121765, 0.09939444065093994, 0.041469868272542953, 0.27356255054473877, 0.1380235254764557, -0.14485643804073334, 0.12376926094293594, 0.04680701717734337], [0.12533871829509735, 0.1397743672132492, 0.3036690056324005, -0.061335980892181396, 0.009297401644289494, 0.07479960471391678, 0.030369341373443604, -0.448616623878479, -0.05491795390844345, 0.0478852279484272, -0.20935095846652985, 0.7572953701019287, -0.3109934329986572, 0.278070867061615, -0.11529388278722763, -0.01199860405176878, 0.060992222279310226, -0.15606552362442017, 0.1270257830619812, 0.04290664941072464], [-0.000687281193677336, -0.06065281853079796, -0.14466695487499237, 0.0774916410446167, -0.17255103588104248, -0.12362752854824066, -0.31114688515663147, 0.0038099794182926416, -0.12496808171272278, -0.010488927364349365, 0.24639244377613068, 0.04020356014370918, 0.019303835928440094, -0.009095871821045876, -0.05392850190401077, 0.052622225135564804, 0.07096928358078003, -0.00042238199966959655, -0.03372568637132645, -0.027135632932186127], [0.1262471079826355, -0.015277042984962463, 0.40528616309165955, -0.5744179487228394, -0.157532200217247, 0.2288948893547058, -0.005722482223063707, -0.20379148423671722, -0.09226784855127335, -0.130655899643898, -0.09684097021818161, -0.15639962255954742, 0.04084587097167969, 0.8188033699989319, -0.11352307349443436, 0.41444140672683716, 0.1378602236509323, 0.002418908989056945, 0.029180357232689857, 0.11989780515432358], [-0.06427597254514694, 0.08626627922058105, 0.2528713345527649, 0.2664150893688202, 0.09362576901912689, 0.24961163103580475, -0.03138093277812004, 0.12453832477331161, -0.07749132812023163, 0.1836785525083542, -0.1610206961631775, -0.029745973646640778, 0.21189603209495544, -0.2861901521682739, 0.06389841437339783, 0.4110706150531769, 0.16681763529777527, -0.09091109782457352, 0.18512491881847382, -0.06221261993050575], [0.029632797464728355, -0.021739136427640915, 0.6957504749298096, 0.3707117438316345, -0.09046489745378494, 0.19666652381420135, 0.24248328804969788, 0.08975785225629807, 0.17694656550884247, -0.4235789477825165, -0.08074270933866501, -0.29414865374565125, 0.04882204160094261, -0.15927386283874512, -0.12923221290111542, 0.0330384261906147, -0.069424107670784, 0.022658927366137505, 0.04058270901441574, 0.16682082414627075], [0.09239271283149719, -0.07697635889053345, 0.55365389585495, 0.2772769629955292, -0.018578222021460533, -0.07605856657028198, 0.06144106760621071, -0.008481612429022789, -0.09567537903785706, -0.22567437589168549, -0.03673457354307175, 0.2509997487068176, -0.41779860854148865, -0.04377724975347519, -0.08835993707180023, 0.1309289038181305, -0.03719523176550865, 0.018817579373717308, 0.12286920100450516, 0.058791544288396835], [-0.013997639529407024, 0.0031452407129108906, 0.11274248361587524, -0.19225551187992096, 0.060320086777210236, -0.05353422835469246, 0.35319045186042786, -0.10416276007890701, 0.0661272406578064, 0.13001054525375366, 0.03631841018795967, 0.04716576635837555, 0.09455404430627823, 0.2555326223373413, 0.10304088145494461, -0.1078350692987442, 0.02371375449001789, -0.1384885162115097, 0.16268643736839294, 0.025471553206443787], [-0.0010083906818181276, -0.009949936531484127, 0.06997629255056381, 0.00041044692625291646, -0.02558225393295288, -0.01498894952237606, -0.03038935922086239, 0.0018456868128851056, -0.023876462131738663, -0.01028932724148035, 0.03508257493376732, -0.007495524827390909, -0.021730594336986542, -0.005063056480139494, -0.0014084610156714916, -0.0032694756519049406, -0.009733004495501518, 0.01437726616859436, 0.017319289967417717, 0.0019004098139703274], [-0.00015473266830667853, 0.04058663919568062, 0.10979793965816498, 0.12972109019756317, 0.0076929242350161076, 0.10695722699165344, 0.026351261883974075, -0.013353394344449043, 0.02615007758140564, 0.03659973293542862, -0.034873392432928085, 0.025605352595448494, 0.13420939445495605, -0.09694664180278778, -0.02992238663136959, 0.03625675290822983, 0.029637198895215988, 0.09192793816328049, -0.025857573375105858, 0.01187905389815569], [0.015120087191462517, 0.13603174686431885, 0.27548739314079285, -0.10479563474655151, 0.29712894558906555, 0.2697155177593231, 0.47833412885665894, 0.07606044411659241, 0.5226618647575378, -0.13490228354930878, -0.5632994771003723, 0.02228449285030365, 0.30696380138397217, 0.3145916163921356, -0.14931631088256836, -0.006913456600159407, 0.1305766999721527, 0.5395317077636719, -0.03571218252182007, 0.01155376061797142], [0.023087210953235626, 0.11421062797307968, -0.6552701592445374, -0.25286173820495605, 0.19197052717208862, 0.1782003939151764, 0.29653871059417725, 0.04055475443601608, 0.21445076167583466, 0.039575330913066864, -0.30543625354766846, -0.029155308380723, 0.37440982460975647, 0.32831665873527527, -0.046614065766334534, -0.08714554458856583, -0.005850353743880987, 0.03578440472483635, -0.1923658698797226, -0.002798085566610098], [0.03556644916534424, 0.03763364627957344, -0.45606157183647156, 0.40831422805786133, -0.04613767936825752, 0.26779642701148987, 0.021752487868070602, 0.12683293223381042, 0.1391705721616745, -0.012364786118268967, -0.08825190365314484, 0.24410969018936157, 0.06421995908021927, -0.2891736924648285, -0.07509652525186539, 0.05616303160786629, 0.07792782783508301, 0.07706411927938461, -0.05574940890073776, -0.018004493787884712], [0.04640737175941467, 0.05826858431100845, -0.3457959294319153, 0.3472718894481659, 0.13348834216594696, -0.1608121395111084, -0.11340241879224777, 0.027996674180030823, -0.10820264369249344, -0.03271274268627167, -0.012934957630932331, 0.1939794421195984, 0.3240814208984375, -0.3865465521812439, 0.04061655327677727, 0.02811264805495739, 0.04837821424007416, 0.11865059286355972, -0.09260040521621704, 0.004248720593750477], [0.03133799508213997, 0.03950529918074608, -0.032164640724658966, 0.1116042360663414, 0.1254163384437561, 0.21818807721138, 0.5203652381896973, 0.2018505036830902, 0.09423623979091644, -0.1678164005279541, -0.3327135145664215, -0.15440818667411804, 0.5795559883117676, 0.15635168552398682, -0.04362049698829651, -0.26650941371917725, 0.0011869510635733604, 0.2867608070373535, 0.19489866495132446, 0.01719818077981472], [-0.011774687096476555, -0.030517978593707085, -0.20257335901260376, 0.12064625322818756, 0.07783185690641403, 0.16625426709651947, -0.008549210615456104, 0.04481099173426628, 0.05717433989048004, 0.009317542426288128, -0.021917782723903656, 0.06637530773878098, -0.1780979037284851, -0.13556846976280212, -0.01361333578824997, 0.024331578984856606, -0.025862419977784157, 0.06797348707914352, -0.012797186151146889, -0.039182741194963455], [0.026928415521979332, 0.10822321474552155, 0.14729773998260498, 0.3905772864818573, 0.19356989860534668, 0.36080917716026306, 0.438765287399292, 0.18111562728881836, 0.1531541794538498, -0.1064009815454483, -0.17346583306789398, 0.2533961236476898, 0.35991889238357544, -0.28931865096092224, -0.10171741992235184, -0.01161984633654356, 0.20642730593681335, 0.279186487197876, 0.06067943945527077, 0.009876114316284657], [-0.0007117594941519201, 0.01613610051572323, -0.12847037613391876, -0.11174528300762177, 0.06190359964966774, 0.023394640535116196, 0.05294135957956314, 0.009847265668213367, 0.032876189798116684, -0.09239260107278824, -0.0707211121916771, -0.04573647677898407, 0.018717139959335327, 0.03133341297507286, -0.01982560195028782, 0.051726408302783966, 0.05285179987549782, -0.0770219936966896, 0.04428207501769066, 0.022686460986733437], [0.059275418519973755, 0.18996794521808624, -0.1673402637243271, 0.2079847902059555, 0.21504968404769897, 0.16649273037910461, 0.4688001275062561, 0.06784447282552719, 0.1305609792470932, -0.07891181111335754, -0.2897907793521881, -0.14047372341156006, 0.4240284860134125, 0.21573889255523682, -0.11226984858512878, -0.03397791087627411, 0.05272556096315384, 0.24340905249118805, 0.08058589696884155, 0.025291331112384796], [0.014573434367775917, 0.1084480881690979, -0.011040214449167252, 0.013964207842946053, 0.17368213832378387, 0.19738014042377472, 0.4279802143573761, 0.014451737515628338, 0.3629940450191498, -0.012161215767264366, -0.37456369400024414, 0.0419350229203701, 0.18971675634384155, 0.011896769516170025, -0.06879620254039764, -0.011461768299341202, 0.12122940272092819, 0.20481283962726593, 0.006249601021409035, 0.02901110053062439], [0.03745265305042267, 0.22193889319896698, 0.19813671708106995, -0.01772109977900982, -0.07249941676855087, 0.18013395369052887, 0.6182474493980408, 0.06767827272415161, 0.2814991772174835, -0.10338304191827774, -0.19134922325611115, -0.04153691604733467, 0.7745698094367981, 0.36498841643333435, -0.22335338592529297, -0.28020524978637695, 0.08892930299043655, 0.34999626874923706, -0.10915499925613403, 0.13983359932899475], [0.021166032180190086, -0.03738599643111229, -1.6888110637664795, -0.2231115996837616, 0.20047546923160553, 0.3289608359336853, 0.005464355926960707, -0.04348738491535187, -0.14586184918880463, 0.18342231214046478, -0.4825861155986786, 0.03806290403008461, 0.29787907004356384, 0.06020847335457802, 0.0906059518456459, -0.10908763855695724, -0.005320919677615166, -0.432328999042511, -0.3150005340576172, -0.051680032163858414], [0.007086608093231916, 0.005562868434935808, 0.06888089329004288, 4.6050608943914995e-05, -0.012591041624546051, -0.062438301742076874, -0.07976463437080383, 0.0027262733783572912, -0.02621183544397354, -0.021952632814645767, -0.028577983379364014, -0.04507160186767578, 0.021630974486470222, 0.01114666648209095, -0.010398177430033684, -0.02684575319290161, -0.006923219654709101, 0.058176036924123764, 0.018472986295819283, 0.010731233283877373], [-0.026695391163229942, -0.10304991155862808, -0.04316776245832443, 0.33075299859046936, -0.06936714798212051, -0.1350899338722229, 0.1591821014881134, 0.1979736089706421, 0.09989731013774872, -0.11608733981847763, 0.061821725219488144, -0.09240955859422684, -0.026133568957448006, -0.8190858960151672, -0.06892421096563339, -0.586638867855072, 0.030876094475388527, 0.37755560874938965, 0.011425434611737728, -0.025514191016554832], [0.014034370891749859, 0.010925045236945152, 0.1271570473909378, -0.04257424548268318, 0.04386560246348381, -0.0013219451066106558, 0.1249326691031456, 0.03924596309661865, 0.08992035686969757, -0.0720951035618782, -0.08808229118585587, -0.07887278497219086, -0.05080953240394592, 0.04736287146806717, -0.059413693845272064, 0.04280419275164604, 0.01899237558245659, 0.18196435272693634, 0.10911984741687775, 0.021528515964746475], [0.022079214453697205, 0.08972455561161041, -0.13331696391105652, -0.05056653916835785, 0.1610044538974762, 0.07938096672296524, 0.2888699173927307, -0.004115577787160873, 0.2614574134349823, -0.05610978975892067, -0.2800886034965515, -0.07386792451143265, 0.16590726375579834, 0.13883990049362183, -0.06432073563337326, 0.012298927642405033, 0.0537504218518734, 0.14756044745445251, -0.043738558888435364, 0.03770703822374344], [0.01861962303519249, 0.025387195870280266, 0.16351626813411713, 0.2015552967786789, -0.02069700136780739, 0.041647762060165405, 0.08870065212249756, 0.08057770133018494, 0.06952028721570969, 0.021397214382886887, -0.022477956488728523, -0.14768880605697632, 0.06874252110719681, -0.12314211577177048, -0.038906704634428024, -0.1329887956380844, 0.005822902545332909, 0.24213765561580658, -0.03493604063987732, 0.018933486193418503], [0.007009034976363182, 0.009648042730987072, 0.10228072106838226, -0.05978161841630936, -0.003506455337628722, 0.010431415401399136, -0.08382246643304825, -0.00870979018509388, -0.09014882147312164, -0.009325205348432064, 0.09357056021690369, -0.02968844212591648, 0.10367505997419357, 0.1475927084684372, -0.0029241868760436773, -0.021797655150294304, 0.006186407990753651, -0.08213143795728683, -0.0038044662214815617, 0.01662445440888405]], "rec.bias_ih_l0": [-0.07391491532325745, -0.032952725887298584, -0.9829589128494263, 0.1279464215040207, 0.13920380175113678, -0.2362978160381317, -0.30252283811569214, 0.1128571629524231, 0.008887371979653835, 0.15797059237957, 0.005886780098080635, 0.36268314719200134, -0.6835354566574097, -0.03456096351146698, -0.1291630119085312, -0.431966096162796, 0.05577080324292183, 0.2896895706653595, -0.00935237854719162, -0.0298642348498106, -0.04911622405052185, -0.03651118651032448, 1.5860949754714966, 0.03823934122920036, 0.19361406564712524, 0.42141908407211304, 0.6040732264518738, -0.1851927638053894, 0.1476956456899643, 0.06509740650653839, 0.30906227231025696, -0.12486907094717026, 0.5446658134460449, -0.08050645887851715, -0.020191702991724014, 0.36505964398384094, 0.05466000363230705, 0.07566896826028824, 0.013591925613582134, -0.006905730348080397, -0.10556620359420776, 0.10440339893102646, -0.2578338086605072, 0.010328306816518307, 0.15014506876468658, 0.016933869570493698, 0.1335090696811676, 0.1552574187517166, -0.008424591273069382, -0.03467885032296181, -0.13177289068698883, -0.15115489065647125, -0.04786204546689987, 0.00917862169444561, -0.16956718266010284, 0.0568537712097168, -0.06091305613517761, 0.23635680973529816, 0.1533547341823578, 0.0617065392434597, -0.02812161110341549, -0.0569164864718914, 0.5473650097846985, 0.17453119158744812, 0.00094369996804744, 0.10573434829711914, 0.18031606078147888, -0.010286030359566212, 0.06240187957882881, 0.155156672000885, 0.09620912373065948, 0.40327590703964233, 0.015626130625605583, 0.057128239423036575, -0.15192505717277527, -0.16203631460666656, 0.04742845892906189, 0.2892947793006897, -0.013032590039074421, -0.15682430565357208], "rec.bias_hh_l0": [-0.1194886863231659, 0.04270084947347641, -0.9748790264129639, 0.11274442076683044, 0.11949463933706284, -0.25552016496658325, -0.2228604555130005, 0.10118510574102402, 0.14542913436889648, 0.09789849072694778, -0.14619773626327515, 0.34160563349723816, -0.7094531059265137, -0.12159111350774765, -0.11488398164510727, -0.41096046566963196, 0.08823409676551819, 0.24552929401397705, -0.030836492776870728, -0.17913933098316193, -0.029798921197652817, 0.10579117387533188, 1.5078259706497192, 0.028825487941503525, 0.06996512413024902, 0.3172183334827423, 0.4670352339744568, -0.11464107781648636, 0.19062533974647522, 0.04136498644948006, 0.25176167488098145, -0.1318044811487198, 0.389080286026001, 0.09537392109632492, 0.049772948026657104, 0.39943209290504456, 0.10412660986185074, 0.10651537030935287, 0.01748526096343994, 0.02503741905093193, -0.10388392210006714, -0.2190648466348648, 0.007291446905583143, 0.11138635128736496, 0.13154873251914978, 0.0442623570561409, -0.05542200431227684, -0.04002179577946663, 0.09971098601818085, -0.33303898572921753, -0.13721288740634918, 0.056284721940755844, -0.14921841025352478, 0.20302744209766388, 0.10406807065010071, -0.0304070133715868, 0.21471482515335083, 0.07287609577178955, 0.18949177861213684, -0.11272818595170975, -0.050862785428762436, 0.07433272898197174, 0.5970563292503357, 0.268496572971344, -0.13125833868980408, -0.015989061444997787, 0.18164396286010742, -0.07145154476165771, 0.023271620273590088, 0.12537594139575958, 0.06919468194246292, 0.409654825925827, -0.09629795700311661, 0.05571945384144783, -0.17149414122104645, -0.21816802024841309, 0.09413210302591324, 0.26613712310791016, -0.025474578142166138, -0.09217130392789841], "lin.weight": [[-0.06331609189510345, -0.1365870088338852, -0.021795567125082016, -0.18388405442237854, 0.09724412858486176, -0.16498549282550812, 0.12786827981472015, 0.12841033935546875, 0.031464044004678726, -0.06429198384284973, -0.11047091335058212, -0.5298004746437073, -0.24582500755786896, 0.3559650480747223, 0.0026496381033211946, 0.18357910215854645, 0.03563717380166054, 0.029128091409802437, 0.07157625257968903, 0.0263605285435915]], "lin.bias": [-0.12311750650405884]}}